%YAML:1.0
my_nn: !!opencv-ml-ann-mlp
   layer_sizes: !!opencv-matrix
      rows: 1
      cols: 3
      dt: i
      data: [ 256, 16, 43 ]
   activation_function: SIGMOID_SYM
   f_param1: 1.
   f_param2: 1.
   min_val: -9.4999999999999996e-01
   max_val: 9.4999999999999996e-01
   min_val1: -9.7999999999999998e-01
   max_val1: 9.7999999999999998e-01
   training_params:
      train_method: BACKPROP
      dw_scale: 1.0000000000000001e-01
      moment_scale: 1.0000000000000001e-01
      term_criteria: { epsilon:1.0000000000000000e-04, iterations:10000 }
   input_scale: [ 4.5672598411484827e-02, -1.1242485762827036e-01,
       2.6437540070997689e-02, -1.9158742980937749e-01,
       1.6795535145647314e-02, -3.2180675993807578e-01,
       1.1337524941390693e-02, -4.9307332028759709e-01,
       9.5914789829202284e-03, -6.5083718444680816e-01,
       9.2425164816289564e-03, -8.0089960127346305e-01,
       8.9322157448873014e-03, -8.4360769664934010e-01,
       9.0206238659056165e-03, -8.5693035500505310e-01,
       8.9331873077953174e-03, -8.6110771885238524e-01,
       8.8496615875658397e-03, -8.0818399876446623e-01,
       9.5588093576837660e-03, -6.8869383189542743e-01,
       1.1050299605405557e-02, -5.6136938700537842e-01,
       1.3022690655929575e-02, -4.2319570692458314e-01,
       1.7371613676371644e-02, -2.9203241580951689e-01,
       2.4352709353667915e-02, -2.0723219017303948e-01,
       5.3991600167429030e-02, -9.2754800287634484e-02,
       2.4734906239962096e-02, -2.0572782593814626e-01,
       1.4970888775340044e-02, -3.1342899192474732e-01,
       1.1187885180493920e-02, -4.9305583728138264e-01,
       8.9453698914155992e-03, -7.2380084265636790e-01,
       8.5387476803575665e-03, -9.0521672524200913e-01,
       8.2748717332827293e-03, -1.0020551404707951e+00,
       8.5097214071579996e-03, -1.1880334777339365e+00,
       8.6210223268954212e-03, -1.2313417242097457e+00,
       8.4781249723661582e-03, -1.1487044133231878e+00,
       8.4254343412849732e-03, -1.0796708025606234e+00,
       8.3243706295000816e-03, -9.4577657075166310e-01,
       8.6605802870719246e-03, -7.9835560780921677e-01,
       9.5252368130135812e-03, -6.0784443893301410e-01,
       1.1795516450970130e-02, -4.3582921040635786e-01,
       1.8396818702448036e-02, -2.7176582499866347e-01,
       3.6713113134628252e-02, -1.5332431543083530e-01,
       2.1737935028415499e-02, -2.2539173018244915e-01,
       1.3646862876703487e-02, -3.5276265737376161e-01,
       1.0429826337640788e-02, -5.4395555822465036e-01,
       8.7002019417527915e-03, -7.5658294578088703e-01,
       8.4679409803167602e-03, -8.7694756735581680e-01,
       8.7889189948085686e-03, -9.3976643136477145e-01,
       8.4973553420649144e-03, -1.0108584643464147e+00,
       8.3820002305053133e-03, -1.0071832969283467e+00,
       8.4264537808731756e-03, -9.9748146631086221e-01,
       8.4368978886756284e-03, -9.0272103274890547e-01,
       8.4668821396215142e-03, -8.9510141183742309e-01,
       8.4300783984650011e-03, -8.7024347774923316e-01,
       9.0750598494202320e-03, -6.9496924673781280e-01,
       1.1516661370224222e-02, -4.4785786027221308e-01,
       1.6992460759814268e-02, -2.8478710677265640e-01,
       3.1640677220700360e-02, -1.6438954414985668e-01,
       1.9036547052702423e-02, -2.4454641213856190e-01,
       1.2946382507208578e-02, -3.9079817452849480e-01,
       1.0159892855742996e-02, -5.5905461713908899e-01,
       9.0985080770132915e-03, -7.2820142689454770e-01,
       8.7189580528790264e-03, -7.7654617427372563e-01,
       8.9303746811788993e-03, -7.9065301223783568e-01,
       8.6966228456163350e-03, -8.3972583284306956e-01,
       8.7727154553754842e-03, -8.4532986362310436e-01,
       8.7013373360732352e-03, -7.9313247596341896e-01,
       8.9106199337104612e-03, -7.4272301921818673e-01,
       8.8418194104484260e-03, -7.9332657876952961e-01,
       8.6331339015966006e-03, -8.7966653803095363e-01,
       9.0677889064202204e-03, -6.7479462445277150e-01,
       1.1263755941761690e-02, -4.7159757649754153e-01,
       1.7768009204566036e-02, -2.9402638308709755e-01,
       3.2199984012743661e-02, -1.7214606837582186e-01,
       1.7741181117298159e-02, -2.7129222791868435e-01,
       1.2798752650087977e-02, -4.0886271686995790e-01,
       9.8735470743760313e-03, -5.6222255552360445e-01,
       9.0147634107397758e-03, -7.4389134222085351e-01,
       8.7025745679863032e-03, -8.2085918897842591e-01,
       8.9948234268646277e-03, -7.5850578320771911e-01,
       9.1386487003678411e-03, -7.4641084881882602e-01,
       8.8814547073898468e-03, -7.3123977090843073e-01,
       9.2221197196281079e-03, -7.2065545155209265e-01,
       9.4261263836086257e-03, -7.0674799516588649e-01,
       9.1618493906642090e-03, -7.5224069179693920e-01,
       8.7005927277698600e-03, -7.8782193959046898e-01,
       9.1819391599748564e-03, -6.6913381628316770e-01,
       1.1884045923735393e-02, -4.2950160844884711e-01,
       1.5356707318980648e-02, -3.0772478896880456e-01,
       2.9095187468778563e-02, -1.8790641906919486e-01,
       2.3268146210643340e-02, -2.2865428295459128e-01,
       1.3204837234986199e-02, -3.9851521604048096e-01,
       9.9072577447874861e-03, -5.9535633159301460e-01,
       8.8220971724253007e-03, -7.8745700049638523e-01,
       8.4410665902667423e-03, -8.3653134285592201e-01,
       8.9954291479357618e-03, -7.5861452480924918e-01,
       9.2760735463184290e-03, -7.0224633706423489e-01,
       9.3130185163326877e-03, -7.0361048867626330e-01,
       9.3052701697721608e-03, -7.0060929986576237e-01,
       9.0912158717035146e-03, -7.3504811403715664e-01,
       8.9655532542454383e-03, -7.4681334463007909e-01,
       9.0498739897715199e-03, -6.9425876264481201e-01,
       1.0005811403367249e-02, -5.7055573935034209e-01,
       1.2652914084754463e-02, -4.1677563477250518e-01,
       1.5333903456514916e-02, -3.0348350591019108e-01,
       2.3797923966867592e-02, -2.1212187997390633e-01,
       1.8554877513236354e-02, -2.7808527965350383e-01,
       1.2226047004866012e-02, -4.3147757554672966e-01,
       9.7013414277790696e-03, -5.8301330695787679e-01,
       8.6118811789554529e-03, -8.6251302269230767e-01,
       8.5600474579759309e-03, -9.1222121131487732e-01,
       9.1078891612799747e-03, -7.8841625149951788e-01,
       8.7588663616089187e-03, -7.8824182596556158e-01,
       8.7579054501202552e-03, -7.9966413609944176e-01,
       8.5069368049946904e-03, -8.3329808536617855e-01,
       8.7924906835744540e-03, -8.0952912620628126e-01,
       8.6081632293805513e-03, -8.2963932149831143e-01,
       9.3462903331246079e-03, -6.8836027424637936e-01,
       1.0056202113530513e-02, -5.5476714992976661e-01,
       1.3102068541739986e-02, -4.1846831095653514e-01,
       1.5184337000464376e-02, -3.0899152441009076e-01,
       2.1248048474679964e-02, -2.3481817673300165e-01,
       1.6893388498838958e-02, -2.9866644538331955e-01,
       1.1898915185986042e-02, -4.3026782412914910e-01,
       9.8596868005057445e-03, -5.9085437214440995e-01,
       8.5932580324657309e-03, -7.8567717510935076e-01,
       8.5797277067410326e-03, -8.4843057351308038e-01,
       8.5646006111176516e-03, -8.8091858401082224e-01,
       8.6195056492508713e-03, -8.9247798076618401e-01,
       8.4326540158013805e-03, -8.9259102202513019e-01,
       8.5812882905527740e-03, -9.1360465752337017e-01,
       8.5850931271219035e-03, -9.6667598284910128e-01,
       8.3993469739217543e-03, -9.3464271871992133e-01,
       8.8393289604233836e-03, -7.8485875061092636e-01,
       9.3320628747741233e-03, -6.3676373891367410e-01,
       1.0940604941222265e-02, -4.8994273153447915e-01,
       1.4050275678241336e-02, -3.3445960725095641e-01,
       1.7333813978839124e-02, -2.7756325204577009e-01,
       1.6450039810571623e-02, -3.1096902180369046e-01,
       1.1903080520529586e-02, -4.2263566027700883e-01,
       1.0352819166405066e-02, -5.3960751693615117e-01,
       8.7920306017786505e-03, -7.3173929050123787e-01,
       8.7985397267421137e-03, -8.1045267053474879e-01,
       8.7571273233212378e-03, -8.2956940759000797e-01,
       8.3687901841249697e-03, -9.8124064908865272e-01,
       8.3755875981828837e-03, -9.3497865531125535e-01,
       8.5288637684163299e-03, -9.1174100406406999e-01,
       8.5727496055836398e-03, -9.7951907272259997e-01,
       8.4042200984369882e-03, -1.0053548292755248e+00,
       8.5236686043338884e-03, -8.8935739662014557e-01,
       8.6541272699427619e-03, -7.5587699433721223e-01,
       1.0315807407518331e-02, -5.4382820589378689e-01,
       1.3060734174412640e-02, -3.6846340449737197e-01,
       1.8860978770224104e-02, -2.5395824299266495e-01,
       2.0268291221233362e-02, -2.6231846138250098e-01,
       1.2926171089701585e-02, -3.9205242635207083e-01,
       1.0893959644610016e-02, -5.2018657303012827e-01,
       9.3081696943474890e-03, -6.7006888248411733e-01,
       8.8533428518199047e-03, -7.5698918992948583e-01,
       8.9402002556213406e-03, -7.7974592742297411e-01,
       8.7540173885310019e-03, -8.7436360217561415e-01,
       8.8086137869167833e-03, -8.8913357048516117e-01,
       8.7016224919020304e-03, -8.5328891070430324e-01,
       8.5952432006072346e-03, -9.2610990600901733e-01,
       8.5658876337667573e-03, -9.6569401163497415e-01,
       8.5496411707112144e-03, -9.3684337289831732e-01,
       8.6363413112617929e-03, -8.0805152422549442e-01,
       1.0499920897649855e-02, -5.5262564442406492e-01,
       1.3039449862171740e-02, -4.1057549822427936e-01,
       2.0668295801873661e-02, -2.3735417903241451e-01,
       2.5294338873338731e-02, -2.3810728612498669e-01,
       1.2585151947414448e-02, -3.8961532903870560e-01,
       1.0427760357138797e-02, -5.1771156388487172e-01,
       9.9261123279757429e-03, -6.1700968746397933e-01,
       9.0684716969094432e-03, -7.2268743676909097e-01,
       8.8113381766956583e-03, -7.0315608308771960e-01,
       9.1488594142505302e-03, -7.5741999573747176e-01,
       8.8297971481901150e-03, -7.6270202930680642e-01,
       8.9696358804321630e-03, -7.7285487619762128e-01,
       8.6756255152038650e-03, -8.1812260868053888e-01,
       8.5158699655163393e-03, -9.1051572493480626e-01,
       8.3729564460940081e-03, -9.2024695350323604e-01,
       8.6894536639742642e-03, -8.0614178302479189e-01,
       1.0146226112699367e-02, -5.4100197952200846e-01,
       1.3030263193817209e-02, -3.8668976574215880e-01,
       1.8609136066392598e-02, -2.5020937755934919e-01,
       2.3435124992515186e-02, -2.2323458806972798e-01,
       1.4417043307341591e-02, -3.4443795132347504e-01,
       1.0611858249137801e-02, -5.0671623139632993e-01,
       9.5441365164907650e-03, -6.3092248606609624e-01,
       9.3667717763483670e-03, -6.4702777347391027e-01,
       9.2635341712407129e-03, -6.8092914321549525e-01,
       9.1573255546783788e-03, -6.8492099084607261e-01,
       9.2467278081533669e-03, -6.7865647461187162e-01,
       8.7039173475622379e-03, -7.4119993592109334e-01,
       8.9230129447942282e-03, -7.9895285136465244e-01,
       8.7276794895520295e-03, -8.9777610749257319e-01,
       8.3892521287189659e-03, -8.9154625907671392e-01,
       8.7502327233635758e-03, -7.6741223720960750e-01,
       1.0489750953511163e-02, -5.3669196945800868e-01,
       1.4460024389730873e-02, -3.4685520042546747e-01,
       1.9485366846370349e-02, -2.4188085191023193e-01,
       2.4419209292139293e-02, -2.0498047800036159e-01,
       1.4629443968551072e-02, -3.1847174177691950e-01,
       1.1758518212544327e-02, -4.5206226269060640e-01,
       9.7518742208194658e-03, -5.9545819160522961e-01,
       9.2468350793708416e-03, -6.8782227090396952e-01,
       9.4115192557940909e-03, -6.9349624259841713e-01,
       9.2279770600992139e-03, -6.8630121699532742e-01,
       9.6003541221257177e-03, -6.6867081867921141e-01,
       8.8978944346993407e-03, -7.5925847286859149e-01,
       8.6297649044277860e-03, -8.5285311238181527e-01,
       8.4722895792806365e-03, -9.8050459015597824e-01,
       8.5880889666181577e-03, -8.7931571166223410e-01,
       9.1394418848583826e-03, -6.7157322003930531e-01,
       1.0803702554538821e-02, -5.1674247827366293e-01,
       1.6018778147714928e-02, -3.2663931594795637e-01,
       2.4327774243471986e-02, -2.1310194553656711e-01,
       2.9296951483099399e-02, -1.8836437395864550e-01,
       1.6057749603044510e-02, -3.1657441605232944e-01,
       1.2554986121992351e-02, -4.3837826542623287e-01,
       9.6360143376067690e-03, -6.0781013514135007e-01,
       8.9020294367444745e-03, -7.0953739754154355e-01,
       8.8029273897277400e-03, -7.8848272061965197e-01,
       8.6542363609109947e-03, -8.1824140516190202e-01,
       8.7574698016168653e-03, -7.7256602185802115e-01,
       8.6765315996767210e-03, -8.9212542858214483e-01,
       8.6133571645933757e-03, -1.0115725423879183e+00,
       8.4117639054802958e-03, -9.9369353289835671e-01,
       8.6513758455639533e-03, -7.8203446465525706e-01,
       9.3778705345049802e-03, -6.4731352509967710e-01,
       1.1482048510037691e-02, -4.5666903833672340e-01,
       1.5739712864494836e-02, -3.2932322301096889e-01,
       2.2837142908184112e-02, -2.0582707005709527e-01,
       3.0641776770570138e-02, -1.5890511158584131e-01,
       1.7404717011640522e-02, -2.7155821286110915e-01,
       1.3068196268873740e-02, -3.8048556059759314e-01,
       9.7413899856806287e-03, -5.8513906962064322e-01,
       8.6436549184160071e-03, -7.6366137123761935e-01,
       8.3393167252602783e-03, -8.8690771659482870e-01,
       8.2811615078991572e-03, -9.9851697412553297e-01,
       8.3695254292973711e-03, -1.0540505214531461e+00,
       8.4174411949616956e-03, -1.0742219745506083e+00,
       8.5139242782052409e-03, -9.7301601919219316e-01,
       8.5326964485645546e-03, -9.6816021466549296e-01,
       8.7578371376881917e-03, -7.9244391100665179e-01,
       9.9059122254144191e-03, -5.9949818794959953e-01,
       1.3219688648090370e-02, -4.2455538542905608e-01,
       1.8801774099198174e-02, -2.4490516006135057e-01,
       2.9738347230282295e-02, -1.6775477924774629e-01,
       8.5281997322080666e-02, -8.1181901296980635e-02,
       2.4836554141965107e-02, -1.8595573870394388e-01,
       1.8514457825136849e-02, -2.7077394569262642e-01,
       1.3953005074794375e-02, -4.1438636225334835e-01,
       1.0505956703592728e-02, -5.6819715838597340e-01,
       9.2142830577302669e-03, -7.2376421440960137e-01,
       8.8371311118516562e-03, -8.1754792439899426e-01,
       8.7521257610882960e-03, -8.4368248202080642e-01,
       8.9969191708430384e-03, -7.7725307477853600e-01,
       9.9441623401017431e-03, -6.8219503438313367e-01,
       9.8604514080656239e-03, -6.6377904142180222e-01,
       1.0010183809768003e-02, -5.8806621490140298e-01,
       1.2357877745819788e-02, -4.4892367426641500e-01,
       1.7494284465962573e-02, -3.0777604946688641e-01,
       3.3781310555153626e-02, -1.6847345905070207e-01,
       1.1500998419000782e-01, -7.8516431514332269e-02 ]
   output_scale: [ 1., 0., 5.2631578947368418e-01,
       4.9999999999999994e-01, 5.2631578947368418e-01,
       4.9999999999999994e-01, 1., 0., 5.2631578947368418e-01,
       4.9999999999999994e-01, 5.2631578947368418e-01,
       4.9999999999999994e-01, 5.2631578947368418e-01,
       4.9999999999999994e-01, 5.2631578947368418e-01,
       4.9999999999999994e-01, 5.2631578947368418e-01,
       4.9999999999999994e-01, 5.2631578947368418e-01,
       4.9999999999999994e-01, 5.2631578947368418e-01,
       4.9999999999999994e-01, 5.2631578947368418e-01,
       4.9999999999999994e-01, 5.2631578947368418e-01,
       4.9999999999999994e-01, 5.2631578947368418e-01,
       4.9999999999999994e-01, 5.2631578947368418e-01,
       4.9999999999999994e-01, 5.2631578947368418e-01,
       4.9999999999999994e-01, 5.2631578947368418e-01,
       4.9999999999999994e-01, 5.2631578947368418e-01,
       4.9999999999999994e-01, 5.2631578947368418e-01,
       4.9999999999999994e-01, 5.2631578947368418e-01,
       4.9999999999999994e-01, 5.2631578947368418e-01,
       4.9999999999999994e-01, 5.2631578947368418e-01,
       4.9999999999999994e-01, 5.2631578947368418e-01,
       4.9999999999999994e-01, 5.2631578947368418e-01,
       4.9999999999999994e-01, 5.2631578947368418e-01,
       4.9999999999999994e-01, 5.2631578947368418e-01,
       4.9999999999999994e-01, 5.2631578947368418e-01,
       4.9999999999999994e-01, 5.2631578947368418e-01,
       4.9999999999999994e-01, 5.2631578947368418e-01,
       4.9999999999999994e-01, 5.2631578947368418e-01,
       4.9999999999999994e-01, 5.2631578947368418e-01,
       4.9999999999999994e-01, 5.2631578947368418e-01,
       4.9999999999999994e-01, 5.2631578947368418e-01,
       4.9999999999999994e-01, 5.2631578947368418e-01,
       4.9999999999999994e-01, 5.2631578947368418e-01,
       4.9999999999999994e-01, 5.2631578947368418e-01,
       4.9999999999999994e-01, 5.2631578947368418e-01,
       4.9999999999999994e-01, 5.2631578947368418e-01,
       4.9999999999999994e-01, 5.2631578947368418e-01,
       4.9999999999999994e-01, 5.2631578947368418e-01,
       4.9999999999999994e-01, 5.2631578947368418e-01,
       4.9999999999999994e-01, 5.2631578947368418e-01,
       4.9999999999999994e-01, 5.2631578947368418e-01,
       4.9999999999999994e-01 ]
   inv_output_scale: [ 1., 0., 1.8999999999999999e+00,
       -9.4999999999999996e-01, 1.8999999999999999e+00,
       -9.4999999999999996e-01, 1., 0., 1.8999999999999999e+00,
       -9.4999999999999996e-01, 1.8999999999999999e+00,
       -9.4999999999999996e-01, 1.8999999999999999e+00,
       -9.4999999999999996e-01, 1.8999999999999999e+00,
       -9.4999999999999996e-01, 1.8999999999999999e+00,
       -9.4999999999999996e-01, 1.8999999999999999e+00,
       -9.4999999999999996e-01, 1.8999999999999999e+00,
       -9.4999999999999996e-01, 1.8999999999999999e+00,
       -9.4999999999999996e-01, 1.8999999999999999e+00,
       -9.4999999999999996e-01, 1.8999999999999999e+00,
       -9.4999999999999996e-01, 1.8999999999999999e+00,
       -9.4999999999999996e-01, 1.8999999999999999e+00,
       -9.4999999999999996e-01, 1.8999999999999999e+00,
       -9.4999999999999996e-01, 1.8999999999999999e+00,
       -9.4999999999999996e-01, 1.8999999999999999e+00,
       -9.4999999999999996e-01, 1.8999999999999999e+00,
       -9.4999999999999996e-01, 1.8999999999999999e+00,
       -9.4999999999999996e-01, 1.8999999999999999e+00,
       -9.4999999999999996e-01, 1.8999999999999999e+00,
       -9.4999999999999996e-01, 1.8999999999999999e+00,
       -9.4999999999999996e-01, 1.8999999999999999e+00,
       -9.4999999999999996e-01, 1.8999999999999999e+00,
       -9.4999999999999996e-01, 1.8999999999999999e+00,
       -9.4999999999999996e-01, 1.8999999999999999e+00,
       -9.4999999999999996e-01, 1.8999999999999999e+00,
       -9.4999999999999996e-01, 1.8999999999999999e+00,
       -9.4999999999999996e-01, 1.8999999999999999e+00,
       -9.4999999999999996e-01, 1.8999999999999999e+00,
       -9.4999999999999996e-01, 1.8999999999999999e+00,
       -9.4999999999999996e-01, 1.8999999999999999e+00,
       -9.4999999999999996e-01, 1.8999999999999999e+00,
       -9.4999999999999996e-01, 1.8999999999999999e+00,
       -9.4999999999999996e-01, 1.8999999999999999e+00,
       -9.4999999999999996e-01, 1.8999999999999999e+00,
       -9.4999999999999996e-01, 1.8999999999999999e+00,
       -9.4999999999999996e-01, 1.8999999999999999e+00,
       -9.4999999999999996e-01, 1.8999999999999999e+00,
       -9.4999999999999996e-01, 1.8999999999999999e+00,
       -9.4999999999999996e-01, 1.8999999999999999e+00,
       -9.4999999999999996e-01 ]
   weights:
      - [ -2.3793598852152060e+00, 4.5980829441035098e-02,
          5.5896240747343319e-02, 2.1242058526021071e-01,
          9.5155719972474226e-02, -5.4115828049908235e-02,
          8.3892257169549747e-02, 2.5914713568933734e-01,
          -2.7402926588230316e-02, 4.4907014120283545e-01,
          4.4965097770697732e-01, 1.9549163398119046e-01,
          -3.5674931445362945e-01, -2.3531413857823889e-02,
          -2.2871982896753215e-01, -9.7014388292025328e-02,
          2.5793548063673039e-01, 3.6684729578403248e-02,
          1.8402411423231631e-02, 1.0152430512637851e-01,
          2.6818856828443727e-01, 2.0273487314807189e-03,
          1.7025097651301055e-01, 1.9174688109159579e-01,
          -2.4943327715225097e-01, 3.0492722463608163e-01,
          -2.1241070539376580e-01, 5.1202287805673298e-02,
          -2.7050569315765161e-01, 1.1559634427644046e-01,
          -8.2388930664149748e-03, 1.1587050944222989e-03,
          -5.2057499152638140e+00, 1.8405170855834024e-01,
          2.0467869771911912e-01, 2.1927337213907799e-02,
          1.1392153785432735e-01, 7.4810399812324693e-02,
          1.4763947914579439e-01, -1.9411287566775435e-02,
          -1.6345565951697075e-02, 9.9897298907034859e-02,
          -5.0255168539604023e-01, -3.2280469530725130e-02,
          -2.6305242701701198e-01, 2.6987845647758149e-02,
          -4.0108392898047124e-01, -1.4696389002461663e-01,
          -1.1020415009662695e+01, -9.0901145487788104e-02,
          -3.3909354657365920e-01, 3.4561804968754734e-01,
          4.3747336676829396e-01, 3.9396400177410845e-01,
          6.7247200173909047e-02, 3.1557952387678995e-01,
          -3.7845809388932455e-01, -1.9060729320280517e-01,
          2.0158098495359783e-01, 2.6857070749884632e-01,
          1.1722090375661968e-01, -2.9302945045356965e-01,
          -3.1174590062814467e-01, -1.3735648651266247e-01,
          -8.7356000474718343e+00, -1.1469929444175882e-01,
          -1.2799410322317403e-01, 3.0313859444984337e-01,
          2.9933600910405772e-01, 7.9513635817973667e-03,
          -1.2556174921798028e-02, -2.1260351609678918e-01,
          -2.5298866002759417e-02, -4.5918124757229013e-02,
          3.4246005669192525e-01, -4.8234814283272687e-01,
          6.5643314993575086e-01, -1.2186208495066163e-01,
          -7.1437262421418846e-01, -1.8353749339543224e-01,
          -7.0976027680296667e+00, -1.8028365021984702e-01,
          2.2593447913141831e-01, 7.9009171955219792e-01,
          1.6913628446525714e-01, 3.4021809525245840e-02,
          1.7282525260441819e-01, -2.6535520214872976e-01,
          6.5989342769653507e-03, 1.6621696598367636e-01,
          1.7789118314398425e-01, -5.0426607161162562e-01,
          8.3792289034380818e-01, -3.2072453201731954e-01,
          -4.8406879172243783e-01, 1.8583399301601566e-01,
          -2.1071968485263359e+00, -2.5839467134203398e-01,
          2.8116671759837636e-01, 1.1006151880973657e-01,
          -1.0855428752041599e-01, -3.1283638737539599e-01,
          2.9376383533286998e-01, -1.8428655307231336e-02,
          1.3804450478145538e-02, -6.7250437432579524e-02,
          -2.4354173082650232e-01, -4.8750982621463802e-02,
          3.1487862955293133e-01, -8.6587343271123718e-01,
          -5.9344863404677117e-01, 2.6704244836526048e-01,
          -3.9075310171921052e+00, -3.5400959585207492e-01,
          1.7778969599568939e-01, -7.6813641016862375e-02,
          -1.0949567444878164e-01, -9.5580318137356712e-01,
          4.2771038864123184e-01, -4.3290082317413026e-01,
          2.6904484607520829e-01, -5.9810986347752309e-04,
          1.1022318038249550e-01, -3.6208017361126094e-01,
          4.4333476630097318e-01, -4.3130468029813479e-01,
          -5.8915971190874550e-01, -2.7990123073218293e-01,
          1.3549939851322007e-01, -2.8078611056592562e-01,
          1.8108171507960016e-01, 2.8361181289147602e-01,
          -8.8065145349885654e-01, -8.0087138100466271e-01,
          1.2110834687678323e-01, -9.6144778420088850e-01,
          4.6704205756327200e-01, 2.3870433210145964e-01,
          1.7824789694227805e-01, -6.3540954834749963e-01,
          6.3846145256513542e-01, -1.0663193906665740e-01,
          -3.7277029529625783e-01, -7.7986805056393693e-01,
          -2.8183086439906653e+00, -1.9162518172490361e-01,
          1.7417774745432522e-02, 1.5691121605124111e-01,
          -8.8373949440550592e-01, -4.4371425432903494e-01,
          4.3382969106724878e-01, -6.1258467418767404e-01,
          3.0895108300428403e-01, 5.1851074878088443e-01,
          3.0354727475569027e-01, -3.8923756793061953e-01,
          3.0760544644428234e-01, -2.1151196783236562e-01,
          2.0761255892361161e-01, -6.4490748487661576e-01,
          -9.2508612363123091e-02, -3.2626954533269847e-01,
          8.1955172226070808e-02, 5.9283698544995722e-01,
          -4.1820302336667720e-01, 4.0062093321129505e-02,
          4.8738242890023036e-02, -4.0051237585738308e-01,
          2.5860936794644807e-01, 5.3476320690208301e-01,
          6.2347405895634644e-01, -2.3334733029018193e-01,
          2.8734218591494026e-01, 6.3287738632496912e-02,
          5.1724009693182205e-01, -5.2081087303819562e-01,
          1.2284410712896625e+00, -5.5059897117978918e-01,
          1.6889332992364423e-01, 3.5419987325204155e-01,
          -3.6931183740013418e-01, 2.3358566018073496e-01,
          -2.9874421216364289e-01, -1.0326669684080246e-01,
          3.1659067197352714e-01, 4.2395806132110823e-02,
          6.2887093936693761e-01, -3.9033588193453322e-01,
          -1.8079181349433854e-01, -1.2392443395779104e-01,
          6.1283937260483667e-01, -3.0220085360826038e-01,
          5.1353738770283703e+00, -4.8312321532455953e-02,
          4.4602841722879794e-01, 1.7682579692562794e-01,
          -7.8601443315423000e-02, -8.8096702029974189e-02,
          2.1623089471492676e-01, -5.0804484885084635e-02,
          3.0435516682090547e-01, 4.7650188900669375e-02,
          -1.7029032747763570e-01, -1.0793245669948920e-01,
          -1.8164234648865060e-01, -3.8020634253527079e-02,
          4.0238768905385891e-01, -3.9561110677797667e-01,
          1.2416965152841579e+01, 1.1454729940345036e-01,
          3.9311799151236598e-01, -2.5148491099291626e-01,
          -2.9949015016089476e-02, -2.1886363175919332e-01,
          -3.2297529209994166e-02, 2.9385730745132349e-01,
          -5.9431640446875704e-02, -1.7880899801408112e-01,
          -8.6688343853557517e-02, -4.8468310831693046e-01,
          -3.1672589209373721e-02, 4.6789406886857249e-01,
          1.3545754054527617e-01, -1.3026257536294958e-01,
          3.1873693106561749e+00, 8.8150334019310911e-02,
          1.5004133652098631e-02, -4.4215015574153826e-01,
          -9.4801639912562879e-02, -2.1391745732892728e-01,
          4.8030078951419461e-02, 4.7264474858085541e-02,
          4.6501781462487979e-01, -1.3335119263206002e-01,
          -6.7705809717361162e-02, -3.2533187986553508e-01,
          -1.3239695032379711e-01, 1.3275291684617205e-01,
          -1.9881451849883072e-01, 2.2828940181414051e-01,
          4.7187632372107996e-01, 1.5603912821379148e-01,
          -7.8220866581051013e-02, 1.1254475160925578e-01,
          5.2044881363690143e-03, -6.3397136798521825e-02,
          1.0382397181703217e-01, -1.1437038606676141e-01,
          1.6079424735313533e-01, 1.2715836647505941e-02,
          -1.1332078419992631e-01, -1.3552049131555766e-01,
          9.1798194675036041e-02, -3.4685463192748567e-02,
          3.1609406628399637e-02, 3.7634998298088040e-01,
          2.4138911555515912e+00, 1.5987254131957734e-01,
          7.7364999927555037e-02, -3.4558842728431444e-01,
          8.8016577997892559e-02, 2.5954881457894183e-02,
          -4.4286211750081780e-02, 2.1569843029505834e-01,
          1.6059734600266592e-01, 6.4754847794490156e-01,
          5.4563842405362308e-02, 3.8019170715522493e-01,
          -2.6481806792942075e-01, 3.2014539651449681e-01,
          8.0465174965336186e-02, 1.0892983295982497e-02,
          -3.7501451768310368e+00, 2.3040381536349415e-02,
          1.9298240273527781e-01, 2.9873305757946118e-02,
          6.9530628511033116e-02, 1.2832176817887084e-01,
          7.3675650096809320e-02, 3.4771386820623962e-01,
          -1.4852084660638035e-01, 2.1525458708840284e-01,
          -5.1784345996753123e-01, 1.8413308781290369e-01,
          -2.1246073215464634e-01, 1.2744042483934384e-01,
          7.2062272063732655e-02, 2.4296738703001978e-02,
          -5.9310742309590472e+00, 2.9281251536754514e-02,
          -1.9081581878547174e-01, 1.5204762688770218e-01,
          4.7843785848208829e-02, 1.0579411392617655e-01,
          4.9023138452587371e-02, 2.6489042826411313e-01,
          -2.9841783992005760e-01, 4.5197437268032346e-02,
          -6.8106168268856737e-02, 1.1141630096026871e-01,
          -2.0811220282735310e-01, -4.4583155295908455e-01,
          -2.7676576513633949e-01, -3.1318699850350362e-01,
          -5.9415006512505446e+00, -5.9126613192825000e-02,
          -4.5526062537115197e-01, 1.1259585106764380e-01,
          -1.9812029367597666e-02, -2.4391809696490008e-03,
          1.7672491494284695e-01, 8.1835593815044447e-02,
          -8.5107981352458381e-02, -1.7568890746127427e-01,
          2.8451680610500775e-02, -8.9641888344048543e-02,
          4.3760484053753002e-01, -4.1980053506006648e-01,
          -4.2071226085793201e-01, -2.3146772666777393e-01,
          -8.4322163512968302e+00, -8.5148604674350356e-02,
          -2.4082597634252303e-01, 7.8222896375493889e-01,
          -2.1468536341454433e-01, -5.0339724278575715e-01,
          8.2817968410969789e-01, -6.0911053276463412e-01,
          2.5661779012587754e-01, 4.2548469794337707e-01,
          1.9398354668375767e-01, -4.8543744660971594e-01,
          6.1048690902787461e-01, -1.8982973346451940e-01,
          -4.2096171016512540e-03, -7.3000117992916014e-01,
          -1.0116632422080283e+01, 9.7523668320253998e-02,
          -1.3018951352966007e-01, 4.6140597295454411e-01,
          1.4817969175276965e-01, -2.6882186998916369e-01,
          7.1230393740454911e-01, -6.4577812482808716e-01,
          6.9183258998342628e-02, 2.5153412494769617e-01,
          3.9695422850995576e-01, -3.1388293138135254e-01,
          2.5230793512373223e-01, -6.6089964855524019e-01,
          -4.6602968836284109e-01, -1.1205234203080169e-01,
          -1.6522075902739053e+00, -1.2201077868433087e-01,
          4.1698425247273230e-01, -1.8980600969957340e-01,
          -1.4649241752559872e-01, -2.0849391797455544e-01,
          2.6865672291865544e-01, -2.1012169900066871e-01,
          4.5417273090645655e-01, -2.4561555061526366e-01,
          -2.5905274847395545e-02, -1.4963346152128674e-03,
          4.5343795695852407e-01, -5.5179939069875927e-01,
          -1.0296179852500809e+00, -8.8018216327426110e-02,
          -8.6822060038389886e+00, -2.4858448092290658e-01,
          2.3158817273961782e-02, -8.7342654392027416e-03,
          -1.2839317484989576e-01, -5.4399215042536109e-01,
          3.0570271052775538e-01, 7.8729072868341243e-02,
          2.9462584536664022e-01, -4.4638540711726973e-02,
          -2.7318872583204232e-02, -1.4475452581172651e-01,
          1.6179944206721653e-01, -3.4431731410653321e-01,
          -6.3541566175595943e-01, -2.6517985292805096e-01,
          -2.3404707830049047e+00, -5.0926741241071338e-01,
          1.4219857475910691e-01, 5.8295262064872233e-01,
          -5.3190336633351565e-01, -3.4081988447968931e-01,
          1.1948508785695700e-01, -1.3991316872091489e-01,
          3.1986536696161799e-01, 2.5783754486917432e-01,
          6.1694834043745678e-02, -4.4833019621296849e-01,
          5.2619027641613259e-01, 3.1277310172187303e-03,
          -8.1864180700552923e-03, -8.1202009940391517e-01,
          -3.5079447955515803e+00, -5.4086050836797117e-01,
          2.5277707411477751e-01, 6.4142518669575632e-01,
          -7.1220127320204440e-01, -5.9001317754231952e-01,
          3.3814998248068567e-01, -3.6804351111774009e-01,
          5.1542635828880390e-01, 3.8681419479544149e-01,
          2.6644144169655437e-01, -6.5545838838158943e-01,
          3.0563070965025402e-01, 3.1488595523084140e-01,
          7.8867535813779682e-03, -9.7400028572938258e-01,
          -4.9881145556559501e+00, -1.2270178180770512e-01,
          2.9369024484603896e-02, 6.6980053865064237e-01,
          -5.3483950939654024e-01, -2.6015992290573919e-01,
          1.8835699578859527e-01, -1.1175460417775789e-01,
          3.6120089115204784e-01, 2.8834460986065347e-01,
          7.6347109876574881e-01, -7.2835037477034259e-01,
          2.3760016468055613e-02, -5.2253159589048352e-02,
          6.5462014397418200e-01, -5.6755882981919104e-01,
          6.5036299033953116e+00, -4.8656798588731243e-01,
          6.5705299713577012e-02, 3.9649797397252257e-01,
          -4.0541368068075012e-01, 7.4353147369338613e-03,
          6.1696839947036335e-02, -3.5101556139232654e-01,
          5.2615759023136544e-01, 4.8165513866695697e-01,
          3.0890643105923377e-01, -4.7430085732843413e-01,
          1.0591871108847334e-01, 6.7768623951432036e-03,
          5.0536658963847814e-01, -7.1302438664343853e-02,
          5.1311420185551855e+00, -3.4815417278796813e-02,
          -2.3046501973632197e-01, -7.6222112216731724e-02,
          -1.4167269868327353e-01, -8.6949850971508050e-02,
          -7.4004116582449646e-03, -3.4155998163800050e-01,
          2.8541910606927784e-01, 1.6028979746069957e-01,
          4.4854171806520360e-01, -3.9525459035809752e-04,
          2.0979542105996948e-01, -8.7963069853838047e-02,
          -1.6597445952880755e-03, -2.9283250736539139e-02,
          1.3124755591488300e+00, -2.5902200868620340e-01,
          -1.3690862824358033e-01, -3.3833036712555514e-01,
          -2.5816810363581000e-01, -2.0744421794882306e-01,
          4.1863032608588979e-01, -2.5688013621601458e-01,
          4.2934487443485603e-01, 1.3307412320319109e-01,
          1.9734266431386913e-01, -4.5783032897556930e-01,
          2.0915670408977305e-01, -4.2709203316747713e-02,
          2.6993643986651245e-01, -1.8723236318520012e-01,
          5.1661828832807180e+00, -7.3197805607224026e-02,
          1.2797600028063288e-01, -3.3189883015627653e-01,
          -5.1898079059806888e-02, -2.1324684253460446e-01,
          3.7495513989774666e-02, 3.2304599314719024e-01,
          2.7352490421845926e-01, -1.3458285743421466e-01,
          -1.4225279538933619e-02, -6.4920039341485780e-01,
          -4.7698883031719930e-02, 4.2169458860555620e-02,
          -2.0405561980105714e-02, 7.2002394844853920e-02,
          -2.5320256862695834e+00, -3.4731621750539177e-01,
          8.1327840034782523e-02, -5.2718345780125332e-02,
          -1.8503703018681919e-01, -2.3500905993387827e-01,
          5.1964075817825771e-02, 2.7860531954885404e-01,
          3.0308942395773686e-01, -9.9627120001429995e-02,
          8.7824078411428030e-02, -3.6023950748777511e-01,
          5.5798134533404757e-02, 4.4595817384178407e-02,
          1.7003425963275262e-01, -2.9518033734567406e-03,
          7.6606154668720416e-01, -1.1645866502399721e-01,
          1.2327540354709988e-01, -1.9107748228442467e-01,
          3.1833208338803826e-01, 3.7435001662151812e-01,
          -1.3309299092138946e-01, 3.5513974893033251e-01,
          -2.3646199805760307e-01, 2.8957569979552733e-04,
          1.7054895024823694e-01, 1.5732202363609515e-02,
          -3.8241758682222249e-01, 2.7922325185239949e-01,
          -3.0913132974669499e-01, 3.1107236372335917e-01,
          -1.8123746879033913e+00, 1.2378838470710994e-01,
          1.5124406771500368e-01, 2.7355008481069432e-01,
          1.5569397507823518e-02, 6.4547023066622966e-02,
          1.2180531255883395e-01, 5.2081065530820558e-01,
          -6.3638184193107850e-02, 2.7428153625804286e-01,
          -5.3064635723877496e-01, 2.2870365739545540e-01,
          -8.6318690978260407e-02, -6.0208490354823223e-02,
          -9.0129793877652478e-02, -7.0854870197665731e-02,
          -3.6690010656069285e+00, 1.3213895462798811e-01,
          -4.0341864443496683e-01, 1.8202906084136275e-01,
          -2.0444289212625724e-01, -1.9271053821079101e-01,
          1.7121710687513661e-01, -1.6855854256178929e-01,
          1.4064369277179070e-01, 3.0814282239551921e-01,
          -2.7872370174716338e-01, 2.0029523395490800e-01,
          -6.8011329961861308e-02, -4.3630625350724056e-01,
          -2.8732350364495401e-01, -6.1495502282904302e-01,
          -4.5211937364713872e+00, 2.9235083986409677e-01,
          -4.3629939187173575e-02, 3.9515354429381894e-01,
          4.1074143658361470e-02, -1.9993927783904164e-01,
          3.8080597783476056e-01, -1.1901302910193187e-01,
          3.1712397456071229e-01, 2.0908597560322029e-01,
          -2.5022696230683789e-01, -4.6023071775061269e-01,
          -7.5327537786298457e-02, -3.7397948352328692e-01,
          2.6217052550416031e-03, -5.5709219470754456e-01,
          -1.4235577033644495e+00, 2.7793779108211614e-01,
          2.2496080843260827e-01, 2.5894191262739330e-01,
          2.2827826371003637e-01, -4.4488962380548286e-01,
          5.6994910736167947e-01, -3.6741356478787635e-01,
          3.7091015726155219e-01, 4.8250337480238298e-01,
          -2.8994520993446926e-01, -2.8759045054977883e-01,
          1.1727251266392144e-01, -5.2587324076928454e-01,
          3.0517239757656918e-02, -6.5201225829913412e-01,
          -7.3382716491600775e+00, 1.3478795471718177e-01,
          -3.9294542425577983e-01, 5.4319852730182738e-01,
          -2.1083554338724059e-01, -3.4050493135189069e-01,
          3.2168986469929356e-01, -5.7004399445772147e-01,
          4.1366644545498460e-01, 3.9413183014791070e-01,
          -1.1808453422974816e-01, 1.1552439164355123e-01,
          1.2997828476764478e-01, -2.9623182438372292e-01,
          -9.0329050576361328e-02, -2.2676485610016509e-01,
          -1.1994164973468868e+01, 5.6763961705969188e-02,
          -3.9255290256193642e-01, 4.8612599115248811e-01,
          -2.0503854969932775e-02, -4.5163693049714781e-01,
          1.4910207149114260e-01, -1.2374966634067434e-01,
          1.1092493172950502e-01, 1.3206845886310467e-01,
          1.1859005555305316e-01, 2.8593519396673739e-01,
          -1.0706533243071470e-01, -2.4535912262490817e-03,
          -3.2989352861018506e-01, 1.4382893420359880e-01,
          -5.1733153107510566e+00, 3.1503747499704499e-01,
          -3.2342568740143030e-01, 3.9952531708781364e-01,
          5.8975692573632096e-02, -2.7693482756280441e-01,
          4.4824806402689160e-01, 2.2933458340257468e-01,
          3.0763813725608317e-02, 6.1671239899839170e-01,
          2.0596771227264429e-01, 5.2837100094424432e-02,
          -1.4589618346327352e-01, -3.5394430477248612e-01,
          -7.2832916549882632e-03, 1.8496276344937657e-01,
          -3.5415532846319810e+00, -2.2208410301186127e-01,
          -1.1144035907190415e-01, 5.3217472791271903e-01,
          4.2088620293752538e-01, -7.1255975183575723e-02,
          2.3744595766418403e-01, 2.3079658890088703e-01,
          -2.1988431005837272e-01, 2.4271819076764997e-02,
          -9.0130452651313656e-02, -2.0135045817515465e-01,
          -2.7821235411177031e-01, -6.1728964420664972e-02,
          1.2332514022885788e-01, 1.0398386340010840e-01,
          -1.1950719429023233e+00, -3.4444764569519178e-02,
          4.6976296110701232e-01, 3.2972770597838524e-01,
          -1.9478574675399751e-01, 9.9409629880119588e-02,
          1.1311706283031554e-01, 2.4861790394103808e-01,
          3.1025446021346391e-03, 5.8695305826926461e-02,
          2.5080203921980682e-01, -4.2801558391875527e-01,
          3.4046922908764332e-01, -2.2209521605874324e-01,
          -1.7278047552093567e-01, -6.0132371221310310e-01,
          2.6306654441446158e+00, -7.9799616861339573e-02,
          3.9814354536740060e-01, 5.3989413233801820e-01,
          -5.5083438302922383e-01, -4.2517949567301777e-01,
          6.2611786789456461e-02, 1.4319046191201806e-01,
          7.7934139315111717e-01, -3.8078510859894409e-02,
          6.2203205418654794e-01, -4.8030170476361095e-01,
          4.5347345754964447e-01, 5.5766818678096297e-02,
          9.1842267815320899e-02, -8.2380398038399560e-01,
          9.7185607904003035e+00, -4.1537100906783841e-01,
          3.5749588539608933e-02, 4.2064668485441820e-01,
          -4.0366773418217961e-01, -2.1878464534467115e-01,
          6.5139795500248052e-02, -1.4808696156851794e-01,
          5.3488793335820584e-01, 1.7849369294605826e-02,
          1.4257087021229950e-01, -1.8842961151053791e-01,
          -2.1940425409776365e-01, -4.8711083887131822e-02,
          -3.0105830976548956e-02, -2.7874280435930360e-01,
          8.1490663874134519e+00, -7.2402257475867912e-02,
          1.9433717505361786e-01, 2.4926403983596418e-01,
          -4.2093296371024413e-01, -2.6807958596290343e-01,
          1.8800880988055502e-01, 2.2519573068798227e-01,
          5.0114453384467550e-01, 2.0172047073493163e-01,
          2.9272966178448839e-01, -2.1867722997517050e-01,
          3.7678055046750142e-01, -4.3648527962025167e-02,
          -3.4907262232177577e-02, -2.6788851186297136e-01,
          6.3401291302355867e-01, -2.3725990446777721e-02,
          -3.3453335181676747e-01, -1.2799755064834224e-02,
          -3.1764253553367161e-01, -3.1168848959814965e-01,
          1.3226091181799851e-01, -4.2909392545077146e-01,
          2.6932184728217073e-01, 1.1847442189180440e-01,
          4.4219047248562682e-01, -1.4740513290652457e-01,
          2.4034458864892139e-01, -2.2884342205327093e-01,
          2.0163397855224102e-01, -2.9567531376905387e-01,
          2.1803905215184254e+00, 2.1936174355347521e-02,
          4.7420291018863962e-02, -1.5312617926237410e-01,
          -1.5786734112373157e-01, -3.5892174637447583e-01,
          3.1292036990441247e-01, 1.7858463891215198e-01,
          3.9427877338112710e-01, -5.5587291371630938e-02,
          4.4484197682003968e-01, -4.4771192263558263e-01,
          3.5414221790014327e-02, -6.8798685932483838e-02,
          -2.0303691128353088e-01, -1.6385244736694826e-01,
          1.6655700915481226e+00, 3.1156447983864289e-02,
          -4.5487924988188100e-02, 8.1905535657649686e-02,
          -2.7351733448031318e-01, -2.3581002494411363e-01,
          4.0996873751763269e-01, 1.4800085688994735e-01,
          3.0064326663379504e-01, 7.4826290556657292e-03,
          3.2201702315395292e-02, -3.0328570499063460e-02,
          1.1839953313195642e-01, -1.6812944474599432e-02,
          -8.4598020939672409e-03, -3.7644518465590676e-01,
          -2.6242783941155849e+00, -2.4277398101090844e-01,
          1.7933048713387609e-01, 1.6270247359379236e-01,
          5.3943849920789499e-01, 3.6323830852242878e-01,
          -3.1282972476179177e-01, 5.6481310211484637e-01,
          -1.3150499185325293e-01, -5.6893400762806738e-02,
          9.6693115871022375e-02, -1.6627723342458905e-01,
          -1.9480965181040250e-01, 3.1509229388381965e-01,
          -4.9111214488313926e-01, 2.7448313437658795e-01,
          3.2479481049340335e+00, 3.4399768775152428e-01,
          3.2751002108944521e-01, 3.1273774706994251e-01,
          -2.2415079538685331e-01, -2.8339868481587116e-01,
          1.0697121861715508e-01, 4.0125244777999579e-02,
          2.1782161035379555e-01, 5.5522813508092028e-01,
          -2.6669688814583514e-01, -8.2994628150670394e-02,
          2.0554182617643130e-01, 2.3544545289213622e-03,
          -3.4832820903000106e-01, -4.6703322092423821e-01,
          2.5945390459979978e-01, 1.7940769555048947e-02,
          -4.7463030864646233e-01, 1.6073044242667217e-01,
          -6.9775723643535126e-02, -5.8230109924731221e-01,
          3.3136694810287176e-01, -4.5174276151625009e-01,
          1.4364283033696651e-01, 4.7194891279989643e-01,
          -5.9367904725378551e-01, -1.0585257958343820e-01,
          2.1210634739582460e-01, -3.2463456354078318e-01,
          -1.3735442147358098e-01, -4.3286847187727517e-01,
          1.8471656499946063e+00, 1.1856002569025649e-01,
          1.1389613035499667e-02, 7.8259611696353237e-01,
          -1.2158724366307447e-01, -1.5778156271469024e-01,
          6.0003503023786009e-01, -3.4631321398736453e-01,
          5.3225003366434998e-01, 4.4230028339053634e-01,
          -3.4968220992546456e-01, -3.2398537294231605e-01,
          9.2626339461909346e-02, -5.3985154881757935e-01,
          3.5229526911660430e-01, -5.2512089266064077e-01,
          1.1026715850239641e+00, 2.0617214712840845e-01,
          -3.1068969853035749e-01, 5.2883329608806029e-01,
          -5.5784961103117747e-01, 9.7641652213437707e-02,
          5.4937692919282410e-01, -1.0048564656586514e-01,
          3.4089257278772483e-01, 5.6649741581141333e-01,
          -3.7950281746634790e-01, 3.4952202163259072e-01,
          -3.6077130953221914e-01, -5.0718164281118050e-01,
          5.7829431907605222e-01, -2.9847039528645108e-01,
          -1.7092804325031796e+00, 3.4550780218611726e-01,
          -1.3871796987669913e-01, -6.0020394029936953e-02,
          -6.6415768506706341e-01, -1.2185048447380856e-01,
          1.4235646872727067e-01, -2.0218949568013145e-01,
          3.2862275081317582e-01, 1.3112586642735427e-01,
          -2.0304161306832069e-01, 5.3590067392858454e-01,
          -1.5997448555163013e-01, 1.2348888416210619e-02,
          1.1941009396397330e-01, 2.3971103401592755e-01,
          -3.3058050807633981e+00, -7.7896730847722764e-02,
          -3.4212255935133057e-01, 1.6018989469928968e-01,
          -5.7557355087227480e-01, -6.0295911865469598e-01,
          -5.2131664320932550e-04, -3.8944226276194016e-01,
          2.6753930274971066e-01, -1.9307783212110549e-01,
          6.7274359003639428e-02, 1.5933396068604044e-01,
          -2.0417030703659470e-02, -5.0749581035850588e-01,
          4.0010877849722576e-01, -3.8128804248164511e-01,
          2.5135896335249341e-01, 2.1637330856427811e-01,
          -2.0936992454965006e-01, -1.3351717080104236e-01,
          -2.2320686076894997e-01, -2.8048898726420446e-01,
          2.0911817618666484e-01, 2.4095180990173501e-01,
          -2.6590322970316715e-01, -2.9027367139754821e-02,
          4.4332383698688715e-01, 3.0022570128890480e-01,
          -5.1527354098483091e-01, -1.8429191426727007e-01,
          3.9498830477997288e-01, -1.8783184937762168e-02,
          -1.7140712252258297e+00, -1.2760736974042300e-02,
          2.6058215870898566e-01, -3.4945816990509126e-01,
          5.1697827191899270e-01, -1.2543720555786644e-01,
          -2.1046996987117209e-01, 6.7016697048209145e-02,
          -4.9243166846291009e-01, -1.8822841632878359e-01,
          -4.8782225372836957e-01, 1.1920685959465147e-02,
          -4.8628479529770452e-01, -6.2931241607587463e-01,
          2.0265656011283437e-01, 2.2993352773251718e-01,
          -9.5037871044787199e+00, 3.3241466664408603e-01,
          2.0374222500204256e-01, -1.9304489164361194e-01,
          4.9067229931045475e-01, 5.6707563426203859e-02,
          1.3488693510135813e-01, -9.2383291180901661e-02,
          -5.6663873859718339e-01, -3.4508859679331642e-02,
          2.2536123343605341e-01, -6.1285280458750056e-02,
          -3.6126059943906758e-01, 2.3302096239659964e-01,
          1.1525716873910304e-01, 1.4323454710466699e-01,
          3.2396345986577866e+00, -1.7576632578002863e-01,
          -4.1243018497011702e-01, 4.1174563827134231e-01,
          2.5289877630628277e-01, 1.7405160655310548e-01,
          -2.5173323874176767e-01, 1.6106481322667690e-01,
          4.0706746775012548e-01, -6.1563026644263968e-02,
          4.5566255816177498e-01, -2.0573695026626759e-01,
          -2.8328049883919665e-01, 1.6022591765894154e-01,
          4.5425649617113706e-01, -4.6378740044953642e-01,
          4.9950675083223066e+00, -4.8027998594110666e-01,
          -3.3582050295051508e-01, 5.6040641653917433e-01,
          -6.9569658994061409e-02, -3.2444231833574422e-01,
          -2.4134827933936115e-01, -6.8606031667838754e-02,
          5.2110107337276013e-01, 1.7127500431434814e-01,
          1.2922005501434933e-01, -1.7799868117721298e-02,
          1.1513016908106294e-01, 1.2618898892178124e-01,
          2.4867149613618988e-01, -3.9410478024649953e-01,
          7.2206790799902496e+00, -6.3827824905653252e-02,
          7.6891782697300237e-02, 4.1464863947313224e-01,
          -6.3404825164851419e-01, -3.9265637631537134e-02,
          -7.9704219201309448e-02, 2.5322652455050454e-01,
          2.5895080491628286e-01, 1.3950900626500087e-01,
          2.0990704606196214e-01, -1.1110535263328147e-01,
          3.1433157351385799e-01, -1.0581704153830797e-01,
          -1.2243477488190757e-01, -2.6238590942279016e-01,
          4.4988185870172606e+00, 1.0830373987819641e-01,
          -1.9418457388144861e-01, -1.2023659284665215e-01,
          -6.0660493505437141e-01, -3.6987327821459975e-01,
          2.8494769157633798e-01, -1.6936176455596603e-02,
          3.9688494355900089e-01, 2.8521537631802409e-02,
          3.1850636238517044e-01, 5.2180938519924128e-02,
          1.0446240644551223e-01, -7.8401053373876234e-02,
          -1.5154757439929104e-01, -4.1545003789411916e-01,
          1.9648681343535312e+00, 9.2030312289466731e-02,
          -1.0890758579746054e-01, 6.9649998785663941e-02,
          -4.1067906301357476e-01, -2.6343814755552170e-01,
          1.9034033509280390e-01, 1.9197824562616911e-01,
          1.4650709180327492e-01, -1.3821101817073375e-01,
          6.0042113384319773e-01, 2.7931803586049359e-01,
          -2.4987836863304350e-01, 1.6813439686745377e-01,
          -1.1084055235464786e-01, -4.5156717889704512e-01,
          6.0869282214420188e+00, 1.9638483713106894e-01,
          -3.0083824043882151e-01, -1.9832283526266611e-01,
          -2.9533650810070761e-01, -3.2954746000723256e-01,
          3.5404538467124552e-01, -2.4233111261094942e-01,
          1.6081826845117683e-01, 3.6474527863715239e-01,
          4.0700455168386107e-02, 1.1189685858355995e-01,
          2.3285074898431019e-01, -2.6702503922272380e-01,
          -2.4606447738254211e-01, -3.7643776738591650e-01,
          -2.3050496451410409e+00, 1.1673632331937291e-01,
          1.7003127750746330e-01, 1.6569448400708056e-01,
          3.7380143487934714e-01, 3.7766469364061894e-01,
          -1.9257335079930282e-01, 3.1063935371912144e-01,
          1.8263049522392097e-01, 1.4084862891372829e-01,
          -7.7264481902270837e-02, -2.1138874860882953e-01,
          -2.1130872927581265e-01, 2.4089094038628833e-01,
          -3.0757301023234024e-01, -3.2275478956175288e-02,
          5.5195468475077210e+00, 2.4977756426748493e-01,
          8.4917770503565387e-02, 4.1946228257302326e-01,
          -4.1548111666846094e-01, -1.4947343728410567e-01,
          2.7689084383994605e-01, -6.3064797050373628e-02,
          5.6793644654999642e-01, 4.8063528617126194e-01,
          -8.0444475219026909e-02, -5.9542776946057245e-02,
          2.9693252723417413e-01, -6.1895709789254467e-02,
          -1.8173223167786218e-01, -5.6368459944266136e-01,
          1.4059544901444727e+00, -8.2286687074568168e-02,
          -5.3278813309419004e-01, 2.4364790435511582e-01,
          -2.5985942988459360e-01, -3.8467789264454805e-01,
          4.1524124955248876e-01, -3.1868415659952654e-01,
          4.0761544234758301e-01, 4.5630179249848501e-01,
          -3.6263763803030835e-01, -2.8519893549585544e-03,
          3.6963783893145813e-01, -3.2695974351807194e-01,
          1.5587582743842136e-02, -4.9547805734991840e-01,
          3.0094984697552429e+00, -2.6856510013075824e-01,
          -7.5952549605174169e-01, 7.1716248725934462e-01,
          -3.3994179341239800e-01, -4.1605551301195844e-02,
          6.3075052287772715e-01, -2.2674014987859040e-01,
          4.1584287687570548e-01, 5.2723719641016353e-01,
          -1.9114152700934606e-01, -1.6553036852097366e-01,
          2.6405090559070304e-01, -2.3590130717471469e-01,
          8.7152647513487402e-01, -4.1847565681977689e-01,
          4.7592556525813361e+00, 6.5077675158856152e-02,
          -5.5532883415658450e-02, -7.9522413552939753e-03,
          -4.6188888778654036e-01, 2.9332242295668970e-01,
          9.8671755136432421e-02, 1.7372150593452393e-01,
          3.5910195911466419e-01, -2.6729345234216280e-02,
          -2.7840243870686471e-01, 3.5084170207351051e-01,
          -2.3266530697199819e-01, -1.5613073696810384e-01,
          3.3177538313112342e-01, 1.3206130287511567e-01,
          -1.1157800234144689e-01, 3.4289179129176388e-02,
          -4.8145509473039673e-02, -8.6292848138207562e-02,
          -8.8550077740743960e-01, 2.0686306013085445e-01,
          7.4434507320838242e-02, -3.8004589044865970e-02,
          1.4639127958148745e-01, -7.5223301624517389e-02,
          1.8742698229354351e-01, 3.7855575893843169e-01,
          -8.3377663177926470e-02, -1.2386879800727191e-01,
          9.0462132511140034e-02, -1.2225245063918030e-01,
          -3.0417720243378912e+00, -2.9812250163166222e-02,
          -9.1934956811099214e-02, -3.1672817207822018e-01,
          -3.2223495863754942e-01, -1.1159102814301969e-01,
          -1.6324494774205796e-03, -9.2540181357208720e-02,
          1.8546431724032220e-01, -2.5788793241188468e-01,
          -1.3225842209752756e-01, 3.5655457605240304e-01,
          -1.8776254907323961e-01, -8.5677593485334519e-02,
          1.4260039175984002e-01, 3.4846821926862129e-02,
          3.9728073988703494e-01, -4.8089648662870868e-02,
          2.4636770633997418e-01, -4.0773340709072148e-01,
          3.4198147633364394e-02, -3.7878483297307258e-01,
          -2.9376297075503949e-01, 3.7705177038980081e-01,
          1.1042812188002460e-01, -2.2704403506103424e-01,
          -1.8009638759204447e-01, 1.5366829421813935e-01,
          -2.1509999124760151e-01, -1.7571164966929981e-01,
          -1.8965891035922339e-01, 3.3415566044762118e-01,
          -5.8417353706221204e+00, 3.6315341361124537e-01,
          7.4215696790722141e-01, 1.3090759373077265e-01,
          2.2315526420225529e-01, 1.5009892152963955e-01,
          -3.2979765166325448e-01, 1.0354272285581982e-01,
          -4.9495531916039071e-01, -4.1198616742672517e-01,
          -6.1609982471713498e-01, 2.2206538273047943e-01,
          -4.4665782349413535e-01, -4.2551326392141448e-01,
          -4.7542837526172849e-01, 6.1482385047839883e-01,
          -7.3998376566310897e+00, 2.0765598738053404e-01,
          3.8391700228100600e-01, 4.0927095571356216e-02,
          4.2464576965965550e-01, 7.0583596707804963e-01,
          -2.7819734673932561e-01, 2.5302232497397448e-01,
          -4.7920650187510205e-01, -3.6249180753907534e-01,
          -3.5599015659681388e-01, 1.9580941850631761e-01,
          -4.5714363130433522e-01, -4.3104744866987579e-02,
          -6.4381765359159862e-02, 8.9829011026641314e-01,
          -6.9586158648696617e-01, -9.7832828080435127e-02,
          1.7219033182353319e-01, 4.3737756729472976e-01,
          3.1127017705150517e-01, 5.5243952749539771e-01,
          -3.5964023564055725e-01, 2.7404787983642726e-01,
          -2.6822216769753059e-02, -2.5170483532832416e-01,
          5.8357665884394150e-01, 3.0007293021638998e-01,
          -3.3301090013727908e-01, 5.3580055634224033e-01,
          -8.8819383695927318e-02, 2.8290824490578581e-01,
          -1.0817057324262680e+00, 3.3695520668071138e-01,
          -1.9767843023303544e-01, 8.6280670691861183e-01,
          6.9805114862247580e-02, 1.7306493061842823e-03,
          7.8559691538828913e-02, 4.4296838500023084e-03,
          1.8413488417514539e-02, 1.6665897559859449e-01,
          2.1046487651391904e-01, 4.7695782594226938e-01,
          -2.5313653086712767e-01, 5.3335685419816881e-01,
          -3.3931176518999406e-02, 1.1201376202039676e-02,
          -6.9158459129117071e+00, -8.3736683357126598e-02,
          3.0782001812714499e-01, 5.1457903286774165e-01,
          -3.3230590145056632e-01, 1.5000160833489423e-01,
          -1.5781118252424892e-01, -1.0881626764654674e-01,
          2.7180811894807461e-01, -7.3693136179675295e-02,
          -8.2272935876166783e-02, 2.6039605256066856e-01,
          4.5429742200705038e-02, 4.7493527256221435e-01,
          2.0609460950928352e-01, 3.5138646282226765e-02,
          -2.2082801505599137e+00, 1.3781602484841923e-01,
          4.5778239639457868e-01, 2.7118525146649936e-01,
          -1.8351894077690939e-01, 1.3162097441174211e-01,
          -1.3591273620840644e-01, 1.7422526595897347e-01,
          -2.0854704961385329e-01, -5.4735524875411212e-01,
          3.1817973267560258e-02, 3.3546110284337310e-01,
          -3.6823128861423715e-01, 5.6582422229060225e-01,
          -3.5353648215918065e-01, 1.0476042485185647e-01,
          8.3213082740386959e+00, 8.2683565558308758e-01,
          3.3079716554210897e-01, 2.4744354922983155e-02,
          -6.1331758730356740e-02, 3.5168252126709748e-01,
          -4.1240997510586752e-01, 3.1992393804264363e-01,
          -4.0200188490556127e-01, -7.1316068276530509e-01,
          -2.4485150425068120e-01, 8.5962653997563421e-01,
          -5.4866638785522681e-01, 6.1218510975497187e-01,
          -3.2638079526837716e-01, 3.7605544873145835e-01,
          1.2350514808775142e+01, 8.4784594689811277e-01,
          3.4117718619594789e-01, 2.9161494020069134e-01,
          5.7013688397815465e-01, 1.0680332159845822e+00,
          -1.0573728192286487e+00, 4.0211712223343965e-01,
          -1.0040700736965609e+00, -1.0888460431749836e+00,
          -8.0270465195903706e-01, 1.4802956145796244e+00,
          -9.0857703700691206e-01, 6.1851541570679602e-01,
          -5.1911786779157443e-01, 1.2646223776649863e+00,
          3.0378834218800982e-01, 1.6475026802975781e-01,
          -1.4379862113568917e-02, 1.9063232737506355e-01,
          -2.9082264252934870e-01, -4.4570787245683821e-02,
          9.7670152831794060e-02, -9.7760934052984319e-02,
          3.9032082783299954e-01, 2.3758215825444898e-01,
          -1.5111694624129743e-01, 2.0684982675727207e-01,
          2.1731109314749678e-01, -3.1308538560097393e-01,
          1.4999568831278743e-02, -5.1367222707773119e-01,
          1.2585398850692265e+01, 8.5202582443430867e-03,
          -2.5546678932714235e-02, 1.9896093860897784e-01,
          -4.8259223881987096e-01, -2.9589776948332486e-01,
          2.6233508146036405e-01, -6.4972863955587642e-02,
          5.8651768599999576e-01, 3.4539057041060195e-01,
          -1.8632746199905828e-01, 7.9039694461425017e-02,
          4.2203117421884123e-01, -2.6139883315956292e-01,
          -2.5014981349013343e-01, -5.8418760614234355e-01,
          1.2603875093244595e+01, -5.3939982546813392e-01,
          -2.4963118580956783e-01, 1.2028698598215536e-01,
          -1.8708682184742273e-01, -1.8633460428042775e-01,
          1.7977266644832893e-01, 1.6213164479165418e-01,
          3.7804585939009039e-01, 4.2518801330654155e-01,
          -4.3432534772588571e-01, 1.6016653297827330e-01,
          1.2068683800831810e-01, -2.9680111494209727e-02,
          5.7481501473770202e-01, -6.9431174578213350e-02,
          7.8413799484477460e+00, -9.3498082431202043e-02,
          -2.6371682004332481e-01, 2.2586250312297839e-02,
          4.8507831207658135e-02, -1.8204807295108313e-01,
          4.0067301042435172e-01, 5.2299846593068688e-02,
          2.8368506235821600e-01, -8.1740566211058213e-02,
          1.4255603186881938e-01, -1.4840799131013072e-01,
          -1.4685355421094858e-03, -9.3143660384656837e-02,
          9.1082202707234472e-01, -3.7946759185759776e-01,
          1.1362279105055992e+00, -1.3211471843476599e-01,
          -4.0918517569759655e-01, -2.7584628272734785e-01,
          -3.6653352641023201e-01, 2.9549598067667771e-01,
          1.3509837499733141e-01, 3.2840356041697100e-01,
          -1.0316202609691552e-03, 1.6560479964609273e-01,
          2.0936678858673824e-01, 2.9891982411843343e-01,
          -1.6342467809554342e-01, 1.5890149162555331e-01,
          4.7209235379112163e-01, -1.8517058250086302e-02,
          -1.3440065566361192e+00, -5.1166742475169602e-01,
          -6.9919315882263522e-01, -3.4451164138291751e-01,
          -3.6077569029005496e-01, 1.1598931798404113e-02,
          -9.3230773943409576e-02, -2.1452227406775481e-01,
          1.9840259230962221e-01, 7.4248266195845292e-02,
          6.5253420808595208e-01, -1.1302095042796229e-01,
          -8.1826449106009419e-02, -4.1740084566932428e-01,
          3.6566770816411670e-01, -2.4457081282335169e-01,
          -2.4616505428361211e+00, -5.3143949582274397e-01,
          -3.4617013039979833e-01, -1.6249106714428349e-01,
          -6.2861983797637425e-02, -2.1500167816624623e-02,
          8.9287364827076887e-02, 3.5897368027696261e-02,
          3.9750640988228725e-01, 3.6284015427781341e-01,
          1.4182909024627341e-01, -8.4014858830998934e-02,
          2.1910713038631926e-02, 6.9904325305063936e-02,
          -6.5288994627666908e-02, -2.3011455221357033e-01,
          -6.9489051596161930e+00, -2.8876680371746621e-01,
          1.1912852877002864e-01, -2.9683178564266577e-01,
          -1.3572988606705932e-01, -7.3442281315307489e-01,
          1.6058699047538361e-01, 5.3308710421204324e-02,
          4.0786300446693247e-01, 4.3538540573788509e-01,
          -2.1194210116892567e-01, -6.1242078073073351e-02,
          9.4666574874715553e-02, 1.1149495730359299e-01,
          -6.2560342786227230e-01, -4.1018049863448336e-01,
          -1.0707342036623130e+01, -1.7193932507214524e-01,
          8.7076651920466941e-01, -1.6888346869554624e-01,
          1.2821061252002039e-02, -3.6048119639963788e-01,
          -1.2125087049779689e-02, 2.7256373604019513e-01,
          8.7294840592593945e-02, 1.6115247532606558e-01,
          -4.0478648244367160e-01, 2.4152840678368093e-02,
          -4.8493437665757026e-02, -3.9686911679840092e-01,
          -6.2202474357431525e-01, -4.2351147392084182e-01,
          -6.6648576512653586e+00, -1.1186611950113400e-01,
          1.4890328626769475e-01, 3.3525665038904562e-01,
          6.9253552744586477e-01, 5.3919624418960521e-01,
          -1.0615768986803478e-01, 2.8335574933627439e-01,
          -7.3050313038437453e-03, -3.3443120138376947e-01,
          -2.9806060252449151e-01, -3.2841219569218166e-01,
          -2.3578164053498776e-01, -3.6279975089380095e-01,
          3.3462534171437164e-01, 2.5297679003528384e-01,
          -1.1417321911407342e+01, -1.1552341920416868e-01,
          -2.3823213482260977e-01, -1.0133998958040553e-02,
          8.7736176683932465e-02, -1.4143649698088950e-01,
          2.2804913591279052e-01, -1.1695162341857578e-01,
          3.5361347782682029e-01, -2.8432385583602685e-02,
          8.2989030074733838e-01, 2.6377462901916164e-02,
          -1.4968366451921253e-01, 2.6591943784200328e-01,
          -1.9067159764950040e-01, -3.7664431139057097e-01,
          -5.2867390746742471e+00, 3.0341335122641061e-01,
          -1.3449921989097585e-02, 7.6429094135595246e-02,
          -2.9064412424804581e-01, -4.5075930014047216e-01,
          5.0017354243350920e-01, -1.8703796342212614e-01,
          4.6255772576654014e-01, 1.6039449721959828e-01,
          5.8485919809905973e-01, 2.4350321854502699e-01,
          -9.9584137664678038e-02, 3.8710620109913563e-01,
          8.1085898239177945e-02, -3.5429804440311635e-01,
          -3.1818688903646213e+00, 2.4020640378214806e-02,
          1.3654167709113596e-01, 3.4699521111890769e-01,
          -7.2352721408562759e-01, -9.9411036138283088e-02,
          2.6197900264710250e-01, -5.3314813105182812e-01,
          5.2701530919738038e-01, -1.6891157785449767e-01,
          3.4009258553459837e-01, 1.5400337870324543e-01,
          3.7919229604715843e-01, -7.3612991221064239e-02,
          2.5495210726048068e-01, -1.9270716750293257e-01,
          -4.5564773668840386e-01, -1.8130336054096799e-01,
          8.4015655126355074e-02, 2.5066261206013263e-01,
          6.2310852406351099e-02, -1.6063954072407832e-01,
          -2.9689871953207952e-01, -1.7642668837283196e-01,
          2.9562480985758272e-01, -3.7936267919691008e-01,
          1.6296981796185137e-01, 3.2157925132786297e-01,
          2.5391623902966315e-01, 5.3266193566436214e-02,
          -6.1200946624333549e-02, -1.9702842978041765e-01,
          7.8367042433474836e+00, 4.4650682615390097e-01,
          -2.8982401317458834e-01, -9.4677450980766627e-03,
          -3.6735620292304527e-01, -4.3437400614488331e-01,
          -2.4131566464647419e-01, -2.2614276415027856e-01,
          3.2090014868049505e-01, -2.8598354702564745e-02,
          2.8770612671547269e-01, 3.2698405324565621e-01,
          1.9994555672729028e-01, 1.6978345544569995e-01,
          4.7128027660079896e-02, -5.3596622825270734e-01,
          6.7001113454065306e+00, 2.6505361047759235e-01,
          -3.0969771423633891e-01, 1.5325991261685670e-01,
          -3.8796149651354134e-01, -4.8081942124408261e-01,
          -4.5022872809452580e-01, -8.4767384239977331e-02,
          -2.1695567759819428e-03, -1.4830145110486390e-01,
          2.5596088658704868e-02, 4.3090654389488325e-01,
          2.0792762959681632e-02, -1.1402826788784005e-01,
          -1.8502181925171388e-01, -4.5426622079098361e-01,
          7.2268299817596005e-01, -1.9010049484328992e-01,
          -1.2821886234115709e-01, 6.9019121035714337e-02,
          2.9647857655380783e-01, -3.7826661787277317e-02,
          -6.6352432832345565e-01, 2.9337644509073790e-01,
          3.5430069859044927e-01, -1.7694621836225108e-01,
          -1.5667664060059558e-01, 5.2075326954839740e-01,
          3.7170814326021168e-01, -2.1806879543625693e-01,
          7.3172161157673568e-02, 4.7525046492979291e-02,
          8.8761575438652240e+00, 1.8650828895991628e-01,
          -4.6701315063303084e-01, 6.2268889348359266e-02,
          -9.2227898596076302e-02, -1.8404129057255006e-01,
          -2.7671488401644656e-01, 3.0856162746904758e-01,
          2.5520697727510294e-01, 6.3278692039498249e-02,
          1.4700273881729850e-01, 1.2741568886486036e-02,
          3.7440014355339696e-01, -1.4091450541368028e-01,
          1.8624220574590170e-01, -1.0414838454844645e-01,
          1.3967518955313819e+01, -2.0780582837436865e-01,
          1.0335320116636891e-01, -3.0557235545279826e-01,
          -3.1688671387402556e-01, 3.7306180507377410e-03,
          6.2876551344865222e-02, 2.7489445224331327e-01,
          5.1801651472690990e-01, 2.5554417823116843e-01,
          1.2015194739556825e-01, 1.6947774695713982e-01,
          5.3410473035092117e-02, -3.1631239252087900e-01,
          3.9161709602116884e-01, -1.8509162521458242e-01,
          1.2688248627863169e+01, 3.7532774445993855e-01,
          2.3779927172791906e-01, 1.8236678048219845e-01,
          8.5444944890220420e-02, 1.4018622410676929e-01,
          -8.0523663297129400e-02, 4.3572698383042635e-01,
          -7.7948340899602689e-02, -4.6959054928711286e-01,
          -2.1411625102162379e-01, 4.9349168624609627e-02,
          -7.5662369000014662e-02, 1.7344272923426393e-01,
          6.5691388857449085e-01, 1.6686280585452459e-01,
          2.9431756391449526e-01, 2.6020360075747906e-01,
          -3.9958199224983304e-01, 2.3873650051561218e-01,
          1.0697427019552577e-01, 5.3946967310746208e-01,
          -1.5884292266794756e-01, 4.8393194878756329e-01,
          -4.5815068396001835e-01, -1.1320155254034155e-01,
          1.5539825306002747e-01, 1.1364584214433472e-01,
          -1.8958044306529132e-01, 1.1858364274283061e-01,
          7.7763315512011133e-01, 4.1734450642407744e-01,
          -6.1747792683866818e+00, -4.5270377878288581e-01,
          -7.4710986868121754e-01, 2.2747334618731149e-01,
          1.0101215107210454e-01, 3.6288153045409227e-01,
          -2.9954862239174407e-01, -7.9748354462427257e-02,
          2.2701127699356380e-01, 3.0796508376174120e-01,
          1.9302841494857462e-01, -3.1717133124478081e-01,
          5.8158356115135777e-02, -5.0354320254155394e-01,
          3.4084412826313043e-01, 2.9052728100634695e-01,
          -4.3645646154656221e+00, -3.8567795138606625e-01,
          -2.8189068523611588e-01, -2.7042501275925290e-01,
          4.3033499862719743e-01, 1.1281713846464600e-01,
          -1.0583854393096956e-01, 8.4822705023421513e-02,
          2.9279111812085090e-01, 3.4932452747901105e-01,
          -8.1910520204434553e-02, -1.6017778126370154e-02,
          8.3406054401664084e-02, -6.1103133402494354e-03,
          5.3928562086502305e-02, 3.1297710429001058e-01,
          -5.3857843358597002e+00, -3.5998145196741144e-01,
          8.2841366287314322e-01, -5.2278224902990034e-01,
          5.1133339567403457e-01, -6.1316472803644284e-01,
          -2.7152705082363482e-01, 2.7413685639269453e-01,
          8.8656933648456587e-02, 3.5419369335781986e-01,
          -3.1261034518557856e-01, -2.0045977552164720e-01,
          -3.0817216376777281e-02, 2.6769912113378735e-01,
          -1.8358390166459870e-01, -1.1074026900555803e-02,
          -7.6654231594780482e+00, -5.9654234970143327e-01,
          6.8200104123275862e-01, -3.9411997160501233e-01,
          6.3534935630814771e-01, 3.1499832065487017e-02,
          -1.2134080290539749e-01, 1.0783574830472102e-01,
          4.2879075994000336e-02, 7.5941181894619625e-01,
          -6.6608789166874094e-01, -6.1605443712202758e-02,
          -2.3836987310106464e-01, -4.7541727124741986e-02,
          6.0264453594245475e-02, 1.7000830202722841e-01,
          -4.8036848064195263e+00, -6.7374280776520179e-01,
          2.9625549937562273e-01, -3.8944419821197140e-01,
          7.7429258899009790e-01, 2.6213602677846993e-02,
          -4.8082291776620983e-01, 1.0400281768860455e-01,
          9.4023586112870830e-02, 3.9300012219654908e-02,
          -3.2256948773294319e-01, 4.2420434774032019e-02,
          1.3923072677845277e-01, -6.8151798762927984e-02,
          -2.5224180606965418e-01, 4.7268947279947800e-02,
          -1.2236918000394173e+01, -2.5973644425383924e-01,
          2.7505349331600354e-01, -2.4507153140396271e-01,
          5.5044602643064022e-01, 5.7915476064694889e-02,
          -2.6293828477246828e-01, 4.7467663605123533e-01,
          1.6998959899780874e-01, -2.1859069026625877e-01,
          4.1300917020145450e-01, -4.3559295441745360e-01,
          2.6749531877751992e-01, -1.2551521274409064e-01,
          -5.5303724816017952e-01, -2.7724597248530258e-01,
          -1.3845741888109403e+01, 3.0441649149323174e-01,
          3.0694646168663314e-01, -3.0694904934221345e-01,
          -7.7035030331370130e-02, -2.2037621863358800e-01,
          -4.4206827296922879e-02, 4.9802226435640334e-01,
          1.9057618994283179e-01, -3.8786524118354504e-01,
          1.8915342691935347e-01, 6.4284190434146557e-02,
          -2.7714122859922981e-02, 2.9784722385991208e-01,
          -1.1326896646523076e-01, -2.5684206855064168e-01,
          -6.7608307884981640e+00, 5.7198876118117963e-02,
          1.4820196124216214e-01, 3.5399773105789584e-01,
          -1.8787334107858203e-01, 1.2940345587085622e-02,
          -2.4949894275427587e-01, -1.7735816713618383e-01,
          2.0591577353993740e-01, -6.3158430256134213e-01,
          -1.0975128310096356e-02, 3.3814640722764855e-01,
          4.8621143494233415e-01, -3.6277025266231311e-01,
          3.8308012957593313e-02, 3.2589976052667147e-01,
          -4.9505869839724665e+00, 2.3521759112245816e-01,
          2.6259087769149926e-03, 2.4531089527483463e-01,
          1.2276269971477551e-01, 1.5324582246289786e-01,
          -4.5372455389746880e-01, 1.6702018967898493e-02,
          -8.0473848748676829e-02, -2.5673685560978093e-01,
          7.3204162861791627e-02, 5.9199149582988908e-01,
          1.3621574904139083e-01, 7.5138051691480287e-02,
          -2.5815296454239378e-01, 5.6081201466562169e-01,
          8.0312421825966354e+00, 4.5434611553813647e-01,
          -1.6313273317671345e-01, 1.2921334365618073e-01,
          1.4834757451383068e-01, -2.6352686218096028e-01,
          -9.4377746015955644e-01, 1.3373378450438683e-01,
          2.1643154937512687e-01, -3.3587918221997021e-01,
          -1.5141436958600819e-03, 6.7554944242893944e-01,
          2.5482200431674062e-01, 2.8309307181912646e-01,
          1.5435933523150197e-01, 1.6410983132580808e-02,
          5.0610407927519123e+00, 4.5488624970893449e-01,
          -1.6809722869545196e-01, 1.7292483026832828e-01,
          -2.7365189969926451e-01, -4.3510891579891786e-01,
          -4.1330924927003027e-01, -5.7660744499549721e-02,
          1.6944666008723894e-01, -1.4880298528159644e-01,
          5.8714025942100040e-02, 3.8619706350599553e-01,
          3.4671553866545068e-01, 3.0826098211768259e-02,
          2.6731306080979778e-01, -4.8210088358147618e-01,
          3.1927668152156841e+00, -1.1953863149033353e-01,
          -2.2484100713028979e-01, -5.3232974882057565e-04,
          1.8814676943262323e-01, -6.9068402828988643e-02,
          -6.3588219646878863e-01, 1.8525852129518564e-01,
          2.8305918934978103e-01, -4.5618083497862630e-02,
          -1.1656156943654844e-01, 3.5596533849776330e-01,
          3.0955459349792191e-01, -1.3441966845279735e-01,
          6.6045387193767222e-02, 9.0650233853498824e-02,
          5.0549832280453826e+00, 2.4598638753141228e-01,
          -2.6692656261869191e-01, -1.8491268243420586e-01,
          -1.9395293289240373e-01, -3.2725850294053072e-01,
          -4.0760973189462224e-01, 1.3685277544585742e-01,
          2.2501451348508708e-01, 7.5511243220840185e-02,
          2.8131422165429237e-01, -4.2287570041015264e-02,
          1.8963599938276268e-01, -1.6705245643966693e-02,
          6.1008842589234202e-01, -7.8708868852355091e-02,
          5.2220376514808882e+00, -1.6296533871627547e-01,
          6.7393984155507083e-02, -1.9007931616140622e-01,
          -1.6042348890693753e-01, 1.6869513896898100e-02,
          -1.1691069729915665e-01, 3.4801135025461027e-01,
          2.1000317745503383e-01, 1.2867508454017576e-01,
          3.2376342564995364e-01, 1.0115892475866582e-01,
          3.1651907999537915e-01, -1.6781323522122571e-01,
          3.3750151659369221e-01, -1.7602659124602602e-01,
          1.0337721501330673e+01, 2.1271796860747053e-01,
          -3.2490955932950899e-02, 7.5023554973989839e-02,
          -1.7370329227787126e-01, -1.8601879843517441e-01,
          7.2013896863609025e-02, -4.7431492244492307e-02,
          7.4423920897399368e-02, -2.2139800019182643e-01,
          7.8830554783915721e-02, -1.1450001157004546e-02,
          2.5870379868729837e-01, -3.1506797566565221e-02,
          9.9604992084162181e-01, -3.1742113854591780e-01,
          4.6998927194237936e+00, 6.1984536443964833e-01,
          7.9738762932445334e-02, 6.3804989583230232e-01,
          6.5006138967643623e-02, 5.2479394425845205e-01,
          -3.2800154505402090e-01, 3.0343326148360450e-01,
          -6.3694911116018227e-01, -2.0994158299791557e-01,
          -2.3640176624961395e-01, 3.5533508762404575e-02,
          -3.8328349266149196e-03, -1.0384983079707095e-01,
          6.5709138064838724e-01, 4.1083716989428903e-01,
          -5.7049109425692848e+00, -7.1096319380583028e-02,
          -3.8879693569909418e-01, 2.4045956355894121e-01,
          2.4978503343397276e-01, 4.7460632434740579e-01,
          -2.5563516910919143e-01, -4.9197827925608839e-02,
          -1.9948967510014648e-01, 3.0731093098555451e-01,
          -3.5417373345953412e-01, -5.6912864058841349e-02,
          -7.9111752298873073e-02, -6.5566554824006390e-02,
          5.4679204101415047e-01, 4.6227522392529558e-01,
          -6.6224381701476815e+00, -2.9487552469001455e-01,
          -1.3487037006676758e-01, 3.9512745135009478e-02,
          3.5458787874556352e-01, -2.1495223257294488e-01,
          1.4243537478687346e-01, -3.2226401223882550e-01,
          1.6674569378597698e-01, 6.8947156225280337e-01,
          -9.9619888885946445e-02, -1.7011718979790849e-01,
          1.4198132003296521e-01, -1.9931476393046538e-01,
          -3.1700535741821939e-02, 3.2917111910704572e-01,
          -1.1522400442033579e+01, -2.3006196670461618e-01,
          9.3696059828029379e-02, -2.0730196343524390e-01,
          5.3269520516163626e-01, -2.4873309912761368e-01,
          8.0487116017117326e-03, 3.1557094507377675e-01,
          -2.0058640214802487e-01, 1.5417212177323597e-01,
          1.5483797901328689e-01, -2.2511918437295469e-01,
          -5.0193074816609429e-01, 2.8243412781683408e-01,
          -2.1069593305725479e-01, 4.2190248853622481e-01,
          -1.3615160030771698e+01, -8.0791194923930809e-01,
          3.9930360520820118e-01, -3.5518734427224696e-01,
          2.6012315685775111e-01, 7.7289726029036457e-02,
          -4.2805224230046263e-02, -2.1135372104328143e-02,
          -4.5937003595564380e-02, 8.2677303294654647e-01,
          -4.1335006419039677e-01, -3.7423230444856070e-01,
          -1.6769807996593949e-01, 6.4782927968898885e-01,
          4.9111754624984218e-02, 1.4021690140500503e-01,
          -9.2628629685204267e+00, -6.9145862397784208e-01,
          3.0096332561452144e-01, -8.8712086606409252e-02,
          2.1001427504870971e-02, 1.3245395735547785e-01,
          1.1212265569658023e-01, -1.7257342014614929e-01,
          4.9422198456531952e-01, 3.9376492125303747e-01,
          -2.1595999219265583e-01, 4.9675043758783469e-02,
          5.9359128484368906e-01, 2.3103062518980452e-01,
          -9.2578902291666543e-02, -2.5335769160887545e-01,
          -1.6227757295665509e+01, -2.3249444875976746e-01,
          7.4039394154841551e-02, -1.4437310129080916e-01,
          -1.9432443719429571e-01, -2.1641131472333286e-01,
          1.0179671572606183e-01, -3.9635640252748422e-01,
          7.9360906296445807e-02, 4.1258695739383844e-01,
          1.9481464685049885e-01, -7.3263484760782205e-02,
          6.7182823467876818e-01, 6.0777270874599887e-02,
          -2.2207537695281643e-01, -4.5343117793335991e-01,
          -1.8119494890545148e+01, 3.8532220429446223e-01,
          2.8823730089877037e-01, -4.4928161119859589e-01,
          -1.2275447483876308e-01, -1.0687468081359991e-01,
          2.3750877548245560e-02, -7.5535443716806178e-02,
          -5.1165794838914058e-01, 6.3687298526995936e-02,
          5.8373669366223293e-03, -5.4113141513371842e-02,
          8.0506526839711476e-02, 3.1514469812513801e-01,
          -6.4532371914334896e-01, -1.2535562386651672e-01,
          -1.0672380150419990e+01, 4.1383362190543638e-01,
          -1.2287514504163236e-01, -3.0140541012416311e-01,
          -1.8026818909198900e-01, 4.6336602105320618e-02,
          -1.9912693715163042e-02, -3.1671961942246973e-01,
          -2.6048751917965302e-01, -4.4500513847552836e-01,
          -1.3827726598021237e-01, 2.4105132770613130e-01,
          2.7109923933010616e-01, -1.3191305244383522e-01,
          -1.8388819907929529e-01, 3.5989819986616711e-01,
          -6.6837601895584360e+00, 4.1913200279141344e-01,
          -4.5495667747884487e-02, 1.3786184074635530e-01,
          1.9863328720436649e-01, 2.6495720228938002e-01,
          -2.1406702734563057e-01, -2.6279407089278426e-02,
          -6.6122831540825600e-01, -3.3011640736660561e-02,
          -1.0918703466276644e-01, 3.3580745220415453e-01,
          8.8518808428884113e-02, 1.2967965420629374e-01,
          -2.1278710112191929e-01, 5.4948533874171623e-01,
          2.1439920480136734e+00, 3.9410071421898296e-01,
          -1.1880307628689296e-01, 3.8481428343427659e-01,
          -4.6064918567349331e-02, -1.2690003154096838e-01,
          -8.8413841903776724e-01, 4.4800323986184493e-01,
          -9.9686332727179694e-02, -1.6094213246377131e-01,
          -5.7145198706795075e-01, 4.7456539616513105e-01,
          2.1416667654273222e-01, 1.5485407339868132e-01,
          -9.4423523782316304e-02, -4.9744283150178439e-02,
          3.9628969261832485e+00, 3.0521876443827289e-01,
          1.2303843261726616e-01, 1.0398739798763652e-01,
          2.9914267820073004e-01, 6.6992690145595540e-04,
          -1.0066925639034661e+00, 4.2596052721601774e-01,
          -1.0610048706298240e-01, -6.8089901659401320e-02,
          -2.6724603471451747e-01, 4.4573480862122716e-01,
          3.7826855150951105e-01, 1.1234998102251542e-01,
          -4.0306880336751956e-02, 9.0439155933974322e-02,
          4.5491823416906021e+00, 2.4375764801408681e-01,
          2.0015999283441768e-01, -2.1573136153738674e-02,
          2.7792037794615343e-01, 3.1513526788694712e-01,
          -8.2647871252036964e-01, 2.4731699870040263e-01,
          -2.7461287490195752e-01, -3.6277539574125262e-01,
          -1.7898207459319285e-01, 6.4851949642530649e-01,
          -3.8548810172642806e-01, 2.7969032478121603e-01,
          2.0407222314676443e-01, 6.2144826733960434e-01,
          4.1173820519309130e+00, 2.7708636493521921e-01,
          -4.2654841050493203e-01, -2.5888617156864996e-01,
          -2.2774681234409633e-01, -3.1988191500051960e-01,
          -6.6105182918488614e-01, -1.0713297920739824e-01,
          1.2127870683636462e-01, -4.1391110967603374e-02,
          1.2123576921332355e-01, 2.1765565564141934e-01,
          -8.5507485897259733e-02, 1.2002524161964491e-01,
          5.1487790559068070e-01, -2.1168083204958273e-02,
          2.6436538300197405e+00, 1.4545167133676137e-01,
          -2.6887195199806896e-01, -2.0484846269091497e-01,
          -3.9364962539123888e-01, -1.4763102950787662e-02,
          -2.1384755655692211e-01, 1.0154251640005547e-01,
          8.7044789812153509e-02, 4.6843331746458917e-02,
          1.1199272820998661e-01, 2.5406667627785362e-01,
          -4.0535991365183106e-02, 1.0528320966861694e-01,
          3.5603889822669144e-01, -1.1418667360195936e-01,
          7.6247196890289297e+00, -1.0304396798578300e-01,
          1.9473413940603276e-01, -1.2792633353545532e-01,
          -2.2513532256154070e-01, -1.7331099116520671e-01,
          -1.1938224121739494e-01, 1.8373549371339565e-01,
          3.0101794556539851e-01, -1.7068928650302470e-01,
          1.8272677479968927e-01, 6.2353925046196735e-03,
          2.5858798921270010e-01, 9.1018593109618615e-02,
          4.2616535696061431e-01, -1.5148489912768973e-01,
          5.4026362691363161e+00, 1.1430212180044091e-01,
          1.0368410607121065e-01, -1.8440675757477207e-01,
          -3.2503187496975600e-03, -2.3226448208470896e-01,
          3.6812283965265633e-02, -1.2485294151329346e-01,
          5.4006076068180371e-02, 6.7237669050479820e-01,
          -6.8104059118299490e-02, 1.2732301143731176e-01,
          -2.5419141315739715e-02, -3.3083103831595928e-01,
          6.0064265725430876e-01, -1.9772682023284632e-01,
          -9.0266097914642618e-01, 3.2246940948836546e-02,
          2.2214924547160048e-01, -1.1379760319068610e-01,
          4.8505332665341613e-02, 6.1098723187474495e-02,
          -3.9185247389495104e-01, 8.1059792021929500e-01,
          -1.3087982373941748e-01, 2.3095876175688990e-01,
          -7.0465581966033697e-02, 5.4990285676187460e-02,
          -2.6716453306979293e-01, 6.4424022070479134e-02,
          4.0325305958569485e-01, 8.8781062154669285e-02,
          -1.8823724670848605e+00, 1.6182512232845073e-01,
          2.1843467198199151e-01, 2.8988344324686516e-02,
          2.8260510795607058e-01, 1.4912819888218019e-02,
          -2.1887137096224965e-01, 6.9756141095669477e-01,
          4.6168130080221616e-02, 1.7091022959040517e-01,
          5.6522937043041482e-02, -1.6524561316110628e-01,
          -1.4030346157281409e-01, 1.9507516823724100e-01,
          -5.3028044112063306e-02, 6.1212772235266422e-01,
          1.2460159353676541e+00, -9.6577693902308151e-02,
          2.0540081601844623e-01, -6.0449688530946732e-02,
          5.0286961287461018e-01, 5.6465784608348578e-02,
          -1.2762155205207110e-01, 3.0429061361255061e-01,
          -4.1207579675678435e-01, 1.6485226010439910e-01,
          -2.1821810459712765e-01, 6.4002494287606582e-01,
          -3.1424477279266355e-01, 8.1203015306728210e-01,
          -2.6165038016535092e-01, 1.0340709993801021e+00,
          -3.1282807311738496e+00, -4.2258866588953853e-01,
          -2.9012250152128098e-02, -2.5077881341181363e-01,
          1.0056281993000651e+00, 3.0041530206025213e-01,
          -3.9870776753207243e-01, 1.7089565392027581e-01,
          -4.9746255088497487e-01, 5.2466021908132335e-02,
          -6.6856080092196446e-01, 5.2108852494190017e-01,
          -2.4252127377070157e-01, 3.7600055216211492e-01,
          -1.6015708530953568e-01, 8.3518365059018629e-01,
          -1.0602859365770398e+01, -2.2667212274820678e-01,
          2.1374054127008010e-01, -1.8103119513574303e-01,
          5.0871652798585923e-02, 4.1153783848839398e-01,
          -8.6421648847393381e-02, 3.5513327871347214e-02,
          -4.5549206713062079e-01, 1.1420979285176132e-02,
          -1.1819159197368798e-01, 4.3279904313627349e-01,
          3.6749723127967676e-01, -5.1991376365961871e-02,
          3.0075257816074419e-01, 2.4313615280630471e-01,
          -1.4293800317928017e+01, -1.4973083457912839e-01,
          1.7841997805327547e-01, -3.4683383393832157e-01,
          -5.0320370777829482e-01, 3.2028207256465330e-01,
          7.1968084044593622e-02, -8.7324648145667871e-02,
          -5.0819912269883649e-01, 2.2411709076195058e-01,
          -2.2248418812831719e-01, 3.5230555604201907e-01,
          2.4987429236431954e-01, 4.4944757422246150e-02,
          2.4046234772255570e-01, 1.6780132702660966e-01,
          -1.2115949821929972e+01, 3.1709936029814512e-01,
          2.1431405741350351e-01, -7.6835337712920659e-01,
          -3.6395182174966112e-01, -2.7011084348520675e-01,
          -3.5601810950376289e-02, -7.5191042759081728e-02,
          -3.4931349891698482e-01, 1.4790226583771549e-01,
          -4.0732071273365356e-01, -2.8013076559089060e-03,
          4.5932393278633488e-01, -2.8549867235958971e-02,
          -5.4353989613503284e-01, 9.8282426856667937e-02,
          -2.7117500599354298e+00, 2.7134332002029138e-01,
          -1.0316254315252787e-01, -4.1625745198992353e-01,
          -2.5501022568405673e-01, -1.1284816433900383e-01,
          -9.3791983542630977e-02, -1.0769457265464451e-01,
          -1.1759364734341042e-01, -2.3334063390912749e-01,
          -2.4780556617858221e-01, -2.9007923019539941e-02,
          5.4243841063727494e-01, -3.8060994528971159e-01,
          -2.5523529031043807e-01, 1.0639112876258203e-01,
          -8.7981770823549285e-02, 3.3596416530392914e-01,
          -2.2162964730404600e-01, -4.2623017920966642e-02,
          -5.7594942212877552e-02, 2.2300170286536486e-01,
          -5.4947557459073426e-01, -2.7297681826153902e-01,
          -1.8264297441860977e-01, 2.2003306057895685e-02,
          -8.7756685515656171e-02, 3.8498353162602339e-01,
          2.6989275285191577e-01, -9.2220945940770307e-02,
          1.8716379769209774e-02, 2.6985443400982684e-01,
          3.4897398814550744e+00, 2.9268419144901725e-01,
          -1.7633671641774062e-01, 3.5504124247847646e-01,
          -6.3828302587332270e-02, -1.8479496235960036e-01,
          -9.0177119766958369e-01, 3.8615300650245976e-01,
          -3.9539719819220975e-01, -1.5117129981079108e-01,
          -6.3068278736737537e-01, 3.5571488983829180e-01,
          2.6858755030329368e-01, 3.8230129383247369e-01,
          9.0731874803671619e-02, -1.2032182731587834e-02,
          3.8821525561241961e+00, 4.5100022564247139e-02,
          -1.2031311475313694e-01, -1.3270695607417363e-01,
          2.3410946038673097e-01, -1.2460240572009577e-01,
          -9.8853044761002351e-01, 5.5284895015054625e-01,
          -3.0492319034725313e-01, -2.5027431075550229e-02,
          -3.1828419754424714e-01, 3.0656702311859646e-01,
          1.9122859867400596e-01, 5.9135400930883132e-02,
          -1.0863002738353111e-01, 1.4094091471945078e-01,
          5.7496117193200991e-01, 6.8129328521516719e-01,
          1.6622833394603809e-01, -5.4570415029822100e-02,
          2.1612982126303146e-01, 5.8490975450575611e-01,
          -4.5912526824471062e-01, 1.1443817316551805e-01,
          -6.3404866290472028e-01, -8.1773129445565407e-01,
          -5.0502430469122417e-01, 8.2856624550099889e-01,
          -8.3875094077688606e-01, 5.5873864169769893e-01,
          3.3275313627410358e-01, 8.2332160545955080e-01,
          3.2235362332502362e+00, 6.1932890329449353e-01,
          -2.6586529714320001e-01, -1.6111938555023197e-01,
          -4.2974782266364264e-01, -3.1805527697765912e-01,
          -1.7371794726034193e-01, -3.2896924537349087e-01,
          1.6839191778125007e-01, -1.4029309361948489e-01,
          3.6384032994361208e-02, 1.7653891452725703e-01,
          -3.4960654620153148e-01, 3.5606403729480324e-01,
          2.4726043093858477e-01, -2.2016434552428962e-01,
          -9.3525460558211737e-01, 1.2569526233230954e-01,
          -4.2201279726643193e-01, -2.9509092356761557e-01,
          -1.0880399436192399e-01, -5.1682558409376626e-02,
          -1.3261734079472617e-01, 1.9056385059572417e-01,
          1.2843795140499525e-01, -2.3468575219262343e-02,
          2.1673918040303186e-01, 2.8291093709333004e-01,
          1.1391759203270486e-01, 1.0364533965842224e-01,
          4.2226241225342259e-01, 2.8722236942348874e-02,
          5.6438320790402470e+00, 1.6311441832679383e-02,
          -4.5651565310370389e-03, -1.0117908415855033e-01,
          -5.5844193726483227e-01, -3.2419175493878760e-01,
          3.0230032901225534e-01, -3.1100356591945152e-02,
          4.9931902913203086e-01, 2.6051959990554163e-02,
          3.7150587228769838e-01, -1.8247264436173929e-01,
          3.8407812024062948e-01, -9.7983524659127366e-02,
          -2.8778725647989450e-01, -6.0500995261465007e-01,
          1.0618411331494289e+00, -1.7670082658927214e-01,
          -7.4163348613066046e-02, -2.0737592148574596e-01,
          -5.6518236223279816e-01, -3.7336207499793295e-01,
          4.3595810380199318e-01, -9.4582479538988229e-01,
          2.7083311940601085e-01, 5.9373069771175579e-01,
          2.5867297049167098e-01, -1.5636457610844698e-01,
          2.6217006523951986e-01, -7.8440203271393127e-01,
          1.3224077683611155e-01, -7.9275620564432647e-01,
          -4.5367840003416759e-01, -2.5614659495986524e-02,
          -2.2760172912763760e-01, 1.3193159554611364e-01,
          -4.1937435292479103e-01, 5.1839390233589890e-02,
          7.1632105375214938e-01, -5.3164746128358487e-01,
          3.7189951464111770e-01, 1.0097179663934366e+00,
          6.3786996299676890e-01, -5.8413653215743558e-02,
          1.1982202855329295e-01, -6.4703604562621275e-01,
          4.5971359371517778e-01, -6.8646903559679884e-01,
          -5.5298409181538943e+00, -1.3228806189311779e-01,
          1.4829803364574868e-02, -4.4394740874381819e-02,
          -8.3728978294208645e-01, -4.6412908025273203e-01,
          5.2162728104584133e-01, -1.3493661290503253e-01,
          6.8059149270940111e-01, 6.3771088078250737e-01,
          6.9375329884281889e-01, -4.5496782469840646e-01,
          -6.7031348801781285e-02, -2.5587140273403330e-01,
          1.6919860153666904e-02, -5.9557236037492334e-01,
          6.4558296241854801e-02, -3.4868856736965781e-01,
          -3.1766461251979522e-01, -1.8790677626807703e-01,
          -3.7079278748864519e-01, -6.9481671980145576e-01,
          4.4295270250718638e-01, 1.9931111223504158e-01,
          5.6222877402461724e-01, 5.4024953027519673e-01,
          1.7525346564028550e-02, -1.1096900538420135e-01,
          1.4659181609883626e-01, 4.0732165998677794e-01,
          2.4857984322872120e-01, -4.4394342310555501e-01,
          -1.7797884540735953e+00, -7.5252904815062721e-02,
          -4.2875041740685277e-01, 2.0574388546266160e-02,
          -6.6437475179014785e-02, -1.3373553792712994e-01,
          4.8995283923991434e-01, 1.7329252509720836e-01,
          2.3506561633584500e-03, 3.1768635239898718e-01,
          -1.8876051592004894e-01, 5.4331292156715938e-01,
          1.8524381815995170e-01, -4.4213012661757936e-02,
          -4.6397668664038043e-02, -2.3461308003623019e-02,
          -6.6409679812269991e+00, -3.5270284898452997e-01,
          -2.6846582249661399e-01, -3.1742699802460576e-02,
          1.8119790457688284e-01, 3.4213918425766843e-01,
          3.0108227893027595e-01, 2.7022513916129626e-01,
          -1.6168467946243070e-01, -1.4720250113196208e-02,
          -1.1695319233492947e-01, 6.1810431248734121e-01,
          3.0402912140532184e-02, -4.3506323649742251e-01,
          4.2810426858033873e-01, 1.9981477418497021e-01,
          -1.2712638096267248e+01, 8.7142594163457342e-03,
          -1.5246887962350233e-01, -4.3398201427161781e-01,
          4.6692380956301620e-02, 7.9966667547922676e-01,
          7.0579099351402566e-02, 2.2137242420022821e-01,
          -2.4937073681807687e-01, -2.6161479468538562e-01,
          -4.7080727082727059e-01, 1.9752153024961328e-01,
          6.7801788156204940e-02, 2.5404031870407651e-01,
          3.9887375977330386e-01, 7.0450082515668822e-01,
          -1.1058345141720469e+01, 2.4646390258241205e-01,
          -1.1662421248690521e-02, -6.4658588709835041e-01,
          -9.3668219628788449e-02, 4.7429497012679045e-01,
          -5.7049700440270357e-04, 3.0235096493334190e-01,
          -3.1505150923841252e-01, -3.8352051518361724e-01,
          -5.6699175931783663e-01, 2.2299315032767764e-01,
          2.2364284026256509e-01, -7.9780370709226917e-02,
          -4.2681210842038392e-01, 9.4134175845317136e-01,
          7.8741886320467291e-01, -3.7378678179095244e-02,
          9.3106458420222082e-02, -2.8107851415745350e-01,
          -2.1479024078743431e-01, 1.2177511700313125e-01,
          -1.2939967439517037e-02, -2.0330645910661130e-01,
          -1.0553405595177258e-01, -1.8864433939328124e-01,
          -3.9033865337437840e-01, 2.3220285649659578e-01,
          1.8835920233124473e-01, 1.2199524024805809e-01,
          -2.7221720783707160e-01, 2.4483038453306338e-01,
          -1.0645508339512084e+00, -8.2431015309311559e-02,
          -4.9052156873432734e-01, 1.4106831624802291e-01,
          8.8035348627386531e-02, 2.1302961632598167e-02,
          -6.1181001388305367e-01, 8.5288310230829945e-02,
          3.2991561679172061e-02, 2.6477754869873926e-01,
          -2.4042656980904592e-03, 3.2235091893436457e-01,
          2.2934291702114420e-01, 7.0642192186965491e-02,
          -3.7766347383080254e-02, -1.1088949007010135e-01,
          5.2793376901583393e+00, 2.6560276822880097e-01,
          -2.4189407407695532e-01, 2.3041696756154598e-01,
          -3.0624691191555864e-01, -2.8999854014134324e-01,
          -4.3622959886308998e-01, -6.6272541537134994e-02,
          5.8856300661608019e-02, 2.8131874552947922e-01,
          -7.6456135295987063e-02, 2.9383390232678147e-01,
          4.5092019103631764e-01, 2.6892697361789952e-01,
          -4.5765394941655255e-02, -6.8750775565954270e-01,
          1.2706350512030125e+00, 2.5642936059678462e-01,
          3.6443268545958994e-02, 2.0161191061192305e-01,
          -1.2693969885444181e-01, -2.5016068672709568e-01,
          -1.6861393511503298e-01, 1.7037210364688687e-01,
          3.3237157412530527e-02, 2.8600497461485819e-01,
          2.5988492531167900e-01, -1.4670495977378223e-01,
          4.6624267203891789e-01, 2.6013949506067097e-01,
          -2.2753826871289520e-01, -5.3374629153716169e-01,
          -5.0484566481580639e+00, 3.2630886806994733e-02,
          -2.7749796582021335e-01, -1.1274658157406099e-01,
          -1.9497794945031002e-01, -3.3690165858177734e-01,
          -9.0665790671528024e-02, 8.6202660903176978e-02,
          1.0658201656291240e-01, -2.5880050369571811e-01,
          2.2522096068100356e-01, 2.1072479771530250e-01,
          -4.4076885948738126e-01, 3.3885130635940917e-02,
          6.0645068399774604e-01, -2.2049843574942155e-01,
          -1.4395058928487126e+00, 4.8498222906264948e-01,
          5.3351828665299521e-02, -2.3100922327928999e-01,
          -1.2885519185755043e-01, 2.2993648165916791e-01,
          -4.9980923174632519e-01, 2.8026416756852385e-01,
          -1.7546734999211211e-01, -4.8884053489032753e-01,
          -1.8310581138580295e-01, 5.3198059125640040e-01,
          -4.8556387763221892e-01, 5.7961995046793746e-01,
          2.8402504780363086e-01, 2.9382828920365139e-01,
          1.4901759000998640e+00, 3.8787157526289867e-01,
          -1.7570991127188759e-01, -3.2862530168830195e-01,
          -1.9385277138666965e-01, 3.0443994850974254e-01,
          4.2162390895709320e-02, 2.1800221089264368e-01,
          3.8994463977366264e-02, -2.1571991678525354e-01,
          -1.0605752476198621e-01, 1.3508247238036744e-01,
          7.6611843881333033e-02, 2.7029563154942576e-01,
          -3.3168405244569193e-01, 8.0893044202546865e-02,
          -4.8958016075845308e+00, -2.9855967561070403e-02,
          -3.3367768728380603e-01, 1.0403344319411351e-01,
          -5.4416642874413690e-01, -1.7717434574654237e-01,
          2.4043887628754679e-01, -3.5991402498845265e-01,
          4.4171573750652582e-01, 1.0476439299145762e-05,
          2.5227381453856024e-01, 2.5081823290715070e-02,
          2.8852192649094804e-01, -1.4595523457543277e-01,
          -3.4903029096330801e-01, -3.6966621676990413e-01,
          1.6284273063949034e-01, -1.9910117888177870e-01,
          -6.6378031651688840e-01, -8.1818117884557381e-02,
          -6.8331329910834604e-01, -8.3621363681657096e-02,
          4.1015267188871124e-01, -8.8061784822721900e-01,
          3.8804453901499297e-01, 6.5602266062778647e-01,
          5.5555318693184763e-01, -2.4058195745248037e-01,
          2.9330757283057013e-01, -4.6394729340967222e-01,
          2.1479343740317669e-01, -9.1704605843453979e-01,
          -3.5699039179750605e+00, -2.3611554512466543e-01,
          -5.8646228555181767e-01, -3.0207875430527251e-02,
          -6.1312621199731099e-01, 1.9495038655587466e-01,
          6.4118697558056215e-01, -5.3823517801642762e-01,
          5.3281952308222291e-01, 7.9156048198600637e-01,
          4.7595324694824281e-01, -2.2669642660283476e-01,
          2.0709812140665804e-01, -4.7918815967080325e-01,
          4.4720612492883122e-01, -9.0801860515354327e-01,
          -1.3402107285085915e+01, -2.1491835829121556e-01,
          -2.7063317097641904e-01, 2.9529054982491733e-02,
          -4.8015027935201743e-01, -4.1419359165337004e-02,
          5.1048063469323390e-01, -7.1252355265765543e-01,
          5.5004685620290383e-01, 4.4925130686226439e-01,
          3.5228427150412150e-01, -6.2635935932306402e-02,
          3.0924480503835422e-02, -1.2949970221788989e-01,
          -7.7856656914736797e-02, -1.0135424792911221e-01,
          -1.1923050274336767e+01, -4.9118860607397763e-01,
          -1.8325466480292071e-01, -9.7613437685974136e-01,
          -5.0256736609414954e-01, -2.7337088224946154e-01,
          1.7620572313353061e-01, 8.2066122636037742e-02,
          6.0575843662810869e-01, 3.4533204085923491e-01,
          -5.7642045664418690e-02, 2.1973298546727252e-02,
          -4.5476440866571999e-01, 1.5638773474725576e-01,
          -2.1258845904095705e-01, -2.7967508538311429e-02,
          -3.2300845214694482e+00, -6.3369079468908740e-02,
          9.5556362936154896e-02, -6.6722690399128615e-01,
          -2.7870546289952897e-01, -2.2892681638847234e-01,
          5.2074369075886051e-01, -5.3845433589424607e-01,
          2.1181684390128425e-01, 2.7789300367612552e-01,
          -1.8180202073395632e-01, 2.9947977454581198e-01,
          -2.7599579212395731e-01, -2.8886265384479110e-01,
          8.0105509008878500e-02, -2.5043161369952749e-01,
          6.9375812467822928e-02, -1.7240944589602297e-01,
          2.4071984536843263e-01, -1.4057671510017455e-01,
          -3.6202143210141519e-01, 5.7239859692979192e-02,
          6.1726886642779477e-01, -3.1166340869267406e-01,
          1.3545740534746104e-01, 1.9465139356561589e-01,
          4.5772306199715296e-01, 1.0691826766145797e-01,
          -1.3323386240555282e-02, -4.4696319490671854e-01,
          4.7881017093115780e-01, -5.2710463841923494e-01,
          -8.2722645009689968e-02, -1.2300742541733208e-01,
          -9.9155223538357248e-02, 3.4108799236333764e-01,
          -2.8545157179612302e-01, 1.9273378777157987e-01,
