%YAML:1.0
my_nn: !!opencv-ml-ann-mlp
   layer_sizes: !!opencv-matrix
      rows: 1
      cols: 3
      dt: i
      data: [ 256, 16, 33 ]
   activation_function: SIGMOID_SYM
   f_param1: 1.
   f_param2: 1.
   min_val: -9.4999999999999996e-01
   max_val: 9.4999999999999996e-01
   min_val1: -9.7999999999999998e-01
   max_val1: 9.7999999999999998e-01
   training_params:
      train_method: BACKPROP
      dw_scale: 1.0000000000000001e-01
      moment_scale: 1.0000000000000001e-01
      term_criteria: { epsilon:1.0000000000000000e-04, iterations:10000 }
   input_scale: [ 3.0798786359111423e-02, -1.5350115121381133e-01,
       2.0802402930312790e-02, -2.4197355088539838e-01,
       1.8810991136140855e-02, -3.1783050623623588e-01,
       1.7860898779403923e-02, -2.9520493502598805e-01,
       1.3932109866472251e-02, -4.4649625700070272e-01,
       1.0840356262830669e-02, -5.7688039888279696e-01,
       9.2549398733878744e-03, -7.3573070017484243e-01,
       9.1696576846925868e-03, -8.0685651899147015e-01,
       9.1839097268022144e-03, -8.3250304891516713e-01,
       8.9735640846502693e-03, -7.1242919980855413e-01,
       1.0180568090741164e-02, -6.3086944344704843e-01,
       1.2504036704556423e-02, -4.5424664540312576e-01,
       1.7360768520621850e-02, -3.7179821863763757e-01,
       1.7227173098273093e-02, -3.0567895945575774e-01,
       2.3914413284453075e-02, -2.1522971956007766e-01,
       3.8584132133164410e-02, -1.4137226013591442e-01,
       2.1999163149447432e-02, -2.2333550429319032e-01,
       1.5396821765258282e-02, -3.4070087202163524e-01,
       1.2740170539678134e-02, -4.2806973013318533e-01,
       1.1860981280466270e-02, -5.1144551281370554e-01,
       1.0677502735108563e-02, -5.7342460688627028e-01,
       9.3885186846547394e-03, -7.0278695465851515e-01,
       8.6375484851252092e-03, -9.3783046432095463e-01,
       8.7463750000484931e-03, -1.0533434340058401e+00,
       8.6671302296687756e-03, -9.9859207654151760e-01,
       9.0673463572688330e-03, -8.9346004065984175e-01,
       8.7985960800092879e-03, -7.8047066668114384e-01,
       1.0102197210368244e-02, -6.4185320195795681e-01,
       1.1437028944903652e-02, -5.1384283643663120e-01,
       1.3077413806410823e-02, -4.1063079352129983e-01,
       2.0247721451092379e-02, -2.5495930851215526e-01,
       3.1098632321042010e-02, -1.4404886491106658e-01,
       2.2029903831673765e-02, -2.7299456828210128e-01,
       1.3119545333943583e-02, -3.9967382905325727e-01,
       1.1612784454421642e-02, -4.5512824833769300e-01,
       1.0244274894507363e-02, -5.3688195867134192e-01,
       1.0122654711561036e-02, -6.4590635183528655e-01,
       9.4193649681426784e-03, -7.7849167588705603e-01,
       8.7808087627454564e-03, -8.8749390326820876e-01,
       8.6633263763791924e-03, -9.0729284474544003e-01,
       8.9347126440103408e-03, -8.5337227405471572e-01,
       9.4206352639608325e-03, -8.1213412483553538e-01,
       8.8760227424315493e-03, -6.9637724028020964e-01,
       9.1931989880884492e-03, -7.0368422334424219e-01,
       1.0272996612252843e-02, -5.7011021999358380e-01,
       1.2547252466356422e-02, -4.1084723475837470e-01,
       2.0270790476661131e-02, -3.2319748335988507e-01,
       3.7175142463337196e-02, -1.5910960974308322e-01,
       1.7602607643568479e-02, -2.9164000343864260e-01,
       1.3743001134476008e-02, -3.9931664096333491e-01,
       1.1272880668017784e-02, -5.1251024669076051e-01,
       9.7513715364456102e-03, -6.2970456833751165e-01,
       9.2048699420328173e-03, -7.0244203501640834e-01,
       9.1881545534995713e-03, -8.0091305611945074e-01,
       8.6534668571526113e-03, -9.1013703016788305e-01,
       8.7423942275172174e-03, -1.0021581350887536e+00,
       8.5794883771930352e-03, -9.4182191609474264e-01,
       8.9147451016450812e-03, -8.5289149336458814e-01,
       8.6348709902298627e-03, -8.0497721319318871e-01,
       9.0569803366097670e-03, -7.3136927614191183e-01,
       1.0730792804243426e-02, -5.3499440604836024e-01,
       1.3587754890007905e-02, -4.1969857304256419e-01,
       1.8674889700426543e-02, -3.0238381402930659e-01,
       2.6025870684221110e-02, -1.8884371768470837e-01,
       1.6971605759289684e-02, -2.8661647806288421e-01,
       1.3517906786798045e-02, -4.1191765560731003e-01,
       1.0702482596729174e-02, -4.9094428167716064e-01,
       9.7425247716686827e-03, -6.3334205035663771e-01,
       9.1496531267967474e-03, -7.6688732647559621e-01,
       8.6662905684783808e-03, -8.7279945573259476e-01,
       8.5967828291494304e-03, -9.9736435670660040e-01,
       8.6899463668200054e-03, -9.8015643060636204e-01,
       8.5263610784315162e-03, -9.7698455781099691e-01,
       8.9408451416278442e-03, -9.6446684711767883e-01,
       8.5765156758266081e-03, -8.0166407325086464e-01,
       9.2466125043793729e-03, -6.7507668571972923e-01,
       1.1193107311418472e-02, -5.0145120755154748e-01,
       1.3538604444328731e-02, -3.9099489635221374e-01,
       1.5430758715965123e-02, -3.2071288915261909e-01,
       2.3461237000628764e-02, -2.1997255811789529e-01,
       2.0568107618561451e-02, -2.7034720653837169e-01,
       1.2708581993293357e-02, -4.4327533992607232e-01,
       1.0146189260007682e-02, -5.3588113195656573e-01,
       1.0319574765087205e-02, -5.8284958273212528e-01,
       9.1483666113032804e-03, -7.6180278445644678e-01,
       8.6488364612140219e-03, -9.3753387239560004e-01,
       8.6619985459929043e-03, -1.0320251547637787e+00,
       9.0351758925578275e-03, -1.0370936296513578e+00,
       8.6952473615483968e-03, -1.0175526272378397e+00,
       8.8020838760169678e-03, -9.1421963969862641e-01,
       8.8684537345673515e-03, -8.0972529978093744e-01,
       9.8601151710541735e-03, -6.1156378336946404e-01,
       1.1665344911763962e-02, -4.9190426423926276e-01,
       1.2834593266390448e-02, -4.3339854541947265e-01,
       1.3851979272262421e-02, -3.7865770538656551e-01,
       2.1798177072172242e-02, -2.1815615613829978e-01,
       1.4033335376537217e-02, -3.6262138612972167e-01,
       1.1334721741674667e-02, -5.3282259963264278e-01,
       1.0064273726690803e-02, -5.6142544556971974e-01,
       9.7453471762083410e-03, -6.3602033810806113e-01,
       9.1877338017162767e-03, -7.8588199846360340e-01,
       8.6001583320621279e-03, -1.0098649919840634e+00,
       8.6539099318611711e-03, -1.1104697224564255e+00,
       8.7921373477039232e-03, -1.0983137974751740e+00,
       8.5937941517379574e-03, -1.2049186904268756e+00,
       8.8848558729134712e-03, -9.7960866912394773e-01,
       9.4019978864914502e-03, -7.5073072724056933e-01,
       1.0034350069950411e-02, -6.2790948997721696e-01,
       1.0941253531419365e-02, -5.2001589784129953e-01,
       1.0729881109691105e-02, -5.2936941442772034e-01,
       1.2772216227917988e-02, -4.3517495131762174e-01,
       1.7272079177550761e-02, -2.8754557414786508e-01,
       1.2332586840875535e-02, -4.4002669848243908e-01,
       1.0003383604542520e-02, -5.4442414929362204e-01,
       9.3076375162496183e-03, -6.3708917271225385e-01,
       9.2734758494649027e-03, -6.7266084421678618e-01,
       8.7576531978710553e-03, -7.6927225690099355e-01,
       8.4216565576552948e-03, -9.4026111134909829e-01,
       8.6668190257847035e-03, -1.0449410363008100e+00,
       8.4588062025186522e-03, -1.0467265147244680e+00,
       8.8758428354397279e-03, -1.1749485711841694e+00,
       8.5959425112279147e-03, -1.1051631367835506e+00,
       8.4985814764227605e-03, -7.8914428157471184e-01,
       9.1013346672326745e-03, -6.9082770658162884e-01,
       9.6805766636580450e-03, -6.1204477898311616e-01,
       9.7455305702118349e-03, -5.6258998875718880e-01,
       1.1079481525949798e-02, -4.7996313970414523e-01,
       1.2597785590184816e-02, -3.9506655610819585e-01,
       1.2459770917213342e-02, -4.2034283166310926e-01,
       1.0256134281777504e-02, -5.5301076047344300e-01,
       9.4730839961293927e-03, -6.3333250364522664e-01,
       9.4274026176156163e-03, -6.8744619887653080e-01,
       8.8382407666305566e-03, -7.9869414159887009e-01,
       8.6120082930757486e-03, -9.4180922693076385e-01,
       8.5716670778496051e-03, -1.0342230629450220e+00,
       8.2669796343040093e-03, -1.0359517519339041e+00,
       8.7343182091838938e-03, -1.1090487889293341e+00,
       8.7712665054029172e-03, -1.0258171603398820e+00,
       8.5856229771013679e-03, -8.8212124715930296e-01,
       8.8649257137903507e-03, -7.8699264516745215e-01,
       8.8880678305153470e-03, -7.2284878052015211e-01,
       9.2817681403301721e-03, -6.1690343767890454e-01,
       1.0217504394305597e-02, -5.1054825957466210e-01,
       1.2432400100576798e-02, -3.9863247682489444e-01,
       1.7558307222429816e-02, -2.9806982340796856e-01,
       1.2878248329564326e-02, -4.7113783688878130e-01,
       1.0752969888873960e-02, -5.8143458783119284e-01,
       1.0415948786601736e-02, -6.2120718563292754e-01,
       9.2782706566897372e-03, -7.5354402965371370e-01,
       8.9525220929988908e-03, -8.5886915951394160e-01,
       8.7679992739394322e-03, -9.4834680146928896e-01,
       8.9328247848142733e-03, -9.8732725781595210e-01,
       8.6996689605096933e-03, -9.6079143999869054e-01,
       8.9434454307344216e-03, -9.6267246616425317e-01,
       9.1945635134244186e-03, -8.6701056106186902e-01,
       9.4182396516835944e-03, -8.0318747749557695e-01,
       9.4026858315913748e-03, -7.0632975966914413e-01,
       9.7708998113487672e-03, -6.4956941945846614e-01,
       1.1512604388162683e-02, -5.2423795341937596e-01,
       1.4997945230284984e-02, -3.6906943622685290e-01,
       2.0481046536176037e-02, -3.0344718547998417e-01,
       1.2475828045223597e-02, -4.5591666008465109e-01,
       1.0408556212410578e-02, -5.5165347925776065e-01,
       1.0504534157666744e-02, -6.1203617816229516e-01,
       9.3777019000153838e-03, -7.2058261399718215e-01,
       8.6410528170109135e-03, -7.9525337285514841e-01,
       8.9233464268240834e-03, -9.1339374024971320e-01,
       8.7121300448975356e-03, -9.8781615301066217e-01,
       8.6977325862566332e-03, -1.0417100363907845e+00,
       8.7354852498953296e-03, -9.3057377270084973e-01,
       8.9635906592250535e-03, -8.5017864684617783e-01,
       9.1209066896814871e-03, -7.1084698376701649e-01,
       1.0190572175736963e-02, -5.9749362780780957e-01,
       1.0638838603007182e-02, -5.0240851418841115e-01,
       1.1560371795830421e-02, -4.5520119983261859e-01,
       1.4438450374041333e-02, -3.3231537380893528e-01,
       1.5187640266289243e-02, -3.5174574856725888e-01,
       1.2177822692004216e-02, -4.5184593316412441e-01,
       1.0577863046316215e-02, -5.4200970249324287e-01,
       1.0109768010722607e-02, -6.4451793021958770e-01,
       9.2196716866897368e-03, -7.2009323741721520e-01,
       9.0387148672813177e-03, -7.7667869111574905e-01,
       8.7896278392112261e-03, -8.6018813885656742e-01,
       8.6644763440575159e-03, -9.0228390856477347e-01,
       8.5280805348826316e-03, -1.0620530374921435e+00,
       8.8192463951165898e-03, -9.8944889156092042e-01,
       8.9876414734163645e-03, -8.3261510609729206e-01,
       9.5589784578933232e-03, -6.5964598542230235e-01,
       1.0937653620423907e-02, -5.2439486517760381e-01,
       1.0822418176955772e-02, -5.0034203715701919e-01,
       1.1343936862353170e-02, -4.3733145391743944e-01,
       1.4599070049964019e-02, -3.5668447946072090e-01,
       1.5092991855540696e-02, -3.3868673723833320e-01,
       1.2023237478191194e-02, -4.5457456257545265e-01,
       1.0796303250336257e-02, -5.7945918805204755e-01,
       9.8965392889688829e-03, -6.7882342290895359e-01,
       9.0587795575921577e-03, -7.6731486364628609e-01,
       8.7602048959586742e-03, -8.3369117953859517e-01,
       8.7820805427383086e-03, -8.8425012568723482e-01,
       8.9068555399646736e-03, -7.7945674201338855e-01,
       8.6537647627549993e-03, -8.6953028336162241e-01,
       8.7525399197408028e-03, -8.7777472347096563e-01,
       8.9171763251052576e-03, -7.9006182240432576e-01,
       9.5914740427367421e-03, -6.9519003861755913e-01,
       1.0261646634683196e-02, -5.5733055202291371e-01,
       1.0847948277359189e-02, -5.0291088213837198e-01,
       1.2975051183751739e-02, -4.5184318242297056e-01,
       1.8886710367483132e-02, -3.0400049007500851e-01,
       2.1386628980022113e-02, -2.6639185057515541e-01,
       1.3667957309151935e-02, -4.2162914707271887e-01,
       1.1103587390877185e-02, -5.4638532833028453e-01,
       1.0060468688497158e-02, -6.4483580105791383e-01,
       9.3445358240486272e-03, -6.9687810361425040e-01,
       8.8820506190467365e-03, -8.2965458422391758e-01,
       8.6846640266579588e-03, -8.8312611554279452e-01,
       8.8581857024946555e-03, -8.5456689109106432e-01,
       8.8938949825188053e-03, -8.4278548854348201e-01,
       9.3108588208781051e-03, -7.7153500533324337e-01,
       9.2176123532742380e-03, -7.0938744670798526e-01,
       9.4115298778937213e-03, -6.2575379852139779e-01,
       1.0059212809855635e-02, -5.8850418622779410e-01,
       1.1886023172667851e-02, -4.7639180876052745e-01,
       1.4652448758939556e-02, -4.0663475795809051e-01,
       2.1137562005051687e-02, -2.5060693513189281e-01,
       2.3530633344056147e-02, -2.2928249130448308e-01,
       1.5832443745977101e-02, -3.6401954660750552e-01,
       1.1913396384001153e-02, -4.6443184463390097e-01,
       1.0973897312041727e-02, -5.4421751549877329e-01,
       1.0289482620421992e-02, -6.0460999877599630e-01,
       8.9174056377943831e-03, -8.1619230321604430e-01,
       8.6378108032915697e-03, -9.5174854554987831e-01,
       8.7948383453822377e-03, -1.0129543012677447e+00,
       8.7062912594199487e-03, -9.8805958244905112e-01,
       9.1625239840649082e-03, -8.0850111635388744e-01,
       1.0779640973060804e-02, -6.0159020342457736e-01,
       1.0658609364954951e-02, -5.5100746973071113e-01,
       1.0885955631070037e-02, -5.0833058414844645e-01,
       1.3180116379726093e-02, -4.5033821646248112e-01,
       1.8513054291605633e-02, -3.0953826775564619e-01,
       3.4307498367239266e-02, -1.6275477225418306e-01,
       4.1083480987866711e-02, -1.2555111789892068e-01,
       2.2741537084331191e-02, -2.4215188687395850e-01,
       1.5053768732045900e-02, -3.4623668083705572e-01,
       1.4415910691227543e-02, -4.1367897319546559e-01,
       1.2696058305294239e-02, -4.9392745230916713e-01,
       1.0234348242819227e-02, -5.9703093909310245e-01,
       9.3530992404722516e-03, -7.0043489592048602e-01,
       9.2841974272451725e-03, -8.0460568583477565e-01,
       9.1085626399314123e-03, -7.5513627710087372e-01,
       1.0770150745090750e-02, -5.7081798948980977e-01,
       1.3143871843986207e-02, -4.0998365055761776e-01,
       1.3518295550384172e-02, -4.0208818285062681e-01,
       1.3431669754828299e-02, -3.9596562437233829e-01,
       1.7258026292728379e-02, -3.1437220694834017e-01,
       3.3260418905765532e-02, -1.8652442922353310e-01,
       4.3990463754690540e-02, -9.4667478000094049e-02 ]
   output_scale: [ 1., 0., 5.2631578947368418e-01,
       4.9999999999999994e-01, 5.2631578947368418e-01,
       4.9999999999999994e-01, 5.2631578947368418e-01,
       4.9999999999999994e-01, 5.2631578947368418e-01,
       4.9999999999999994e-01, 5.2631578947368418e-01,
       4.9999999999999994e-01, 5.2631578947368418e-01,
       4.9999999999999994e-01, 5.2631578947368418e-01,
       4.9999999999999994e-01, 5.2631578947368418e-01,
       4.9999999999999994e-01, 5.2631578947368418e-01,
       4.9999999999999994e-01, 5.2631578947368418e-01,
       4.9999999999999994e-01, 5.2631578947368418e-01,
       4.9999999999999994e-01, 5.2631578947368418e-01,
       4.9999999999999994e-01, 5.2631578947368418e-01,
       4.9999999999999994e-01, 5.2631578947368418e-01,
       4.9999999999999994e-01, 5.2631578947368418e-01,
       4.9999999999999994e-01, 5.2631578947368418e-01,
       4.9999999999999994e-01, 5.2631578947368418e-01,
       4.9999999999999994e-01, 5.2631578947368418e-01,
       4.9999999999999994e-01, 5.2631578947368418e-01,
       4.9999999999999994e-01, 5.2631578947368418e-01,
       4.9999999999999994e-01, 5.2631578947368418e-01,
       4.9999999999999994e-01, 5.2631578947368418e-01,
       4.9999999999999994e-01, 5.2631578947368418e-01,
       4.9999999999999994e-01, 5.2631578947368418e-01,
       4.9999999999999994e-01, 5.2631578947368418e-01,
       4.9999999999999994e-01, 5.2631578947368418e-01,
       4.9999999999999994e-01, 5.2631578947368418e-01,
       4.9999999999999994e-01, 5.2631578947368418e-01,
       4.9999999999999994e-01, 5.2631578947368418e-01,
       4.9999999999999994e-01, 5.2631578947368418e-01,
       4.9999999999999994e-01, 5.2631578947368418e-01,
       4.9999999999999994e-01, 5.2631578947368418e-01,
       4.9999999999999994e-01 ]
   inv_output_scale: [ 1., 0., 1.8999999999999999e+00,
       -9.4999999999999996e-01, 1.8999999999999999e+00,
       -9.4999999999999996e-01, 1.8999999999999999e+00,
       -9.4999999999999996e-01, 1.8999999999999999e+00,
       -9.4999999999999996e-01, 1.8999999999999999e+00,
       -9.4999999999999996e-01, 1.8999999999999999e+00,
       -9.4999999999999996e-01, 1.8999999999999999e+00,
       -9.4999999999999996e-01, 1.8999999999999999e+00,
       -9.4999999999999996e-01, 1.8999999999999999e+00,
       -9.4999999999999996e-01, 1.8999999999999999e+00,
       -9.4999999999999996e-01, 1.8999999999999999e+00,
       -9.4999999999999996e-01, 1.8999999999999999e+00,
       -9.4999999999999996e-01, 1.8999999999999999e+00,
       -9.4999999999999996e-01, 1.8999999999999999e+00,
       -9.4999999999999996e-01, 1.8999999999999999e+00,
       -9.4999999999999996e-01, 1.8999999999999999e+00,
       -9.4999999999999996e-01, 1.8999999999999999e+00,
       -9.4999999999999996e-01, 1.8999999999999999e+00,
       -9.4999999999999996e-01, 1.8999999999999999e+00,
       -9.4999999999999996e-01, 1.8999999999999999e+00,
       -9.4999999999999996e-01, 1.8999999999999999e+00,
       -9.4999999999999996e-01, 1.8999999999999999e+00,
       -9.4999999999999996e-01, 1.8999999999999999e+00,
       -9.4999999999999996e-01, 1.8999999999999999e+00,
       -9.4999999999999996e-01, 1.8999999999999999e+00,
       -9.4999999999999996e-01, 1.8999999999999999e+00,
       -9.4999999999999996e-01, 1.8999999999999999e+00,
       -9.4999999999999996e-01, 1.8999999999999999e+00,
       -9.4999999999999996e-01, 1.8999999999999999e+00,
       -9.4999999999999996e-01, 1.8999999999999999e+00,
       -9.4999999999999996e-01, 1.8999999999999999e+00,
       -9.4999999999999996e-01, 1.8999999999999999e+00,
       -9.4999999999999996e-01 ]
   weights:
      - [ -1.6664799001833996e-01, 4.7625731677288718e-01,
          1.9315428651369432e-01, 3.4839902405886131e-01,
          5.4939654945980375e-02, 6.0641302767466621e-01,
          1.9614358888819419e-01, 2.1498689610886257e-01,
          -3.6780846486648471e-02, 1.1550769089465986e-01,
          -1.2650586803928533e-02, 4.3101496849041326e-03,
          1.5883409349202893e-01, -6.9819223608542674e-02,
          1.3311137223887470e-01, -1.0136616780304940e-01,
          -1.5811005792074648e+00, 3.5615293851618890e-01,
          1.0319288487929910e-01, 8.3401257509161095e-02,
          -8.7032597171712037e-02, 4.6138100240100682e-01,
          3.2335430236066659e-01, -1.5065950229534245e-01,
          -9.2028108811477785e-02, 4.6097514260342649e-02,
          -1.9982783993387074e-01, 8.3022306135168325e-02,
          7.5400191541101405e-02, 9.2953393055222558e-02,
          -2.4030648984259828e-02, -1.4011403358022598e-01,
          8.0694444513514654e+00, 1.8027967377493526e-01,
          -1.2682924217334457e-01, 4.6017796516976076e-03,
          -2.0022660799579498e-02, 4.5403905636244202e-01,
          1.8628468086648689e-01, -2.3915933338879927e-01,
          -4.1996458393619179e-02, -4.3576236250751896e-02,
          1.1355001098120998e-01, 1.0259874837608207e-01,
          3.0223962751242082e-02, 8.1648373369627839e-02,
          1.5774907853878525e-02, -2.0224280156599683e-01,
          1.6520464561130886e+01, -7.8942213977996736e-02,
          -4.5106247210015771e-01, -1.7311516955020090e-01,
          -1.5326585157811534e-01, 1.4461794410590730e-02,
          6.0380684536762916e-02, -3.8041928647395873e-01,
          4.6500245231686860e-02, 2.2328572954230683e-01,
          2.6455365009714660e-01, -1.5818207867566592e-01,
          -7.3355932131954335e-02, 2.3111751613463008e-01,
          2.6836238298289122e-01, -1.5140678222566201e-01,
          1.1208445790791700e+01, 5.4389523350378124e-02,
          -2.0903885640091160e-01, 1.7929467202819887e-02,
          -1.1335200773479019e-01, -6.9116901186387372e-02,
          -2.1125868587519098e-02, -3.2937979451970167e-01,
          1.8023694972356277e-01, 2.6993458405494558e-01,
          2.8935789970855677e-02, 3.3659226854411424e-02,
          2.3161285913164636e-01, -5.1414767628077639e-02,
          -9.3764237172149822e-02, -2.1488563340740408e-01,
          1.1104007056405027e+01, 9.6867602125970911e-02,
          4.0779056251660659e-02, 2.3248646303870215e-02,
          -6.2588667013768168e-02, 1.6235066506974966e-01,
          1.6333297751333553e-01, 3.2088922173836271e-02,
          3.4501847183083068e-01, 1.8256030277801322e-01,
          -2.3580326189095302e-01, 1.3202619886399111e-01,
          5.6961056754203043e-01, -1.8922819270380625e-01,
          -2.4405787618964875e-01, -2.1308087297462164e-01,
          1.8814983981807494e+01, -4.0481729747531980e-01,
          1.4364887908664520e-01, 1.5018421007249852e-01,
          -3.1299688871108117e-01, -2.1262805968886841e-02,
          -6.5462650823849694e-02, 1.2221815637751168e-01,
          4.2632470188752941e-01, -1.4627712609979358e-03,
          7.4964776706433880e-02, -5.9178368361925721e-02,
          7.1197243088064244e-01, 2.2656244627459746e-01,
          -1.4845366351353215e-01, -9.4549088621277436e-02,
          1.9001992088284158e+01, -2.9081530679856638e-02,
          1.6181468467317742e-01, 1.2312523074689478e-01,
          -7.4125564637450747e-01, 1.2771924547412136e-01,
          4.6966696536956121e-02, 1.6382098208515092e-01,
          -8.4972692136419860e-03, 7.0330759803571868e-02,
          1.7276144763420756e-01, 1.4510328995967120e-01,
          5.6199904569327519e-01, -6.9240915561003813e-02,
          -1.2780766681117364e-01, 6.6072544079164436e-02,
          9.8910829124875495e+00, 2.7374205194866469e-01,
          1.4893647332329160e-01, -2.1565513803456016e-01,
          -1.0430166680209862e+00, -1.0150143488668438e-01,
          -1.6484368746259023e-01, -6.1694247554870199e-02,
          9.2342194984863554e-02, 3.8258230639654250e-02,
          1.1519171763102380e-01, 1.0505657230921307e-01,
          4.0855994579076460e-02, -3.6638623393852360e-03,
          -2.3792575795845705e-01, 1.7703693904667217e-01,
          7.5524543760807532e+00, 6.2363543249299358e-01,
          -2.4301869255885247e-02, -1.4337435271281822e-02,
          -3.4565547793349433e-01, -2.9782832301858880e-01,
          9.9362314404118315e-02, -2.3774253970263889e-01,
          1.7700044933075826e-01, 4.6635518648533580e-01,
          4.0777754408627305e-02, 3.9221092056878210e-01,
          1.4746645210519529e-01, 1.0620554825775667e-01,
          1.0944651133064703e-02, -2.3613761419553322e-01,
          4.9873949385825940e+00, 4.9974306040243727e-01,
          -1.9559821951783629e-01, -1.5075197536171764e-01,
          -1.9760178815206489e-01, -3.3810955323103403e-01,
          3.1421642037762199e-01, -2.6311645933721241e-02,
          3.6059614629729009e-01, 5.2092365520753936e-01,
          2.5184977568542527e-01, 2.0376421777978240e-01,
          2.4573664948024168e-01, 2.3450944435281346e-01,
          -2.9134108163544326e-02, -4.4294888111639957e-01,
          7.6301342054068382e+00, 6.0420226919189616e-03,
          -3.3472557911742029e-01, -1.7502366492726476e-01,
          -3.0432470060820055e-01, -3.4380789237390252e-01,
          2.0869660708807958e-01, -1.4567019606292925e-01,
          4.4462356537731292e-03, 4.3138819960536373e-01,
          2.7413333876864715e-01, -1.4501410903795284e-01,
          1.6774513403298630e-01, 1.8447671704433988e-01,
          -9.3982299611852310e-02, -1.8473451376547143e-01,
          8.8714653532534111e+00, -1.7265132808533792e-01,
          -1.6164119361507301e-01, -1.8233137006199773e-02,
          -7.7316913503845883e-02, -5.9204546552067572e-03,
          2.1760060396888625e-01, -1.3712638336065525e-01,
          6.3127148587632465e-02, 8.1059021754237515e-02,
          2.4829859506740945e-01, -2.6892343715051703e-01,
          4.5155908857269889e-02, -8.7724553598353003e-02,
          -1.1452316480607896e-01, -2.0818839129986952e-01,
          5.8539019713265201e+00, -2.5904200855365850e-01,
          1.6145025654737874e-01, 7.4173503788096187e-02,
          -9.8020905179873483e-02, 1.4825723400573826e-01,
          1.8527094072032141e-01, 3.6553366718783779e-02,
          4.3952623764641530e-01, -3.9988284196867584e-02,
          3.1177538717945741e-01, -9.2719734898519743e-02,
          1.4834560303606306e-01, -1.2493303862286760e-01,
          -3.4990019766896620e-02, -1.3112904779372112e-01,
          4.1269473883497430e+00, -1.9496421309347611e-01,
          5.5477770431618272e-02, -2.9149928030409149e-03,
          -1.3727258537805970e-01, 2.2404986104936096e-02,
          2.0776349256462778e-01, 1.7915267058626741e-02,
          2.9542462569296274e-01, -2.5251196775903262e-02,
          2.3016663812600324e-01, 3.1192428235099681e-02,
          1.3346444324219711e-01, -8.0322500397730895e-02,
          2.3240795734677543e-02, -9.4882664733434000e-02,
          8.8269778254294895e+00, -1.2952382941507759e-01,
          -4.0547290535552852e-03, -1.0427568484552062e-02,
          -9.9823244117196674e-02, -1.8090283379678588e-03,
          1.5522846495582124e-01, 5.6049000683103298e-02,
          1.7629813201065217e-01, 1.9513231051995390e-03,
          1.5826765527216730e-01, 4.1324244629556750e-02,
          8.9503542729967189e-02, -6.1018620129872150e-02,
          3.9342557426857258e-02, -6.7476319379821320e-02,
          -2.0497047190019559e+00, 5.3353734020003485e-01,
          1.1926432065785310e-01, 1.0290579585682471e-02,
          5.1040482188327174e-01, 6.9828586103523793e-01,
          1.1271585483706223e-01, 2.2624925744948621e-01,
          7.2823096420544950e-02, -1.2152353059743799e-01,
          -4.3146098864570402e-02, -1.9203794903131149e-01,
          -1.9028734756818799e-01, 3.2491915765053753e-02,
          1.6500452941487873e-01, 1.3315023017383984e-01,
          -2.8396754348484090e+00, 2.9613500886293093e-01,
          -1.4499244018476762e-01, -9.1630638637718212e-02,
          2.3656058213070524e-01, 5.9760874352566673e-01,
          2.4508315378895984e-01, -1.3671828313016152e-01,
          5.8957216598411501e-03, -2.5177833244384767e-01,
          -4.4961673470220627e-02, -1.4921706591980851e-02,
          3.7490062634476323e-02, 1.0431364282904411e-01,
          1.5267626741470504e-02, -3.8378897008312159e-02,
          9.6133800974271533e-01, 6.9410002649686470e-02,
          -2.3528625500393394e-01, -1.1567285290533330e-01,
          2.7484832908966794e-01, 3.6070269594202492e-01,
          1.6964742394978108e-01, -1.4959111872203598e-01,
          1.6855309775784841e-01, -1.0370855425537748e-01,
          1.0270615302630705e-01, -4.6265247467379547e-02,
          2.9069337393856053e-02, 1.2331744422178019e-01,
          1.3697327700642120e-01, -1.0446232776814991e-01,
          4.9439683399495564e+00, -6.6820625547213200e-02,
          -9.1059951029480363e-02, 1.5448848718805563e-01,
          4.0347828338978604e-02, 8.8846534900279328e-02,
          -7.5261999141897906e-02, 5.8883478039828061e-02,
          2.2290752327443905e-01, 1.8483131129380287e-01,
          2.0021850868929569e-01, -2.4393514081651142e-02,
          2.3301058608446887e-01, -2.3508797245078900e-02,
          2.2423302705080317e-01, -2.0164357122389162e-01,
          8.2126485718447064e+00, 2.2949642337346585e-01,
          -1.6780489625915877e-02, 1.4678157935646360e-01,
          -2.0043784101156314e-01, -4.1277279653358506e-02,
          -6.4471442033199503e-02, -6.9359019106932207e-02,
          1.9160399665733285e-01, 2.6197185518934768e-01,
          -9.7646810724999811e-02, -6.4648119365026541e-02,
          3.3709706198739237e-01, 1.1831986132989386e-02,
          -2.8406995866834803e-02, -2.8215252181285239e-01,
          1.6376207212046204e+01, 2.3267345515781351e-01,
          5.4543398226942506e-02, 6.3157183434450245e-02,
          -1.0188329469249885e-01, 6.9128872015961601e-02,
          1.9523464093670639e-01, 1.5005480892920989e-02,
          4.5250971023525703e-02, 6.7119176134355363e-02,
          -2.4722270762684323e-01, 1.5349253268399127e-01,
          4.9314992970440347e-01, 2.4351246271520063e-01,
          -1.0412488724762112e-01, -7.1366811369094563e-02,
          1.8789537778746414e+01, -2.2694710524603562e-01,
          2.2930177841279025e-02, 1.1207785155688152e-01,
          -2.1817275349089307e-01, -8.0822547356248511e-02,
          1.9228745749481986e-03, -6.0325017908214269e-02,
          4.8410206547764878e-01, 1.2274217975979775e-01,
          5.2153927913290772e-02, 7.0209106830385433e-03,
          5.3033667502842829e-01, -1.1006440478117607e-01,
          -1.1877507422074463e-01, -1.6005721465706088e-01,
          1.9753983138224157e+01, 2.3866989788669288e-01,
          1.6457721321009339e-01, 2.2196337621723022e-01,
          -2.2263467930354169e-01, 4.4344146154186533e-02,
          1.0882214734357463e-02, 1.2235017002423774e-02,
          -2.1283491155114811e-02, 1.2239545565273080e-01,
          -1.0442584067850143e-01, 1.3848513996206971e-01,
          2.3280813241315587e-01, -4.7814429612968201e-01,
          -1.2450878887935098e-01, 1.3026108794561245e-01,
          1.3508823226444635e+01, 2.4845405657624370e-01,
          1.5139853150150603e-01, 1.1375626727265152e-01,
          -6.9210275804785881e-01, -3.1914312958404178e-01,
          -1.5714630022982043e-01, -2.0523348810249772e-01,
          5.8250245168947855e-02, 2.7550387873943061e-01,
          4.6884692974955476e-02, -8.7142085216199774e-02,
          1.3825182073079398e-01, -3.2711767948058398e-02,
          -2.1385420165921193e-01, -5.5978290037726780e-02,
          3.6063457840388708e+00, 4.5418687752734993e-01,
          3.6213204259677348e-02, -1.1473768284544038e-01,
          -6.0004903236031737e-01, -3.6016540983945194e-01,
          1.2798182895814661e-01, -9.2317348615922751e-03,
          1.6501095399491561e-01, 4.4909732932085711e-01,
          -7.0095593957679230e-03, 4.4744213747758682e-01,
          1.7339520430280722e-01, 1.1515939090121693e-01,
          -1.6370556300638184e-01, -1.6550001472488654e-01,
          -1.9358976113353041e+00, 4.4690774600569466e-01,
          -1.1551262798070679e-01, -3.1056048782602163e-02,
          -1.0784358963838672e-01, -4.8627275469268710e-01,
          8.9718707672506157e-02, -1.4131586825557274e-01,
          3.0278639521761103e-01, 6.4115364973411770e-01,
          2.3231606117417358e-01, 1.9258399369121035e-01,
          2.1898036780347696e-01, 2.8220143608784576e-01,
          -2.1733697878255173e-01, -4.6146473877056898e-01,
          -1.7698566946299912e+00, 1.6492943862356575e-02,
          -2.1588740472141441e-01, 2.2068318049659651e-02,
          -8.0240308751958166e-03, -4.0260869104715505e-03,
          2.4288568871972581e-02, -2.6230587432410263e-01,
          1.9697674723799649e-01, 3.4707451903442726e-01,
          2.7548787173600847e-01, -7.5223885590286282e-02,
          -7.9307134929064542e-03, 2.9112338579139246e-01,
          -2.1070975862870772e-01, -2.7534683957405709e-01,
          -2.5214023274621464e+00, -1.2790327833216697e-01,
          -1.8450629931260007e-01, 2.4511361847567088e-02,
          -1.6131626538249824e-01, 1.4439276517885388e-01,
          1.0827120410841617e-01, -2.2314844094674910e-01,
          3.2065528111478742e-01, 7.2968792243600950e-02,
          4.0161043137415481e-01, -1.8492540431929358e-01,
          2.5400343758546329e-01, -9.0887725968638727e-02,
          -2.8300251520912889e-01, -2.6153339049203256e-01,
          -3.2721114160340153e-01, -1.7400995371082445e-01,
          1.4133756306421845e-02, 1.8708735474448099e-01,
          1.0662429697195745e-02, 1.6838979209305246e-01,
          9.6485185648693572e-02, 1.0194949885836851e-01,
          5.3126645731790434e-01, -5.5999153735155384e-02,
          3.8208936141861927e-01, -5.7420739046316123e-02,
          1.7839422997752319e-01, -2.5916856088905960e-01,
          -3.0596465018906616e-02, -2.0167629801695447e-01,
          3.2029497718520945e+00, -1.9187509676544537e-01,
          1.7719604119563573e-01, 4.3678215165074967e-02,
          -1.3279262118885754e-01, 1.7394794527357887e-01,
          2.2959647142737125e-01, 7.0035293265147097e-02,
          3.9201855926535617e-01, -7.7647456562372527e-02,
          2.3780194865590826e-01, -4.4886279543389619e-02,
          1.6028294300281914e-01, -1.1319468716470536e-01,
          -3.5629864405066429e-02, -1.0563627177379377e-01,
          8.9777660420744585e+00, -1.2869134954349595e-01,
          6.5953400633778442e-02, 4.9805658085845833e-02,
          -7.5239110222077007e-02, 1.2865984595290503e-01,
          7.2453039324897814e-02, 4.3272412354231141e-02,
          2.0700280085977407e-01, -1.5894367493354195e-01,
          1.5080034241931620e-01, -4.8611569571009091e-03,
          9.2200751915191725e-02, -6.3681863781023931e-02,
          -2.8068211017996961e-02, -6.7760241728560058e-02,
          3.2506604818347049e+00, 3.9458301152772018e-01,
          -4.8566350473886424e-02, -2.8298266860722698e-01,
          6.3835734303871877e-02, 4.2261634417369953e-01,
          -1.4343301555219673e-01, -1.4242663880560646e-01,
          1.6670521962906379e-01, 1.3839946974687561e-01,
          2.5317247157157918e-01, -1.3478374334903244e-02,
          -3.1602518628226450e-01, 1.6814913934904512e-02,
          -1.3472666262466754e-01, -1.4230247796684597e-01,
          -2.9663424113757593e+00, 1.3638875707882009e-01,
          -1.9570112622539504e-01, -1.4657200897131062e-01,
          2.1074335381926884e-01, 4.3358560526493056e-01,
          1.5286553583063239e-01, -1.6778736980888437e-01,
          1.2886534223103580e-01, -1.5519257161757141e-01,
          6.8671695097414609e-02, -1.0658677172166991e-02,
          -1.3849069253747773e-01, 4.3908222559269940e-02,
          1.0455876905373959e-03, -9.3046819818649623e-02,
          -2.5502651424596640e-02, -1.6240732094492522e-02,
          -2.2985425069538379e-01, -1.3675311501471553e-03,
          3.8729941759608255e-01, 2.3858829278319330e-01,
          -1.4331252277792457e-02, 1.6611629805097414e-01,
          3.7330293543824861e-01, -1.6511945334704198e-02,
          1.1938101286389342e-01, -2.8196099251499851e-02,
          -1.6620774938105140e-02, 8.1484545110050051e-03,
          1.7238477225967297e-01, -1.1186977759542467e-01,
          3.6745996384653519e+00, -1.6064129447031586e-01,
          -2.1320652117832778e-01, 1.3798652118539714e-01,
          1.8502644633939141e-01, 1.6380937717937161e-01,
          -7.6089524884563775e-02, 2.3969802725141895e-01,
          3.0903135094848544e-01, 1.4898744712758866e-01,
          1.4806971686919557e-01, -7.8947089144955865e-02,
          2.0069459971514481e-01, 4.7923653015832263e-02,
          1.6655416822041949e-01, -1.0120494899976988e-01,
          9.3113559575366196e+00, 3.9024320721995935e-03,
          -7.6169684450017455e-02, 7.1527121281779904e-02,
          -2.3792918127026330e-01, 2.2932403576009033e-01,
          -1.9451710313566642e-02, -2.5429906591520380e-02,
          3.7551063118155467e-02, 1.2805359609778516e-01,
          -3.7766084541636699e-02, 4.6916304630424781e-02,
          4.4976452499241382e-01, 1.3799552984192254e-01,
          -6.7481231433510367e-03, -2.6803061652271604e-01,
          1.2260691559123028e+01, 2.7763414444096857e-01,
          1.8530704239786044e-02, 1.7873008124689307e-01,
          -1.3201794575446265e-02, -2.8449218122599457e-02,
          5.8196663063638160e-02, 2.3595707071265240e-01,
          -1.0525952082628005e-02, 4.8004226957714551e-02,
          -3.4482388926350349e-01, -3.8986914799335685e-02,
          3.4067457828155012e-01, 1.8640660298654443e-01,
          4.8388325662907038e-02, -1.3854302863154674e-01,
          1.5285720586638567e+01, 1.6937489811793774e-01,
          1.0966091705125265e-01, 2.8800292111496095e-01,
          -3.6058718020970514e-02, -1.4854398392108045e-01,
          -1.1572756134963294e-01, 1.4796107312059412e-01,
          3.3549797897020306e-01, 4.9268852543177373e-02,
          -1.4020276689606520e-01, -1.4075485072695499e-03,
          8.7685328018202169e-02, -3.8268670224131396e-01,
          -6.6001169407624294e-02, 7.0071458560775110e-02,
          1.8531559625859163e+01, 2.7478155952848077e-01,
          3.0188982212805918e-02, 3.1913379354042770e-01,
          2.7861349949885422e-01, -2.4876157892524606e-01,
          2.0337511948542672e-01, -1.9555400008599996e-02,
          9.1898494932470005e-03, 5.0924596634956254e-01,
          -2.1851341645457531e-01, 5.8186601425986174e-02,
          1.1287103727752845e-01, 2.9748830979894707e-02,
          4.5872827573013858e-04, 3.2878308077941587e-01,
          1.2686290877896191e+01, 1.6193885364135444e-01,
          -6.0378514275817072e-02, 1.3784406558144374e-01,
          -4.2025165799318975e-01, -6.8099374615855501e-01,
          -1.5198004191951631e-01, -1.0450260855490343e-01,
          -1.6112492469249456e-01, 2.7037119999816267e-01,
          -1.2019616147740463e-01, -1.8206054955008341e-01,
          1.1888930781862743e-01, 3.2693990299902859e-01,
          -6.2253977603980493e-02, 3.3180350097482386e-01,
          8.9096599937679355e-01, 1.3344603208404957e-01,
          -1.4827090367218185e-01, 1.0635819625625430e-01,
          -6.8688882127265516e-01, -5.4622058960672037e-01,
          -6.8360001651131305e-02, -2.7029063124079607e-02,
          1.0854555837847582e-01, 1.2107524606271168e-01,
          -2.1588339447307980e-01, 2.8394538909921208e-01,
          1.1024105436033334e-01, 3.2073415429918073e-01,
          -2.4362640996297749e-01, -1.7932852010974967e-01,
          -6.9706325670860292e-01, 4.2735067193989740e-01,
          -6.4742178139997317e-02, 1.5407013282885487e-02,
          4.9954160843255109e-02, -1.2975033569215341e-01,
          -1.1424466713104589e-01, -3.0376277461917019e-02,
          2.8800973642102046e-01, 1.2910456386064964e-01,
          4.5691999030420351e-02, 1.2262848826880091e-01,
          -2.3832746424589019e-01, 1.1653463824013016e-01,
          -2.9972977407954193e-01, -3.4436382461388604e-01,
          -3.9844720034277525e+00, 9.7791390879405277e-02,
          4.1615166741902104e-02, 1.4573126281696491e-01,
          -1.0114365184977557e-01, 6.5573444511580259e-02,
          -6.3348524310364987e-02, -4.0507985475497210e-01,
          3.2897788726382937e-01, 1.5474962212150026e-01,
          3.4234704583487929e-01, -7.3523252438563488e-02,
          -7.4523368687896316e-02, 1.2158468262473018e-01,
          -2.2958754981144916e-01, -3.1781285194227876e-01,
          -6.2434631944903245e+00, -2.6002466029064830e-01,
          -1.0734341025988957e-01, 1.1360729077454118e-01,
          -2.3601372922189237e-01, 2.7010712270626163e-02,
          7.5922229470817837e-03, -1.8990461525040936e-01,
          4.7058548834739805e-01, 1.5975856921817713e-01,
          4.5821605772447022e-01, -9.8553976309577157e-02,
          3.5112293006763573e-01, -1.3153840213349713e-01,
          -2.7465594732083942e-01, -2.7775229286437586e-01,
          1.3098252548749179e+00, -2.2407244046020167e-01,
          -5.7618141126954486e-02, 1.2548116340606108e-01,
          -3.5592208957715248e-02, -7.5915979887374932e-02,
          -4.5410980563724288e-03, 1.7754752222202932e-01,
          6.0266591733478547e-01, 1.4966945166277390e-01,
          3.4461359566143862e-01, -3.4130805025382578e-02,
          4.0662323404327239e-01, -1.3833919288501517e-01,
          -1.0699742226094386e-01, -1.8497231108878195e-01,
          5.4715140318486943e+00, -1.1300818180137508e-01,
          -5.6635645000271753e-02, 1.0495002848106913e-01,
          -1.4864265901465848e-01, 5.9342858247727170e-02,
          2.6847075621425957e-02, 2.7358152118593854e-01,
          4.6283549855946482e-01, 4.7192978627716604e-02,
          3.0068706922171606e-01, -2.7759521740055974e-02,
          2.0499959558006464e-01, -1.1214252093170220e-01,
          -1.4905058025898665e-01, -1.4970875717971427e-01,
          2.0312243189298524e+01, -1.6015446009063064e-01,
          -2.2950197014374275e-02, 4.4759994925047036e-02,
          -1.2909771798922606e-01, -4.5259671986418427e-02,
          8.7146251754063042e-02, 1.4231017210608277e-01,
          2.0741085256658276e-01, 7.6650726704548908e-02,
          1.6477703228380369e-01, -3.8108194487501426e-02,
          1.0217351521610026e-01, -6.8792810620970243e-02,
          2.1853508384897868e-02, -7.8389538278138451e-02,
          6.3023803065938626e+00, 1.6621217540138319e-01,
          -7.1912947698159105e-02, -2.2056672356315674e-01,
          -2.6117724281985711e-02, 2.2191880963651073e-01,
          -2.8725648793191866e-01, -1.8836067227208544e-01,
          1.7281867013121621e-01, 1.8433582198275530e-01,
          3.0826944809688822e-01, 7.1992206933108802e-03,
          -2.2794074614257262e-01, -3.4938074443262190e-02,
          -2.5704066832128564e-01, -1.9809805265500133e-01,
          3.5010573999044461e-02, 6.2002490549412793e-02,
          -3.3998442109753363e-01, -2.2628172329122986e-01,
          9.3451872191227942e-03, 1.6216046576185997e-01,
          -6.1714587895864793e-02, -1.6311766520323473e-01,
          8.7415116740243382e-02, 4.7324364794293083e-02,
          3.4412866479374360e-01, -4.4294890630828518e-02,
          -1.1309208840558178e-01, -6.8530089850905501e-02,
          -2.2893145802693982e-01, -2.0264297071354836e-01,
          -1.9348662191456198e+00, -1.1618871383760100e-01,
          -2.2230474403834466e-01, 1.4387860600122063e-01,
          1.3339725808513639e-01, 1.2170798359734156e-02,
          -2.1345580523002952e-01, 3.1679615723959698e-01,
          3.1385836064633377e-01, 2.3091147629364253e-01,
          1.8503983594869916e-01, 1.7587559927302421e-02,
          2.0148311238350794e-01, -1.6292607992155227e-02,
          -3.5386158420454526e-02, -2.2056414146635608e-01,
          2.4740298278381530e+00, -8.9311150753096383e-02,
          -2.8638777422049705e-01, 2.3183062112965966e-01,
          8.4419677238030556e-03, 1.0770481436603783e-01,
          -1.3139982126595531e-01, 3.3014251984186194e-01,
          3.3347742052311052e-01, 2.3283728046778290e-01,
          2.2164354420663013e-01, -1.9171027481486072e-01,
          1.3223695219894091e-01, 8.7457263052645118e-02,
          -5.3620511271346212e-02, -1.9390787973933135e-01,
          7.6911375914652780e+00, -4.4238510458124304e-02,
          -3.0896890845657199e-01, 1.7871072194865398e-01,
          -9.5450478402758179e-02, 2.4944596142625128e-01,
          -7.8859311813907155e-03, 1.7565993679329295e-01,
          -1.7969142414635633e-01, 1.3009756458461180e-01,
          7.3749599300030708e-02, -1.0628147680741352e-01,
          4.5770989381050486e-01, 1.9349575379342018e-01,
          3.5410632472945763e-02, -1.8326665784147644e-01,
          1.0392694772515942e+01, -8.2106207747742008e-02,
          -1.7546293270710542e-01, 8.4909481237901110e-02,
          -2.1350131580854828e-01, 3.4639636621859711e-02,
          2.0217354357883435e-03, 3.9170220550586926e-01,
          -2.8869020342402635e-01, 8.8353819810967807e-02,
          -8.9846690599118054e-02, -1.5342305038708029e-01,
          2.7992930996437354e-01, 2.3070305471183566e-01,
          1.7479863597486021e-02, -9.2622085492520614e-02,
          9.3874604567268012e+00, 6.4538424593737459e-02,
          -7.7516230779313341e-02, 2.6928365722559600e-01,
          -1.8923564859116690e-01, -3.7300018015820668e-01,
          -5.3569272087833582e-02, 3.1823698277102114e-01,
          1.1487367344580253e-01, 1.0120449864049390e-01,
          -5.2751730077998882e-02, -2.9216045728539784e-02,
          1.0715334149348078e-01, -3.1663500387538135e-01,
          -1.9180697106854758e-01, -3.4665647676879005e-02,
          1.8287310408650502e+01, -3.2517024876111807e-02,
          -6.5015956487850636e-04, 1.6804035583674609e-01,
          3.5035027343838354e-01, -3.5841944408691206e-01,
          -7.4844468580115328e-02, -1.7982187666733349e-01,
          -1.9806911152908530e-01, 4.5364226153004389e-01,
          -8.2490049930863132e-02, -2.2997220654311956e-01,
          2.9162985808481484e-01, 8.6965675023642594e-02,
          -1.0945163692549975e-01, 4.1312527431604834e-01,
          1.4070317317775798e+01, -2.2247635541457741e-01,
          -5.5340052655182638e-02, 3.2966296116947347e-01,
          -1.7135457043592275e-01, -4.3355929057016401e-01,
          -3.4740824170009998e-01, -2.7213405881068109e-01,
          -2.4162994836038060e-01, 2.4409613514295073e-01,
          -5.5314675439662460e-02, -2.9919671466762771e-01,
          4.6975211312054616e-01, 2.4805168881664585e-01,
          -1.2622942436830623e-01, 1.7925799617133883e-01,
          -2.1096159734706870e+00, -6.5012702707999206e-02,
          -2.3467730512222493e-01, 4.0867441762172113e-01,
          -7.8687991196230589e-01, -3.8482975164537286e-01,
          -3.0224830577182410e-01, 1.8000059677472319e-01,
          -6.5687719443977027e-02, -1.0600969315751302e-02,
          -2.5236586883637485e-01, 3.5346862482221346e-02,
          5.2357651146682871e-01, 3.6779103937723928e-01,
          -1.5005749289028097e-01, -2.3089488551587650e-01,
          -2.6698942446959668e+00, 2.5421242282981804e-01,
          -9.3670397918507411e-02, 5.4940939320083169e-02,
          -1.7261290628334228e-01, -4.5661641096039714e-02,
          -4.5389307866604500e-02, -2.2142849267637243e-01,
          3.8369726841602114e-01, -6.9133463391705618e-02,
          2.0643569341224330e-01, -8.9469301083274264e-02,
          -7.3803417239755526e-03, 1.9665711997812199e-01,
          -3.8785543498010566e-01, -4.0758338898414137e-01,
          -4.1184707653703816e+00, -1.2277298789556744e-01,
          1.0431751528663356e-01, 4.4842219897038328e-02,
          -1.3991036453510092e-01, -1.2252940052421719e-01,
          -1.3860414116378245e-01, -9.6967276912791445e-02,
          5.1308012572537331e-01, 2.1860861848418869e-01,
          2.1019219407725143e-01, -2.8216621899849170e-01,
          2.8421157927272783e-01, -8.0762336284272387e-02,
          -2.3248915284938731e-01, -3.9631979801428163e-01,
          -3.1763857998081022e+00, -3.2419836448603045e-01,
          7.9097149596509458e-02, 1.7672766160389128e-01,
          -1.9495698616924700e-01, -8.1668431733569635e-02,
          -3.1702007412340256e-02, 1.6176957493741292e-01,
          4.1251477832169453e-01, 2.5267461030268096e-01,
          3.1368528340735580e-01, -9.6507945271999768e-02,
          3.8064847567433008e-01, -2.2003909294782739e-01,
          -1.9602640749074227e-01, -2.6396881325659050e-01,
          3.9972412721619919e+00, -3.0976393101501193e-01,
          -1.3358249097594857e-01, 1.7237504676978463e-01,
          -1.0416987672890533e-01, -2.7989968392288223e-01,
          -7.2319334714664854e-02, 2.4239769656023702e-01,
          4.2982638333428125e-01, 2.7271385719892594e-01,
          3.7067690642589551e-01, -7.7587990885735994e-02,
          5.2397622830916601e-01, -1.1231501100711812e-01,
          -1.9889952334030708e-01, -2.1097387179183949e-01,
          9.1492275505355547e+00, -1.7088214569360341e-01,
          -2.4219930283968777e-01, 9.4182789979854034e-02,
          -1.6573117919708183e-01, -3.0422449692309889e-01,
          -5.3689249458240836e-02, 2.7900641649082941e-01,
          2.5250384093243372e-01, 2.3242996935271623e-01,
          3.4612020610979749e-01, -1.3138176367165696e-01,
          3.6320301115186926e-01, -3.5716429926716350e-02,
          -1.3774660320455961e-01, -1.6777933732500364e-01,
          1.8671888789361855e+01, -2.1164900539217432e-01,
          -5.3759089715988827e-02, 4.1118716215611584e-02,
          -1.6763903083205878e-01, -1.1535791068214102e-01,
          -1.8740555648903458e-02, 2.2030668904135894e-01,
          2.1489028108168917e-01, 1.4643611960353334e-01,
          2.0119549931706074e-01, -8.4976060677323037e-02,
          1.2889577331567545e-01, -6.3777843075415355e-02,
          -1.0842077008784560e-02, -9.3236917661111696e-02,
          9.4186797763365444e+00, -1.5962042913817995e-01,
          -4.1742716239321173e-02, -8.3297631202396194e-02,
          3.4124660251630558e-02, 2.7867220351130602e-02,
          -3.4243670320078695e-01, 1.3144111794855634e-01,
          1.6631500690010262e-01, 2.3071216382901638e-01,
          3.1699097557473999e-01, -5.8421271125774492e-02,
          -6.3217208589777640e-02, -5.6725619195914893e-02,
          -1.0955442954156523e-01, -1.8688608367148690e-01,
          4.6794096106465020e+00, -7.1171819792795438e-02,
          -3.8222904446472050e-01, -1.6310620358354361e-01,
          -1.9117257941346666e-01, -1.9727504123571754e-01,
          -1.0123718762195719e-01, -1.2189962739890584e-01,
          3.5455694221452276e-02, 1.6105378705452333e-01,
          2.9272224414461157e-01, -1.7007379896624936e-01,
          9.4812295349094994e-02, -3.9110669203180681e-02,
          -2.3723739837043734e-01, -2.8345357792613007e-01,
          5.8403216779278377e-01, -1.9053498328615134e-02,
          -3.4178748556351635e-01, -6.4911520350153254e-02,
          -1.1679028301759056e-01, -1.4115604771684701e-01,
          -2.2600650174263584e-01, 2.5389487061368402e-02,
          1.5104305186851355e-01, 2.7115118556415507e-01,
          3.2268938194730556e-01, -7.3910195481501031e-02,
          1.0013355066563029e-01, -1.6866659078563981e-01,
          -2.0901819485076192e-01, -3.0620285100757988e-01,
          4.0222471574649195e+00, -1.4978890978883545e-02,
          -2.3101562257619160e-01, -6.4483054533668489e-03,
          4.0055140029057068e-01, 2.7292972693072970e-01,
          -2.1976622776843968e-01, 1.7987161759955972e-01,
          -6.2304106951412315e-02, -1.6812478601017281e-01,
          7.9149862916006633e-02, 2.5789458911550454e-02,
          -4.6227476963333247e-01, 1.7133834602427186e-01,
          -7.2238994492221376e-02, 9.6278354590339038e-02,
          6.3134446030280085e+00, 1.0270346417548849e-01,
          -2.1169378253170992e-01, -2.3842772570507311e-03,
          3.3542493483575220e-01, 3.4808062536329942e-01,
          -1.0314312363533149e-01, 3.5311451488592321e-01,
          -2.3235272423289541e-01, -1.9811795570831020e-01,
          -2.3243069840911634e-02, -3.8057676577054653e-02,
          -1.7936638741927938e-01, 7.9824173414748276e-02,
          1.1967497584219293e-01, 9.3276876180227161e-02,
          6.6101344021181241e+00, 1.1907592431813617e-01,
          -1.4455787410171492e-01, 2.0221742352940197e-01,
          -3.1094317232198337e-01, -8.1839555573529843e-02,
          -1.1660560770993512e-01, 3.0813268622783857e-01,
          -3.2312228970904583e-01, 2.8468239375003501e-01,
          -2.5675528061017505e-01, -5.0972498415750112e-01,
          2.5031212198521069e-01, 3.3497421883223064e-02,
          4.7682720679036811e-02, -2.2790692451843403e-01,
          8.9854919008310734e+00, 3.0006072822185614e-01,
          -1.2404784760296918e-01, 1.8163601680048053e-01,
          -2.5597000545561899e-01, -4.8894421770934837e-01,
          7.0127870028430933e-02, 1.0325329459019607e-01,
          -2.5008755556409951e-01, 5.5008443809404034e-02,
          -1.5221360607227152e-01, -4.0671680159504342e-01,
          6.5628478528531847e-02, -2.6438850326921376e-01,
          -8.3788254386721911e-02, -2.9480585386161234e-03,
          1.5922568330408026e+01, 8.3003549041198568e-02,
          -1.0464669295372155e-01, 2.1376279789227212e-01,
          4.8463940423374013e-02, -2.8105126692638527e-01,
          -1.2053046971209898e-01, -1.2056321942077822e-01,
          -3.0506172804561138e-01, 2.3557145122426768e-01,
          -1.0240533578218591e-02, -3.0295671405065705e-01,
          6.9102413177242705e-01, -8.7609587247659368e-02,
          -2.3162092420396474e-01, 1.7840561286287221e-01,
          1.2552253177773924e+01, -4.9481763260461015e-01,
          -3.7382316511021793e-02, 2.8918954399103552e-01,
          -2.5336845856185575e-01, -2.5392816302216276e-01,
          -3.7690241183380085e-01, -2.4324887177210291e-01,
          -1.9859380235354673e-01, 7.5442023267444119e-02,
          -1.0527822097844580e-01, -3.4899181303669807e-01,
          6.3827993558812424e-01, -5.2667566281713298e-02,
          -8.5613513403471633e-02, 6.6931705856001819e-02,
          -9.3290051227232690e-02, -2.0493021451245616e-01,
          -2.1320727692143393e-01, 3.2987133801009549e-01,
          -6.6410935535859539e-01, -8.6156306207197192e-02,
          1.6534684349681003e-01, 6.6708972190312840e-02,
          -3.4890882124307104e-01, -2.5875093444790098e-01,
          -2.7395156755247740e-01, 1.1018460133755384e-01,
          1.8160003333103109e-01, 2.5474769196744529e-01,
          -2.9727240399413429e-01, -3.2383694677812913e-01,
          -6.1083065894430255e-01, -2.4549677948777276e-01,
          -4.7664054057486527e-02, 1.6204651533118883e-02,
          -2.4883061728307021e-01, -2.2408792921558882e-01,
          7.5583062519560845e-02, 1.8601811312648459e-01,
          1.1089195743785629e-01, -1.1449977219263197e-01,
          3.0757605581245295e-02, -7.7752788706222417e-02,
          8.3298980469013392e-02, 9.5886695725364249e-02,
          -3.3029371371457950e-01, -3.7245680770297296e-01,
          1.2570786659570992e+00, -1.9219537364105654e-01,
          1.0360525599501548e-01, 3.3024762655769063e-01,
          -2.3622855194990972e-01, -2.0434576990063139e-01,
          3.3056100491653299e-02, 5.0924617493715418e-01,
          3.8290988677975402e-01, 2.0300168804519328e-01,
          -8.8298252226832033e-02, -1.9123189095096310e-01,
          3.9986078182942314e-01, -1.2149958883902982e-01,
          1.8871135916203985e-02, -3.3178245801739770e-01,
          -3.7889125113726774e-01, -2.2059910749054046e-01,
          -1.2859569474759031e-04, 2.3626974965732070e-01,
          -2.7481991054394245e-01, -3.1969557238534363e-01,
          -4.6123231942874848e-02, 2.6030736575540020e-01,
          2.5438169652723364e-01, 3.1033780975511099e-01,
          1.0621662305540294e-01, -1.4637967882379160e-01,
          4.2444620081167400e-01, -1.9212062601140545e-01,
          -1.2901992820390215e-01, -2.7303877054761522e-01,
          6.0327239957211143e+00, -3.3405780009928537e-01,
          -6.5531395010342275e-02, 1.9358537704627546e-01,
          -2.0339165161050726e-01, -5.0989932754077871e-01,
          -9.5667423334505508e-02, 1.2763230715614018e-01,
          1.9742213549185494e-01, 2.5469242710536483e-01,
          2.7841860946693253e-01, -1.6380102693670376e-01,
          5.8376355071395392e-01, -1.0943156364312288e-01,
          -1.3883513540210496e-01, -2.4073495669587316e-01,
          6.8955089995139112e+00, -1.1000901255748197e-01,
          -2.1604954918360353e-01, 1.2538643787892789e-01,
          -1.8346252213913322e-01, -4.6031741152514410e-01,
          -8.1139787699881119e-04, 3.1481439635702962e-01,
          5.0926537766881552e-02, 1.5534241382113220e-01,
          1.8348482651508355e-01, -2.7938845330420697e-01,
          4.4427492431496302e-01, -1.1217627477793303e-01,
          -6.9253895976166074e-02, -2.1757057657635373e-01,
          1.7307281227311456e+01, 2.0231642146711356e-02,
          -1.4263515568298490e-01, 9.9842897353003709e-02,
          -2.0386764067310195e-01, -1.7396466973768485e-01,
          4.1078342945372603e-02, 2.5618744090730811e-01,
          1.9520903108489607e-01, 1.4309203986596808e-01,
          -5.9341740189211595e-02, -8.7602518969712675e-02,
          1.6764661868543448e-01, -1.6837043969617030e-01,
          8.9112295561590463e-02, -1.2859739525323072e-01,
          1.5929772778264235e+01, -4.1747302250735691e-01,
          -7.9940137106367659e-02, -2.3315135052809520e-03,
          -2.1521474145301589e-01, -1.7450065421344066e-01,
          -9.0376288111793476e-02, 1.0284926553264158e-01,
          1.5913770628792692e-01, 1.6359839510458279e-01,
          2.9685793499073920e-01, -7.8588609231559109e-02,
          1.7825872535309675e-02, -1.1342899770008313e-01,
          -6.8167462274940846e-02, -1.4864936913694715e-01,
          6.2085891384752410e+00, -2.9372528728631681e-01,
          -1.5064999069217366e-01, -1.4729214546148281e-01,
          4.5995895568987288e-01, 1.0941924956810496e-02,
          -2.8744743562276359e-01, 3.0284016314636814e-01,
          -1.0195709542445269e-01, -3.6221256473326413e-01,
          3.8420149437085840e-02, 2.8966725184982978e-01,
          -4.0741205174016792e-01, 1.6092110834144327e-01,
          1.4828284487086379e-01, 2.4645960951598114e-01,
          8.5418451167137803e+00, -2.9547425876945821e-01,
          -1.8260529382005206e-01, -1.6271049221709133e-01,
          5.7521438745419773e-01, 1.8794118696172504e-01,
          -2.7889983867630952e-01, 5.9782867233736925e-01,
          -1.4108398261299665e-01, -1.2214508926528897e-01,
          1.2480919852324175e-01, 1.8853702425056201e-01,
          -3.6670059062652682e-01, 8.4716242883546136e-02,
          1.2846660551870223e-01, 1.0051443066026844e-01,
          9.9894137960007487e+00, -2.3087105042119208e-02,
          -2.0330938045766744e-01, 3.2431004112230703e-02,
          4.3704262024154200e-01, 1.4437864092957498e-01,
          -2.6252982836697925e-01, 4.6501841254433168e-01,
          -4.0913281417126884e-02, -4.9639835801914514e-02,
          1.0519548523309091e-02, 1.2235040460526694e-01,
          -2.8252373470924708e-01, -1.6700665296379955e-02,
          -4.6858189200922251e-03, 1.0160259705678852e-01,
          9.1754143591424029e+00, 3.6889544955751524e-01,
          -1.0406223713064744e-01, 2.2231041063902393e-01,
          2.2275724620475112e-01, 4.4854876302244745e-01,
          -2.9637557211382626e-01, 4.5824334891939777e-01,
          -1.3807297715045588e-01, -3.0621254956319423e-02,
          -1.6162418866153466e-01, -4.3451135463436270e-02,
          -2.6789576802711518e-01, 1.0137802786804785e-01,
          8.4167945156142870e-02, -6.1223315996805305e-02,
          6.4190267903202205e+00, 4.0716529154547881e-01,
          -1.5736359004784869e-01, -4.9390269120101520e-02,
          -4.0070625218887747e-02, -1.4340855706993658e-01,
          -2.2879225966975125e-01, 3.3345167809566406e-01,
          -4.2061215912374472e-01, 3.2340940254787620e-01,
          -1.5083555398867973e-01, -2.1347526199906394e-01,
          -3.3415804308054597e-01, 1.2220309458974562e-02,
          8.1059916424974607e-02, -9.0606799377686481e-02,
          4.8461547164031611e+00, 3.8681336987640796e-01,
          -2.7508983729125203e-01, 1.4396924463206628e-01,
          -2.8571783553284996e-01, -8.1253406199132489e-02,
          -4.7133438019000065e-02, -2.8051843063992232e-02,
          -5.5712538213744695e-02, 3.1171375476535995e-01,
          -3.3900485127528457e-01, -4.3170011153955867e-01,
          4.9070137196739294e-01, -2.2402893596156981e-01,
          4.8008197052299584e-02, -2.8555373381936039e-01,
          1.2507349234563394e+01, 4.7514053868449480e-01,
          -3.1673972667577488e-02, 1.4858050635974054e-01,
          -1.4056041595813773e-01, 2.0481514451720423e-01,
          -7.7025995754510426e-02, -1.9789824607123016e-01,
          -1.7620442834400030e-01, 2.2574196597753482e-01,
          -1.4067717905249725e-02, -4.5589121971067059e-01,
          3.3365148717606286e-01, -5.3703892242829521e-01,
          -1.4378368648577378e-02, 7.1768575155161732e-02,
          1.2169345901607027e+01, -7.6733167173540895e-01,
          1.5230231629590107e-01, 3.5686146914778272e-01,
          -2.0328125749299203e-01, 2.3182655409314998e-01,
          -3.1248728276605037e-01, -5.3072991156720284e-01,
          -3.1327218323239153e-01, -3.3358942086451016e-02,
          -5.9881985873315682e-02, -3.6284071617324075e-02,
          3.5722057899435605e-01, -2.1976858856171763e-01,
          -1.1747256111020406e-01, -1.2764186692343565e-01,
          1.9769249684987067e+00, -4.9598391037806666e-01,
          -7.1294881989899847e-02, 4.3853552691207021e-01,
          -4.6105619708514090e-01, 2.7912070214674445e-01,
          4.1368721770767991e-01, -2.3153348559869003e-01,
          -3.1571776176711924e-01, -2.2098621001626015e-01,
          -1.0349583112073178e-01, 2.3514524329230496e-01,
          2.3303074064100535e-01, 4.5149146658008961e-02,
          -1.4857200309123506e-01, -4.3836028184516629e-01,
          -4.0453728298277314e-01, -4.3654893674921494e-02,
          2.4031816506970241e-02, 4.7422253738832187e-01,
          -2.1369667379392029e-01, -1.3809508068824264e-02,
          -1.1529734566619735e-02, 4.7162971006121635e-01,
          4.5566924894888300e-01, -3.8358479564990652e-02,
          -2.1543952818202750e-01, -7.3645752939330372e-02,
          2.2638966483791534e-01, -3.0412598463849361e-01,
          8.7125760849241660e-02, -5.1212925646311225e-01,
          5.3959215168977837e-01, -2.1622960836106012e-01,
          7.2855951960901458e-02, 2.2942881518456568e-01,
          -2.2498533626420403e-01, -2.9074720209574612e-01,
          1.3961874078044650e-01, 4.4060139229037193e-01,
          4.9523254658943927e-01, 3.8156943421386841e-01,
          -3.7722200693029430e-02, -9.2487172036196330e-02,
          3.6632700280172165e-01, -2.0949647410088029e-01,
          8.7236384461897923e-02, -2.7541917966144885e-01,
          -4.2371328861892738e-01, -2.7282383015579759e-01,
          -7.8967157919867637e-02, 3.2107154005063748e-01,
          -3.1530436629571845e-01, -3.8187788094498459e-01,
          9.0276751739349959e-02, 1.3574544292958141e-01,
          2.1574815882777928e-01, 3.5953663184040113e-01,
          3.5485525979524916e-02, -1.4690260675189631e-01,
          4.6115321115933461e-01, -2.5375960099326594e-01,
          3.6257917744156876e-02, -2.1551268658709732e-01,
          7.7133175050471117e+00, -2.4575729742696553e-01,
          -1.9731991461451572e-02, 3.6639016236542571e-01,
          -3.4547385209036413e-01, -5.1552636631144821e-01,
          7.8672805495519776e-02, 6.7631591753786136e-01,
          1.7234652093496725e-01, 3.3329185754569135e-01,
          8.9239827996466042e-02, -1.5367525251720124e-01,
          6.3343749145565809e-01, -3.1682474243577791e-01,
          -5.6048217679159268e-02, -2.6338492258414720e-01,
          4.7682617732770813e+00, 2.1645602718952384e-02,
          6.3057495909585306e-03, 2.7794058633913956e-02,
          2.9698913422349760e-01, -1.0495247551440549e-01,
          -1.0540594842509377e-01, 4.0273094350173294e-01,
          -1.7437385168432493e-01, -4.2002531237548407e-01,
          5.2351635734717676e-03, 2.5744095245126974e-01,
          -3.0360310374114052e-01, 8.1529212645695438e-03,
          1.8866088742624376e-01, 3.2500312728582559e-01,
          1.7488095754183313e+01, 9.2582450587309892e-02,
          -1.3899449850804640e-01, 1.2150765406231882e-01,
          -2.2438365068157312e-01, -1.7388450970305849e-01,
          8.1712310195611204e-02, 2.7702900433023930e-01,
          1.9660145384151070e-01, 1.5371315737347929e-01,
          -2.0361214508249961e-01, -5.6233604058337126e-02,
          1.6120744607913073e-01, -2.3349842633347911e-01,
          1.8946119118347426e-01, -1.2715238179630592e-01,
          1.6650272218968720e+01, -2.5690738631242410e-01,
          -2.4454583088977192e-02, -1.9391840744953322e-02,
          2.0986939360486759e-01, 2.4412163315728617e-02,
          5.5186322065115846e-02, 4.4888673773214849e-01,
          -5.7234450255653192e-02, -3.6374964474098154e-01,
          8.9616318770494224e-02, 4.7232431943165998e-01,
          -6.7197897724038425e-01, 8.9877277725878238e-02,
          1.7451029428946357e-01, 3.9362784073687196e-01,
          1.1318952604070232e+01, -1.8023258231807154e-01,
          -1.1010257675296602e-01, -5.0925726831066206e-02,
          3.0131688969045017e-01, -1.7942451394167899e-01,
          -9.9575245403261375e-02, 3.5299817878511552e-01,
          1.1706126103419048e-02, -1.4142323026375492e-01,
          1.4383123724195712e-01, 3.2667016211476402e-01,
          -3.4287005102235535e-01, 1.8948726039012670e-01,
          1.0599535484472006e-01, 1.8614791816245671e-01,
          1.4219177877661343e+01, -2.0389110959131249e-01,
          -7.7075962748495416e-02, -6.9946169157399332e-02,
          4.4773149873360613e-01, -5.5752354125196517e-03,
          -2.4188732918946360e-01, 1.9704743989007822e-01,
          -6.1812508117933436e-02, -2.2112227115323516e-02,
          2.2211740100242472e-01, 2.1452656200163966e-01,
          -1.6867337786641920e-01, 1.4149324606590977e-01,
          9.3104817775109094e-02, 1.4927812068911742e-01,
          1.2785200046326850e+01, 2.5143455201867549e-02,
          -2.6632057460012842e-01, -1.7739879370507798e-02,
          3.1008528229783755e-01, 2.1484862692126394e-01,
          -2.2863087711247879e-01, 2.3560337064478182e-01,
          -1.6674073311771098e-01, -8.5688573244297218e-03,
          -4.7719133244465181e-02, 1.1133019211122244e-01,
          -2.2263785209109915e-01, 9.1158820379577316e-02,
          -5.7918268655920750e-02, 1.5940985816556466e-02,
          8.8304168924203275e+00, 3.9174331864218126e-01,
          -2.1838799767428205e-01, 1.6460138320254153e-01,
          1.3851738286143211e-01, -9.1996598145702747e-03,
          -3.0217550369263840e-01, 1.9623256191477520e-01,
          4.3314072622907658e-02, 2.6013396688917745e-01,
          2.0085302370118178e-02, 7.4513060708904346e-03,
          -2.6849925930744273e-01, 7.7510412886906035e-02,
          -3.9889208199148728e-02, -1.3976088412408005e-01,
          2.2658111402613148e+00, 3.7800140641240559e-01,
          -3.3693248703539269e-01, -2.2548010893580970e-02,
          -1.1745040795642572e-01, -2.3154049568577398e-01,
          -2.1342944276953851e-01, -2.3314337863839940e-01,
          -1.1750911830743020e-01, 6.3952017301057629e-01,
          8.5204595758326965e-02, 6.4369707558008957e-02,
          -2.2978990913214198e-01, 1.5128909526456549e-01,
          6.5917535890813641e-03, -2.2869043071387549e-01,
          2.4984231947048197e+00, 4.4138763333123848e-01,
          -3.3014705942898109e-01, -5.4189533877383546e-02,
          9.5428488370256248e-02, 2.0576883126949294e-01,
          -2.1530704203310769e-01, -1.9175231597647027e-01,
          -1.8434640692572637e-02, 1.3294231142007693e-01,
          -8.0624259225125061e-02, -3.1199722239235378e-01,
          -2.1567908420084814e-01, 3.2325635481425551e-02,
          2.5361108108778624e-01, -3.9239262318728860e-02,
          9.2623198354772978e+00, 3.2229677541724439e-01,
          -1.8082754133407278e-01, -1.5011114681600388e-01,
          -1.5620740232986599e-01, -3.0155694408686266e-02,
          1.0807254737808879e-01, 1.1908663953005640e-01,
          1.4884145232102380e-01, 1.7319270768729747e-01,
          1.1839424292843637e-01, -5.1108325660735088e-01,
          1.6124545693396952e-01, -7.4044058601067242e-01,
          1.9232948181358739e-01, 9.2824939488406491e-02,
          7.6917879963023852e+00, -3.5320817090676143e-01,
          3.1309546062352721e-02, 5.7654791607739106e-02,
          -2.6091494250824487e-01, 5.1188935655878010e-01,
          -1.8158115656293178e-01, -4.4032555062494733e-01,
          7.1553184214365920e-02, -8.8047117430492941e-02,
          6.7485768432712659e-02, -2.7017536678881626e-01,
          1.1100848755244887e-01, -3.3370653065803328e-02,
          -3.5704941239710533e-02, -1.6183385798704167e-01,
          9.1496284610851877e+00, -3.9304854208001172e-01,
          4.7067087270210523e-03, 1.8259431108960539e-01,
          2.3154585891945850e-01, 2.2929452641966500e-01,
          1.6971944592084917e-01, -2.2127959876581027e-01,
          9.3341309536318154e-02, 5.7585125698934751e-02,
          -3.3946180232868189e-02, 6.6341665135306849e-04,
          2.6602166562292762e-01, 2.9762156964183259e-02,
          -8.1548137402854090e-02, -6.0250815253598800e-01,
          2.7099325440405946e+00, 6.5429434373709072e-02,
          1.6210552979783483e-02, -1.5675823997323795e-02,
          -7.9038749960642876e-02, -1.8363761630144479e-01,
          9.5605895739848401e-02, 1.7520923026007987e-01,
          7.1511284188012603e-01, 1.3248469347951933e-01,
          4.6015228497029463e-03, -3.3494715410478722e-02,
          1.2046717787171554e-01, -2.2205671909283259e-01,
          3.5132210679996626e-02, -5.8247196638342358e-01,
          1.9726704162254893e+00, -5.4990444554912983e-02,
          5.5012495851353330e-02, 2.6340257987357013e-01,
          -2.9511003497832761e-01, 3.4485963483066651e-02,
          -1.0649472080520511e-01, 1.4561411557054721e-01,
          6.0322870687933006e-01, 3.1555595646004542e-01,
          2.2261112330002730e-01, -5.8143811825624760e-02,
          2.1128532376625392e-01, -1.1464386460917220e-01,
          3.9865344985951491e-02, -3.8092448513597377e-01,
          2.3712936366214867e+00, -3.0055978416892171e-01,
          -1.1355527739311911e-02, 2.2631559572986332e-01,
          -6.5486635019203765e-02, -1.7078787056219313e-01,
          8.1083123031773688e-02, 6.6910999747158998e-03,
          1.3991322360461544e-01, 2.3035051680773921e-01,
          2.4492998204522892e-01, -1.1582547426545391e-01,
          4.3432684835441099e-01, -1.7160376418578874e-02,
          2.0459752809645137e-02, -1.9656401096322668e-01,
          3.0675032250514738e+00, -1.8754483289855009e-01,
          1.4067635017568147e-01, 1.3716933085707034e-01,
          3.9423857786850569e-01, -2.8224462595125569e-04,
          -1.5881709798241492e-01, 2.2774662562996426e-01,
          -1.3871790353846292e-01, -2.4294567766956368e-01,
          1.0820260548399051e-01, 2.9999147581532232e-01,
          1.8179031165723548e-02, 7.5926979977530867e-02,
          2.0173576660737991e-01, 2.3256119529401040e-01,
          5.3610883470213659e+00, -4.3869736774137674e-01,
          5.2936930251785717e-02, 1.8517704469853555e-01,
          2.6595531102742959e-01, -2.1118402185118290e-02,
          -1.1772214294049380e-01, 6.0038589058065261e-01,
          -4.9499915825272148e-02, -2.7453859800219133e-01,
          2.4412440840823985e-01, 3.1575644387198987e-01,
          -2.3563148474213585e-01, 8.2496201955380613e-02,
          9.3417757926865769e-02, 2.5361632577954146e-01,
          1.2537832642337284e+01, -2.0557425206708715e-01,
          1.9281425301164540e-01, 6.6650391308077622e-02,
          4.7964393635585612e-01, 2.0760304651502778e-01,
          5.1760494666595470e-02, 1.3639517907026436e-01,
          -1.9126392475837098e-01, -5.9435061460433358e-01,
          8.9053420256928695e-02, 5.4699628172472115e-01,
          -6.6090497154131311e-01, 5.3928982928773864e-02,
          2.4802742076075049e-01, 5.4644465118883512e-01,
          1.2602672088064498e+01, -2.0670189194634891e-01,
          -3.8236659195588170e-02, -2.1372117663654353e-01,
          2.4544402459580170e-01, -1.0379880267260361e-02,
          -6.9543166783530286e-02, 3.1232196628792080e-01,
          4.7750436855944649e-02, -1.8884738100888593e-01,
          5.5444950583933228e-02, 4.1366977631092661e-01,
          -5.6179714298187344e-01, 1.9389804817044198e-01,
          2.0573302525409790e-01, 2.8205983585562194e-01,
          8.1435770566153280e+00, 3.9588608750278184e-02,
          3.6456663651846639e-02, -4.2530196452447197e-02,
          3.3997249083504022e-01, -2.1831200997826344e-01,
          -1.6566861586023071e-01, 7.4534163880613791e-02,
          7.5030417460152696e-02, -2.1620378084193706e-01,
          1.8706367458995440e-01, 3.3818532648489669e-01,
          -3.0328987889917036e-01, 2.5988600192553357e-01,
          2.0629642984911550e-01, 2.2226605483691858e-01,
          7.9307012171599371e+00, 1.0518810625672674e-01,
          2.6834319941219640e-03, -4.9174400309639724e-02,
          4.0924665039314745e-01, -3.1463518927351677e-02,
          -3.7640982106484333e-01, -1.7469245996461541e-01,
          -1.2900778900101023e-01, -1.4548665190870902e-01,
          1.2423177419423327e-01, 2.3453391506445256e-01,
          -2.1749075870902307e-01, 3.9868374121757491e-02,
          1.5559812907968684e-01, 8.7961415329137468e-02,
          5.3717435052715077e+00, 2.2317748527451439e-01,
          -2.2651783734813929e-01, -2.5699865169828101e-01,
          2.9546265241485031e-01, 7.7650617774204705e-02,
          -1.6706984374785236e-01, -1.5440832625035833e-01,
          -4.2552063985510313e-02, -7.8256118272072073e-02,
          -1.6040997684563699e-01, 1.9273395433634524e-01,
          -3.7340816205118993e-01, 4.9615515866497810e-02,
          8.8955727413457100e-02, -5.1350116989850175e-03,
          1.6937113342307752e+00, 1.8908512498671307e-01,
          -2.3855563118757142e-01, -1.1952731388416446e-01,
          2.5370472675725181e-01, -1.7142726584555817e-02,
          -2.8641890280856042e-01, -4.0075970155672574e-01,
          1.4477430635234848e-01, 2.3996648568507709e-01,
          1.2284973563232796e-01, 1.2448051804635431e-01,
          -3.1659056913135553e-01, 2.3165277780917162e-01,
          9.6540824689579034e-03, -1.1717569607229569e-01,
          -1.3535781715181565e+00, 1.1604626878485631e-01,
          -3.3330230052694554e-01, -5.3126624533916447e-03,
          6.4058394355330298e-02, 1.2910866741524090e-02,
          -2.3498244389681711e-01, -6.5651589777580177e-01,
          -4.3729823895672662e-02, 5.5658407976581181e-01,
          2.3832847856674064e-01, 1.8074161367608535e-01,
          -2.4905928418424844e-01, 6.7167375577481370e-02,
          8.2353585792557527e-02, -2.0153578558338731e-01,
          3.4154643580847805e+00, -1.2795914332904851e-01,
          -2.8400404041467370e-01, 2.9711442643451137e-02,
          1.1852211653602850e-01, 5.9249526597562753e-02,
          -8.3643241909167290e-02, -4.0225442778789083e-01,
          1.9742361543883033e-01, 3.8264744016722203e-02,
          2.2059128098306358e-01, -3.6882634615731835e-03,
          -8.9589090600386681e-02, -1.1328042433447241e-01,
          2.5307552500947783e-01, -3.8969252161566554e-03,
          1.0139215903277652e+01, 2.3358813652246521e-01,
          -1.5229335889844148e-01, -5.0180326189782340e-02,
          9.5808710305613123e-02, 2.8288906590207391e-01,
          2.7781516353762381e-01, -4.0684006849999133e-01,
          3.4848702029185252e-01, 8.2295464376606869e-02,
          1.5083279798605484e-01, -4.4579285236605681e-01,
          1.9972836246187570e-01, -2.7671330618857848e-01,
          4.2163047535220810e-01, 1.5982518119091471e-01,
          1.2464295182927266e+01, -4.8625537971999166e-01,
          -1.9176665769201129e-01, -1.2989135093707263e-01,
          -3.2255940303322697e-02, 2.5942108136394082e-01,
          4.5416709275483837e-02, -5.5767750471064648e-01,
          3.0121216123252559e-01, 1.5056061463997195e-01,
          1.5631675473787018e-01, -4.2791585288490031e-01,
          3.2081672323796474e-02, 1.4917390548658280e-01,
          1.8153637124570138e-01, -1.8750348864010228e-02,
          9.2203702998702095e+00, -7.4564784845811283e-01,
          -1.6041742241346058e-01, 2.5120329582784262e-01,
          2.6441692544998768e-01, -1.4139573251457768e-01,
          -3.0639557677588475e-01, -4.0322286997610185e-01,
          3.2416201382106408e-01, 1.7151696845305464e-01,
          1.3970145109576293e-01, -1.0059207492184249e-01,
          8.9282514772340948e-02, 1.1309886629358647e-01,
          7.9679543812389633e-02, -5.1393747749469287e-01,
          7.7396532497525641e+00, -1.4799971485033622e-01,
          2.2453390832365142e-01, 1.9758007566316457e-01,
          2.2278973262964594e-01, -2.9502915229683591e-01,
          -3.0344582453925661e-01, -2.1290582751598738e-01,
          2.9603393810423900e-01, 1.0245382264807054e-01,
          7.2511667387859552e-02, -4.6747720716118733e-02,
          2.3210535229531957e-02, 2.9545845458978953e-01,
          9.3505155723902680e-02, -6.0084458569329613e-01,
          5.2810620443829608e+00, 1.3704410920228735e-01,
          9.2140113828047113e-02, 1.6335466372875707e-01,
          8.6853154176538605e-02, -1.8988547000028363e-01,
          -2.2308118581956393e-01, 7.4800527489906510e-02,
          3.8519786091666819e-01, 1.8740214094788266e-01,
          -6.5547119328036529e-02, -1.3957394615790994e-01,
          1.3902946126451082e-01, 2.3022348109046845e-01,
          1.5066055882090479e-01, -3.4964141402014337e-01,
          7.2082600733123590e+00, 1.0179157668457367e-01,
          2.0380479294951773e-01, 3.5858791212107133e-01,
          4.5152305387386404e-01, 2.6213868452645633e-01,
          -3.6105602435106054e-01, -8.0131687753205699e-02,
          -1.4983801147133502e-01, -3.0134309874218390e-01,
          -7.8168932604265731e-02, 2.6243223654391440e-01,
          -1.6702012543693769e-02, 3.3506221333823488e-01,
          3.5766897851477053e-01, 1.3585159655933712e-01,
          7.6367929171592159e+00, -1.4928708523073136e-01,
          2.0966232856252515e-01, 1.6805889585305100e-01,
          4.8814583890613789e-01, -2.3041528560566491e-04,
          -2.4581321543595716e-01, -1.0293077840667374e-01,
          -1.3915555350894898e-01, -3.1532611941660388e-01,
          -1.5422989646238040e-02, 3.8587144251292788e-01,
          1.4247250614345371e-02, 2.9438531310885568e-01,
          3.7605567831173659e-01, 2.2872548139258747e-01,
          9.1581194310765479e+00, -1.9453393409548683e-01,
          2.8630586107448253e-01, 1.1608466584248052e-01,
          4.0218216013667768e-01, 1.5452756189815117e-01,
          -1.8324682387010793e-01, -2.1593117617357049e-01,
          -1.1304505821026921e-01, -3.4906456177033818e-01,
          1.7614864501599253e-01, 4.3425692586368397e-01,
          -2.4391313276094823e-01, 2.3531669811801711e-01,
          2.4705895625814561e-01, 1.5840758649681577e-01,
          8.9834738598153532e+00, -3.8114186445438575e-01,
          2.8652914244064281e-01, -5.6492764621112031e-02,
          4.6599881420935146e-01, 1.6353683726161580e-01,
          -5.9634691033451884e-02, -1.2097646904679692e-01,
          -8.1030081168652013e-02, -3.2304911430200051e-01,
          2.3355996978274401e-01, 4.1822154470780531e-01,
          -4.2843847563819926e-01, 1.7465215495361291e-01,
          3.0932788729664112e-01, 2.9495191063167514e-01,
          1.4791121466627642e+01, 4.8386447654551294e-02,
          1.2492449853365702e-01, -4.2018376115401296e-02,
          5.8670613393324089e-01, 7.3811807468794607e-02,
          -2.2262142546183986e-01, 3.7761011958686302e-01,
          -1.3055813535364186e-01, -2.6248776213745889e-01,
          -1.6242216200420947e-01, 3.3717576948191824e-01,
          -5.3533956911550207e-01, 3.4328983855865186e-01,
          3.4646755998957773e-01, 2.7393057987340697e-01,
          9.5755166920850385e+00, 2.4975516785954519e-01,
          1.1151984997422190e-01, 2.5166818726886531e-01,
          3.4973701730849782e-01, 5.2195054767543055e-02,
          -4.8452473710136940e-01, 1.5846484165085500e-01,
          -1.0840795680516747e-01, -2.4829025096846760e-01,
          -1.2010805885418213e-01, 2.9910486082712956e-01,
          -2.0333136522912085e-01, 3.1526907007024302e-01,
          2.8829940838363100e-01, 1.5632277837138470e-01,
          5.8398265797168900e+00, 1.1065110777083748e-01,
          -7.0786921676611506e-02, 1.6326069482963310e-01,
          -7.4677221025184440e-02, -2.7292964498468136e-01,
          -3.6642898183326750e-01, -1.2990909023705766e-01,
          -1.2652021936247407e-02, 3.1325866976110989e-01,
          4.5809255296689194e-03, -1.4747283626365768e-01,
          2.8029832302098590e-01, -8.6022089384907602e-02,
          5.6952202782227380e-02, -3.0915226022413111e-01,
          2.6872905648072405e+00, -5.0001385024974726e-02,
          -1.8137607052903229e-01, 1.5781958961692055e-01,
          -5.9660870468539504e-02, -1.7492183900642033e-01,
          -1.8264420494522526e-01, -2.6563560715199103e-01,
          8.9510942479455145e-03, 2.9158348635338699e-01,
          8.8952762656834678e-04, -1.8774675591734361e-01,
          1.0919926676740525e-01, -2.6113782024198121e-02,
          -5.4927437459738153e-03, -3.8830240432549268e-01,
          -1.3718155676040482e+00, 4.1705592500878488e-03,
          -3.1029340470245814e-01, 1.2919685738485884e-01,
          -1.0567639273298259e-01, -8.6316172926082388e-02,
          -8.4346597775831395e-02, -3.3618571505975747e-01,
          7.3050925594161972e-02, 4.8545478384816926e-01,
          6.9615989310768636e-02, -9.9253454338462194e-02,
          1.9614329600097492e-02, -2.3828176578753249e-01,
          -6.8081115019295188e-02, -4.7607443330744342e-01,
          1.8599565074097333e+00, -7.3828545159018974e-02,
          -2.4630180612377761e-01, -5.7248309647910139e-02,
          2.0662332983341128e-01, -9.0964495320916425e-02,
          -4.3920005138400692e-02, -4.1598852213001825e-01,
          -1.8797931020149172e-01, 2.4396687430498912e-01,
          1.4192576519917693e-01, 3.5115760499577658e-01,
          -3.1602241524633312e-01, -4.4433939165202535e-01,
          1.6385754923204143e-01, -6.3249741836040971e-02,
          5.4915620972439889e+00, -2.4366670705772098e-01,
          -2.4915161324197513e-01, 1.6024799844479906e-01,
          1.3074583266494069e-02, -4.8721211854854694e-02,
          -1.6908148586289984e-01, -4.3801116410092272e-01,
          2.0831216280655132e-01, -5.9716647042279719e-02,
          1.3270152567089974e-01, 2.1565930397757713e-01,
          8.8137908922427385e-02, -2.0074430949351871e-01,
          1.9947059494148481e-01, 9.1479567597328962e-02,
          1.4363291367704154e+01, 3.1570429168545472e-01,
          -1.4504603937298727e-01, -8.3707201278620802e-02,
          2.9270746022793276e-01, 4.8100170028407530e-01,
          2.6802311958695174e-01, -4.5762868199666445e-01,
          1.7170130985527443e-01, -6.3019964891858515e-02,
          2.3863094754049231e-02, -2.9613025513533914e-01,
          -1.6656917397125873e-01, 7.3807015044561317e-02,
          4.1701354146505992e-01, 3.3851964333855727e-01,
          1.6752944289210749e+01, -8.7804613446068353e-02,
          -2.1437076065201496e-01, -2.1671896633564408e-01,
          3.2082301468932550e-01, 1.3644534890607798e-01,
          6.4602077033926314e-02, -3.8842183762556370e-01,
          2.6246076445586813e-01, 9.9631277140567354e-02,
          -7.7376356926977460e-02, -3.9381712113990647e-01,
          1.6686533811061391e-01, 7.3598276349186975e-02,
          3.4649264265270102e-01, 1.8734866550930148e-02,
          7.1259890012756619e+00, -6.5888038651683434e-01,
          -3.7696540060899625e-01, 8.9171682413598227e-02,
          1.0859376040292193e-01, -6.2236730694363884e-01,
          1.5686742869083701e-02, -6.0277498858057652e-02,
          3.0400790981906323e-01, 2.0879533089644692e-01,
          1.2468957853972780e-01, 2.5987666450187236e-01,
          3.0383819931417960e-01, -4.9954360549597031e-02,
          3.4150514163731394e-01, -4.1435535740247292e-01,
          6.9883470263120895e+00, -3.1543610612797501e-01,
          9.2871334453176163e-02, 9.7779724450882413e-02,
          7.6141503830407849e-03, -6.6269857092541018e-02,
          -1.7946473858573855e-01, -8.0234859702539005e-02,
          1.8720700036119320e-01, -1.1341954956894100e-02,
          -1.9770951383227353e-01, -3.0755885692574071e-02,
          -8.8881563987726259e-02, 1.5866503915592067e-01,
          3.5337736446496743e-01, -4.3088345482014306e-01,
          4.1892171892048884e+00, 2.4740148390000288e-01,
          2.8502633767430996e-01, 2.1667255860036927e-01,
          6.0693967671842231e-01, 1.0626203471158298e-01,
          -2.4495519878416266e-01, 1.5270960694906660e-01,
          1.8556057164456077e-01, -1.9221346180734969e-01,
          -4.0028653837741462e-01, 3.2782012778272823e-01,
          -1.5744743528351504e-01, 1.7635722824840186e-01,
          4.7282767060332942e-01, -2.3782385503141896e-02,
          5.2147956424170205e+00, 2.0747808057828823e-01,
          7.5301071538468142e-02, 2.8712558272273320e-01,
          5.7488035787141167e-01, -8.0566207901080988e-02,
          -3.3737883247884659e-01, 3.5342482186482232e-01,
          -4.9230337047630589e-03, -1.7626020196504813e-01,
          -3.6511391948134303e-01, 2.9023753990931644e-01,
          -2.9980391193893962e-02, 2.7355223963570183e-02,
          3.2573083996800289e-01, 6.9144428925014420e-02,
          8.6153627063908633e+00, 1.0851480984847622e-01,
          1.4032861366376126e-01, 2.4758338618846348e-01,
          6.8905054262463972e-01, -1.1375358208404733e-01,
          -1.1122062623396591e-01, 3.2752904684069528e-01,
          -6.1051431455115379e-02, -2.7065790095997477e-01,
          -2.8848121807749871e-01, 4.4046440618156746e-01,
          -1.0318247760203364e-01, -1.9811317402984981e-02,
          3.8485541315009508e-01, 1.4180944127824205e-01,
          1.2062319059673507e+01, -1.4780563989856754e-01,
          2.5957550617789588e-01, 8.7112547310387381e-02,
          4.7627102876937977e-01, 7.3918891910740164e-02,
          -1.6295187743518694e-01, -2.8934083056534891e-02,
          -1.2586024856129635e-01, -2.8664543173654855e-01,
          4.0310627973589107e-02, 3.7448893600028998e-01,
          -2.3205337703065876e-01, 2.6193260152570141e-01,
          2.3265168425816884e-01, 1.1924919090626759e-01,
          1.3039472865212138e+01, -7.0272237289144918e-02,
          7.5427774560088132e-02, 1.1189016876660625e-01,
          -5.4930957192502891e-02, -1.6860295533120925e-01,
          -2.0123677541374688e-02, 2.5416814765563195e-01,
          1.7330194130674448e-01, 3.0535697525307443e-01,
          1.1871932237134583e-01, -5.8373608004412297e-02,
          1.9446338145509262e-01, 6.8186095285460033e-02,
          7.3306740021137615e-02, -2.2916289777889146e-01,
          1.6487394678921536e+01, 3.2870985444803463e-01,
          4.0045466204678504e-01, 3.6392964818994999e-01,
          6.7165243913548911e-01, 5.9265626378735836e-01,
          -4.8388860896797470e-01, 5.5165321340106460e-02,
          -6.3143757640099618e-01, -8.9306339490418307e-01,
          -6.9511006992390351e-02, 3.6655589501656627e-01,
          -7.5741135769722334e-01, 3.0369120347305184e-01,
          2.8690174956604986e-01, 4.2088332989027605e-01,
          1.1464007172875242e+01, 2.0606953359504604e-01,
          2.1212281539831530e-02, 4.2269408512575524e-01,
          -2.4965565689644237e-01, -2.6442318366262174e-01,
          -2.7379834588347557e-01, 3.2454940742965571e-01,
          -3.4979759340498635e-02, 1.5454065887334556e-02,
          -1.0240776382979157e-01, -1.4060639233955363e-01,
          3.8988702906743028e-01, 2.0693717683046942e-02,
          1.8974068273991503e-02, -2.1872564338541967e-01,
          7.4068402758874825e+00, 4.8427483741949259e-02,
          1.6593605956576624e-01, 4.2048687691371855e-01,
          -2.7391288122534913e-01, -4.3996903699683249e-01,
          -2.4794874404619502e-01, 2.8801034541022807e-01,
          1.6601531993844701e-01, 1.9950988365318589e-01,
          1.8649593138567905e-01, -1.3979710906314174e-01,
          5.6984968998643593e-01, -6.9937341318382210e-02,
          -2.7188200213230162e-02, -2.6515500687561283e-01,
          -6.9951386831610385e-01, 4.9686336780896824e-02,
          5.2321651972874902e-02, 3.1882148964725221e-01,
          -3.1416761003156601e-01, -3.2259433635506046e-01,
          -6.3878077281672246e-02, -2.2898001654320529e-01,
          -3.6802607229602109e-02, 1.5191008327217065e-01,
          -7.2844439773038991e-02, -1.4784046908602580e-01,
          3.6865975925084749e-01, -1.1009444069019959e-01,
          -1.0811937271641905e-01, -3.4999685520701274e-01,
          6.0286466758554735e-01, 1.2705536330263081e-01,
          -2.7302872205461831e-01, 3.2954289320406616e-01,
          -3.7098583710942884e-01, -2.6088274400672740e-01,
          -1.0839184253782370e-01, -1.9996999511486899e-01,
          -2.0086527137202057e-01, 3.9830087084267668e-01,
          -3.4660046985233076e-02, -2.8202979555761098e-01,
          1.3586476861403632e-01, -1.9276118453491026e-01,
          -1.3051540198771516e-01, -4.6604899569211033e-01,
          3.8104473576484508e+00, -1.6842467853472734e-01,
          -2.9836844042144656e-01, 3.5505617618063207e-01,
          -2.8169244576546676e-01, -4.6005815024732645e-02,
          5.3508819857410753e-02, -4.1102914726933204e-01,
          9.9319906244798473e-02, 5.8605889177226411e-01,
          4.4710241570788495e-01, -2.1130865052392886e-01,
          5.3022833756321264e-01, 9.7335831533901622e-03,
          5.7888434338195377e-02, -4.6766948488832538e-01,
          1.2141896768420059e+01, -6.5246794391453478e-02,
          -2.1601560334150999e-01, 3.3407106805638781e-01,
          -1.0766070556035881e-01, -6.4286765746206620e-02,
          -1.4642875052135912e-01, -5.3990495378304582e-01,
          -1.1228863910314359e-01, -2.2067262086033002e-01,
          4.6320348766242209e-01, -1.2447494569448367e-02,
          1.1180717946884115e-01, -7.3584794183590721e-02,
          8.1963384779429493e-02, 7.0361984013893528e-02,
          1.9400336966685476e+01, 6.5894455182080625e-01,
          -1.7735049887827808e-01, 1.2856326024080433e-01,
          2.8288035242252818e-01, 1.1999575668875176e-01,
          2.5428459162727507e-01, -3.3820820760217291e-01,
          -1.3007552278174739e-01, -3.9331985136641112e-01,
          1.5286393880323476e-02, -3.0404352694049225e-01,
          -5.1509684777820219e-01, -3.7525232424868976e-01,
          2.3738674444819538e-01, 4.5304627815098453e-01,
          1.3340299951522178e+01, 4.9583829116078990e-02,
          -1.8215595631158221e-01, -1.4902700080154127e-01,
          4.2764487879939311e-01, -1.1906817865088385e-02,
          3.9287123592051824e-02, -3.4588844373425254e-01,
          -1.8763845885055672e-01, -3.2606881034531082e-01,
          9.7707635232413791e-03, -1.1124548830082449e-01,
          -1.5898250885571139e-01, 1.5255363473678038e-01,
          3.2891797231145864e-01, 3.7912175766429279e-01,
          3.5079558860550581e+00, -1.1006111191107168e-01,
          -2.8661945155828578e-01, -8.9611631025692473e-02,
          7.8926884779253415e-01, -2.2586919390002064e-01,
          2.6000813027778363e-01, -2.6283047023478767e-01,
          -2.7111058460134448e-02, -2.2578344970067549e-01,
          3.9857972756280285e-01, 2.8627626647175181e-01,
          -1.5519917468355479e-01, 1.7152307393594574e-01,
          5.4290878234974405e-01, -1.7238214576487516e-02,
          5.5120424423473287e+00, 3.2847787425773278e-01,
          5.2100737384035672e-02, 1.4669993639962378e-01,
          7.1522648905984021e-01, 8.0142296800723170e-02,
          -1.6045077025190460e-01, -1.4160531569764698e-01,
          1.7278524743461213e-01, -4.4539191349945062e-01,
          3.1600161130467139e-02, 7.4206917704474837e-02,
          -3.1887526376920805e-01, 2.0011842750241793e-01,
          4.9465325831999213e-01, -2.9778851888013630e-02,
          3.7100611525987426e+00, 1.9298018975646686e-01,
          2.2740877085927386e-01, 1.8959974201681239e-02,
          6.3493893083134334e-01, 3.3326962394569681e-01,
          -2.5883613732299404e-01, 3.7947920755284983e-02,
          6.6471506751643886e-02, -4.3402545491607586e-01,
          -2.2072120745013116e-01, 1.0993762997366775e-01,
          -2.6932495191965755e-01, 5.0503617130141752e-02,
          4.0308866562292794e-01, 1.0881917058926947e-01,
          7.0376537243886919e+00, 2.2594069243308335e-01,
          2.7106755519664394e-01, 1.3976482485950972e-01,
          5.1948784327952890e-01, 2.1144351075064124e-02,
          -2.3062051425704316e-01, 1.1471946997509139e-01,
          -2.0954016774081557e-01, -3.8058454803105818e-01,
          -1.6769992066138148e-01, 1.8188581862830711e-01,
          -2.6472046888660772e-01, -6.6496447734228040e-02,
          4.2206494663171036e-02, 7.6304518211993081e-03,
          1.2653437861989529e+01, 3.0193448032284292e-01,
          2.8341630278987301e-01, 2.3569530145893486e-01,
          4.7500474641504864e-01, 5.4037061517047479e-02,
          -1.0738537363849293e-01, 4.7186658751179661e-01,
          -2.1860116189869130e-01, -4.3138677694417848e-01,
          -1.9970024366282016e-01, 4.1173451735411598e-01,
          -2.5220032795575686e-01, -1.7973613056365084e-01,
          6.7246753886546454e-02, 4.1332341544223779e-02,
          9.6002950972764083e+00, 1.2476430438934889e-01,
          -1.8272639451951610e-03, 7.9294236328802906e-02,
          -4.2329214637179167e-02, -4.3910742606440678e-01,
          7.3978161377998035e-03, 1.1542116394264697e-01,
          1.8072711208165307e-01, 2.6245587817884780e-01,
          6.4066372347266240e-02, -9.4539737438494434e-02,
          1.7397215935070506e-01, -1.7529199656450581e-01,
          4.2670881600365758e-02, -2.8616583388147371e-01,
          1.5320912198109323e+01, -2.2143355410093860e-01,
          -2.7602204228573880e-02, -5.1689683719915627e-02,
          -5.1218860396677536e-02, -3.9177436635069901e-01,
          9.3265247847480207e-02, 1.6908093141493882e-01,
          1.0164919878522544e-01, 1.1146870408957664e-01,
          7.2043180500086262e-02, -1.6685197889554945e-01,
          1.8683517322747101e-01, -7.6881780974698513e-02,
          9.5740376736864502e-02, -1.9268857844830847e-01,
          1.1997312633021414e+01, -3.5570732599048277e-01,
          -1.0166877627559757e-01, 7.6343242143640619e-02,
          -5.5928631665003770e-01, -6.6437756483133137e-01,
          4.8804126858000944e-02, 5.9795732994213924e-02,
          -2.1605199546200909e-01, 3.9719375197563606e-02,
          1.5490594573930164e-01, -3.1650371263562954e-01,
          3.1540420469065711e-01, -1.3505094848755386e-01,
          -8.9842769751732082e-02, -2.0420941245392304e-01,
          5.2348680938435663e+00, 2.3530181238634165e-01,
          -2.1706861229932352e-02, 4.8066904345564759e-01,
          -3.4994419380645392e-01, -3.3323570014460230e-01,
          -1.4845263257566882e-01, 1.9427339570746124e-01,
          -7.1681990866359485e-02, 1.4585221017554786e-01,
          1.5235584253305778e-01, -2.2381230267281169e-01,
          4.1929635164769385e-01, -2.0529825479863142e-01,
          -9.2999677257853797e-02, -2.5701048356514883e-01,
          2.0864715586977778e-01, 3.0042172695710112e-01,
          2.6290883351286709e-02, 5.6315091519878879e-01,
          -3.3119140165058075e-01, -4.0543981341341306e-01,
          -1.4981597971306296e-01, 3.9537049177989621e-02,
          1.2281675233215419e-01, 2.3757748423794192e-01,
          1.4154198608433535e-01, -1.8982336536932154e-01,
          5.0638520709846324e-01, -2.8426853661539275e-01,
          1.1087215864708114e-03, -3.0090245556801903e-01,
          -2.8792655898247967e+00, 4.9513501671126267e-02,
          6.7450590357086379e-02, 5.5999981628941087e-01,
          -4.1804139007000413e-01, -2.2792689850389919e-01,
          -1.0120835348332130e-01, -8.3030763536585551e-03,
          8.1743828960854810e-03, 2.2613377442720511e-01,
          -6.7914187135397555e-02, -2.6418525017855909e-01,
          3.1390143675172449e-01, -1.2180933532725398e-01,
          -8.9559117809840133e-02, -3.8558303883198425e-01,
          2.3869538632262604e+00, -2.0068700682959018e-01,
          -2.1786486509255060e-01, 3.7026202693502280e-01,
          -4.9362387249694523e-01, -3.0774983935408073e-01,
          1.5751943107890182e-01, 9.8476283425719430e-02,
          5.4310208291551983e-02, 3.6234247062306268e-01,
          1.4888650009395843e-01, -4.3711878549368610e-01,
          2.7217557055971425e-01, -1.0466959973284257e-01,
          -3.9750774874808159e-02, -3.9390816290289055e-01,
          5.4934159388142090e-01, -2.1560535036283082e-01,
          -5.2968700644421607e-01, 3.1646011795551166e-01,
          -5.2150774208570561e-01, -4.3253334269216653e-02,
          3.5143255329346296e-01, -4.1578267285434772e-01,
          -8.7161357752395321e-02, 5.6746275402564239e-01,
          3.7419653209739362e-01, -2.2600255779001108e-01,
          3.9918819804899419e-01, 1.2558158760697408e-01,
          -1.2232574088399345e-01, -4.0950331218233660e-01,
          9.5092387767363018e+00, -3.5947669773550232e-02,
          -3.7393862063784844e-01, 4.4483639001681957e-01,
          -5.2178007845657914e-01, -5.3476168452784203e-02,
          6.3701221677091122e-02, -4.7037668538791844e-01,
          -1.2563868858487651e-01, 4.7779215028330303e-02,
          4.4728462406034991e-01, -2.4531299692519745e-01,
          4.4670554092115267e-01, -2.3540121656848548e-01,
          2.4154043224526262e-02, -2.2846735615791577e-01,
          1.9179193843088381e+01, 5.1379320101192472e-01,
          -1.5024753769917720e-01, 1.2950154942635184e-01,
          3.1894390189692867e-01, 1.0736021072908089e-01,
          -6.9983461825321711e-02, -1.5584464847615831e-01,
          -3.9697477126368508e-01, -4.5254403370296098e-01,
          9.0084267728713807e-02, -2.2240131892421480e-02,
          -4.4181377985461279e-01, -2.8590427793351775e-01,
          3.0209716111364576e-01, 5.8945033616818021e-01,
          7.7195079165642353e+00, 2.5136107914637166e-02,
          -1.8127333943397572e-01, -1.4510477170249010e-02,
          3.4580976661799279e-01, -1.8779937562760535e-01,
          -1.6331506056990294e-01, 1.3472987053663232e-01,
          -9.4188529316424855e-03, -2.3367717973847199e-01,
          4.8579037862851435e-02, -9.7514489098849452e-02,
          1.1621543974466986e-02, 2.1393314198420804e-01,
          2.2983884858265080e-01, 4.1695075867907860e-01,
          3.7090561456523368e+00, -1.6434353198800494e-01,
          -1.7414594308348463e-01, -9.8952053443509820e-04,
          4.5136467852164064e-01, -1.8269101431131937e-01,
          1.3642176685832866e-01, 1.7777574050020895e-01,
          -1.1341713207416799e-02, -5.9556023038074168e-02,
          4.3325442499354683e-01, 3.5250639226150271e-01,
          2.2472003809553019e-02, 2.4323702954191291e-02,
          4.1572322297534497e-01, -1.0701735478906073e-01,
          3.0054044261603514e+00, 2.1263342503599014e-01,
          3.0581786417979893e-02, -2.3962633281327611e-01,
          5.4242417763153761e-01, -8.5573758866337821e-02,
          1.2689200947953785e-01, 4.4726672650294563e-02,
          -1.6957305439398138e-01, -2.6275828485114183e-01,
          2.7596718472648124e-01, 1.4194469462330972e-01,
          -3.9390352218638525e-01, 1.5512690372637572e-01,
          3.7233170894955903e-01, -1.4275640882387752e-01,
          8.6920400309748658e+00, 1.1885990987335564e-01,
          2.2093115384434323e-01, -4.4605296451055154e-02,
          3.1380064037142891e-01, 5.6534107505734461e-02,
          -4.4135827997120897e-01, -2.5236425479874164e-01,
          8.8760380449667622e-02, -4.2718663959994863e-01,
          2.3721386180193993e-01, -1.7814402882333144e-01,
          -2.6985804406176456e-01, 1.1986616385667836e-01,
          1.9871316000404721e-01, 3.1676733778888320e-02,
          1.0266650873855637e+01, 2.4831811830538864e-01,
          1.8857008646493251e-01, 1.5524471574276947e-02,
          3.8010984778846274e-01, 2.8496135491076180e-01,
          -1.1496420155162708e-01, -1.3124938656560356e-01,
          -2.6334548688963560e-01, -4.2517465532401438e-01,
          2.1044821231356234e-01, 4.9251473565905791e-02,
