%YAML:1.0
my_nn: !!opencv-ml-ann-mlp
   layer_sizes: !!opencv-matrix
      rows: 1
      cols: 3
      dt: i
      data: [ 256, 16, 33 ]
   activation_function: SIGMOID_SYM
   f_param1: 1.
   f_param2: 1.
   min_val: -9.4999999999999996e-01
   max_val: 9.4999999999999996e-01
   min_val1: -9.7999999999999998e-01
   max_val1: 9.7999999999999998e-01
   training_params:
      train_method: BACKPROP
      dw_scale: 1.0000000000000001e-01
      moment_scale: 1.0000000000000001e-01
      term_criteria: { epsilon:1.0000000000000000e-04, iterations:10000 }
   input_scale: [ 1.1575608343997408e-01, -2.1097479723737211e-01,
       2.2949516722348809e-02, -2.6095821434283728e-01,
       2.0919725571428252e-02, -2.9456323264285261e-01,
       2.1245976339582171e-02, -2.2993629232031670e-01,
       1.6339836572967580e-02, -3.9031125749298362e-01,
       1.1369470035105808e-02, -4.8998748280326965e-01,
       1.0620102166099703e-02, -5.9232763371568986e-01,
       1.0232174452495427e-02, -6.3208432504931422e-01,
       1.0291966146403257e-02, -6.4175388906443531e-01,
       9.1359435896629041e-03, -6.4275783771144501e-01,
       1.0237003515016980e-02, -6.0183673890704670e-01,
       1.2505030146714571e-02, -4.4049977161975201e-01,
       2.0964583220550677e-02, -3.7770063640895329e-01,
       1.6253693811603988e-02, -3.3556013030408233e-01,
       2.1913222435588291e-02, -2.2054598064204989e-01,
       5.5744104145128356e-02, -1.8251698615259770e-01,
       2.7286427780456569e-02, -2.2533308102570584e-01,
       1.5501059436735055e-02, -3.1877178680382579e-01,
       1.2763293055175149e-02, -3.9483864644880540e-01,
       1.2675938682421692e-02, -4.3711543391963836e-01,
       1.2780268186397188e-02, -4.8255819071541645e-01,
       1.0166563154618807e-02, -6.1884853783115124e-01,
       8.9099545666524813e-03, -7.8824356125949779e-01,
       8.9410295371821057e-03, -8.7939351802800780e-01,
       9.4323542059877915e-03, -7.9536044820813190e-01,
       9.6708941782922119e-03, -7.5105412045930642e-01,
       9.1453222844353668e-03, -6.9415946242827153e-01,
       1.0219921344774140e-02, -6.1121723139391149e-01,
       1.1941218701761720e-02, -5.1289460327083003e-01,
       1.2607856898935786e-02, -4.0345142076594515e-01,
       1.7075457882736254e-02, -2.9000737339550448e-01,
       3.0855945867027466e-02, -1.5328437624265256e-01,
       2.8641055454870199e-02, -2.0926448582348711e-01,
       1.3549858295395862e-02, -3.6016397533568356e-01,
       1.2219670048471298e-02, -4.1073858679055136e-01,
       1.1163924085545888e-02, -4.5844114067419084e-01,
       1.0567299108949742e-02, -5.6688446510269108e-01,
       9.9634643453357236e-03, -7.1977994843159199e-01,
       8.9166302415987220e-03, -7.7243904883268921e-01,
       8.9826010592484740e-03, -8.2958667202027037e-01,
       9.2448581487384433e-03, -7.5151750112325411e-01,
       9.3434797188886760e-03, -7.4808118265424817e-01,
       8.8240881452885910e-03, -6.5839083484040350e-01,
       9.5071548870286089e-03, -7.0368280284797236e-01,
       1.0512970504488165e-02, -5.3090501047665228e-01,
       1.2694644412985375e-02, -4.0233832695993971e-01,
       2.3755598331302440e-02, -3.1878480341360693e-01,
       6.4911111193850041e-02, -1.7588817226720654e-01,
       2.4335741471145884e-02, -2.0803133838237611e-01,
       1.5389871670070705e-02, -3.7581073723366204e-01,
       1.3015320919531665e-02, -4.4755910000712118e-01,
       1.0942430245804369e-02, -4.8835007242162409e-01,
       9.6791609872406582e-03, -6.8722043009408673e-01,
       9.5589898201659650e-03, -7.3357538007015577e-01,
       8.8871227143552112e-03, -8.0786812287267695e-01,
       8.9431815783525929e-03, -9.4783300244120783e-01,
       8.5400614829014530e-03, -9.2880055772910486e-01,
       8.8871909161427412e-03, -8.3754607295196826e-01,
       8.6698750659800431e-03, -7.8140744949510454e-01,
       9.3419576718546688e-03, -7.1646788273659590e-01,
       1.0781911501504308e-02, -5.4361702183391081e-01,
       1.6697465881766561e-02, -3.9319839011901897e-01,
       3.1659217203932298e-02, -2.3591223142285034e-01,
       3.8116630013340203e-02, -1.5123695134325307e-01,
       1.9971357174060327e-02, -2.5157467666034061e-01,
       1.5219080223231167e-02, -3.5691197813835673e-01,
       1.2246798239507200e-02, -4.1105785703894326e-01,
       1.0394392045546499e-02, -5.2676096463075972e-01,
       9.7249470200508007e-03, -7.4207619922355395e-01,
       8.6768516376041147e-03, -8.1926273365378210e-01,
       8.7610297365020608e-03, -9.5396309276008728e-01,
       8.7842385320068047e-03, -9.8822683485076557e-01,
       8.4500173450055872e-03, -9.7815765298556623e-01,
       8.9667728712090940e-03, -9.9039452616193346e-01,
       8.7689318302264126e-03, -7.7322177928786762e-01,
       9.6329586727394566e-03, -6.5597341155332234e-01,
       1.1854165119396621e-02, -4.9041828276213434e-01,
       1.5650558227131666e-02, -3.0619559886307601e-01,
       1.7123917013420257e-02, -2.7923032420270771e-01,
       2.6290849621495499e-02, -2.0947870504868996e-01,
       2.3661845478540271e-02, -2.4768609218665538e-01,
       1.2492091106565170e-02, -4.2372367092107344e-01,
       1.0699769230720345e-02, -4.8407826922855757e-01,
       1.1301810908524945e-02, -5.0347744724751453e-01,
       9.7367181608211083e-03, -7.3826309796806500e-01,
       8.6767958118859657e-03, -9.2715761699587940e-01,
       8.6929727171516074e-03, -1.0925103776136342e+00,
       9.1493591155999438e-03, -1.1336351084844962e+00,
       8.7241299134504496e-03, -1.0107326640050740e+00,
       8.8741997958878809e-03, -9.9176339331785690e-01,
       9.0636614743998534e-03, -8.1982279916829648e-01,
       1.0028211941621640e-02, -6.0541285963693225e-01,
       1.1431812386437458e-02, -4.8972409190932076e-01,
       1.2365172091279016e-02, -4.1582877113414113e-01,
       1.3235488258214788e-02, -3.6931281752760620e-01,
       2.2028882776799690e-02, -2.0962969094051317e-01,
       1.3120437004935471e-02, -3.8303211256343878e-01,
       1.1376205005894634e-02, -5.3247978914687466e-01,
       1.0568016284822335e-02, -5.2021912421415750e-01,
       9.9016653392702669e-03, -6.2444373349268945e-01,
       9.3924340514275149e-03, -8.5713535262865936e-01,
       8.4531948327294416e-03, -9.7538961021526494e-01,
       8.7068505184840616e-03, -1.1026804882441428e+00,
       9.1450604354458963e-03, -1.1546376304624271e+00,
       8.6736516835971850e-03, -1.1429634557256292e+00,
       8.8625020408518180e-03, -9.5872259980634100e-01,
       9.4705169839061926e-03, -7.9475967527845037e-01,
       9.7800069793650465e-03, -6.5888853472270648e-01,
       1.0396585658098145e-02, -5.7080609000267879e-01,
       1.0962952388493173e-02, -5.2409985289506067e-01,
       1.2845166882688250e-02, -4.3549259334533397e-01,
       1.7570400976255889e-02, -2.8707768046689058e-01,
       1.2803407066630712e-02, -4.2354496602676756e-01,
       1.0540392221089280e-02, -5.2310946555309223e-01,
       9.3665018209652274e-03, -5.9900289871172785e-01,
       8.9951309119150006e-03, -7.1047025928464125e-01,
       8.6287795819688928e-03, -8.2697110122676065e-01,
       8.2709307137923353e-03, -9.3274754114251635e-01,
       8.8722243335230128e-03, -1.0557946956892386e+00,
       8.5392183955264253e-03, -1.0636836075588803e+00,
       8.7856630167746207e-03, -9.6528929790756002e-01,
       8.4986493148421476e-03, -9.1607215114661411e-01,
       8.7461004475449956e-03, -7.1153759124866067e-01,
       8.8487674894452313e-03, -6.9234469502094864e-01,
       9.2255755727157079e-03, -6.4727828615021499e-01,
       9.6354678178978276e-03, -5.6383027811827935e-01,
       1.0921186847994825e-02, -4.8299829576131953e-01,
       1.2603776345705727e-02, -3.9173350029314413e-01,
       1.3620433642731720e-02, -3.9389415357125762e-01,
       1.0810809002995737e-02, -5.3844803550404574e-01,
       9.9817369376242436e-03, -6.0663201259626043e-01,
       9.1576109623249559e-03, -7.0912403596971152e-01,
       8.6563684391859821e-03, -8.6451989315225164e-01,
       8.6209099938601604e-03, -1.0306158850724436e+00,
       8.6258255024188098e-03, -1.0888017803537033e+00,
       8.2536006642405981e-03, -1.0418173999733373e+00,
       8.8360935752013897e-03, -1.0017564796788803e+00,
       8.6864935936364698e-03, -8.8574213708015748e-01,
       8.5192149274012467e-03, -7.7483633831638110e-01,
       8.7026311110599136e-03, -7.5249686107084190e-01,
       8.6172427719838074e-03, -7.2968587988572553e-01,
       8.9673872657762294e-03, -6.5331755289534243e-01,
       1.0353965615878121e-02, -5.1519328911264517e-01,
       1.4612576963900895e-02, -3.5140890730929408e-01,
       2.0772441511915849e-02, -2.3653780173246111e-01,
       1.6423129437290022e-02, -4.3706715437949251e-01,
       1.1344092903556835e-02, -5.7928061504291839e-01,
       1.0240159182676820e-02, -6.4364355378857363e-01,
       9.7045971416742042e-03, -8.7435289731277588e-01,
       9.3022963692542190e-03, -9.3953193329467610e-01,
       9.1671904866652519e-03, -9.4791706790340213e-01,
       9.2997041811149241e-03, -9.6236938751666701e-01,
       8.8737657698881988e-03, -8.5932402713562495e-01,
       9.3325227306572008e-03, -8.8914857693535632e-01,
       9.4772338339569120e-03, -8.1901643358614740e-01,
       9.9207146981574942e-03, -8.1029837470112176e-01,
       9.8195163328396850e-03, -6.9021697062121534e-01,
       9.8764602840116164e-03, -6.6490879395910463e-01,
       1.3235322692380466e-02, -5.3218805600168551e-01,
       1.6159340163009031e-02, -3.7531370701182265e-01,
       2.6550604807874450e-02, -2.4152485663937404e-01,
       1.4155782056055411e-02, -4.0937608429850564e-01,
       1.0173470406474648e-02, -5.2278510830690694e-01,
       1.0039173841134187e-02, -6.3473486221364539e-01,
       9.0435712670927666e-03, -8.0298161008622071e-01,
       8.7309188426236903e-03, -8.0718752912772573e-01,
       9.2714765904317251e-03, -8.2291831737331911e-01,
       8.7405888031950162e-03, -8.6870174524657562e-01,
       8.8287394647419710e-03, -8.4727419056797948e-01,
       8.5769592046570121e-03, -8.3542349414393058e-01,
       9.1442562261311762e-03, -7.9363294762599779e-01,
       9.3636229046007019e-03, -6.8807525731227093e-01,
       1.0413343867737863e-02, -5.5593819680987622e-01,
       1.1065726216344496e-02, -4.4637711721092876e-01,
       1.1608762534676438e-02, -4.3177107104780432e-01,
       1.3916212790167071e-02, -3.2815327579393966e-01,
       1.5895276439339030e-02, -3.2687866871221394e-01,
       1.2926976450793324e-02, -4.1574824262712728e-01,
       1.0696284694490762e-02, -5.1566443470698209e-01,
       1.0062826885712884e-02, -6.5197379999852678e-01,
       9.4919647079651781e-03, -7.4879353849447883e-01,
       9.3090146531728205e-03, -7.7595141496124420e-01,
       9.1827125090721828e-03, -8.4436522603581476e-01,
       8.8657899527031965e-03, -7.9620513639760326e-01,
       8.8429157637867940e-03, -8.7716019269820611e-01,
       8.7212645981297916e-03, -8.9674293246899073e-01,
       9.2550996075124025e-03, -7.4637900060583884e-01,
       9.8041632866773688e-03, -6.7300837013062709e-01,
       1.1283640753711695e-02, -4.9265831484350903e-01,
       1.1119294748663926e-02, -4.5786386279579039e-01,
       1.1666958462309203e-02, -4.3054840260908805e-01,
       1.4486685161532448e-02, -3.7011144025592574e-01,
       1.5008154163082075e-02, -3.3187386060621815e-01,
       1.2603329473981816e-02, -4.0594917676680142e-01,
       1.1274535816054795e-02, -5.4554205561555469e-01,
       9.5676996994251990e-03, -6.5230107466887599e-01,
       9.5491923844480808e-03, -7.1049071724933865e-01,
       8.8440329923094082e-03, -7.9810265470921182e-01,
       8.9396857531420723e-03, -8.4249328799369561e-01,
       9.2828522619655390e-03, -6.8124157728940649e-01,
       8.8735555514969193e-03, -7.6183768065513069e-01,
       8.8459804954424317e-03, -7.7701951255128199e-01,
       9.1583534542097125e-03, -7.1656730010276304e-01,
       1.0377364942906454e-02, -6.7570035926634442e-01,
       1.0841957315629288e-02, -5.4174812522289573e-01,
       1.0765721751208487e-02, -4.7195535031910751e-01,
       1.2611259649986467e-02, -4.3732593947533721e-01,
       2.0071329841443424e-02, -2.9686144297747774e-01,
       3.0944720216277172e-02, -2.2360055898213183e-01,
       1.3646006293301587e-02, -4.4613636704068255e-01,
       1.0914804173274886e-02, -5.0348935379945448e-01,
       1.1077058956819239e-02, -5.4456251129653299e-01,
       1.1024027849989794e-02, -5.8978548997445401e-01,
       9.2416666864042294e-03, -7.4544475965657342e-01,
       9.2312912506678745e-03, -7.5771034152659378e-01,
       9.7481730644963741e-03, -6.7278117004806426e-01,
       9.0698734905106087e-03, -6.9530820484511158e-01,
       9.5682365470867049e-03, -6.8104238519828431e-01,
       9.7239298268081645e-03, -6.4444560739281853e-01,
       9.8345848928938235e-03, -5.8753713618191483e-01,
       1.1073516881928433e-02, -5.4099488121550354e-01,
       1.3761104662672032e-02, -4.5100910765402530e-01,
       1.6992932745559800e-02, -3.3218442721965286e-01,
       2.2066549875812316e-02, -2.1639455362086918e-01,
       2.2837051558979731e-02, -2.3500062733272692e-01,
       1.3158753822750214e-02, -4.0049303973434924e-01,
       1.1449217063765987e-02, -4.4171818091174581e-01,
       1.2428580565550480e-02, -4.5324226868886508e-01,
       1.1400537077301466e-02, -5.0622062215824093e-01,
       9.8509264470342528e-03, -6.1298184246222820e-01,
       9.5257791630248174e-03, -7.5683851866226215e-01,
       9.4608069502690583e-03, -7.6434164538544702e-01,
       9.2774972132481474e-03, -7.7302500973612798e-01,
       9.8206594236183477e-03, -6.1299922531295170e-01,
       1.2077964042248524e-02, -4.9675497270538288e-01,
       1.1749099234468496e-02, -4.9611519025546003e-01,
       1.1496637186723242e-02, -4.3965365757614205e-01,
       1.4831469341865095e-02, -3.7868090271245880e-01,
       1.8106682810132526e-02, -2.9087509804664513e-01,
       4.2126049536485341e-02, -1.5831241196775944e-01,
       2.9168516842820024e-02, -1.7971570054769756e-01,
       1.6623683062874876e-02, -3.1477748251314680e-01,
       1.4086187444253575e-02, -3.5965217297182916e-01,
       1.6979983404136315e-02, -3.4179063368326001e-01,
       1.4955004021307118e-02, -4.3200664842195241e-01,
       1.1500707005180952e-02, -5.1141047118199812e-01,
       1.0815741465354845e-02, -5.2962243691640820e-01,
       1.0706539241397082e-02, -6.3824788768070340e-01,
       1.0412618365400968e-02, -5.9183979225279049e-01,
       1.2814306313279941e-02, -5.3200039436100921e-01,
       1.6841236332324597e-02, -3.2487288150742288e-01,
       1.5859850565409374e-02, -3.7091585999747728e-01,
       1.4400901411350775e-02, -3.6699071338603589e-01,
       1.7130812946372406e-02, -3.0863093646932221e-01,
       6.0804626237510678e-02, -2.1085475227523864e-01,
       6.6152387965329584e-01, -1.2803687993289598e-01 ]
   output_scale: [ 1., 0., 5.2631578947368418e-01,
       4.9999999999999994e-01, 5.2631578947368418e-01,
       4.9999999999999994e-01, 5.2631578947368418e-01,
       4.9999999999999994e-01, 5.2631578947368418e-01,
       4.9999999999999994e-01, 5.2631578947368418e-01,
       4.9999999999999994e-01, 5.2631578947368418e-01,
       4.9999999999999994e-01, 5.2631578947368418e-01,
       4.9999999999999994e-01, 5.2631578947368418e-01,
       4.9999999999999994e-01, 1., 0., 5.2631578947368418e-01,
       4.9999999999999994e-01, 1., 0., 5.2631578947368418e-01,
       4.9999999999999994e-01, 5.2631578947368418e-01,
       4.9999999999999994e-01, 5.2631578947368418e-01,
       4.9999999999999994e-01, 5.2631578947368418e-01,
       4.9999999999999994e-01, 5.2631578947368418e-01,
       4.9999999999999994e-01, 5.2631578947368418e-01,
       4.9999999999999994e-01, 5.2631578947368418e-01,
       4.9999999999999994e-01, 5.2631578947368418e-01,
       4.9999999999999994e-01, 5.2631578947368418e-01,
       4.9999999999999994e-01, 5.2631578947368418e-01,
       4.9999999999999994e-01, 1., 0., 5.2631578947368418e-01,
       4.9999999999999994e-01, 1., 0., 5.2631578947368418e-01,
       4.9999999999999994e-01, 5.2631578947368418e-01,
       4.9999999999999994e-01, 5.2631578947368418e-01,
       4.9999999999999994e-01, 5.2631578947368418e-01,
       4.9999999999999994e-01, 5.2631578947368418e-01,
       4.9999999999999994e-01, 1., 0., 5.2631578947368418e-01,
       4.9999999999999994e-01, 5.2631578947368418e-01,
       4.9999999999999994e-01 ]
   inv_output_scale: [ 1., 0., 1.8999999999999999e+00,
       -9.4999999999999996e-01, 1.8999999999999999e+00,
       -9.4999999999999996e-01, 1.8999999999999999e+00,
       -9.4999999999999996e-01, 1.8999999999999999e+00,
       -9.4999999999999996e-01, 1.8999999999999999e+00,
       -9.4999999999999996e-01, 1.8999999999999999e+00,
       -9.4999999999999996e-01, 1.8999999999999999e+00,
       -9.4999999999999996e-01, 1.8999999999999999e+00,
       -9.4999999999999996e-01, 1., 0., 1.8999999999999999e+00,
       -9.4999999999999996e-01, 1., 0., 1.8999999999999999e+00,
       -9.4999999999999996e-01, 1.8999999999999999e+00,
       -9.4999999999999996e-01, 1.8999999999999999e+00,
       -9.4999999999999996e-01, 1.8999999999999999e+00,
       -9.4999999999999996e-01, 1.8999999999999999e+00,
       -9.4999999999999996e-01, 1.8999999999999999e+00,
       -9.4999999999999996e-01, 1.8999999999999999e+00,
       -9.4999999999999996e-01, 1.8999999999999999e+00,
       -9.4999999999999996e-01, 1.8999999999999999e+00,
       -9.4999999999999996e-01, 1.8999999999999999e+00,
       -9.4999999999999996e-01, 1., 0., 1.8999999999999999e+00,
       -9.4999999999999996e-01, 1., 0., 1.8999999999999999e+00,
       -9.4999999999999996e-01, 1.8999999999999999e+00,
       -9.4999999999999996e-01, 1.8999999999999999e+00,
       -9.4999999999999996e-01, 1.8999999999999999e+00,
       -9.4999999999999996e-01, 1.8999999999999999e+00,
       -9.4999999999999996e-01, 1., 0., 1.8999999999999999e+00,
       -9.4999999999999996e-01, 1.8999999999999999e+00,
       -9.4999999999999996e-01 ]
   weights:
      - [ 1.8605958273700451e+00, 2.0930631099923933e-01,
          2.7388365137747600e-01, 1.5196016842592344e-01,
          3.1360385094711146e-01, 4.2508342282290157e-01,
          -1.0315248809714463e-01, 6.5201888324107074e-02,
          -1.5627675538012666e-02, 1.2041177347200913e-01,
          -2.3265304471991030e-01, -1.4725822148201642e-01,
          -3.2844789831840793e-01, 7.2315610202622649e-01,
          2.2492870807114596e-01, 3.9195811617050713e-01,
          3.0710438307748511e+00, 2.0776651352904335e-01,
          2.6430132843984377e-01, 2.2582526584819437e-01,
          4.2380502232528156e-01, 5.6636550122831131e-01,
          -1.9467792334107981e-01, 1.2313522778166062e-01,
          -1.3593587949887739e-01, -8.6219184678280714e-02,
          -4.3924241323967034e-01, -5.9862401096513793e-02,
          -4.5235431746588806e-01, 9.1697026933358960e-01,
          3.5822392017946431e-01, 4.9967943690545752e-01,
          5.2816418560336631e+00, -1.1103568302418676e-01,
          -1.6749244365501334e-01, 2.4356416179636942e-01,
          6.3408364858255045e-02, 3.4382179425591131e-02,
          -1.3110345856636441e-01, 1.3790705991479349e-01,
          7.3324098883194534e-03, -6.6441411590009519e-02,
          -4.7081767058167695e-01, 3.7915694998735629e-02,
          -7.5610688082631702e-02, 4.2210446487222514e-01,
          2.8129149432707423e-01, 1.0958093980127017e-03,
          3.0623715174175019e+00, -3.6799798637798885e-02,
          -2.5070671395429761e-01, 3.1376284516546277e-01,
          -1.6206427150791117e-01, -2.2842238065732998e-01,
          2.5979190691970296e-02, 3.8145775473957005e-01,
          7.2840542639284953e-02, -1.2729799379267570e-01,
          -4.0962130972686306e-02, -1.7962759848863064e-01,
          1.8476940999469155e-01, 8.8360224619528416e-02,
          1.0158711156720608e-02, -3.0081812250309131e-01,
          8.8213970784312856e-01, -1.8546041876840301e-02,
          -1.6878469520963341e-01, 2.2657357334142253e-01,
          1.9096143749100722e-01, -8.3717897834689844e-02,
          9.3093524317915885e-02, 2.3460301558538696e-01,
          -5.3837114931375232e-02, 7.9099384309758478e-02,
          -1.5903036206445922e-02, 3.6532675528579195e-02,
          -2.3641061376038861e-02, 3.0773163637004284e-03,
          6.8097035400409386e-02, 5.6577012342545377e-02,
          2.0507610178843056e+00, 9.6074810556153731e-02,
          3.3780814376413226e-02, 5.9963673152258992e-02,
          3.2636507416461674e-01, 1.4615575967725783e-01,
          9.9228489760480043e-02, 1.3156088650741196e-03,
          -9.7509264887716135e-02, 3.6082707055614748e-02,
          -2.9002166688670311e-02, 1.6269193583464867e-01,
          2.6999830445855737e-02, -1.4146353735224934e-01,
          5.9810072956274836e-02, 1.4699389630838655e-01,
          2.9369851974895780e+00, -9.7892153434715173e-03,
          2.6155216349044452e-01, 1.2497823746994548e-01,
          2.5715427486053583e-01, 5.3388842727142416e-01,
          -2.1453589042707599e-01, -1.9966686328815014e-01,
          -2.6703761028289130e-01, -1.2865098534450614e-01,
          1.2143265432194976e-02, 6.1843416586655919e-01,
          -1.3044399631435369e-01, -1.8812385995154066e-01,
          8.7574212474432298e-02, 3.7657679115459219e-01,
          3.3422977333566570e+00, 1.1364811336736466e-01,
          1.4322531816552636e-01, -5.4014874654079705e-02,
          -6.3785270719680098e-02, 3.0767861675981745e-01,
          -3.9129403690997616e-01, -2.1144077948622725e-01,
          -2.4110260125094751e-01, 2.4485897544114077e-01,
          -5.3101910208705756e-02, 5.3442398133121605e-01,
          -1.4935427727481915e-01, -2.8035282901985770e-01,
          -1.4661724286950678e-01, 1.7039595419111050e-01,
          1.4969762128207065e-01, 1.3057460437432375e-01,
          3.6562052872938483e-01, -2.6670048680105712e-01,
          -2.1276733408518503e-01, 1.0921976621610899e-01,
          1.0718017961742066e-01, -5.9635002138373541e-02,
          3.9384104436020188e-02, 2.4400353837590641e-01,
          1.6211113277514230e-02, 1.6403849584463831e-01,
          -1.8742096287303539e-01, -1.6201848013512238e-01,
          -4.4664460117258020e-01, 2.3459567602148824e-02,
          -8.4775964488545275e-01, 1.0085007229001168e-01,
          1.8392229356920545e-01, -3.4617378492127115e-01,
          -9.3054932211292171e-02, -1.4898952129491624e-01,
          3.4754516605638441e-01, 8.9256584328530168e-03,
          1.2641657821998686e-01, 2.1216815826864710e-01,
          -1.0498468908706567e-01, -1.2074633497733078e-01,
          -1.6504969652169432e-01, 2.2572588853763325e-02,
          -2.3488978010811870e-01, -7.6462257133669706e-02,
          -1.3683845326946287e+00, 1.5850755873218347e-01,
          6.0049135275316537e-02, -2.2331033462748970e-01,
          -7.6425362273946543e-02, -4.3980785473392564e-01,
          1.6552289244870716e-01, -2.8279314905216513e-02,
          4.3682238427711307e-03, 3.2800225899078556e-01,
          7.6847526296878230e-02, -1.0373393116423162e-01,
          2.1635794400740241e-01, 3.1907121520731083e-04,
          -1.6275501310618892e-01, -3.4305497336993901e-01,
          -4.9537928228037481e-01, -4.3413789526772863e-02,
          6.2630038420704068e-02, -2.1646782512354815e-01,
          4.4835551317579332e-02, -2.4200273506343389e-01,
          -1.0983123587986694e-01, -7.2610091846636568e-02,
          1.0816896133926571e-01, 2.9010552240136994e-01,
          1.5869746282014097e-01, -1.2277684627078575e-01,
          1.3516624749502235e-01, -7.0683075810602861e-02,
          -1.3497736051200551e-01, -2.0516465900546793e-01,
          2.7621583268454192e-01, -6.8988733631922899e-02,
          2.4475906963537383e-01, -1.4502994619172854e-01,
          -9.4344124184100667e-02, -4.7076884804525591e-02,
          -1.3695048924728240e-01, -3.3816870191120507e-02,
          2.2372251593057782e-01, 1.7771852798991308e-01,
          3.2092850079671253e-01, -6.3079373496847266e-02,
          7.3008650484315263e-02, -1.2793040417578389e-01,
          -9.6733338572341371e-02, -1.8721454776620614e-01,
          -5.5033664450009363e+00, 3.1844076795024856e-01,
          -1.3111027637304282e-01, -1.0133539405938839e-02,
          -1.2906024046866912e-01, -7.3372393860141230e-02,
          1.2649847484185242e-01, -4.9376201028084200e-03,
          1.4949889196011049e-01, -1.4086413952863022e-01,
          2.0129123210769848e-01, -1.7306822748098921e-01,
          -5.8508412387025852e-02, -3.6995503371263977e-02,
          1.6959892057317028e-01, 1.2727393407640883e-01,
          -4.5879180848675913e+00, 3.8664681634846260e-01,
          -2.1903999229097026e-01, 1.2539901564008720e-03,
          -1.6716827090699382e-01, -1.7928245251291350e-01,
          1.2451696992502212e-01, -1.0396816002250215e-02,
          4.7430029667910783e-03, 7.1802077724061636e-02,
          5.9109646908697563e-02, -2.6287665177887021e-01,
          6.7463119812909325e-02, -1.6498192082364093e-02,
          2.1034471260686888e-02, 7.7223941561617118e-02,
          -4.0858742861897355e+00, 3.8124548091823851e-01,
          -1.9915752534076470e-01, -1.6503828910791520e-02,
          -1.2473730025718614e-01, -1.6613959358942523e-01,
          8.7944895394126657e-02, 2.8917780526172424e-03,
          -5.8536705749066255e-02, 1.3490574412439466e-01,
          2.0363246161536012e-02, -2.8076158109826888e-01,
          8.5222208741137645e-02, -3.6855928255477580e-02,
          -1.5700515169610109e-02, 6.2176251903185896e-02,
          2.1789063463874760e+00, 1.4970007895952081e-01,
          4.2607377507714130e-02, 1.9109965600958667e-01,
          1.3904653731073260e-01, 1.6943432125470231e-01,
          -6.7605310959851256e-02, 1.5006933127615324e-01,
          7.4219295112665895e-02, 1.2512755653622459e-01,
          -2.1060451546683132e-01, -9.5741228954242197e-02,
          -1.3632433270228347e-01, 5.0087681836414089e-01,
          1.5554235480611417e-01, 1.2268681056232564e-01,
          3.9282853314129467e+00, 9.6283307788684047e-02,
          5.1885706338850965e-02, 1.5809382877378900e-01,
          2.6572174236210278e-01, 3.0524799877252884e-01,
          -1.8664803488372478e-01, 6.2012833846648817e-03,
          -6.3490625617732291e-02, 1.0922775205855630e-01,
          -5.6871892224403742e-01, -1.0289366184398030e-01,
          -2.7944978532295278e-01, 7.3402610701742621e-01,
          4.0125683291898978e-01, 3.0714215323023697e-01,
          3.0466356892354911e+00, 2.2067909992116777e-01,
          1.5699088294189539e-01, 3.0208756511098868e-02,
          2.2411232090765543e-01, 3.1296466977287779e-01,
          -1.4505505624286485e-01, 6.8924742635610020e-02,
          -2.9700141409351736e-02, 2.0382644673162523e-01,
          -4.6103441991687039e-01, -2.2923007817591634e-01,
          -1.9102218081194067e-01, 6.0365218279523780e-01,
          3.1346209074807857e-01, 1.1207033640941864e-01,
          3.0316439711482470e+00, 1.0541400477949880e-01,
          -2.9772897533777470e-02, -1.5542268105381490e-01,
          2.1344672451559865e-01, 1.5855880385646701e-01,
          -1.0147165551455188e-01, 1.0584295488842450e-01,
          2.6442648944567496e-02, 2.6507312972778008e-01,
          -3.0727178420732160e-01, -3.5031232353985742e-01,
          2.6586080905367300e-02, 1.5750380808911604e-01,
          9.3230827937701224e-02, -1.5314969606430404e-01,
          7.1483918141830516e-01, -4.5788691581612931e-02,
          -1.2370515896416791e-01, 1.1218596727734950e-01,
          2.5032115406613953e-01, -6.2586085627204316e-03,
          -9.3720216905697762e-03, 2.6605862830292726e-01,
          -2.2784704370796667e-02, 2.3216053915571605e-01,
          -1.7662720905676546e-01, -1.5197228585678135e-01,
          1.7840832828470907e-02, -6.5939033538963049e-02,
          -2.3451996503110931e-02, -6.7522628400108448e-02,
          2.3415471025663477e+00, 1.2190184682344213e-01,
          1.7609061772500312e-01, 2.2227214693518094e-01,
          2.5604981614469352e-01, 2.9003401545133289e-01,
          -6.6575152186229947e-02, -8.7971357131162359e-02,
          -2.0076518038852870e-01, -1.0719747174599824e-01,
          -2.1294287581403788e-02, 2.1197944655625323e-01,
          -3.3450411363201309e-02, -2.2620841251312593e-01,
          -6.0287358057411498e-02, 8.8458326021396624e-02,
          3.0365059285073976e+00, 1.4926054052710069e-01,
          2.7357142284530767e-01, 2.3586820362043495e-01,
          1.9093870167666258e-01, 4.9014155932818476e-01,
          -1.3933429936365527e-01, -1.5081081616636199e-01,
          -3.0533867294657907e-01, -2.3661698259547395e-01,
          -4.5444519533489457e-02, 6.0268992135375987e-01,
          -2.6833164990582237e-01, -2.4156919560417878e-01,
          2.0081218343958854e-01, 4.6699623762291009e-01,
          1.5941012298799138e+00, 2.3154901148785370e-01,
          1.6677472989237410e-01, 6.2351856997317309e-02,
          -2.3852175374160433e-03, 2.6187078444067624e-01,
          -1.1360917471261592e-02, 2.0051777958599877e-04,
          -2.4780014417261642e-01, -1.3328656023521790e-01,
          9.1021143868248930e-02, 3.4324644625873335e-01,
          -9.1217735222282395e-02, -1.8828969858803024e-01,
          -9.2784305856921614e-02, 1.6709283910411793e-01,
          5.2740192386596763e-01, 2.0817051281813945e-01,
          2.1368532118314912e-01, -3.2817475124229412e-01,
          1.0677499087129629e-01, 1.4306126540067457e-01,
          -6.3173015762887086e-02, -2.0702885154840212e-01,
          -1.7893373364746301e-01, 1.3947991536469520e-01,
          -6.3396536387435712e-02, 1.7780617028042109e-01,
          -1.8056738396639402e-01, -1.8529277807563022e-01,
          -2.3092283669551292e-01, 1.1209044568892651e-01,
          -2.8992864290965090e+00, 2.1242978341284319e-01,
          1.5394410577167761e-01, -4.0749379702462174e-01,
          1.0178285885613336e-01, 4.5208017098993601e-02,
          2.1040515866763084e-02, -1.1345398531154402e-01,
          -3.6589708534429458e-02, 2.5172103657827460e-01,
          -8.6303027713075714e-02, -1.7198294365746956e-02,
          -2.2262562082815027e-01, -9.9390065000256447e-02,
          -2.8354360039813636e-01, 1.2117138292318132e-01,
          -2.7259093196844555e+00, 2.5970449242419197e-01,
          1.4522280424526804e-01, -1.8750145530258422e-01,
          -1.9330499983225802e-01, -3.2739659262677046e-01,
          9.4524222292485680e-02, -4.7149928714113019e-02,
          1.2401603129257739e-01, 3.2061162921583525e-01,
          7.0177073722842542e-02, -5.9879158650419109e-02,
          1.1919710881533127e-01, 1.2075610085293546e-01,
          -1.9124747732447542e-01, -1.0894635568010491e-01,
          -2.5662811297717045e+00, -8.3359966065198854e-02,
          1.3251452191145971e-01, -6.9189401218142113e-02,
          -9.1259992385383168e-02, -3.9266369193718237e-01,
          9.4781865927192066e-02, -2.6695105027129656e-02,
          2.5474263720288259e-01, 2.6832714491803844e-01,
          2.6196294637730400e-01, -8.8746282703165646e-02,
          1.6614601168880150e-01, 1.0063861675356464e-01,
          -1.9945330769403705e-01, -2.8179819092782554e-01,
          -4.4932332461755635e+00, 3.9347316578779365e-02,
          2.0919946074595941e-01, 2.7875898641169756e-02,
          1.2942985334065085e-01, 5.4949502845001920e-02,
          4.9359305070701322e-03, 9.3939859437426731e-03,
          2.7265899704163493e-01, 4.9487001092472623e-02,
          2.6631240227686209e-01, -1.0157372738316779e-01,
          -1.5898476679569268e-01, -4.6406435798652355e-02,
          8.0565541809471841e-02, 1.3935646640446150e-01,
          -7.0116386586155217e+00, 2.9624524854261758e-01,
          1.8742420101680753e-02, -6.3473622798537299e-02,
          1.3469353216284810e-01, 2.0939789708147843e-01,
          8.3882854698761500e-02, -6.1486562656744161e-02,
          1.4845491953820306e-01, -3.5049355496537406e-02,
          1.1593737850640554e-01, -2.0472485645887251e-01,
          -2.9378394617190129e-01, 4.2166578718798049e-03,
          1.7925351669693407e-01, 3.0691612716515965e-01,
          -5.9979770121177687e+00, 3.2594537843612925e-01,
          -2.2813990422712357e-01, 3.7254628295089728e-02,
          -1.6937864825279020e-01, -1.2994369737203035e-01,
          1.6292344642847381e-01, -5.6209672051202787e-02,
          1.0587911465710396e-01, -1.3073819871429948e-01,
          1.5527792233326887e-01, -1.9563876716251216e-01,
          -6.7914878386285474e-02, 1.8121985961109963e-02,
          1.9398179558282716e-01, 1.7218001214141729e-01,
          -3.9180399115718583e+00, -9.2341073395550231e-03,
          -2.4609751166138558e-01, 3.7530992420138992e-01,
          -8.6020959063667565e-02, -1.0988660003169906e-01,
          8.0769701667226093e-02, 6.5499719349447053e-02,
          8.0006595550449602e-02, -2.6472430087422932e-01,
          3.7620202398549733e-02, -8.0936976324931329e-03,
          -1.7201003866997217e-02, -1.2148156714936591e-01,
          2.9456982260175495e-02, 2.2661153833454589e-01,
          1.4600553833228400e+00, 1.6700004747853023e-01,
          -2.1048437005548051e-01, 9.0563278909992245e-02,
          -8.6866736087109833e-02, -1.0667054967030240e-01,
          -2.1082674995119767e-02, 2.7848623154646218e-01,
          5.8546386992139945e-02, 3.7591107137720528e-02,
          -1.3638382559680581e-01, -4.9061229856927735e-02,
          9.9965577065654468e-02, 1.5351486237349757e-01,
          4.5055673232291642e-02, -2.6800320140352085e-01,
          2.2816001256096095e+00, 2.3548654030798835e-01,
          2.1429498924841942e-01, -3.6733431747614551e-02,
          2.8117553208265844e-01, 3.9549479048634906e-01,
          -1.7425861390321490e-01, 3.8250290527062351e-02,
          -5.3227128104920876e-02, 2.2062307776478540e-01,
          -5.1371688437190210e-01, -1.5000627907379396e-01,
          -2.5568539420948816e-01, 6.1532192181532164e-01,
          3.3597106443218505e-01, 1.6840968496439207e-01,
          1.8595927981569138e+00, 2.1625998896448881e-01,
          1.8953271245970549e-01, -1.8475808652671077e-02,
          2.6814046353579829e-01, 3.6998131859615208e-01,
          -1.7693231112809452e-01, 1.0495583854409615e-01,
          -5.3615380443180601e-02, 2.1492871015921100e-01,
          -4.4662847047500132e-01, -1.6526058627642912e-01,
          -2.4936083161083716e-01, 5.2628286778838107e-01,
          2.9300729687391236e-01, 1.8832923751031291e-01,
          2.8215151836014742e+00, 1.5769640207458782e-01,
          1.5897805326505793e-01, -7.9182478833019945e-02,
          2.9223642284090490e-01, 3.1412608787089280e-01,
          -1.9824809419871017e-01, 1.6871525385099995e-01,
          1.5908254431196766e-02, 2.5834769540470198e-01,
          -3.0784963559379008e-01, -3.0408847766999825e-01,
          -1.0703098333971514e-01, 3.4437151562501361e-01,
          1.4732304094575771e-01, 7.6832477764980566e-03,
          6.9715639671872409e-01, 1.0756827654298226e-01,
          -1.3544561281201095e-01, -1.0794905772499283e-01,
          -3.8608809816642040e-02, -1.8298832129395393e-01,
          -8.5599167134334714e-02, 1.3506536790562085e-01,
          5.0831553595329530e-02, 3.2832896036649573e-01,
          -2.0620737119201191e-01, -2.1991464446834152e-01,
          2.8408529162805402e-01, -1.1291759025824812e-01,
          -3.1827157618779434e-01, -4.3105448464813906e-01,
          -3.9772720798652315e+00, 7.8615782846892898e-02,
          1.3121717656904991e-01, 2.6785418419859730e-01,
          7.6546673593501507e-02, 2.0284441651331642e-01,
          -1.4489592579358290e-01, 1.8573663812908352e-02,
          -1.7478960754079240e-01, -6.8451170588582286e-02,
          -1.6818765589410832e-02, 1.8551613768500230e-01,
          -5.5972875767555288e-02, -1.9467173029609350e-01,
          -2.5253901280849628e-01, 8.7564330787776840e-02,
          3.3362062149657983e+00, 1.6310819936332474e-01,
          5.5905209780428046e-02, 3.6451183096941009e-01,
          -1.5015891224991060e-01, 1.0914598490352806e-02,
          1.1432247302375644e-01, 1.9510317434106916e-01,
          -1.3926222323195303e-01, -3.7402198738852632e-01,
          3.4464764103079754e-01, 1.1066659643171167e-01,
          -4.7326300237616525e-02, -2.6892301194034846e-01,
          8.0682801278503427e-02, 5.7608545186018469e-02,
          -3.4372914576319757e-01, 2.4818316935715137e-01,
          -2.0255639861366040e-01, 2.2498635185065480e-01,
          -4.4769971888063011e-02, 8.7707852769507450e-03,
          -1.6415000931056381e-01, 2.7142227184416899e-03,
          -2.4204439840548375e-01, -1.3583338580388801e-01,
          8.0221217904408976e-02, 2.1891269368550170e-01,
          -5.6934041551869137e-03, -1.8775069811538286e-01,
          1.5581276062982624e-01, 1.4329284725001837e-01,
          -2.4162522508453161e+00, 1.0485315671234149e-01,
          1.1685423784792316e-01, -2.6752206751793162e-01,
          4.0914882916980744e-01, 4.6587458029929629e-01,
          -2.4221692386720484e-01, -3.5992744340565797e-01,
          -3.0498609690499928e-01, -2.5140692488032806e-01,
          9.0646172420017629e-02, 1.2542533240714610e-01,
          -2.7241884599197597e-01, -1.8300747186173516e-01,
          -9.2880239466805084e-02, 3.2728357817626802e-01,
          -9.7775594032834494e+00, 3.6023337493084347e-02,
          2.2418954357908616e-01, -3.6745583160943313e-01,
          5.5427763761801453e-02, 7.4355450959962377e-02,
          -8.7480419692874928e-02, -9.4260423176799182e-02,
          1.3811734696821998e-01, -5.1916962658162293e-03,
          2.6583194668121835e-01, 4.1150770949815750e-02,
          -2.0640739855836301e-01, -1.9975359452356459e-02,
          -1.9689172523301751e-01, 1.8575141398798184e-01,
          -4.3528052169091902e+00, -2.1086746447020667e-02,
          2.5681543436819337e-01, -1.9184034592865404e-01,
          -1.8492388713197708e-01, -2.4154022952536522e-01,
          -1.3771403170531958e-02, -4.6345131861785703e-02,
          3.1252492628072015e-01, 3.7869688440352177e-02,
          2.3955377943343176e-01, -3.9128039190495983e-02,
          -3.9737845506781022e-03, 1.4644245050629554e-01,
          -1.9691274697791900e-01, -4.5864261603132443e-02,
          -3.2127452552726199e+00, 8.5256403382737531e-02,
          1.5419582659589059e-01, -1.7962699295003901e-01,
          -7.0169388777094069e-02, -2.7204110389019909e-01,
          6.4412044413504344e-02, -8.1992032801666406e-02,
          3.3833048967452301e-01, 4.4240844237096642e-02,
          3.2383227841978218e-01, -4.7898042941554392e-02,
          7.3707156218466074e-02, 5.4887188540920451e-02,
          -6.4275621631011179e-02, -1.1800838731369107e-01,
          -5.1702929997004023e+00, 1.4639383313183613e-01,
          1.3988760226345798e-01, -1.8867863412395505e-02,
          8.4719377895799711e-02, 5.3914919734384947e-03,
          2.4439896491613027e-02, -1.3565681381828331e-02,
          2.2310640152304823e-01, 1.2867747558863343e-01,
          2.5152117799509549e-01, -1.9588058555481955e-01,
          -1.6978624423915400e-01, -2.0888269884455826e-02,
          7.9477279950660576e-02, 1.6353641028280075e-01,
          -6.8608161026761350e+00, 2.3960297444542147e-01,
          -6.5782291868586473e-02, -3.5791012345374865e-02,
          -9.0385612936873388e-03, 7.9499011177811149e-02,
          1.0803281053808547e-01, -6.9496511897570071e-02,
          1.0733227851836226e-01, 2.7747709161833719e-02,
          1.3400360936520839e-01, -2.8206110634922271e-01,
          -2.5374613886212910e-01, -3.2657132080237752e-03,
          1.7678038216331135e-01, 2.5282055788188129e-01,
          -5.3518016733398888e+00, 8.6958165258036943e-02,
          -2.8678903488274776e-01, 2.3276659044520290e-01,
          -1.4973527855964947e-01, -1.1922055197192917e-01,
          1.5046407906470968e-01, -1.7441645340514775e-02,
          1.4130337636155774e-01, -2.2802700015362776e-01,
          1.5288427265406895e-01, -1.3669016960926172e-01,
          -1.4116197838382644e-01, -1.9272574544287158e-02,
          1.7961269050519385e-01, 2.5803977105649589e-01,
          1.6905221053445976e+00, -1.8993148620899489e-02,
          -1.5227350495058314e-01, 1.5956951095540431e-01,
          -1.2441102476514553e-01, -1.6920902374098851e-01,
          7.5258553107482168e-02, 9.5906483827684852e-02,
          4.6675248849213515e-02, -1.0322612946778524e-01,
          7.5489497545724066e-02, -4.8768895718936611e-02,
          1.0783799994412431e-01, -4.7747502472558878e-02,
          3.5097317604899764e-03, -2.1195783941737992e-02,
          7.9619414235822850e-01, 5.5272636023938546e-02,
          1.2471771228703168e-01, 4.6637051568261881e-03,
          4.8547645085683176e-02, 1.7177274039852400e-01,
          -8.7901206030321262e-03, 2.2639040660858425e-01,
          1.1641775678323023e-01, 1.5199546980219601e-02,
          -1.1237796265488326e-01, 7.0784271004505850e-02,
          3.3706152387238050e-02, -1.3422866098923781e-02,
          2.2771910342738767e-03, -3.0120551744712204e-01,
          4.3754673889591512e-02, 2.1787693155221227e-01,
          -1.3135150040657637e-02, -1.5697554420809762e-01,
          -4.9562278440075040e-02, 2.1327738000271917e-02,
          -1.8997963484449720e-02, 1.3881776720981331e-01,
          2.5210246112001778e-02, 3.0828540739314658e-01,
          -2.1394652573709819e-01, -1.2378751367431279e-01,
          8.8050685803003986e-02, -7.8221798523359587e-02,
          2.5653866735252592e-02, -2.2145357242439442e-01,
          -4.4435322758840023e-01, 2.8713181187313169e-01,
          -3.2477956894672221e-02, 3.6640233855240477e-02,
          2.0559996942557859e-01, 2.5784148721425204e-01,
          -1.6533460005371528e-01, 2.6105762153427026e-01,
          -1.5936665687424176e-01, 1.7910527688752317e-01,
          -3.4874397997802076e-01, -1.4070957332145348e-01,
          -2.8255006367562380e-01, 3.9377184400149384e-01,
          1.9271863775325915e-01, 3.4071075903483555e-01,
          1.2658517830165015e+00, 2.1876572098014205e-01,
          5.5123696930812149e-02, 2.9381211355369689e-02,
          1.7360697373347150e-01, 2.3439430716664150e-01,
          -1.5298322463136080e-01, 2.2865730878093507e-01,
          -6.2698026599244394e-02, 2.2728212500741032e-01,
          -3.5775843496195681e-01, -2.0912190564141120e-01,
          -1.8210225965190405e-01, 3.6964677368649834e-01,
          1.9106317487950231e-01, 1.7936011860307108e-01,
          1.0114229256776559e+00, 1.7058769496680057e-01,
          9.3091442718540404e-02, 1.1637454452475719e-01,
          1.5266808800980100e-01, 1.2317715276184400e-01,
          -1.7878093938680786e-01, 5.0035807805012426e-02,
          -1.9155823176463034e-02, 3.1751771446959404e-01,
          -2.8940041452934673e-01, -1.7685488453014955e-01,
          5.8866649751700820e-02, 1.7784054628935117e-01,
          -9.1050751249810755e-02, -1.5149762790682664e-01,
          3.5479043129852057e+00, -1.7315169177484155e-03,
          -3.5582722450677386e-03, 2.9387051253477237e-01,
          -8.8143384280942760e-02, -4.3860130810741110e-02,
          -1.2124598839426792e-01, -7.5139087663949791e-02,
          -3.9776352583823053e-02, 5.8996425466903542e-02,
          -6.4424911890898204e-02, 1.1058758435065316e-01,
          1.0656963184880168e-01, -2.6740655918151512e-01,
          -3.0745273894800274e-01, -1.1757550266146824e-01,
          2.0089260854802267e+00, 6.6575385661657799e-02,
          -2.6546267271613078e-01, 3.8078356472551089e-01,
          -2.0971804999650046e-01, -3.3535410090612094e-01,
          2.0952845612123966e-01, 2.4028820534768147e-01,
          6.5171848594785795e-02, -6.3468972503398599e-02,
          3.0119928757611930e-01, 8.0995259204371575e-02,
          7.1653541643811811e-02, -2.2906358226151174e-01,
          -6.5834111785468719e-02, -9.0631406756355379e-02,
          7.9614210045453160e-01, 1.6845635214175614e-01,
          -2.3042089991754386e-01, 1.6640525997595521e-01,
          -2.8401889662599756e-02, -3.2968893350343079e-03,
          -2.9839127777501606e-01, -2.0441632427545384e-01,
          -1.2033445437390121e-01, 8.7350489170250293e-03,
          -7.2545416336646296e-02, 2.3811140618589252e-01,
          2.6191261261642604e-02, -1.4750706003560057e-01,
          1.2269575885851162e-01, 9.0945084301169127e-02,
          -9.7846425153686079e-01, 7.3770230061999342e-02,
          2.1994875935403346e-01, -2.1073319306513344e-01,
          3.1494697404085692e-01, 3.6378532425551668e-01,
          -2.5020794647167360e-01, -4.9222113964563935e-01,
          -1.6507465083314002e-01, -2.2293314057325223e-01,
          -1.1570830514149644e-01, 2.9343148232327720e-01,
          -2.0830197405925682e-01, -1.2626116445395924e-01,
          6.5259201230804434e-02, 3.0142924747559208e-01,
          -7.6154623775095533e+00, 1.1161175563764300e-01,
          2.7345835546578218e-01, -2.3363428194152824e-01,
          -9.6060792341991733e-02, 6.8314996273244888e-02,
          -9.1327949495800712e-02, -1.2634388028668903e-01,
          1.6091518089985946e-01, -1.8350324301365858e-01,
          3.2543962488854539e-01, -1.6316113945608227e-01,
          4.4418546969338710e-02, -1.4499582590242258e-02,
          -2.8970567968960309e-01, 1.1101015255085589e-02,
          -5.3718291760046508e+00, 5.3231718041377940e-02,
          2.4817687813505440e-01, -1.4881256586529526e-01,
          -2.6595115627822008e-01, -2.2655069953976581e-01,
          7.8453222077861276e-02, -7.5457089068852623e-02,
          3.9325966611040930e-01, -6.6647053822930846e-02,
          3.0979579721332445e-01, -3.5347547824967893e-02,
          3.0701855389877158e-02, 4.6251279181278505e-02,
          -1.4546431682898009e-01, -3.4948496121811737e-02,
          -5.7136533820035149e+00, 1.2522716625470640e-01,
          1.0992865903457724e-01, -2.2414614672187447e-01,
          -3.8798716455319196e-02, -2.0636851277008406e-01,
          8.6166589282118608e-02, -3.8386088675590832e-02,
          2.7099885436032833e-01, 1.1889614438986915e-01,
          2.3223337041960113e-01, -1.5613603477801921e-01,
          -2.0521280074843582e-02, -6.0720955897556113e-02,
          1.9930213307967935e-02, 9.4022031392487456e-04,
          -5.0943756977265009e+00, 1.6275085725507546e-01,
          -7.6605149962297808e-02, 2.8996638073049454e-02,
          -9.8571842074986218e-02, -1.9208108829847331e-01,
          3.6527358805488110e-02, 3.6621601807474200e-04,
          1.8765662973890451e-01, 7.4937838912903676e-02,
          2.5198196974381670e-01, -2.4110471791629393e-01,
          -9.3255200854061179e-02, -6.1545929621533255e-02,
          8.1875383480613684e-02, 1.5303667329183268e-01,
          -3.6556270022853221e+00, 4.3641914434287575e-02,
          -2.6359170082786054e-01, 1.0072343562804076e-01,
          -1.6730027732612288e-01, -1.3646789639479898e-01,
          1.6946062140226065e-01, -4.3105922819318888e-02,
          6.7749715805566796e-02, 8.5933801110816901e-02,
          1.0817848954602285e-01, -2.3079899235140144e-01,
          -1.4463565342879370e-01, -6.9725528482233318e-02,
          5.1778723486584639e-02, 1.7580215894360335e-01,
          2.8166623519606122e+00, -8.6368419305499406e-04,
          -1.2250192769503077e-01, 6.2472431468611608e-03,
          -2.0141107973858502e-01, -2.1686182255982506e-01,
          1.8331148502162758e-01, -6.9903548857626896e-02,
          6.0781622333201425e-02, 1.6808801406174481e-01,
          6.8730860273673533e-02, -1.6713665093319471e-01,
          1.4568999794635029e-01, -3.0918386223177777e-02,
          -6.9176609656409468e-02, -2.0392816392699376e-01,
          4.0803862642216941e+00, -3.0186290534315572e-02,
          -6.4914353481830847e-02, 4.2610202274636850e-03,
          -1.2148118760939973e-01, -1.4153703880426022e-01,
          5.2223766951901340e-02, 4.4074081190521947e-02,
          2.1108005511292511e-02, -1.5486757254414956e-02,
          1.0242364877944052e-01, -1.0676035066880873e-01,
          1.2251738686452338e-01, -1.8893700886667870e-02,
          1.5712263777290614e-02, -1.2516987626141485e-01,
          1.2343520751535779e+00, 8.4813988397320489e-02,
          1.4081759257678386e-01, -5.1793939408107573e-02,
          -5.0889629296377831e-02, 1.4967280802249808e-01,
          8.7784524500385264e-02, 1.2460662795632965e-01,
          1.2071090275841809e-01, 1.2484165268152411e-01,
          -5.8975625767899852e-02, 3.7495737141569237e-02,
          9.1042942988170034e-02, -1.2269611572815800e-01,
          -7.6881532243620085e-02, -2.9352506516343585e-01,
          -4.7358800069570401e+00, 2.4027882402474521e-01,
          5.5763599328884306e-02, -7.5056056650856601e-02,
          -1.3226099224657034e-01, -4.9040438354631816e-02,
          1.1928668609011164e-01, 1.7746114734762683e-01,
          8.4032836209475409e-02, 2.1989858080587091e-01,
          2.4246756364597381e-02, -5.4243028707123178e-02,
          2.0942198648228838e-01, -1.5418565813617807e-01,
          -1.4646506906097584e-01, -3.8190881149287575e-01,
          -5.8688992446642185e+00, 2.8236977693183024e-01,
          -5.1431594546250625e-02, -1.0714819064164319e-01,
          -7.3045886884329059e-02, -3.8030811580787249e-02,
          4.2467225886325302e-02, 2.5871637115733431e-01,
          -3.3221426568264011e-02, 2.5499700465274627e-01,
          -3.3650299897917931e-03, -1.0381538941617670e-01,
          7.8600994442096769e-02, -1.5054348074382259e-01,
          -9.3327714968479331e-02, -1.6191379049756280e-01,
          -6.2504772099661441e+00, 3.2221053782013509e-01,
          -1.9268291484148839e-01, -6.6764484280523295e-03,
          9.2478756163683812e-02, 1.6609626468478078e-01,
          1.7570596366732594e-01, 2.5366119508251361e-01,
          -7.0089126044321201e-02, 2.2147949880600823e-01,
          -1.6902689003467911e-01, -1.6028777906335978e-01,
          -9.6319988089273431e-02, 3.2325665224558470e-01,
          -1.3988379748783936e-02, 8.8937087102789317e-02,
          -5.8173760279166462e+00, 2.4452409846931294e-01,
          -1.8697313565629881e-01, 1.8053879010302884e-01,
          2.9348643368202526e-01, 1.5010703960557320e-01,
          7.5545539625113484e-02, 1.0072944711773495e-01,
          -3.6407253748055826e-02, 2.9496289894605432e-01,
          -2.5144838863326707e-01, -9.4329582371417572e-02,
          -6.1882489788635413e-02, 3.0820123406681221e-01,
          -6.9948725585936802e-02, 6.7225956967119652e-02,
          1.8638725312152804e+00, 4.8315041643729260e-02,
          1.1193123882716799e-01, 4.2749726676709798e-01,
          2.2292112945474593e-01, 1.7829868205328700e-01,
          -1.7879537011935759e-01, -8.3687242391535729e-02,
          1.8760445921423050e-02, 5.0383379901903905e-02,
          -1.3759212629685325e-01, -2.4406815699508529e-02,
          -5.6838533679431209e-02, 1.1851378032670182e-01,
          -9.8125362664364738e-02, 9.8497977819483856e-02,
          -1.6902877549121881e-01, 1.1967552070856258e-01,
          -2.3250336541197422e-01, 2.7082301431834971e-01,
          -2.3933867388629204e-01, -4.7940038640919558e-01,
          2.3426227709281630e-01, 1.5737274875792975e-01,
          1.4316788162153815e-01, 1.1281746867744670e-01,
          2.6774551867371726e-01, -6.8336730733916402e-03,
          2.8425560512374332e-01, -1.2545544730787236e-01,
          -1.3595500746828054e-01, -3.2807164408821965e-01,
          -1.1335685484547079e-02, 9.7587176426702213e-02,
          -3.5133132883599694e-01, -3.2498477630304286e-02,
          -2.4475134465930801e-01, -3.1291029935434767e-01,
          -3.4814288440741087e-01, -2.0807159310252024e-01,
          7.8416474629387931e-02, 3.1220897522063679e-01,
          -2.1393748027877107e-01, 1.1924083519813071e-01,
          7.6982241354017489e-02, -1.2707021605544636e-01,
          -1.6193267435488232e-01, -1.1805319173860633e-01,
          -4.4382421498440738e+00, 4.6443259372468717e-04,
          2.0139360552460439e-01, -9.9741844293462657e-03,
          2.2249943070927261e-01, 3.8007107234489174e-01,
          -3.8028120707198887e-01, -5.5736563758911783e-01,
          -1.0459748992944226e-01, -2.6024653128897912e-01,
          -3.1686130688314662e-01, 3.1684805229166668e-01,
          -2.6503476702418849e-01, -1.2237822118736354e-01,
          4.6937718184838800e-02, 4.2521790693619321e-01,
          -9.8915656971693373e+00, 1.5883148507583850e-01,
          1.9293269247886077e-01, 3.6610880793995403e-02,
          -3.2424178004649151e-01, -1.6605760877545492e-02,
          -4.0214952925404876e-02, -2.4106580500229771e-01,
          1.2008391714189055e-01, -2.6538561888716894e-01,
          2.7050008421838123e-01, -1.1477592548520349e-01,
          1.1033742857958068e-01, -8.0015491511041661e-02,
          -1.6308209934413972e-01, 5.0894157289599860e-03,
          -5.6074864670732643e+00, 3.5199578206697738e-02,
          2.5681716058291798e-01, -1.7512371168426985e-01,
          -2.2548082452055718e-01, -2.3139735155623693e-02,
          7.5594295445704840e-02, -1.4392680200412444e-01,
          3.0571527449440405e-01, -1.1600871081352475e-01,
          2.1294237370757210e-01, -2.0202708607281519e-01,
          3.0184807867045605e-03, -4.1580031829542091e-02,
          -1.9273880482276645e-01, -9.5373048483311462e-02,
          -9.9674363862339632e+00, 6.8225260222734577e-02,
          6.6149455242960106e-02, -7.4883118254982887e-03,
          -2.1204247777892934e-01, -7.0678145920318777e-02,
          5.5158174520511610e-02, 4.5281448238002599e-02,
          1.6434523697386211e-01, -2.8165713231161866e-02,
          2.2658272265720508e-01, -2.4217782007760516e-01,
          -5.3381503381562966e-02, -8.4313847703680334e-02,
          -1.2703204486674065e-02, 5.0439334370440403e-02,
          -6.8635517728839988e+00, 1.4492829908317451e-01,
          -1.7090939185271545e-01, 1.1213446326887358e-02,
          -3.0242496615706893e-01, -4.2589266549527249e-01,
          8.5382419761409353e-02, 8.7160516205733743e-02,
          2.1037792305309055e-02, 2.9363527034106890e-01,
          1.7906583583887714e-01, -2.7971724740376058e-01,
          1.2591712646797121e-01, -7.9979493470570068e-02,
          -8.1520939355270453e-02, -7.2800719521274232e-02,
          -3.3366736562258357e+00, 2.6686735311942905e-02,
          -1.3580832574144366e-01, 3.6349075363933905e-02,
          -2.5878903430743411e-01, -2.8675560036053910e-01,
          2.1626242587791253e-01, -1.0302164199141124e-01,
          8.9202356007782965e-02, 2.6494964502544838e-01,
          7.1257144883854526e-02, -2.1009936636165163e-01,
          1.8625552475467475e-01, -6.1073439187372625e-02,
          -1.3456865359474207e-01, -2.6560904453363565e-01,
          -3.3847880020779342e+00, 9.2129736755624234e-02,
          -1.6354561168916204e-01, 3.6864513591036666e-02,
          -2.4785669502495816e-01, -2.6478336296788330e-01,
          2.5560221274659489e-01, -5.0394098820026482e-02,
          5.7206877346780233e-02, 2.0093868474489254e-01,
          4.0268086048435146e-02, -1.0021650702520134e-01,
          2.1865412051170824e-01, -3.2293713441915388e-02,
          -1.0938908519984034e-01, -2.4422781188942538e-01,
          -5.8297417147712842e+00, 3.1317574283285909e-02,
          -1.1473027953767943e-01, 5.8876363992764504e-02,
          -1.6545226683682687e-01, -1.9790367474108914e-01,
          1.2327103018041551e-01, 9.4075994996889650e-02,
          3.7877183405647066e-02, 5.9147632457234083e-02,
          5.9976522840130400e-02, -1.3705036754294542e-02,
          1.8485402936720499e-01, 6.9069072597008618e-02,
          -2.4210760772319515e-02, -1.8181985658473493e-01,
          1.2576570902406470e+00, 9.1087929970759138e-02,
          3.0298505576032447e-01, -1.7265465797240151e-01,
          1.0649922443795814e-02, 2.2119236225753863e-01,
          1.0472596660053177e-01, 1.8190812162661132e-02,
          9.1087758548059380e-02, 1.9965911092133412e-01,
          -4.7046631978732685e-03, -8.3987640991048677e-04,
          7.2176252071015565e-02, -1.2525050880774585e-01,
          -6.8437029999175128e-02, -2.3015568262416533e-01,
          -3.7769015305026628e+00, 9.3859953303227592e-02,
          -2.8450971768377087e-01, 1.5552291541674050e-02,
          -2.1326441406496793e-01, -1.6512321529127891e-01,
          3.7822411216801016e-01, 1.9269030369079268e-01,
          1.1977133696108345e-01, 1.3072376006200562e-01,
          4.5600206485846473e-01, -3.6882491407395110e-03,
          2.9932851092527257e-01, -4.2545336702959215e-02,
          -2.7112176347129985e-01, -3.9109635379482899e-01,
          -5.5429368403740154e-01, -1.5272192334851607e-02,
          -3.1609795390638523e-01, 1.8219407206360208e-01,
          -2.5042502208140743e-01, -2.5626629316408200e-01,
          3.2863858438115995e-01, 2.8538659947795431e-01,
          9.2923228885400902e-02, 1.5277360067448564e-01,
          5.2982271350612709e-01, -6.4946104465891719e-02,
          3.5148907604266272e-01, -2.5334844493471420e-01,
          -2.6707818739337974e-01, -4.6740965770372561e-01,
          -7.5863544850901174e+00, 1.5553068969741946e-01,
          -3.8106846769822461e-01, 1.0426245617832972e-01,
          -8.1984901873217345e-02, -2.2771016266802666e-01,
          2.9352174559571564e-01, 3.2549670198852243e-01,
          6.6245551439060094e-02, 1.4551592946329470e-01,
          2.5656244496624325e-01, -5.0268552168267089e-02,
          1.5561246844724100e-01, -3.2756156525053898e-02,
          -2.2541576488835352e-01, -1.7451359300923350e-01,
          -4.2787728267487184e+00, 1.4755536153935314e-01,
          -2.2022619572090021e-01, 3.5731733977576080e-01,
          2.1820903905271707e-01, 2.8900871068393411e-02,
          2.6342298954469677e-02, 1.4549046445527286e-01,
          5.3428994920724634e-03, 1.5596918720738120e-01,
          3.4123645591273233e-02, -7.1439735200693036e-02,
          -3.3241536456383246e-02, 3.3007776235906516e-01,
          -1.4810095678766338e-01, 8.9114003889611437e-02,
          -2.5762953700100222e+00, 8.9061237492239043e-02,
          -1.1986468810356969e-01, 3.5491258325403208e-01,
          3.4270109200991933e-01, 1.4997667380139929e-01,
          -2.5234310808962237e-02, -7.6422465707009904e-02,
          -2.4192735766706198e-02, 2.3870117655683634e-01,
          9.5985996956936812e-02, 6.9216017638138824e-02,
          -3.4916982534348780e-02, 2.7859506774148252e-01,
          -1.6850529539290579e-01, 7.0038167123268574e-02,
          -1.5073536641107119e+00, 2.2533003015621003e-01,
          -8.0220870823537779e-02, 3.2361380895198383e-01,
          1.6155553017705729e-02, -1.7062619017631162e-01,
          -9.0918756591597524e-02, 1.7866204079572326e-01,
          3.8448914185107312e-02, 2.2788245526679379e-01,
          -4.7088894519537697e-02, -2.2698940559949924e-02,
          7.4507941537134770e-03, 3.9408873113056414e-01,
          3.1240602888146701e-02, 5.2626982260784896e-02,
          1.4618586697527067e+00, 7.6351819560881065e-02,
          -1.8486431203463083e-01, 3.7157097647291262e-02,
          -2.0873491502047581e-01, -3.7134217319685886e-01,
          -2.5644451576748761e-01, -4.9745104615987072e-02,
          1.2608641684618724e-01, 2.4909880548364452e-01,
          -3.8696861761535867e-01, 2.0199730122326075e-02,
          3.8363309148394802e-02, -1.1111163074002443e-01,
          -1.2209899773473658e-01, -8.8153752865505905e-02,
          -2.3031730319318711e+00, -2.3819990633962822e-02,
          1.0890201745373426e-01, 1.5834591444576357e-01,
          -2.1079021728142672e-01, 1.2781870578017160e-01,
          -3.4704712901627144e-01, -4.9327523759453845e-01,
          -7.7196904136488900e-02, -3.1077903821703629e-01,
          -5.6096658763524210e-01, 3.4685370785017733e-01,
          -3.0877652172054532e-01, -1.3244085279645942e-01,
          1.2625732790983357e-01, 4.4154154951571545e-01,
          -4.9834039175506977e+00, 2.3831225560205349e-01,
          9.6605192751264377e-02, 1.1039718187295196e-01,
          -3.4797389691602970e-01, 1.8255714892704538e-03,
          -9.5526397278191649e-02, -1.9702726840585311e-01,
          -4.7462506770301949e-02, -2.9292252091402365e-01,
          -3.1684721568077656e-01, -1.2061646261673845e-01,
          -7.4468952932589080e-02, -8.5368804868285755e-02,
          1.5262738183505031e-01, 2.7870150507649422e-01,
          -1.1722114887222194e+01, -4.5134497548070598e-02,
          9.2723032880583464e-02, 4.8231084320207555e-02,
          -2.3529606479039256e-01, -8.4969628872163902e-02,
          -6.9629944818139763e-02, 1.6670030093066356e-02,
          1.9899406743812695e-01, -7.1460623666943557e-02,
          -2.1741583499681566e-01, -3.9803011193995647e-01,
          -2.8514011682966699e-02, 5.9226229086375114e-03,
          -3.8478241003793580e-02, -8.0840043413309779e-03,
          -7.8366702501568648e+00, 7.4547257733453637e-02,
          2.7216161145334206e-03, 3.1693238520838087e-02,
          -2.5737223005991378e-01, -1.4173306225809809e-01,
          6.2340933056050409e-02, 1.1295435101755437e-01,
          1.3875220964874993e-02, 7.3690502501881933e-03,
          -6.7804831124459513e-03, -2.8995812345987204e-01,
          1.0676134456033347e-01, -3.8197537277239450e-02,
          4.4080729879907396e-02, -2.9014444723947493e-02,
          -7.3588018268973698e+00, -7.4602589959569185e-02,
          6.6632729337951979e-03, 1.8149541054867427e-01,
          -2.8247307987763492e-01, -3.3277098679608574e-01,
          4.7307125148812440e-02, 1.3417392089646421e-01,
          7.0716810653228948e-02, 1.1380209221528577e-01,
          -1.7250078762065038e-02, -2.1098269684830731e-01,
          3.1013081283807686e-01, -6.3901389526345317e-02,
          -7.3890722301817799e-02, -3.3075582693681582e-01,
          -4.5515126493743354e+00, -1.7942467304982893e-01,
          -2.0155822581574673e-01, 3.3548474489691127e-01,
          -3.2507587882964079e-01, -3.9767448944521094e-01,
          1.9268739021744621e-01, -3.5520690375148968e-02,
          9.5100879093056062e-02, 2.5324268654531717e-01,
          3.6395994699307060e-01, -1.8035805738528982e-01,
          3.0355882362514930e-01, -1.9989787462743511e-01,
          -1.4675758084867957e-01, -3.5853419958550248e-01,
          -1.1235103147942542e+01, 5.0171305290716464e-02,
          -5.0611152262452064e-01, 1.9613415449282948e-01,
          -3.0906316712568221e-01, -3.5420794026507807e-01,
          4.9702299599182198e-01, 5.0019632928294984e-02,
          7.1191925305021261e-02, 1.8330083204767886e-01,
          2.3542770474322075e-01, -7.4317736727409170e-02,
          2.9895141504580153e-01, 8.3809072209807933e-02,
          -2.2717733024320502e-01, -3.1828425465714882e-01,
          -9.2144631436454816e+00, 3.3957718052600748e-02,
          -1.0928523304568567e-01, 7.4851611034847762e-02,
          -1.5763414281842839e-01, -2.0493775282100732e-01,
          1.1571869506950380e-01, 9.1777719307559416e-02,
          3.4069829359976413e-02, 8.5875679171241198e-02,
          6.0574595676789925e-02, -3.9146002051528503e-03,
          1.8137085305179734e-01, 8.7434341761172180e-02,
          -1.9373378790107653e-02, -1.8044362876409212e-01,
          2.9511348451555097e+00, -2.2779756844463359e-01,
          -4.9301401812885098e-01, 2.4530288512880896e-01,
          -2.7073617104496439e-01, -3.8242163284757785e-01,
          4.2186806924159764e-01, 1.7358562142530817e-01,
          2.2283400585537412e-02, 1.4423644624955986e-01,
          5.2369110703326216e-01, 1.8015503885447089e-02,
          3.3984652358877360e-01, -9.3266660303046103e-02,
          -2.1360370045524238e-01, -3.2176066110287832e-01,
          4.5093117875161868e+00, -1.5279347931533224e-01,
          -3.8731118205828374e-01, 1.2129560972001505e-02,
          -2.3769507991582922e-01, -3.3369341110226103e-01,
          3.8138885119902932e-01, 2.3218931790592084e-01,
          1.2994933639870740e-01, 1.8155890136243955e-01,
          1.1356104767882103e-01, 1.8988416229319066e-04,
          3.6989724425757642e-01, -1.7647724052171479e-01,
          -1.9121355957907077e-01, -4.4682722648802919e-01,
          7.7804758113798647e+00, -1.6672175071901024e-01,
          -4.4047078305825738e-01, 2.1657152288539074e-02,
          -1.8394235201883866e-01, -3.7250420784018423e-01,
          2.7641280969270338e-01, 2.9033788249810100e-01,
          1.7732248187613489e-01, 8.7799815557649957e-02,
          1.1247283031272835e-01, 6.0008750474458469e-03,
          3.5414905285079040e-01, -1.8002907692475362e-01,
          -2.0655977275360873e-01, -4.1217615207648800e-01,
          7.1026546311072316e+00, -2.0949494684328870e-01,
          -3.3813458989162637e-01, 1.0418895192671758e-01,
          -2.4453305168182296e-01, -4.9719762761447539e-01,
          1.9313322241356073e-01, 2.2828243247487298e-01,
          1.7594419013289703e-01, 1.5191626475633396e-01,
          1.5407779161946755e-01, -8.8148094618413414e-02,
          4.4113978774339685e-01, -1.1451544841741831e-01,
          -2.3237814764002121e-01, -4.8034098737361780e-01,
          1.9305843121915127e+00, -1.8770003284300835e-01,
          -2.7517862731820986e-01, 1.6831356645289419e-01,
          -1.1302421333292779e-01, -3.4726200683898756e-01,
          9.3366863896743368e-02, 1.2347187468279854e-01,
          1.1482555941346871e-01, 3.2106694412887549e-01,
          1.0142160814304169e-01, 6.8075455303371626e-02,
          3.2935117976681838e-01, -5.3851026272494884e-02,
          -2.5310094087693041e-01, -3.0704724211791501e-01,
          3.9341853687897608e+00, -6.1667946813662673e-02,
          -4.7808384423293944e-02, 2.1299514489118002e-01,
          2.1494268631785532e-01, 5.4429132713594411e-02,
          -2.5296938030648100e-02, -1.0464761106719232e-02,
          1.7915700910196085e-02, 3.4674104399156003e-01,
          2.1973816796914972e-02, 2.2183693330129886e-01,
          3.1742336184495429e-02, 2.5745906440732885e-01,
          -1.1750667314617400e-01, 2.1819355126101392e-02,
          2.9715816201726484e+00, 6.8837992674953247e-02,
          -3.6091218625855925e-01, 3.2920352294533917e-01,
          -2.3974281010455914e-01, -2.8174117185745501e-01,
          -3.5090857600492471e-02, 2.3360286159414415e-01,
          -2.2809953267603367e-02, 2.9777444108356410e-01,
          -6.4074220845357424e-02, 1.4425925919208181e-02,
          1.2378179262979593e-01, 2.9677264947053827e-01,
          5.9199382464576268e-02, -5.5293993827623358e-02,
          2.2223423018385406e+00, 1.7150184306904936e-01,
          4.1946222037690620e-02, 2.7529587045120263e-01,
          -2.6371413140933048e-01, -2.2755615987014910e-01,
          1.5394696007648690e-02, 1.8770409834667537e-01,
          -3.7886735751184362e-02, 2.5145384589499657e-02,
          -2.5405261546210806e-01, 7.1224017251423868e-02,
          -5.2868093424039475e-02, 2.9696178463591648e-02,
          2.0501016815061771e-01, -1.2734495441491400e-01,
          -1.5080962390969577e-01, -1.7869644405535143e-01,
          5.7561106588217149e-02, 1.8115791973056533e-01,
          -4.1051672603658362e-01, -1.4022118611329965e-01,
          -1.6098463713183950e-01, -2.3044821961449719e-01,
          1.4992249075039263e-01, -1.5816384367850805e-01,
          -4.0729128208042631e-01, 1.4964747290488103e-01,
          -7.8273639234970660e-02, -1.5645945879618495e-01,
          5.9572227224993342e-02, 1.0099902791059147e-01,
          3.4240435182108855e+00, -5.5105609638531651e-02,
          -2.0837629784445619e-02, 2.1832440219505284e-01,
          -3.2677423957211510e-01, -2.7259413821675693e-01,
          -3.6690453678972279e-02, -8.5586745375623566e-02,
          5.2858334952486929e-02, -9.1015237860580314e-02,
          -3.4910459061541999e-01, 1.1233748643399495e-02,
          -3.4280469217534193e-02, -1.7902127764610123e-01,
          4.0450235468004181e-01, 2.0938097326308322e-01,
          2.7891628976124374e+00, -2.4438637757734968e-01,
          -1.2063444999511809e-01, 2.6256885464524682e-01,
          -4.2522446164381067e-01, -4.7922762303494237e-01,
          -1.2623098638994935e-03, 3.9266156379684260e-02,
          1.3488884102810131e-01, 1.3463123197259275e-01,
          -1.8573586534463243e-01, -3.2071381215006339e-01,
          1.9028129309819597e-01, -6.7983039423424818e-02,
          1.4466393815949918e-01, -2.0446122808958889e-01,
          5.5032457424517078e+00, -3.9882000334995937e-01,
          -2.3092241183465249e-02, 2.8325210250659655e-01,
          -3.4073774697301845e-01, -3.2611722746042943e-01,
          -8.1385242377777750e-02, 7.6402383563010975e-02,
          8.1299405044947648e-02, 4.9791362827680992e-02,
          -1.0941080529005776e-01, -3.0784341186468239e-01,
          3.1800119431615154e-01, -1.2915130270637917e-01,
          3.1629171723873244e-02, -2.8509444310480953e-01,
          5.4148062671819011e+00, -4.0106296438987515e-01,
          1.0324815149532022e-02, 2.7216956081610510e-01,
          -2.1677524490932817e-01, -2.6601580470975367e-01,
          -4.6129644066273028e-03, 8.7386875148739274e-02,
          4.3954260788648281e-02, -8.3164596652604062e-04,
          -1.3204062821994020e-01, -2.1884239211374679e-01,
          3.1989882063356173e-01, -1.9490690804989239e-01,
          6.9587496161957932e-02, -3.0357086668855277e-01,
          2.2457097616256902e+00, -3.4864613041479442e-01,
          -3.4940796856984913e-01, 2.2550331742083465e-01,
          -1.8461617289016605e-01, -1.2328498255494244e-01,
          2.6959944342853709e-01, -5.2476553860007769e-02,
          4.6041098538384236e-02, -8.1877080815121739e-02,
          -2.4197967175481169e-02, -2.6850648701250857e-01,
          2.8296416263778323e-01, -7.1691559958111356e-02,
          -4.6137715140325899e-02, -2.8740661865745476e-01,
          3.2196276903093461e+00, -2.3526615076492866e-01,
          -5.3426517402424800e-01, 3.2030127842970929e-01,
          -3.2742886851591385e-01, -4.2758706097501842e-01,
          4.7059546178005518e-01, 8.7504911258330542e-02,
          9.7331291340247900e-02, 1.0793342560067898e-01,
          1.6941066635983015e-01, -9.6629448311303073e-02,
          3.5066937666916115e-01, -1.4279258780961848e-01,
          -1.2589616296597081e-01, -3.5963461850431971e-01,
          -6.9553865132820372e+00, -1.0354498962351296e-02,
          -5.5863660646379576e-01, 1.0561518570890004e-01,
          -2.1536663522854857e-01, -2.8845082641894604e-01,
          4.3647444040425187e-01, 1.6378640047776752e-01,
          6.1014939665962074e-02, 4.2158072041646857e-02,
          2.5801178850016332e-01, -9.9569144475020206e-03,
          2.5110293095004566e-01, 1.1503631723206986e-01,
          -2.0172686438543741e-01, -2.4170707236935252e-01,
          6.9285703683794146e+00, -2.3311382708806613e-01,
          -5.1005934283798482e-01, 1.0505703504327474e-01,
          -3.0284624062977789e-01, -4.2186849210908672e-01,
          4.2314272294458166e-01, 1.8408037556241047e-01,
          1.9565534307943858e-01, 2.5465854534204602e-01,
          2.8710917774695965e-01, -5.8125570355227849e-02,
          3.6815511999156919e-01, -1.4649168031324208e-01,
          -1.5121085855785227e-01, -3.5481933328458692e-01,
          5.0426308810574811e+00, -2.4189081067480231e-01,
          -4.5493325738492618e-01, 1.4713251823432355e-01,
          -2.6640185145662526e-01, -4.4325343307789233e-01,
          3.2325477375140343e-01, 2.6097694086132101e-01,
          3.1349695663460203e-01, 2.1945233278754242e-01,
          8.8058349494355759e-02, -2.5020535607976849e-03,
          4.0003555220664189e-01, -1.6777351998843992e-01,
          -1.1534080112773273e-01, -4.2276901494528407e-01,
          6.2000240499808150e+00, -2.3110561318222106e-01,
          -3.8178443694605518e-01, 1.2277605176653567e-01,
          -2.1139503536284313e-01, -4.1481173108946567e-01,
          1.5274812682036074e-01, 1.8864101260985025e-01,
          3.4497830798039858e-01, 2.1534946826207402e-01,
          8.8619960486506805e-02, -1.1827038130367205e-01,
          4.2324003133914539e-01, -1.4917940203150473e-01,
          -1.8182739263940453e-01, -4.7570426828649065e-01,
          3.1712713272813278e+00, -2.5653240811796307e-01,
          -3.1428423055103916e-01, 1.6032438178190636e-01,
          -2.7443121188670572e-01, -5.5685765668324649e-01,
          1.2868508662711400e-01, 2.2700303433093749e-01,
          3.7822045457276987e-01, 3.0844442159258006e-01,
          1.4275993065014236e-01, -9.4149182817918883e-02,
          5.2065631190680683e-01, -6.5461470349421055e-02,
          -2.5335231563725713e-01, -5.4396126534599676e-01,
          5.5704578844538375e+00, -1.8975129446574804e-01,
          -3.4032782368876402e-01, 4.1215653917298652e-02,
          -2.5376501964790921e-01, -5.5628386578648781e-01,
          1.2573939021376970e-01, 1.9218309451965429e-01,
          4.3251849837797013e-01, 4.6861313702972074e-01,
          8.1900371059193539e-02, -2.3183353725038672e-02,
          4.9897746057411957e-01, -3.1588879915828323e-02,
          -3.0333073784442544e-01, -4.6890706904763180e-01,
          1.2106995058259236e+00, -1.5322817862148722e-01,
          -2.5360819243047789e-01, 7.3445212496740478e-02,
          -1.0698663450660939e-01, -3.4420432197074613e-01,
          -1.3888360033989274e-02, 4.6385019093516319e-02,
          1.9911712511839094e-01, 5.0222075985855286e-01,
          -7.3537448642811351e-02, 1.4306885112433465e-01,
          2.9060643735056646e-01, -6.6615767608318333e-02,
          -2.0129468524985999e-01, -2.1412445879722802e-01,
          -2.1010263859435150e+00, 1.6875488956944470e-01,
          -2.0548294456469421e-01, 1.8915290640683088e-01,
          -1.8143990206262134e-01, -1.3399112300083735e-01,
          6.6653313643283238e-02, 1.5933205876724027e-01,
          4.2556336398634771e-02, 2.6057006422530965e-01,
          -1.1358168950315393e-01, 1.6383156179536698e-01,
          -6.6720043696334039e-02, 1.3725017023447433e-01,
          2.8062934262886585e-01, 5.1126693160676050e-02,
          5.6903998277274592e+00, 3.1902843333226893e-01,
          -6.3185036332529518e-02, 9.5582205274262297e-02,
          -3.1419253723489976e-01, -2.8682947693164212e-01,
          1.7034138868630894e-02, 2.2308126311477897e-01,
          1.5700246386996453e-01, 2.1737273804569471e-01,
          1.1816611830103613e-03, -1.9348055651463628e-01,
          5.0634150023204483e-02, 1.2559516214718289e-01,
          2.2436437051070790e-01, -1.8813447366673669e-01,
          4.6840056726886301e+00, -1.9623464444620264e-02,
          1.0545976538218746e-01, -9.3163303050692314e-02,
          -4.2131587262116044e-01, -1.7016501444561338e-01,
          5.2190676685393622e-02, 1.8897602520935938e-01,
          3.7851172377251752e-01, -1.1978334774001153e-02,
          -1.3718509325186237e-01, -2.0427332325920336e-01,
          -6.5395646217613110e-02, 1.3483264819555018e-02,
          5.2722637402970465e-02, 2.7063946341506599e-02,
          5.1604865041424706e+00, -2.5907038889711814e-01,
          4.0675585379461879e-02, 1.2553291885308246e-01,
          -2.9596614767882706e-01, -3.0892414438600357e-01,
          -3.3737203333537073e-02, 6.1032462126653489e-02,
          3.5614863035302480e-01, 5.0070317817251797e-02,
          -1.4184143686618902e-01, 2.9716130806794690e-02,
          -1.7181405224660128e-02, -6.3724732990544194e-02,
          3.3605626852008497e-01, 6.9183887236181213e-02,
          1.1113419363148973e+01, -3.0999128522683383e-01,
          -1.9784174234722510e-01, 9.4864308643772280e-02,
          -4.1524507433060159e-01, -6.5121797967084405e-01,
          -1.9008570817570840e-02, 1.0490810701319642e-01,
          2.5413612483278392e-01, 3.3720777815387565e-01,
          -4.1702811169122694e-02, -1.8701477312602935e-01,
          3.1044057187771323e-01, -8.3542560393500387e-02,
          2.0407498530576124e-01, -3.2022640944577391e-01,
          9.0414642443155344e+00, -3.6969698178222110e-01,
          -1.1739150677140721e-01, 4.6235820822267959e-02,
          -2.3426020953743046e-01, -3.2807305064432712e-01,
          -6.0603113163554358e-02, 1.1125681474137450e-01,
          1.6001359909511936e-01, 1.4839504664248016e-01,
          -6.2760385138969282e-02, -3.1202558428545241e-01,
          2.6196480850459886e-01, -6.7825258958582352e-02,
          6.4011318583675439e-02, -2.1216972942728049e-01,
          8.8166394656258547e+00, -4.3506127795259908e-01,
          -3.3738287385368509e-01, 3.5980877635932808e-02,
          -2.3720781630485269e-01, -3.3575572160492012e-01,
          1.2437468324495633e-01, 1.2145263028602428e-02,
          1.9389504763291887e-01, 1.2997974140137000e-01,
          -1.2501420989810061e-01, -3.2752222457313246e-01,
          3.4819720842281210e-01, -5.3531463295763734e-02,
          5.2685156345762063e-03, -3.3279241384371544e-01,
          8.1866148985042724e+00, -3.9649927947799335e-01,
          -2.5400250826748472e-01, -9.7461981073747248e-02,
          -1.5777386238403748e-01, -1.0993159792819197e-01,
          2.1645936586826472e-01, -5.1325142187344526e-02,
          2.2420722599140849e-01, 9.7463361371024265e-02,
          -1.8519276056798967e-01, -2.2441434684421688e-01,
          2.7424627931587142e-01, -8.6693660157790634e-02,
          3.2009130121768321e-02, -3.2976188338647366e-01,
          1.0259357268383798e+01, -3.6866322653030581e-01,
          -5.3135772201922160e-01, -1.8029861409257256e-01,
          -3.1059600821478250e-01, -4.6934007697735042e-01,
          2.7174596775796694e-01, -7.3722145074657233e-03,
          2.4690475058969868e-01, 2.9411929588371116e-01,
          -3.1125931558997616e-01, -1.0513059149544084e-01,
          3.4098953591454750e-01, -1.1244259934437306e-01,
          5.6417418856477074e-02, -3.5628983292095578e-01,
          8.7122036466853832e+00, -2.5384983843150577e-01,
          -4.9195019870817935e-01, -1.4395050623110489e-01,
          -2.7831221720460853e-01, -3.7809627183168110e-01,
          3.9847967103036619e-01, 1.6089803315305909e-01,
          2.3015489807204670e-01, 1.6656530789474713e-01,
          1.5291720552272170e-01, -1.1564437676914420e-01,
          3.3815268104171176e-01, -1.6409028904406939e-01,
          -9.3599358383105472e-02, -3.3002694590989795e-01,
          7.6779962984294481e-01, -2.3770094226479047e-01,
          -5.0605577583998962e-01, 2.2093899301936529e-01,
          -2.8725213371238778e-01, -3.9257950376942430e-01,
          4.2494534086954877e-01, 1.5045525643168348e-01,
          2.1277960313370359e-01, 2.5824174289395840e-01,
          2.3382171654997116e-01, -7.8341382715685290e-02,
          3.4210605226255730e-01, -1.0749021193911774e-01,
          -1.2841201934405530e-01, -3.3098757131468332e-01,
          4.5776240107330137e+00, -2.5288137267280952e-01,
          -4.3213532500738189e-01, 1.5013519045780963e-01,
          -2.5888305898022096e-01, -4.4371497468280285e-01,
          2.3926890687156260e-01, 1.0196760996487388e-01,
          3.1957324707385698e-01, 2.5198354491173613e-01,
          1.5319297105806670e-01, -1.6372676864620422e-01,
          4.1592372662741889e-01, -1.3177713548744985e-01,
          -1.2021822406367089e-01, -4.2050130619660336e-01,
          7.3842410638949509e+00, -2.2909423375933360e-01,
          -7.5934943804935442e-02, 5.4329438666331274e-04,
          -1.6548341606294079e-01, -3.7380974664534616e-01,
          -6.6092409629326165e-02, 2.7695813229977974e-02,
          3.7340785444460534e-01, 3.1826857839617229e-01,
          1.2996858427794705e-01, -1.6545258256465861e-01,
          4.0200738267119068e-01, -1.6652871195694835e-01,
          -1.2159845309560358e-01, -4.3982728529113846e-01,
          6.6041181909089284e+00, -2.1568782562570285e-01,
          -7.6198080197943205e-02, 5.1770182156360908e-02,
          -2.3707776269375125e-01, -5.5314174681053219e-01,
          -7.3980023001893477e-02, 1.0626042039385884e-01,
          4.2381230267962683e-01, 3.7815564919505679e-01,
          1.9821088059436287e-01, -1.1697629208425095e-01,
          4.7769834781202225e-01, -1.0936040199145877e-01,
          -2.1729838169732418e-01, -4.2661202060212461e-01,
          3.5765036165469946e+00, -1.4592414218225325e-01,
          -1.1316301376170834e-01, 9.3648047668508261e-02,
          -1.7490238973224112e-01, -4.3575157375508788e-01,
          7.4436412488708250e-03, 1.2355764033365392e-01,
          3.7170879886428226e-01, 4.3405722721614320e-01,
          1.0827036593349615e-01, 1.1615164158808550e-02,
          2.9592779165696625e-01, -9.4448329579341017e-02,
          -1.9458232347241064e-01, -1.7355432369253782e-01,
          -3.4584812087109036e+00, 1.4217812910805278e-02,
          -9.5323294109546305e-02, 2.3605435746482592e-02,
          8.1329468100300784e-02, -3.1473845680574414e-01,
          4.8423283969154818e-01, 1.7361674393486623e-01,
          1.7784780824290783e-01, 2.7661831389951236e-01,
          5.7099513784872657e-02, 1.5798811857805620e-01,
          1.2811212703310584e-01, -2.1764807076049966e-01,
          1.8098330269844396e-02, -1.6691556270551580e-01,
          -6.1489341355816585e+00, 2.0320309466899053e-01,
          -9.8037692553055472e-02, 7.1321742178476116e-02,
          3.3825421941861097e-02, -2.6955423789755262e-01,
          3.9933780764787080e-01, 1.2246656393823122e-01,
          1.2177648016174705e-01, 3.3757617431795467e-01,
          -1.0354860868766308e-01, -2.4683487483085579e-03,
          1.9333083011854685e-02, 5.6310865457872263e-02,
          1.8326679368543114e-01, -1.4116324759232254e-01,
          4.3772047109181361e-01, 2.2468355092521203e-01,
          -2.4899292112273119e-01, 8.3411702946028010e-02,
          -3.9586451251422539e-01, -1.4555386042628463e-01,
          -4.7159171351983248e-02, 1.8613737343247580e-01,
          1.0778273123412961e-01, 2.0811411353200263e-01,
          3.8821979558352267e-02, -1.9614631056842938e-01,
          -4.4735863646798268e-02, 2.6975571350337374e-01,
          4.5210592914286911e-02, -1.9510037639008996e-02,
          4.8913333020071530e+00, -8.1922603700951446e-02,
          1.8593727606692850e-01, 1.4616229192389596e-01,
          -2.8705638155541185e-01, 4.9589276853451117e-02,
          6.9811535085316123e-02, 1.8791062587683599e-01,
          2.9062403994598046e-01, -4.7286356057658879e-02,
          6.7646917872034529e-02, -1.5204418860829028e-01,
          -2.5323774983459840e-01, 2.6341948980015706e-01,
          1.2004313261434270e-01, 1.2576582277722023e-01,
          1.6481588243694083e+00, -2.9706489662316143e-01,
          -3.0256088658101348e-02, 2.8823798221559965e-01,
          -9.1679124252019253e-02, -3.0323519240002805e-01,
          6.6185609854945107e-02, 1.4035122609098757e-01,
          2.6591798281117135e-01, 1.2646101711141350e-01,
          -9.5506466642259605e-02, 9.2723234150734968e-02,
          8.6769268906068342e-02, -5.7705606062315784e-02,
          3.1458420810941085e-01, -8.5035102570531471e-02,
          6.7185893431412991e+00, -3.9248419677182206e-01,
          4.3734406606481965e-02, 1.8113556772344563e-01,
          -3.0618189015222741e-01, -4.2463759385875449e-01,
          6.4105025693452031e-03, 1.1841088372341109e-01,
          3.9272616741321797e-01, 1.4958514666732989e-01,
          -2.3605472029995973e-02, -3.2047789995670384e-01,
          3.7089726683986934e-01, 4.3921057244262649e-03,
          1.3664348351072092e-01, -4.9218381914443599e-01,
          1.7219827013370761e+00, -3.0434368009236318e-01,
          -4.0666922231646074e-01, 1.9029203986947860e-01,
          -2.1128680750723042e-01, -4.0564929956936691e-01,
          1.8034350186327694e-01, 1.9404673559721453e-01,
          1.5925811916745880e-01, 1.2462250372065826e-01,
          -2.0363634486745330e-02, -3.0557754677912369e-01,
          3.2974629664282290e-01, 3.4647147274786766e-02,
          -7.7475059627081832e-03, -3.1759317732992137e-01,
          -1.1331195123483673e+00, -3.8060396599899943e-01,
          -3.7110545158298125e-01, 2.5008053175272943e-01,
          -2.1250233679307107e-01, -3.0865645436940897e-01,
          1.6278534452157528e-01, 8.1622277921497718e-02,
          1.6676417593947562e-01, 1.8494918726087917e-01,
          -1.5329937563478385e-01, -3.1575201071366898e-01,
          2.9215095633787375e-01, 5.3598583381565590e-02,
          -5.3617977760421959e-02, -2.9372566222759339e-01,
          -2.3470324594028473e+00, -3.3221044202888272e-01,
          -3.1490444763389136e-01, 9.2972238489396800e-02,
          -1.5920450032974265e-01, -1.5536920733435841e-01,
          2.1924108477277998e-01, 8.6012902281684244e-03,
          1.7704644217567600e-01, 2.6503736282788559e-01,
          -1.6997805185437520e-01, -1.6795890646989367e-01,
          1.9717851563899716e-01, -2.2341238447964535e-03,
          1.1648002112616089e-02, -2.4284436723014038e-01,
          9.4628932902687399e+00, -3.3853148492935742e-01,
          -3.7374420188606600e-01, -2.8119236587643176e-01,
          -2.5461223895401963e-01, -3.3919705444969817e-01,
          2.1810910886076143e-01, -3.6461126130894826e-02,
          2.4770572430109089e-01, 3.3050682877000126e-01,
          -2.9746134607712094e-01, -9.1414141857216469e-02,
          3.1645093556799303e-01, -1.0935309507981236e-01,
          4.5133908989957845e-02, -3.8127447293408323e-01,
          1.3718625524299942e+01, -2.7844779527326075e-01,
          -1.5761824476184561e-01, -6.7369587782611137e-02,
          -2.3854015339176285e-01, -3.2086472210504541e-01,
          1.4911542538249542e-01, 1.4452792431424547e-01,
          9.9331940848958827e-02, 7.8501788518631113e-02,
          1.1427331898634470e-01, -6.9733215110771810e-02,
          2.9028747355219681e-01, -2.3115805660212779e-01,
          2.9937805606679208e-02, -2.9110135177388702e-01,
          -3.7756586502273475e+00, 4.4309610726225898e-02,
          -6.0014866837077341e-01, 3.4888453775790661e-02,
          -1.5953383126289566e-01, -2.2499163925831267e-01,
          3.7054778570842578e-01, -1.1369208898708714e-01,
          6.1288808876442495e-02, 4.4197863499316918e-02,
          7.7544223199721582e-02, -2.6668753215460766e-01,
          2.1056931889509187e-01, 1.2392005006817433e-01,
          -2.3053732615557357e-01, -2.0706568290831112e-01,
          8.7900991529142232e+00, -5.7380887348985089e-02,
          -1.5166323021130343e-01, 1.6655362932624687e-01,
          -2.5308040793042208e-01, -4.1084771261205649e-01,
          -1.0604685200477923e-01, -1.6389775887835103e-02,
          1.5464960137447906e-01, 9.8893447157531164e-02,
          2.4270269123181223e-01, -2.1970323117763002e-01,
          3.3539725145719562e-01, -4.0842394645150562e-02,
          -1.5075944380105089e-01, -3.5490682304987864e-01,
          8.0857450078637907e+00, -2.1426721086564843e-01,
          -1.9610044404633634e-01, 2.5998421727160675e-01,
          -3.0768705501403426e-01, -5.3240460682654178e-01,
          -8.3550567440848864e-02, 2.4097162785855195e-02,
          2.4858830858450701e-01, 2.6743146158514708e-01,
          3.4948866539082690e-01, -2.0548541879100518e-01,
          4.0425138530623578e-01, -2.1673824052244764e-01,
          -3.4826242125132478e-01, -3.8935521454027633e-01,
          -1.6101342369782612e-01, -2.9235617507604249e-02,
          -6.8259609996880161e-02, 1.8441302281005817e-01,
          -1.6795504147621276e-01, -4.7216385155250334e-01,
          -1.0279281622288325e-01, -3.5811992161210698e-02,
          3.3051570405265490e-01, 2.7434937012936916e-01,
          1.1342627072376446e-01, -1.1842006481132768e-01,
          3.1961595167267359e-01, 5.9056131582371635e-03,
          -3.0171956040568410e-01, -2.2538400019243099e-01,
          -1.8758803067170937e+00, -6.8573918235520601e-02,
          1.6505754700242176e-01, 1.6991815817040212e-01,
          1.2066981836511478e-01, -9.4668754256468146e-02,
          -2.2014747881025692e-01, -2.0616896133818238e-01,
          2.1535189116551692e-01, 2.1960567468394929e-01,
          -8.7887692470721812e-02, 5.2691182596818070e-02,
          -7.4326103609088298e-02, -4.3454592155950357e-02,
          -1.6351112688707328e-01, 4.2588415650937288e-02,
          -3.8539692070826317e+00, 1.3715032204778826e-01,
          2.8973445758028032e-01, 7.6570393324837102e-02,
          1.9737054872805249e-01, -3.8798573476713678e-02,
          -1.0428582194221758e-01, -1.5912691369848397e-01,
          1.8598946001388864e-01, 2.2374800924175633e-01,
          -1.4761073967942859e-01, 1.5003206609549452e-01,
          -8.4888403272670415e-02, -1.5776408915210047e-01,
          9.0410043932258183e-02, -1.4344948739902449e-01,
          -7.1510608902259438e+00, 2.7191871102772469e-01,
          3.6944647725886209e-02, 1.6133871274015626e-01,
          1.7929126370286425e-01, -1.5772769386911442e-01,
          3.3529266023359716e-01, -2.0005610817322142e-01,
          4.2358538417243546e-02, 1.6484954516781200e-01,
          -8.3644631853779738e-02, 1.4435996966969575e-01,
          2.3192967620868166e-03, -7.2275311028700204e-02,
          1.4684732813498597e-01, -2.4677089247416659e-01,
          -8.2530411011616014e+00, 2.5842142795720152e-01,
          -2.0577752041979488e-01, 2.1833551363729820e-01,
          -3.5606085240783875e-01, -7.9787975901679228e-02,
          2.9970034132867734e-01, 1.6402004347618315e-01,
          -1.5155145947358088e-02, -1.1801026122691680e-01,
          2.3850255193126774e-01, 2.1257915759582451e-02,
          -1.4157494130907305e-01, 3.3103861525780814e-01,
          1.1583615482011396e-01, 5.6647552624787857e-02,
          -2.9175036123608833e+00, -1.5592141669428730e-01,
          7.3717568966808422e-02, 3.3231079677238889e-01,
          -8.8450060066454575e-02, 3.6952872370662110e-01,
          2.9463254160438085e-01, 1.1181506834019016e-01,
          1.5524333078936449e-02, -3.1961409711974625e-01,
          -9.6845261394087237e-02, -1.2521172196192026e-01,
          -3.2603645108289125e-01, 4.5304476984307923e-01,
          1.2236816300044234e-01, 2.4832928786783309e-01,
          9.1786459657505459e-01, -2.1878880104490742e-02,
          -1.2885457006122236e-02, 3.9609710336701454e-01,
          2.5532802176361319e-01, 2.2914483412210421e-01,
          3.2604630490481612e-01, 1.0636571916955736e-02,
          -9.2135351861465334e-02, -1.9397437066449807e-01,
          -1.8887624175575388e-01, 7.3799596340282728e-02,
          -4.7182047514638219e-02, 3.8841037733218403e-01,
          5.3919943338272247e-01, 1.5364552746172866e-01,
          -3.2639185820067962e-01, -1.6822442091428488e-01,
          -1.0823914150081108e-01, 3.9465205184284130e-01,
          -1.5161492201115961e-01, -2.9143497447803052e-01,
          2.4198880778362936e-01, 1.4165780598012673e-02,
          1.6514911218377060e-01, -3.4739572831372911e-02,
          -4.7727650580381260e-02, -3.0831781010654052e-01,
          2.8889760737925291e-01, 9.3571294053653040e-02,
          1.6369877324595078e-01, -4.4952651600668103e-01,
          6.3684788001623660e-01, -1.8827377799767803e-01,
          -1.4080673408784306e-01, 4.4217213035069158e-01,
          -4.0850399162014529e-02, -1.8631081729821003e-01,
          1.2959230346423348e-01, 1.8692492770625409e-02,
          1.0684535063073573e-01, -1.0947252711920851e-02,
          7.2068727179827805e-02, -1.9992525014977180e-01,
          2.4249641185689794e-01, 8.0080583299765737e-02,
          2.9125076307902798e-03, -4.3456761749642164e-01,
          3.3531322530815655e-01, -1.9633091279739995e-01,
          -3.5901988965186932e-01, 3.6275219850432555e-01,
          -7.4385867108872211e-02, -2.8445256083034665e-01,
          1.1306143104797269e-01, -4.8826806214167642e-02,
          3.7220250139275652e-03, 1.3208662586773218e-01,
          -3.9000791159719661e-02, -7.5701409967289190e-02,
          1.4005685012716160e-01, 7.4387772005430286e-02,
          -2.0395256142177010e-02, -2.6326784813018878e-01,
          2.7726886808089182e+00, -3.0643976382808280e-01,
          -4.5810030499263310e-01, 3.6707559515528615e-01,
          -1.3668474777967804e-01, -2.6280739528185165e-01,
          1.7930984643430140e-01, -1.1485361362255252e-01,
          3.4804437121250580e-02, 1.6669072617676423e-01,
          3.6226473805773672e-02, -1.3305461933422816e-01,
          1.5004067789096504e-01, -7.6398914858378672e-02,
          -7.8545834860858810e-02, -2.6691576803680739e-01,
          2.4785931532171981e+00, -5.6890224889617541e-04,
          -4.8643027797111313e-02, -7.1512474147536068e-03,
          -5.3427204725133744e-02, -1.0529421998229335e-01,
          6.4620567900427139e-02, -1.1813551313885425e-02,
          2.1437862749606766e-03, 1.1216486724648622e-01,
          -4.1264194912871012e-02, 3.1388209233518476e-02,
          1.4190937272575432e-01, -3.4558446126890477e-02,
          4.7758447894236396e-02, -2.8178308428681398e-01,
          5.6091839544279036e+00, 6.4459165639339025e-02,
          8.1884245385699744e-02, 2.5337401551713108e-02,
          4.8224562005270852e-02, -1.5653521412228131e-03,
          1.1509015091173529e-01, -2.0184705235807225e-02,
          -3.2759326207943397e-02, -4.0261927025940822e-02,
          5.6406830495123039e-01, 9.2741520879806721e-02,
          1.2689757715571598e-01, -8.3113761077849596e-02,
          4.1337119182768785e-02, -2.6407893266087645e-01,
          1.1211704308846862e+00, 8.8763055582748718e-02,
          -8.3149894923646800e-02, -7.0638456889737800e-03,
          1.2255827367435390e-02, -1.1714166181438510e-01,
          1.8419260424519265e-01, -3.2220919640402262e-01,
          -8.0203341217276319e-02, 3.9748650970925253e-02,
          8.5921125312955218e-02, -5.4817050649973803e-02,
          1.1961480667156590e-02, -9.6668320062827912e-02,
          1.6091789805165533e-03, -1.3924258268025022e-01,
          -1.5835836948390400e+00, 9.2013123556642235e-02,
          -1.4621877591013577e-01, -6.4767339709561871e-03,
          -1.9525588172223463e-01, -3.1097082179635577e-01,
          -1.3476955718963141e-01, -1.8327471294930617e-01,
          6.7319818847320689e-02, 2.2140401303645188e-01,
          1.1952734941594033e-01, -2.3973594748304453e-01,
          2.0937863705977400e-01, -3.7699610347874529e-02,
          -3.2039001466307149e-01, -2.0981869917295970e-01,
          -8.4776058175530764e+00, 7.8349335180146112e-02,
          -2.6588151725449982e-01, 1.8821913359958142e-01,
          -2.6228776056532421e-01, -4.4557497059951962e-01,
          -5.9083410073558898e-02, -9.5761025581115565e-03,
          1.5431952655576969e-01, 2.7765074178009691e-01,
          1.6752598732765953e-01, -1.7236724502785011e-01,
          2.9796170782262721e-01, -5.4693678177851722e-02,
          -3.4733735479090277e-01, -2.1936450493324094e-01,
          -7.6359433402649159e+00, -5.3281759272224588e-02,
          -7.5905086686980677e-02, 2.7482221598881457e-01,
          -2.4961202848716310e-01, -4.2440223927239357e-01,
          -1.0750738822482066e-01, -2.7649366853062882e-03,
          2.2450249773968686e-01, 2.4483328797441561e-01,
          1.9240454395058668e-01, -1.6104478833922894e-01,
          1.9248862302184108e-01, -6.9317386824671076e-02,
          -2.6982547865827483e-01, -1.9216552148674887e-01,
          -9.0906882527940898e+00, 1.8776988366568735e-03,
          2.4309555768067442e-01, 2.3888701140185978e-01,
          1.6384084348298728e-01, -6.1001544097395624e-02,
          -1.5890785301459015e-01, -2.0203358716336031e-01,
          1.6790899828192060e-01, 5.4176378276839014e-02,
          9.5316781604043110e-02, 7.8727958160502987e-02,
          -1.0351024958336300e-01, -1.8699444681161415e-01,
          -1.7771849868641117e-02, -7.8171569600955892e-02,
          -5.1454970529736599e+00, 1.7575634484946881e-01,
          1.4238262175326755e-01, 4.0219043755520413e-02,
          2.2068180682928631e-01, -1.5519315329875610e-01,
          1.0116497253249111e-02, -1.3598200726155399e-01,
          1.0535678157117956e-01, 3.7701933583024599e-01,
          3.0208917190613388e-02, -1.2790575679679810e-04,
          3.8742716154001627e-02, -1.4263973913768946e-01,
          1.8021370881289210e-02, -2.5823903347488952e-01,
          -4.9076667188358840e+00, 9.6981264624996233e-02,
          2.2385715618540220e-01, 2.7054847450329617e-01,
          3.6300254733922799e-01, 5.9279683696982560e-03,
          1.1926353757623810e-01, -2.1525322081938492e-01,
          -4.4677288998187591e-02, 1.1724465780595182e-01,
          -2.3730918713230954e-02, 1.8821780551323480e-01,
          -5.0604950539280026e-02, -1.1649670793129911e-01,
          2.5056611123263228e-01, -1.6005022951330991e-01,
          -5.6891285993975300e+00, 8.4089073210101617e-02,
          -1.9528231619329553e-01, 1.4868519917427600e-01,
          -1.8741193546861232e-03, 1.0734967557598278e-01,
          3.5349247821068502e-01, 4.6761820583806069e-02,
          -1.6789660526966169e-01, -2.4828846627075124e-01,
          3.0125735086757915e-01, 1.4331746772435547e-01,
          -1.0256367500451603e-01, -6.3591766626272014e-02,
          1.7638206412639229e-01, 6.4391527169687143e-02,
          -5.4267050636844383e+00, -3.0031078949029764e-02,
          5.5620474896009965e-03, 1.1238867034212850e-01,
          3.9446909871038140e-02, 3.9346307522122603e-01,
          3.2029639267683080e-01, 2.0221006077567744e-02,
          8.0354277364824440e-03, -2.8599731791046018e-01,
          3.6928065420016816e-02, -1.2390028429402904e-01,
          -3.1836598168919389e-01, 4.0865383704871860e-01,
          8.9632625443831423e-03, 2.3648422173697906e-01,
          -6.6061616526551792e-01, 9.8409684852387089e-02,
          1.0539433167789522e-01, 2.0513569127823206e-01,
          4.5436908570317969e-01, 5.4073538349377515e-01,
          1.6504928543156672e-01, -1.8620359620095139e-01,
          -3.0776745692193652e-01, -3.0970156254400816e-01,
          -1.5194886381294137e-01, 1.4341445211676757e-01,
          -3.3990643725703451e-01, 2.1548239990127752e-01,
          5.2587766346700615e-01, 4.4869311746735463e-01,
          2.2494641455807177e-01, 1.6536556783190839e-01,
          2.0453296048127834e-01, 2.9386331240832592e-01,
          2.2345566893903618e-01, 2.1964478974683116e-01,
          1.5417724484021117e-01, -1.7014391946815827e-01,
          -1.7286679780319650e-01, -1.1631189765674096e-01,
          6.1752260584526229e-02, -1.0361205154295626e-01,
          -2.7291823256282960e-02, 1.7850002930421804e-01,
          3.9092702578897581e-01, -7.5764400308091451e-02,
          -7.5384448156680695e-01, -1.1110511629376905e-01,
          3.1167942195805654e-02, 2.7016685955523068e-01,
          4.3675879357114228e-02, -4.4397365395537618e-02,
          2.3583405827610090e-02, -1.9936436909737237e-01,
          1.1330526442274261e-01, 9.4357215041237757e-02,
          9.4685211287957260e-02, -7.8401666607462492e-02,
          4.9102291252187021e-03, -1.3404921926096705e-01,
          -3.8133223472256665e-02, -3.4464018851860884e-01,
          9.5710781804891287e-01, 8.3138123516213983e-02,
          -4.1001460539370777e-01, 2.9260556896134671e-01,
          -1.0458243297039554e-01, -3.1068031678922908e-01,
          1.6148776234357956e-01, -1.3009527668564183e-01,
          -4.0443613299271083e-02, 1.0331414002156672e-01,
          2.0892308805218690e-01, -1.4831603683038402e-01,
          2.0249560840548833e-01, -5.0365614822659374e-02,
          -1.1250360372376077e-01, -3.2391748574863599e-01,
          2.9230170386908951e+00, 3.2669348235243832e-02,
          -3.3551637201898649e-01, 1.3969535747366793e-01,
          -3.9349688574443424e-02, -1.7742907293936935e-01,
          -1.5383170210392054e-02, -6.5539986356657295e-02,
          -9.1391143099062197e-02, -6.9085612447381565e-03,
