%YAML:1.0
my_nn: !!opencv-ml-ann-mlp
   layer_sizes: !!opencv-matrix
      rows: 1
      cols: 3
      dt: i
      data: [ 256, 16, 52 ]
   activation_function: SIGMOID_SYM
   f_param1: 1.
   f_param2: 1.
   min_val: -9.4999999999999996e-01
   max_val: 9.4999999999999996e-01
   min_val1: -9.7999999999999998e-01
   max_val1: 9.7999999999999998e-01
   training_params:
      train_method: BACKPROP
      dw_scale: 1.0000000000000001e-01
      moment_scale: 1.0000000000000001e-01
      term_criteria: { epsilon:1.0000000000000000e-04, iterations:10000 }
   input_scale: [ 2.4186415937817413e-02, -1.7841863351230527e-01,
       1.6165526253035477e-02, -3.1288493204244755e-01,
       1.1981911996346769e-02, -4.9099791550247085e-01,
       1.0651954728627500e-02, -5.9280443707144348e-01,
       1.0475307909727092e-02, -6.7846595722565761e-01,
       9.2677932557084404e-03, -7.5062409579024081e-01,
       8.9420296405339755e-03, -8.5571335820936001e-01,
       8.9978595103138159e-03, -8.4455995823981778e-01,
       9.1058007571506294e-03, -8.0487360605596658e-01,
       8.9904804585886986e-03, -7.7370250671158969e-01,
       1.0506792370871073e-02, -6.0901327662751970e-01,
       1.1180702426654809e-02, -5.3991449979150463e-01,
       1.2831077554019389e-02, -5.0403819869810951e-01,
       1.3697034938025116e-02, -3.8828116433010329e-01,
       2.5611971051688047e-02, -2.4349931898416460e-01,
       9.1735591363221888e-02, -1.3893288836893750e-01,
       1.9603584183268873e-02, -2.4078315355536767e-01,
       1.2368511579109306e-02, -4.2617588810626633e-01,
       9.4076249596369531e-03, -6.4912612221494981e-01,
       8.9183910187382170e-03, -8.3354643014264873e-01,
       8.7165543078555167e-03, -9.1738575918328646e-01,
       8.6399895470889131e-03, -9.7331360506553799e-01,
       8.5134539132716326e-03, -1.0370990850435464e+00,
       8.3836740719016901e-03, -1.0238410082156462e+00,
       8.4456842563170442e-03, -9.4732425075022852e-01,
       8.4738492771234825e-03, -8.8809624706548496e-01,
       8.6796586418203155e-03, -8.6412920347803845e-01,
       9.1485218579026827e-03, -7.4799110233852151e-01,
       9.7250786779537867e-03, -6.7215797413277689e-01,
       1.0961534956687965e-02, -4.9048897360542165e-01,
       1.4811026991420300e-02, -3.3249682332913105e-01,
       3.6367141428023768e-02, -1.7682863694350687e-01,
       2.2038863447521158e-02, -2.5552305446401341e-01,
       1.1745328951631592e-02, -4.6794071431935141e-01,
       9.6174950892126739e-03, -6.8918412273350826e-01,
       8.7171411555207329e-03, -9.1763702584238904e-01,
       8.8680308924364137e-03, -1.0149397095300052e+00,
       9.1447129978207906e-03, -9.2474253539557338e-01,
       9.0169601907348646e-03, -8.7765079189819339e-01,
       9.1723510172355555e-03, -7.8662879919552753e-01,
       9.4219009829763743e-03, -7.6904559907424541e-01,
       8.8201335458960653e-03, -8.2474640055248427e-01,
       8.9295422863693401e-03, -9.1398394778961534e-01,
       9.0137792652354356e-03, -8.3860805787215764e-01,
       9.4067187715202259e-03, -6.7237589827735877e-01,
       1.1284361679287858e-02, -4.7754110294957319e-01,
       1.5491311694946533e-02, -3.5057511900955091e-01,
       2.5524884161632531e-02, -2.1659158951646157e-01,
       2.1503913394777984e-02, -2.3342653815490882e-01,
       1.1669276208906027e-02, -4.7979328412560002e-01,
       9.2200138056564938e-03, -6.7994261232004449e-01,
       8.6155288645021963e-03, -9.1886488280973433e-01,
       8.7803139714911684e-03, -1.0878681759750435e+00,
       9.0743693130722891e-03, -8.7350668083226291e-01,
       9.5230245964195818e-03, -7.4314095564378602e-01,
       9.7505959610383955e-03, -6.9617842031964727e-01,
       9.4499522411517489e-03, -7.0107689162979425e-01,
       9.3535587803451337e-03, -7.5038586418261577e-01,
       8.8662967464807722e-03, -8.2501533711275066e-01,
       8.7951134182200404e-03, -7.7346011915593049e-01,
       9.8282106488261183e-03, -6.5400332165340758e-01,
       1.1889512126199910e-02, -4.7066959960456600e-01,
       1.5737887856414681e-02, -3.0597647187507676e-01,
       3.1695614243918729e-02, -2.1612734060527192e-01,
       1.9448286016172697e-02, -2.5198214055736801e-01,
       1.2008999815793895e-02, -4.4172234105050584e-01,
       9.4759995432568325e-03, -7.0740396590312971e-01,
       8.7401021270876733e-03, -9.5970121399825736e-01,
       8.7331921454021234e-03, -1.0239351370478722e+00,
       9.0534250508519844e-03, -9.1216537613801441e-01,
       9.9851906762052113e-03, -6.6719886395136407e-01,
       1.0268818729918024e-02, -5.9559148633524539e-01,
       9.6783382684098741e-03, -6.8014872845680407e-01,
       9.5745106192904415e-03, -7.3432333619253654e-01,
       9.1582361248022087e-03, -7.9311652121384923e-01,
       8.8552375798856484e-03, -7.4942260648901804e-01,
       9.5155622400472147e-03, -6.4533439858407160e-01,
       1.2071346812623387e-02, -4.6885810808450262e-01,
       1.7006986028251733e-02, -3.1499895861022770e-01,
       2.9677835924912389e-02, -1.8215309440870142e-01,
       2.0210192976979572e-02, -2.5467772164469182e-01,
       1.2447250409387685e-02, -4.5252069060795663e-01,
       9.4855315212771536e-03, -7.0433508332265937e-01,
       8.8907043003298280e-03, -8.4770932741840488e-01,
       9.0862370582997318e-03, -9.5932227492338473e-01,
       8.7239391291457653e-03, -9.4597844296041478e-01,
       9.2697394879122912e-03, -7.3889227802199420e-01,
       9.5856893652060248e-03, -7.1781531811622512e-01,
       9.3153484851758415e-03, -7.6338605810763471e-01,
       8.8526828338010375e-03, -8.4594440963285711e-01,
       8.8113860365542571e-03, -8.1473395526400239e-01,
       9.2341439080182858e-03, -7.4267944373257222e-01,
       1.0234276707658306e-02, -6.3430267159856157e-01,
       1.3478458864343016e-02, -4.1744154482755114e-01,
       1.6132259577731241e-02, -2.9961580650525482e-01,
       3.8438799141617006e-02, -2.0333567661869867e-01,
       2.0464591744762582e-02, -2.4705804236793089e-01,
       1.1185651418252998e-02, -4.7992929019910141e-01,
       8.9640301411608378e-03, -7.0815838115170615e-01,
       9.3939760575040537e-03, -7.7336928977756192e-01,
       9.3140928399791934e-03, -9.1824806585447039e-01,
       8.7074933793831223e-03, -9.5896003173815003e-01,
       8.8106581798688740e-03, -8.5463384344728077e-01,
       8.9015508051883963e-03, -8.7596420242361184e-01,
       8.7756237836623743e-03, -9.2303028420187949e-01,
       8.5347120286936307e-03, -9.8056419720969223e-01,
       8.9951836437860179e-03, -8.3609580144089313e-01,
       9.4652619790918050e-03, -7.1229525835411878e-01,
       1.0751609061011802e-02, -5.3423031399534737e-01,
       1.2858730782231240e-02, -4.0654088697735435e-01,
       1.7074616523281180e-02, -2.8111252710793361e-01,
       4.1236018453403578e-02, -1.6584050899738395e-01,
       2.1067741551272678e-02, -2.7861324877588867e-01,
       1.0464720350741514e-02, -5.1550122423435374e-01,
       9.1022322043181492e-03, -7.2316575281263906e-01,
       9.1900559394910101e-03, -7.6144275081261015e-01,
       8.9398004429040879e-03, -8.3340965723160210e-01,
       8.9412096053111279e-03, -9.1958397049406404e-01,
       8.5735651341832583e-03, -9.6533373228217001e-01,
       8.5405962025007758e-03, -1.0501220026379214e+00,
       8.7869683967533828e-03, -1.0110744287829490e+00,
       8.8513264875694653e-03, -9.4670709388786456e-01,
       8.9275119265000424e-03, -7.5773874779054351e-01,
       9.3905830020062867e-03, -6.8796227645133012e-01,
       1.0646160849470147e-02, -5.5591474696581078e-01,
       1.3011311607379332e-02, -3.8524796541849243e-01,
       1.9592174972185801e-02, -2.6790169690227977e-01,
       4.1332030597660149e-02, -1.3747392785743484e-01,
       1.6121010759774644e-02, -3.0267781796069637e-01,
       1.0128590108555375e-02, -5.4239333987118998e-01,
       9.0057955450502918e-03, -7.3469019018968251e-01,
       9.3745902029106487e-03, -7.8053653211190832e-01,
       8.8078494484071686e-03, -8.1900234870986077e-01,
       8.6212896699704739e-03, -8.9898810399184870e-01,
       8.7458756409380164e-03, -9.6984155748749612e-01,
       8.5597406549856817e-03, -9.9410843099605450e-01,
       8.7802487658990101e-03, -9.6436398945457458e-01,
       8.6779286245438139e-03, -8.2861641656241913e-01,
       9.1210588339677382e-03, -7.1904347141112335e-01,
       9.5660841466563094e-03, -6.9049104481770651e-01,
       1.0835515680871764e-02, -5.6493866176719088e-01,
       1.4087262522427407e-02, -4.0342653252632688e-01,
       1.7784798209778588e-02, -2.6702972384537127e-01,
       3.0242956710249399e-02, -1.8890890350894915e-01,
       1.4655073441393537e-02, -3.2920817150956494e-01,
       1.0590996593420214e-02, -5.3622676230599298e-01,
       8.9895367011360323e-03, -7.5714047157466746e-01,
       9.5271186334413231e-03, -8.4722318746081104e-01,
       8.8580241119611044e-03, -8.6089724195378503e-01,
       8.9956291499649187e-03, -8.0784660909793649e-01,
       9.1469626724920497e-03, -8.3303642657884114e-01,
       9.1248295843957480e-03, -9.3529503240056422e-01,
       8.9592920769433013e-03, -9.0410943089501750e-01,
       9.0738539256114692e-03, -7.8041719016726474e-01,
       9.4849320606956306e-03, -7.1136990455217231e-01,
       9.5115358749570146e-03, -6.9179192447060545e-01,
       1.0270728719513560e-02, -6.1981615055151396e-01,
       1.2156766635261008e-02, -4.4759805270841441e-01,
       1.6973769649991952e-02, -2.9568798723609169e-01,
       2.4607468158996709e-02, -2.1700933876448547e-01,
       1.5240431130381270e-02, -3.1176621073236466e-01,
       1.0707375483542799e-02, -5.4840383998319209e-01,
       8.7785420477907595e-03, -8.3917772966996884e-01,
       8.7091391607218797e-03, -9.6519981394261178e-01,
       8.8864115715534125e-03, -8.5734553379465317e-01,
       9.3276987945391174e-03, -7.3344101173582588e-01,
       9.7385353766911934e-03, -6.6716024240027927e-01,
       9.1526776215471364e-03, -7.4547895989992619e-01,
       9.7188613445103791e-03, -7.6433914617370402e-01,
       9.0960255156108012e-03, -7.6808685024212076e-01,
       9.5882678954879105e-03, -6.9820655131708698e-01,
       9.2481887534058230e-03, -7.1733777113373853e-01,
       9.6244425302989510e-03, -6.8500923574345152e-01,
       1.1282153045102378e-02, -5.0009369693399452e-01,
       1.4195826702185674e-02, -3.6651978652092432e-01,
       2.0108427391601139e-02, -2.3299547390703060e-01,
       1.6564579864855749e-02, -3.3909375447983692e-01,
       1.0768352624653338e-02, -5.3365770724640704e-01,
       8.8919190690530826e-03, -8.3996418104475357e-01,
       8.6736714241449145e-03, -9.9376390497938583e-01,
       8.8155998262437404e-03, -9.2614903102088220e-01,
       9.4429645574908103e-03, -7.4592577276237193e-01,
       9.9455923053428808e-03, -6.3968896595814062e-01,
       9.8010225566621412e-03, -6.7413989933215246e-01,
       1.0319112208944612e-02, -6.7006930800255560e-01,
       9.1398585340871016e-03, -7.4648801114272267e-01,
       8.6594583638912887e-03, -7.7615101813747356e-01,
       9.0230191113371324e-03, -7.7310273893079895e-01,
       9.0952502682161221e-03, -7.0158651525478710e-01,
       1.0756069673107426e-02, -5.4715658771894293e-01,
       1.2575286291067538e-02, -4.2136321601374127e-01,
       1.8581017522663595e-02, -3.0133563199797914e-01,
       1.6492961115047861e-02, -3.1587605961646009e-01,
       1.1902729903188018e-02, -5.0991984918585198e-01,
       9.1119344123628872e-03, -7.6520440510777898e-01,
       8.7749433538633678e-03, -1.0132516111870491e+00,
       8.7770307058117388e-03, -9.6159367566063536e-01,
       8.9846934290797060e-03, -8.0582283022985168e-01,
       9.4758197544986926e-03, -6.9406946433675931e-01,
       9.5263131176854358e-03, -6.3467335365217314e-01,
       1.0227467971784950e-02, -6.3506647137844374e-01,
       9.4311377099179066e-03, -7.1874837170439587e-01,
       8.8198746258856091e-03, -9.5209907465085453e-01,
       8.7998553730424707e-03, -8.9662874203152310e-01,
       8.8918373909531254e-03, -7.7236561453155872e-01,
       1.0060720307258025e-02, -5.8089724208863724e-01,
       1.2955673006075993e-02, -4.3279458375369800e-01,
       1.7183983508755801e-02, -3.1852630301012569e-01,
       1.5216017278272953e-02, -3.0928209033011328e-01,
       1.1637011280007537e-02, -4.9238049901423192e-01,
       9.3316886305679705e-03, -7.2273252234427876e-01,
       8.8526790632344528e-03, -9.5660253761559533e-01,
       8.5841250699282175e-03, -1.0323965491710045e+00,
       8.8962288829263804e-03, -1.0268053162844304e+00,
       9.5832525258179209e-03, -8.5714555018964200e-01,
       9.2456128463112939e-03, -7.9686463184077194e-01,
       9.4910919197861588e-03, -7.5873714535565873e-01,
       9.0679920734119106e-03, -8.9424858063088897e-01,
       8.6363373547001764e-03, -1.0550725468325381e+00,
       8.4969863491577736e-03, -9.3300604455643288e-01,
       9.2380823841850101e-03, -7.5517976359413841e-01,
       1.0710575169170469e-02, -5.6005442333865296e-01,
       1.3754614160271234e-02, -3.7406570248911553e-01,
       1.7932008150709885e-02, -2.6326267038650891e-01,
       2.0967800874726727e-02, -2.3079775020804272e-01,
       1.2787573660407347e-02, -4.2226792152519044e-01,
       1.0183990779337860e-02, -5.9598485169516346e-01,
       9.0498118180928171e-03, -7.7218503013074580e-01,
       8.8106832481271817e-03, -9.6891977517085592e-01,
       8.4368212528040283e-03, -1.0384015143396841e+00,
       8.3735443838461043e-03, -9.5834608694540124e-01,
       8.3397351294699947e-03, -9.8578086544865617e-01,
       8.4096239925215612e-03, -9.2914157256504526e-01,
       8.3509420130571822e-03, -9.5884547968761624e-01,
       8.3254484114270080e-03, -9.0216489524985122e-01,
       8.9908492443747778e-03, -8.5608521066003318e-01,
       9.8071775518676300e-03, -6.4762905094325873e-01,
       1.1210399973804422e-02, -4.9715686840350048e-01,
       1.6566249796035475e-02, -3.3696712447443172e-01,
       6.3976653708346154e-02, -1.9192996112503846e-01,
       1.7855630684407958e-01, -1.9020128337738912e-01,
       3.2151455851192390e-02, -2.5651270211712190e-01,
       1.5546079348785930e-02, -3.9349605192253084e-01,
       1.2439431821814834e-02, -4.9234910587501907e-01,
       1.1082427899366309e-02, -6.0238617154454122e-01,
       1.0037456487847056e-02, -6.9105705863068745e-01,
       9.3402974010260917e-03, -7.1493885106549715e-01,
       8.9620494214329421e-03, -7.8242587992336288e-01,
       9.9677302839269195e-03, -6.6740454944554162e-01,
       1.0368021907109514e-02, -6.2861767606366159e-01,
       1.1137168492086895e-02, -6.4288901599974058e-01,
       1.1827340112080946e-02, -5.1928879521085836e-01,
       1.3720951613616373e-02, -4.0745260661304272e-01,
       1.5862081853856919e-02, -3.4724166145291124e-01,
       3.2401355142435834e-02, -1.7562473656914496e-01,
       1.4737669595614127e+00, -8.5435765771676095e-02 ]
   output_scale: [ 5.2631578947368418e-01, 4.9999999999999994e-01,
       5.2631578947368418e-01, 4.9999999999999994e-01,
       5.2631578947368418e-01, 4.9999999999999994e-01, 1., 0.,
       5.2631578947368418e-01, 4.9999999999999994e-01,
       5.2631578947368418e-01, 4.9999999999999994e-01,
       5.2631578947368418e-01, 4.9999999999999994e-01,
       5.2631578947368418e-01, 4.9999999999999994e-01,
       5.2631578947368418e-01, 4.9999999999999994e-01,
       5.2631578947368418e-01, 4.9999999999999994e-01,
       5.2631578947368418e-01, 4.9999999999999994e-01,
       5.2631578947368418e-01, 4.9999999999999994e-01,
       5.2631578947368418e-01, 4.9999999999999994e-01,
       5.2631578947368418e-01, 4.9999999999999994e-01,
       5.2631578947368418e-01, 4.9999999999999994e-01,
       5.2631578947368418e-01, 4.9999999999999994e-01,
       5.2631578947368418e-01, 4.9999999999999994e-01,
       5.2631578947368418e-01, 4.9999999999999994e-01, 1., 0.,
       5.2631578947368418e-01, 4.9999999999999994e-01,
       5.2631578947368418e-01, 4.9999999999999994e-01,
       5.2631578947368418e-01, 4.9999999999999994e-01,
       5.2631578947368418e-01, 4.9999999999999994e-01,
       5.2631578947368418e-01, 4.9999999999999994e-01,
       5.2631578947368418e-01, 4.9999999999999994e-01,
       5.2631578947368418e-01, 4.9999999999999994e-01,
       5.2631578947368418e-01, 4.9999999999999994e-01,
       5.2631578947368418e-01, 4.9999999999999994e-01,
       5.2631578947368418e-01, 4.9999999999999994e-01,
       5.2631578947368418e-01, 4.9999999999999994e-01,
       5.2631578947368418e-01, 4.9999999999999994e-01,
       5.2631578947368418e-01, 4.9999999999999994e-01,
       5.2631578947368418e-01, 4.9999999999999994e-01,
       5.2631578947368418e-01, 4.9999999999999994e-01,
       5.2631578947368418e-01, 4.9999999999999994e-01,
       5.2631578947368418e-01, 4.9999999999999994e-01,
       5.2631578947368418e-01, 4.9999999999999994e-01,
       5.2631578947368418e-01, 4.9999999999999994e-01,
       5.2631578947368418e-01, 4.9999999999999994e-01,
       5.2631578947368418e-01, 4.9999999999999994e-01,
       5.2631578947368418e-01, 4.9999999999999994e-01,
       5.2631578947368418e-01, 4.9999999999999994e-01,
       5.2631578947368418e-01, 4.9999999999999994e-01,
       5.2631578947368418e-01, 4.9999999999999994e-01,
       5.2631578947368418e-01, 4.9999999999999994e-01,
       5.2631578947368418e-01, 4.9999999999999994e-01,
       5.2631578947368418e-01, 4.9999999999999994e-01, 1., 0., 1., 0.,
       5.2631578947368418e-01, 4.9999999999999994e-01,
       5.2631578947368418e-01, 4.9999999999999994e-01,
       5.2631578947368418e-01, 4.9999999999999994e-01 ]
   inv_output_scale: [ 1.8999999999999999e+00, -9.4999999999999996e-01,
       1.8999999999999999e+00, -9.4999999999999996e-01,
       1.8999999999999999e+00, -9.4999999999999996e-01, 1., 0.,
       1.8999999999999999e+00, -9.4999999999999996e-01,
       1.8999999999999999e+00, -9.4999999999999996e-01,
       1.8999999999999999e+00, -9.4999999999999996e-01,
       1.8999999999999999e+00, -9.4999999999999996e-01,
       1.8999999999999999e+00, -9.4999999999999996e-01,
       1.8999999999999999e+00, -9.4999999999999996e-01,
       1.8999999999999999e+00, -9.4999999999999996e-01,
       1.8999999999999999e+00, -9.4999999999999996e-01,
       1.8999999999999999e+00, -9.4999999999999996e-01,
       1.8999999999999999e+00, -9.4999999999999996e-01,
       1.8999999999999999e+00, -9.4999999999999996e-01,
       1.8999999999999999e+00, -9.4999999999999996e-01,
       1.8999999999999999e+00, -9.4999999999999996e-01,
       1.8999999999999999e+00, -9.4999999999999996e-01, 1., 0.,
       1.8999999999999999e+00, -9.4999999999999996e-01,
       1.8999999999999999e+00, -9.4999999999999996e-01,
       1.8999999999999999e+00, -9.4999999999999996e-01,
       1.8999999999999999e+00, -9.4999999999999996e-01,
       1.8999999999999999e+00, -9.4999999999999996e-01,
       1.8999999999999999e+00, -9.4999999999999996e-01,
       1.8999999999999999e+00, -9.4999999999999996e-01,
       1.8999999999999999e+00, -9.4999999999999996e-01,
       1.8999999999999999e+00, -9.4999999999999996e-01,
       1.8999999999999999e+00, -9.4999999999999996e-01,
       1.8999999999999999e+00, -9.4999999999999996e-01,
       1.8999999999999999e+00, -9.4999999999999996e-01,
       1.8999999999999999e+00, -9.4999999999999996e-01,
       1.8999999999999999e+00, -9.4999999999999996e-01,
       1.8999999999999999e+00, -9.4999999999999996e-01,
       1.8999999999999999e+00, -9.4999999999999996e-01,
       1.8999999999999999e+00, -9.4999999999999996e-01,
       1.8999999999999999e+00, -9.4999999999999996e-01,
       1.8999999999999999e+00, -9.4999999999999996e-01,
       1.8999999999999999e+00, -9.4999999999999996e-01,
       1.8999999999999999e+00, -9.4999999999999996e-01,
       1.8999999999999999e+00, -9.4999999999999996e-01,
       1.8999999999999999e+00, -9.4999999999999996e-01,
       1.8999999999999999e+00, -9.4999999999999996e-01,
       1.8999999999999999e+00, -9.4999999999999996e-01,
       1.8999999999999999e+00, -9.4999999999999996e-01,
       1.8999999999999999e+00, -9.4999999999999996e-01,
       1.8999999999999999e+00, -9.4999999999999996e-01, 1., 0., 1., 0.,
       1.8999999999999999e+00, -9.4999999999999996e-01,
       1.8999999999999999e+00, -9.4999999999999996e-01,
       1.8999999999999999e+00, -9.4999999999999996e-01 ]
   weights:
      - [ -3.5583325857686807e+00, 3.4903679602520266e-01,
          -4.9536481820055739e-02, 6.3576774357048463e-02,
          2.6596609408941974e-01, 8.1941263023693567e-01,
          -9.6422156201134823e-01, 6.0792831251262791e-01,
          -1.1361023888209003e+00, -9.1279343534896629e-01,
          -1.6853323522918773e+00, 9.7964765883307237e-01,
          -9.6204183548516475e-01, 9.7874311114335910e-01,
          2.1673343298841355e-01, 9.1185882441886923e-01,
          5.9021425540175549e+00, 4.3868122306212709e-01,
          -1.8054788710549124e-01, 2.6333699382079995e-01,
          -1.2735147114745532e-01, 9.7837023553031954e-01,
          -3.5695901578573969e-01, 3.3710156580433887e-01,
          -6.8839379343411045e-01, -2.3939076178594934e-01,
          -8.3183349584891431e-01, 7.0040328778622596e-01,
          -6.7586374746663869e-01, 5.9474095808654803e-01,
          2.7790773924512829e-01, 6.2453939689814697e-01,
          3.4912570306153219e+00, 4.9775354826236828e-01,
          -2.6446546280867189e-01, 3.2066140901870915e-01,
          2.5293078679473274e-01, 1.9286257125823317e-01,
          -2.2634415684489459e-01, -6.3738412421818602e-02,
          -2.9653769442020284e-01, 4.2531237864726082e-02,
          -5.3816174612757317e-01, 2.6849542545949950e-01,
          -5.8922309471935469e-02, 1.4707072756486270e-01,
          2.2549487292276554e-01, 3.4880476332252214e-01,
          2.5175781132530779e+00, 2.9910130982220329e-01,
          -6.1464572496540380e-02, 4.1354386116105646e-01,
          8.1827504446291985e-02, -7.0766934636607742e-02,
          -1.0216962183566136e-02, 2.9554338349063530e-01,
          -3.9895299928154260e-01, -5.5514874461166586e-01,
          -7.1448196383267271e-01, 1.9135146822689267e-01,
          1.1775208627762146e-01, 5.4348608115184982e-01,
          -1.7514368511507072e-01, 2.3959623868962618e-01,
          -1.1833411859076179e+01, 1.3674569952657661e-01,
          -1.5022511111333428e-01, 3.1286236223568276e-01,
          7.9862641066587109e-02, 4.0443882560271316e-02,
          -2.7341694783801829e-01, 9.4789248131848483e-02,
          -7.5273098893849644e-01, -4.6448071283568293e-01,
          -9.0517816503566856e-02, 3.8179241820795906e-01,
          -2.0455288019068382e-01, 2.9764137997566381e-01,
          -3.8399569507838460e-01, 1.8524062509957534e-01,
          -2.7090861043511325e+01, 6.6665082842007617e-02,
          -2.9096428815176617e-01, -3.1935130807336842e-02,
          -1.4455315487214687e-01, -1.8574215794355731e-01,
          -6.3438233118913312e-01, 6.7168843174533616e-02,
          -6.5478012861201340e-01, -3.0912768780247951e-01,
          2.0682921314607586e-02, 5.1039537326165563e-01,
          -2.5395287638748161e-02, 4.6081584312707746e-01,
          -2.7590469966830111e-01, 1.8649101072922158e-01,
          -8.2105916712577880e+00, -4.3068639481714313e-02,
          -2.3937846061203139e-01, -2.3721242189246514e-01,
          2.5138949590375398e-01, 2.4624304071368688e-03,
          3.5417077667709213e-02, -7.7958829638355820e-02,
          -4.4526914822174934e-01, -3.2038471319496481e-01,
          1.5860508422550801e-01, 5.1041508814494130e-01,
          9.8957423616238813e-02, 3.9683129749558915e-01,
          -1.4979506147902263e-01, 2.1147609536613426e-01,
          4.0607045582931720e+00, -1.8798189808223867e-01,
          1.2484749231598188e-01, -1.4622031541570532e-01,
          1.9858258631342740e-01, -8.8702692191307747e-02,
          3.5910035824430236e-01, -1.3085358073445272e-01,
          -2.0525522419965703e-01, -4.0596925193333738e-01,
          -4.6527332719753331e-02, 4.9301379928819805e-01,
          -6.7461745740885010e-02, 4.9660616333328772e-01,
          -2.8517236020684886e-02, 6.7595304789247454e-02,
          4.9470582505470704e+00, -1.9182910256546595e-01,
          2.1626455969128278e-01, 1.3269957625332979e-01,
          7.1959587521425478e-02, -3.5170114811869674e-01,
          -5.0396238891355978e-02, -1.2748744389212693e-01,
          -3.6861478450074836e-01, -4.5337153823616616e-01,
          1.0702259792163366e-01, 3.3557324907045932e-01,
          -3.8689858721363640e-01, 3.5178259423464225e-01,
          6.1573977233548106e-02, 6.7587835832290805e-02,
          1.8466152055474417e+01, -4.1120400376557048e-01,
          3.3262886338808260e-03, -2.1574447965089092e-02,
          2.3787868229897574e-01, -1.7082578750217578e-01,
          -1.7793655553819099e-01, -1.6681055542554937e-03,
          -3.4204024584110143e-01, -8.8093893832366288e-01,
          5.8150832554183063e-01, 3.2388121395357278e-01,
          -1.6126393245405113e-01, 1.8794700720368129e-01,
          -1.6555636641315832e-01, 1.7752795774801555e-01,
          -7.2513405914669538e-01, -1.8268066661883298e-02,
          2.3300100241566024e-01, 2.8741637795005204e-02,
          2.9343850413230688e-01, 1.8350366911099358e-01,
          -1.6347775922137570e-01, 3.0100048523625450e-01,
          -2.7938837847659936e-01, -8.9240985518627391e-01,
          -2.0843070926608798e-02, 5.1572507212526242e-01,
          1.9152140558181371e-01, 2.5125629889745876e-01,
          -4.5282869632944506e-01, 9.6564387472507840e-02,
          -3.9351251167453891e+00, 1.8253920048660319e-01,
          7.5850221086433112e-01, 2.8004827596398818e-01,
          1.2874538912273997e-01, 5.6982746734665649e-02,
          -2.7806016223498026e-01, 6.8927965878187980e-01,
          -5.5214453432162502e-01, -7.2015686683448898e-01,
          -4.3228228709168948e-01, 8.2887314275974577e-01,
          5.9404819395941472e-02, 5.4807873523394279e-02,
          -3.2519177692991241e-01, 4.7790033474076421e-01,
          5.8266096867104835e+00, 1.4874071779717957e-01,
          3.5803932374642111e-01, 2.8500502716414416e-01,
          5.9873466079811544e-01, -9.6285230958151516e-02,
          -4.7880764830975664e-01, 6.7902450728538677e-01,
          -5.3124275224619588e-01, -2.7026333058068369e-01,
          5.1134725970376972e-02, 7.0752875299006257e-01,
          -3.2271248229844157e-01, 7.0015159271678867e-02,
          -3.8640747048718260e-01, 4.1890033376810665e-01,
          2.0164031184525900e+01, 1.3312754795882903e-02,
          1.1513849776288043e-01, 1.6792632580145844e-01,
          2.1414312967732968e-01, 1.2065023037226183e-01,
          -7.2852937729421330e-01, 7.6187597982585220e-01,
          -4.2655183766895138e-01, -1.0168158807939930e-01,
          1.3442522404897544e-01, 3.0684952425199408e-01,
          -3.8284434974451709e-01, 4.3366063081917544e-01,
          -4.2836947964205202e-01, 4.1689420599530613e-01,
          9.1829546730723361e+00, 1.6830620761504589e-01,
          1.3718459480252321e-01, 1.1873661795137587e-01,
          1.3719892635696307e-01, 8.0117862474414592e-01,
          -9.4046819700979911e-01, 8.1254757680597656e-01,
          -1.0008484248963359e+00, -7.6628582283864322e-01,
          -2.7214032793835807e-01, 8.6490011982213366e-01,
          -9.9505306669170990e-01, 1.0877768510385482e+00,
          -9.2518528608816292e-02, 9.2569091143850857e-01,
          1.3923124517323306e+01, 4.4822324160146937e-01,
          -7.6141220562331483e-02, 1.3170803285049087e-01,
          -1.0886074784520312e-02, 2.0623525465183290e-01,
          -3.1747750324298712e-01, 8.2491189746299931e-02,
          -2.4808036406662989e-01, -1.9928991232827600e-01,
          -4.3935169877980185e-01, 3.2050435839944080e-01,
          -2.5057196736579807e-01, 3.3225370349101668e-01,
          1.1574683175366036e-01, 2.2376637564348642e-01,
          5.1789948007165325e+00, 2.4355293819521248e-01,
          -1.4594944141034819e-01, 1.7292386196694443e-01,
          2.3798183330376146e-01, 5.5592609143778360e-01,
          -7.8228714581248338e-01, 8.2000046920062841e-01,
          -7.8328024392949325e-01, -5.9665617958172668e-01,
          -1.1806932347947476e+00, 8.9654929815038531e-01,
          -6.9631546931199861e-01, 9.0154556512029471e-01,
          -5.6265150495320881e-01, 7.7059920384337488e-01,
          2.1915685090934218e+01, 3.5601930827515693e-01,
          -2.2450284575566298e-01, 4.1241483761737413e-01,
          2.3753484541174380e-01, 6.3859740014277500e-01,
          -1.5641107924365238e-01, 4.0241870154696630e-01,
          -4.0669767771215842e-01, -3.8959289196380448e-02,
          -3.9035430012353123e-01, 4.9322722463939300e-01,
          -4.4741973991909906e-01, 5.2420504512250976e-01,
          -1.8327589189063376e-01, 4.7008886967115987e-01,
          2.2890089739473563e+01, 4.5741745551303442e-01,
          -1.6050909322204179e-01, 2.2517094796002801e-01,
          2.4060514889415074e-01, -1.2875124018218461e-02,
          -2.4452322318669489e-01, 1.2151193927201823e-01,
          -8.6532991608916282e-02, 1.8277823046627638e-02,
          -4.5756446022204672e-01, 2.8114161539930282e-01,
          -6.7936631910279710e-02, 5.2497212228208134e-01,
          1.7247517631030135e-01, 2.6915619926641837e-01,
          -1.0630768016616457e-01, 2.5977724765675086e-01,
          -6.2309049348119303e-02, 2.4680716096601968e-01,
          -9.8351157004736470e-02, -2.9506683964515951e-01,
          -2.4078935853431044e-01, 2.0914913859354950e-01,
          -1.9141652744735979e-01, -3.2356698626934682e-01,
          -3.7581891621958508e-01, 1.2152281236297909e-01,
          7.6002041016920568e-02, 7.5861608189039642e-01,
          -2.7063911630884386e-02, -2.7842947720100243e-02,
          -1.4904575682189577e+01, -1.1988392101772578e-01,
          1.6069073189451558e-01, 2.1613346814900354e-02,
          -5.5467930725288273e-02, -5.1895907028900741e-02,
          -5.2437940134930784e-02, 2.9371953192931011e-01,
          -5.0826368001883682e-01, -3.1875309708989935e-01,
          -2.6312080389293613e-01, 6.1887370852223644e-01,
          -1.4197498942667144e-01, 1.3551545226378664e-01,
          -7.2765673163871017e-02, -1.1457646592705588e-01,
          -6.1301789726413167e+00, -1.6975275078802252e-01,
          4.1707811710130721e-01, -2.5734430794761752e-02,
          7.8233580880960871e-02, -7.0737975779722836e-02,
          -7.0929099539786411e-01, 4.3093127020147441e-03,
          -9.5059249566118875e-01, -4.7730548013157054e-01,
          -1.3624313714197603e-01, 4.8324528963875657e-01,
          -7.2424403547246635e-02, 8.4961664095031211e-02,
          -2.9433230638861618e-02, 9.5042516924257650e-02,
          1.2871507073939105e+01, -2.4218316440616472e-01,
          3.1238306432637869e-01, -2.7289970030797256e-01,
          4.4918843081730669e-01, -1.8426093843376515e-01,
          5.8915039868706739e-04, -5.1082333397867358e-02,
          -7.6592189888178752e-01, -3.0984238339412962e-01,
          1.1989594178692302e-01, 5.6022396564618149e-01,
          2.8330988761767700e-01, 1.5333913157105014e-01,
          1.0866160358653391e-01, 2.8636338027661301e-01,
          1.1989196332064379e+01, -5.5230731496203478e-01,
          -7.0029075386810136e-02, -1.6209283044956856e-02,
          6.6149884782756962e-01, -1.0559909473179201e-01,
          -8.7500271567071991e-02, -1.4997909878629545e-01,
          -5.2495306503293537e-01, -3.3304208449742834e-01,
          2.4704503355370869e-01, 4.3601851775117600e-01,
          -6.7458156601100647e-02, 2.5653305547688299e-01,
          -7.7538420813291847e-02, 2.3765380263112526e-01,
          1.2616304168292974e+01, -4.1984012091642453e-01,
          1.9100691324481184e-01, 1.5849707880031738e-03,
          -2.5025256310235947e-02, -2.6966128651090371e-01,
          -1.7800861507569052e-01, 2.8695336248307592e-02,
          -6.2015101599258349e-01, -7.8513318096420548e-01,
          2.7762032090886224e-01, 4.4963758256387493e-01,
          -4.6819242879759437e-01, 6.0671875375431783e-01,
          4.5913063013701086e-02, 1.9598943076454814e-01,
          4.2201153226433528e+00, -2.4212617888743188e-01,
          1.8323563896000636e-02, 1.7563739940859420e-02,
          1.8497644474919589e-01, -1.2777863243197010e-01,
          -2.1302825887692076e-01, 6.3842223847300109e-02,
          -4.8382560717263523e-01, -7.1902909030363849e-01,
          2.8533053905111871e-01, 2.7300378264436204e-01,
          -2.8998064658902722e-01, 4.7750009796324938e-01,
          6.8530250781037153e-02, 1.9894734049487312e-01,
          6.2628337178879327e+00, 5.1790556707429394e-02,
          8.2916128612214646e-02, 3.2845231362980748e-01,
          1.9324483589053990e-01, 1.3445821375022504e-01,
          -3.2887275989004422e-01, -5.0763658499585078e-02,
          -5.2993514814772913e-01, -7.1924442384198362e-01,
          3.0802155883375248e-01, 4.7407818699474508e-01,
          8.9819767802604630e-02, 2.5037188133980248e-01,
          -4.1290852809318671e-02, 2.2518501808303065e-01,
          9.0530207538936658e-01, 2.0400849616653238e-01,
          6.3230068100655701e-01, 2.3227331484706570e-01,
          -2.9337548967930288e-01, 1.6680960005054141e-01,
          -3.0760659113446726e-01, 3.6551649981924783e-01,
          1.4436308740825044e-02, -1.9625825007604403e-01,
          -2.0177240928006429e-01, 4.0248759243938736e-01,
          4.2212105670300770e-01, -1.7053668340207284e-01,
          -2.2857502463886677e-02, 1.0341071367041296e-01,
          1.0285179033062551e+01, 2.6615260756730358e-01,
          2.3124719714205016e-01, -1.6284580202900709e-01,
          -1.9202504428136261e-02, -6.3458434249701393e-02,
          -2.5440239360045275e-01, 6.2840041679367575e-01,
          7.5497740915773130e-03, 1.1518948202890492e-01,
          -3.7588838554942841e-02, 2.9549330468290480e-01,
          3.0683328186373138e-01, -1.1888148673792953e-01,
          1.0788877775314366e-01, 1.4603026737179112e-01,
          8.2802678052753471e+00, 2.3539668597539132e-01,
          1.5156045092549048e-01, -3.6862667242974906e-01,
          4.2365275990928492e-01, 1.3364148134466772e-01,
          -3.5879623570934988e-01, 3.9312936718984370e-01,
          -1.2323636355962968e-01, -4.8266472566512127e-02,
          -2.4416696419278690e-02, 2.0197217831130110e-01,
          -2.6074616378167409e-01, 4.5893229332351487e-01,
          1.2560786126066589e-01, 2.2319172664571421e-01,
          1.5813382175306691e+01, 1.7438445026297864e-01,
          2.7658177665098888e-01, -5.7987884561013092e-01,
          -1.5445415579696753e-01, 3.6623662452126271e-01,
          -6.7437088241221954e-01, 3.2306338030517195e-01,
          -5.7539419753961396e-01, -2.4401059199571187e-01,
          -8.8912574219529861e-02, 4.6058715170174014e-01,
          -6.8595769575539167e-01, 8.3880288494201893e-01,
          4.2397284246344091e-02, 4.9398948710992691e-01,
          -7.9148450363589413e+00, 3.8618279900554442e-01,
          5.4185746667731079e-02, -1.5206759779340981e-02,
          4.0918596819956982e-01, 1.1341581636347173e+00,
          -1.3258656257486692e+00, 9.6824419368711867e-01,
          -1.5983166747126929e+00, -1.0506559406229272e+00,
          -1.1420770705956552e-01, 1.3715008682999195e+00,
          -1.3983402478047655e+00, 1.3518931477569873e+00,
          2.2510794226839442e-01, 1.2897641862755191e+00,
          9.6232252026388732e-01, 1.4032389473455786e-01,
          -2.1888413698068479e-01, 1.9469076351262316e-01,
          6.6807699747845145e-02, 6.3303002927059338e-01,
          -7.0286047258466111e-01, 7.0039938581680372e-01,
          -5.8968150843061629e-01, -6.1534304862836853e-01,
          -8.9066458751137068e-01, 8.1483838035104128e-01,
          -8.2938285998558103e-01, 8.8058448567189107e-01,
          -3.5281240355528992e-01, 6.9156967916393008e-01,
          2.7312601051930505e+00, 2.6131314862915561e-01,
          -2.5202405318208626e-01, 5.3200389665060777e-01,
          1.5390655931275632e-01, 7.1915355055683228e-01,
          -3.6308840624981814e-01, 2.8604353561281332e-01,
          -1.7213267492373113e-01, -8.4467218266173372e-02,
          -6.9890454411199385e-02, 5.7512734603430515e-01,
          -6.2835218177451035e-01, 4.9304803701070732e-01,
          -1.7507526167814605e-01, 3.9412894767597351e-01,
          -8.4078758996243386e-01, 2.4743269128729936e-01,
          -1.2918194963694493e-01, 6.1465047627042781e-02,
          1.7497225220635543e-01, 2.2591719278074282e-01,
          -3.5387022720906519e-01, 1.9146668168859897e-02,
          1.8846211047260242e-01, -6.7691016341109217e-02,
          -2.0361808844264312e-01, 1.0782634926026263e-01,
          -2.0566614347294732e-02, 4.9656858032784085e-01,
          8.7074525128961078e-02, -9.9429234029412547e-02,
          -9.2856413616840641e+00, 6.5618835558531791e-02,
          -1.6775169430671491e-01, 1.5480094633533806e-01,
          -4.6446354600838795e-04, -1.4538256041437184e-01,
          -5.0367823422556801e-01, 1.6038817176500142e-01,
          -1.7343489576639934e-01, 1.2254182604321676e-01,
          -5.3426387169521548e-02, 1.6521312322879245e-01,
          7.9989760496255877e-02, 6.7237395773621400e-01,
          2.0180638076637339e-01, -1.1769537177430743e-01,
          -1.5649539753542273e+01, -1.6551617181460920e-01,
          7.6751032986105705e-01, -4.4058551563663167e-01,
          -6.2488854149967403e-02, 2.7953132973325748e-02,
          -7.0085642834506481e-02, 1.2933989949678482e-01,
          -5.0626304830861102e-01, -4.9697708140528396e-01,
          -6.5129693980070669e-01, 4.8745738473535222e-01,
          -4.0217935334764665e-01, 4.9604891949142366e-01,
          2.2750544349957863e-01, -7.1902449218544912e-02,
          -9.7820731421096188e+00, -5.4824761583990834e-02,
          9.0484079889335756e-01, -6.0367030695218715e-01,
          -4.1744075458370972e-02, -1.7968079497362235e-01,
          -6.4047605086796655e-01, -1.4496919445124108e-02,
          -5.9805725289913902e-01, -5.4973926609851953e-01,
          -6.1820836238758836e-01, 5.0962342086867263e-01,
          -2.4950294324508551e-01, 5.8030911141308962e-02,
          8.5643388451763267e-02, 1.4058065164089709e-01,
          -3.9228390012124956e+00, -6.9693942477177917e-02,
          5.2153284922921539e-01, -9.2813783460912069e-01,
          -8.6006708710631652e-02, 1.5270072736212248e-01,
          4.7629302649497569e-03, 9.6153108733013873e-02,
          -5.9156715787446801e-01, -4.0271731437234043e-01,
          -5.0607456205152912e-01, 2.7305798982944257e-01,
          -4.0320042627824160e-01, 2.1135106664157240e-02,
          1.8767179269814335e-01, 3.7922563693823208e-01,
          -8.5454023010256841e-01, -6.3900736775343345e-02,
          9.7087309039897929e-02, -1.3180072124024431e-01,
          7.8831320152371309e-01, 1.3622552059208373e-01,
          -1.2917525565732860e-01, 5.2841160098612595e-02,
          -1.1471920418125899e-01, -3.3436386855656369e-01,
          -3.9884223065521962e-01, 5.8849128927405647e-01,
          -4.1378881611967477e-01, 3.7427797010813463e-01,
          -1.5381733328733202e-01, 2.5242345551506656e-01,
          -1.0366498126016035e+01, -1.3307724495765894e-01,
          1.2766714025169879e-01, 1.0397343904920675e-01,
          9.8937253774728021e-02, 4.4083838431919424e-02,
          -1.0626403683205349e-01, 1.0093570827457926e-01,
          -3.3271835840720049e-01, -6.3013512107602421e-01,
          2.1356977807039543e-01, 5.9205399213326138e-01,
          -3.2758200112419883e-01, 2.0985835328076757e-01,
          4.0580548002951683e-01, 1.2709972138139772e-01,
          -1.9290268214995770e+01, 5.2267209380001418e-03,
          -2.3813929455229332e-01, -9.2263599920685654e-02,
          6.2743261179257145e-02, 2.4405247169070901e-01,
          -7.6096536390994160e-02, 7.3361199142698119e-02,
          -5.3320248444966267e-01, -7.1264643167544228e-01,
          2.7980150406846815e-01, 2.1372001432417592e-01,
          -4.5572882710284462e-01, 5.1733637202682681e-01,
          3.6440500514995278e-01, 2.5583139139389327e-01,
          -1.0903948117034913e+01, 3.9934528493675170e-01,
          5.7538167346134053e-02, 3.3587143715673790e-01,
          2.4179947981838945e-01, 2.1406270084818307e-01,
          -6.7025055900081149e-02, -1.2010462856836809e-01,
          -4.0550270670326891e-02, -5.6594122170988859e-01,
          2.0616663273884250e-01, 1.9119836358321449e-01,
          -6.6545325322571691e-01, 7.2959372793226629e-01,
          2.3090959646567658e-01, 2.9664681900237672e-01,
          -1.4541735823912280e+01, 3.9438883550705478e-01,
          4.1109231641974492e-01, 1.2864119191530468e-01,
          -2.1093782264381595e-02, 1.4392953069915818e-01,
          -3.2142897766111345e-01, 1.3870123797867215e-01,
          2.8458650735212793e-01, -2.5343509188454981e-02,
          4.8078508264349673e-02, 4.1319625419495037e-01,
          2.3083070418190568e-01, 9.4615404170064490e-02,
          1.7636684643428516e-01, 1.1793837775635712e-02,
          -1.2029435863258759e+00, 3.7175756585832004e-01,
          2.3820420226517822e-01, -3.2798051604078532e-01,
          -2.3318657610440281e-02, -3.4621298949539369e-03,
          8.6875110128890112e-02, 4.8119163778220753e-01,
          1.4988340805640898e-01, 1.1826334363565771e-01,
          -6.5935442934500529e-02, -1.5573438593400060e-01,
          3.3530010347824329e-01, 3.7287994665294955e-01,
          5.1133961167737962e-01, -1.3865241121514717e-02,
          -3.8024916584842607e+00, 3.2317927269510521e-01,
          7.4142726424077862e-02, -6.2820858133728619e-01,
          3.4049301783132024e-01, 1.4258023248410828e-01,
          -1.8572190832092417e-01, 3.4623971154544214e-01,
          -3.0233944714702088e-01, -2.3505112312104620e-01,
          1.5027305436352500e-01, -9.0258691977646521e-02,
          -2.9525450249800900e-01, 9.5093863505251797e-01,
          3.7833559203987938e-01, 3.0683782655225511e-01,
          -1.7785711831262567e+01, 1.9569411400965761e-01,
          2.5642573312220546e-01, -8.0072396801900381e-01,
          7.7932707368009918e-02, 3.9280427731689149e-01,
          -5.8195864535510666e-01, 2.7845188999339637e-01,
          -6.1719009429410288e-01, -4.0681605356001993e-01,
          4.0356609304802393e-02, 7.3448941653541555e-01,
          -8.5302154636463068e-01, 8.9978898091500259e-01,
          2.7746054028237741e-02, 2.6247246223572523e-01,
          -1.8321162987227567e+01, 1.5442289042489871e-01,
          2.2120939131080991e-01, -1.0873800209421161e+00,
          3.8052290095100166e-01, 8.2833201800254608e-01,
          -1.0125315030050352e+00, 6.3102838141216056e-01,
          -1.1535938270435804e+00, -5.8973150775064309e-01,
          2.1768734451930191e-01, 1.0728450044416089e+00,
          -1.0257248982054639e+00, 1.0631268779210603e+00,
          8.8552679634415862e-02, 7.5085100015841677e-01,
          2.9460380901482748e+00, 9.5274937454583167e-02,
          -2.5070548223062672e-01, 3.2123639837794610e-01,
          -2.9215078930996047e-01, 2.1210762236139907e-01,
          -1.3873442390848251e-01, -6.8518738267399132e-03,
          2.1490898347198759e-01, -2.8014712249217616e-01,
          -8.0571279259861694e-01, 1.5274281474149376e-01,
          -3.1792463380591574e-01, 2.7249492340442361e-01,
          1.1640304054437817e-01, -2.4333429331826101e-01,
          -7.8745530378340112e+00, 2.9415733401021099e-01,
          -3.6962302877229986e-01, 6.0237958413741388e-01,
          1.0298601929586425e-01, 7.3892879012369173e-01,
          -2.8594388574404023e-01, 1.8715546789131240e-01,
          3.5495473568771266e-02, -1.4587220943369272e-01,
          9.1100019915448874e-02, 5.2748385289046740e-01,
          -4.7428406178330934e-01, 3.7199673761065261e-01,
          1.6177190437350739e-01, 6.1421320252523372e-02,
          -1.6226303529213450e+01, 5.2946608843336407e-01,
          -6.2226344555250182e-02, 6.6863476848131209e-02,
          -8.5297915640064240e-02, 7.2926882122452533e-02,
          -3.4467914061372606e-01, -9.9932909930992478e-02,
          4.4338203765669759e-01, -5.8949356557875199e-02,
          9.8010557135706000e-02, -2.6059389181656709e-02,
          2.6948805535725640e-02, 1.4499786702549838e-01,
          2.5872336954785929e-01, -2.2530466074536559e-01,
          -1.2608396798999154e+01, -4.3291039580866539e-02,
          -2.9523980113433657e-01, 7.9181006066165890e-02,
          6.0488736062626745e-02, -2.5308940066345670e-01,
          -3.5535795714927920e-01, -3.3761088160831627e-02,
          -4.1429555910963339e-02, 2.7313657080098397e-01,
          4.5822339917050919e-01, 4.0048022935389664e-02,
          5.9457101146398718e-02, 4.4752187700985752e-01,
          1.5611571919521208e-01, -1.8037220791078021e-01,
          -1.7799976413619607e+01, -3.0200300636025340e-01,
          2.9013074249960474e-01, -1.5243342369674504e-01,
          1.8196197872193945e-01, -3.0925940869574364e-01,
          -4.4271258552218801e-01, -6.3582648107232048e-02,
          -5.7539233700750025e-01, 1.7134278483331056e-01,
          -2.9010211233450678e-01, 1.4466477592528787e-01,
          -5.1934072652105068e-01, -3.3742879099125066e-02,
          3.3164555174701787e-01, -8.5062960900459728e-02,
          -1.3335291540281142e+01, 1.4062977202498603e-01,
          6.4656839350073547e-01, -4.1478757112766668e-01,
          -1.7665620397570914e-01, -4.2288871621129315e-01,
          -5.8293086695624008e-01, -1.8470653330995765e-01,
          -4.2751833084359997e-01, -3.2164855869545600e-01,
          -3.8253126069419591e-01, -5.8484736562412952e-02,
          -6.9319938622554789e-01, 2.0088804055894173e-02,
          -1.5491351521479992e-02, 2.4378999811212124e-01,
          -3.5079901039247172e+00, 2.5399551009661135e-03,
          3.9641617953091679e-01, -4.1182582514654403e-01,
          -2.4648773600539980e-01, -1.9310263728872082e-01,
          -5.2045002730007721e-02, -2.0215179978527981e-01,
          -3.5758584985385089e-01, -4.6828685336939305e-02,
          -5.2948031242006055e-01, -3.0781831506853963e-01,
          -4.2453010561626553e-01, -1.5008508571414766e-01,
          -8.1169948035474948e-02, -5.1076238020077651e-02,
          3.0870888606004097e+00, 3.3576028478264258e-01,
          1.1208302455633148e-01, 4.4887811297130681e-01,
          4.6114591889342516e-01, 1.2225634622573778e-02,
          -1.9620655074690574e-01, -1.5351831911639488e-01,
          -2.0235044744227917e-01, -1.4955943842560845e-01,
          -4.5289281511681972e-01, 7.4524006942279938e-02,
          1.3879015105055856e-01, 1.2274073890521996e-01,
          -2.0459420971489597e-01, -9.3033110687513007e-02,
          1.0761630172368751e+01, 1.9808726358170056e-01,
          5.5795406904512873e-03, 2.4582011822206043e-01,
          -1.9298991364146714e-01, 1.0193252326737151e-03,
          3.8412648476228245e-01, -2.9323982421940592e-01,
          4.6614484096508779e-01, -2.8699635850385080e-01,
          -1.7532507431727556e-01, 6.3735301619440146e-02,
          2.8617309414846931e-01, -7.2565979418685034e-03,
          5.7861313872292097e-01, -1.8442430166635349e-01,
          -1.1914703083510988e+01, 2.6251562754544772e-01,
          -4.0811970768606415e-01, 3.7861208109246219e-01,
          7.7780229222450231e-02, 2.9191344145902748e-01,
          -1.1680707558406218e-01, -1.5691794072112331e-01,
          -3.3630890029391691e-01, -4.6240565815977530e-01,
          1.5498654848937199e-01, 2.1740680028068371e-01,
          4.3432291666594153e-02, 5.5352496144376839e-01,
          5.7308258419242963e-01, 2.2115614148541432e-01,
          -4.2324899102856595e+00, 7.1160229847998568e-01,
          -2.9840767298916804e-01, 1.6792357805780980e-01,
          2.9586194438889535e-01, 2.9557016832473676e-01,
          -2.2262998686103866e-01, -1.7492126239846459e-01,
          -8.7566352888601678e-02, -4.8070137365135118e-01,
          3.3321138803829170e-01, 3.3787539901589758e-01,
          -4.5328321697102675e-01, 3.9997572113009922e-01,
          6.1569580936100110e-01, 3.6632664131843989e-01,
          -4.3261335852253922e+00, 5.4860795072205010e-02,
          -4.3617083911841034e-02, -4.8722225698789125e-02,
          4.1101425829285679e-02, 3.7255002655170941e-02,
          -2.1564508135060273e-01, 6.3148321792714859e-02,
          3.5321229281933331e-01, 2.6590478182898364e-01,
          4.2754850585427878e-01, 2.8021403662467409e-01,
          -2.7146487296329547e-01, 8.6847290224386808e-02,
          2.9609415535385430e-01, -2.2233299727473166e-01,
          -1.4779760941757177e+01, 2.7554548824795222e-01,
          1.5139761457609774e-01, -4.1217301756193159e-01,
          -1.6838116625588201e-01, 1.7718083637142601e-01,
          1.1106898840209527e-01, 4.5216463240000643e-01,
          -1.2459179529941071e-01, 4.6622206918081854e-01,
          1.9271834777302302e-01, -9.3139385285230955e-02,
          -4.8242468837246212e-03, 5.5422448453447226e-01,
          3.4554050383603285e-01, -2.4295524900661694e-01,
          -1.7274300327609243e+01, 4.0403035073397336e-01,
          -1.8500505806691431e-01, -6.8318104133015611e-01,
          4.6303888007398686e-01, 4.5682117087773799e-01,
          1.0698903132546356e-01, 3.3632926509187078e-01,
          -7.0327285023304625e-02, -2.2859769701653901e-01,
          3.1821205146719750e-01, -3.3944379930886608e-02,
          -2.8058456337340104e-01, 9.0866599678583349e-01,
          3.3619464690585021e-01, 1.0503669450113375e-01,
          -2.0108531646558848e+01, 2.0434959117146925e-01,
          -6.8869310798810132e-02, -6.0485032866556587e-01,
          2.5487439961404068e-01, 5.3074203713094281e-01,
          -2.3289597111745261e-01, 2.0571893916391329e-01,
          -4.0916879092463082e-01, -3.3272311107047720e-01,
          4.3086247938343142e-01, 7.2101291026814585e-01,
          -7.9936620253789004e-01, 8.2559005742482106e-01,
          8.7432987274747354e-02, 2.1567817170482381e-01,
          -9.5588043515404824e+00, 1.6229164821022798e-01,
          -3.1110566951959982e-02, -2.7711476969738913e-01,
          5.6401452502376059e-01, 8.2416660833201438e-01,
          -6.9627973262672138e-01, 5.3604774009775824e-01,
          -9.1756353672795066e-01, -5.5935766590194591e-01,
          2.9890747566994180e-01, 9.7647463494370512e-01,
          -9.5580495683423439e-01, 1.0000809341462333e+00,
          1.8508503477172641e-01, 5.4086863889287939e-01,
          -1.5694851611855684e-01, 1.0100810200682059e-01,
          -1.7989567213977586e-01, 3.5372819468005401e-01,
          -4.2334517894720081e-01, 2.1472543563190560e-01,
          -3.6552927585958317e-01, -5.9766379100480632e-02,
          3.4249645391094158e-01, -2.9616685712323693e-01,
          -6.5240439685664209e-01, 9.3082332370847648e-02,
          -3.0057052856965927e-01, 3.0255850895664305e-01,
          5.9123379867093311e-02, -3.0231503430049395e-01,
          -5.1739563345142248e+00, 1.7165573588792898e-01,
          -5.5333797556773279e-01, 6.4790538574204948e-01,
          -5.0402343926149819e-02, 3.3053374243353750e-01,
          2.9519384712255470e-01, -8.5237583243770801e-02,
          4.3470029459602005e-01, 1.9230849339286239e-02,
          5.0213499831953411e-02, 1.4262633730755123e-01,
          -3.1425907813433440e-01, 9.8016161127827114e-02,
          1.3985242457373434e-01, -4.1297815783590502e-01,
          -1.3830146323000983e+01, 4.5964300885089132e-01,
          -3.5615769676328574e-01, 4.2867414311845820e-01,
          -2.1663930908578330e-01, -3.7360819285886615e-01,
          -8.0703329459687931e-02, -3.6278281706276899e-01,
          7.1351238275336992e-01, 4.2296337047348719e-02,
          3.4461178096461165e-01, -3.0262236039695370e-02,
          1.7652212001072598e-01, -1.4973167901594622e-01,
          4.5076036114839357e-01, -5.4138996848768717e-01,
          -6.3881132694854728e+00, 1.3723964554868431e-01,
          -1.9794989218685349e-01, -5.6704261011036802e-02,
          -2.2664394067271665e-01, -3.5662113640234216e-01,
          -1.5375624444315036e-01, -2.0368885428141409e-01,
          1.0029022719306858e-01, 3.5932106036065642e-01,
          6.0332772397352430e-01, -2.7398649212878984e-01,
          2.3025840638211445e-01, -7.2189846965741739e-02,
          1.6830809966370511e-01, -5.4163848804348125e-01,
          -1.0314449785717992e+01, -2.6790521615535218e-01,
          -7.7114847834126671e-02, -2.1660871481889921e-01,
          6.6780486236191539e-02, -4.1841705790661921e-01,
          -1.1568680591640057e-01, -1.1206982461810075e-01,
          -2.7569801459458554e-01, 3.6801956098719923e-01,
          1.1902321067842800e-01, -4.2764538557354165e-01,
          -3.0208745010915639e-02, -4.1831946328476022e-01,
          4.2802687901546743e-01, -2.3096824712768191e-01,
          7.4032561015792915e+00, -1.1573888888460003e-01,
          9.5076466320397762e-02, -4.2135668904840012e-01,
          -5.2718066177175060e-02, -5.0280535502038526e-01,
          -5.8970864494115283e-01, -3.3004470294475169e-01,
          -1.7854949506214024e-01, 1.5848336854307524e-01,
          -6.2214614021484871e-02, -1.5364594804151974e-01,
          -3.7933217042893980e-01, -5.6858372814821923e-02,
          1.9125459171321230e-01, 4.1537603912613810e-02,
          -3.0807160086116436e+00, 1.7763421373630292e-01,
          -2.3702395357907904e-01, 1.6267178026439344e-01,
          3.9698361008509386e-01, -9.6911266421836104e-02,
          2.4867730357691656e-01, -2.2547810398503679e-01,
          1.0008939155125152e-02, 9.2013955301196104e-02,
          -1.1598923179939065e-01, -1.6097192516124142e-01,
          -2.4804858406246458e-01, -9.3834244170613895e-02,
          5.1960424932815732e-02, -3.0599292716365711e-01,
          -5.1046592265323625e+00, 2.4748661714863521e-01,
          3.0177635032948048e-02, 9.4754632045169762e-01,
          7.3468343291410265e-01, -1.4339534170224510e-01,
          7.0139241979670581e-03, -3.3988195759524170e-01,
          1.3041302509900154e-01, 1.4861074377262948e-03,
          -3.5366410338034793e-01, 5.9648579416075605e-02,
          2.1252511299996762e-01, 1.5973028966047883e-04,
          -6.9030222543868730e-02, -2.9807065070452676e-01,
          1.7012159849381199e+00, 1.1214139741514119e-01,
          1.3029038057190367e-01, 9.6460099110311586e-05,
          -1.4293793572735553e-02, -6.8916860230855498e-02,
          3.3056558042139134e-01, -3.9020575369701832e-01,
          3.8813248022868552e-01, -3.6162447299867267e-01,
          -1.9751222713174110e-01, 9.4911002674631345e-02,
          2.4427478415431134e-01, 2.4421537422138991e-02,
          5.6189404460824255e-01, 1.3197121651639529e-01,
          -1.7378593182442494e+01, 4.4905946468598384e-02,
          -5.0736995258237279e-02, -1.6820065398950323e-01,
          1.3584712587808788e-02, 5.1498914488676284e-01,
          -2.8585062726789356e-01, -2.9419818934932129e-01,
          -4.7525177096671872e-01, -4.0099406535103121e-01,
          -6.0938761131156746e-02, 1.1331324152167005e-01,
          -2.8511673578046043e-01, 3.2009736326215360e-01,
          5.2098176379198236e-01, 3.7303737582752078e-01,
          -1.4284105264571043e+01, 2.7097927889783535e-01,
          -2.1225844720578010e-01, 3.5333788092260843e-02,
          4.9603775287846702e-01, 1.5925356420886574e-01,
          -1.9726025389121621e-01, -1.2571212079490018e-01,
          -3.2287982053470088e-01, -3.5508091768798949e-01,
          3.7105365800675605e-01, 2.6303496553780203e-01,
          -2.7690731163792326e-01, -3.6136667351754307e-03,
          5.0103429415121292e-01, 2.3011342353051570e-01,
          -1.6996747803050038e+01, -7.2808381659301896e-02,
          -2.4598709694172563e-02, -3.0651489405981042e-01,
          3.1146775113249997e-01, -1.1269615833710200e-01,
          2.9330924515286483e-01, 1.6730619368693767e-01,
          2.0049405923383251e-01, 3.6743714620676421e-01,
          4.2856287837285295e-01, 3.1707855536729224e-01,
          -3.4503854530124212e-01, 4.2854084999249509e-01,
          4.3455748226251360e-02, -1.4627679132404259e-01,
          -3.0922106989749434e+01, 1.7511829712464100e-01,
          -1.0804546131878616e-01, -2.7832252098461630e-01,
          1.2239142514421044e-02, 1.5617975673053182e-02,
          3.1295921945053928e-01, 4.2492666124621759e-01,
          1.4027921882685262e-02, 3.6558922944688371e-01,
          2.7219634740879223e-01, 3.6676727232961581e-03,
          -9.6786244460698778e-02, 3.5657808058668866e-01,
          1.1397693581751771e-01, -3.8362434173386023e-01,
          -2.2590172619403276e+01, 2.6556079853733089e-01,
          -4.2838505527626108e-01, 2.5727891771683431e-01,
          -2.1848049298766629e-03, 6.6543936226542477e-01,
          4.9002635211883566e-01, 2.8897109780293750e-01,
          3.1781537674305183e-01, 3.2956085629027160e-02,
          6.2455522805810282e-01, 4.8001757956128821e-02,
          -1.5054329039002043e-01, 6.8385125780136335e-01,
          3.1608463749800741e-01, -3.7718359988966810e-01,
          -1.6265437366561670e+01, 2.1468721528085943e-01,
          -3.0625232888088832e-01, 9.8901380284291962e-02,
          1.0529867579029259e-01, 6.3399209162037162e-01,
          2.0770884681708907e-01, 1.5068829459354008e-01,
          -7.5224220305220874e-03, -3.0958532881373307e-01,
          5.5086976690435585e-01, 3.1191778608063703e-01,
          -7.6326423391946774e-01, 7.1165994235469010e-01,
          2.5424371387749717e-01, 4.4763813379422868e-02,
          1.2060962476309767e+01, 1.2573464389993827e-01,
          -2.5167137035200149e-01, 2.3758018256899111e-01,
          2.2303054829579558e-01, 1.2509788101855490e-01,
          3.6340969627620745e-01, -2.2535364029277780e-01,
          3.7175963625333186e-01, 5.0025973589178575e-02,
          3.5795257508749539e-01, -5.3678757273292250e-02,
          3.0744248432495193e-03, 2.0707417186649188e-01,
          1.2212177673960785e-01, -2.8619733265149638e-01,
          8.5889075470914324e+00, 1.0170129881687820e-01,
          -3.3780551139758436e-01, 3.5545908646513047e-01,
          -1.3023175269544809e-01, 1.2802614931986117e-01,
          -3.6140357785636595e-01, -1.7366314735575805e-01,
          3.5029716508662750e-01, -2.0342851493609204e-01,
          4.6028918917707645e-03, -4.3142765161733557e-02,
          -3.0777040385713089e-01, 3.4232600646899342e-01,
          1.3758678808287814e-01, -1.8045036385754079e-01,
          -7.5651543822069500e-01, 2.4848767931904278e-01,
          -6.9187268893345444e-01, 6.1302082182507966e-01,
          1.0899999117613467e-01, 3.7975179258293074e-01,
          3.7794352600763037e-01, -1.2019472017946480e-01,
          4.7737375123867848e-01, 1.7342472452519853e-01,
          5.2227843467737300e-01, 8.4651801480547351e-02,
          -3.3915764473780208e-01, -5.8106402826990679e-03,
          1.5997019475752558e-01, -4.1427426020777636e-01,
          -4.3069080326665325e+00, 3.7680094886820387e-01,
          -6.4616174753800393e-01, 5.3566097872429608e-01,
          -1.7875580304126774e-02, -2.4621406195097445e-01,
          6.1492047466057430e-02, -3.1283393382011720e-01,
          6.2434259167917283e-01, 3.2717008179786605e-01,
          8.7270079260007261e-01, -1.8702305319440077e-01,
          2.5662676369981530e-01, -3.1548524351879831e-01,
          4.0571896498578530e-01, -5.3853041438421945e-01,
          -1.0514974397311386e+01, 3.6894481757243625e-01,
          -1.2200263239707181e-01, 1.0008193444556288e-01,
          7.4311995383437177e-02, -4.1732271480245181e-01,
          4.8510676728238389e-02, -1.6863271029689289e-01,
          1.6916683501252322e-01, 2.6412785574316250e-01,
          5.2174965668181650e-01, -1.7394427464052389e-01,
          2.0922488788787616e-01, -9.3866804957577321e-02,
          6.0569527946781311e-02, -4.3142528034919048e-01,
          -2.0011742189814905e+00, -1.2267443121542104e-01,
          -7.5422585547191542e-02, -4.8826117258481366e-01,
          4.1479495529971538e-01, -3.6735048323778646e-01,
          1.2437506298710063e-01, 2.0708027800496232e-02,
          -2.8686661945532699e-01, -8.6745094308223643e-03,
          -3.5586481057568592e-02, -3.8514645668372161e-01,
          -9.1966653615126057e-02, -8.8225059580863796e-02,
          3.7047097342951574e-01, 6.1902595564207862e-03,
          1.0791531530285011e+01, 4.9358432942083488e-02,
          5.1972780553992078e-02, -3.7128329626543877e-01,
          7.6068308276514751e-01, -2.9464826275054018e-01,
          -2.5962618331454868e-01, -2.7554422916786986e-01,
          -1.8511320567881631e-01, 3.6290770910746895e-01,
          -2.3267631525608132e-01, 6.1184413727036424e-02,
          1.1524676050147835e-01, -3.0549773631632186e-02,
          2.8664036600837606e-01, 1.6257504038552339e-01,
          -3.7748216004702186e+00, -8.7858034490992970e-02,
          -2.3110808669539681e-02, 2.1165158016902794e-01,
          3.7272787763944493e-01, -2.8974375945606057e-01,
          1.1789189449061416e-01, -2.6386600481843514e-01,
          -2.6641143258462674e-01, 2.3481976839679944e-01,
          -2.5808800262493742e-01, -9.8592113531545247e-02,
          1.8316296905322261e-02, 8.9679122359345668e-03,
          2.9766229674325284e-01, -2.0236468760585605e-01,
          -1.4829704311711572e+01, 9.5363499108776700e-02,
          3.8490336289624366e-01, 4.8361991756031397e-01,
          2.3301881827722887e-01, -9.8828538976798344e-02,
          1.5737912562263739e-01, -1.7951882428997226e-01,
          -8.6229080515574069e-02, -2.2332306221993731e-01,
          -8.0915544299241349e-01, 8.3881294861326269e-02,
          -2.3605192649217996e-01, 3.1588619358356351e-01,
          1.3024439808871685e-01, 8.6964358781078759e-04,
          -8.1056696933012713e+00, 2.8165921073364231e-01,
          6.1770167790138053e-01, -1.2867932623758516e-01,
          1.1603902664661607e-01, 9.2393965250891275e-02,
          1.2476655374254957e-01, -2.6735458459103356e-01,
          1.5035979985355177e-01, -5.5034021665044586e-01,
          -5.6216036443395889e-01, 2.5175514243739872e-01,
          -4.0771139140950208e-01, 3.3225674141353218e-01,
          6.3995528715244099e-01, 6.3765051158202424e-01,
          -2.5156245109705928e+01, -3.3826849985200400e-02,
          1.8236799930301065e-01, -5.8899695248314321e-01,
          5.1981398953382874e-01, 5.7938568632562926e-01,
          -2.6716830137288911e-01, -2.0746054483254014e-01,
          -6.9781718013260186e-01, -4.3409597024037799e-01,
          -6.5825640079766518e-02, 2.5776545276079832e-01,
          -2.3570530880266888e-01, 2.0600183357941798e-01,
          9.1896612927984761e-02, 5.7015090584461425e-01,
          -2.9210344368249274e+01, -5.6023781391712692e-02,
          1.3648806449269982e-01, -1.1908891371673277e-01,
          2.8848219846418677e-01, 2.0062450096140502e-01,
          -4.9742173460842959e-01, -5.9007837678184835e-02,
          -4.7816916230147255e-01, -6.1106498180813029e-01,
          2.7721670026460199e-01, 1.7287321893723040e-01,
          -4.5805218096139982e-01, 2.2235095101264207e-01,
          1.5706048754271770e-01, 2.5286545504715396e-01,
          -2.8562919299965920e+01, -5.7515748611540747e-02,
          -2.3541672600446789e-01, -4.5591983216544785e-02,
          4.0539015436754028e-01, -1.4810137370287788e-01,
          3.6927498408507542e-01, 8.1247382258882353e-02,
          5.1232742137824631e-02, 2.1894348576676653e-01,
          4.7273307282078708e-01, 8.1868016243322947e-02,
          -3.6450295279458633e-01, 2.9780302332600295e-01,
          1.1769003957462960e-01, -1.9140412088810077e-01,
          -1.6941350982049798e+01, 2.5063378985054086e-01,
          -4.5541066894437027e-01, 6.4396220691085693e-02,
          7.8897082266817589e-02, -6.4944578419269164e-02,
          5.4418849585091222e-01, 3.8579169407691444e-01,
          1.8004570872626818e-01, 3.2766110030718987e-01,
          6.5659088565323920e-01, -7.9043596155206758e-02,
          1.1398776733981786e-01, 1.7839087723460467e-01,
          3.6628458628330895e-01, -5.4233322116557259e-01,
          -6.7731524039385080e+00, 2.7991185475007330e-01,
          -5.9083350617336416e-01, 4.8345557015487250e-01,
          -1.4656633693859455e-01, 3.5607499340848553e-01,
          6.6741456992698323e-01, 9.4503156931132187e-03,
          6.5955908147368369e-01, 1.2408388367247818e-01,
          6.8677534746603697e-01, -1.1921714066911339e-01,
          2.1362443947043691e-01, 4.3806138826494578e-01,
          3.8054500721971346e-01, -8.7256664012766594e-01,
          1.5560965962943152e-01, 1.3877369789232297e-01,
          -4.6173650525694759e-01, 4.0331377378557415e-01,
          2.1113236086979209e-01, 1.7404467799156495e-01,
          3.1184788935644647e-01, -1.4281028725428135e-01,
          3.3697716133378169e-01, -4.4223712168844846e-02,
          5.9117179571774703e-01, -2.0936290047404785e-01,
          -3.1141637857999577e-01, 3.1569150032221233e-01,
          2.0635933222555533e-01, -4.2906941247270591e-01,
          5.5071100886076996e-01, 9.1252054372833083e-02,
          -3.3708747227173036e-01, 2.6775746153372221e-01,
          9.9078386850551287e-02, 2.3913707460786490e-01,
          -1.5680714460967218e-01, -1.7704097660167596e-02,
          2.8228113505678738e-02, -1.7319174059718800e-01,
          4.1268212523003989e-01, 6.4534546953242414e-02,
          -1.2287654495845127e-01, 2.8740964512916584e-01,
          1.3928715322250929e-01, -9.3685120719088619e-02,
          1.0446898595374964e+01, 1.0710756969605484e-01,
          -4.0255456520268457e-01, 3.4637373579253694e-01,
          5.6792833382866295e-02, 1.0685286598396748e-01,
          -3.5856044743770660e-01, -1.7953753127810268e-01,
          3.6536277765400887e-01, -1.5359506776618664e-01,
          4.0961693319345993e-01, -1.1150205623080407e-01,
          -3.0083344424286373e-01, 2.3088365082623177e-01,
          1.6177972653078990e-01, -9.8229341068747103e-02,
          -8.9685770763535211e-01, 2.7989562903522092e-01,
          -7.9654656922462053e-01, 6.3731811738581023e-01,
          1.4661576394137013e-01, 2.6217896877258101e-01,
          5.0114446183175898e-01, -5.0087805016105151e-02,
          6.4133547945657809e-01, 1.7509404284172320e-01,
          8.3910801187515449e-01, 1.5270550017210982e-01,
          -4.5765895057908318e-02, -1.1570223645058700e-01,
          2.1829613388166255e-01, -6.8860317477376753e-01,
          -1.0370772840370332e+01, 3.3999715083582244e-01,
          -7.7456376765711377e-01, 4.9586734028443352e-01,
          -2.8682713798618496e-02, -1.4917128300932211e-01,
          2.0173345985314212e-01, -1.5890382985699480e-01,
          5.5639870282546133e-01, 4.5521067402369786e-01,
          1.0112099885452870e+00, -2.7769183087851784e-01,
          3.1334616214392069e-01, -2.5937807588515749e-01,
          2.8277580664253682e-01, -6.4798756010923830e-01,
          -1.9510798331557343e+01, 3.5164371026440866e-01,
          -3.2898944176475753e-01, 1.1262744753012352e-01,
          1.9682553339843126e-01, -4.0957719796780251e-01,
          2.3557527920978347e-01, -1.1798544238489596e-01,
          3.6410379453644742e-01, 2.0472368301683169e-01,
          4.5569828182729721e-01, -2.6517736452512558e-01,
          3.7242039531396737e-01, 7.2189649378525808e-03,
          -4.6430404726180603e-02, -4.0213177398999633e-01,
          -1.8619229563139721e+00, 2.8920760131455814e-01,
          4.1885121378553457e-02, -4.4458157949425886e-01,
          1.3121249949733762e-02, -6.8470519045105580e-02,
          1.3940047409769044e-01, -2.7231964862606850e-01,
          -8.1900684959590991e-02, -9.3761404966212047e-02,
          -3.4484005400066148e-01, -3.4605133662246534e-01,
          6.5284798049998788e-02, -2.7862378931187683e-02,
          2.0328217304161988e-01, -8.9593337000743636e-02,
          8.8922843676789238e+00, 1.6640225447063497e-01,
          8.9059164442230318e-02, -8.7285228269118098e-01,
          1.4652094383049041e-01, -2.5168102831255612e-01,
          -9.1802745227669742e-03, -1.2393510814062646e-01,
          -6.2603253306978135e-02, 4.0372327603351860e-01,
          -3.2848316530953925e-01, -5.7251551790733379e-02,
          1.4139466213706711e-01, -2.0139823938013063e-01,
          5.5660215925604509e-02, 2.6320619485525742e-01,
          -7.9563292822153278e+00, -1.1061696468960544e-01,
          2.0947840662375142e-01, -2.0463788027042898e-01,
          -1.9829142328877164e-01, -2.0817393962557232e-01,
          2.9295939454251940e-01, -6.1605767960377374e-02,
          -2.6802162983364952e-01, 6.7604082350696781e-01,
          -1.8459692397583348e-02, 6.4809658056402306e-02,
          -1.7055966919726114e-02, -3.6826035623183506e-01,
          1.0978881939217595e-01, 1.5600976107615211e-01,
          -2.6306699678520864e+01, -1.1433556680312836e-01,
          8.0909807108969656e-01, 1.8873082429040891e-01,
          1.8996840108609783e-01, -5.0968242678934919e-02,
          1.6498954533502103e-01, 2.8497969599803030e-01,
          -5.2231955492514648e-01, 5.0836291009298132e-03,
          -7.7144480413086647e-01, 5.3405403388930073e-01,
          -2.4252390573172894e-01, 1.3810200222824506e-01,
          -2.8345446579207473e-01, 4.7917855786624053e-01,
          -4.4026744892674095e+01, 2.1912562935629307e-02,
          5.0710604288810446e-01, 8.9989521832969904e-02,
          7.1422805803812173e-01, 1.7351643987387885e-01,
          7.3390615132758602e-02, -7.4232614088049625e-02,
          -7.4754016847004257e-01, -3.6290062122297650e-01,
          -1.3821233797965862e-01, 5.0851976209668426e-01,
          -8.7728250058892066e-02, 9.3207800943069768e-02,
          -2.5010032268170052e-01, 5.1758148473250376e-01,
          -4.3196327524750458e+01, -3.6851851243663830e-01,
          4.5501995009084722e-01, -3.9839353875631450e-01,
          8.2761610366955354e-02, 5.0463585810932099e-01,
          -1.5893761279283394e-01, -3.5369247267233983e-01,
          -5.8926154904405548e-01, -5.6035107599644207e-01,
          -2.0257828648116633e-01, 1.1337333773776787e-01,
          -1.4554162403364806e-01, 1.6081061539199007e-01,
          -2.2243871286393735e-01, 4.4778878202871131e-01,
          -3.7857770838713229e+01, -4.6648055988273263e-01,
          6.4502456689860876e-02, -2.7914341691189597e-02,
          6.5889193637449453e-02, 2.3713467244452685e-01,
          -1.8480735299799808e-01, -4.0893724653217312e-01,
          -4.7985708252049913e-01, -4.3117255446377911e-01,
          2.0656024969918069e-01, 1.3793086042275177e-01,
          -3.0890950166869863e-01, 2.7881869098251222e-01,
          -7.7018725660989787e-02, 4.1290387247658149e-02,
          -2.1695702094155191e+01, 7.4516315530342700e-02,
          -5.0488129945499660e-01, 2.0305729239749923e-01,
          2.1345299717825039e-01, -2.8109181118754534e-01,
          3.9751293560218964e-01, -2.1119607864860673e-01,
          1.9525699460221899e-01, -1.2111035383992398e-01,
          8.5291057815579696e-01, -1.2130906937451218e-01,
          2.1389090437599730e-02, -1.4359735473744845e-01,
          2.3728679889074689e-01, -2.2622451724305773e-01,
          -3.0640505934113742e+00, 3.1939140469747690e-01,
          -7.7587420228812132e-01, 1.8476063052808503e-01,
          2.1714463346318272e-01, -3.6630280099569495e-01,
          5.6259231607124183e-01, 2.5742824611200826e-01,
          3.2259257451406764e-01, 2.0353633162024090e-01,
          9.1222231836983725e-01, -1.1367599629533287e-01,
          3.7165088280036979e-01, -2.5223715240094957e-01,
          4.4691824211294140e-01, -4.9502338360992021e-01,
          -1.3537218367319059e+00, 2.7057763375529842e-01,
          -6.3287131845241695e-01, 3.5283697883134679e-01,
          -1.8193015363508699e-01, 2.0689585231851995e-01,
          4.7210283914197776e-01, 2.1743999622846927e-01,
          5.9938490503488240e-01, -6.8978852464797069e-02,
          7.0780864621268591e-01, -7.4408624336747567e-02,
          3.3049472932813528e-01, 3.1525419226018381e-01,
          4.7311242376021251e-01, -7.7237236925971553e-01,
          -1.0278245134192408e+01, 1.2396837231665689e-01,
          -4.6056098003038648e-01, 3.8020706208688732e-01,
          2.3744700554435491e-01, 4.9964045230828480e-02,
          2.5672694505433323e-02, -5.6031703825534948e-02,
          4.8326097700452715e-02, -9.0278277300641536e-03,
          5.4864414579731624e-01, -1.4667739699569496e-01,
          -3.4770040996114926e-01, 3.1210004637032673e-01,
          2.2340652863022242e-01, -4.8311960531851827e-01,
          -1.7621789376000503e+01, 6.5049034141442127e-02,
          -2.7497055695670969e-01, 2.1716688881650933e-01,
          -9.6770906002847490e-02, 1.7962217332277902e-01,
          -1.8751516873053370e-01, 1.6663332110665571e-01,
          -7.4975362721971861e-02, -4.7535665597575702e-02,
          3.3586486630000917e-01, 3.9796932929626029e-02,
          -2.2698583563690319e-01, 2.1062521746685620e-01,
          1.0790315625100735e-01, -1.2164107636964018e-01,
          1.0180613481879696e+01, 1.5885142198598406e-01,
          -4.2703805711576631e-01, 2.5102596128386429e-01,
          -1.1736851304474694e-01, 1.7743931433899524e-01,
          3.6217551369573296e-02, -6.5060386937875386e-02,
          6.3599332369407791e-01, 9.8044134829350944e-03,
          5.4109318314765176e-01, -1.7533855419134700e-01,
          -2.6735385239788073e-01, 1.6502104728929079e-01,
          1.8017748304156189e-01, -1.4869631981787690e-01,
          2.3550211637372480e+00, 2.5214013936881235e-01,
          -8.1561301228053407e-01, 8.0012684467579098e-01,
          1.9551762700378955e-01, 2.5928366713703993e-01,
          8.0594642658759641e-01, -3.5388642311597211e-02,
          8.6770562530781414e-01, 4.6585627698046478e-01,
          8.7734295679761287e-01, -2.0793561869744858e-02,
          7.2886834770343398e-02, -2.7484630320263276e-01,
          2.9566149404949194e-01, -7.6974350971170702e-01,
          -8.5384385940932450e+00, 3.9307299196618223e-01,
          -8.1598785491477110e-01, 4.9655787155250047e-01,
          -1.5017352225329755e-01, -1.5649209315264259e-01,
          7.1421006384681562e-01, -1.3022040785634148e-01,
          6.8710616897601262e-01, 5.6607381873746121e-01,
          9.0503376640802313e-01, -3.4975735232302307e-01,
          3.7349089544413072e-01, -1.6040378343609230e-01,
          3.0865391285293226e-01, -6.7116328754462162e-01,
          -1.9145675405021727e+01, 3.4270715326267764e-01,
          -1.6603586503477355e-01, 6.0239987245562211e-02,
          1.3877628171890355e-01, -4.3000490588975349e-01,
          4.1563056100450513e-01, -1.1595792959088959e-01,
          4.1069818384440654e-01, 7.1253796382270515e-02,
          2.3183892852150040e-01, -1.4546724484129986e-01,
          1.8767316758648267e-01, -1.0061282880754265e-01,
          -5.3478071936726150e-02, -2.9519817800898862e-01,
          -3.6281256583073143e+00, 2.5992829138186796e-01,
          3.9636264944952884e-02, -5.9178116309375983e-01,
          -2.8722520891777964e-01, -1.8549846951295157e-01,
          4.7588688000641904e-01, -1.7828354591220405e-01,
          2.3860928976269943e-01, -1.6024425415173627e-01,
          -4.5302530447121842e-01, 7.1759991214661867e-03,
          -2.4597853835352218e-01, -1.2744317321581952e-01,
          2.1344565699844575e-01, -1.1146254485922438e-01,
          -1.0328732754114309e+00, 3.1442132955749608e-01,
          1.9675244744837680e-01, -9.3797121940539174e-01,
          -6.6059956203168946e-01, -2.0051195719992396e-01,
          -2.4599555838596840e-02, 4.9070649554431446e-02,
          -2.6300124011531778e-01, 1.0789426659654787e-01,
          -6.4215053057398053e-01, -1.4335256340981281e-01,
          -2.9118976801443902e-02, 1.6999116105779200e-02,
          2.2594980330012715e-01, 1.8486464910661157e-01,
          -2.0017794870101646e+01, -2.0447062109785488e-01,
          7.2951857114051588e-01, -4.4974296921501250e-01,
          3.7067133188596064e-02, -2.0291960167622236e-01,
          -3.0581535469962878e-01, 5.0148282248051268e-01,
          -7.8413616136836073e-01, 2.6981329638472107e-01,
          -7.9272025293799453e-01, 3.1143502422433034e-01,
          -7.9144981470495465e-02, -3.8149143909020511e-01,
          -2.1524960815323793e-01, 4.5755934099162071e-01,
          -3.0802162449914896e+01, -2.6896426715390559e-01,
          6.1412980339955026e-01, -1.0266445464511924e-01,
          5.9308144737524861e-02, -1.6742631716875003e-01,
          -2.8706849209847773e-01, 3.7502345452220698e-01,
          -6.2407935225297217e-01, -8.0874172659771398e-02,
          -7.0697969301142860e-01, 5.9137035351952616e-01,
          -2.7361850300167634e-01, -4.6560057534574306e-01,
          -5.7766450260708679e-01, 3.7552935083595074e-01,
          -3.5589082119233318e+01, -1.5884697898954167e-01,
          8.0322330379370055e-01, -4.6862520738357970e-02,
          -1.9919483671632227e-01, -1.0776660307583594e-01,
          -5.9177865562379958e-02, 3.0334599858457163e-02,
          -2.7817108072049007e-01, -2.7002322928069727e-01,
          -4.3560969075351474e-01, 2.3351436416445856e-01,
          4.4325654545971553e-03, -3.3016376861261082e-01,
          -3.1266288878332960e-01, 3.9149785823493252e-02,
          -3.1940774534976875e+01, -4.7229374256483664e-01,
          3.9414522449536010e-01, -2.0632995176937638e-01,
          -3.7474996912993042e-01, -2.2586567840894890e-03,
          3.3339757016421312e-01, -4.4194111391122004e-01,
          1.8539875387771909e-01, 5.0909933795637075e-02,
          -3.2351071144337140e-01, -2.7264095573882419e-01,
          2.5106516869659135e-01, 1.3492669581846883e-01,
          -1.9282589128519365e-01, 3.0281750979133486e-02,
          -3.0359205068629102e+01, -1.4972321702309604e-01,
          -1.0711819815178251e-01, 2.7547941536515214e-02,
          -7.8485453157747387e-01, 3.4171746848180351e-01,
          4.0217511531679084e-01, -4.8063682007002689e-01,
          1.8879802388675937e-01, -2.1192567151859537e-01,
          4.0775449128836960e-02, -3.7180409517683211e-01,
          3.3393982445061959e-01, 1.0429611398620468e-01,
          3.5334092274381129e-01, -1.3351838988909254e-03,
          -2.0346862817208919e+01, 2.3054020565363037e-01,
          -3.7169683700055683e-01, 4.9669167903177108e-01,
          6.9236560054102517e-02, -4.2831301375486563e-01,
          2.9941931393300769e-01, -1.8299816358503429e-01,
          2.5252851155806749e-01, -1.1919691453461957e-01,
          6.5102230069489830e-01, -3.7083913797921814e-01,
          2.5992235490728807e-02, -1.8197180710214117e-01,
          5.2166308937606076e-01, -3.9403146845058544e-02,
          -3.4216059999962689e+00, 1.9261445394959698e-01,
          -7.7690340975559857e-01, 3.8176623695157380e-01,
          8.0104951288939588e-02, -3.9059819173396082e-01,
          2.8925621527176459e-01, -2.1455063415149753e-01,
          1.3200395680286839e-01, 2.8691514636168075e-01,
          8.1230895785200841e-01, -9.4963142925595545e-02,
          3.1534835373793252e-01, -6.8299911007517566e-01,
          5.6213010704348365e-01, -4.6979631574608782e-01,
          -6.4080028449123043e+00, 2.0783264478414074e-01,
          -5.8448796805642234e-01, 2.6198336854822313e-01,
          -8.3220329614379043e-02, 1.0642514405651717e-01,
          5.5491332304273733e-01, 2.4118439638676459e-01,
          6.1907581395159517e-01, -1.9229696114480370e-03,
          6.2760081086884900e-01, -6.8787021791071934e-02,
          3.5530746452312145e-01, 1.0017049811966529e-01,
          4.4377670694469634e-01, -7.7672738244280526e-01,
          -1.3272464335472677e+01, 1.2157579342458474e-01,
          -4.2050131436971955e-01, 1.8719195819727152e-01,
          -2.3280864067100619e-02, -7.9585370972166183e-03,
          5.5869128787630149e-03, 2.1590498616427467e-01,
          4.6646451730124827e-02, 1.1902628760782506e-01,
          5.0733634807079975e-01, -2.0906003347035446e-01,
          -1.3010676318388109e-01, -6.8742631079295513e-02,
          2.3018635350503677e-01, -4.2210376488438778e-01,
          -2.1984750262507220e+01, 2.9635969227795836e-02,
          -2.2677575589136476e-01, 1.9434367902992836e-01,
          -2.6088328221661339e-01, 1.4418398592369611e-02,
          -1.4215036384523655e-01, 1.7061222719101471e-01,
          -7.5978442100634078e-02, 1.2307755060113164e-01,
          2.8119297807648513e-01, 5.1284627352211988e-02,
          -2.1994474576927084e-01, 8.8587597281841957e-02,
          8.1941132858972462e-02, 1.1283729138572863e-02,
          4.6576355703281385e+00, 1.7782765568065109e-01,
          -4.1633245259807317e-01, 2.6645098783039728e-01,
          -1.6232784836574105e-01, 2.7266488824708479e-01,
          2.1539234640427707e-01, 1.0300512854106955e-02,
          6.7017636924668011e-01, 1.1849224571679688e-01,
          6.0252751703305496e-01, -1.5461762529121309e-01,
          -1.2337033489209261e-01, -4.1266000622282729e-02,
          1.9516127791151014e-01, -1.4761868458062077e-01,
          -3.4342616818512224e+00, 2.3449549091218450e-01,
          -7.4925705800708697e-01, 8.2064307678011417e-01,
          -1.7373023503501625e-01, 2.5605249915792355e-01,
          7.2924482361540455e-01, 2.6923433742208278e-02,
          8.1350396583357021e-01, 4.8446236779956470e-01,
          6.8266653143667777e-01, 1.2453111027854312e-01,
          6.5525822514104437e-02, -3.0817207362437621e-01,
          2.6221803392481441e-01, -7.1980467545049198e-01,
          -9.1655903024612861e+00, 2.2558942089536754e-01,
          -8.2468620121935099e-01, 5.0445080713424340e-01,
          5.2814945855859004e-03, -2.1413104571464328e-01,
          5.7330752208993463e-01, -1.3276865235230534e-01,
          6.0089124008737205e-01, 3.6477726886202566e-01,
          7.0224176551079753e-01, -7.4673118051699044e-02,
          2.0777566669818237e-01, -1.5697208260507781e-01,
          3.3192611509246095e-01, -5.8656418868926175e-01,
          -1.8604688032441960e+01, 3.1059401913886336e-01,
          -1.9203703989515947e-01, -4.6115647850310915e-02,
          3.5167446100724753e-01, -3.3770733509151274e-01,
          3.0077433664896824e-01, -1.3619186028854968e-01,
          2.1288602587366756e-01, 1.5218085859040412e-01,
          3.5024804991576236e-01, -1.2377639337304824e-02,
          8.4541783498064231e-03, 3.1237345110308373e-02,
          -2.2281028028820982e-02, -3.4382076468378153e-01,
          -1.4620116520537531e+01, 6.3145980907964083e-02,
          2.3156758284681769e-01, -6.2305010133099159e-01,
          6.5269207699869963e-03, 4.7888333362460712e-02,
          2.2632784909758788e-01, -2.8921953102917247e-01,
          1.6578125142470210e-01, 8.3429328463036342e-02,
          -6.4520750778809299e-01, -8.3608846403160023e-03,
          -4.4543795411536169e-01, -1.9693064859723462e-02,
          3.3935598605555124e-02, -1.1107580879962602e-01,
          -2.5506072731851454e+01, 1.0730340196004376e-02,
          1.4801488986804151e-01, -3.8327906805182427e-01,
          -3.1991206360697760e-01, -5.9245539739378662e-02,
          -4.8845220798564165e-01, -2.5963011008014159e-01,
          -3.6658097232340742e-01, 2.9138704870189286e-01,
          -1.0018033027946101e+00, -2.6234871047739167e-01,
          -5.3003999195312734e-01, 8.5393695927889673e-02,
          -1.2292242672518741e-01, 3.9729288470137833e-02,
          -2.5997909303406264e+01, 1.0839103583677714e-01,
          8.0326406794943761e-01, -4.7527963266335560e-01,
          -6.6719910730200852e-02, 2.8678813404569814e-01,
          -4.0820073314889138e-01, 2.6293982287607237e-01,
          -3.7085536626293814e-01, 1.9099991148142031e-01,
          -1.5474308015833231e+00, -4.8280556837196287e-02,
          -8.0607634297845421e-01, -3.1913259227324015e-01,
          -1.0385265132818362e-01, 2.0427488287324366e-01,
          -3.0346300706428821e+01, -7.3031857093074096e-02,
          6.7610520090735216e-01, -3.2800630686823908e-02,
          2.3717586229509269e-01, 4.3667254335690181e-01,
          -5.1033347701353504e-01, 1.7461554679115621e-01,
          -4.5746064477479159e-01, 3.5351358164347263e-01,
          -1.1886240232610537e+00, 1.3843857951355196e-01,
          -6.8897828573696940e-01, -3.8579026178737613e-01,
          -3.7930044545039182e-01, 2.2497096878893852e-01,
          -1.5094314585444529e+01, -8.5789401695098244e-02,
          5.0526783167677658e-01, 4.6350320301616760e-01,
          -3.2212410134125341e-01, -2.3008695192409365e-01,
          -2.8756233892673616e-01, -3.6879798998826330e-01,
          4.9611192472273785e-01, 3.3474927739335841e-01,
          -5.4224832286081259e-01, -4.6928944619628110e-01,
          -5.7144386448611040e-01, -5.1111305333719748e-01,
          4.9577473214213125e-01, -1.2923024002591316e-01,
          -1.0046807954684997e+01, -3.9791979269686051e-01,
          -6.0623776681949335e-02, -7.4661358442547246e-02,
          -4.6167367469305909e-01, 3.1918204105703413e-01,
          4.5433190601536683e-01, -4.3518108444964743e-01,
          8.1186083228083616e-01, 4.6732543221581874e-01,
          -3.5253644953856594e-01, -7.5020624605925645e-01,
          2.6230606661548726e-03, -1.9664837135505226e-02,
          2.4846742874821046e-01, -1.5287954032454062e-01,
          -1.7993982817923673e+01, -4.1319054522526477e-01,
          -2.9533597382707844e-01, -1.3050070195168334e-01,
          -4.9905352487218363e-01, 2.0203064373959037e-01,
          2.9622057005089480e-01, -3.6811069561374699e-01,
          7.8301268086017106e-01, 4.2557588370627591e-02,
          -2.0593765306553791e-01, -4.3616514555244251e-01,
          4.4436934902605396e-01, 2.3659771792122805e-01,
          2.5071481690485903e-01, 1.0345667135354049e-01,
          -7.9439894279056089e+00, -9.6350547251084703e-02,
          -5.4165932343809153e-01, 4.6377649277081823e-01,
          -2.6469361662195590e-01, -3.0717876157746732e-01,
          2.3936419760400005e-01, 6.4425581815714422e-02,
          3.2891124872782240e-01, -8.2045563068074666e-03,
          5.9445225629354548e-01, -4.8304476864131318e-01,
          1.8532983361728175e-01, -3.6526954104662518e-01,
          5.5322788517358057e-01, -2.9403399186474641e-02,
          8.9212052214001747e-01, -9.8108489455927331e-02,
          -7.7456078882282342e-01, 6.6778076744305426e-01,
          6.5001710653299294e-02, -3.5657720654653485e-01,
          2.7182051878924479e-01, -1.7262210616580456e-01,
          2.4026401993479649e-01, 4.4137144673322343e-01,
          9.0210348629709958e-01, -1.6395794350109683e-01,
          -1.3880764325163745e-03, -4.8181060985969815e-01,
          3.6448355105891944e-01, -2.9630589732451595e-01,
          -5.8976795436444682e+00, 1.2795524934567920e-01,
          -6.1743284843818103e-01, 5.9740019943788369e-01,
          1.8836042708709377e-02, -1.2712136293786544e-01,
          4.7656694502355379e-01, 1.2459779592524085e-01,
          5.7832560912824726e-01, 2.1153991610716827e-01,
          6.0063677795538328e-01, -1.0860713860750278e-01,
          2.9222311167081588e-01, 2.8744189944042813e-02,
          6.1114079008138411e-01, -7.3997915019463789e-01,
          -6.1517062133108267e+00, 1.6345940367634362e-01,
          -3.7743032885355599e-01, 2.7836790372465784e-02,
          -2.4145242758972746e-01, -7.3236262005686253e-02,
          1.6802559718695909e-01, 4.3535548686690445e-01,
          5.7166246739119859e-02, 1.1674892536137707e-01,
          4.1867028278254109e-01, -7.0534408849045908e-03,
          1.1448606982284407e-01, -8.5865900771714881e-02,
          4.3636991534034181e-01, -3.3991746415983692e-01,
          -2.6881635143257292e+01, 9.1752237039998533e-02,
          -3.0599883106941278e-01, 3.0688750992254771e-01,
          -2.6587950246273726e-02, 3.6781569458710819e-02,
          1.0810729064543359e-01, 2.3970737659535257e-01,
          -9.9218723039074141e-02, 4.9375037774087686e-02,
          3.7340103352060244e-01, 7.5111703276200217e-02,
          -1.9398214227299310e-01, -3.2954259098362987e-01,
          1.5496587025372455e-01, 2.2375161045444809e-02,
          -5.1062503829110630e+00, 1.6506230094992477e-01,
          -3.9286319504765060e-01, 3.4548954383334424e-01,
          -5.0397867395375728e-01, 2.0793638285963864e-01,
          -1.5313933991322454e-01, 1.3423354822742414e-01,
          2.2157977604307916e-01, 3.4002137678271926e-02,
          1.4063321118606892e-01, -2.3315351355952439e-02,
          -1.9838254263453506e-01, -1.6313524981189961e-01,
          1.5695724606459430e-01, -4.4800306986761657e-01,
          -5.8630114990990068e+00, 1.3791243355011176e-01,
          -8.1243868503594341e-01, 7.7556529990521184e-01,
          -2.5639780922823091e-01, 2.3901223439866695e-01,
          4.2647378881524511e-01, 1.1224172322236155e-01,
          5.7072868464426296e-01, 3.6133618971534615e-01,
          4.9692062610442816e-01, 2.5267617340597104e-01,
          -2.9738918306736580e-02, -3.4325725611765817e-01,
          2.6461309068060795e-01, -6.3865962045771107e-01,
          -4.7961289234449191e+00, 3.2996590776996620e-01,
          -6.7509053018899390e-01, 1.0343979141896331e-01,
          1.7748558465536059e-02, -2.6318150305924631e-01,
          3.1150628369750444e-01, -1.3939258492501821e-01,
          5.8855944137768390e-01, 1.8101837864399334e-01,
          7.9384859185475354e-01, 1.2018027688197420e-01,
          1.3086396411753001e-01, -1.9836549342007795e-01,
          3.3548969256004230e-01, -5.2253352758938720e-01,
          -1.6141862057994270e+01, 2.1167190229378555e-01,
          -3.5334769421442297e-01, -3.8113936539754695e-01,
          3.4383820951510313e-01, -3.5846724373788608e-01,
          3.6461355682579544e-01, -3.7009576347047504e-02,
          2.4410306677651936e-01, 2.3569309085201173e-01,
          3.3789603567155180e-01, 2.2377941732368727e-02,
          1.1830420637068513e-01, 1.7797061273859305e-01,
          6.9763728014682516e-02, -2.3875121930198676e-01,
          -2.8362328616986364e+01, 2.0235899471370428e-01,
          1.7122711535339197e-01, -7.0013035349629205e-01,
          6.4654386929053648e-02, 2.6663317732387398e-01,
          2.3767180928088494e-02, -1.0929333848908807e-02,
          -6.4317297894195394e-02, 2.3559858513016524e-01,
          -7.4338443150808153e-01, 2.2082476873767870e-01,
          -2.4542490465454597e-01, 3.1637189028186230e-01,
          8.4706803014728202e-02, -1.5816730989329109e-01,
          -2.4751220550515704e+01, 1.5047170809836904e-01,
          -1.3967198666119410e-02, -9.1086477669538493e-02,
          2.1018546001010753e-02, 2.7482486096401021e-01,
          -6.3509966367662640e-01, -1.6187026448526796e-02,
          -4.7978047423423698e-01, 4.7222944233460923e-01,
          -1.0129420851566568e+00, 5.3069842424820423e-05,
          -7.7531573109430163e-01, 4.1415028730430359e-01,
          -5.5739558773929719e-03, 1.6107160117191152e-01,
          -1.4145784303755860e+01, 1.6518107060433884e-01,
          6.1727600566214313e-01, -1.2091695697115488e-01,
          -1.3020828465206424e-01, 4.8134878567967909e-01,
          -3.9664929922744024e-01, 2.5174022871814267e-01,
          -5.2491778892888474e-01, 2.8777088917833510e-01,
          -9.6731569244254723e-01, -2.8399912845247233e-01,
          -5.4574940170288744e-01, 6.0089433176089324e-01,
          1.3297562419229725e-01, 2.0591039949984777e-01,
          -7.2308904933086460e+00, 1.1819379059775514e-01,
          1.6578837859593343e-01, -2.4645410235597798e-01,
          -2.5621266560069278e-01, 3.6755916121235155e-01,
          -1.8146913938389486e-01, 4.0349960321910994e-01,
          -5.4276122419668371e-01, 7.5536586682377593e-01,
          -7.8765197306421364e-01, -2.7827989252923968e-01,
          -6.1990326642308125e-01, 3.4138448872755489e-01,
          7.9585863809181007e-02, 5.4855627812106025e-02,
          -3.0663265353246136e+00, -1.6281567580061454e-01,
          -1.2179779766586735e-02, 1.2681331933669374e-01,
          -9.1069467292138537e-02, 1.9624355938441262e-01,
          -5.7228691298002377e-01, -2.8147624074504918e-01,
          4.9579526022747067e-02, 5.3989980600995269e-01,
          -3.6237224431231096e-01, -8.4647369379655477e-03,
          -3.1612531179327741e-01, -4.9725626022526881e-01,
          4.1609413825644626e-01, -1.0140206032741753e-01,
          -3.0776132477902371e+00, -1.8724842039181400e-03,
          -2.8753907463396250e-01, 1.2063104875738431e-01,
          -2.8602851534045703e-01, 3.4040394121916773e-01,
          3.3894135707557610e-01, -2.9464740371396120e-01,
          3.0041798377573342e-01, 2.0426858265074838e-01,
          4.5914570014644315e-02, -2.2529317756024722e-01,
          1.2690415751486889e-01, -4.4008796148036644e-01,
          6.5887641490176529e-01, -6.3991019987973227e-02,
          -5.6053595552274693e+00, -1.0916964093706395e-01,
          -7.8072453094149591e-02, -2.1687380346375026e-01,
          -1.0635437838798802e-02, 2.8652523304466998e-01,
          2.7960119030585795e-01, -5.5472498966432311e-02,
          2.6438334189115720e-01, -1.8117880164533623e-01,
          -4.4649074100010185e-02, 6.7456940602749205e-03,
          4.4315064279168015e-01, 2.1390040864565377e-01,
          4.0709807278695437e-01, 1.6462748474993419e-01,
          7.4514046292613303e+00, -6.4354353227142988e-02,
          -3.4471267099163505e-01, -1.0998656403962501e-01,
          -1.8569082655741356e-01, 6.1804645523608655e-02,
          4.8869939387723840e-02, 4.7104939639291532e-01,
          2.0058490387476963e-01, -3.9170313377883503e-01,
          2.6789297746017415e-01, -5.2823472299398655e-01,
          4.0501414631834751e-02, 2.2690141061779603e-01,
          3.5077515640533713e-01, 3.5015200557426907e-01,
          3.3389675678895614e-01, 7.6005289589588187e-02,
          -8.2694622546280105e-01, 3.7410057444074279e-01,
          2.2192258503616416e-01, -2.3941019870497976e-01,
          -4.4424292748255198e-02, 1.7060181346084755e-01,
          1.0728201448003953e-01, -5.1848975594684869e-02,
          9.0790979147146378e-01, -6.4280689460826740e-02,
          -1.3474282309323349e-01, 3.6160312295828712e-01,
          4.1499384076004175e-01, -7.2387531899583135e-02,
          5.6974424563311823e+00, -1.1305691789175070e-02,
          -5.9377164178435948e-01, 2.3733224439957148e-01,
          1.7996428335230799e-01, 4.1434741502085898e-02,
          -1.1212601667437916e-01, 3.0058523210092708e-01,
          2.4273634189646032e-01, -2.1278321586039159e-01,
          5.6355445105909219e-01, -1.9349900630131801e-02,
          6.0473042602894531e-03, 4.0316321150752166e-01,
          5.1094775028891393e-01, -2.4529600387537018e-01,
          -1.8933132055204618e+00, 1.8952195119927065e-01,
          -3.9415918357205770e-01, -3.4972222559404686e-01,
          -9.7767959903715465e-02, -8.6121085011125434e-02,
          2.3020979178498943e-01, 5.1113676040312173e-01,
          2.7814772831306820e-02, 7.8231525292752443e-02,
          4.3182958277989048e-01, -2.6300680988576804e-02,
          2.3227031140659542e-02, -3.7306434416725723e-02,
          5.3380645063534493e-01, -1.1611291393448760e-01,
          -8.1145025881020967e+00, 1.4276831484011510e-01,
          -4.1473975026715182e-01, 6.3887219517132471e-02,
          -1.6619169753447054e-02, -4.6003409354229294e-02,
          3.2825906058088150e-01, 3.8144247850035329e-01,
          -2.3342031865959911e-02, -4.8893909714251681e-03,
          4.0701762914974837e-01, -1.2315925981740354e-01,
          -1.3836087660594285e-01, -3.2085253386533624e-01,
          2.6445574522759668e-01, 1.3746166806736805e-02,
          -5.4722289697691595e+00, 1.6984842055390648e-01,
          -5.0829967395055309e-01, 2.9753353169825814e-01,
          -5.1012498879825917e-02, 1.6914146228771521e-01,
          -1.4875475533967498e-02, 6.5459116384326846e-02,
          -1.8550398311789909e-02, -1.4355757599608340e-01,
          -2.1540408785083925e-01, 4.4262367839662579e-02,
          -2.6707343708233372e-01, -3.7490549400367973e-02,
          2.2840489983525122e-01, -7.9148266568348613e-02,
          -5.6253485669874326e-01, 2.0179359453645901e-01,
          -8.3389546795004632e-01, 3.2535655484172404e-01,
          -4.6690470825111199e-02, 1.7723168485862340e-01,
          3.6006531819836451e-01, 1.9184856018394611e-01,
          5.7494993997245558e-01, 3.0557013034643526e-01,
          3.8466845299731378e-01, 3.1258657366247350e-01,
          7.7055778778956904e-02, -2.5112904379476497e-01,
          2.7279107182793161e-01, -3.8567174546215621e-01,
          -4.1989711546847905e+00, 3.4207063594850218e-01,
          -5.9611579820902449e-01, -2.7443609350131054e-01,
          2.6432277461138914e-01, -1.8805976655461426e-01,
          2.5629313761854272e-01, -6.6699476853016693e-02,
          5.9374800457857257e-01, 1.5790525114117090e-01,
          8.2572821296454568e-01, 1.9349854239234165e-01,
          2.9669970113474747e-01, -1.5670700310751257e-01,
          4.0622225930474332e-01, -3.5742820796508012e-01,
          -2.7213626730870790e+00, 2.2405523223489496e-01,
          -1.0190610801573100e-01, -3.6815167506644286e-01,
          4.2322227862320400e-01, -1.5010386315657587e-01,
          1.7825746844768722e-01, 6.8553505036624109e-03,
          3.8390619256769049e-01, 1.6239610300324997e-01,
          4.1141503956754116e-01, 1.6162952110978712e-01,
          -3.8711193749532809e-02, 4.6515960759664532e-01,
          1.6406590634208135e-01, -1.7905835037462886e-01,
          -2.4186719762078994e+01, 3.3359804607451632e-01,
          2.9834358172303704e-01, -6.3297238481980178e-01,
          -4.3395220078114305e-03, 5.9462221574171170e-01,
          6.7256926069554704e-02, 1.1047100750036308e-01,
          -1.4978038120710685e-01, -7.9499933676921604e-03,
          -9.6744672551196431e-01, 5.7374337908116890e-01,
          -3.8527630525002610e-01, 5.9095112296047747e-01,
          3.3053544333753487e-02, -9.8807335642391914e-02,
          -1.6778486451505586e+01, 1.5691406210002659e-01,
          7.5110301247008446e-02, 1.7834561857869194e-01,
          3.6632601130037162e-01, 4.9843102257241034e-01,
          -8.8636417575546655e-01, 6.4954903941358916e-02,
          -8.9077204459426629e-01, 1.3569452913371324e-01,
          -8.0903011715064099e-01, 2.0714946448774804e-01,
          -4.6162473157368122e-01, 1.5734661388349150e-01,
          5.3407194230648554e-02, 2.9468253655945425e-04,
          -1.7175598335895206e+00, -1.3809613046918848e-01,
          7.5509591076919491e-01, -2.7216882766027600e-01,
          -6.0050700063663573e-02, 2.8851525189284372e-01,
          -5.7569350918465589e-01, 2.4113523534715722e-01,
          -7.3591878377496567e-01, 1.1315404815466762e-01,
          -1.4087947845798718e+00, -1.7610821549234149e-01,
          -2.2939708051968680e-01, 4.0804711472827759e-01,
          2.2994705475198821e-01, 4.2550420744049722e-01,
          1.3150599327349678e+01, 5.7310912593095495e-02,
          2.4452975791059350e-01, -7.9949983395508753e-02,
          -1.7366460595462063e-01, -8.7565224344132372e-02,
          -1.3296152785564824e-01, 5.4066405180805066e-01,
          -2.8367218048587062e-01, -1.2348567566961207e-02,
          -9.9060463052463799e-01, 5.0170559547724987e-02,
          -2.6253492068140632e-02, 2.2126327626128992e-01,
          1.1631263931845606e-01, 1.9136839385140569e-01,
          8.8224365316060620e+00, 8.7988379499573957e-02,
          1.8487862090802487e-01, 4.8675596206823368e-01,
          4.2004404388435163e-01, 9.8362021719628767e-02,
          -5.3367389021883727e-01, 2.1352611240864591e-01,
          -3.2375756440434850e-01, 3.4966270306365684e-02,
          -9.3160886899269924e-01, -5.5201536850055001e-02,
          -4.1719764752336215e-03, -5.2184181073014135e-01,
