%YAML:1.0
my_nn: !!opencv-ml-ann-mlp
   layer_sizes: !!opencv-matrix
      rows: 1
      cols: 3
      dt: i
      data: [ 256, 16, 33 ]
   activation_function: SIGMOID_SYM
   f_param1: 1.
   f_param2: 1.
   min_val: -9.4999999999999996e-01
   max_val: 9.4999999999999996e-01
   min_val1: -9.7999999999999998e-01
   max_val1: 9.7999999999999998e-01
   training_params:
      train_method: BACKPROP
      dw_scale: 1.0000000000000001e-01
      moment_scale: 1.0000000000000001e-01
      term_criteria: { epsilon:2.0000000000000000e-03, iterations:2000 }
   input_scale: [ 1.9803607501982949e-02, -2.2935052938234005e-01,
       1.4074691687274144e-02, -3.4087143930117070e-01,
       1.4053969013169958e-02, -3.4801140768862104e-01,
       1.5718879903134527e-02, -3.4748548885866765e-01,
       1.3067881062112064e-02, -4.1245499602291202e-01,
       1.1022371775756828e-02, -5.1846481240216180e-01,
       9.5008087434473986e-03, -6.6446281149485242e-01,
       9.3041677273059589e-03, -7.2316643660485558e-01,
       9.5736981983082121e-03, -7.2119865240130543e-01,
       9.3894812206897563e-03, -6.4200577846466211e-01,
       1.0323976893622744e-02, -5.8136894882213075e-01,
       1.2697760231376778e-02, -4.3823144998539110e-01,
       1.4093215829062682e-02, -4.1213848040115181e-01,
       1.7356305489730436e-02, -3.1588475991309389e-01,
       1.8828194821635481e-02, -2.5076801978065755e-01,
       4.1865084359711792e-02, -1.2795016407436915e-01,
       1.7014642351923449e-02, -2.7021378885148428e-01,
       1.2350051674849392e-02, -3.8794599823620657e-01,
       1.3141145929184197e-02, -4.1484955055193362e-01,
       1.2230725492526087e-02, -4.6591419923091565e-01,
       1.0844434965080302e-02, -5.4635618908445194e-01,
       9.7657548238624953e-03, -6.2311619373007632e-01,
       8.9012951843617221e-03, -7.7535844365280826e-01,
       8.8234530265069670e-03, -9.3214266566904536e-01,
       8.7167561743850628e-03, -9.0817703391874371e-01,
       9.0024867881187721e-03, -8.0009601329405589e-01,
       9.1891078246331900e-03, -6.8522028409811608e-01,
       1.0124777812412196e-02, -6.3172285563319341e-01,
       1.0731808144711811e-02, -5.2954765814062343e-01,
       1.4014605732256222e-02, -3.9976662851260869e-01,
       1.7258308063255921e-02, -2.6912174136139705e-01,
       2.5068365655428651e-02, -1.7312840030780413e-01,
       2.0504997649828726e-02, -2.6233581368249625e-01,
       1.2664285570476828e-02, -3.9283030803922814e-01,
       1.2988689669117337e-02, -4.1141674526929167e-01,
       1.1004450343266222e-02, -5.1851594461177530e-01,
       1.0518171820634983e-02, -6.1807407161006322e-01,
       9.9539474535428035e-03, -6.8116106668025100e-01,
       9.1847396768998633e-03, -7.1640969479818939e-01,
       8.7509422682732155e-03, -8.0749319780491102e-01,
       9.1293121226317230e-03, -8.2922683173879264e-01,
       9.2903618475397402e-03, -7.4224184685687811e-01,
       9.5814633599550034e-03, -6.3387368540702316e-01,
       9.4644741072254061e-03, -6.3204941147314664e-01,
       1.0352402321087726e-02, -5.5126542359792141e-01,
       1.6853973518732041e-02, -3.6762729737734268e-01,
       2.0510779144597879e-02, -2.7779286503964751e-01,
       4.0895083299573330e-02, -1.5667928789149033e-01,
       1.5459050916258743e-02, -3.0666892255128281e-01,
       1.2264578806992433e-02, -4.1891201987633531e-01,
       1.0842585295918783e-02, -5.3142221181621940e-01,
       9.5498472399255189e-03, -6.1596514697519600e-01,
       9.4571940023074307e-03, -6.9841377707040375e-01,
       9.0137568778645670e-03, -7.3766332849224159e-01,
       8.8649491324348222e-03, -7.9928597615315455e-01,
       8.8713142755152720e-03, -9.1047407323897667e-01,
       8.8296413028597850e-03, -8.3710518076925056e-01,
       8.6999415295207026e-03, -8.1126954762780557e-01,
       8.9613488530527700e-03, -7.6429104030473805e-01,
       9.5751683225359947e-03, -6.7283510906420119e-01,
       1.0149800748047453e-02, -5.7181439964312331e-01,
       1.3245400227536818e-02, -4.3353850619756451e-01,
       1.5534678260313427e-02, -3.2651951868396284e-01,
       1.7797066298105426e-02, -2.5683391301453395e-01,
       2.1259239360684780e-02, -2.2920117435738277e-01,
       1.3341233682869661e-02, -3.8222634501421576e-01,
       1.1934511081301027e-02, -4.8506328476062860e-01,
       9.9494515742183168e-03, -5.8465464813000390e-01,
       9.6332330246326012e-03, -6.5788960787600270e-01,
       9.1143846183603001e-03, -7.4532880216641362e-01,
       9.1378034477964856e-03, -7.9378956325577099e-01,
       8.9508521001247440e-03, -8.2118473736081954e-01,
       9.0216547056736623e-03, -7.7783579165480110e-01,
       9.0035218649273472e-03, -8.2112119408137407e-01,
       8.9242999356641869e-03, -7.3017506536112409e-01,
       9.7873684065646824e-03, -6.0069973595290738e-01,
       1.0974051738131894e-02, -5.1530031692865574e-01,
       1.3803181315955789e-02, -3.8786939497835771e-01,
       1.4724227418498872e-02, -3.3423996239992437e-01,
       2.1914141227965374e-02, -2.2763314200549031e-01,
       3.0792293199364329e-02, -2.4576099009742655e-01,
       1.3101690785270377e-02, -4.3219202477910657e-01,
       1.1094015685234175e-02, -5.1732781892207613e-01,
       1.0764446256399267e-02, -5.6991015148723867e-01,
       9.6713376914920116e-03, -6.8025771487531939e-01,
       9.1463932770091665e-03, -7.3891424686637797e-01,
       9.2884612582114657e-03, -8.0136199505219430e-01,
       9.2803138266167803e-03, -8.3569226008684105e-01,
       9.1991953029290589e-03, -8.3275715479765311e-01,
       9.0412988056210765e-03, -8.1433848179878332e-01,
       9.2388002701477203e-03, -7.0763435819162690e-01,
       1.0662565826828358e-02, -5.5418685884940388e-01,
       1.1575847813031932e-02, -5.0123421030428261e-01,
       1.2552243588597337e-02, -4.4764438697835257e-01,
       1.3131442976994017e-02, -4.0395601457977842e-01,
       1.8878408034511567e-02, -2.5745428957065147e-01,
       1.5626387780998344e-02, -3.1721567195426642e-01,
       1.1286992652928393e-02, -5.0678597011648485e-01,
       1.0759393525387810e-02, -5.4718240697550391e-01,
       1.0228622771690437e-02, -6.1953489550282514e-01,
       9.4810714544260495e-03, -7.1510981445008470e-01,
       8.9012484463656082e-03, -8.1090373346390687e-01,
       8.6676850738541637e-03, -8.7229415661999843e-01,
       8.7570489157343459e-03, -9.4942829713277310e-01,
       8.6886088917629140e-03, -1.0122772396959530e+00,
       8.9006020002685791e-03, -8.4004994253784881e-01,
       9.8886293320108055e-03, -6.8645628744152509e-01,
       1.0385024252616013e-02, -5.4761531012075815e-01,
       1.0637774559314991e-02, -5.2577200759414344e-01,
       1.0702693322236362e-02, -5.2061913829353501e-01,
       1.1510059836223108e-02, -4.7478996824420316e-01,
       1.4373076459898444e-02, -3.3327571041389520e-01,
       1.3273441572458257e-02, -3.9546559984942820e-01,
       1.0160820517765835e-02, -5.3636431308156396e-01,
       9.7894042916832433e-03, -5.6809136780174319e-01,
       9.8884808164177371e-03, -6.0968664533725614e-01,
       9.2035732612535323e-03, -7.2432121566065300e-01,
       8.6737291651106246e-03, -8.1110209855240734e-01,
       8.7496314084462706e-03, -8.2853540918355895e-01,
       8.4849911514054445e-03, -9.9385761980305887e-01,
       8.8631661885531354e-03, -9.9588751086130167e-01,
       8.8375848533300706e-03, -8.8182526364634106e-01,
       9.2532946803922916e-03, -6.6953370321813477e-01,
       9.6581501989759719e-03, -5.9608895759304825e-01,
       9.7819351020461427e-03, -6.0281175066359349e-01,
       1.0224339675180634e-02, -5.4994167027877838e-01,
       1.0474087266928230e-02, -5.0576748890179690e-01,
       1.2899883855614837e-02, -3.9094710509922714e-01,
       1.1490788245374667e-02, -4.2918094096474380e-01,
       9.8541715230685261e-03, -5.7492931979902928e-01,
       9.6822276589362266e-03, -6.1724201325718442e-01,
       9.3639577948400055e-03, -6.7748234645667438e-01,
       8.8515832369374346e-03, -7.6295115262877600e-01,
       8.9210295766570455e-03, -7.7629684247372521e-01,
       9.0036077525487302e-03, -8.7768293822814092e-01,
       8.5097347884376725e-03, -9.6436569489969926e-01,
       8.8219364045483851e-03, -9.7868356987958649e-01,
       8.8188368383880986e-03, -8.3084466563663883e-01,
       9.0989261165817341e-03, -7.2086242158618785e-01,
       9.3297870843242255e-03, -6.4964473691535118e-01,
       9.1886346526921046e-03, -6.6755430751808142e-01,
       9.7432202128671271e-03, -5.8800333984653108e-01,
       1.0007864267286967e-02, -5.2941601973948049e-01,
       1.1365693161250351e-02, -4.3083080639364613e-01,
       1.8168236495511886e-02, -2.8660393071669998e-01,
       1.2701387624424701e-02, -4.6193359116579580e-01,
       1.1090589002060471e-02, -5.4295364783212297e-01,
       1.0231304426604353e-02, -6.0511771118098112e-01,
       9.6941070020898808e-03, -6.9118982924900851e-01,
       9.7166532134264176e-03, -7.1708900715086954e-01,
       9.0335830953406759e-03, -7.8496191109075886e-01,
       9.0399503986525673e-03, -9.1851546019309249e-01,
       9.0645157584254548e-03, -8.1042436202672585e-01,
       9.2590683888191562e-03, -7.4089907863782278e-01,
       1.0088883675930178e-02, -6.6895604323714541e-01,
       1.0077143755465650e-02, -6.4374053952884014e-01,
       1.0003183257605726e-02, -6.2551155307715800e-01,
       1.1039065880562002e-02, -5.2104390956252655e-01,
       1.1535220276060467e-02, -4.6638337478646974e-01,
       1.6488587229079827e-02, -3.1719919681942316e-01,
       2.2024889862242259e-02, -2.3869474388205050e-01,
       1.2865304987525516e-02, -4.2769098267905131e-01,
       1.0647980500333377e-02, -5.2501198854456255e-01,
       1.0098220960192110e-02, -6.1409806214168272e-01,
       9.7222777016866112e-03, -6.4713910951851505e-01,
       8.9823190824317809e-03, -7.4659913423287660e-01,
       9.3206295714781812e-03, -7.3242672251371976e-01,
       9.2090008927607023e-03, -8.0906828468460745e-01,
       9.0844289511773958e-03, -8.7448984191271406e-01,
       8.9041490014671598e-03, -8.0371074924492958e-01,
       9.6323286325488144e-03, -7.1532080507465634e-01,
       9.9515691375696661e-03, -5.9815150247504678e-01,
       1.0502105961803881e-02, -5.4499366125536008e-01,
       1.2050025301617667e-02, -4.3274653364434451e-01,
       1.3581203995832026e-02, -3.7501099533491183e-01,
       1.9554324763009497e-02, -2.2829674160813590e-01,
       1.9688559310150490e-02, -2.6013508988536338e-01,
       1.3448005189490068e-02, -3.8083069695987187e-01,
       1.1491734997016657e-02, -4.8128822634380386e-01,
       1.0231450668454775e-02, -5.8063482543480849e-01,
       9.8148088501419165e-03, -6.3047878351099129e-01,
       9.0672765096775354e-03, -7.2662887129428355e-01,
       9.8536219387715309e-03, -6.7719016774207341e-01,
       9.0087965711524998e-03, -7.6788729773361120e-01,
       8.7414187454807127e-03, -8.7780234364774135e-01,
       9.0055061328603806e-03, -8.3728693270269383e-01,
       9.6122899197927519e-03, -6.8493573359723225e-01,
       1.0394459434124568e-02, -5.6584838544515614e-01,
       1.0911540196329736e-02, -5.2832313688104049e-01,
       1.2740313783301382e-02, -4.2433207594508165e-01,
       1.3392750564768610e-02, -3.8855717576034932e-01,
       2.0137821632532010e-02, -2.5071587932502348e-01,
       2.0578114512672333e-02, -2.4873795917192684e-01,
       1.3484519976087132e-02, -3.8650005381459746e-01,
       1.1802707378043335e-02, -5.0618861267583359e-01,
       9.9367517341100546e-03, -6.0769447323916803e-01,
       9.2239813379238859e-03, -6.6360780738026148e-01,
       9.3611246056157921e-03, -7.4350732180103429e-01,
       9.3402628308321568e-03, -7.1277880727787901e-01,
       8.9581818324078397e-03, -7.4946388755382087e-01,
       8.9752993548213606e-03, -8.1327431278875051e-01,
       8.9868242189433869e-03, -7.4017730973272466e-01,
       9.7300416397782755e-03, -6.6091307838193936e-01,
       1.0438437019526927e-02, -5.6556756576424327e-01,
       1.0607702388768953e-02, -5.2143487054792381e-01,
       1.2718000493778303e-02, -4.3908896704769590e-01,
       1.3708291326015743e-02, -3.7826316377724689e-01,
       2.5998022405650540e-02, -2.1708348708718200e-01,
       2.9991378717749873e-02, -2.0993965102424911e-01,
       1.3669552952218906e-02, -3.9137638796321755e-01,
       1.2977353787327350e-02, -4.3660684648239451e-01,
       1.0148219213929562e-02, -5.8123925547781563e-01,
       9.4765474777651348e-03, -6.4837353274434339e-01,
       9.5533808703588425e-03, -7.0312883205841070e-01,
       9.0786490005617254e-03, -7.1131214919401109e-01,
       9.0266341103172748e-03, -7.9293339012818309e-01,
       9.5542728119489915e-03, -8.1360604414253135e-01,
       9.2550771719953732e-03, -7.6689883216446664e-01,
       9.5470783724838776e-03, -6.5242346827961706e-01,
       1.0106630184117723e-02, -5.5415916628290485e-01,
       1.0463434643618817e-02, -5.2291014631485033e-01,
       1.2249494550347408e-02, -4.4833150054271514e-01,
       1.4458758829387484e-02, -3.6047493106516670e-01,
       2.7438695868134490e-02, -1.9087042813271055e-01,
       2.3067651812278097e-02, -1.9607504040436383e-01,
       1.4211277871465281e-02, -3.5288379364582229e-01,
       1.2370406040718025e-02, -4.2747484374456224e-01,
       1.1126820375511791e-02, -5.2490775121476874e-01,
       1.0465636651173438e-02, -5.4624082296218368e-01,
       9.7711729124352435e-03, -6.4843946240148387e-01,
       9.1777474325713693e-03, -7.1729832277690608e-01,
       9.0867567558296815e-03, -7.8634521275761105e-01,
       8.7516225510800450e-03, -8.6777807358053072e-01,
       8.8311234171049632e-03, -8.0898609952817158e-01,
       9.8591440661558172e-03, -6.5889892187127597e-01,
       1.0442366760443245e-02, -5.7309014077157583e-01,
       1.0823949668242894e-02, -5.1704654571487774e-01,
       1.2658519456877279e-02, -4.3663980551566062e-01,
       1.5365654421132502e-02, -3.3708404386359425e-01,
       3.4199404182128461e-02, -1.4342375128880122e-01,
       4.5445633549956101e-02, -1.2781584435925153e-01,
       2.0302973633442158e-02, -2.7129848517687083e-01,
       1.4111982308128204e-02, -3.5844435062645635e-01,
       1.4678686582289602e-02, -3.9632453772181925e-01,
       1.3195303039592678e-02, -4.1903334215106502e-01,
       1.1556155251577320e-02, -4.9395341103460805e-01,
       1.0838743405250243e-02, -5.6076948692913442e-01,
       9.7140044969348787e-03, -6.6030945567914834e-01,
       9.8382336166023161e-03, -6.7133646641290057e-01,
       1.0053713758897158e-02, -5.7984794104439352e-01,
       1.2484035191927039e-02, -4.5746186456417642e-01,
       1.4067313841337059e-02, -3.8984043482805320e-01,
       1.4036073605567981e-02, -3.7581587078908268e-01,
       1.8449731259352956e-02, -3.1814255340346753e-01,
       1.9650482916689759e-02, -2.6970287803156695e-01,
       1.6014299145831545e-01, -1.5513852297524311e-01 ]
   output_scale: [ 1., 0., 5.2631578947368418e-01,
       4.9999999999999994e-01, 5.2631578947368418e-01,
       4.9999999999999994e-01, 5.2631578947368418e-01,
       4.9999999999999994e-01, 5.2631578947368418e-01,
       4.9999999999999994e-01, 5.2631578947368418e-01,
       4.9999999999999994e-01, 5.2631578947368418e-01,
       4.9999999999999994e-01, 5.2631578947368418e-01,
       4.9999999999999994e-01, 5.2631578947368418e-01,
       4.9999999999999994e-01, 5.2631578947368418e-01,
       4.9999999999999994e-01, 5.2631578947368418e-01,
       4.9999999999999994e-01, 5.2631578947368418e-01,
       4.9999999999999994e-01, 5.2631578947368418e-01,
       4.9999999999999994e-01, 5.2631578947368418e-01,
       4.9999999999999994e-01, 5.2631578947368418e-01,
       4.9999999999999994e-01, 5.2631578947368418e-01,
       4.9999999999999994e-01, 5.2631578947368418e-01,
       4.9999999999999994e-01, 5.2631578947368418e-01,
       4.9999999999999994e-01, 5.2631578947368418e-01,
       4.9999999999999994e-01, 5.2631578947368418e-01,
       4.9999999999999994e-01, 5.2631578947368418e-01,
       4.9999999999999994e-01, 5.2631578947368418e-01,
       4.9999999999999994e-01, 5.2631578947368418e-01,
       4.9999999999999994e-01, 5.2631578947368418e-01,
       4.9999999999999994e-01, 5.2631578947368418e-01,
       4.9999999999999994e-01, 5.2631578947368418e-01,
       4.9999999999999994e-01, 5.2631578947368418e-01,
       4.9999999999999994e-01, 5.2631578947368418e-01,
       4.9999999999999994e-01, 5.2631578947368418e-01,
       4.9999999999999994e-01, 5.2631578947368418e-01,
       4.9999999999999994e-01, 5.2631578947368418e-01,
       4.9999999999999994e-01, 5.2631578947368418e-01,
       4.9999999999999994e-01, 5.2631578947368418e-01,
       4.9999999999999994e-01 ]
   inv_output_scale: [ 1., 0., 1.8999999999999999e+00,
       -9.4999999999999996e-01, 1.8999999999999999e+00,
       -9.4999999999999996e-01, 1.8999999999999999e+00,
       -9.4999999999999996e-01, 1.8999999999999999e+00,
       -9.4999999999999996e-01, 1.8999999999999999e+00,
       -9.4999999999999996e-01, 1.8999999999999999e+00,
       -9.4999999999999996e-01, 1.8999999999999999e+00,
       -9.4999999999999996e-01, 1.8999999999999999e+00,
       -9.4999999999999996e-01, 1.8999999999999999e+00,
       -9.4999999999999996e-01, 1.8999999999999999e+00,
       -9.4999999999999996e-01, 1.8999999999999999e+00,
       -9.4999999999999996e-01, 1.8999999999999999e+00,
       -9.4999999999999996e-01, 1.8999999999999999e+00,
       -9.4999999999999996e-01, 1.8999999999999999e+00,
       -9.4999999999999996e-01, 1.8999999999999999e+00,
       -9.4999999999999996e-01, 1.8999999999999999e+00,
       -9.4999999999999996e-01, 1.8999999999999999e+00,
       -9.4999999999999996e-01, 1.8999999999999999e+00,
       -9.4999999999999996e-01, 1.8999999999999999e+00,
       -9.4999999999999996e-01, 1.8999999999999999e+00,
       -9.4999999999999996e-01, 1.8999999999999999e+00,
       -9.4999999999999996e-01, 1.8999999999999999e+00,
       -9.4999999999999996e-01, 1.8999999999999999e+00,
       -9.4999999999999996e-01, 1.8999999999999999e+00,
       -9.4999999999999996e-01, 1.8999999999999999e+00,
       -9.4999999999999996e-01, 1.8999999999999999e+00,
       -9.4999999999999996e-01, 1.8999999999999999e+00,
       -9.4999999999999996e-01, 1.8999999999999999e+00,
       -9.4999999999999996e-01, 1.8999999999999999e+00,
       -9.4999999999999996e-01, 1.8999999999999999e+00,
       -9.4999999999999996e-01, 1.8999999999999999e+00,
       -9.4999999999999996e-01, 1.8999999999999999e+00,
       -9.4999999999999996e-01 ]
   weights:
      - [ -2.6453680167808207e+00, 1.2226023105224949e-01,
          8.9159961972675131e-02, 1.6004105191649065e-01,
          -2.1031258467307520e-01, 3.8142397793107902e-01,
          8.8248173229762999e-02, 3.4221191787218369e-01,
          -2.3024597867897692e-01, 2.5332398266684547e-01,
          -5.3149911575915920e-02, 4.1492616532472770e-01,
          -1.2696167957538060e-01, -1.2954810310374364e-02,
          -1.0803936050486102e-01, -2.3729019995343856e-01,
          5.5241237668389365e-01, 8.6658043206808644e-02,
          6.7322260217059338e-02, -4.5481059558142738e-02,
          -5.3098058775155055e-01, -1.2146928285337975e-01,
          2.1915904002923475e-01, 4.1068864992254837e-02,
          -8.5438398123622694e-02, 3.5630670533470427e-01,
          -5.0551818812199223e-01, 2.2348855424545757e-02,
          1.3582266274860944e-02, -1.2294682339890586e-01,
          5.8286971158425946e-02, -3.5414664781522248e-01,
          -6.1212378539553995e+00, 1.1072975886095313e-01,
          -5.2503229104428235e-02, 2.0367423297722678e-01,
          -7.7368847804863616e-01, -9.4460753458805932e-02,
          1.4836504812171572e-01, 2.3725594521719104e-01,
          6.6340176360071765e-02, 6.2216579554280238e-01,
          5.2263483091635754e-02, 6.2133790399739663e-01,
          1.9828502756242192e-01, -1.4915683396839241e-01,
          -1.1774094629902418e-01, -4.4255231415366841e-01,
          -5.6290313509363115e+00, 7.3375910312012751e-02,
          4.4038873568343379e-02, 2.2025528421448387e-01,
          -7.8677041238207912e-01, -1.3684212148757033e-01,
          3.3353505005199430e-01, 3.5156214715782558e-01,
          2.5713919038117078e-01, 5.1070913006296081e-01,
          1.4301808953617023e-01, -1.3421348380344944e-01,
          1.9118886279569250e-01, -2.6657161098499127e-01,
          -3.7140804915420794e-01, -3.3667891172545988e-01,
          -4.4136158039021547e+00, 1.5867470998982569e-01,
          -9.9461145984232280e-02, 3.7619924519958062e-02,
          -5.7423605575322034e-01, -2.1975117489492824e-01,
          4.2188116806997134e-01, 2.1278433058989771e-01,
          3.9469046833791105e-01, 4.7661958021192685e-01,
          1.2015901233314638e-01, -4.2450538181419345e-01,
          2.9200896663367421e-01, -2.9310017577505909e-01,
          -1.8970665057910902e-01, -2.7793070183908319e-01,
          -9.4400401340646201e-01, -2.5186873961346229e-01,
          -1.9885796834992833e-01, 1.6841791467101588e-01,
          -6.0882122419394580e-01, -2.6584286186064315e-01,
          3.6550907521578430e-01, 8.9720663189583397e-03,
          2.5314232513227997e-01, 3.5112119476992648e-01,
          -1.6222357264635535e-02, -5.3676698945355350e-01,
          2.3418438864961127e-01, -1.2600286807264197e-01,
          9.8243316394363983e-02, -1.1643481765872216e-01,
          2.7593332964876160e+00, -2.7243552550135214e-01,
          5.2910283565350748e-02, 6.4512765037684466e-02,
          -3.4552085475132488e-01, -9.2009151395420458e-02,
          2.1323019816731553e-01, 2.0285530554435030e-01,
          2.4903905665458992e-01, 1.9699398962398632e-01,
          -4.3285083317684142e-01, -3.5512327377662412e-01,
          4.3536896434080080e-01, -9.1077226511431492e-02,
          -7.7390027344338150e-03, 1.6547643296284945e-01,
          7.2270321726304152e+00, 3.1100695643554827e-01,
          1.9761981429833403e-01, 1.0294452722419278e-01,
          -3.9126473925244259e-01, -2.1381066427788473e-01,
          1.0211157880411875e-01, 1.8434929691598129e-01,
          2.5876436311637468e-01, 2.9496449531836938e-01,
          -1.6944941026755389e-01, -5.4034598711537352e-01,
          3.3626950880906475e-01, -2.0236769752505473e-02,
          1.3311796890073427e-01, 3.3982506286810021e-01,
          5.5888342683306655e+00, 2.1539795709369544e-01,
          4.1702109140814181e-01, -6.4019688447845592e-03,
          -4.9455751247404722e-01, -3.1365171100754735e-01,
          -1.1199678878252428e-01, 4.7497998191057787e-02,
          3.6816641125154020e-01, 6.6308241720716227e-02,
          1.2349981072220495e-01, -4.1701281979084592e-01,
          3.6722779009726253e-01, 2.5116792206963878e-01,
          -3.9147645844838701e-02, 2.4468987128845887e-01,
          1.9693403206634454e+00, -2.7386195865523760e-01,
          2.4839580681985662e-01, 6.4038195920316066e-02,
          -3.4543762196560507e-01, -1.8990482251543159e-01,
          -2.1588107614032123e-01, 6.4272607081093641e-02,
          3.4242724425415999e-01, -5.4174059696711158e-02,
          -1.2056223934899175e-02, -5.0824206664391060e-02,
          1.5343477370449207e-01, 6.2091656386727548e-02,
          -1.0412119636865824e-01, 1.6815356348652699e-01,
          -2.3746640969828023e-01, -2.6457835938358476e-01,
          3.6870986653536708e-01, 3.5448875632740678e-01,
          -1.6918956669609345e-01, 6.6429600684967074e-02,
          -1.6187463670812297e-01, 2.2707843230521491e-01,
          1.6310544338003477e-01, -2.3186931331252283e-02,
          -1.8363761795533035e-01, 2.6883252588104639e-01,
          2.0737214898972178e-01, 1.3838583490281955e-01,
          -2.7918674574388930e-01, -9.1039582953091627e-02,
          -5.6149350149018060e+00, -8.4657265018027533e-02,
          1.8981968468692997e-01, 5.4059232119248335e-01,
          -1.5528406821397811e-01, -2.3750275072590923e-01,
          -1.8729776471466256e-01, 9.1927131798460834e-02,
          4.1488527163068979e-02, 7.2503223353919011e-02,
          -1.2479475668181628e-03, 5.0662024516002602e-01,
          2.8597650297010373e-02, -7.4569605468128566e-03,
          -2.5791211399675634e-01, -6.5781502679773229e-01,
          -4.1667571978508926e+00, -1.4755431382313211e-01,
          4.3124836910239252e-02, 1.5968752559352806e-02,
          6.5816964145172061e-02, -2.1372329619486724e-01,
          -1.4460427167471943e-01, 1.6038357556721694e-01,
          -1.9558340858543038e-01, -9.5557803248477055e-02,
          -1.1694599992824065e-01, -6.1589537406497744e-05,
          -1.6041128622289580e-01, -3.6455127244254770e-01,
          1.0312925354559846e-01, -3.0561914862428613e-01,
          -4.4190376544584664e+00, 3.8115914064785111e-01,
          4.5188557024296755e-01, -3.5454408334689258e-01,
          1.7384585862176821e-02, -5.0796103614332698e-02,
          -3.4351422404307108e-02, 3.7211446258232828e-01,
          2.0454706253943040e-02, 7.7142469288637619e-02,
          -3.9268603650844697e-01, -3.6223560922730486e-01,
          -3.4933238355161084e-01, 9.5585729807813866e-02,
          1.1581015349585731e-01, -1.7739265765216444e-01,
          -2.7959729513836455e+00, -4.4046075902866360e-03,
          1.0092285466273580e-02, -1.0694832952876548e-01,
          -9.2176010972498237e-02, -3.1320112516211973e-02,
          5.4159798506548923e-02, 2.6891291674589907e-01,
          5.2043343475859224e-03, 1.2819930131674190e-01,
          2.8819708516760988e-02, -1.8220889931780626e-01,
          -1.8456376974336419e-01, -3.9079196203596699e-02,
          1.5568105568268639e-02, -2.3927622118809813e-01,
          -2.6277121181611318e+00, -1.9966868271376567e-01,
          5.9478583128094886e-01, 6.0233459463217329e-02,
          -4.1484675799439635e-01, 4.6199579000892416e-02,
          -2.8140815904538530e-01, 1.6755379495423892e-01,
          -2.4602945305490127e-03, 1.5796845486228533e-01,
          -3.3490671233432251e-01, -1.8091191264469442e-01,
          -5.5006636675620679e-01, 5.3914441818719731e-02,
          -2.5947596714802876e-02, -1.7646813241754084e-01,
          -2.6139781198747469e+00, 3.1116103784053534e-01,
          -1.8266211928945084e-01, 1.2649832606660644e-01,
          4.6586489670246706e-01, 3.2550052803728739e-02,
          6.1703012892570366e-02, 2.5099819551216562e-01,
          -2.9803762831252106e-01, 1.8897290054307231e-01,
          -1.5274509917059093e-01, 1.9296510725990221e-01,
          -4.0876955581536029e-01, -1.8061783348662860e-01,
          3.1429497926276684e-01, -9.4563994205309879e-02,
          -5.1106324687855076e-01, 1.7279319011373409e-01,
          -2.0727327866592277e-01, -4.1657299032514333e-02,
          -4.1049973185478358e-02, -1.1368037200106221e-01,
          1.1490835471496111e-01, 7.0324176626384311e-03,
          -2.1936316540513162e-01, 3.9360445224073476e-01,
          -3.1494670396272112e-01, 2.9471465145053682e-01,
          -8.7178322828008067e-02, -2.5863744045188358e-01,
          5.4777533745041640e-01, -2.9153913450743335e-01,
          -3.9772969850437399e+00, 4.6139286499370896e-01,
          -3.4081854702883413e-02, 1.7891818638086981e-01,
          -2.4624031025793439e-01, -2.1443842894609233e-01,
          1.9164684574364127e-01, 1.9689857513928063e-01,
          -6.8156956687001918e-02, 5.6069172467177997e-01,
          -2.7159772685775498e-02, 4.4849484682599794e-01,
          1.1587639022464565e-01, -1.7437353610442449e-01,
          -1.5133474054657885e-02, -3.4563878483116006e-01,
          -5.0959166165989149e+00, 3.4293719561078767e-01,
          -1.2783645272969865e-01, 2.4259162029148748e-01,
          -2.3476918333468638e-01, -3.7672237154787841e-01,
          3.2432936503253251e-01, 2.8650042762185779e-01,
          1.8162375980256953e-01, 4.5428410417338105e-01,
          2.2453884016755141e-01, -2.1874047311634792e-01,
          2.9746121209877496e-01, -4.3923232174383880e-01,
          -3.2460644516992043e-02, -1.1485421232832986e-01,
          -5.8624985581501763e+00, 1.6024523368014001e-01,
          -3.7689667371826935e-01, 1.4703848610418480e-01,
          -1.2781970894799463e-01, -5.5486448507056996e-01,
          2.9599411058712788e-01, 3.0870728309763687e-02,
          1.5593550669286954e-01, 4.2883442681501271e-01,
          -6.1519051919643922e-02, -2.4596963251187540e-01,
          3.9821338661479860e-01, -4.6043038001880315e-01,
          -1.3751555367496163e-01, -1.4013822243559643e-01,
          1.6352915745725343e+00, 1.4335105748118060e-01,
          -5.4352531393883896e-01, 1.6084150250838544e-01,
          -1.2632839790608275e-01, -4.6656927426346750e-01,
          1.8448540525853455e-01, -1.7370598225684347e-01,
          2.9395857919449386e-02, 1.3462787339767049e-01,
          -3.1872452812399449e-01, -1.9396127322676857e-01,
          3.5216690924045074e-01, -1.9868781300888930e-01,
          2.7217340774117937e-01, 1.1194113609428145e-01,
          5.5641907075205674e+00, 2.5323337334701479e-01,
          -4.5772418939477727e-01, 1.5764537439448120e-01,
          -1.5774289046240647e-01, -3.2444177319569839e-01,
          1.9646795555184660e-01, -2.6974123115095427e-01,
          1.7895826252877861e-01, 9.1839872622861668e-02,
          -2.7158806916572392e-01, -8.8822475326950132e-02,
          2.3990514599681878e-01, -2.4478303376602301e-01,
          2.4306412592661519e-01, 2.9088313639187130e-01,
          8.3487167951782304e+00, 2.4346909607921416e-01,
          -1.0496593609738576e-01, 1.8294771690926795e-01,
          -2.3190006991676457e-01, -1.8575812045527942e-01,
          -6.7401258351117529e-02, 9.5569580760309455e-02,
          1.9698734300989271e-01, -8.6397940564475667e-02,
          -2.0932812440239149e-01, -2.3530584661275547e-01,
          3.7791482253215181e-01, -4.5072139580643444e-01,
          2.0652094337880517e-01, 4.7256785610156860e-01,
          8.4326039488193025e+00, 5.1173659684496144e-02,
          3.5640776962654719e-01, 1.8979448328703968e-01,
          -1.9690783214744237e-01, -5.2819882757888315e-01,
          -1.2949025397593647e-01, 1.2803252495266390e-01,
          3.0949267024353477e-01, 9.0634480372351001e-02,
          6.9783002178365638e-02, 2.9221301702185468e-02,
          4.2185754844444695e-01, -1.5094649786587361e-01,
          -3.7653867404626527e-02, 3.3438822515719274e-01,
          3.8922425912420668e+00, 1.9593620662127505e-02,
          1.5495333119242913e-01, -3.5229998451382842e-03,
          -1.4498522127706936e-01, -3.3928904366855844e-01,
          -2.4485338825031891e-01, 1.4636037603878384e-02,
          4.0444390520482554e-01, -6.6164107932992072e-02,
          3.2730408594243990e-02, -9.7819559153538281e-04,
          2.4921525993150978e-01, -3.3965550931190094e-02,
          6.8415282080774659e-02, 3.2068209348212057e-01,
          -2.1309808927171052e+00, -5.7131624483792762e-02,
          2.2407951505642676e-01, 2.9299548638939726e-01,
          1.0294390688131058e-01, -1.7879869944064450e-01,
          -8.8207251141375259e-02, -2.5511757294404840e-02,
          1.4370288124932828e-01, -1.9098754640085819e-01,
          -3.4500416815056428e-01, 1.1610027493910546e-01,
          -7.4970194079957368e-03, 5.8115305511296081e-02,
          -2.3291780173149138e-01, 2.0341094136574717e-01,
          -5.8390705796925104e+00, 2.3536929006926796e-01,
          5.5974964811228760e-02, 3.3888216329826415e-01,
          2.6889874773402744e-01, -2.8104751645718051e-01,
          7.9262894255535579e-02, 1.0965831729818178e-01,
          4.4083688976076583e-02, 7.5470312403745049e-02,
          1.0548850304002386e-01, 1.8329462497728186e-01,
          -1.2177339517165647e-01, -4.1894059960229296e-02,
          3.0524664997119113e-02, -1.8000352246830212e-01,
          -2.6694901063884586e+00, 3.6491376766948957e-01,
          1.1158419112843701e-01, 4.8154076533472402e-02,
          2.6731968078555973e-01, -2.2460706031927435e-01,
          -2.6715051604849330e-02, 3.3279793492249921e-01,
          -2.6930495558901435e-01, -5.8847731275795526e-02,
          -1.3560115792088959e-01, 1.3758829904525352e-01,
          1.0690988326412421e-01, -1.8739652651813898e-01,
          1.7599602081413127e-01, -2.4717148618801557e-01,
          -3.2945495852330464e+00, 5.6919486401505548e-01,
          1.7126955807122299e-01, -1.6045573916859129e-01,
          2.4150373284852683e-01, -2.9888127399834380e-01,
          3.9995799492821588e-02, 3.7189990440237414e-01,
          -1.1936349138321865e-01, 7.2767379764468010e-02,
          -2.7315215724670439e-01, -1.9530616503217935e-01,
          -2.1675010487551316e-01, 7.6390277088435030e-02,
          3.4910824367630799e-01, 4.6978401501263499e-02,
          -3.4520085549422350e+00, 5.5194110860615986e-01,
          -4.0748979013537169e-02, -1.4383939539540005e-01,
          4.4075451115010622e-01, -1.5876763361422719e-01,
          -8.5938816782179531e-02, 1.5170812363761649e-01,
          -8.8964038088325439e-02, -6.9912972804449247e-02,
          -2.9990311993537427e-01, -2.6875419616901280e-01,
          -1.7844607451202468e-01, 1.1790631239520336e-01,
          4.6158337412019135e-01, 6.5318648624314912e-02,
          -2.5958450671278461e+00, 2.4743791826808006e-01,
          -1.9443516179578074e-01, 7.6365395817653905e-02,
          3.3571813608996309e-01, -4.2962047386299934e-01,
          -1.9823326303526881e-01, 4.1187358480768893e-01,
          -6.7223099663879321e-02, 1.3648760240289324e-02,
          -2.5882081648438260e-01, -2.0014328574533044e-01,
          -2.3472530548457782e-01, 1.3986496754938357e-01,
          2.8444803831356630e-01, 1.2601580775042202e-02,
          -1.6860178226743143e+00, -4.7223499990770251e-04,
          -2.7919619100583071e-01, 8.8463819832667601e-02,
          -9.7692304262121980e-05, 1.9064730140881336e-02,
          1.9957030503898965e-01, 8.8979251931819880e-02,
          1.4296424573633451e-01, 2.9439605054764262e-01,
          5.2488500208756970e-02, 6.2328727390999046e-02,
          -1.6354097610726259e-01, -3.4601845416824295e-01,
          3.5257344570351795e-01, -2.3274752736167190e-01,
          1.8673850260725295e+00, -2.4453063474607888e-02,
          -8.3893744191421232e-02, -6.4500081223531850e-03,
          -2.8382462548142628e-01, 1.8259164330788859e-02,
          2.8284865825467420e-01, -1.5485375855352162e-02,
          -1.9068750363807557e-01, 5.0342996753703761e-01,
          -4.9155121878400337e-01, 1.0372879048668704e-01,
          7.3042169712503227e-02, -3.2224328796036666e-01,
          1.7216921851894876e-01, -4.3245953563725964e-01,
          -1.2920166509381830e+00, 2.5438479206256659e-01,
          1.6223214556485451e-02, 2.0533762898061300e-01,
          -2.8931422524185962e-01, 2.1732406986246053e-01,
          2.5958595291960102e-01, 1.9928062378692460e-01,
          -4.6527458528220378e-02, 4.9711560990615705e-01,
          7.5974209699936901e-02, 4.4974911183081234e-01,
          1.7888412347685809e-01, -1.6828735574689113e-01,
          -8.1128430935316923e-02, -3.7226533458266842e-01,
          -3.6719275832820766e+00, 2.3037805995949118e-01,
          9.8925830044957613e-03, 1.6343066528326899e-02,
          -2.0546159545044881e-01, 3.1450536550327805e-02,
          3.1759970645715835e-01, 8.5029107532077750e-02,
          -2.3888769990935602e-02, 3.2208919081413079e-01,
          1.5791469514754800e-01, 2.9946035734104509e-02,
          3.9880015539335356e-01, -3.2396497991836781e-01,
          -8.7820792756756916e-02, -1.8423684685265965e-02,
          -2.8066971753366934e+00, 2.9674983952959572e-01,
          -1.7659953278323742e-01, 2.0010265153139342e-01,
          -2.9549348133001224e-01, -3.7502740804183271e-01,
          2.5628221856537425e-01, 1.2280811454870211e-01,
          -6.3327312345397083e-02, 3.7107869096157114e-01,
          -5.9012156175968285e-02, -2.3838495010950308e-02,
          4.0863963251668955e-01, -2.7006783153388830e-01,
          -1.0266406014673039e-01, 6.6859290943576649e-02,
          1.2176046169502599e+00, 1.1942703793792732e-01,
          -3.3881067899863193e-01, 1.2922508112092931e-01,
          -2.6577440843249522e-01, -2.7824677699795930e-01,
          1.3620649637355042e-01, 1.9696855518182860e-01,
          -2.2674276519258046e-01, 1.7457871166362054e-01,
          -2.1461932244817022e-01, -1.3337066313822542e-02,
          6.6629729037507046e-01, -3.1360812964333173e-01,
          -8.3449964217942818e-02, 4.6574764251093120e-01,
          7.1930474373453057e+00, -2.0412652292987302e-01,
          -3.4237634509419079e-01, 1.2802337503042197e-01,
          -4.0947796388012642e-01, -1.1609540846257217e-01,
          1.6511480914438509e-01, -9.4223651049019252e-02,
          1.3390800047687826e-01, -5.0163694741771972e-02,
          -7.8713765284089118e-02, 1.2940551091763333e-01,
          2.4071663045552338e-01, -3.3571438676176374e-01,
          -1.2223916134068000e-01, 2.6021768728277295e-01,
          1.0768881871875623e+01, -3.9227417591397661e-02,
          -3.4434259063737732e-01, 1.9623014351731280e-01,
          -3.3154411705025638e-01, -2.5990080079532466e-02,
          -6.3682305897362679e-02, 2.8382471760966677e-01,
          -3.7858578070643426e-02, -3.1596672812844945e-01,
          4.7217222483850789e-02, 2.7147005106434097e-01,
          1.5884170824567143e-01, -5.6958257706631843e-01,
          2.3927013232039003e-02, 2.2883019426362830e-01,
          7.0308530454286933e+00, -1.8632753462073273e-01,
          2.6215391601372318e-01, -2.6546533664316502e-02,
          -6.7469654547204966e-02, -3.8342185966875347e-01,
          -1.0075483276209976e-01, 1.9819518963451707e-01,
          1.6063014962217775e-01, -2.0308367154814808e-01,
          7.2560407605007288e-02, 3.9444389411934150e-01,
          1.2849198276691762e-01, -8.8425242195591169e-02,
          -3.2225288349061182e-01, 1.9962152311614426e-01,
          5.8029638639895431e-01, -1.2851851752646887e-01,
          -1.1967275273630756e-01, 9.9531942926488953e-02,
          -2.0662114255424852e-01, -6.0278622552571348e-01,
          9.0688781859547957e-02, -3.1795488168359011e-02,
          3.7534895714823552e-01, 1.0749226230001085e-01,
          1.8692210176655999e-01, -1.3287498941344808e-01,
          1.6711277801937843e-01, -3.5820722001555455e-01,
          -6.3205432228010838e-02, -3.4225183025192840e-02,
          -2.3897194388652161e+00, 1.4302727252964517e-01,
          -1.1846288501261316e-01, 2.1824355538748001e-02,
          -1.7109862636428974e-01, -2.3071740087209805e-01,
          1.7394030759273651e-01, -2.8245663741062049e-01,
          1.9418558063654318e-01, 6.9548568150113343e-02,
          -1.5737426426383047e-01, -1.0960287591757552e-01,
          1.1763720688978127e-01, -4.7559535423077774e-02,
          -1.0598682385939620e-01, 1.1086662473926255e-01,
          -8.3197488299452029e+00, 2.0579196770618899e-01,
          2.9056211800075338e-02, 1.3437607491804512e-01,
          -9.1485232355919460e-02, -3.3886608453116240e-01,
          1.9700184610151955e-01, -2.5392858418255317e-02,
          2.0727233947889839e-01, 2.0723133579818329e-01,
          -1.3086375117115154e-01, -8.2322402480786067e-02,
          1.5235374942204896e-01, -2.4232502068635989e-02,
          -3.3882671598658848e-02, -2.3073236712016398e-01,
          -5.1244812345625190e+00, 2.9981891470096184e-01,
          1.5938383261698905e-01, 4.2137086978869280e-03,
          3.1480354446061530e-02, -6.4975491788633058e-02,
          2.8869284392805068e-02, 1.8930356380496663e-01,
          -9.3671147855384676e-02, -1.3441770226012734e-01,
          -1.4878358916727496e-02, 1.4508649108992755e-01,
          2.9378808213780722e-01, -1.9483345385425932e-01,
          3.3300119821763383e-02, -2.9885110600889819e-01,
          -4.6115861135234387e-01, 6.3428887401882605e-01,
          2.8248311016504501e-01, 4.9609816454210975e-02,
          -1.7271435832247689e-01, 5.5397375589983387e-02,
          1.1675644788819035e-01, 3.3741040642491138e-01,
          -3.9907979394652647e-02, 7.7665558783979682e-02,
          -1.3216306697989391e-01, -9.8704186824279394e-02,
          2.8503927342739149e-01, -5.3971200250859892e-02,
          1.0205832784184382e-02, -1.2103823696342238e-01,
          2.1465035262057308e-01, 1.8928624255883786e-01,
          4.4031884860818611e-02, 4.3824274451713940e-02,
          -1.0460520266916883e-01, 6.2800764438437962e-02,
          8.0996584179410788e-02, 3.8383107749599528e-02,
          1.7301209842511416e-02, 8.8096729196321846e-02,
          -1.0265515900235209e-01, -2.5817107550827273e-01,
          2.5277789335980677e-01, -1.7084214346830612e-01,
          1.7769820347261669e-01, -1.6233996531407924e-01,
          1.7718714556406084e-02, -2.9869399529200080e-01,
          -5.5666437635772115e-02, 1.1752751670629881e-01,
          -2.3644136570366883e-01, -1.3507280246805914e-01,
          -2.7366570509033537e-02, 4.1019144886678910e-01,
          1.1093627080778264e-01, 1.7696414238584535e-01,
          -6.6983852178694847e-02, -2.2681990698800580e-01,
          1.9986473143670011e-01, 1.2041413031528449e-02,
          -5.4078523398520928e-02, -1.8324375308999888e-01,
          -2.2659649899348024e+00, -1.7260795736558826e-01,
          -1.2926862700353822e-01, 9.7411255879018364e-03,
          -2.3049263093629810e-01, -1.3376588924998573e-01,
          -6.9462646311069631e-02, -1.5454624149713794e-01,
          1.6029511532547880e-01, 2.5618348580711447e-01,
          1.3498300499223497e-02, -2.3743806955033034e-01,
          -4.3336873427150244e-02, -8.4521468121634760e-04,
          1.6849638580222726e-01, 6.9303574718328168e-02,
          9.6345232080783305e-01, -3.5499324110086988e-01,
          -2.4508689308631665e-01, 1.1527147681660531e-01,
          -3.0056849391411244e-01, -1.5668524024087702e-01,
          8.0877657697938032e-02, -2.0144707641581311e-01,
          4.3535527931751868e-02, 4.3091027354166112e-01,
          -2.2007692449773464e-01, -1.9952057959471048e-01,
          -1.6410132823437940e-02, -1.8012699182281691e-01,
          1.0018279859361473e-01, -2.3101224405065340e-01,
          -4.1085032956500500e+00, -2.6183858775373905e-02,
          -2.9463495143071849e-02, 1.4158307127337558e-01,
          -2.0238117206586653e-01, 2.1619783517913344e-01,
          6.2849982210224448e-02, 6.3080172388732952e-02,
          1.9837125689789580e-02, 4.1231445428115293e-01,
          2.5717431590854201e-01, 1.6617345031709646e-01,
          -3.2007138858575132e-02, 5.9809828290379556e-03,
          -6.4485230681227690e-02, -2.4562141423349986e-02,
          -3.0105359023391314e+00, 2.6853549648100078e-02,
          -7.6130208850609921e-02, 8.4482849798120763e-02,
          -1.6501457121383450e-01, 1.2560384166443675e-01,
          2.6853230704530567e-01, -1.4140469125514565e-01,
          -6.7362457149806446e-02, 2.1979955033586701e-01,
          3.6070312883713457e-04, -6.5527890783332168e-02,
          1.3390133192774217e-01, -1.2547984336123236e-01,
          3.6374085929343242e-02, 1.7607313509923850e-01,
          -4.7334388283347515e+00, 2.1141821504199387e-03,
          -5.4882624588613246e-02, 8.3309244972332649e-02,
          -2.3626818510389652e-01, -2.5377364458914237e-01,
          2.1519924763710344e-01, -5.8009088011236963e-02,
          -1.1953031051350295e-01, 3.7612032188597544e-01,
          7.0152396339501939e-03, 1.1320969378528765e-01,
          2.5795116292824727e-01, 4.3768125385761324e-02,
          8.9990786418906746e-02, 1.1851310692686379e-01,
          -4.2486519296167424e+00, -2.8311379904591966e-01,
          -1.7566039009308207e-01, 1.4373223554509934e-01,
          -3.1091015033142494e-01, -2.3214564473808305e-01,
          3.2386665064487657e-01, 9.5174387312790459e-02,
          -7.4683908296740958e-02, 3.5642091595691666e-01,
          3.0620152389367566e-01, 1.9207727529238713e-01,
          3.1004773261195262e-01, -1.0558230045757576e-01,
          -6.6364827335115215e-02, 1.8689511759582200e-01,
          2.0793933086947969e+00, -3.0530503488065880e-01,
          -3.7395670473244422e-02, 1.4334552970766914e-01,
          -3.1074707450920075e-01, 4.5828564052752463e-03,
          -3.4176741423392908e-02, -1.3508296538021836e-01,
          -1.1587571797371557e-01, 1.1388883876935775e-02,
          1.7239190194278073e-01, 2.9055400473332194e-01,
          4.1727022270361069e-01, -1.3202687297646035e-01,
          -3.7017875066164302e-01, 2.8342413614485962e-01,
          9.0784739515277000e+00, -1.5799268269579364e-01,
          -2.5104624235004447e-01, 4.9299348429419354e-02,
          -1.8684477329471258e-01, -2.2456675398213446e-01,
          -2.6763770281823146e-01, 2.2085253975733021e-01,
          -6.5564753948353038e-02, -8.8795051442880954e-02,
          2.1341639279222591e-01, 1.2209624264636278e-01,
          2.7895117795119693e-02, -3.6957922351804173e-01,
          -2.2313814364775555e-01, -4.6814913154209992e-02,
          5.9331352426252693e+00, -2.1059469660183386e-01,
          -6.8075367483522206e-02, 2.1578091126656266e-02,
          -2.2907360029404930e-01, -4.9979630024630833e-01,
          -1.1170225254890442e-01, 3.4895104447883608e-02,
          -8.1353430363540202e-02, -1.0271119420131748e-01,
          5.7290937190873181e-01, -2.6218948735284124e-03,
          2.2057096876621874e-02, 4.3894282725370548e-02,
          2.3203979208377839e-02, 1.0924080594438390e-01,
          -4.0610716276371805e-01, -7.9334916967023064e-02,
          9.4172500142878673e-02, -1.2896544977806615e-01,
          -8.4664441130803916e-02, -4.2147617272124843e-01,
          -1.9055246236858400e-01, -6.7371582200148272e-02,
          1.9929879847364353e-02, -2.0441970963575432e-01,
          -9.2847781127891379e-03, -1.0287317146866529e-01,
          1.5017380220571963e-01, 2.8741168824013025e-03,
          -1.2444270622207236e-01, 8.2095834428705258e-02,
          -3.2153566925165422e+00, 2.7764309020417832e-01,
          3.3999155234838490e-03, 3.3268891958737688e-02,
          -9.3194739874755975e-02, -1.9121810406112114e-01,
          -7.6256869045678868e-02, -2.9531931503910724e-01,
          3.6811524316631226e-02, -6.0704210522603708e-03,
          -2.9651500332128505e-01, -1.5957559831627846e-01,
          8.7382440157212471e-02, 1.4899059917159782e-01,
          2.2404327989952558e-01, 8.3278635841375806e-02,
          -8.4868296715618925e+00, 1.2809711262728994e-02,
          2.5705945622956042e-02, 3.6781036772737841e-01,
          -2.7943461788230256e-01, -4.0340922839441701e-01,
          -1.4275067868648149e-03, -1.5715832723886683e-01,
          1.6977751753148584e-01, 2.8378093516915909e-01,
          1.6245329156023135e-02, 1.6792932863368842e-02,
          2.2398135612456843e-01, 9.7058620640195201e-02,
          1.9673077266038308e-01, -1.8385632325299453e-01,
          -6.8232183888594946e+00, 1.7070519673699031e-01,
          3.3636112657607992e-02, 2.7298977697659482e-01,
          -8.9360720361560037e-02, 9.4173125285984705e-02,
          -3.1007898256099858e-01, 5.7316430722205935e-02,
          -2.8286722067039801e-02, -2.0937335059630371e-01,
          1.6228938856921063e-01, 4.3396786834988849e-02,
          3.1302243594678297e-01, -1.1203798094806974e-01,
          3.6661840151629113e-02, 7.5996194387063856e-02,
          -2.9043697105028090e+00, 1.5888104155627811e-01,
          -8.9307525288308959e-03, 1.8488725137350331e-01,
          -2.4630160818265040e-01, 7.2130948451193388e-02,
          -1.8288570616409588e-01, 4.7849024385764688e-02,
          5.7838125661119379e-02, -5.0980225466997896e-02,
          1.8709765563475517e-01, -2.0182979938436435e-01,
          -3.2616010018099946e-02, 8.8583613687179836e-03,
          -7.9609375877592592e-02, 2.8055595830938496e-01,
          2.0853248887703386e+00, -2.5803803553329618e-01,
          -1.1823076387744132e-02, 3.0367738269751914e-02,
          -3.3941559267680932e-01, -2.4745538621063193e-01,
          -5.7570721861399415e-02, -1.7753770182145290e-01,
          1.4260525408977651e-01, 1.7850178964830279e-01,
          2.8395829211443135e-01, -2.8625375838442374e-01,
          5.7571480969758330e-02, -2.4887092900252386e-02,
          2.1345502904986771e-01, -1.8601055536534787e-02,
          -1.7999708486219050e+00, -3.3399913321185631e-01,
          8.2588528731529762e-02, 8.9629182641676811e-03,
          -2.6032473788288468e-01, -1.4776455142846240e-01,
          -2.1015479686714247e-01, -5.3855802425345302e-02,
          8.4227004040691902e-02, 1.9400735833813879e-01,
          1.7208871026357586e-01, -1.8691364429071317e-01,
          -1.2974237737863091e-02, 1.0666129566343008e-01,
          1.9814582029418573e-01, 9.7208640801422386e-02,
          8.7307983548175239e-01, -6.0404249215907355e-02,
          -3.3115897992408949e-01, 1.2285458201982823e-01,
          -3.5280554804264214e-01, -1.3690786554569687e-01,
          1.4974125813798952e-01, -1.6133252703637350e-02,
          1.9807208900562506e-01, 2.5872992418254620e-01,
          1.4898414130891663e-01, -3.1194784997031183e-01,
          2.7761297806227336e-01, -4.0469833054557747e-01,
          -9.9060454733186865e-02, -1.5056507273034392e-01,
          3.0574490390693798e+00, -2.5912794619663293e-01,
          -3.3075492350388241e-01, 1.5414854739208846e-02,
          -3.0686693236680729e-01, -3.6306358230951480e-01,
          2.0286887758094865e-01, -1.0515049849633210e-01,
          9.6327549991386749e-02, 3.7978217814012327e-01,
          -2.8707141439426775e-01, -2.4787030558031906e-01,
          2.1108629314660346e-01, -4.5477906681334379e-01,
          -2.0281378938252334e-01, -4.4001856354886465e-01,
          -3.6120477914718538e+00, 5.0185037885123089e-03,
          -2.7377731495907620e-01, 8.9885110172670632e-02,
          -1.7818119812244801e-01, -7.6585060260892956e-02,
          2.2224385376690609e-01, 1.7147267338102665e-01,
          3.3960225668475075e-01, 3.9344330266006555e-01,
          1.5940557764803964e-01, -6.3347962217686848e-02,
          1.2627656853477900e-01, -3.9780301704732618e-01,
          -4.6651059125819794e-01, -1.9768231910524531e-01,
          -2.8534673637704100e+00, 2.3690900811211674e-01,
          -1.7400654837170437e-01, 2.9367822991565695e-01,
          -2.9026704844472189e-03, 1.4207220694482814e-01,
          4.4237664358786494e-01, 1.9746060408528374e-01,
          1.5321975589367048e-01, 1.6930523166670383e-01,
          5.8048188595960434e-03, -1.8145431072693177e-01,
          2.1546435657243190e-02, -3.8957223166254640e-01,
          -2.3837512806083277e-01, -1.4993125501169024e-02,
          -4.1379185882227949e+00, -2.4865616143501228e-02,
          -1.2437606442115071e-01, 1.5929725229630928e-01,
          -3.4744313433831372e-02, -5.7046201971780779e-02,
          2.7310510245413372e-01, -2.4062013654683734e-02,
          1.5083813049793282e-01, 1.7546292995793547e-01,
          1.3070026641654359e-01, 2.3738434132645211e-01,
          1.9189947057070694e-01, -1.7514874532429459e-01,
          -2.1709095110439564e-01, -1.1699197707209784e-01,
          -4.0247595385883601e+00, -2.9781530130092776e-01,
          -9.2382996347460236e-02, 1.6806755805793128e-01,
          -1.5913328788145284e-01, -3.0140330422740813e-01,
          3.2691923930108813e-01, -1.8000738230182785e-02,
          -2.9003657649503977e-02, 2.8583802802780051e-01,
          1.7798083547366145e-01, 2.9425865688068603e-01,
          2.2680511646808804e-01, -2.2374812600195326e-01,
          -1.0567602112096348e-01, 4.9562003063644729e-03,
          7.0827229514562917e-01, -1.2267028234203863e-01,
          -5.4018629808892125e-02, 1.0993664316121578e-01,
          -2.9700416030083543e-01, -2.1571281819997207e-01,
          6.8388529525716432e-02, -4.5940990264005603e-02,
          -1.9843315602679570e-01, 1.8735465993158018e-01,
          2.9474825864432297e-01, 2.7874862080636392e-01,
          3.1096060681367232e-01, -2.9511440566019925e-01,
          -3.7821580218413065e-01, -6.6108615115689912e-02,
          6.7303411908159658e+00, 1.2605860172452313e-01,
          -4.4021365484066899e-01, 1.3565581916805067e-01,
          -2.3134758743929237e-01, -1.9617069649661004e-01,
          -9.2894677321541747e-02, 8.9831498488337741e-02,
          -1.0747650875051314e-01, -1.0533873163686307e-01,
          1.0633315634873296e-01, -5.1878231550442182e-02,
          1.6200007312148315e-01, -4.4712159893586750e-01,
          -1.9511542855128314e-01, -1.7443130505826060e-01,
          4.0576833286945035e+00, 1.8825312347066361e-01,
          -8.5922166602954000e-02, -7.7398973117275796e-02,
          -2.3654955800906199e-01, -1.3941201795745337e-01,
          -1.2473215168338819e-01, -8.4986492768647517e-02,
          -3.1085264998286255e-01, -2.4634933310547033e-01,
          7.8123984169446950e-02, 1.1582882180782475e-02,
          1.3726570333811394e-01, -2.2564962817114467e-02,
          -1.7778058359017712e-01, 1.8731336534801479e-01,
          -3.7931378852024822e+00, 3.7221775769421295e-01,
          -1.4386809656049077e-01, -3.4120211111784715e-01,
          -5.7823809366211086e-02, -1.5630652797551134e-01,
          -2.4461047683139192e-03, 1.0709703605980432e-01,
          -2.0947318412197519e-02, -1.2960822487548218e-01,
          -5.0023979948204789e-01, -1.6007187001928894e-01,
          3.3302318857400970e-01, -3.3040046012912432e-02,
          -4.4517694943371445e-03, 2.7835151452202827e-03,
          -3.9993652435092915e+00, 2.8003467366686430e-01,
          -2.4352106063020126e-01, 2.4635792996843817e-01,
          -1.6592720887766996e-01, -1.6586214741729971e-01,
          -1.9100716792466953e-02, 8.5405732900592432e-02,
          2.7409858413145816e-01, 8.5806113315381086e-02,
          -4.1608449872391573e-01, 9.1095695358253716e-03,
          3.0879442186845879e-01, -1.3983690710365745e-01,
          -2.6867767885785661e-02, -2.3993888297938784e-01,
          -5.8695656344314138e+00, 1.9755922909143239e-01,
          -2.8379991065078802e-01, 5.3159045487699474e-01,
          -2.0709316773699604e-01, -5.8800369268026620e-02,
          -1.6493384229463869e-03, 2.4417015067170186e-01,
          2.1471661110091872e-01, -3.4707200698311541e-02,
          -2.0770516624994535e-02, 4.5899255605879360e-02,
          4.2684116745590528e-01, -1.2269728089167423e-01,
          -3.0455269998503331e-01, -4.3190505968979870e-01,
          -5.6861495717110380e+00, -1.3931425735629308e-01,
          -2.4466433368976095e-01, 4.2763166361926785e-01,
          -1.1392526189008763e-01, -6.5611484054629216e-02,
          -1.9219795082820862e-01, 2.1279108550885170e-01,
          1.7144394034878940e-01, -2.0497590589997222e-01,
          3.2485401713098777e-01, -6.0329099555878982e-03,
          2.2699235236138093e-01, -3.1991991666059955e-01,
          -1.4101343395786686e-01, -2.0064226161510022e-02,
          -3.2145999178029028e+00, -7.6467343622816930e-02,
          -2.9356662818252310e-01, 2.0008994841940075e-01,
          -3.3236855216496058e-01, -9.1103467699846424e-02,
          -4.8370648679139545e-02, 1.7542855901049076e-01,
          1.6262020339266844e-01, 4.0285448306389270e-02,
          2.5167014307349828e-01, -3.8017688050182474e-01,
          4.0858909279154115e-02, -3.7079643019471459e-01,
          -2.7926719153282203e-01, 1.9743929706483965e-01,
          2.3266909427331708e+00, -1.1205016317171695e-01,
          -2.8149527161314020e-01, 1.5577018757328129e-01,
          -3.4337266051006149e-01, -2.5584200906362192e-01,
          1.6290538429114210e-01, 2.1319020334563424e-01,
          2.0591277471752270e-01, 2.2808648689366398e-01,
          3.8390764827658430e-01, -3.3231419735246714e-01,
          3.0203712999379156e-01, -3.2818650472363875e-01,
          -1.3037044964444786e-01, -3.3407011703369999e-01,
          -1.2545089403896492e+00, -1.7510478630181658e-01,
          -1.6619844005849562e-02, -6.4976666210949649e-02,
          -3.2574798435127927e-01, -4.7367278460105378e-01,
          -2.6174536094961736e-03, 3.3240886299635225e-01,
          2.1081049758963322e-01, 2.0817206271575067e-01,
          3.2403098604143560e-02, -3.4751317503706292e-01,
          2.7771735514262885e-01, -1.7832573926537040e-01,
          -2.0605583495825466e-01, -2.3689391660641410e-01,
          1.6265217153093749e+00, -1.2224868644629470e-01,
          -2.2935943893824287e-01, 8.7970760039953484e-03,
          -2.5876868161368988e-01, -1.4855791435013463e-01,
          3.8413837497261939e-02, -2.6676476447501229e-01,
          1.4211079873899746e-01, 2.3172616921249004e-01,
          2.0967704256808961e-01, -3.5828849721583150e-01,
          5.3938363985795400e-02, -2.1839903497384033e-01,
          1.5338869392827775e-01, -1.9914041639803043e-01,
          1.0664599036602400e+00, -2.7888102238888818e-01,
          -2.9185312167879013e-01, 1.6829391860201126e-01,
          -3.3982679516992903e-01, -4.2835947278100805e-01,
          1.9163670385587031e-01, -1.7054572113873728e-01,
          1.4020418578373461e-01, 3.2215818146516512e-01,
          -2.3634474994000274e-01, -3.5193049851157154e-01,
          1.7859053025185212e-01, -1.6827578108080354e-01,
          -1.6245243327979700e-01, -3.9679117198292280e-01,
          -6.4246992928994064e+00, -1.4920667570267152e-02,
          -2.0160454444244030e-01, 2.3607305489306016e-01,
          -2.7161861259189266e-02, -2.9774103434883098e-01,
          2.6185224720229983e-01, 3.7745706328330859e-02,
          3.7922854407175638e-01, 1.7095789836732916e-01,
          2.2198919968574410e-01, -2.2826013246578580e-01,
          -5.6000722106936705e-02, 3.8979475315483701e-02,
          -2.7820725491443832e-01, -2.1521644166816015e-01,
          -5.6847037880746534e+00, 1.0299545529406061e-01,
          -1.7260409279910299e-01, 3.2721632391665079e-01,
          1.2141088841931937e-01, -2.1432187383644630e-01,
          2.5189591691113722e-01, 1.4000091674378942e-01,
          3.9171096440817083e-01, 2.4916252039180342e-01,
          3.7149744318258349e-01, -4.1635882414645348e-01,
          -1.3786867777001333e-01, -2.6467244668474443e-01,
          -2.7013565396356054e-01, -1.7152677934610808e-01,
          -5.0797387591694898e+00, -4.5633365820150144e-02,
          -2.1301667170526443e-02, 2.9560914011821005e-01,
          8.2915620948375998e-02, -1.8199018436976463e-01,
          1.7086665926506142e-01, -1.4364590288782672e-01,
          1.0297819171757044e-01, 2.6011243586272043e-01,
          2.9027741116453298e-01, 2.3021143446530581e-01,
          6.6776807419717796e-02, 1.4992647197718062e-02,
          -1.4835113889197096e-01, -3.0448350590888001e-01,
          -5.7063952513021023e+00, -2.1684742904612078e-01,
          -1.2348012129581572e-01, 1.3741267044256736e-01,
          6.8392874532247086e-02, -3.3542720316399721e-01,
          1.1082908758948917e-01, -8.8419444433237848e-02,
          -1.1756239621025780e-01, 4.5028107455594441e-01,
          1.7671372021583986e-01, 3.5413531117855196e-01,
          2.4102938155493481e-01, 3.9414732454982407e-02,
          -1.6421282778247820e-01, -3.9895761900843490e-01,
          -1.0389372370770229e+00, 1.8864926778571012e-01,
          1.9688180008340281e-01, 3.1250620368409787e-01,
          -2.0446304069596619e-01, -4.1232385410640021e-01,
          1.4145535333616108e-01, 1.0786148061434191e-01,
          -3.3035023561758400e-02, 1.0971859861220294e-01,
          2.9873585011044795e-01, -1.0513242017861846e-01,
          1.6401411117410472e-01, 1.9164815091868834e-01,
          -1.0575267590531828e-01, -2.6896810688962686e-01,
          1.5637347607157113e+00, 5.5791436945768713e-01,
          -1.8864400844486365e-01, 4.6780936253446131e-01,
          -2.8399806326102789e-01, -1.1159955380254806e-01,
          -3.8970238413992178e-02, 5.5786131515908798e-02,
          -1.5319919051543476e-01, -2.7367871491501661e-02,
          3.3441614030141431e-01, -4.5356667300130445e-02,
          2.4894536497134970e-01, -2.1306340721550512e-01,
          2.0432807941508949e-01, 6.0921453502598769e-02,
          3.9982868769367443e+00, 1.9232633130853760e-01,
          2.3722778872022864e-02, 3.0826648596933998e-01,
          -2.7363340067900105e-01, 1.3893372723462233e-01,
          1.0928775099042666e-01, 8.4814108101742239e-02,
          -3.2565978486005415e-01, -1.7404647867629269e-01,
          1.2935666209085886e-01, 6.0856207276447333e-02,
          3.5882800811229881e-01, 5.6362505174386013e-02,
          1.8912701783981190e-01, 2.8286007469386382e-01,
          -1.7765654627847391e+00, 3.9332680578670665e-01,
          -2.6004251339557277e-01, 1.8983968181975130e-01,
          -1.3073474087633504e-02, 2.5429930720069405e-01,
          -5.2850505276540644e-02, 3.4504336449632966e-01,
          -2.1022942363467087e-01, -3.1191040756268235e-01,
          -3.1401827167077534e-01, 1.8023707471954364e-02,
          3.8815221470182398e-01, -7.9465164631729000e-03,
          8.3218973911873398e-02, 7.6577797504511630e-02,
          -4.5053804745843617e+00, 4.4446342527115756e-01,
          -1.7087814315271282e-01, 5.8501545893990425e-01,
          -9.4304378978239067e-02, -2.0258620438511499e-02,
          -2.3919511902188914e-01, 2.4516706956160972e-01,
          1.7455103345673292e-02, -1.1713193912138009e-01,
          -2.4969933498330027e-01, 1.4199794533645391e-01,
          4.7277102465262055e-01, -9.7148191526560276e-02,
          -1.4767294930230468e-01, -3.0739585033977973e-01,
          -5.8829433911840319e+00, 9.7151550824343874e-02,
          -1.8397054758702910e-01, 5.7104049280352120e-01,
          -2.6666180199909778e-01, -1.6836432097018997e-01,
          -1.5524375311559663e-01, 1.6391976556431645e-01,
          -6.0881146749404043e-03, -3.8088528884718337e-02,
          -1.6070224668022709e-03, 9.0141631167511518e-02,
          3.3562478307672616e-01, -1.0834434136726219e-01,
          -9.5268134016750397e-02, -4.0917851260265664e-01,
          -7.3058042406596480e+00, -2.5231898014391702e-01,
          -3.6892639585331832e-01, 3.0975409418499472e-01,
          -4.1819943825093653e-01, -3.0053860900138585e-01,
          -7.5582913508719020e-04, 1.7493588738735691e-01,
          -9.1381409616161480e-02, 1.8888918314791814e-01,
          2.0372952726486043e-01, -3.9264490717155709e-01,
          3.0340957057040530e-01, -1.9470869250758829e-01,
          -2.1917989870697363e-01, -1.9368289063827920e-01,
          -4.1202106907986220e+00, -2.8346569612162426e-01,
          -2.8905172259231016e-01, 2.4077485136422672e-01,
          -5.6605244586445624e-01, -2.9652274775244675e-01,
          9.2929839247292451e-02, 2.4545821880450214e-01,
          -4.4064082314757502e-02, 2.4223124264628204e-01,
          3.4635399914458825e-01, -6.8238443741468857e-01,
          3.2469539116465451e-01, 2.5966356225074570e-02,
          -3.8640508476964208e-01, -1.1677280744353863e-01,
          7.3696491059704861e-01, -2.6711053002220608e-01,
          -2.1179394438541385e-01, 2.8823070734640949e-01,
          -4.5666674363870230e-01, -2.1439230942154228e-01,
          1.7473147630236999e-01, 1.5305171098786838e-01,
          7.1534226723669603e-03, 2.2116574281795878e-01,
          2.7235521736448171e-01, -5.3126470951862237e-01,
          2.6170691803078872e-01, -1.4765683369344682e-01,
          -2.2635204360433192e-01, -3.0043902673805145e-01,
          1.4601811233026141e+00, -1.6542084502863899e-01,
          -1.3229378872967562e-01, 2.9130674469757112e-01,
          -3.5095876905397061e-01, -2.9125200760631448e-01,
          1.7599646102280236e-02, 2.1268056003050420e-01,
          1.1154612208332138e-01, 8.8271485457289939e-02,
          -2.5908245149557189e-03, -4.1075832749709595e-01,
          1.5839964496314482e-01, -3.5802087219345785e-01,
          -1.7658299001872563e-01, -1.8854360993805899e-01,
          -3.3857480524971679e+00, -2.8349023487330161e-01,
          -3.2848851440893451e-01, 2.0592194871851657e-01,
          -1.9375245375836209e-02, 7.5268976639488797e-02,
          -1.2588598705033027e-01, -3.0802016677553923e-01,
          -1.1378142599044273e-01, 7.5401872149612496e-03,
          -4.7599330387718647e-01, -1.0845729856569707e-01,
          5.0382650264754594e-02, 5.8201886773447875e-03,
          -2.3718685919866665e-02, -1.8004170753178483e-01,
          -4.1330245743734881e+00, -3.1895951626348501e-01,
          -3.5937107361463178e-01, 4.2156902330044077e-01,
          4.2253449434861264e-02, -1.5266218741003862e-01,
          1.5839394207500559e-01, -3.2417594936083510e-01,
          1.3935520556341965e-01, -3.9886462309417975e-02,
          -3.0011710063113484e-01, -5.8959241660023842e-01,
          -7.6338079711730469e-02, -3.3107505983553748e-01,
          -8.1888581634053548e-02, -2.9867830366935921e-01,
          -7.9468318697753473e+00, -1.8385116915511399e-01,
          -2.4557906131518870e-01, 5.0564262331670695e-01,
          2.8618680674478741e-01, -1.6613408627653681e-01,
          9.8392591587202927e-02, -3.7651319946415934e-01,
          2.5869464618276095e-01, 1.6396795262758515e-01,
          1.1539662214136265e-02, -2.7723621843154622e-01,
          -1.8835944814262706e-01, -1.9356861693993796e-01,
          -1.1952025864610544e-01, -2.4587083585722053e-01,
          -9.3011036369278983e+00, -1.4307570962929733e-01,
          -3.1825462059933285e-01, 4.5705613012989987e-01,
          4.6159548556977481e-01, 6.7045130068182898e-02,
          2.4996197636782368e-02, -2.7010888230025554e-01,
          2.4850257424914576e-01, -4.2956920913778583e-02,
          1.7348092815828134e-01, -5.8752738558733897e-01,
          -2.6750043997531653e-01, -4.0403997496006566e-01,
          -1.2671558472319633e-01, -1.7915288107976643e-01,
          -8.7665640698043568e+00, -2.7464595098339017e-01,
          -2.4298446933289541e-01, 4.7050369377314760e-01,
          5.7158964548348645e-01, 1.6478391715775084e-01,
          -4.0618443611007755e-02, -3.7495581450627972e-02,
          -1.0839487609818269e-01, 1.2541913134648497e-01,
          1.9866934678425461e-02, 5.8101766314953094e-03,
          -3.2196343308523900e-01, -1.2654054473718598e-01,
          -3.1946057846483855e-02, -1.6942285341148619e-01,
          -8.0180654538551099e+00, 9.3568931543205724e-02,
          -2.3266007854310919e-02, 9.1783928624982136e-02,
          3.3584825582292105e-01, 2.1963827315999859e-01,
          -1.4693022735047176e-01, -1.7243734647363243e-01,
          -2.2503114363012883e-01, 1.8709153967088518e-01,
          -4.0140249758314130e-02, -2.6649263682674677e-02,
          7.2967111531677592e-02, 9.4682752461566669e-02,
          1.9121227449027076e-01, 2.7175848934981464e-03,
          -3.0078305346271677e+00, -1.5519613663059587e-01,
          1.7222788539818168e-01, 2.4234843724621100e-01,
          2.1805591500316751e-01, 4.1992910757117985e-01,
          -1.3871961037148895e-02, 3.5148270811054300e-01,
          -2.9786942073384674e-02, -1.9142512052315691e-01,
          1.9766010915524998e-01, -2.7256093959640448e-01,
          -7.6938127348222651e-03, 9.6954672170964415e-02,
          -1.8128065596508700e-01, -2.4974702316267475e-01,
          6.5972972375347738e-01, 3.5323724774530019e-01,
          8.7288479495866191e-03, 7.8138490164203170e-02,
          1.0952186958457626e-01, 5.3453129951820988e-01,
          -1.0233248895083417e-01, 1.1603602925539672e-01,
          -9.9853245783231102e-03, -4.4403070059793864e-01,
          5.8982761487260282e-02, -3.1938475969726127e-01,
          -2.9583854107933598e-03, -7.9423617193873045e-02,
          1.7595452642013840e-01, 1.7945413806713983e-01,
          2.2076606457122803e+00, -8.1573609319436999e-03,
          3.4059957172621458e-01, 4.7093947070629866e-01,
          2.6036441005364820e-02, 3.7042799107733099e-01,
          -4.8686793416217858e-02, 3.5212818740850149e-01,
          -2.6522255537085337e-01, -3.1059368173368712e-01,
          -2.5856556886225052e-01, 2.9625525157593532e-02,
          3.5829328566210333e-01, 1.9649050807844268e-01,
          -2.3003205271710747e-01, 1.3726422654013340e-01,
          -1.0174263788931162e-01, 2.2412001222217112e-01,
          -1.4359100715306541e-01, 5.7419262987753594e-01,
          1.1553725380048956e-01, 1.9132128931086959e-02,
          -2.3102552163210069e-01, 2.1109796792735694e-01,
          -1.9004694853514850e-01, -2.2159648487298247e-01,
          -8.1420283279457398e-02, -7.6747719942013418e-02,
          4.1496574242325895e-01, -3.7716962943825108e-02,
          3.5082560192415047e-01, 6.9823549350107234e-02,
          -5.0061342790926044e+00, 2.3525398312414803e-01,
          -3.4856790920352665e-01, 5.1943921722566644e-01,
          -1.8041462741023290e-01, -1.2833802126614424e-01,
          -3.5621692636495095e-01, -1.6234653648180802e-03,
          1.3643943879675752e-01, 6.7504330782473141e-03,
          -3.0623568858639055e-01, -1.2876482683788096e-01,
          3.7171304094863172e-01, -2.3019186912715292e-01,
          6.6096975296468075e-02, -4.8334226876013120e-01,
          -5.9909798659509814e+00, -3.3236325765310021e-01,
          -4.3977311645152584e-01, 4.4859362080698945e-01,
          -4.4922401938964590e-01, -2.4542638082293103e-01,
          -1.0915146254605740e-01, -1.4383460279934329e-01,
          -1.2225087035961245e-01, 2.6133124868710955e-01,
          1.9689307444661748e-02, -2.5795806152816264e-01,
          4.7250916197457088e-01, -2.5841509427869863e-01,
          -1.7914500799714472e-01, -7.0366056101280050e-01,
          -7.2749342256710827e+00, -4.8934623781964659e-01,
          -4.2094783723010387e-01, 3.4980390462377264e-01,
          -3.5740697426729640e-01, -6.1104716379217182e-02,
          -1.0959677272846036e-01, -1.9633116292878214e-01,
          -3.0623270009652509e-01, 2.3564444024351722e-01,
          9.7176935395224151e-02, -2.1667349244188511e-01,
          4.2957512711453855e-01, -6.5084681891324533e-02,
          6.1533548000315748e-02, -1.0298930059809301e-01,
          -4.2866207017279372e+00, -4.6649930060605188e-01,
          -1.7439924530129106e-01, 4.9290820332365304e-01,
          -4.4525758118285358e-01, 1.7320167215348979e-02,
          -5.3588998179791937e-02, -9.7155625680864693e-02,
          -5.0040437752037326e-01, 2.7369787339377616e-01,
          -1.9482534121102218e-01, -2.9227037627940050e-01,
          2.8507477181805846e-01, -1.8065504456671019e-01,
          -1.4063163496571671e-02, 2.1896757214266946e-01,
          -3.8719252662513926e-01, -4.0653520165494417e-01,
          -3.7041357495557276e-01, 1.0284058109059537e+00,
          -3.9444284509072502e-01, -6.6232195089989107e-02,
          1.9072175003670835e-01, -7.4162859167330231e-02,
          -2.0892477710222951e-01, 1.1227931272615628e-01,
          -2.4823344197224223e-01, -3.7049323588066774e-01,
          3.1520385057591704e-01, -3.8214200041556001e-01,
          -9.7141347754440485e-02, -2.7027365023044869e-01,
          -8.4193425133523103e-01, -3.5222349918288481e-01,
          -3.3236407409165036e-01, 3.0782666486508259e-01,
          -2.3113954071913104e-01, 3.8723979353294871e-02,
          -6.4861834399935633e-02, -4.3942030410823646e-02,
          -2.8208870137935177e-01, 1.6607216731884164e-01,
          -5.4569841818510678e-01, -2.2251503607667569e-01,
          1.6482033848747299e-01, -3.9218600447831570e-01,
          -1.6418841791828095e-01, -2.3710487045263351e-01,
          -3.7029619268650547e+00, -3.0353546008756965e-01,
          -3.3263981099109968e-01, -1.2364876841718472e-01,
          -1.1365728312068267e-01, -1.1095591826203492e-01,
          1.3176824149291294e-01, -2.4137945311952957e-01,
          1.4314436264243657e-01, -5.4896421128610096e-02,
          1.1637738815951060e-01, -5.4464997810611337e-01,
          -1.6806907447060240e-01, -1.2662379145360636e-01,
          1.5025673489226024e-02, -2.0570158855406484e-01,
          -3.4746932318488910e+00, -3.5748599147190646e-01,
          -3.7739364858032348e-01, -4.0454335586582856e-03,
          3.7914377089767639e-03, -9.1109092856104384e-02,
          1.9969532172059767e-01, -2.4327733539115418e-01,
          1.6494689669309889e-02, 1.3744231517117974e-02,
          -1.0055198881161803e-01, -5.6355379087397184e-01,
          -2.2186356084724634e-01, -2.3548509670278076e-01,
          1.2485738421693213e-01, 1.0849528880821720e-01,
          -8.7739838992966863e+00, -2.2908459129031250e-01,
          -7.9598534177670086e-02, -1.1149306684290329e-01,
          1.8076386227448404e-01, 1.4254132534431074e-01,
          -1.4920328335733113e-02, -3.0261459893831039e-01,
          3.6735731720920602e-02, 2.4406914818068740e-02,
          3.1746715477708742e-01, -4.0006066975976551e-01,
          -3.0580265039868393e-01, -7.6682622341281356e-02,
          -1.8107017005308493e-03, 3.8002236831790925e-01,
          -1.0546347400350731e+01, -3.7362154898062626e-02,
          -9.2890052006020893e-02, -5.5510133395831558e-02,
          2.9122377483726852e-01, -3.4627787241734979e-02,
          -1.5594483251097883e-02, -1.6632958190227884e-01,
          -1.5606503524826901e-02, -1.9035527700275702e-02,
          4.9268422579906435e-01, -5.7759113630976722e-01,
          -2.7676922272369087e-01, -1.7245610177437720e-01,
          6.4141013190686382e-04, 1.3745515073788714e-01,
          -1.2435616121635922e+01, -5.3713038077121425e-02,
          -2.4224623911756224e-01, 3.2011488453803177e-01,
          1.9970266816600110e-01, 1.1316504354523350e-01,
          -7.8619415715928731e-02, -5.1120557749003363e-02,
          -1.9839680593412398e-01, -1.9348926476909156e-01,
          -1.9915681655955469e-01, -2.5520684068017319e-01,
          -3.3234806340762724e-01, 7.9690321865993535e-02,
          1.4154254984019202e-01, 3.3339056102214026e-01,
          -1.2293798087632352e+01, 1.7369801454832318e-01,
          -2.1379174340297366e-01, 3.0740588510219713e-01,
          1.8113628257979600e-01, 1.6671396221423682e-01,
          -5.1695602474811059e-02, 3.5123989530044392e-02,
          -1.5243459797104211e-01, -1.0502046763611363e-01,
          5.4456531852130882e-02, -1.5911930305329314e-01,
          -7.7647979951079981e-03, 1.6186446697979687e-01,
          1.7023193461054381e-01, 1.4676309625080994e-01,
          -4.2534187943045394e+00, 3.6598265843162510e-02,
          3.1686171465781027e-01, 7.3395507642665156e-02,
          2.7076802280961265e-01, 6.5393432235631288e-01,
          8.2720627774894626e-02, 3.8120581166871836e-01,
          -1.4409450375683980e-01, -3.5008040634193882e-01,
          3.4459480841260676e-01, -1.7284618164478266e-01,
          -5.2620881879549622e-02, 2.7806062693070521e-01,
          3.1121461008127388e-01, 3.4067058955411178e-01,
          5.0675660433878744e-01, 6.2274983783341520e-01,
          1.8425350059973458e-01, 7.3116130949618427e-02,
          -2.4740939615664054e-02, 2.5393423173063967e-01,
          2.6107387733609932e-01, 3.4926034667444589e-01,
          1.6878945894548342e-01, -1.5648390039238458e-01,
          1.9748964982895520e-01, -5.1216552519972602e-01,
          -8.5719736264105229e-02, 1.6492008946791273e-01,
          4.1840946799190004e-01, 3.6327674185711721e-02,
          -1.9556395347910865e-01, -1.4766631371025943e-01,
          1.7067372603511960e-01, 1.6889779409490696e-01,
          -1.2738493336828471e-01, -1.1544482629857437e-01,
          2.6057538458832197e-01, 5.2140323790818455e-01,
          3.2774170135140474e-01, -8.5192476299195435e-02,
          -3.0779021299597070e-01, -7.3681128389816719e-01,
          -3.4200938368294305e-02, 5.1421571666740640e-01,
          1.1905532440198328e-01, -1.4322411939653168e-01,
          -3.2523289491767065e+00, -4.5844036290871493e-01,
          -2.2496467334340264e-01, 2.6643665568805780e-01,
          -1.5483684199658243e-01, -1.9730762297764554e-01,
          2.1698101496328873e-01, 3.4427935601556503e-01,
          2.9644789162986052e-01, 7.0875128304212096e-02,
          -8.1757266802451919e-02, -6.2590850515223029e-01,
          1.3062418853030286e-01, 2.1250780114987611e-01,
          4.3472793575585794e-01, 1.4208380965647529e-02,
          -8.6635958437656324e+00, -2.5917870564283263e-01,
          -5.0537938383653391e-01, 4.3704237042077382e-01,
          -2.5220931686565473e-01, -2.8022322670450656e-01,
          5.9371105072310568e-02, 1.4398224769404017e-01,
          3.5279640860597000e-01, 3.0637539682315229e-01,
          -1.1436414306854593e-01, -2.3765643368289366e-01,
          2.2913268220349791e-02, -8.1620631656988449e-02,
          2.6307185884095363e-01, -1.3519131295919062e-01,
          -8.2371147126254947e+00, -3.3252286113877760e-01,
          -1.5962852108536846e-01, 3.6232664935637526e-01,
          -2.6010919524362641e-01, 2.9039899825504617e-02,
          8.7151380480649035e-02, -3.9239075292549018e-02,
          2.0449997498898242e-01, 1.5102113903125253e-01,
          2.8069560433420354e-01, -3.6723494121414368e-01,
          7.0521119026267912e-02, -1.8758871571031197e-01,
          -2.6538301091789507e-02, 1.7486901744947460e-02,
          -8.8086674788424055e+00, -4.8753900273751233e-01,
          -2.3669247016308653e-01, 4.3059010308292023e-01,
          -1.1841232196845566e-01, -5.7621829344801706e-03,
          7.4982091924511871e-02, -1.3792488733969502e-01,
          -8.9765200346203916e-02, 1.8811959183753408e-02,
          2.3594301376779775e-01, -2.4582691222819777e-01,
          2.5797830573972023e-02, -1.8712008940793048e-01,
          5.9848197060195209e-02, 1.1216244830409562e-01,
          -8.6077334918541393e+00, -4.1892036839513502e-01,
          -2.8592747159657278e-01, 3.5745497965096051e-01,
          -2.3266523052168611e-01, 9.6294696584929701e-02,
          5.6798358082219932e-02, -1.3479432164909355e-02,
          -6.6075758207282204e-02, 3.8254244116890504e-02,
          2.6937096722688698e-02, -1.6432962346587332e-01,
          -1.3398262493677063e-01, 5.0554522072065983e-02,
          -1.8459012907780018e-02, 2.9359030357985633e-01,
          -5.8369952618964218e+00, -3.3341007944813605e-01,
          -4.2931606157597402e-01, 3.4207546203794981e-01,
          -1.9126155086113530e-01, 2.1813582681058738e-01,
          8.0710860414376265e-02, 5.4461587375496140e-02,
          7.1112543508056070e-02, -1.4639654315580525e-01,
          1.0245147366919020e-01, -6.1178663632131802e-01,
          3.0243139084582552e-02, -7.6325359762467432e-02,
          -1.2331182477417273e-01, 2.7072808961753769e-01,
          -4.9664426010794429e+00, -3.5529169338098149e-01,
          -3.6685833440821430e-01, 1.9021793222677880e-01,
          -2.6452041675889850e-02, 4.1169243520281290e-01,
          -1.2384518814188900e-01, 4.4023853261435812e-02,
          -2.3162459885826377e-02, -3.0355038078869706e-01,
          8.7715646198966976e-02, -5.9327191036480698e-01,
          -7.4452856326119934e-02, -5.9717994103264907e-02,
          -2.2212300737982324e-01, 3.6911741610236876e-01,
          -1.2842562153926965e-01, -1.7705495706511157e-01,
          -2.0697213295123157e-01, -1.8941615277766058e-01,
          2.4010130069817105e-02, 3.1461282280172276e-01,
          -4.9563868590673410e-02, -2.4052020193160806e-01,
          -3.2045350623221870e-02, -4.5202691631570635e-01,
          1.1881117200539771e-03, -4.3389981689455909e-01,
          -1.8067917182125681e-01, -4.4096575771428137e-01,
          1.4230278760103196e-01, 3.3009394195812308e-01,
          -2.0597204228734292e+00, -1.9410596563214447e-01,
          -1.8832638612952177e-01, 5.7851825609471635e-02,
          3.2626650855740909e-02, 3.8127985747662352e-02,
          1.8903524754241047e-01, -2.4146603009849663e-01,
          -2.6273992002451781e-02, -1.7021101044619935e-01,
          -2.4780598170769208e-01, -4.5644862976225253e-01,
          -2.5648249715012822e-01, -2.3094411401854775e-01,
          1.9932301466720978e-01, 3.0491292453383712e-01,
          -7.3200997425304068e+00, -1.5133312421099115e-01,
          3.2737804247865369e-02, -1.2245087111970956e-01,
          1.9834535453837940e-01, 3.4618678619047313e-02,
          3.0471352680752371e-02, -2.9816471895004915e-01,
          -1.6727598342477776e-01, -4.0346157161135994e-02,
          2.3747083223705059e-01, -2.4398575487983393e-01,
          -3.3214538586275283e-01, -1.7476578235601187e-01,
          1.6964422387499029e-01, 3.3982227295272621e-01,
          -9.2160015169135345e+00, 1.8202346061587413e-01,
          1.3618049917038208e-01, 5.7706517430266314e-02,
          5.4498475914878375e-01, 2.3350390772966387e-01,
          -1.1224348185156306e-01, -2.3155707107792450e-01,
          -1.0533481928559776e-01, -4.3044939158720874e-01,
          4.4271479295940047e-01, -3.2474637886050745e-01,
          -3.0440725454578971e-01, -2.1874514854286334e-01,
          2.6428366495362887e-01, 3.6450179502151564e-01,
          -1.0705765690490095e+01, 7.7324966079928267e-02,
          -6.4424740949981782e-02, 2.0357633020028171e-01,
          4.0515653405860380e-01, 9.6208133985508065e-02,
          -1.7899923160103956e-01, -2.2051058280122099e-01,
          -8.4364960659834565e-02, -4.0316742975859710e-01,
          -2.3985587283571080e-01, -1.7316904987047743e-01,
          -2.9392192613336943e-01, 5.7265420572715414e-02,
          4.2472270888572211e-01, 2.9204446867793582e-01,
          -9.9433337034878342e+00, 6.3148557892631239e-03,
          -1.5078175981605102e-01, 2.4780140036643039e-01,
          3.5066480665335009e-01, 1.0637181926711921e-01,
          -1.0496012270155998e-01, -8.0259403211369235e-02,
          -4.2484587969954864e-02, -2.7442093829003505e-01,
          -2.4739207722984619e-01, -2.6414267495699834e-01,
          -4.6186504168324823e-02, 5.4573882594495166e-02,
          4.1101874176178377e-01, 1.8403092031225524e-01,
          -4.3155412118734002e+00, 1.7792002145066790e-01,
          1.2221180687592997e-01, -3.2654716200248017e-03,
          3.6818256991775392e-02, 3.1652095693374099e-01,
          1.3091607229667276e-01, 3.7362819994858060e-01,
          -9.3128617620351350e-02, -1.8806323711055908e-01,
          9.9538581023176503e-02, -3.8566702778738321e-01,
          1.2695565935626010e-01, 8.8487045305889869e-02,
          4.1240136385048476e-01, 1.4881421560563066e-01,
          2.5732367316135512e+00, 6.4691042232346629e-01,
          2.9159548828954002e-01, 1.7096385064746847e-01,
          -1.3293535078514768e-01, 7.1685020585874823e-02,
          2.7731230830898052e-01, 3.8202860887898243e-01,
          8.6299933611209523e-02, -1.2331420991799831e-01,
          -2.4345076921379369e-01, -4.2645900740821169e-01,
          -7.7831984622822231e-02, 1.7438003134793650e-01,
          6.0555360630736754e-01, -9.1063339695566688e-03,
          1.1603636923637053e+00, 1.6794604581617878e-01,
          3.0304266638683236e-01, 3.4006347582818131e-01,
          -1.3964796377160243e-01, -2.8994464006763757e-03,
          3.1447428083855800e-01, 3.3791106567029744e-01,
          2.5505826319929370e-01, -7.9367556400813472e-02,
          -2.5215558820414552e-01, -5.1660764413596771e-01,
          -1.5969491069330916e-01, 3.6666642683551254e-01,
          4.8746147313758209e-01, 1.5974554615247799e-01,
          -4.6686218534054014e+00, -2.0915874065225223e-01,
          -4.5435180000927655e-01, 1.5599693095622244e-01,
          1.6293879292169861e-01, -4.9859964216987337e-02,
          9.9657320998189761e-02, 2.9138686491766536e-01,
          4.0677083309058909e-01, -1.8392915291119807e-01,
          1.6790136538143963e-01, -7.7186890419883802e-01,
          -6.1374676721260214e-02, 5.6002128304731717e-02,
          5.3532866437476978e-01, 3.5485950192772037e-01,
          -7.5830594893939809e+00, -1.3166213647164238e-01,
          -5.9250644757960547e-01, 4.0789662949849231e-01,
          2.9908073518044826e-02, -4.3343403550537819e-02,
          -7.7201061246681774e-02, 1.2173253881067428e-01,
          3.8011345334658059e-01, -6.6881240099969111e-02,
          3.2790716185956158e-02, -3.0414520706068388e-01,
          -8.1189491425554192e-03, -1.1365670531308925e-01,
          2.2848602923929795e-01, 6.3121662441852199e-03,
          -1.0135471318205010e+01, -1.8596138880016627e-01,
          -8.1031637204132284e-02, 4.2226650118725551e-01,
          -4.1158027145260768e-02, 6.3261305029218104e-02,
          2.2520444537341890e-02, -7.4225351023294453e-03,
          1.8114926928963704e-01, -3.3459670109545488e-02,
          1.7503495622170914e-01, -4.5670751201726567e-01,
          -2.0734090820087314e-01, -2.8424599470145789e-01,
          -5.7400057337480305e-02, 6.5931486422792659e-02,
          -9.6821273672309616e+00, -4.1702998092024318e-01,
          -2.1572506218456844e-01, 2.9417899857406349e-01,
          1.0637181208938630e-01, 6.2839005594431549e-02,
          -1.2346213470230394e-03, 1.5107772495553018e-01,
          3.7746563788861685e-03, -5.2204363547094228e-02,
          -2.7627992108849903e-03, -1.1178826946894548e-01,
          -9.2740549847196541e-02, -3.0019472586445700e-01,
          -3.7440667986352888e-01, 8.4136735076834362e-02,
          -8.9228914616554462e+00, -3.1531623897287236e-01,
          -2.8238823891418824e-01, 3.5470522251369618e-01,
          3.8014414168497583e-03, 1.0528622320011229e-01,
          1.6177867344616087e-01, 2.0709597910418451e-01,
          4.5321206804459190e-02, -1.0048256828873112e-01,
          -1.4281237742357081e-01, -6.7614122879114646e-01,
          -1.6884126034207866e-01, -6.3400843353215428e-02,
          -1.0942143812935824e-01, 2.7877517298416765e-01,
          -6.7407949585860552e+00, -3.0137287234847693e-01,
          -3.7725441852048475e-01, 2.3741552671656091e-01,
          4.8478467637330616e-02, 2.1613818695471862e-01,
          1.4058474906226273e-01, 8.0790023221372811e-02,
          1.4455007975293327e-01, -1.6806038082620284e-01,
          -2.9796958398298417e-02, -6.3738335107817534e-01,
          -1.1496562264742582e-01, -2.4022145770002057e-02,
          3.2166371628907092e-02, 1.4807113471045652e-01,
          -4.2887545896620791e+00, -2.9946944224019661e-01,
          -2.1516162338026906e-01, -1.6958192173086600e-01,
          4.3456932545750664e-02, 2.5165202305988665e-01,
          6.8148726407213409e-02, -2.4780794036066495e-02,
          5.2088724820607467e-02, -2.2852351406821658e-01,
          -1.6416160452627920e-02, -6.0928076835210454e-01,
          -1.9945081273711158e-02, -1.3540663106165463e-02,
          1.2040382286687545e-01, 1.0498425427633484e-01,
          -1.2351455122737884e+00, -1.4191295961937833e-01,
          -1.9708348240106471e-01, 2.1302862696135377e-01,
          -2.5412761983991300e-01, 1.0024522059100295e-01,
          -1.3972440130122596e-02, -2.8255515210933457e-01,
          3.5822834811851934e-01, -5.0445448274392929e-02,
          -5.5773561853552651e-02, -4.2729394698087186e-01,
          1.7429404440367885e-01, -2.3811060483319485e-01,
          7.0023134676922352e-02, 2.8526604240709125e-01,
          -1.5228087073993335e+00, -2.3746969955076916e-01,
          -2.6675138394097453e-01, 1.6053221477455573e-01,
          3.6580873818994247e-02, -1.6975569137549421e-01,
          1.6853969351196166e-01, -2.8517248384196631e-01,
          3.1115029770972846e-01, 9.6342302907588676e-02,
          -4.2864036594557925e-01, -5.9045077088044107e-01,
          -2.2251061473579695e-01, -3.9605696157466974e-01,
          1.2852459470103028e-01, 4.2928597621538021e-02,
          -1.1454147976684631e+01, 9.5201916240563816e-02,
          1.7821507612065110e-01, 3.2605835838562469e-02,
          2.6249783827384471e-01, 8.1022114689984964e-02,
          -1.0139514769755545e-01, -1.3477281004029684e-01,
          2.1659986429491193e-01, -6.6897051339301655e-02,
          4.2033843130716958e-01, -1.0679806018083501e-01,
          -2.3754794862847345e-01, 1.2445672911381896e-01,
          -1.9344624960427034e-02, 4.2461875803713517e-01,
          -1.1740294643475517e+01, 3.1850111431755274e-01,
          7.2769728040828791e-02, -1.1310172638608230e-01,
          5.2995972296709093e-01, -1.5663576775587867e-02,
          -1.6711467562348933e-01, -1.5485393162632249e-01,
          3.1085393529494565e-01, -2.2969369276936680e-01,
          3.3878445727339279e-01, -4.8547507733408352e-01,
          -3.5850061115650750e-01, -1.0708976944686478e-01,
          4.0827264413865347e-02, 3.0354004485208158e-01,
          -9.0861635073885374e+00, -8.5424454109422884e-02,
          -1.3268006216838624e-01, -1.9611793565805272e-01,
          5.0852106970171485e-01, 1.1160774286418250e-01,
          -7.7936350243784605e-02, -1.2264875742102981e-01,
          1.9108789873461279e-01, -1.4148331403271647e-01,
          -2.3005648789633265e-01, -3.5784783292201233e-01,
          -3.0946124433043082e-01, 6.0977722178882067e-02,
          1.5159311137036233e-02, -1.3716801708091869e-01,
          -9.4957974021593419e+00, 1.0892985560248594e-01,
          -7.7477338938453211e-02, -2.1551930083825360e-01,
          2.7895839504131253e-01, 1.3527716457904720e-01,
          -2.6339051253225661e-02, 2.3307449007016433e-02,
          3.1059628466658673e-01, 7.0779403401617993e-02,
          -4.7096950415074423e-01, -5.5888081318772020e-01,
          -6.2203655962503761e-02, 2.1050781197614035e-01,
          2.6448255174161261e-01, 1.7381913027490045e-01,
          -2.3754695765412195e+00, -1.3265291203702151e-02,
          -1.0664843813885136e-01, 2.6382016865678987e-01,
          -9.5909578876491319e-02, 2.2035304246543319e-01,
          1.0382067905070168e-01, 4.9042687521948253e-01,
          1.6411815200403032e-01, -1.3569724932312510e-01,
          -1.3644767396366758e-01, -7.2142547567609605e-01,
          3.2268833943886494e-02, -1.2579377178384826e-01,
          7.2782658199379485e-02, 2.9823197310160671e-01,
          4.7553639726845187e+00, 4.9917646858582193e-01,
          2.8314924632432270e-01, 4.1765764168845959e-01,
          -3.3168655449151457e-02, 1.3031911961194145e-01,
          1.5487805936389398e-01, 5.2592805260492093e-01,
          1.7748563734418393e-01, -7.2022291594663349e-02,
          -2.2850928852741498e-01, -5.6156999862904755e-01,
          -2.2941998981917722e-01, -2.0001857805973914e-02,
          2.8057097568402534e-01, 1.6875880393376824e-01,
          3.1068395572520524e+00, 1.3751562202880283e-01,
          4.0788407916724612e-01, 3.4522247555721119e-01,
          3.8831563706404025e-02, 2.2080043475348757e-01,
          2.0446499093688592e-01, 3.9549623473098000e-01,
          2.9272220573052948e-01, 1.9518215079658223e-02,
          -4.2534356623141749e-02, -3.7407986638838392e-01,
          -2.5550704406411429e-01, 2.4402885196966176e-01,
          4.2987686777820022e-01, 2.5889834370176013e-01,
          -5.0820401617372104e+00, 5.4327657004310317e-02,
          -1.2822986389081165e-01, 2.1258445734187833e-02,
          2.0568161683236888e-01, 1.6066309498000664e-01,
          3.6322839078035393e-02, 2.3266081789603080e-01,
          5.1548159714169173e-01, -6.6133151788866973e-02,
          9.9090001970912583e-02, -6.7890679390993725e-01,
          -1.7080477375580865e-02, 7.8704187785828231e-02,
          3.8188560079965728e-01, 4.7420628519739971e-01,
          -7.3543861075999404e+00, -2.4608038944631444e-01,
          -3.5397130440976721e-01, 4.0321501362544493e-01,
          -3.0746493299380392e-02, -1.1471312819290765e-01,
          2.9781793305856818e-01, 2.0661353272865801e-01,
          5.3002435941258874e-01, 2.0070817296368945e-01,
          9.2108704287327207e-03, -5.6570312654576760e-01,
          -1.0713815829072601e-01, -1.3987445419072847e-01,
          3.9979803717279411e-02, -2.9625581286975322e-01,
          -1.1171881289213609e+01, -3.5431809047652291e-01,
          -3.0338092262387040e-01, 3.0343026962885422e-01,
          -1.2332606020711936e-01, -1.9763316704215189e-01,
          3.2244572677961553e-01, 1.4658084165551327e-01,
          5.0275456783593098e-01, 3.8434249543948762e-01,
          2.3685943310700497e-01, -2.2504236795198349e-01,
          -2.0058885333002896e-01, -4.0843114677524234e-01,
          -5.0509501298312320e-01, -3.6682750414370535e-01,
          -9.8675400901238746e+00, -3.7467529195586557e-01,
          -4.0479955017332381e-01, 3.9463789447041003e-01,
          3.1370151975913786e-02, -1.2734450619850471e-01,
          1.0896446991512955e-01, 1.3182002010059427e-01,
          4.4810973500640044e-01, 2.9797471844194068e-01,
          8.2358947162523496e-02, -1.9346481582290012e-01,
          4.7804009636820632e-02, -3.2185999981481939e-01,
          -4.0585522700917565e-01, -4.1448984070816187e-02,
          -7.6159234695322491e+00, -1.6576123439102503e-01,
          -2.5059315520433656e-01, 7.2149779578820361e-01,
          -4.6559950496436353e-02, -3.8054162774591192e-02,
          1.6912028342530586e-01, 5.6944347190859099e-02,
          4.6390247408519258e-01, 6.3418247634336816e-02,
          -1.9455334234590987e-01, -8.5873608787125066e-01,
          -8.0229186343509618e-02, -4.5323194680299765e-02,
          -2.1495994382918862e-01, 1.1559149613796824e-01,
          -4.9685591717670992e+00, -3.1040977400196706e-01,
          -2.9503637784706915e-01, 2.9245954932442244e-03,
          1.3521620611680715e-01, 1.6038525577892040e-01,
          1.0893918296119615e-01, 8.8420719940437778e-02,
          1.7256414713902424e-01, 1.6818352325756145e-01,
          -1.1131225406178991e-01, -7.7460788087182531e-01,
          -1.7784706054114177e-01, -6.0925882286268274e-02,
          -5.8277894905851585e-02, 1.1022319275169652e-01,
          -5.1224416822686143e+00, -2.3036851497284017e-01,
          -1.4687048504252481e-01, -7.9955548661892473e-01,
          2.9749286675530673e-01, 3.8947842052616805e-01,
          -1.4102921951492725e-01, 8.5205047093817057e-02,
          3.4066085482702529e-01, -6.5971449935164350e-03,
          -1.1557505351221424e-01, -7.3545365597667500e-01,
          -1.7122847994105347e-01, 2.0823478998089218e-01,
          8.0294427493712468e-03, 3.9673401057421775e-01,
          -2.2328234730804715e+00, 1.8761083848287553e-02,
          -1.9965288004896020e-01, 1.0707363923629734e-01,
          -3.5714849921356862e-01, -3.8676706439608088e-01,
          1.6908797646094251e-01, 9.7423907037312726e-02,
          2.0351233059022431e-01, 3.0662999700731131e-01,
          1.4099205137856974e-01, -3.0932370706554213e-01,
          2.6776122447925232e-01, -1.0818650019171032e-01,
          -2.2293912169836663e-01, -2.8762017218468550e-01,
          -4.8448116165178259e-02, -3.2395407654175284e-03,
          -1.6195112696988215e-01, 3.9238820563364682e-02,
          -4.1054536304603201e-01, -1.6584800082071141e-01,
          1.1627435504190183e-01, -2.0200007163297565e-01,
          6.9105032408732503e-02, 2.6701202386272577e-01,
          -9.8130018292690177e-02, -3.5191012271819549e-01,
          3.3174997318226335e-01, -2.4620187821943365e-01,
          -2.5916479630530093e-01, -1.2837589970398329e-02,
          -7.6417861646468381e+00, 1.8088914639339801e-01,
          9.8415977851893835e-02, 1.5439678990808778e-01,
          -1.8362805818786909e-01, -3.4697967097809264e-02,
          -7.9267841404002559e-02, 2.1959275351939497e-01,
          1.1088201578084773e-02, 2.0990646266456897e-01,
          5.1233124609202840e-01, 1.0711042402702990e-01,
          3.0791464555714027e-01, -1.2033222635816039e-01,
          -5.3271983868103967e-01, 1.3905343023527325e-01,
          -6.9397573441760274e+00, 4.6281308929780357e-01,
          -3.4254745721727535e-02, 1.0441346321140192e-01,
          -4.4302176130311170e-02, 1.4633526176584896e-01,
          -1.0029267901129933e-01, 2.8380062792181426e-01,
          3.4118258164178988e-01, -1.7286037573111609e-01,
          1.1345442044720534e-01, -5.0431407433636632e-01,
          1.6138397198937915e-01, -2.5057630176657741e-01,
          -3.7921308245999358e-01, 2.9752105596570710e-01,
          -5.8725209171456640e+00, 2.1582875787387815e-01,
          -1.5232081547040147e-01, -2.5316084629669489e-01,
          1.4628155024859713e-01, 9.2043462617062130e-02,
          1.1701493080258350e-01, 3.1329749348047975e-01,
          1.6109797733122300e-01, 2.8337766794828943e-02,
          -2.9591341635545598e-01, -4.2516152838227234e-01,
          -5.4557771266168578e-02, -8.4788017932438051e-02,
          -3.2100089623480749e-01, -1.9507845323583750e-01,
          -6.4377982344133748e+00, 3.8832448520841650e-01,
          -3.3526067618465431e-02, -1.6019012748772407e-01,
          1.7697325730983085e-01, 2.0039146212803897e-02,
          1.6772922365329598e-01, 3.6891637586325121e-01,
          -6.7630516333810065e-02, 7.9677763823089817e-02,
          -2.4034403862006479e-01, -2.4375980367257283e-01,
          2.4279342406038157e-02, 1.2055013099225732e-01,
          1.6531592306631124e-02, -1.9583312891271666e-02,
          -3.4078261806550607e+00, -4.6298721393618333e-02,
          -3.4580078778586176e-01, -3.1500408529427218e-02,
          -1.9975858611527364e-01, -1.4928718918578962e-01,
          1.3277635426628978e-01, 3.5119877882993489e-01,
          2.2734914127005391e-02, 5.0826682958066798e-02,
          -2.3914874949886103e-02, -4.8611836291957333e-01,
          -5.0055070290072473e-03, -2.6241700710692945e-01,
          1.0049604968743185e-01, 8.9109959548848275e-02,
          2.6454612497387280e+00, 9.3812208214047108e-03,
          -4.8263311684093133e-02, 4.8297739588521182e-01,
          -4.1844009085711076e-01, -3.8434786071949878e-01,
          1.4091692123165450e-01, 1.8344900441095405e-01,
          -1.6777051534864786e-02, 2.0119866758524346e-01,
          5.2943110783500857e-01, -1.1250704703806154e-01,
          9.2887960480043982e-02, -3.9045305904008620e-01,
          1.1705354602371200e-01, -1.6036337234491110e-01,
          3.2683897571894938e+00, -3.8093282561873737e-01,
          2.8603525286937587e-01, 3.0907056383985959e-01,
          -5.1581177176115456e-01, -1.9165364498975879e-01,
          1.6691190675556022e-01, 4.0678750530903168e-01,
          1.2837769124728413e-01, 1.1723028724982165e-01,
          -6.2881087256613441e-02, 2.5981287514743833e-02,
          2.4004578685868985e-01, 4.5254253166883952e-02,
          2.6832549733866368e-01, 4.3019411154261458e-02,
          -1.1257703730625193e+00, 1.3803564884536499e-02,
          6.7602223911794143e-02, 1.0982444407256423e-01,
          -3.7233849639084815e-01, -1.3814912959339309e-01,
          3.1383375061850727e-01, 3.2071606362458693e-01,
          3.7088889616684573e-01, 2.1799484256636020e-01,
          2.3605134800534661e-01, 1.8881876506077155e-01,
          2.7717665534937175e-01, 3.5493400744066331e-02,
          1.9596061901555351e-01, -6.1283196060945497e-02,
          -3.5761488133419457e+00, -2.5757940750629316e-01,
          -3.6250659190535173e-01, 2.1911566857039647e-01,
          -1.7148474976492351e-01, -7.1750944464145400e-02,
          4.5126994661561248e-01, 3.4502634971281915e-01,
          5.2001059435910801e-01, 3.5757775092025479e-01,
          3.4765689411246065e-01, 2.2839863772134714e-01,
          5.3446549108390817e-01, -3.1272842478849489e-01,
          -6.1965501611598049e-02, -4.1026645397182671e-01,
          -2.9620545153808613e+00, -3.8842836565842498e-01,
          -5.1299080546288889e-01, 1.8821833148790626e-01,
          -4.4701137464234914e-01, -3.1942868563172805e-01,
          5.7922421326387874e-01, 1.7164437223564441e-01,
          6.4189126483673375e-01, 3.7596501832938906e-01,
          4.8102966955964482e-01, -2.1768478105533487e-01,
          4.2402799814955999e-01, -4.3513523457634617e-01,
          -5.7482850359338711e-01, -5.0678601342805274e-01,
          -6.3040388452203402e+00, -1.1972310085753354e-01,
          -4.5533924378543350e-01, 3.7020903695095364e-01,
          -3.3053135048819171e-01, -4.3145339895788498e-01,
