%YAML:1.0
my_nn: !!opencv-ml-ann-mlp
   layer_sizes: !!opencv-matrix
      rows: 1
      cols: 3
      dt: i
      data: [ 256, 16, 10 ]
   activation_function: SIGMOID_SYM
   f_param1: 1.
   f_param2: 1.
   min_val: -9.4999999999999996e-01
   max_val: 9.4999999999999996e-01
   min_val1: -9.7999999999999998e-01
   max_val1: 9.7999999999999998e-01
   training_params:
      train_method: BACKPROP
      dw_scale: 1.0000000000000001e-01
      moment_scale: 1.0000000000000001e-01
      term_criteria: { epsilon:1.0000000000000000e-04, iterations:10000 }
   input_scale: [ 4.1591317477984134e-02, -1.3479745994614659e-01,
       2.0099704310130202e-02, -2.4011106768881538e-01,
       1.3835964556567697e-02, -3.7613069647029285e-01,
       1.0469983336940179e-02, -5.3095379498291040e-01,
       9.3514194884456673e-03, -6.6634474706868452e-01,
       8.8883114878148418e-03, -7.9959250144382310e-01,
       8.6628025443573654e-03, -9.0385082907061443e-01,
       8.6220937332259582e-03, -9.3538508283648447e-01,
       8.5667344351144994e-03, -8.9863330877464076e-01,
       8.6249873541239686e-03, -8.2917178427606186e-01,
       8.9716669209599642e-03, -7.4436126109820633e-01,
       1.0076901228915972e-02, -5.9107071848329529e-01,
       1.2196643963879655e-02, -4.3288328756601668e-01,
       1.5703963968141062e-02, -3.1601086693090258e-01,
       2.5314770715798275e-02, -1.9029113147065566e-01,
       4.5573499891650805e-02, -1.0536593174949666e-01,
       2.0996956835527620e-02, -2.2111895243494137e-01,
       1.2519871269196101e-02, -3.8897988046265364e-01,
       9.9300042793958963e-03, -5.6035014148631046e-01,
       8.6558676297532281e-03, -7.5702487116295780e-01,
       8.2969396122549478e-03, -9.5226465011733707e-01,
       8.3234253326393629e-03, -1.0818122373338033e+00,
       8.4151097485655052e-03, -1.1934645249805542e+00,
       8.4875274864570742e-03, -1.2062389188477929e+00,
       8.3936684579235185e-03, -1.1590900710231167e+00,
       8.3582102693841379e-03, -1.0522485236538468e+00,
       8.2684334064766080e-03, -9.6968879617795067e-01,
       8.4689518113473770e-03, -8.0715039028408453e-01,
       9.4362576148481099e-03, -6.0771386291144802e-01,
       1.2268855931948276e-02, -4.1517808473712969e-01,
       1.7949355575202074e-02, -2.7157374985280741e-01,
       2.8070978613574646e-02, -1.6561877382009041e-01,
       1.6910343530590888e-02, -2.7795531661232248e-01,
       1.1743103022886781e-02, -4.3925076857108003e-01,
       9.8330477475283059e-03, -5.9071051038501543e-01,
       8.8717903020286860e-03, -7.3464633954008940e-01,
       8.6565578356298384e-03, -8.2804303976717220e-01,
       8.6320599792873744e-03, -8.7030155123171171e-01,
       8.6159571421170721e-03, -8.7755246683890809e-01,
       8.5666360311873555e-03, -8.5650083703414293e-01,
       8.5197795159775037e-03, -8.9492616013779291e-01,
       8.5722960114514562e-03, -8.5796681860213042e-01,
       8.5624487749811524e-03, -8.6884023964611257e-01,
       8.7651635207974272e-03, -7.6629442080571508e-01,
       9.6411508567858465e-03, -6.0072082758461254e-01,
       1.2553023369874215e-02, -4.0194780830337240e-01,
       1.6726795351606434e-02, -2.7204459959852706e-01,
       2.7082252791810060e-02, -1.6953490247673098e-01,
       1.6592232953205697e-02, -2.9793013490776149e-01,
       1.1778743109630067e-02, -4.2761548985200998e-01,
       1.0135666620041764e-02, -5.5004235613642649e-01,
       9.1609388309090746e-03, -6.6366421360520789e-01,
       8.9114404601194751e-03, -7.1885025615599751e-01,
       8.9527130411131122e-03, -7.1497261617633434e-01,
       9.1618291596106093e-03, -6.7066421814181576e-01,
       9.1386609180375729e-03, -6.6737812952244790e-01,
       8.8990687293197240e-03, -7.1941851421566516e-01,
       9.0969828945345940e-03, -7.0659904935008011e-01,
       8.6094610501309485e-03, -7.8944453099175727e-01,
       8.9680401142918226e-03, -7.2933483033489666e-01,
       9.9680701826513271e-03, -5.5623825233230939e-01,
       1.2648371997316631e-02, -4.0601274111386387e-01,
       1.6266125960482918e-02, -2.8509638970938411e-01,
       2.6262473626355538e-02, -1.7790199634493242e-01,
       1.7082729923395910e-02, -2.8203587103526651e-01,
       1.1732813700955221e-02, -4.3016014871812125e-01,
       1.0092854938255010e-02, -5.4411590257626585e-01,
       9.0877396357299991e-03, -6.6464092599874913e-01,
       8.9191594746696815e-03, -7.0758367860396987e-01,
       9.1883909601019643e-03, -6.6237272753183030e-01,
       9.8119321088888361e-03, -6.0463088041394786e-01,
       9.9814771139938897e-03, -5.7032163933938285e-01,
       9.5387782984764739e-03, -6.3040831896801164e-01,
       9.0961216849213943e-03, -6.9403408455950233e-01,
       8.8806337622906132e-03, -7.5834395886328232e-01,
       9.1884345075739608e-03, -6.7071896531486885e-01,
       1.0074611383038747e-02, -5.4389804473611292e-01,
       1.2458423559909908e-02, -4.0132319813537787e-01,
       1.5750835478345875e-02, -2.9482413848367806e-01,
       2.8886047024021467e-02, -1.6502598664823465e-01,
       1.7165852786814529e-02, -2.7829280537983714e-01,
       1.1826006522853507e-02, -4.1757629032195737e-01,
       1.0208838122541837e-02, -5.4843920161919257e-01,
       9.0389938751749294e-03, -6.8196497090032293e-01,
       9.0243334486201851e-03, -7.1150552208956130e-01,
       9.0584298517103028e-03, -6.7079484737885142e-01,
       9.5370950577797382e-03, -6.2436500214766610e-01,
       9.7117341546042405e-03, -6.0780888206590644e-01,
       9.2099880153828223e-03, -6.7161995604576152e-01,
       8.8718917826415937e-03, -7.2900334777965980e-01,
       8.8731673280681139e-03, -7.4367790010004475e-01,
       9.4984722305616505e-03, -6.2756406027320821e-01,
       1.0461057555796632e-02, -5.1245582648580967e-01,
       1.2473005859533235e-02, -3.9475816244836737e-01,
       1.5459621544234654e-02, -2.9993211757969651e-01,
       2.6781443311650683e-02, -1.9071065782226451e-01,
       1.6881806100683776e-02, -2.7797581925385906e-01,
       1.2045601321304337e-02, -4.0927339609395741e-01,
       1.0185457440163194e-02, -5.2813633918734193e-01,
       9.0777499348664963e-03, -6.7866166288055407e-01,
       8.9676176166624180e-03, -7.2297829987294071e-01,
       9.0154365091243936e-03, -7.3016020287398464e-01,
       8.9571826259856793e-03, -7.1426365696135008e-01,
       9.0626030190191064e-03, -7.2444636013434938e-01,
       8.7778574610023804e-03, -7.6245347692012777e-01,
       8.6417050842332015e-03, -7.9913303595938112e-01,
       8.7701128313686962e-03, -7.5594864561265607e-01,
       9.4293780102833909e-03, -6.4106569340712660e-01,
       1.0101417513483351e-02, -5.4066827099168291e-01,
       1.2504556224266432e-02, -3.9974565337734930e-01,
       1.4852349026791941e-02, -3.0750303425070036e-01,
       2.2238288814765007e-02, -2.1886923851491721e-01,
       1.7823824466279465e-02, -2.6662659019107449e-01,
       1.2233556124676252e-02, -3.9226897713774400e-01,
       1.0485112070748153e-02, -5.1408504482878192e-01,
       9.2784134109737838e-03, -6.2712796244771807e-01,
       8.9095962745607375e-03, -7.1642063643742893e-01,
       8.8811037245504921e-03, -7.4346383609329525e-01,
       8.7507513534523605e-03, -7.8036575344682124e-01,
       8.4412448496292182e-03, -8.5775709539507294e-01,
       8.4859484438318047e-03, -8.7574139345499835e-01,
       8.4126466526174368e-03, -8.6361706741774813e-01,
       8.6371627331728526e-03, -8.0874936968337319e-01,
       8.8423296139429428e-03, -7.2381541753814149e-01,
       9.7808521647430747e-03, -5.7259064742838905e-01,
       1.2037444073412791e-02, -4.2323653362119368e-01,
       1.5204264995253356e-02, -3.1512359629162101e-01,
       2.0699779390471493e-02, -2.3291391770158526e-01,
       1.9913328667063267e-02, -2.5190360763835035e-01,
       1.2332802672610655e-02, -3.8511642905761295e-01,
       1.0874015697241158e-02, -4.9363681659195963e-01,
       9.4324664117211993e-03, -6.1526091910375036e-01,
       9.0534129952225106e-03, -7.1050279845206743e-01,
       9.0250955166177472e-03, -7.1903838490445260e-01,
       8.6761107273730063e-03, -8.0769385205406263e-01,
       8.4291848734898579e-03, -8.7057464291890607e-01,
       8.4311348590420578e-03, -8.9931543087458010e-01,
       8.3811059180378903e-03, -9.0807606400756935e-01,
       8.4042261335138570e-03, -8.9385668310826683e-01,
       8.6963400257191806e-03, -7.8523602262231340e-01,
       9.3595348585201864e-03, -6.1571700066775048e-01,
       1.1800336124172625e-02, -4.4362183625214568e-01,
       1.4801085815068985e-02, -3.2821407794915475e-01,
       1.9859818215172069e-02, -2.3285636857289249e-01,
       2.0936863478369636e-02, -2.3283885874294874e-01,
       1.2745909979763052e-02, -3.6608802643875438e-01,
       1.0583846113601818e-02, -4.8797880891372547e-01,
       9.5785739412242530e-03, -5.9770301393239333e-01,
       9.1212182776082996e-03, -6.7668494157920456e-01,
       8.9529800980002339e-03, -7.2272931841106880e-01,
       8.5954223249145086e-03, -7.7671674296857474e-01,
       8.5401030278454155e-03, -8.4363407760570930e-01,
       8.6022030979421779e-03, -8.1925661864181709e-01,
       8.4566186245157420e-03, -8.4842717674179080e-01,
       8.4022336554543057e-03, -9.1801124472762652e-01,
       8.3995328889084134e-03, -8.6508469129445531e-01,
       9.0362857510495592e-03, -6.7170326501851796e-01,
       1.1051018567815516e-02, -4.7457494137626954e-01,
       1.3320806394335820e-02, -3.6710810342150091e-01,
       1.8270851382181885e-02, -2.5029239308450962e-01,
       2.3763481699971424e-02, -2.0835820754534945e-01,
       1.3502185188358422e-02, -3.4252343385827644e-01,
       1.0982173048163213e-02, -4.8019551653093651e-01,
       9.7639485389332432e-03, -5.7929506681490928e-01,
       9.2799954978045954e-03, -6.6463327755276513e-01,
       9.0863992292812071e-03, -6.5601076515641532e-01,
       9.0172577800879429e-03, -6.9847678764561205e-01,
       9.0673622335942228e-03, -6.9743430092136682e-01,
       9.2109991363645040e-03, -6.7246741394856335e-01,
       8.8770333799854575e-03, -7.4906183066993293e-01,
       8.4178703141336610e-03, -8.4122303410231924e-01,
       8.5731140621313658e-03, -8.1914390240852775e-01,
       8.9325987337997344e-03, -7.0242383403107589e-01,
       1.0752726960999688e-02, -4.9871147645116559e-01,
       1.3898872750101496e-02, -3.5611691760310055e-01,
       1.8279424915122675e-02, -2.5302379967512806e-01,
       2.6411002378699810e-02, -1.8099459930122980e-01,
       1.4307399540380548e-02, -3.3134506595567309e-01,
       1.0895035702156964e-02, -4.7255038350965395e-01,
       9.7400281052701862e-03, -5.7663888391631091e-01,
       9.4341221019180067e-03, -6.0875559687046321e-01,
       9.6864590277216250e-03, -5.9049622878893793e-01,
       9.8387276886091335e-03, -5.8502058709238769e-01,
       1.0088843689567129e-02, -5.5608697532525064e-01,
       9.8465820554664869e-03, -5.7822083804315849e-01,
       9.1211176858916939e-03, -7.0337499034753792e-01,
       8.6094603542202497e-03, -8.2273725036999545e-01,
       8.4820709886727057e-03, -8.1696763141598894e-01,
       9.1059988641379111e-03, -7.0050628062040121e-01,
       1.0511405201615474e-02, -5.1641482615016665e-01,
       1.3843549796219125e-02, -3.5212453261662968e-01,
       2.0735179208517248e-02, -2.3967793647125085e-01,
       2.8128528318866738e-02, -1.6708345821406845e-01,
       1.5546586443589350e-02, -3.1040314493270499e-01,
       1.1312678857486252e-02, -4.6211161864945588e-01,
       9.5735600622576435e-03, -5.7985138585082097e-01,
       9.2827361967321668e-03, -6.4625481128029671e-01,
       9.6503534067653336e-03, -6.1831744347826845e-01,
       9.8334237572333810e-03, -5.6938473581508442e-01,
       9.9110361499879403e-03, -5.6634633871876083e-01,
       9.6745669408489481e-03, -5.9914593064677535e-01,
       8.7770961897063928e-03, -7.4700987960972132e-01,
       8.4899771037811479e-03, -8.5536519320595061e-01,
       8.5147736858032560e-03, -8.2216951755379086e-01,
       9.0929810390788963e-03, -6.8307382863664567e-01,
       1.0661569982696635e-02, -5.0983627657255304e-01,
       1.3383226960083018e-02, -3.7305745151231412e-01,
       2.1349185788864050e-02, -2.2762501888086853e-01,
       2.7262432831963595e-02, -1.6071204154442539e-01,
       1.7657757112497740e-02, -2.7623795226791464e-01,
       1.2015982756853677e-02, -4.2554602933397295e-01,
       9.7412642484609058e-03, -5.7562104570580341e-01,
       8.8362265745240542e-03, -7.1111300603797234e-01,
       9.0242180798361833e-03, -7.1130691748884767e-01,
       9.1110761598808161e-03, -6.8629181174302245e-01,
       9.0682137182528898e-03, -6.9478839866509989e-01,
       8.8030761700956233e-03, -7.7477633988245598e-01,
       8.4810303083332345e-03, -8.7588688612342314e-01,
       8.5346716498027435e-03, -9.0127839556246936e-01,
       8.5522494051857995e-03, -8.5595188171802072e-01,
       8.9357264874207858e-03, -7.2479464684767470e-01,
       1.0336562435219084e-02, -5.2086971767312484e-01,
       1.3325832733887178e-02, -3.6919219589234425e-01,
       2.0707593354064403e-02, -2.2674814722700520e-01,
       3.3035225086742212e-02, -1.3742653636084762e-01,
       2.0111546501046677e-02, -2.2639567896228244e-01,
       1.2813752636533095e-02, -3.9463795369994625e-01,
       9.6043329980898227e-03, -5.8628690353539514e-01,
       8.5803232949564490e-03, -7.4675411668335478e-01,
       8.3683517427641969e-03, -8.7026673948876265e-01,
       8.2744680389724174e-03, -9.3148996501928094e-01,
       8.2855734632752993e-03, -9.8266901274445040e-01,
       8.2772521390633898e-03, -1.0228366013283412e+00,
       8.3026143186682479e-03, -1.0090499286050270e+00,
       8.4264851959901365e-03, -9.7650323693731700e-01,
       8.4911704783908991e-03, -8.6305105859412945e-01,
       9.0463412480324776e-03, -6.8783855679414940e-01,
       1.1063521437912314e-02, -4.8027852914121150e-01,
       1.5083381431624009e-02, -3.1595159084822810e-01,
       2.4992562453155728e-02, -1.9586671194538144e-01,
       6.8957633727215251e-02, -7.7094634507026652e-02,
       2.9500200652433171e-02, -1.5894708111530992e-01,
       2.0209500685315844e-02, -2.5437698512607054e-01,
       1.3147648866667487e-02, -4.0876040326469221e-01,
       1.0259822271193455e-02, -5.5588743047553257e-01,
       9.1814188419264853e-03, -6.9901814211123103e-01,
       8.6671892719959644e-03, -8.0695865716918436e-01,
       8.6243933006076284e-03, -8.5172783358140813e-01,
       8.7898844827634937e-03, -8.1608803491769377e-01,
       8.9331592116862219e-03, -7.5030497534873741e-01,
       9.4520932159901181e-03, -6.7477548259631848e-01,
       1.0061660467176419e-02, -5.8665517519918831e-01,
       1.1112112618244185e-02, -4.8226568763179761e-01,
       1.4359398467089756e-02, -3.4766975568517716e-01,
       2.0407202322037847e-02, -2.3725413419601199e-01,
       6.6345938909337390e-02, -9.5670843907264519e-02 ]
   output_scale: [ 5.2631578947368418e-01, 4.9999999999999994e-01,
       5.2631578947368418e-01, 4.9999999999999994e-01,
       5.2631578947368418e-01, 4.9999999999999994e-01,
       5.2631578947368418e-01, 4.9999999999999994e-01,
       5.2631578947368418e-01, 4.9999999999999994e-01,
       5.2631578947368418e-01, 4.9999999999999994e-01,
       5.2631578947368418e-01, 4.9999999999999994e-01,
       5.2631578947368418e-01, 4.9999999999999994e-01,
       5.2631578947368418e-01, 4.9999999999999994e-01,
       5.2631578947368418e-01, 4.9999999999999994e-01 ]
   inv_output_scale: [ 1.8999999999999999e+00, -9.4999999999999996e-01,
       1.8999999999999999e+00, -9.4999999999999996e-01,
       1.8999999999999999e+00, -9.4999999999999996e-01,
       1.8999999999999999e+00, -9.4999999999999996e-01,
       1.8999999999999999e+00, -9.4999999999999996e-01,
       1.8999999999999999e+00, -9.4999999999999996e-01,
       1.8999999999999999e+00, -9.4999999999999996e-01,
       1.8999999999999999e+00, -9.4999999999999996e-01,
       1.8999999999999999e+00, -9.4999999999999996e-01,
       1.8999999999999999e+00, -9.4999999999999996e-01 ]
   weights:
      - [ 3.6630741573399234e-01, 1.6532243124057616e-01,
          -1.2062464955986515e-01, -1.5608595282480922e-01,
          5.9524674284341973e-02, -2.1811141360307504e-01,
          -3.1903277906747941e-02, -8.5713208252151826e-02,
          3.4014719567284663e-01, 2.2903991671287621e-01,
          -1.8359284020892086e-01, -3.8261770440830623e-01,
          9.6027261524461206e-03, 8.2147510490876624e-02,
          -1.7001953979612155e-01, -2.8710680574782160e-01,
          8.9529603042650763e-01, 2.5165840699616215e-01,
          -3.1892672502032489e-02, -3.2345526522806606e-01,
          -1.2898938361994897e-01, -1.2962373623199003e-01,
          -1.1472675231327331e-01, 2.3250870788514452e-01,
          -4.6623986344750797e-02, -3.0067953213871607e-01,
          -3.3748021996448230e-01, -3.3827689828746987e-01,
          -1.6401924037223725e-01, -2.3566312290848651e-01,
          -2.4569169822759196e-01, -3.6540237252012719e-01,
          3.0158274104800431e+00, -8.6662097054441084e-02,
          3.9982173357078474e-02, 1.8769940753229374e-02,
          -6.1821611013843578e-02, -1.3417187940440931e-01,
          -4.1052654781350956e-01, 2.5500457958183270e-01,
          -8.4602856501884438e-01, 8.1042360609533126e-02,
          6.2999714769736093e-02, -1.9243640609812482e-01,
          -6.0415686966552133e-02, 7.9826199047942789e-02,
          -5.5287704910915003e-01, -5.8893901977589813e-01,
          1.5486103912591813e+00, 2.0509266778127094e-01,
          -6.0167135298576457e-01, 3.8831857617488627e-02,
          6.2019312846125163e-02, -1.3409007707598214e-01,
          -1.2456717079677657e-01, 1.4789911251986476e-01,
          -9.2253279758849271e-01, -6.0915871605560092e-02,
          -1.3698205089563964e-01, -7.2073486427892200e-02,
          -6.0703396549256189e-02, -4.9611396391352751e-02,
          -1.9799832409893520e-01, -6.0996355708017791e-01,
          2.8208666990607059e+00, -4.9144100142782768e-02,
          -2.5725444946782611e-01, 1.1502174654615723e-02,
          1.5095178478812724e-01, 3.7137226687750796e-02,
          1.2837491548908163e-02, -1.0143572662901984e-01,
          -6.7858049320683878e-01, -6.2772886805902406e-01,
          1.6783128147153381e-01, 2.9220957023108624e-01,
          -3.9209149027683926e-01, 7.3103822139471364e-01,
          -3.6085365607237718e-01, -3.5450166933684452e-01,
          2.9423857452147049e+00, -3.6272127197760051e-01,
          -4.8493520674010265e-01, 3.3195640381538788e-01,
          -8.1180718897451598e-02, -5.6296962643524062e-01,
          2.7632256910952407e-01, 5.9003253469317042e-02,
          -1.0829697073624223e+00, -2.1514742818698868e-01,
          3.9977899994457326e-02, 4.7028407132102795e-01,
          -2.3022387284506907e-01, 5.8090443427865535e-01,
          -9.8877633745853108e-02, -4.1073437679341729e-01,
          1.0760448918936947e+00, 5.0776128528690435e-02,
          -1.6192748349238808e-02, 2.1197630234670908e-01,
          -2.5728314168479155e-01, -7.1188274007217966e-01,
          3.7084580781099291e-01, 3.4093667932285759e-01,
          -8.7960769159887842e-01, 1.9780360047799622e-01,
          1.7269468613216726e-01, 3.9242456244980511e-01,
          -5.0866474974719467e-01, -1.5720495099951956e-01,
          1.0225016626350217e-01, 2.3363070335247627e-01,
          -9.9960286034236223e-01, 1.0224694520143414e-01,
          -1.3753863091094673e-01, 6.1488625383998230e-01,
          2.4244429428532485e-01, -4.9896130361294067e-01,
          2.4467450682426554e-02, 1.9723492288468603e-01,
          -8.1135048400125309e-01, 1.6693000027707158e-01,
          4.6367816417162877e-01, 3.9682737530621748e-01,
          -4.8702849182226482e-01, 2.5673846855387611e-01,
          -8.1859815177658141e-02, -3.1879541533853417e-02,
          -1.9084049374530232e+00, -8.6555159787871414e-02,
          -9.4361211344155468e-03, 2.0651733197126604e-01,
          -3.6211278856194224e-04, -7.2648233364534298e-01,
          2.4547064197208146e-01, 4.6583876933536834e-02,
          -4.0224892688391944e-01, 5.2366777499230444e-01,
          1.8969112430662427e-01, 1.2027359164779110e-01,
          1.8762007626891006e-01, 4.0608324792049655e-01,
          7.8143868762994562e-01, 5.5016303859389437e-01,
          5.0728944915662877e-01, 1.1777367406741603e-01,
          -2.0632363705551279e-01, 2.2474757418817676e-02,
          -2.0814564958844494e-02, -7.2247803940370614e-01,
          3.3119408634589076e-01, -4.8483263838965163e-01,
          1.6879758411245060e-02, 7.7187126048745225e-01,
          1.5148041153080922e-02, 2.4026624480089735e-03,
          -2.6182844859323118e-01, 8.5762117662130474e-02,
          2.8994613286554671e-01, -9.9559982858185968e-03,
          6.9439357243916842e+00, 1.0791680108732926e-01,
          -6.6990165163508669e-02, 1.0093777606807221e-01,
          2.7854294426811380e-02, -1.4289946845917015e-01,
          3.8269968859695835e-01, -1.0780619510772266e-01,
          1.1158759479580503e-01, 2.5605278290516398e-01,
          -7.5049931736931030e-02, -2.8693760768007925e-01,
          -6.5849293672782222e-02, 2.5030422159814841e-01,
          1.0060180537511690e-01, 3.1358050257067893e-02,
          9.6958038743979402e-01, 7.5525543607797008e-02,
          -3.4818042105682995e-01, -2.2009923750894891e-01,
          2.9240793239157958e-01, 2.5412553182116016e-01,
          -1.2196017489599210e-01, 4.7342851216051923e-01,
          1.3960990417359584e-01, -5.5914001395704065e-02,
          9.0656630808856123e-02, -3.6224200590787670e-01,
          2.8818991947933470e-01, -1.6076731012872897e-01,
          3.3799254212280261e-01, 5.4689366892306457e-01,
          -2.5278050872375584e+00, 1.3830783666412003e-01,
          7.5042439593656834e-02, -3.7040106361336755e-01,
          1.4053677982799306e-01, 8.0176036381960247e-02,
          -2.8102558837708919e-01, 3.1258794958195404e-02,
          3.8815531828293853e-01, -1.3307611108257475e-01,
          2.0707229577618508e-01, 3.4827535584688228e-02,
          5.8195042876264502e-01, -8.5630408959667781e-02,
          3.0850277018176175e-01, 2.0181099700684543e-01,
          -5.9998537353687595e+00, -1.5582268513625545e-02,
          -4.1083419779448921e-01, -9.3094221842330738e-01,
          1.6491320891813610e-01, 2.1150907891469053e-01,
          -2.4555314667259709e-01, -4.5941347548145911e-01,
          8.0786920058218670e-01, -5.2109858081079197e-01,
          -3.7529120053601800e-01, -1.9360513967278620e-03,
          2.8542503762568844e-01, 8.5495149809331233e-02,
          3.0924383150573093e-01, -4.9615967226730134e-01,
          -5.3227193307644951e+00, 1.9525375602861889e-01,
          -4.4354252929639298e-01, -6.6603847670272354e-01,
          -3.3900046058121214e-01, -1.6559763012807505e-01,
          5.2887960163608180e-02, -1.4144615829429120e-02,
          4.1250963471348789e-01, -2.1239604661501885e-01,
          -3.4904831962994104e-01, -4.8347854634514915e-02,
          9.1205413111734093e-03, -1.2047791452300492e-01,
          1.7926635720346501e-01, -3.2173193956345753e-01,
          -4.1253177508408880e+00, 2.0132013630951862e-01,
          -4.0550479933893838e-02, -2.3652192096309688e-01,
          -2.1256735561520201e-01, -2.4797571909175367e-01,
          4.2353598994869929e-03, -2.2903248780595506e-01,
          1.8028824333615923e-01, 2.6066057546682099e-02,
          -2.5928041031792354e-01, -1.2475907770633296e-01,
          2.1258554637729060e-01, 9.9162302624430765e-02,
          1.5600521455967270e-01, -4.0740077456917351e-01,
          1.4988807683698031e+00, 9.7733087663530616e-02,
          -3.7694696598427641e-02, -9.1175166958881101e-02,
          2.7164044351602812e-01, -3.0255014628001187e-01,
          7.4996865723877412e-02, 3.1782478922424795e-01,
          -3.4337834731663558e-01, 3.2623441238453976e-01,
          -7.0089240143268970e-03, -2.2539274915983468e-02,
          -8.9079759258428287e-02, 3.1162799383523870e-01,
          -1.8421262894438950e-01, -2.3484562313849597e-01,
          3.4338851623450322e+00, -1.1377167697833356e-01,
          2.8314153347764531e-01, -4.8569387183990523e-02,
          -9.1500835182581716e-02, -2.0812506087279972e-01,
          -6.6557623952080328e-02, 6.5575003781787045e-02,
          -4.0861231279878651e-01, 1.9782706639381525e-01,
          -4.6982189910148620e-01, 1.3362724899232223e-01,
          1.0951922920446631e-01, 4.1311182790901169e-01,
          1.8084081838232330e-01, -1.7282014564902479e-01,
          4.1077587368972921e+00, 3.8336594136213836e-01,
          -3.7290733839975693e-01, -1.0953567798646740e-02,
          -1.6297368428267212e-01, -3.8838905375884903e-03,
          -2.6878091811682031e-01, 6.7870595434334158e-02,
          -6.7515108108768263e-01, 3.6449861679247136e-01,
          -9.6289048333972477e-03, 9.0579148388312394e-02,
          9.4991930656069378e-03, 4.3467563097139156e-01,
          -5.4445738130122912e-01, -6.2542599666680931e-01,
          3.0448608518302973e+00, 4.6547257490423044e-01,
          -2.1060216973672638e-01, 1.3327439828842619e-01,
          1.5972208256056561e-01, -1.9186372711544086e-01,
          -2.8479940996049901e-02, 1.6279079501101101e-01,
          -6.1895629857170020e-01, 4.0861427585100341e-01,
          2.2615813581333505e-01, 1.8222529424109288e-01,
          -9.2433153164867402e-02, 3.4365282708361145e-01,
          -3.2126862857293448e-01, -3.0331208522181369e-01,
          3.3604242217555109e+00, -3.7654768508135164e-02,
          -5.6381621334252363e-01, 2.9881029254012986e-01,
          -4.9979705188707917e-02, -3.7752614350116426e-01,
          2.1505510961984473e-01, 1.4781912946455369e-01,
          -7.0622000845444277e-01, -1.0180067728188984e-01,
          1.4379667726113087e-02, 1.2903627864515038e-01,
          -2.1026747362352452e-01, 3.8015750393432030e-01,
          -2.0327069369389378e-01, -2.4232496527383449e-01,
          -1.7480534994530200e-02, 2.4700801173968709e-01,
          -8.5937075745210395e-02, 1.0306512779123055e-01,
          -4.6585285189854553e-01, -6.2017757706535093e-01,
          4.2181478308976778e-01, -1.7530484330029542e-01,
          -7.5882645833846851e-01, 4.2442262491580529e-01,
          6.4041543193357239e-02, 5.4841399102542154e-01,
          -1.1627857294649287e-01, 6.6999386954594431e-01,
          -5.7216268596789432e-01, 2.8436875675249742e-02,
          -5.1790196991516257e-01, 7.4072049973407994e-02,
          -1.0466815650807752e-01, 2.9148253154018183e-01,
          5.1000581871678372e-02, -6.4930295628800083e-01,
          -2.9574412818026852e-01, 2.6475813687300875e-01,
          -1.0421494288957960e+00, -4.3256163590227120e-01,
          3.2979530659670203e-01, 4.7234997781888466e-01,
          -3.2096913683485398e-02, 4.0194578717753315e-01,
          -3.1572633872335942e-01, -1.4435804338214711e-01,
          3.4498687856422661e-01, 4.6222841160172490e-01,
          5.2451963291049349e-02, 5.2257925350684920e-01,
          -3.6273117607826220e-02, -8.6498944331426109e-01,
          -1.2742440727216356e-01, 1.2267894412133994e-01,
          -4.7016558569437072e-01, 5.0645931262464872e-01,
          2.4901086010472728e-01, 5.6268993325018812e-01,
          -1.0334968282549983e+00, 4.0847481098706051e-01,
          1.2409649301983382e-01, 2.3614608396041281e-01,
          -4.6866362735297420e+00, -2.2908158834489503e-01,
          -2.0108462808320213e-01, -5.5964237359957958e-01,
          4.8803976267965987e-01, -6.4205885244203642e-01,
          4.1865564243516817e-01, -4.5923960094725567e-02,
          1.8540510375437458e-01, 1.8568955767565562e-01,
          -7.1587045660678028e-01, 3.9900486995438572e-01,
          -7.3066405128657974e-02, 8.8488767431930362e-02,
          1.4821686896338757e-01, 1.2396727777496999e-02,
          -2.5442376900280244e+00, 2.6622563989943046e-03,
          -2.9564891920594177e-01, -2.5428844834842923e-01,
          2.6871070465548524e-01, -1.1616550286969447e-01,
          7.4270638811706069e-01, 1.7295391453708500e-01,
          -4.6641142037885854e-03, 4.0393781777796012e-01,
          3.2465286521180370e-01, 5.0667412080486751e-02,
          -3.1013086993302730e-01, 2.0979935720041054e-01,
          4.1383473506365454e-01, -1.4202099920853951e-02,
          4.8005873313564544e+00, 4.2071757749561411e-01,
          4.5367096535057556e-02, -2.8620220879493152e-01,
          4.4008152235813690e-02, -2.0582179868439271e-02,
          1.5255966186632419e-01, -5.9836117100189400e-02,
          -5.1901561854324763e-01, 2.4718412465248649e-01,
          -1.4818084351530236e-01, 1.9700467958868659e-01,
          -3.7524139670824719e-01, 2.3379603657332657e-01,
          2.0655582795454303e-01, -5.7986565522301847e-01,
          4.0717564685386636e+00, 4.5949685961545299e-02,
          -5.0939723634708778e-01, -7.2173499932719687e-01,
          3.3272294221577964e-01, -6.9644582801889440e-02,
          2.9614530361676544e-01, -9.8861014161918614e-02,
          -1.0388111412586094e-01, -2.1952755083394648e-01,
          -2.3878929995872913e-01, 2.4763247128498170e-01,
          -2.3020392070255091e-01, -2.6892077486165228e-01,
          1.2819203071290398e-02, -5.8646657011713610e-01,
          -7.4674453407993546e-01, 1.4417851974188814e-01,
          -5.4453295525487810e-01, -7.2827114896975342e-01,
          1.3002761891853359e-01, -4.5692111450026135e-01,
          5.9577435078715812e-01, 9.8241098357674320e-02,
          1.2905132462537255e-01, -1.3438641435152048e-02,
          -2.1239508734317700e-01, 4.3347868693022623e-01,
          2.9522984825198684e-01, -1.5741703751189848e-01,
          3.6034099470636832e-01, -1.7563069985442770e-01,
          -2.7378671087660553e+00, -1.7237134606616830e-03,
          -4.9017838031977352e-02, -3.7600724521102247e-01,
          -6.3009436369091842e-02, -4.0671974936949407e-02,
          6.4125676724181221e-02, -2.4865641447326781e-01,
          2.3740303251573822e-01, 2.0990800107038649e-01,
          -2.6314749189923065e-01, 3.7458698096211318e-01,
          2.3712098936327183e-01, 1.7807375702347167e-01,
          1.9860133178138281e-01, -2.9858792406923440e-01,
          -1.3852910103736205e+00, 1.9922239270242859e-01,
          -2.2841826602225429e-01, -5.1390227247741160e-01,
          2.4950814662200824e-01, 5.6724513677215788e-02,
          1.4101309504149220e-01, -3.2629634769828370e-01,
          5.9059938509289757e-03, 2.1587518946551915e-01,
          -3.1549921922924234e-01, 1.2489056236099071e-01,
          -1.1709479194738609e-01, 2.7587421213121056e-02,
          1.2837142451218436e-01, -4.2003454426901682e-01,
          -3.3418008008170479e+00, -2.5384191467150170e-02,
          2.7092131784895779e-01, -2.2377968429084977e-01,
          4.5476813291865237e-01, 1.8319308568738366e-01,
          -1.0503997645220431e-01, -3.2577911322545661e-01,
          6.3980471577294598e-02, -5.2458477911073262e-02,
          -5.4290113337188550e-01, -3.3491020687285836e-02,
          -1.4362427548049234e-01, -5.7931034692054753e-02,
          6.0204056442103804e-02, -1.5375395578285228e-01,
          2.8296772312580774e+00, 3.6255434017394683e-01,
          1.1548375062576723e-01, 9.7936311494139339e-02,
          -3.5887235253304083e-02, -8.2148684776488113e-03,
          3.0228918255906751e-02, 3.8659279331289609e-01,
          2.5491169700643006e-02, 3.1051324514320944e-01,
          -3.4577622513286799e-01, 1.1861590489458573e-01,
          5.2277447914421071e-01, -2.9668074738690747e-01,
          3.9478299687743312e-01, -8.9468401294407945e-02,
          2.4805603144153734e+00, 3.7642827979148613e-01,
          6.8051421952546862e-02, -2.1879641456200387e-03,
          2.3382851828046283e-01, 6.2002438378447378e-02,
          -9.4208927607676698e-02, 1.6338572219555861e-01,
          -6.8640258397524512e-01, 5.1294842757112569e-01,
          -2.6220678587704083e-01, -1.6916037036292986e-01,
          4.3047184826007355e-02, 2.7305366429220534e-01,
          -4.6059297792894277e-01, -2.4351913030203641e-02,
          3.3020177576502037e+00, 3.6704197231505120e-01,
          1.9330640824864093e-01, -8.5885369762063180e-02,
          -1.0921590345090196e-01, -9.8444564670479753e-02,
          -1.5208751093474737e-01, -7.1942786930057290e-02,
          -6.1786925260533809e-01, 8.2770702767113236e-01,
          -3.6731080664169136e-02, -3.6012230267290496e-01,
          5.4610599127815362e-01, 7.4913167862356256e-01,
          -3.8745195908136265e-01, -1.4239294362437732e-01,
          2.3003482753129454e+00, 1.8117817711618281e-01,
          2.4460445887151657e-03, 9.6925904148872463e-02,
          1.6173977059951417e-03, -4.5312929259577922e-01,
          3.0178532049283047e-01, 2.0207399661838055e-01,
          -1.1441011482369594e-01, 4.4498675434541962e-01,
          2.4504795235086810e-02, -6.6372362667995544e-01,
          -4.0957261288776386e-01, 2.7614456481807859e-01,
          -8.8754149405279037e-02, 2.1352588738438696e-01,
          -7.6887303229768256e-01, 2.4887831242258371e-01,
          -3.5909054972905680e-01, -2.5080818307607399e-02,
          -4.4253208121043786e-01, -5.1407453018609817e-01,
          1.0009046028208572e-01, 2.2376245172551573e-01,
          3.7825814522196584e-02, 4.4428033381153414e-01,
          -9.9913402941285326e-02, -2.0082910126012116e-01,
          7.2724071934302303e-02, 8.8632714898952449e-03,
          -1.3258360451569870e-02, -2.9205072037184898e-01,
          2.5294313953563208e+00, 3.0537053356046756e-01,
          1.2712864904690668e-01, 3.8983620554010345e-01,
          -7.9305659936665912e-02, -4.8972524103236020e-01,
          2.3005569680912229e-02, 1.7384013879841365e-01,
          -3.1604613010447569e-01, 4.0887248850158414e-01,
          -5.8708814924842499e-02, 1.9393655630685136e-01,
          -7.1892283643182828e-02, 8.9520691397074303e-01,
          5.1591406012043917e-01, 2.1005776870469572e-01,
          -2.6605089944553146e+00, 1.5330528802956436e-01,
          -1.8228412216866349e-01, 3.9996888871698338e-01,
          1.7526931930872230e-01, -5.3064052580508636e-01,
          -1.1550982344789047e-01, 4.3232769729318637e-01,
          -1.7046562190815878e-01, -9.6127560214353897e-02,
          1.4487729233585817e-01, 3.7546407660420844e-01,
          3.3734022609237446e-01, 5.8430797192896722e-01,
          -3.1951521510839138e-02, 2.2201819947204593e-01,
          -1.0920960782520737e+00, 7.7573986168216785e-02,
          3.1484331043406928e-02, -5.7011937075858367e-02,
          3.5768187120036482e-01, -2.9839398827245900e-01,
          1.9990767971008902e-01, 1.3277267393409236e-02,
          -5.7421037653905160e-01, 3.9002824299612576e-01,
          -2.6884728861656415e-01, 3.6698239403446721e-02,
          -6.7810590161350792e-01, 4.7900731034541599e-01,
          6.2987441515140619e-01, -3.9983959030337225e-02,
          -2.9079255755349775e+00, -4.7026951944216350e-01,
          -1.5021996117832581e-01, -3.0279344575402783e-01,
          5.4096153894862054e-01, -8.1886686720617247e-02,
          3.1842659823824049e-01, 2.3837155089436068e-01,
          -1.9692050269209690e-01, 2.1302743158519791e-01,
          -1.3689420987754658e-01, 6.4284841974305129e-01,
          -2.2535317123605519e-01, -4.0255337377216310e-01,
          4.0892380408277174e-01, -6.7628286754680716e-02,
          -3.7955495996585777e+00, 1.2862145983255564e-02,
          -4.2942096665368507e-01, -7.1675216289968890e-01,
          6.3038980828094004e-01, -1.3456146919861703e-01,
          3.4824684702147041e-01, 5.7263196447626019e-01,
          1.5050889451306448e-01, -4.9010287547452885e-01,
          -3.4398888174054210e-01, 2.2359241308759334e-01,
          2.4376250052123224e-01, -4.7958538729853406e-01,
          -7.8489856121693111e-03, -1.3504441812648915e-01,
          1.6118353518070480e-01, 2.3501309634266460e-01,
          2.1708786244789335e-01, -7.2048047597240994e-01,
          6.1369100508767060e-01, 1.8672857027264236e-01,
          2.6034884833687894e-01, -1.3701119363895304e-02,
          -8.9422411452051903e-02, -9.2210138985130613e-02,
          -2.5552949092056665e-01, 2.4914856490992282e-01,
          5.0402833331563118e-04, -4.7436702385445073e-01,
          1.7861076115848865e-01, 1.4451199479310048e-02,
          -1.2663647958640118e+00, -3.0449796125096734e-01,
          -1.7219628303064824e-01, -3.5314469073146881e-01,
          5.3885822575568088e-01, 2.3600536115376763e-01,
          6.6531332050931302e-01, -1.1561996835950028e-01,
          -4.5831008377243498e-01, 2.1464748226754468e-01,
          -3.3103901932816687e-01, 6.6143647723011800e-01,
          8.0275792321813769e-02, 1.3756164667748602e-01,
          -1.4281985787004406e-01, 4.5236070063612653e-02,
          -3.1240464500411069e+00, 9.2951963563810192e-02,
          -6.0976957141189636e-01, -3.1738114340536161e-01,
          2.9243247785838866e-01, -2.5797252801311310e-01,
          3.9965516951153662e-01, -1.0286421293828325e-01,
          2.3381112230541481e-01, 2.9492014603049060e-01,
          -2.1250918944466374e-01, 3.5976356766615863e-01,
          1.1484711471618117e-01, -1.2136726754909179e-01,
          1.1834983339252399e-01, 1.2083908836543757e-01,
          -1.1002419557718717e+00, -8.5695786959105805e-02,
          -3.1199687862570097e-01, -1.0079689050983578e-01,
          3.8207262206622733e-01, 2.0671979426334672e-01,
          2.9278647239621958e-01, 4.5273774452060531e-04,
          1.7936428186661413e-01, 1.0397104362209052e-01,
          -1.8782467354466542e-01, 3.8380573446750499e-01,
          3.4598222509464016e-01, -1.1812276486437068e-01,
          3.4760892301164459e-01, -2.2464403179805897e-01,
          1.4424095853665753e+00, 2.7663228243929516e-01,
          2.2547487357931678e-01, -1.5420524655233386e-01,
          4.1623277441853784e-01, 1.4829453089910988e-01,
          -1.1551102340300791e-01, -4.5382355729107170e-02,
          -5.3527356998593367e-01, 1.3949275639901920e-02,
          -2.6131519800973219e-01, 6.3644673885569147e-01,
          -8.8192042996876857e-02, -5.4551696696454689e-02,
          4.8594641453726867e-01, 1.0152268866769389e-01,
          4.7387963831381585e-01, 4.9167508965890949e-02,
          3.7183644200936328e-01, -1.4020637785578660e-01,
          4.7476666794127209e-01, 3.8600508035031933e-01,
          -8.9451600885267296e-02, 1.3942486744071780e-01,
          -9.5117969876789263e-02, 2.0185947165085069e-01,
          -2.6545580449641415e-01, 3.6155592895360217e-02,
          1.9999434774656558e-01, -1.6520140471404349e-01,
          1.8911817449094648e-01, 1.1148286498438317e-01,
          2.5652205609736822e+00, 2.7297125921137239e-01,
          4.6738362040803637e-02, -2.2806982449857119e-01,
          1.9121113987696087e-01, 3.8123247993332027e-02,
          -9.0984689956547224e-02, 2.2027033499478638e-01,
          -2.1897179274298667e-01, 3.7266340207010124e-01,
          -2.1540367640656005e-01, -4.0385102606214096e-01,
          3.6289955432717719e-01, 5.9468889071783680e-02,
          -4.6948248489741279e-01, -1.7521521537845550e-01,
          3.5661602455938186e+00, 3.4246158569622981e-01,
          3.0365084392162062e-01, -2.6130975161004111e-01,
          -1.7035866848001169e-02, -9.7929241447541004e-02,
          1.7441061447081241e-01, -8.1683236118003807e-02,
          8.9047995961030232e-02, 9.1502133006792286e-01,
          -3.8943653828265195e-03, -2.0780394018683918e-01,
          1.5610011835529200e-01, 4.3041828623285699e-01,
          5.2762702763996791e-02, 1.0924878660440268e-01,
          3.7944109666914847e+00, 8.7197704624963485e-02,
          -2.7675695161580034e-02, -4.3967825513731329e-01,
          -5.5526460428362978e-01, -2.4845083204270840e-01,
          6.4011371264004316e-02, -1.3121997865122992e-01,
          3.2746302897775970e-02, 1.1201972590606482e+00,
          -9.7084287067274372e-02, -7.8589575994858507e-01,
          4.4603722914809329e-01, 5.8960134443764745e-01,
          1.3728807119186739e-01, -1.0971572421820876e-01,
          1.5925246276993961e+00, 2.7332429846815398e-01,
          -1.6644216360905253e-01, -2.2749103868830853e-01,
          -5.3104144399342045e-02, 3.8024306528709223e-02,
          -1.5714278745862162e-01, 2.1912283157745890e-01,
          2.2028130752082428e-01, 6.2398960287585736e-01,
          -2.3679001685752396e-01, -4.7276237802353960e-01,
          -1.8709186456574450e-01, -2.1459540933461793e-01,
          -4.2402777692431011e-02, -5.2123063149345639e-01,
          2.1917719553317336e-01, 6.4286803621634092e-01,
          -4.0449025579554393e-01, 4.9027759786740829e-02,
          -7.9458229522668553e-02, 4.4362261657656742e-02,
          7.0773211664122093e-02, 1.2787037612124516e-01,
          2.7553662603303769e-01, 5.9317275621443843e-01,
          -2.0824962730404636e-01, -4.8157076376075675e-01,
          -1.5996123419643066e-01, 3.8334206189884112e-01,
          6.3807126042479359e-02, -6.0195083430238105e-01,
          2.9347154672986084e+00, 9.6930381895585394e-02,
          -4.4963378738432991e-01, 2.7787612802266426e-01,
          -4.7441171848806019e-01, -4.3746193691402591e-01,
          -3.1622075664957103e-02, -2.5783977204697650e-01,
          -1.3842597411378202e-01, 5.5873194377072846e-02,
          -3.6403618924759062e-01, 9.3796186392980277e-02,
          1.5630026676748687e-01, 4.4098153705982701e-01,
          4.1373703366460174e-01, 3.2849874054636846e-01,
          1.4166009762946996e+00, -1.7905920577251816e-01,
          -9.9386875795695259e-02, 2.6822519731696015e-01,
          3.9506737376202576e-02, -2.2969156532615670e-01,
          6.6876173559717533e-01, 2.3475221167177422e-02,
          -1.3276805011468365e-01, -8.4275583085219888e-02,
          -3.6515175535427352e-01, 1.9418064854171324e-01,
          4.2882920158373994e-01, -1.8594282582777152e-01,
          5.4621521127624817e-01, 2.2300779741652618e-01,
          1.9911059125453936e+00, -7.5384903093632799e-02,
          8.2815298738479237e-01, 2.8936821179623978e-01,
          7.6358081633287400e-01, -1.9321890805259206e-01,
          8.7007557016211143e-02, 4.2823881815306841e-01,
          -8.4375206256157520e-01, 4.4807063788814311e-01,
          -2.8921591154516074e-01, 3.8874875390758112e-01,
          -2.9330780888271640e-01, -7.6445167405716233e-02,
          -2.8672441800069021e-02, 3.6548887911149255e-02,
          -2.1313912296923840e+00, -7.6201274850356923e-02,
          2.5057791337148283e-01, -1.7641919578269126e-02,
          5.9153217044749906e-01, -3.6114246065808370e-01,
          1.8539226890956970e-01, 6.0475516313232747e-01,
          -8.5193532333049593e-01, -1.1196177350126761e-02,
          -1.8368353776516230e-01, 6.8349111768866033e-01,
          2.7232502122390465e-02, 7.0293617876122719e-02,
          -1.1990503987630264e-02, 2.6802112261360589e-01,
          -7.6249782779330451e+00, -4.4107772808115321e-02,
          -4.6017824402896118e-01, -4.3074665037970661e-01,
          5.4619796234466200e-01, 1.4966966882661031e-01,
          1.0628824452215484e-01, 3.6112799877093243e-01,
          2.2576164088337768e-03, -3.2344529699804875e-01,
          -1.9049507392263032e-01, 1.4561407944531365e-01,
          2.7334862127304754e-01, -1.7639490418846082e-01,
          -4.4927203153541534e-01, -1.7313589227130594e-01,
          -3.5995162624595816e+00, -1.9686057731605014e-01,
          -2.1807828624543266e-01, -4.2815223450171486e-01,
          5.2977767719883795e-01, 2.6521371220699180e-01,
          6.7088406504123954e-01, 1.3237073412609740e-01,
          1.5038776035362206e-02, 2.8190866555468380e-01,
          -1.2156058421373155e-01, 5.4741310043561242e-01,
          2.7777304038543582e-01, -6.7472876567761164e-01,
          3.1735580565942001e-01, 4.9930416490555318e-01,
          8.9653618141289704e-01, 1.9659905880966991e-01,
          1.2576580260743367e-01, 3.1161026555664462e-01,
          4.3752800743692999e-01, 4.1861672386774118e-01,
          4.9244475338585597e-01, 2.0878218817673452e-01,
          -4.6214337387163545e-01, 3.2484539861983680e-01,
          -6.8186322051676906e-02, 6.2643502312170407e-01,
          2.3960758389538209e-01, -2.3229759787434834e-01,
          -3.9831252971913605e-01, 2.3340948166413647e-01,
          2.0952469842856876e+00, -1.8764309655089589e-01,
          -7.3414825380237456e-02, -1.1651977461710053e-01,
          2.0690169067708092e-01, 3.8714043044063357e-01,
          5.8969374915272599e-01, -1.4402054550340371e-02,
          -2.4246452660135207e-01, 2.1000358022316609e-01,
          -4.9240591768760097e-02, -1.5360580994353632e-03,
          1.5615398874149036e-01, -5.7417698249767460e-02,
          -1.1869809410204667e-01, -8.3007362879224361e-02,
          2.1037199035022671e+00, -5.3739700924513867e-01,
          7.7830453197981625e-02, -1.3063381159950524e-01,
          1.4570067065866413e-01, 2.2763270150460110e-01,
          2.1600253812987666e-01, -7.2495608716293014e-02,
          -1.1100179767978266e-01, 2.4363281519917668e-01,
          -1.0920431601456880e-01, -7.1696910327729568e-02,
          2.2506757327690569e-01, 3.0212907123801813e-01,
          5.3427271406921628e-01, 2.1460745711943832e-01,
          2.6425761493369779e+00, 2.2149011068279567e-01,
          3.2772036068792054e-01, -2.2042589166382731e-01,
          3.1443352161711224e-01, 3.2812342534855837e-01,
          -6.7982766872832850e-04, -1.0330082761506124e-01,
          -3.3766646130757672e-01, 1.1318149804244360e-02,
          -3.1912397383130514e-01, 1.7302031684425692e-01,
          -2.2885123776730329e-01, 3.4650713252878518e-01,
          7.6246178397355902e-01, 2.4364634695941143e-01,
          -8.8243825575199097e-01, 6.8862242831533071e-01,
          1.1746737779461354e-01, -6.3233259520972818e-01,
          3.5927291351206170e-01, 3.2345965683873357e-01,
          5.1199056062638956e-02, -1.4445747670912795e-01,
          6.0738382084110356e-03, 9.9049219256579585e-02,
          -2.4180952532173300e-01, 3.5673303295008346e-01,
          2.3291783829423571e-01, -1.1130968876904554e-01,
          3.0011731367954414e-01, 6.7057965874676898e-02,
          5.3064967252160518e+00, 9.2213013024277327e-02,
          -1.2664829007875986e-01, -1.2283976231035035e-01,
          4.3986546239335267e-01, -3.0769953554823654e-01,
          2.6837369282864770e-01, 3.5701350771889950e-01,
          -8.2888579470240631e-01, 3.7006486170168423e-01,
          4.3404243204069992e-01, -3.5922972134157505e-01,
          5.0463459248530351e-01, 4.3948454154563255e-01,
          5.8681106747856460e-01, -7.7213702418808580e-02,
          -3.0907144193119396e-01, 2.9964582598582423e-01,
          8.6501853542185730e-02, 4.2300889000169373e-02,
          -1.2064943206669339e-01, -1.2520856525231833e-01,
          1.5826950349934923e-01, 6.6640796145445422e-02,
          1.8435884839180283e-01, 9.0673755045641213e-01,
          1.3368896896683646e-01, -7.3214668933297616e-02,
          4.2112927522604887e-01, 3.6756028601198915e-01,
          2.9870551438262410e-01, 1.3696003178777569e-01,
          3.1210420601259696e+00, -8.4031575756166293e-02,
          4.0467653203810801e-02, -1.4100877742692086e-01,
          -5.3601089520544321e-01, 6.4236612458969139e-02,
          3.0906964523950736e-01, -1.2078292291215943e-01,
          -1.7030622806890405e-01, 5.6836103661101756e-01,
          -3.9690109833569583e-02, -5.2645729020204013e-01,
          2.6665683904287635e-01, 1.9948182531235525e-01,
          -2.9526975585114208e-02, -3.0502505718797446e-01,
          2.0415191312932270e+00, -5.6556349235059318e-02,
          -3.8593268707135087e-02, -1.8452485768672561e-01,
          -3.6674068658749065e-01, -2.3696268880777052e-01,
          2.3611037732982756e-02, -9.4161141117353617e-02,
          4.5414164487700870e-01, 2.3287534766054432e-01,
          -3.3674983409325615e-01, -2.8702148054822330e-01,
          3.1174564819734096e-01, 2.8822001447951895e-01,
          4.3315154769703651e-01, 1.4760316403059823e-01,
          2.0254660541363939e-01, -1.2407849303116156e-01,
          -1.4367492185028302e-01, -1.4516284850954217e-01,
          -6.3232685537427302e-01, -2.9938748191785953e-02,
          5.2769009572151893e-01, -4.5003612537610044e-01,
          4.4825234645433792e-01, 2.9918154120143053e-01,
          -1.7218160884861602e-01, -1.5422415547375373e-01,
          1.9331989050459181e-01, 3.3524385241616628e-01,
          8.4753605342432936e-01, 1.3782517005652692e-01,
          -8.7108634719615836e-03, -5.4012481317646810e-01,
          -5.1891892665668515e-01, -5.4406391984689129e-01,
          -6.2242522150542823e-01, -5.4021142869128951e-02,
          1.8864392745000105e-01, -3.3915876112937210e-01,
          7.6211724190693186e-01, -5.3813308833043333e-02,
          -3.4340848629238263e-01, -2.3583553365743787e-01,
          1.1417848712190549e-01, 5.5973391852097085e-02,
          7.0392408152036079e-01, -4.7762342080185338e-01,
          -2.0741850255904576e-01, 4.2540942661604214e-02,
          1.4718005294758363e-02, 1.3874829431778977e-02,
          -4.3301615403371257e-01, 3.0911854596265453e-01,
          3.1257892277012249e-02, -2.5763809161176915e-01,
          -2.5789451668616248e-01, 8.6631126840249165e-02,
          -3.9356272115621310e-01, 1.0903193465539956e-01,
          1.1073142854706675e-02, -7.4002726500184168e-01,
          1.7703291901666846e-01, 4.5481947212900184e-03,
          -2.0307581422311332e+00, 1.7693570819699353e-01,
          -3.3658086557503747e-01, -2.1087541012492830e-01,
          6.1708983912921600e-01, 1.4554881124790986e-01,
          3.5733656184042992e-02, 5.9999602860643664e-01,
          -5.1352607608680469e-02, 2.1861399904823389e-01,
          -1.7250641144839293e-01, 2.7075871741546587e-01,
          -6.0845597242264993e-01, -6.9155745650196354e-01,
          -9.6449739259864631e-01, -2.6397143833264120e-01,
          -4.0832291764169666e+00, -2.1209584119718353e-01,
          1.9426748575305544e-01, 3.7022325914186927e-01,
          2.6200160921863025e-01, 2.3380371601190619e-01,
          3.6095871615853392e-01, 2.6166556524657397e-01,
          5.8214897325571779e-02, 5.3899631225598121e-01,
          1.1815836484207956e-01, 3.3865248474469600e-01,
          3.8652018227728124e-02, -3.4690968405536420e-02,
          -4.8782000934380376e-01, 5.3637769232560339e-01,
          -5.4748305573237861e+00, 2.3001854489215129e-02,
          5.0529445767148928e-01, 6.7572078013381720e-01,
          1.2603463319226810e-01, 3.3193698518408038e-01,
          1.1265776445726490e-01, 2.5337987700297815e-01,
          -3.8193401500745505e-01, 1.6651133093817660e-01,
          -1.7584667670185675e-01, 7.3962527276180068e-01,
          -5.1540087133930358e-02, 3.5850117144111621e-01,
          -3.5188196436083347e-01, 5.2206624630832177e-01,
          -1.1168325615966901e+00, -4.5102278071358404e-01,
          -7.9662509256493028e-02, 2.6226425180231844e-01,
          8.7698774986137140e-01, 2.4683701974315853e-01,
          4.5388384252384562e-01, 7.1927590555596366e-01,
          -2.0848608617174311e-01, 3.2714426710624128e-01,
          -2.1433166069538823e-02, 6.9981001028476519e-01,
          2.0074620979949923e-01, -1.8283451734515382e-02,
          3.5965936266470649e-01, 9.2177275510726686e-01,
          2.5547599620336836e+00, -3.0736410790278956e-01,
          6.3581173462866902e-02, -4.4314950260804238e-02,
          2.0863219565162485e-03, -1.1749950479658161e-02,
          4.0583219643782231e-01, 7.2857644400355193e-02,
          4.9814684649831027e-02, 1.1562078699358923e-01,
          -4.1972312635419085e-01, 5.0499222734242444e-01,
          6.1039934512405102e-02, -1.9650486946943901e-01,
          -2.7282555325137242e-01, 2.7809402393956201e-01,
          -2.6897483789483538e+00, -5.3691441320818734e-01,
          -3.4668456939799325e-01, -3.1161357491465524e-01,
          8.2787788264299988e-01, 3.6757053149981522e-03,
          7.8791797110120165e-01, 3.4084194097463177e-01,
          -4.3322566732873380e-01, 7.1709238321095614e-01,
          2.0975239710970547e-01, 5.5764579642614200e-02,
          7.4163917064136187e-01, -2.3763035387416828e-01,
          1.7476170075692674e-01, 4.9554588004928463e-01,
          -2.2508628694354363e-01, -3.6969885944070607e-01,
          -1.0238225566189810e-02, -1.8994351659127442e-01,
          2.1876768946956784e-01, 3.3412036800420236e-01,
          4.4580424219172488e-01, -1.5474688887074699e-02,
          4.3420509879552643e-01, 2.1327187096261666e-01,
          -4.0349067850270287e-02, 3.5971167548569216e-01,
          4.4803366572975695e-01, 1.6671130212721955e-01,
          3.6644753064849600e-01, -6.7049296669962011e-02,
          2.6705788704449613e+00, -1.3740185034579949e-01,
          -8.9961737528669108e-02, -4.3614038293809339e-02,
          -3.1107802226662904e-02, 4.9350069102117666e-01,
          2.7699211065268164e-01, -1.0083958652067823e-01,
          6.8258630277741690e-03, 6.0023445010892608e-02,
          -4.1352346127940448e-02, -1.4800743507555289e-02,
          9.9612833903352516e-02, -1.7820275147780126e-01,
          9.7217581854685620e-01, 3.8319738368353125e-02,
          7.7140914079661638e-01, 4.6527504482328386e-01,
          -6.2519613499467221e-03, -2.0404034387606557e-01,
          2.8815749593653683e-01, 6.3311617179784174e-01,
          2.1356583669617424e-01, 1.3187490055632017e-01,
          -1.8640676406984746e-01, -8.6884098565129811e-02,
          4.0976148355195813e-01, 2.1626920448812995e-01,
          9.4417387669446753e-02, -3.0559499401776068e-02,
          1.9454753189499752e-01, 1.8975025789042144e-01,
          -1.4426608156757197e+00, -9.4877899810620683e-02,
          -1.8118844386676725e-01, 1.0119165001822002e-01,
          2.4036265926173986e-01, -2.0173132951868067e-01,
          1.3906297125748859e-01, 4.4942934147262575e-01,
          -4.9368891824525435e-01, 3.1382871310527244e-01,
          2.1350519874434878e-01, -1.5113269687458844e-01,
          1.1369225444182411e-01, 5.9060796775434007e-02,
          -2.3289238707596685e-01, 1.4097876796886971e-01,
          -1.8907961439360157e+00, -7.4605589707587294e-02,
          1.0317254830737897e-01, 7.9134616033978228e-02,
          -1.6546458824732840e-01, -6.1202594947441534e-02,
          -2.0197839367638037e-02, -1.2977829650481923e-01,
          -3.1151772667293146e-02, 5.2845383429084758e-01,
          1.0351441213390393e-01, 6.7839094582917911e-02,
          3.9732262620715442e-01, 6.8307120625655737e-01,
          6.8289108142230937e-01, 5.2668387622726065e-01,
          -1.2826471791824727e+00, -2.1256289568032832e-01,
          1.5258624974530804e-01, -1.0007006032692616e-01,
          -6.1710123485572317e-05, 1.7203889795718072e-01,
          5.8375072460115673e-01, -3.3963108933457870e-01,
          -7.9333100639862930e-02, 8.7321482988306873e-02,
          -2.1389148727288926e-01, 9.7014565334681613e-02,
          7.7909499333036564e-02, 4.1559075538371437e-01,
          1.0704867446235786e+00, 1.4059862877035292e-01,
          -6.9275537221806649e-01, -2.3660487503990080e-01,
          -1.7583280200685247e-01, 1.6505146534264137e-01,
          -5.4142004013920808e-01, 4.4061121277795445e-01,
          1.6092483036543401e-01, -4.0307756897722130e-01,
          8.8961185291586609e-01, -4.3310581386401224e-02,
          -1.8619181177279617e-01, -2.1721991124457926e-01,
          3.0245235506413692e-01, 2.9556735078158519e-01,
          8.0546044795743721e-01, 5.6260930457794367e-01,
          8.0698724853083110e+00, -4.3438543870339991e-02,
          7.5332464166394497e-02, 1.8094201221729608e-01,
          -9.2865058090694164e-01, 4.7517834171647277e-01,
          2.8861266578704931e-01, -1.0393237555585477e+00,
          7.0450719797351447e-01, -2.0927571223557032e-01,
          3.6123661183427497e-02, -5.1081095606780358e-01,
          4.4847028806699674e-01, 9.1444895640117319e-01,
          2.3826967465902890e-02, 2.5481887490164440e-01,
          4.0465277421184283e+00, -3.6709023498628557e-01,
          -2.1448774532057802e-01, -8.0980751413287561e-02,
          -4.3108813337027030e-01, 3.6484753839261314e-01,
          7.0694878279122553e-01, -8.5966967188881205e-01,
          1.3076214586753472e+00, 3.9077139179318948e-01,
          6.3859726649555526e-02, 4.2795847328932357e-01,
          2.3946567711786343e-01, 2.3773280277255179e-01,
          1.6191779576677329e-01, 2.5011744544654657e-01,
          3.3455618635762145e+00, 2.6405810983422658e-02,
          4.6585199493011265e-02, 2.2946875738251368e-02,
          -1.2878983315942960e-01, 1.9239719644819497e-01,
          3.6283178568458913e-01, -2.9924965826587241e-01,
          5.4253377743879649e-01, 6.8888491096120830e-01,
          7.2053537969810982e-02, 1.0301915868657346e-01,
          2.2734109585922480e-01, -4.8444306162016931e-01,
          4.8074907866070338e-01, 4.3536329778311683e-01,
          8.0361785165237998e-01, 1.8171630787779686e-01,
          -1.1341357888721784e-01, -1.3949465255117238e-02,
          1.0080741573358742e-01, 1.2203397776606303e-01,
          2.2007780156460094e-01, 6.1810147791411785e-01,
          -4.0905359273823175e-02, 7.0656395593079624e-01,
          6.0712471961526784e-03, -1.9209175825297842e-01,
          -2.8798334941526327e-01, -5.7580334319969828e-01,
          7.8102494358483865e-01, -2.6440317195066887e-01,
          -3.0500866978888301e+00, 6.3249930735129953e-02,
          6.3866694398792404e-02, 3.6158839092677741e-01,
          -1.2267034564740327e-02, 8.8820407534097548e-02,
          6.5628519321799417e-01, -1.2915210931057750e-01,
          5.1760467070767383e-02, 7.8845012697250083e-01,
          -8.9894205559121393e-02, 4.5103734753431524e-01,
          2.3337059205194838e-01, 7.8211286504613793e-03,
          1.0834971212511271e-01, -1.1662017683771830e-01,
          -2.7682675619282975e+00, -1.9294198475442464e-01,
          1.8330105284101222e-01, 7.7943429343349491e-01,
          2.9562826226838818e-01, 1.4152625109029806e-02,
          -1.8491082576923967e-01, 3.1310413244692753e-01,
          -4.9413885256368467e-01, 2.3094108081022191e-01,
          2.8692212606227202e-01, 6.6750046392548268e-01,
          3.4988258178993636e-01, -2.4306029745115595e-01,
          -5.1602461011845668e-01, 3.4455009682229842e-01,
          -7.5179623887335645e-01, -7.0620765321823986e-01,
          3.5664428641273244e-01, 3.4081794369188362e-01,
          5.3832207832281809e-01, 3.2987366410595625e-01,
          1.3455672806536784e-01, 2.5306381048226051e-01,
          4.3424996612742489e-01, 5.2021600991819505e-01,
          -7.4483708543686675e-02, 5.0496565586974762e-01,
          3.1640530232201397e-01, -1.7084680898333229e-01,
          -3.7756052983694843e-01, 6.0203272618669912e-01,
          -6.7671296579024198e-01, -5.1592212546837601e-01,
          -3.6933909564641942e-01, 2.8643612340858449e-01,
          -9.4284421342895521e-03, 3.0461329392055890e-02,
          2.8364169590427030e-01, 8.8066513167020233e-01,
          5.0867263244686944e-01, -1.6072052387088823e-01,
          -3.9304218146899333e-01, 7.4396791168923526e-01,
          9.4525487782643347e-01, -1.4999815422824367e-01,
          1.8452255560321890e-01, 4.7093715926298069e-01,
          7.8686797257457219e-01, -6.6503523325282132e-01,
          -3.0802771674191137e-01, 1.1305130910320306e-01,
          4.5387062935056471e-01, 1.2126199181508378e-01,
          6.4924052842201119e-01, 2.3124256996086223e-01,
          -3.6593726960011108e-01, -8.1104515505768290e-02,
          -1.1657570103902345e-01, 1.4885759880309632e-01,
          7.3714078785289461e-01, 1.5970686974121848e-01,
          3.2293506220374038e-02, 8.3950385438702535e-02,
          2.3363983859515751e+00, -5.9261537093493377e-01,
          -5.3907714456305503e-02, -2.0666183744024144e-01,
          2.6733890081583878e-01, 4.1459047133987131e-01,
          5.9100495431978406e-01, -1.2099353141335906e-01,
          -7.6235854618668442e-02, 2.0134582128033621e-01,
          -5.4186526421584336e-01, 3.9201234635213750e-01,
          4.2147098357403068e-01, 3.2098973124156588e-01,
          5.0527814559792872e-01, 2.4113747249966715e-02,
          2.7910543116186428e+00, -1.3543536924777286e-01,
          -1.1927762850541604e-01, -2.8884415921240586e-01,
          1.1922811688554882e-01, 1.4521301537428200e-01,
          3.5014990740537960e-01, -4.1245387560189153e-02,
          -4.0443686325866213e-01, -1.7592449545668165e-01,
          -4.8473337825394647e-01, 2.4366217157683123e-01,
          8.5632553359745747e-02, -1.5000380038124494e-01,
          6.6384027004151880e-01, 1.7877380138677626e-01,
          1.9689183324978885e+00, 1.6874382705952606e-01,
          1.1708014303353377e-01, -7.5638192891565847e-01,
          2.1919195897171739e-01, 4.7990859015075804e-01,
          2.0732618260832972e-01, -8.5916909903320696e-02,
          -3.1795071411569659e-01, -5.6644341002876561e-02,
          6.0831623295658069e-02, -4.2013962502889468e-02,
          2.6236529490583976e-01, -6.4190223930857576e-02,
          2.1652364469467017e-01, -1.2478269852799871e-01,
          -2.3358765805257864e+00, -1.3548519205541917e-02,
          -3.7592031251158209e-01, -2.3699583582771241e-01,
          -1.7721666787537774e-01, 3.3541442676704669e-01,
          7.0490898370400880e-03, -7.6523516042478743e-02,
          9.7744496819705401e-02, 3.7341838963106005e-01,
          4.2317868959248647e-02, -3.4743219083044313e-01,
          1.8791288549063985e-02, 1.3024081911787918e-02,
          -4.8344144407074330e-01, -6.1540958894003593e-02,
          7.1606664477152387e-02, -3.6135545427959957e-02,
          -2.3712274206492936e-01, -1.0270047521334159e-01,
          -6.3073875876814400e-01, 2.9958564756820938e-01,
          -1.3876733399333636e-02, -5.0754540112570712e-01,
          3.3727559302369475e-01, -6.5068775338812571e-02,
          7.5361763632686318e-02, 2.2142137886933467e-02,
          1.4530386722186867e-01, 4.0314744712006140e-01,
          5.6168719100314901e-01, 3.7791856120502475e-02,
          -3.3553553161826994e+00, -6.8822119384611607e-02,
          -2.8236123515387607e-01, -7.7473676881227249e-02,
          -2.1537765850374307e-01, 5.5260716490051676e-01,
          2.0894693603974810e-02, -2.8867331843312177e-01,
          3.9324430463465593e-01, -6.1122030843764819e-01,
          9.0665415800903648e-02, -3.3000074917586769e-01,
          4.8679168995433758e-01, 6.6471058142131889e-01,
          7.4618584146489519e-01, 1.8270114440181399e-02,
          3.8249866246890543e+00, -3.6775907372868410e-01,
          -4.6024123871909406e-01, 1.9588382878767113e-01,
          -5.1518937349405658e-01, 5.4889863349616624e-02,
          1.4590718414677883e-02, -1.3753117830374506e-01,
          5.2594616772253122e-01, -2.4022517983729369e-02,
          9.2620982092098861e-02, -4.4560803011692451e-01,
          2.7710919574210413e-01, 9.4008181707549335e-02,
          8.7003972016650666e-01, 3.3676858824036798e-01,
          3.0735641274136971e+00, -1.3933874376443162e-01,
          -4.4498164139423269e-01, -2.1313909432094508e-01,
          -2.6270678571781514e-01, 2.8534304861502557e-01,
          1.3460121744542144e-01, -3.8278689386770520e-01,
          1.2667242432741410e-01, -5.1943267113504415e-02,
          -2.3874481242302986e-01, -3.5349669376516063e-01,
          3.0851086115665027e-01, 1.9756175043493665e-01,
          1.6487890138730621e-01, 7.6532141417148022e-02,
          6.0183126468257582e+00, -2.9179506293372198e-01,
          -2.1808968270993637e-01, 3.3379667291907517e-01,
          -8.3638876217201208e-01, 1.4718859568268525e-01,
          6.9132312619855460e-02, -3.6198762360560122e-01,
          8.3655795126949617e-01, 6.0498615674954292e-02,
          3.7892073243539659e-02, -2.5725882113892279e-01,
          4.3506459537387160e-01, 6.1253888373706399e-02,
          3.8730015680670532e-01, 1.0361573955694521e-01,
          5.8859347945348066e+00, -1.5742017608779187e-02,
          3.6735830296959322e-02, 3.9648856351428419e-01,
          -3.2195898616126867e-01, -1.1383504655907369e-01,
          3.6237834860638246e-01, -3.2538096294446606e-01,
          2.7383317450685226e-02, 5.3486235686078565e-01,
          -6.5306602475374037e-02, 3.6386247841847974e-01,
          4.4762339464829509e-01, -6.3589874198870910e-01,
          6.2723653678603719e-01, 1.5751341024885868e-01,
          6.0529830953005757e+00, -4.1310115986341767e-01,
          -1.6912768694318375e-01, 2.0079431019275926e-01,
          -3.0064675554741493e-01, -1.9698102723420963e-01,
          3.6826169738744935e-01, -9.1511675237476262e-02,
          -6.2243893582326244e-02, -1.3034455096477662e-01,
          -1.2358375779721341e-01, 3.5178331829575021e-01,
          3.1410594591068675e-01, -1.1398585572491564e-01,
          4.6310272126447460e-01, -3.6290759993425731e-01,
          -7.4887600193305506e+00, -1.4268134845177546e-01,
          8.2238508645156062e-03, -7.8670892256506683e-02,
          -1.0532955844060830e-01, 4.1260572820052632e-02,
          1.6715248869669777e-01, 3.1168572678111123e-01,
          -6.1910905699711409e-02, -9.4780597854850643e-02,
          -1.1855549398517475e-01, 4.1438570094144184e-01,
          3.5109715086492016e-01, -3.2919488890015980e-01,
          -7.5271014743754860e-02, -2.4102108987385620e-01,
          9.3092189500522693e-01, -2.1227728257379042e-01,
          3.3511147027463739e-01, 4.3842237516696037e-01,
          -2.9573344450952715e-01, -3.5090002004358439e-01,
          5.1080266918342376e-01, -3.0875688634631554e-02,
          2.5115305856161024e-01, 1.1167110629734334e-01,
          -3.3260192317369486e-01, 2.5579185487631750e-01,
          3.5316727351338104e-02, -4.8907988459272966e-01,
          1.9618085882751510e-01, 5.3996045672012505e-01,
          1.4794656054267847e+00, -3.5600259216593183e-01,
          3.1745075554368268e-01, 1.6715347194334101e-01,
          2.0691538173091484e-01, 2.1313939573345814e-01,
          -1.3230983134026206e-01, 1.1758707462187087e-01,
          -2.5273140533163563e-01, 9.4682341519963867e-03,
          -1.3961377323475999e-01, 5.3968585822419979e-01,
          -1.9755415840903864e-01, -1.1430163693071613e-01,
          -8.8074089439113623e-01, 2.0423991759309246e-01,
          3.2652955207084262e+00, -5.3236899839087609e-02,
          3.8229760844998972e-01, 4.2109389282702048e-01,
          3.8829034201372337e-01, 5.0488754241840024e-02,
          -3.1384267669703543e-02, 4.7329057748859432e-01,
          6.5175370563594306e-02, -3.5701035288146876e-01,
          -1.3193057901487459e-01, 5.8118631295807444e-01,
          1.2226289705157563e-01, -9.1669231481256247e-02,
          -1.8011481176322791e-01, 2.4974356441654225e-01,
          5.9051152286571948e+00, -6.8895793171549180e-01,
          3.0034078340352577e-01, 6.2069874408546255e-01,
          1.5888786607457839e-02, 1.6635176040882704e-01,
          2.8886819435095851e-01, -1.0599907610079677e-01,
          -3.0780513259832187e-01, -5.3146675067220195e-01,
          -2.0948071946813054e-01, 2.6970551367457229e-01,
          3.3718177866444410e-01, 1.2157695116717888e-01,
          -6.0241432149268033e-02, 1.8330508422755915e-01,
          6.2511996018048128e+00, -6.4266300417864608e-01,
          -2.0375849665001208e-01, -5.4460224388729779e-02,
          4.6750509907345378e-01, 3.9331783382446139e-01,
          3.5484890728990015e-01, -1.5495638979898805e-02,
          6.8548941995927065e-02, -1.0298743439279766e-01,
          2.6636175618045484e-02, 3.6082618105737946e-01,
          1.4494271485569932e-01, 5.5734529118658317e-02,
          5.1717392785740035e-01, -7.2934469482558634e-02,
          5.4484660102058342e+00, -3.0085872799041341e-01,
          -2.0624712897469399e-01, -1.9387570869337148e-01,
          1.3344967882295417e-01, 9.2344399785063244e-02,
          4.1930314589223966e-01, 6.8442029738887689e-02,
          -3.2671212563127233e-01, -6.5056659073028267e-01,
          2.0940893990342005e-01, 3.4749055872026757e-01,
          3.6706842295987627e-02, -1.9208918544631068e-01,
          3.7067369174320502e-01, 1.2997554350444454e-01,
          1.3342195466158977e+00, 3.6039932845666547e-02,
          -2.5950125602723711e-01, -2.5656390815051811e-01,
          2.2141330451973654e-01, -9.4718657647306109e-02,
          3.4014254319624132e-01, -1.6158174117532953e-01,
          -1.8361308740988158e-01, -7.0268723021623403e-02,
          5.2531330818691702e-01, 1.2924645769219392e-01,
          -6.1606968824534078e-02, 8.7717675500127504e-02,
          1.4117326802140368e-01, 1.3791881239873954e-01,
          7.0924331435594645e-01, 1.6566327317266007e-02,
          -6.2465776350538604e-01, -1.6265753629941523e-01,
          -2.3276107415092584e-01, 5.2778500865993472e-01,
          1.3554338672933136e-01, -1.4910326118719053e-01,
          2.0320289569430094e-01, -3.1496252629047448e-02,
          -7.6908827761634456e-03, -2.9751439255542861e-01,
          1.6324763830264161e-01, -1.8863687940407745e-02,
          -1.7671667576152458e-01, -2.9949275670273462e-01,
          1.0013500556955359e+00, -2.4325875200771446e-01,
          -1.4843018996159496e-01, -2.0604769664648159e-01,
          8.8977576062598436e-03, 3.8071964987430046e-01,
          -1.7332945888142542e-01, -6.1190153856101492e-01,
          -2.4180140794877564e-01, -6.7394448783156502e-01,
          2.9905357574890656e-01, -4.1922145586710646e-01,
          3.4737886109998339e-02, 3.9393481979633566e-01,
          2.6265228261608736e-01, 1.9406233651662105e-02,
          2.8405520298105071e+00, -1.4709750530338567e-01,
          -3.1898383686728587e-01, 3.1301779384665336e-02,
          -4.4589685339286383e-01, 3.9094198760291882e-01,
          -4.2739150723497948e-01, -4.3458818516298353e-01,
          -7.6862507382919774e-03, -5.1304386585143158e-01,
          2.6452926482884725e-01, -4.2973931345718086e-01,
          1.6331154545754362e-02, 6.0220539807034811e-02,
          3.8038230050967159e-01, -4.1054961287160317e-02,
          -8.5218883292429648e-01, -5.7124755921464050e-02,
          -7.6931248925969709e-01, -3.6408104335979290e-02,
          -3.3430525873048245e-01, 2.8107654040864745e-02,
          -2.8368339177419605e-01, 2.6687121867234115e-01,
          6.0102654581958037e-01, 8.3571901618753039e-02,
          -4.7225167560120886e-02, -1.8173520871004314e-01,
          -1.0219950558003985e-01, 2.5790132292793842e-02,
          1.5690438697687981e-02, -1.6902104273316270e-02,
          3.9699203333335538e+00, 1.2194896018382782e-01,
          -2.9938646338269997e-01, -1.5900977814071765e-01,
          7.6502964772795473e-02, 4.7181170336844136e-01,
          -9.1457380326658757e-03, -2.8999495915970386e-01,
          -5.3354976935349758e-03, -3.3909526627015379e-01,
          -1.4341598115604473e-01, -4.3704145966644053e-01,
          4.8438433268935814e-02, 2.5024552585864479e-01,
          1.5716872159184289e-01, -1.0047363343726547e-01,
          4.5143679410678195e-01, -2.2408930451691008e-02,
          -3.2954630050279016e-01, 2.1909416232332413e-01,
          -5.5525072723139623e-01, 3.2331490558365017e-01,
          -2.7787293408311514e-01, 2.0793525681139352e-01,
          -1.2770749782857825e-02, 1.4261884741694839e-01,
          -1.3296076677444071e-01, -9.0409757470336031e-03,
          3.6395397980172300e-01, -4.4243665931894155e-01,
          5.9681607138062021e-01, -1.2597926673793395e-02,
          9.0841176793559377e+00, 1.3496465766514007e-01,
          -3.2081507281678003e-02, 3.1210940825720440e-01,
          -5.9961530902664373e-01, -2.1482061531100702e-01,
          4.1698733904912272e-01, -2.6161385668799719e-01,
          -1.4090625280266159e-01, -2.2794699582105275e-02,
          -5.7222526611699609e-01, 5.2484678825365128e-01,
          8.7354706730328122e-02, 4.0621737396420700e-02,
          4.5704066371088758e-01, -4.7583339630567051e-01,
          3.1064050460135877e+00, -1.9142772862778246e-01,
          4.9251405692796413e-01, -7.3400922295556614e-02,
          -5.2789662201676957e-01, 6.6895693253363364e-02,
          -5.6607111481477151e-02, -6.9367702895879657e-01,
          8.3244623784240457e-01, 1.0527817660369308e-01,
          -3.7359209744523947e-01, 3.1691847406461110e-01,
          3.0998183089325870e-01, -2.2276809983259058e-01,
          6.4974008057143584e-01, -1.8450900767166853e-01,
          4.7903376811438231e-01, 8.7978483577323990e-02,
          1.2239424933190862e-01, 1.2770442111372049e-01,
          -3.3890733799166822e-01, -2.1473989032160237e-01,
          2.4375467793662492e-01, 5.3596469185075046e-01,
          3.4656459861219474e-01, 2.5286634253544878e-02,
          -9.1857907902286026e-02, 2.6405294489169978e-01,
          -7.3302077026792381e-02, -3.1200541270188792e-01,
          3.3645665978162279e-02, -4.8651239051884154e-01,
          2.5509780279775001e+00, 1.9815787632889686e-01,
          3.9142845064558857e-01, 3.2294264675185086e-01,
          -5.1384580943279778e-01, -2.6301912719871690e-01,
          7.4122063402935617e-02, -2.7175759931202581e-01,
          1.6002223292348666e-01, -1.1485647136792081e-01,
          -4.5410273663315370e-01, -8.4799218510571317e-02,
          1.6563676922571596e-01, -2.8750955920429389e-01,
          -5.3090991066168991e-02, 3.4539978936250701e-02,
          1.4358777589629987e+00, 3.5458114196138352e-01,
          1.4114139207460041e-01, 3.3032406263086611e-01,
          -1.2404514615384850e-01, -4.7471830016372130e-01,
          -2.3942949289513887e-01, 3.7817953133930027e-01,
          -1.1090264413457662e-01, -6.4315282632892545e-01,
          8.2783648319461750e-02, -3.0897175654052572e-01,
          1.5508143072391259e-01, -3.9764236797685609e-01,
          -4.8058679555045719e-01, 1.6067508917074536e-01,
          2.4675671134428758e+00, -2.1402544805241511e-01,
          1.0013072946115578e-01, 2.7573432799012093e-01,
          -9.9348530460669673e-02, 2.2401710854813356e-01,
          -4.5321835464043980e-01, 1.2846169408259311e-01,
          5.8385044605114442e-02, -8.2204282624505587e-01,
          -1.3289058106634516e-01, -3.0859719724449408e-01,
          4.2839116208550115e-01, 2.1134791248589063e-01,
          -5.6595538273043289e-01, -4.9752207068610742e-02,
          1.8980254655817745e+00, -3.2728724475886251e-01,
          5.6093102007807788e-02, 4.8942744119820575e-01,
          1.7112707958306894e-01, 1.6808530958277626e-01,
          1.1156792422575804e-01, 1.9229589794149138e-01,
          8.8542160213989626e-02, -5.2913592032783974e-01,
          -1.2948968954196541e-01, 2.9949435638208238e-01,
          2.8744695649927082e-01, -2.5534123710840018e-01,
          1.0589151213565436e-01, -2.8795057941066904e-01,
          5.9754443908570760e+00, -1.6227327459984880e-01,
          -2.1123924771985875e-01, -5.1107082865292552e-01,
          2.7320664299198705e-01, -2.3255949113412624e-01,
          4.4202622149684406e-01, -1.3771236232848541e-01,
          -1.0858821888240759e-01, -8.6536774951484041e-01,
          -1.5807611678007569e-02, 6.9006727349672739e-02,
          -1.1331028897637430e-02, -4.4777576121436380e-01,
          3.9319589264641776e-02, -3.2454915601974543e-01,
          4.6683836755433585e+00, -2.2161341225762349e-01,
          -2.7047282452565707e-01, -2.2478632068488733e-01,
          3.2795885892521459e-01, -1.0903270828077256e-03,
          4.9096690039107638e-01, 4.7787142107752950e-02,
          -4.4044510391622532e-01, -4.8983249648287464e-01,
          3.0948879461478340e-01, -1.8977221050130638e-02,
          -1.0280271277909831e-02, -1.5076415429451381e-01,
          2.0221715174134075e-01, 6.7060880070461598e-02,
          4.2460228059359517e+00, 2.2040930598917771e-01,
          -4.1550242322496550e-01, -3.2141919349842452e-01,
          4.1331164810372678e-01, -1.3397852267152383e-01,
          5.0672706092364628e-01, -9.1044225482789995e-02,
          -8.6812810203442647e-01, -2.7995433134313036e-01,
          4.1280789898681958e-01, 1.6471243260980303e-01,
          -2.5146666968869558e-01, 8.5135870153819376e-02,
          8.8531577145280871e-02, -4.7092283187670628e-02,
          3.1189348951730218e+00, -3.3699500123801257e-01,
          -3.1161776364062166e-01, 1.0765658419274411e-01,
          -1.7621643517231900e-01, 2.5956819434627931e-01,
          6.0396757913108626e-02, -1.8330101838685470e-01,
          2.6809051160497732e-01, -3.1924570889912735e-01,
          1.4637369015371457e-01, -3.6548667696528137e-01,
          2.7014124976972975e-01, 3.2941363366273096e-02,
          -2.9110215322789835e-02, -1.9763234938324850e-01,
          3.5205560188057126e+00, -4.2981608552873929e-01,
          -1.5077307808438736e-01, -1.1763636878206285e-01,
          -3.4643919784091254e-01, 3.3887040349608555e-01,
          -1.7929153528530484e-01, -4.7332038213444966e-01,
          -6.9145512086560709e-02, -6.2485393283691149e-01,
          4.0309504357239989e-01, -2.3476936810297208e-01,
          1.4073475728968632e-01, 5.2809548163559905e-01,
          5.1747098110336220e-01, 4.3597400324207267e-02,
          -2.4049931894394243e-02, -5.2140524239657160e-01,
          -4.2427123663570560e-01, -8.3754594282243779e-03,
          -3.6831472830791839e-01, 2.1920572676846434e-01,
          -4.2444251435243113e-01, -4.6320809559281945e-01,
          4.4275642744395924e-02, -3.6126273863027314e-01,
          7.4284235026685588e-02, -1.3831765958882650e-01,
          -1.6069463699486786e-01, 1.9149126188469590e-01,
          -1.5246132432187014e-02, 9.5463608136044001e-02,
          3.6393346412821598e-01, -6.4746723092665071e-01,
          -4.4495557055504092e-01, -7.2020390489725500e-02,
          1.2324001740687213e-01, 2.0431649767383275e-01,
          -2.5307989439199119e-01, 2.2977607539046158e-01,
          1.1335809040712108e-02, 2.1940297760669580e-02,
          -2.4015846784999756e-01, 2.6505408385665084e-02,
          -1.6561577668190525e-01, 1.4622395147954587e-01,
          1.1947556314058398e-01, 1.9535320679557092e-01,
          2.3697161781763292e+00, -6.4166141374939256e-01,
          2.2406045598740099e-01, 1.6700167065524391e-04,
          3.0198204754535312e-02, 7.1497684841517206e-01,
          -2.7253516345823733e-02, 1.5659883275047856e-01,
          7.0611193949876938e-01, -8.5133080557587393e-01,
          1.8528079926238711e-01, -4.8177970689433407e-02,
          -1.9439276614422504e-01, -1.5605602657590939e-01,
          6.4291533077400223e-02, 1.6932204745422805e-01,
          3.1134263234256725e+00, 2.5237691809896358e-02,
          4.7825255423124469e-01, 5.2045249188237275e-02,
          -6.4604238522751142e-02, 1.2449049542925097e-01,
          -2.0430400675176762e-03, 4.5266107972209074e-01,
          -3.7687220400629301e-01, -3.1807686659379941e-01,
          -9.6563634350497737e-02, -1.5890664039824873e-01,
          3.6838620465995800e-02, -1.8991652153452188e-01,
          -2.1247845917727320e-01, -4.6321777889448808e-02,
          3.9740199251505843e+00, 1.0817263933385506e-01,
          3.0140786491686911e-01, 4.8517127430343948e-01,
          -4.5300012735675710e-01, -1.7157576847484823e-01,
          7.9180391971115638e-01, -2.5567683597513369e-01,
          -1.8704196807970366e-01, 4.9438424144613347e-01,
          -5.1417159220140629e-01, 8.0701458550036476e-01,
          -2.9683377628704927e-01, -8.3259191823145368e-02,
          -7.2446190066744576e-02, 3.6266158787341390e-01,
          1.9234117419087005e+00, -1.1922385804069131e-01,
          4.9752721248693191e-02, -2.4635859599111889e-01,
          -3.0607722094848944e-01, -2.9823786395846735e-01,
          6.2646567195211278e-01, -2.4695031488450037e-01,
          1.5601055142527287e-01, -1.1829705722521346e-01,
          -6.4415575596322705e-01, 5.4214377360780797e-01,
          -4.1697038788389740e-01, 1.9607633269111047e-01,
          -9.6256998320832177e-01, -3.8009830595213157e-01,
          1.0974652069353066e+00, 8.4219730925985614e-02,
          -6.1797280590403569e-02, 5.0038950753968237e-01,
          -5.8803972264414806e-01, -8.8384635353491448e-02,
          -1.4340314427729450e-01, 3.9612879074508900e-01,
          -3.7247488080282876e-01, -2.0777972302138334e-01,
          -1.2633098836712353e-01, -1.4487421329467715e-01,
          -3.3206794191819783e-01, 2.2390609022941474e-01,
          -2.6300064424082487e-01, -1.7066732836869775e-01,
          -1.3536114607377143e+00, -1.3849235671909291e-01,
          4.6084656273699659e-01, 5.1902555793621630e-01,
          -8.1738697545726857e-01, -1.1981364237713962e-01,
          -2.3397871824866101e-01, -7.3009551773785694e-02,
          -1.5369804850432012e-01, -2.0759796002399847e-01,
          -4.8366566771005481e-01, -1.4101471292863625e-02,
          4.2717399613109736e-01, 1.4693794056063419e-01,
          4.7558476478084843e-01, -2.3503246029886232e-01,
          1.6201955624700930e+00, -7.9328559531910467e-02,
          -3.9941480071077902e-02, 2.6728882183754293e-01,
          -8.6344842113217934e-01, -1.3032393453167707e-01,
          6.1678921384350473e-02, -2.8452443546023493e-01,
          5.8254331027779105e-01, -2.2283051316225880e-01,
          -3.7878157407048058e-01, -2.5091012276732894e-01,
          5.6677423230116729e-02, -3.1516045888047184e-01,
          -7.2471650410603183e-01, -6.7936332887205214e-02,
          -1.5539707773472198e+00, -1.5038855703592144e-01,
          -3.3770686151199036e-01, -8.3178073953442053e-03,
          -3.8937321917225548e-01, 1.1090632258262524e-02,
          1.1256957671614186e-01, 3.6075333663994863e-01,
          7.9170014719333270e-02, 3.5855780794461688e-02,
          1.4815735504692396e-01, -1.5062204484881894e-01,
          1.7366633129792804e-02, -2.0215805559115999e-01,
          -1.0494207220515875e-01, 3.4866611434918415e-01,
          2.5531486050173471e+00, -2.9499311016368945e-01,
          -1.0765043383910172e-01, -6.5998073244933586e-01,
          -2.0377840079111798e-01, -4.2570948889716204e-01,
          3.7450796080276544e-02, 5.7566207933786362e-02,
          -3.8571675329860378e-01, -5.2745256873302004e-01,
          -9.1816647129091988e-02, -1.7306420366901853e-01,
          3.0486459841347896e-01, -2.9752842939505286e-01,
          3.8709270270684458e-02, -4.9763377284968335e-01,
          4.6879827954005604e+00, -3.2791676156779588e-02,
          7.5627122055102414e-02, -3.8671446324301018e-01,
          -2.1407209759197500e-02, -4.2575100117789294e-01,
          7.0378371695886455e-02, -8.6359946685700462e-02,
          -2.7603866404420252e-01, -4.7973792081508065e-01,
          -8.9339605370996139e-02, -3.1367520207573973e-01,
          2.8985934612035991e-01, -4.6852143826076986e-01,
          -2.0717949642112055e-01, -2.1813562030860967e-01,
          4.5528946858370372e+00, 2.8612649604160878e-01,
          1.6379412731429711e-02, 2.9060224998885466e-02,
          7.8820489495432758e-02, -6.2175484931748501e-02,
          3.7235890922903675e-01, -1.0698094807487506e-01,
          -4.0376741867110394e-01, -2.8517381416491731e-02,
          4.7432586968093021e-01, 9.8743181506588756e-02,
          -2.5504425593263208e-01, -3.8728902886343108e-01,
          -1.0186940880042053e-01, 2.5535942406616382e-02,
          8.0392869098615876e+00, 2.1539072610989929e-01,
          -2.3741369983818197e-01, 4.5610699651520696e-02,
          3.3299990175391958e-01, 2.9952686319482352e-01,
          4.6651499174741590e-01, -9.3874497237649554e-02,
          -4.8648738630178950e-01, 4.8109344187060299e-01,
          7.1127699684316548e-01, -1.7714624208453172e-01,
          -6.7027954968708903e-01, -1.1772065334755120e-01,
          -3.2764540302716566e-01, -3.9860114649947659e-01,
          -1.8073501692064240e+00, -6.9336024471189461e-01,
          9.6454483161270588e-02, -1.1022726893064469e-01,
          3.7994690654886870e-01, 1.8575217707951319e-01,
          4.3371629617744337e-02, -3.9133021212015295e-01,
          -3.8237202141923560e-01, -4.6863332236163052e-01,
          7.0064678354995066e-02, -3.4385915272558507e-02,
          1.0683213575059292e-01, -1.6984493608370188e-03,
          3.8871788679447426e-02, 1.0042392150188005e-01,
          3.5621587840997364e+00, -3.4704026295022028e-01,
          3.3266499040652658e-01, -7.6732732690450833e-02,
          -2.1109764213477961e-01, 4.5910350586785970e-01,
          -2.4024917362709117e-01, -3.2466997286822558e-01,
          -1.9478451996837465e-01, -7.9409380860554935e-01,
          3.9783759126485718e-01, -4.6437644635295261e-01,
          -9.5177294694773817e-02, 2.2457669624428525e-01,
          3.2450419379778682e-02, 2.9862168465324967e-01,
          -9.0231780028646891e-01, -5.3689742101991222e-01,
          3.0072460366698633e-01, 5.9551662885789954e-03,
          7.9563024808264216e-02, -6.9383371258586443e-02,
          -1.5527825570927944e-01, -1.7548468303971998e-01,
          2.6615486296477797e-01, -3.4645559763076789e-01,
          2.9765236334344834e-02, -6.7190092735702006e-02,
          2.0987108981172384e-02, 4.5961051992926577e-01,
          3.4017339830842125e-01, 1.3731143072514992e-02,
          7.8452988420449943e-01, -4.1740734418530095e-01,
          1.2738017587595751e-01, -1.8934629489285054e-01,
          -1.2008955926142498e-01, 1.3655632862503805e-01,
          -1.9735930536197169e-01, 7.9048729557691599e-02,
          -2.3896978540384067e-02, -3.0057370875572909e-01,
          -5.2562538371577672e-01, 2.0549808581804088e-01,
          -3.5020344206732307e-01, 2.4427093978900749e-02,
          -3.9001243714916901e-02, 7.3057645062553606e-02,
          4.7596379610634330e+00, -2.9733147890646017e-01,
          2.5011445408867572e-01, 2.2662408505580026e-01,
          -3.8501232670259194e-01, 3.5039103544515499e-01,
          -3.4655035336123030e-01, 4.3352598563363431e-01,
          6.2185014148418050e-01, -4.6414476014919964e-01,
          2.0464103401709721e-01, -5.1098575422867409e-01,
          5.2722157194254805e-02, 2.3432913918776904e-01,
          5.3844574197420703e-01, 5.5609533339451245e-01,
          3.1246553345756687e+00, -1.9645013950961410e-01,
          4.4011102590407797e-01, -4.0659158718773340e-02,
          3.4996866787183700e-01, 2.7981506573210074e-01,
          9.2619175070696128e-02, -2.6429565847046849e-01,
          3.7572421043653959e-01, 3.7601749703341247e-01,
          -4.1921515461584424e-01, -3.1702399411960303e-01,
          4.8620683591546782e-02, 3.2522068912177370e-02,
          2.2664101900857250e-01, 3.9775753401972080e-01,
          1.8351102142258493e+00, 9.2062592235976320e-02,
          5.1137116783854986e-01, 2.1082099260713746e-01,
          -3.0595785693361438e-01, -1.0625242058498723e-01,
          3.8076021287262041e-01, -3.4044900922715851e-02,
          2.3340793133521162e-01, 2.6300178266700847e-01,
          -3.8181145068634698e-01, 3.5331490337209787e-01,
          3.7520853895457951e-01, -9.4075949500105852e-02,
          -1.9168168949523509e-01, -8.2947868029473612e-02,
          2.7403136900682092e+00, 1.8379518296484029e-01,
          1.1405822823850291e+00, 3.3457431426820655e-01,
          -1.7023083944691045e-01, 9.1996645406109037e-02,
          1.1935270609962183e-02, -5.3211122670880051e-01,
          2.9888969575261232e-01, -6.7259185822139289e-01,
          -5.3034400148394922e-01, -4.1770403554910469e-02,
          -1.5939763372439403e-01, -6.7327927696262904e-02,
          -4.1099389404267633e-01, 3.1205935460121032e-02,
          2.2502259684034631e+00, 2.1040936864462176e-01,
          3.7651305498830684e-01, 4.7893841912335783e-01,
          -1.8581493352106501e-01, -2.8703301297904560e-01,
          1.1574752361374740e-02, 4.0938343379726544e-01,
          9.6544569760785518e-03, -2.0521548810001064e-01,
          3.1565755618342232e-02, -5.5281767013169381e-01,
          -1.1105710630347895e-01, 4.6604818175889857e-02,
          1.9984286463928655e-01, -1.7782161606025507e-01,
          5.5455099664433194e-01, -2.8692852334226904e-02,
          -2.2133314693483655e-01, 3.2901102723439379e-01,
          -1.5505553780176046e-01, 3.5994532984125516e-01,
          -2.4612459414308660e-01, 6.5216594310571183e-02,
          -3.4718430892376934e-01, -5.8524265614215865e-01,
          -2.1891828988942472e-01, 2.0626299046686616e-01,
          4.4985913029005287e-01, -2.3519176567262631e-01,
          5.5044092989656804e-02, -5.2339952739961414e-02,
          5.0456864246528055e-01, -4.3000631808242695e-01,
          3.1113468208713878e-02, -2.6187952618516347e-01,
          -4.3990508442580112e-01, 3.4741719284274819e-01,
          -2.5625361972656424e-01, 7.6325390815225352e-02,
          -3.0921526955504169e-01, -7.4595339032689800e-01,
          -2.6484238850170433e-01, -3.4853019493041926e-01,
          3.6911786741597713e-01, -3.2105706365678993e-01,
          -8.2838683076412656e-01, -5.3949640472842209e-01,
          3.2179229304830009e-01, -4.1501147516378351e-01,
          -1.9523463799971494e-01, -5.6098488547914216e-01,
          -1.7713997863582734e-01, -7.4624319095270369e-02,
          -3.5998066902420876e-02, 1.4892301925332194e-01,
          1.1151763805827065e-01, -3.9139430960928390e-01,
          1.1089748589523556e-01, -1.2948413829553565e-01,
          3.6503332250927850e-01, -1.0309129067031150e-01,
          -2.0490988371581298e-01, -2.8825015577372315e-01,
          3.0129978117412910e+00, 1.3052680193966812e-01,
          -1.5668560882826921e-01, -4.6323211883282622e-01,
          -1.7436260030001058e-01, 8.5930495191175890e-02,
          -1.4585674039743185e-01, 2.6658737736667038e-02,
          9.6854602916445126e-02, -3.9296658271654544e-01,
          1.7283914083119761e-01, -2.0637116918085949e-01,
          4.5018188156770877e-01, -7.3246397970728816e-01,
          -2.0634434074862915e-01, -6.6432016971958341e-01,
          3.7882220946768030e+00, -3.1827119480661324e-02,
          4.5370729202569585e-02, 2.3403854146644471e-01,
          -2.5872981464986228e-01, 1.2909896089347489e-01,
          1.3415880599276703e-01, 1.9589364571593240e-01,
          -6.3242971998295316e-01, -6.7448892455199594e-01,
          2.5292103131117688e-01, -3.1288783926583241e-01,
          -2.5136785515868228e-02, -4.5920923427530358e-01,
          -2.0727974509502634e-01, 2.7897066462118847e-01,
          1.8646590459254084e+00, 3.1845130466704430e-01,
          -3.4869467443688767e-02, -9.6653729647152541e-03,
          4.1339361605954361e-02, 2.3618220486174715e-01,
          -1.5648180875394624e-01, 1.5371491527579423e-01,
          -3.3221802296905578e-01, -1.8526406091443896e-02,
          4.0234852971633345e-01, -2.3117787133308321e-01,
          -2.2390193202283612e-01, -2.2151380290115263e-01,
          -3.0821565074112595e-01, -2.3598069798854521e-01,
          2.6973406069508856e+00, -2.5997681544726276e-02,
          -3.2734885224409932e-01, -5.1107577439893054e-02,
          3.9534379053913427e-01, -1.6631184164336085e-01,
          -9.8516698067615066e-02, -4.1493595773588535e-02,
          -4.2213477067695587e-01, 1.0490244286594588e-01,
          4.4022171460319259e-01, -2.8656595686033126e-01,
          -5.8783248887168960e-01, -4.7680386634926059e-01,
          -4.6664720696541273e-01, -4.5779120917188176e-01,
          -1.1573550118280149e+00, -6.8259417312515613e-01,
          1.7753979055869668e-01, 1.3331449843463286e-01,
          6.9159860383432331e-02, 1.8752141306653905e-01,
          6.8261770551995893e-02, -4.6055789100489553e-01,
          -2.8899609982729285e-01, -5.9178909850979733e-01,
          4.5279849509329513e-02, -1.5690263280955122e-01,
          -2.0101886122389004e-01, 1.6418272903080131e-01,
          2.3865455133279126e-01, 5.0357040020058352e-01,
          -2.5995496365355932e+00, -4.5350145922468876e-01,
          4.2229046759448713e-01, -3.0596579464292861e-01,
          3.6174644147045315e-01, 5.3127115493030375e-01,
          -7.8426989008851700e-02, -3.3532473881899710e-01,
          -2.3306969704404470e-01, -1.0272500979864421e+00,
          2.8264278932921716e-01, -2.5124759455752566e-01,
          -3.3142211973440044e-03, 1.4854580704999409e-01,
          2.2478989853542836e-01, 5.0533994833809748e-01,
          -2.1846521678385011e+00, -2.4444061990281402e-02,
          6.7216000624140715e-01, 2.2532939086937859e-01,
          3.8658027195125283e-01, 2.3425472737080949e-01,
          -7.9744727717184008e-02, -1.9740056776196618e-01,
          -1.9274408826094453e-02, -7.0698486992744325e-01,
          1.3009160226565938e-01, -8.5797217764287934e-02,
          -2.9071630143034366e-01, 1.1625499294334850e-01,
          3.8197694925322316e-02, 4.9000954391491497e-01,
          -1.6032389094138338e-01, -3.3955244127766973e-02,
          5.1042354988307392e-01, 3.7951281439304995e-03,
          -4.1695353172901400e-01, 4.8652833081730198e-02,
          8.6690482508536268e-02, -6.2625589037197865e-02,
          2.9121662460062803e-01, -4.5508575701563364e-01,
          -2.0332571095374227e-01, 1.2134486171237950e-01,
          -4.7036364893240395e-01, 2.5910959507076714e-01,
          9.6214304897258351e-02, 3.7297934570088515e-01,
          4.2244276314743958e+00, 2.2243661624270477e-02,
          8.5961468150789566e-01, 3.0054232480100573e-01,
          -1.2082806008081128e-01, 4.9395826054253156e-01,
          -1.6184712300278142e-01, -7.8202663200554037e-02,
          1.9921013212509789e-01, -1.0109672024390425e-01,
          3.6972232401005806e-02, -2.7737060316266632e-01,
          -3.5450371483851617e-01, 5.6480919233691129e-01,
          1.8199885899405446e-01, 4.1014732759615619e-01,
          4.7792224423484093e+00, -2.8288168318491907e-01,
          2.9260822062215747e-01, 5.9313324699357495e-01,
          -6.4574949309319701e-02, 7.2962042491502413e-02,
          -8.1255299494600947e-02, 5.5062548989483873e-02,
          2.0730255293280994e-01, -3.6380117026108494e-01,
          -2.3268873683107610e-01, -3.0022098960972210e-01,
          3.2004517118270806e-02, -1.6200646818810127e-01,
          -1.0393117003997698e-01, 6.3922666201320599e-01,
          2.6070914256857263e+00, -9.1868902607620609e-02,
          6.9670958736839861e-01, 4.7604835405323748e-01,
          -6.6579449528363854e-01, 6.7505272007410914e-03,
          -3.8036973142296787e-01, 1.6000859375676238e-01,
          5.6592920431732439e-02, 2.1708548193184463e-01,
          -3.7187857586773210e-01, 1.8205263016423201e-01,
          6.5507536868212573e-03, 7.7297816159635019e-02,
          -3.9804946967601662e-01, 2.3308083705914623e-01,
          3.7286288225027180e+00, 9.9259233930159244e-02,
          7.5706250061958069e-01, 5.0695960859698985e-01,
          -2.9182041455718150e-01, 3.2216537106978632e-01,
          -1.8389847678615637e-01, 6.8475051858278804e-02,
          -4.6303054391951415e-01, -2.1035411242760518e-01,
          -1.8063904644024145e-01, 1.2583818165471147e-01,
          -9.8851269297347236e-02, -2.4046196579948859e-02,
          -2.3149653150447874e-01, 7.9267355018182467e-02,
          6.2991893175967100e+00, 2.8122514395531828e-01,
          5.1668944887854984e-01, 7.7428552692560965e-03,
          -2.2996832208673229e-01, -1.8117340221404463e-01,
          2.9455930040423045e-01, -1.3657152642573256e-01,
          2.5941801478526222e-01, -4.3998051499785959e-02,
          -3.4600603966221877e-01, 1.1519066057755574e-02,
          -1.2950725906376576e-01, 3.0267839203891239e-01,
          -1.8819197463043949e-01, -1.2992634007253390e-01,
          3.2211496690418886e+00, -5.7468602223591236e-01,
          -9.4485389700246537e-03, 1.1102825086153910e-01,
          -2.7490299929430895e-01, 2.8173198125081028e-01,
          -3.2970234916464802e-01, -2.3871845483055317e-02,
          3.7091907826954335e-01, -5.3625375804214115e-01,
          -3.1051197217091014e-01, 1.3864933987664022e-01,
          3.9987159424312448e-02, -3.0751510401067501e-02,
          -5.0904968167802600e-01, -4.1805335158446022e-01,
          -6.3899057716931673e-01, 1.5626766114786206e-01,
          3.9731069253645314e-02, -1.9114183495873696e-01,
          -2.7119310459953333e-01, -1.2997139826037385e-01,
          3.0702349859673639e-01, -5.8467693896075357e-01,
          2.8789932225072007e-01, -3.7367583327917997e-01,
          -2.7549298081007961e-01, -2.9165664002343461e-01,
          -5.3612407152253495e-02, -4.3114332746452338e-01,
          1.3499576096224462e-02, -4.1391886841189657e-01,
          1.1511122933255014e+00, 9.3044751614179647e-02,
          2.7111473670908481e-01, -4.6390053218582267e-01,
          -1.1667633109153074e-01, -8.4266061828124850e-02,
          -7.1871491015956602e-03, -4.2930539973261350e-01,
          8.4688916156485106e-01, -5.1099002384886760e-01,
          2.4240614920545503e-01, -1.6395779589732784e-01,
          -4.5173039957298811e-01, -2.4180467679484532e-01,
          3.5942764120844467e-01, -3.1427251306074994e-01,
          1.5924720087933897e+00, 2.8083290006435582e-02,
          -5.3816514088691136e-01, -1.4117101091276965e-01,
          -4.7253665293061459e-01, -3.6171563335243950e-01,
          3.3537065867376847e-01, 3.4353423706712405e-01,
          6.8913169961643284e-01, -2.5260445849914193e-01,
          2.8698889150245954e-01, -1.0739574567147735e-01,
          3.9570530628116896e-01, -7.4153304898787564e-01,
          2.5879741193475531e-01, -5.2635567071398603e-01,
          3.4980205340333579e+00, -1.9014727836507764e-01,
          1.6656004410985478e-01, 3.0614510562985969e-01,
          -4.8998600657091324e-01, 2.7029296772378619e-01,
          -2.0993381043731524e-01, 9.1862146282577870e-02,
          2.0197167158625376e-01, -1.8272022270612098e-01,
          2.5297427290114483e-01, -2.6599946836979388e-01,
          2.6115071640765808e-01, -1.3650334578807333e-01,
          -2.6462205335129052e-01, 2.2791988369865787e-01,
          1.6043275976799236e+00, 3.1816350200728122e-01,
          1.0940191163577181e-01, -2.9697682721520041e-01,
          -1.1349697639681233e-01, 3.5448894441932605e-01,
          1.0987789517351266e-02, -7.6915387210265543e-02,
          -1.6331159593803038e-01, -2.3494495298672660e-01,
          -3.1403036443098012e-02, -1.6562619084177854e-01,
          -1.2312385107729583e-01, -2.8929858717122042e-01,
          -9.7262114317792636e-02, 6.1078742836325271e-02,
          -1.5598139160753486e+00, 1.3095979985826448e-01,
          -5.4261619773932179e-01, -4.3781691820853291e-01,
          2.4218449261585381e-02, -3.9022458906013913e-02,
          1.0890348983434364e-01, -8.3299323425515784e-02,
          -5.3209864319971389e-01, 4.8550623685423172e-01,
          4.0661941045643740e-01, -3.8441243686992871e-01,
          -7.2293324630255473e-01, -5.2141534707385506e-01,
          1.9470850713541963e-02, -2.1205759808662447e-01,
          -3.1860836698656931e+00, -4.4970701656193390e-01,
          6.8138717441638685e-02, -2.5988028102113325e-01,
          4.0404318819943930e-01, 2.6544965859938718e-01,
          1.9477614424264070e-01, -4.0862526117386294e-01,
          -4.6800108096886395e-02, -3.2600054941660012e-01,
          -7.0437490906173086e-02, 1.9712532819445003e-01,
          -3.3079179563671002e-01, 1.3570381450227156e-01,
          3.3156157854080265e-01, 2.0888343286380989e-01,
          -2.5480400795496592e+00, -5.1183203686087664e-01,
          5.3591213940472149e-01, -7.5779276063111245e-02,
          -1.3443840548562855e-01, 3.5538603204547575e-01,
          -1.5083868727991021e-01, -3.3710832690058334e-01,
          -2.0850893370666279e-01, -4.1720208945401510e-01,
          7.5994562131417753e-02, -8.3984679804997270e-02,
          -7.9449762731349072e-02, 2.1103631795623692e-01,
