%YAML:1.0
my_nn: !!opencv-ml-ann-mlp
   layer_sizes: !!opencv-matrix
      rows: 1
      cols: 3
      dt: i
      data: [ 256, 16, 10 ]
   activation_function: SIGMOID_SYM
   f_param1: 1.
   f_param2: 1.
   min_val: -9.4999999999999996e-01
   max_val: 9.4999999999999996e-01
   min_val1: -9.7999999999999998e-01
   max_val1: 9.7999999999999998e-01
   training_params:
      train_method: BACKPROP
      dw_scale: 1.0000000000000001e-01
      moment_scale: 1.0000000000000001e-01
      term_criteria: { epsilon:1.0000000000000000e-04, iterations:10000 }
   input_scale: [ 4.1479802840913758e-02, -1.2340241345171843e-01,
       1.9907667090166826e-02, -2.4111170996255549e-01,
       1.4719292290624060e-02, -3.5329981320570403e-01,
       1.1168091795388312e-02, -4.8661051166276187e-01,
       9.5550910738428432e-03, -6.5204419242457257e-01,
       8.8852569867400952e-03, -7.9694535491167939e-01,
       8.7120885685761321e-03, -8.9514096415549183e-01,
       8.6066117094077722e-03, -9.6442678501525203e-01,
       8.5374260158753556e-03, -9.6885271655958305e-01,
       8.6267360027910914e-03, -8.7526863484318407e-01,
       8.9782152959915085e-03, -7.6282508440862251e-01,
       1.0015780575543767e-02, -5.9754146913694117e-01,
       1.2052514194786826e-02, -4.4124857092824310e-01,
       1.5961967266793525e-02, -3.0563974922456244e-01,
       2.3638773875641089e-02, -1.9983037495773195e-01,
       4.2526990545941258e-02, -1.1407865213948742e-01,
       2.1777475755978676e-02, -2.1488924202211959e-01,
       1.3291244899042447e-02, -3.6690481543806674e-01,
       1.0307395806310300e-02, -5.4157119045515578e-01,
       8.7969828295880476e-03, -7.2336710109419555e-01,
       8.3821930762537269e-03, -9.3512584177994207e-01,
       8.3365467813806080e-03, -1.0755479195466005e+00,
       8.4096935673399383e-03, -1.1824239398019136e+00,
       8.5025431426886434e-03, -1.2073526237186447e+00,
       8.4438121980393056e-03, -1.1689951359453534e+00,
       8.4206327039303749e-03, -1.1106604020666566e+00,
       8.3168516876240203e-03, -9.8971366767894609e-01,
       8.3924054605766379e-03, -8.4154426135659210e-01,
       9.4569829738863301e-03, -6.1823607644335810e-01,
       1.2454826695583055e-02, -4.1044258633959185e-01,
       1.6966774302398031e-02, -2.8203020584161126e-01,
       2.7331387116669166e-02, -1.7426492425588261e-01,
       1.8910244039475017e-02, -2.5067419498728083e-01,
       1.2254589130030222e-02, -4.0833516440173701e-01,
       9.9095751739193324e-03, -5.7193608595034118e-01,
       8.9157540757154024e-03, -7.2777517369249689e-01,
       8.5851779085402841e-03, -8.4487594315735792e-01,
       8.6506525142356419e-03, -8.3953717585405485e-01,
       8.7152520446268714e-03, -8.2610131080609184e-01,
       8.7405571544662240e-03, -8.0079236537788645e-01,
       8.6884188430005095e-03, -8.3138176645845430e-01,
       8.6526996848522945e-03, -8.3321604250269421e-01,
       8.5313502859290704e-03, -8.6259629606000232e-01,
       8.5901039541999326e-03, -8.0600086391862547e-01,
       9.2818919264046323e-03, -6.4821020457239387e-01,
       1.1470864702465279e-02, -4.5639129391698607e-01,
       1.5756892049175748e-02, -3.0450193885032134e-01,
       2.5552851109990182e-02, -1.8381443445971438e-01,
       1.7002074976274085e-02, -2.8629794052547930e-01,
       1.2313859417809263e-02, -4.0954049344720933e-01,
       1.0091509886240087e-02, -5.5261612712545027e-01,
       9.1334996384773159e-03, -6.6759945582504177e-01,
       8.9590019178342646e-03, -7.0252461488793272e-01,
       9.2744953465771132e-03, -6.6289455489659910e-01,
       9.4011481473111266e-03, -6.3079353781420833e-01,
       9.5195588457183782e-03, -6.2357870218878231e-01,
       9.3082339131442850e-03, -6.4873270845963438e-01,
       9.1303363189453486e-03, -6.8074418043608675e-01,
       8.8604915691844165e-03, -7.5407213499543979e-01,
       8.8325759973630086e-03, -7.4236918000236363e-01,
       9.2871192053204325e-03, -6.3786720837902333e-01,
       1.1005291746096744e-02, -4.7614945004074871e-01,
       1.5360783711706877e-02, -3.1219256815673058e-01,
       2.5062890708474898e-02, -1.8436262405154136e-01,
       1.6856734142246123e-02, -2.8017577817827277e-01,
       1.2019105951398292e-02, -4.2229128760237900e-01,
       1.0151911825975668e-02, -5.4158419209214992e-01,
       9.2190037642192971e-03, -6.5216154528463732e-01,
       9.1226839441416289e-03, -6.6822291488245822e-01,
       9.3826492056532460e-03, -6.3217475552929869e-01,
       9.8268650172530694e-03, -5.8414816408559145e-01,
       9.9902658335689117e-03, -5.6247194696159686e-01,
       9.6992257202928832e-03, -6.0263714206609753e-01,
       9.2299200612714193e-03, -6.6707862754829994e-01,
       8.9597672852780377e-03, -7.2251563388482098e-01,
       8.9862790826458969e-03, -7.1084163427453828e-01,
       9.7175670501058239e-03, -5.9383566364844187e-01,
       1.1270179377388275e-02, -4.5482499404356991e-01,
       1.4625112951888354e-02, -3.2442888061173936e-01,
       2.5990996952726865e-02, -1.9057898515586974e-01,
       1.7291185715858550e-02, -2.7078861390320286e-01,
       1.1842115433012002e-02, -4.1535627775517947e-01,
       1.0259483624329177e-02, -5.3800732125982198e-01,
       9.1949286404180378e-03, -6.5334565454490379e-01,
       9.0755698857836534e-03, -6.7961497532702309e-01,
       9.1810608683686179e-03, -6.5744658772300835e-01,
       9.6263288596483802e-03, -6.2417116325960098e-01,
       9.6280944156759557e-03, -6.0945837651228796e-01,
       9.1968355432180127e-03, -6.6915715570677103e-01,
       8.9295615130891015e-03, -7.2607604097154443e-01,
       8.7620188425275337e-03, -7.4920956415858053e-01,
       9.2031710302880425e-03, -6.6027230239698531e-01,
       1.0344040924379006e-02, -5.2853911507206963e-01,
       1.1941677224079385e-02, -4.1949320836607268e-01,
       1.4440095602242168e-02, -3.2467110952081291e-01,
       2.4013263448156942e-02, -2.0053476305555865e-01,
       1.8164253045860574e-02, -2.5756002606378003e-01,
       1.2258906031529725e-02, -4.0331800843732796e-01,
       1.0105289402169563e-02, -5.3433738771852002e-01,
       9.1515189944808128e-03, -6.6005788323642589e-01,
       9.0878948177271855e-03, -6.9525576118799171e-01,
       9.1131432899661420e-03, -6.9713267882418495e-01,
       8.8874960251012387e-03, -7.1340374968288900e-01,
       8.8911252138337664e-03, -7.3563836350478506e-01,
       8.6634151725322999e-03, -7.7438369690438580e-01,
       8.6007313865856146e-03, -8.0920841323829407e-01,
       8.7172477862809388e-03, -7.6007862760530076e-01,
       9.1394926722286347e-03, -6.7373598131867829e-01,
       1.0401444150968773e-02, -5.2272457580693577e-01,
       1.2580158326958397e-02, -4.0475401401155947e-01,
       1.3830579341816911e-02, -3.3194081949327675e-01,
       2.1305620692104160e-02, -2.2579696809491989e-01,
       1.9759308883036057e-02, -2.4628002591816142e-01,
       1.2277508154192004e-02, -3.9617063311946760e-01,
       1.0283181703241948e-02, -5.2779972569144784e-01,
       9.3651718611664023e-03, -6.3125004413006014e-01,
       8.9797412682936489e-03, -7.1725234393432102e-01,
       8.7983086621908641e-03, -7.4478122740878772e-01,
       8.7033118298893847e-03, -7.8578286021747801e-01,
       8.5433299953563482e-03, -8.5508054091022856e-01,
       8.4614286724599870e-03, -8.8523466771276393e-01,
       8.4083129686401865e-03, -8.6650187635727716e-01,
       8.5958647971954381e-03, -7.9794123532645678e-01,
       8.9071735967435704e-03, -7.0906891492916702e-01,
       9.8865600698059934e-03, -5.7210062827942854e-01,
       1.1598435996600565e-02, -4.4955537922823785e-01,
       1.3881364199098254e-02, -3.4230055978556384e-01,
       2.0366245494743893e-02, -2.3891642589884060e-01,
       2.0584207699891981e-02, -2.3681101748340730e-01,
       1.2490541882277797e-02, -3.8248537351911072e-01,
       1.0644943618070469e-02, -5.0501741512849918e-01,
       9.3954715891408653e-03, -6.1781332755134133e-01,
       9.0163093577553810e-03, -7.1013354132617157e-01,
       8.7344431248283158e-03, -7.7909049062687374e-01,
       8.6040990091976344e-03, -8.3315641730812995e-01,
       8.4101716503693445e-03, -8.9961924109670810e-01,
       8.3526687828177279e-03, -9.3770818456864080e-01,
       8.4447845397026405e-03, -9.0914439158303706e-01,
       8.5312840576094312e-03, -8.4666169244527523e-01,
       8.6298695923828859e-03, -7.7658470487935116e-01,
       9.2918519882045844e-03, -6.4793013098949381e-01,
       1.0767914934477350e-02, -4.9119459160858603e-01,
       1.3358174291950013e-02, -3.6427073385433090e-01,
       1.9780207546687110e-02, -2.3496908544709616e-01,
       2.0296662547793443e-02, -2.3840459828638177e-01,
       1.3059416377761873e-02, -3.6603585194409866e-01,
       1.0844799544248822e-02, -4.7875452068040847e-01,
       9.7431914275257232e-03, -5.8607732234424115e-01,
       9.0886756994228417e-03, -6.9069845411548858e-01,
       8.8628231279478335e-03, -7.4031161587748251e-01,
       8.6555341725820072e-03, -7.8132641422480520e-01,
       8.6032584201066967e-03, -8.1211318182439174e-01,
       8.6306885298869547e-03, -8.2053681991341254e-01,
       8.5343204760580382e-03, -8.3175914075685442e-01,
       8.4734845047598692e-03, -8.6795172804931053e-01,
       8.5662782581671006e-03, -8.2226848372320183e-01,
       8.9394765480386718e-03, -7.0499393900797380e-01,
       1.0410243080134012e-02, -5.2322922745061562e-01,
       1.3151644819994080e-02, -3.7851748956424958e-01,
       1.9293815716832106e-02, -2.3699558535770718e-01,
       2.1046333342109935e-02, -2.2861579592866918e-01,
       1.3581560934077161e-02, -3.4987459122276171e-01,
       1.1092882812228323e-02, -4.7351079572277821e-01,
       9.9360195579602864e-03, -5.7507197196584647e-01,
       9.2571287933667958e-03, -6.4281502341139030e-01,
       9.1707126423108895e-03, -6.6518847079737808e-01,
       9.1424428004627939e-03, -6.8107541886327627e-01,
       9.1190464386339334e-03, -6.8066842379573333e-01,
       9.2576031916952791e-03, -6.6551057824459026e-01,
       8.9844529759226417e-03, -7.1863045573214845e-01,
       8.5910412138888882e-03, -7.9876494342314019e-01,
       8.5768190773127528e-03, -8.1256783938461019e-01,
       8.8249042038846884e-03, -7.2982399011336574e-01,
       1.0309386554307774e-02, -5.2704161412259920e-01,
       1.3303246714333087e-02, -3.7031582716353301e-01,
       2.0402243292911203e-02, -2.3882865998681854e-01,
       2.1446954900886581e-02, -2.2239419884474340e-01,
       1.4267961415764120e-02, -3.4430731090451183e-01,
       1.0759683198023924e-02, -4.9123333640578226e-01,
       9.5093135314698214e-03, -6.0471151143646318e-01,
       9.2572237320312153e-03, -6.4130805987206052e-01,
       9.6526661953050541e-03, -6.1262093908432824e-01,
       1.0017640488979533e-02, -5.7630483969050361e-01,
       9.9701728064293983e-03, -5.5740245108904829e-01,
       9.8047241442745063e-03, -5.8426841411938990e-01,
       9.2948170797521931e-03, -6.6484432348905464e-01,
       8.7846764815362900e-03, -7.7150981965268395e-01,
       8.5464759557157821e-03, -8.3387538576121101e-01,
       8.8709382185375874e-03, -7.2493307121889161e-01,
       1.0316838706689826e-02, -5.2523025855757899e-01,
       1.3607239789064330e-02, -3.5579530238455959e-01,
       2.1820115486217911e-02, -2.2115778051056165e-01,
       2.1015277116270881e-02, -2.1620517097219483e-01,
       1.4304363203302028e-02, -3.4293995561756446e-01,
       1.0658634684576939e-02, -4.9982601489855094e-01,
       9.2751865753628454e-03, -6.2358006864821935e-01,
       9.1237791238602834e-03, -6.7140065816663053e-01,
       9.6948315991161830e-03, -6.0858335880291925e-01,
       9.9181203861452866e-03, -5.7046548931011154e-01,
       9.9957065477685458e-03, -5.6322307899384039e-01,
       9.9760629628946485e-03, -5.8051707987380252e-01,
       9.1154534875507176e-03, -7.0395912648307934e-01,
       8.5684289185397160e-03, -8.2780020203458127e-01,
       8.4775789826187792e-03, -8.3724993911292189e-01,
       8.9541492716351777e-03, -7.1292936500759285e-01,
       1.0471734275283303e-02, -5.1853933784347861e-01,
       1.3845990646898140e-02, -3.4914050015218351e-01,
       2.2850161423193474e-02, -2.0817639564600415e-01,
       2.2219020205236150e-02, -2.0980309828794236e-01,
       1.4263442912977766e-02, -3.4223704925398851e-01,
       1.0855595843292067e-02, -4.8963622271376706e-01,
       9.3467406704601328e-03, -6.4132193773328683e-01,
       8.7078335608085783e-03, -7.5326678826096560e-01,
       8.9135601870766381e-03, -7.3072029379626213e-01,
       9.0857829299629961e-03, -6.9412655850038307e-01,
       9.1233934493084624e-03, -6.8923131982473251e-01,
       8.9471961511955224e-03, -7.4140046187266584e-01,
       8.5130341173229786e-03, -8.5679006222091247e-01,
       8.4298180200902666e-03, -9.1654039405233434e-01,
       8.5767658403119069e-03, -8.7260444497625356e-01,
       9.0092693866711052e-03, -6.9578137009791619e-01,
       1.0591883102711926e-02, -5.0776428406090701e-01,
       1.3780099338197392e-02, -3.4590116353776185e-01,
       2.2881207424060534e-02, -2.1011812777514788e-01,
       2.7049214744363663e-02, -1.6965267487664890e-01,
       1.5786617081206808e-02, -3.0978078698452122e-01,
       1.1489444572040413e-02, -4.5358603753729743e-01,
       9.3375971108912072e-03, -6.3496127233915756e-01,
       8.4922399238949679e-03, -8.1425294838289730e-01,
       8.2788326462151698e-03, -9.3434905245184408e-01,
       8.2340544216823221e-03, -1.0044105434928638e+00,
       8.2827536208440033e-03, -1.0271277110136232e+00,
       8.2723362828051924e-03, -1.0237884745281121e+00,
       8.3227602910647003e-03, -1.0290052754865120e+00,
       8.4146486071675439e-03, -9.8002046468237514e-01,
       8.5818797660731846e-03, -8.4638360098908483e-01,
       9.1985589317920644e-03, -6.5960566460147940e-01,
       1.1012691716618950e-02, -4.7984500347652093e-01,
       1.5343620076797000e-02, -3.0844512259381168e-01,
       2.5441334714469035e-02, -1.8609064276898377e-01,
       4.7398120629526350e-02, -1.0219034807725881e-01,
       2.5380414481038012e-02, -1.9383022539168729e-01,
       1.6535461643361716e-02, -3.0334304384747068e-01,
       1.2399398347139835e-02, -4.4283211256975202e-01,
       1.0170819808444035e-02, -5.9194171285144281e-01,
       9.2519488566252337e-03, -7.1350104387408142e-01,
       8.6993824035011737e-03, -8.3189584109960668e-01,
       8.5672949247119195e-03, -8.7531623881035447e-01,
       8.6834499782750801e-03, -8.6334767236501064e-01,
       9.0339672719909718e-03, -7.7160921263529292e-01,
       9.3183853078950222e-03, -6.7303435644067988e-01,
       1.0024341640866158e-02, -5.8468476271598002e-01,
       1.1119473354564908e-02, -4.8593210506784107e-01,
       1.4492281275661536e-02, -3.5851005419731508e-01,
       2.1246014721937122e-02, -2.3482157771421006e-01,
       4.2044191061906565e-02, -1.1644138714595023e-01 ]
   output_scale: [ 5.2631578947368418e-01, 4.9999999999999994e-01,
       5.2631578947368418e-01, 4.9999999999999994e-01,
       5.2631578947368418e-01, 4.9999999999999994e-01,
       5.2631578947368418e-01, 4.9999999999999994e-01,
       5.2631578947368418e-01, 4.9999999999999994e-01,
       5.2631578947368418e-01, 4.9999999999999994e-01,
       5.2631578947368418e-01, 4.9999999999999994e-01,
       5.2631578947368418e-01, 4.9999999999999994e-01,
       5.2631578947368418e-01, 4.9999999999999994e-01,
       5.2631578947368418e-01, 4.9999999999999994e-01 ]
   inv_output_scale: [ 1.8999999999999999e+00, -9.4999999999999996e-01,
       1.8999999999999999e+00, -9.4999999999999996e-01,
       1.8999999999999999e+00, -9.4999999999999996e-01,
       1.8999999999999999e+00, -9.4999999999999996e-01,
       1.8999999999999999e+00, -9.4999999999999996e-01,
       1.8999999999999999e+00, -9.4999999999999996e-01,
       1.8999999999999999e+00, -9.4999999999999996e-01,
       1.8999999999999999e+00, -9.4999999999999996e-01,
       1.8999999999999999e+00, -9.4999999999999996e-01,
       1.8999999999999999e+00, -9.4999999999999996e-01 ]
   weights:
      - [ 8.7406277589642674e+00, 5.7593427728509949e-01,
          2.9391103537607471e-01, -1.9798854132760743e-01,
          -6.0493337916207301e-01, -4.8514688477342371e-01,
          -2.2381525444548930e-01, -1.3766845831596475e-02,
          -7.7659931605238777e-02, 1.0538821198824588e-01,
          2.7185353242603028e-01, -5.6579402858995265e-01,
          -1.3983450212550580e-01, 6.0428891995282019e-01,
          -6.8619958002702527e-02, 5.3352763424554514e-02,
          4.9847621148879684e+00, 4.8648409481460986e-01,
          -6.2624004205568273e-01, 7.8455545277339134e-01,
          2.0424418175388903e-01, -1.0052179672439947e+00,
          -4.7697117069960693e-01, -4.7102809676689933e-01,
          1.2634281378630022e-01, -4.2013815337316823e-01,
          3.0075083998517849e-01, -1.4534215713672036e-01,
          -2.0956869831948879e-01, 7.0915575718735657e-01,
          8.5873197733258008e-02, -8.9313047899052289e-01,
          -7.5973820472100950e-01, 1.2136057151467547e-01,
          -2.4627361235900624e-01, 8.7112169367252090e-01,
          2.5342030829833423e-01, -5.2942491335068997e-01,
          -5.1589284053959261e-01, -2.5592347609787103e-01,
          -1.5353260017195516e+00, 1.4207028674534164e-01,
          5.7653921750827564e-01, -5.5891153526513138e-01,
          8.0419431767297198e-02, 1.4658854846747446e-01,
          -7.6568852322703884e-02, -7.3047903211883802e-01,
          -9.1862821891897912e+00, -5.5935583920714804e-01,
          -6.5393544663580339e-01, 1.4341552283682407e-01,
          -6.4981214163973303e-02, 3.6095517970746255e-01,
          -5.0418327616529146e-01, -3.1278297182289139e-02,
          -7.5082054224484429e-01, -3.0407350461766441e-01,
          4.6887415586534353e-01, 3.5503637852325870e-01,
          5.5341994853662857e-01, 1.1703849799317099e+00,
          -1.8167025036898068e-01, -4.1443601406365710e-01,
          -5.5177055102137889e+00, 4.1449727444094281e-02,
          -4.1289677707137440e-01, 5.2972946862635734e-02,
          -7.1493463036491167e-01, -1.1047191476021181e+00,
          -6.9423835068787257e-02, -1.0502274467570967e-01,
          -1.6012256120043260e+00, 3.3820334527467588e-01,
          -2.9467344921757618e-02, -2.4429899564146798e-01,
          4.3634547035688653e-01, 5.4879885780019289e-01,
          -9.5170116532855731e-01, -2.3092011854464475e-01,
          1.1867170789600177e+01, 3.7562484723691153e-01,
          -9.2323262458276334e-01, 3.1553436916489569e-01,
          -1.6982675678141113e-01, -1.0641534472455165e+00,
          3.0382076852362794e-01, -1.7203587770552373e-01,
          -1.2796934006478227e+00, -2.0962327776121287e-01,
          3.2220380617980043e-01, 2.1546817043740338e-03,
          3.4647477541627170e-02, 1.2159100634932838e+00,
          9.3606394992823680e-02, -1.0617097836510330e+00,
          5.1561751683924948e+00, 3.1557814458989919e-01,
          -6.9313001188089274e-01, 7.8064278813613097e-01,
          -6.5842086509395004e-01, -1.2381437956122416e+00,
          1.1438803404233280e+00, 3.6717724511144155e-02,
          -1.9201327815433566e+00, 9.0798176064601069e-02,
          3.4739924160697810e-01, 8.3193572925251125e-01,
          2.7610428632810827e-02, 2.5091328513343508e-01,
          -6.4737753146206622e-01, -9.9447561353902036e-02,
          -8.5036563782077712e-01, 2.6921662006522151e-01,
          -1.0327990370653672e+00, -2.2044324035987187e-01,
          -4.7369247626868877e-01, -8.6387845849796774e-01,
          1.1579630286532159e+00, 2.1108652718519330e-01,
          -9.3898337133352594e-01, -4.0887800225996751e-01,
          2.7850958391880767e-03, 1.6132462481867169e+00,
          -4.3171660556075642e-01, 8.6059022793779985e-02,
          7.2893569860005136e-01, -9.7050002758741122e-02,
          -7.6113987941807117e+00, 1.0921182277213615e+00,
          -8.0916242391293677e-02, -4.0542399128220795e-02,
          -1.1330194755380738e-01, -2.7250994307732213e-01,
          1.4487308082921171e+00, -3.9502188962878537e-01,
          -4.4405988935672869e-01, 1.5773279839249102e-01,
          -3.9114924624031489e-01, 1.2327706280655502e+00,
          -4.5315033970823326e-01, 6.5065608977789913e-01,
          2.1910996945747843e-01, 6.6913209284395603e-01,
          6.6598718421249570e-01, 5.0747307873369774e-01,
          -1.7551790456042823e-01, 2.8678871963248198e-01,
          -1.3096326871032693e-01, -9.4753830609620071e-01,
          1.6572430321166483e+00, 2.1597933404916940e-02,
          -1.1264079430378842e+00, 1.5052205533690892e+00,
          1.7533260076506410e-01, 7.3716341506576022e-01,
          -4.6112190303897788e-01, -3.1268608425228145e-01,
          3.6862383902589735e-01, 7.2438206598756361e-01,
          7.0536933518395859e+00, -1.0089449633033330e-01,
          -5.2327570582213057e-01, -1.2195695397494550e+00,
          -4.0477358095710075e-01, -3.5251697609078114e-01,
          1.3622740589301791e-01, -1.0108285299266806e-01,
          -4.3894608304714461e-01, 5.9075345199331186e-01,
          -2.6011043026156688e-01, -8.5075545423295817e-01,
          9.5310792110658307e-02, -3.5051093864069807e-02,
          4.8857585894410105e-01, -6.2165397005870215e-01,
          -1.1970019004035548e+00, 4.7573069518522093e-01,
          2.2239693073509034e-01, -5.4780966461754466e-01,
          2.4448043385904855e-01, 3.9786979291164853e-01,
          9.5437253916566966e-01, 3.6510939519562818e-01,
          -4.6833865596857943e-01, 7.5006567486178133e-01,
          -3.9293003836001406e-01, -1.5932441829740115e-02,
          4.2615082511555091e-01, -4.5719078721536121e-04,
          -4.3833707878963085e-01, -4.9536660227690660e-01,
          -2.2253192154510626e+00, -9.9374260248998054e-03,
          -1.6578830402349468e-01, -1.2571209471809797e+00,
          4.2819551250101456e-01, 1.3820578125806753e+00,
          7.3578718364695830e-02, -1.5358662414762878e-01,
          -1.8348812271217596e-01, -2.2478449259441868e-01,
          -7.2578435964689658e-01, 1.3020954819466454e-01,
          1.1371457627096589e-01, -1.7459534193480120e-01,
          -1.7060075096433863e-01, -1.5092572653080419e-01,
          -3.5368616974249893e+00, -1.2570966427197858e-02,
          5.6286412428058430e-01, -9.7890156962249086e-01,
          -4.5921845060468036e-01, 1.2010573777723788e+00,
          -2.4102506251656766e-01, -5.4615315782931062e-01,
          -4.4105464349761014e-01, -4.7025645246134236e-02,
          -1.3752334537464339e-01, -2.8721370958090614e-01,
          -1.0788238464364308e-01, -2.6720572543543036e-01,
          -1.4825910733511094e-01, -2.4836087964950154e-01,
          -9.9759759998142550e-01, 5.9990246339372122e-01,
          -3.3982713781864810e-01, -6.1465851879866429e-01,
          -3.8866545575101297e-01, -3.7583404573032186e-01,
          -8.5776264324137555e-02, -6.2504173297913257e-01,
          6.1717389634854602e-01, -2.9984159233061031e-01,
          -6.4055636064914012e-01, 6.5067771889639678e-02,
          -3.7130939034544022e-02, 1.2704583274229769e-01,
          -4.6344592360460729e-01, -5.8355189276200085e-02,
          8.0246169164154357e-01, -1.6564269610927648e-01,
          -4.0850706966559469e-01, -5.5067031218561091e-01,
          2.0336487015004667e-01, -5.8330192662505875e-01,
          -2.5657874667416641e-01, 9.5384727553277771e-01,
          4.2083522622625186e-01, 4.1684922252655005e-01,
          -5.4526325557058575e-01, -1.0571941041428059e+00,
          3.2971093547977282e-02, 1.3781086665607112e-01,
          -1.7756316834541697e-02, 6.0738154215748748e-02,
          5.0346020454901401e+00, -5.0690515846229856e-02,
          5.1161110839716029e-01, 4.3640324479511300e-01,
          2.8640336499002228e-01, -7.1527428501971602e-01,
          -1.0977378278629095e+00, 1.3481773615824777e-01,
          -1.7287068564286151e-01, 6.9011574304290424e-01,
          3.6275747007303266e-02, -8.8997438018841774e-02,
          -1.5233250630395724e-02, 5.6384773901321994e-01,
          2.3096754607784664e-01, -1.2690102016048227e-01,
          2.0137077494907172e+00, -2.8219305333334033e-01,
          -7.0980189842903441e-01, 8.4947528247464221e-01,
          1.4978598471139862e-01, -6.4933088611636292e-01,
          -7.6307108413497826e-01, -8.7655911069856796e-01,
          -3.6338007121693305e-01, 2.5766926822077141e-02,
          6.3978772931483374e-01, -4.5675065721516639e-01,
          -6.4224490420767055e-02, 1.0685915805264894e+00,
          5.5271694138638716e-01, -7.1096243254783298e-01,
          7.8019916173652171e-02, 1.0469978096547140e-01,
          -2.5159318334408387e-01, 5.6473704266560620e-01,
          1.2432370637815406e+00, -7.0561288319548776e-01,
          -1.3480744901113166e+00, 4.9586345083423650e-01,
          -1.2820007279250747e+00, -6.2201553931491649e-01,
          4.6881603116915577e-01, 1.9959829541077941e-02,
          9.5632432622078919e-02, 1.3257297201286453e+00,
          2.8386009504540602e-03, -1.2879529766208668e-02,
          1.7515144838437327e+00, 3.7998651449975446e-01,
          -3.9498033519972092e-01, 3.3128347811325753e-01,
          -3.6954461703337223e-02, -1.5801615109745393e-01,
          -1.2262769397645372e+00, -3.0186995722462151e-01,
          -1.2116154740732235e+00, 1.4043055992048442e-01,
          1.1250770822025945e-01, 1.8475386185459017e-01,
          2.6958769692186010e-02, 1.0119397642944257e+00,
          -6.3729920602740620e-01, -1.5563616356345183e-01,
          7.5096396280391566e+00, 2.1850578926444758e-01,
          4.8885834110226831e-02, 6.2909621159784601e-01,
          -1.8510094478072397e-01, -1.3832900403512982e+00,
          -3.3415409965175641e-01, -5.2489301348005879e-01,
          -2.2839391622444469e+00, 4.4608766813085976e-01,
          -4.2708802219939490e-01, -6.4097614075810980e-02,
          2.6468807462328675e-01, 1.2129856147563489e+00,
          -8.0529569171186111e-01, -3.9093560176458453e-01,
          -2.7531372728475567e+00, 7.7693327883532642e-02,
          -4.5199652550309249e-01, 3.6360807957282421e-01,
          7.0334050446031315e-01, -1.9524246825355760e+00,
          -3.8231780362830209e-01, 9.6208152582271700e-01,
          -1.6983205025471670e+00, 3.0121883567273783e-01,
          1.1490976268971566e-01, 5.4941314544573816e-01,
          3.1868636744350426e-01, 1.3782259301256183e+00,
          2.5044551047854108e-01, -1.4656160056075426e-01,
          -8.2854137008309081e+00, -2.8852829125812097e-02,
          -7.4006245734156528e-01, 3.0327756922479632e-01,
          1.6092606334273873e-01, -1.6947832591985290e+00,
          7.0117377009302484e-01, 7.7339854096737748e-01,
          -1.8567872975558126e+00, -1.6504022227675150e-01,
          2.0974115675784474e-01, 7.8281493693223803e-01,
          -4.2329309289646094e-01, 1.1910921563825265e+00,
          4.2739141917915634e-02, -4.2058251520738243e-01,
          -4.8783097514742826e+00, 6.1826634563514726e-01,
          -3.2318131372809650e-01, 5.4259619906190848e-01,
          5.5943025357395570e-01, -5.9656735847795583e-01,
          8.4556627178642374e-01, -4.7287675772205401e-01,
          -1.8359263094671792e+00, 2.3898199685675128e-01,
          -3.2048442639426916e-01, 2.2285744364971012e+00,
          -4.9381116303613826e-01, 8.2114947563303153e-01,
          1.8095888243903849e-01, 5.4705474335882617e-02,
          -4.8072850311493281e-01, -1.0294424875805901e+00,
          -2.0551981069161088e-01, -6.3826309808407566e-01,
          1.1980633570700325e+00, -5.2098250761645482e-01,
          1.4116849308888093e+00, 2.2607958302907419e-01,
          -7.5076018737485395e-01, 9.3683646622967021e-01,
          -4.0999820622467827e-02, 9.7724544897164223e-01,
          -2.6748912546998033e-01, 8.3025310206989789e-01,
          4.2182708296635152e-01, -4.3514410021303557e-01,
          -4.2221085957959059e-01, 5.1780499911151789e-01,
          5.0284776473089343e-01, -2.8725463473771745e-01,
          1.0148035855379580e+00, 8.7076374140057233e-01,
          1.1307182191646814e+00, 7.6088898608991773e-01,
          -9.9088111651487720e-01, 1.1038916955422078e+00,
          3.6987402076558806e-01, 5.6932813501906787e-01,
          3.6404358906552814e-01, 5.4761486034827123e-01,
          2.5278146387654615e-01, -7.8581335458993540e-01,
          2.4012765320537213e+00, 4.4773746564678812e-01,
          -6.7207660542454251e-02, -1.1209436662619550e+00,
          2.8356512452073074e-01, -1.2551400972838950e-01,
          9.3658498127116840e-01, -6.8834331438064181e-02,
          -4.2509744179295039e-01, 8.0291068851422875e-01,
          1.9783436271066016e-01, 8.0474404345793249e-01,
          5.5298932862599892e-01, -6.1407363344142174e-01,
          3.3315129459642809e-02, -3.4308437513830636e-01,
          6.6494033208648051e-01, -1.4183232047663727e-01,
          1.9894870090760020e-01, -1.3712869707864574e+00,
          -6.3778990868082486e-01, -9.5769654485812805e-01,
          5.0735534885558942e-01, -2.0151969552700355e-01,
          -8.9028041975679340e-01, 5.4950324278691287e-01,
          -3.0408586757448747e-02, -9.7303379573454626e-02,
          9.4184113587789706e-02, 2.3435777838181911e-02,
          -8.1874909733691337e-01, -1.4677803449147109e+00,
          -5.5452174485196188e+00, 8.5823347982482334e-01,
          4.4436724925424720e-01, -5.7771525755054964e-01,
          1.6622911864154855e-01, 6.6594848156790731e-01,
          7.6993405834020301e-01, 2.2348311053956882e-01,
          -4.1304689075825024e-01, 2.2237919228635525e-01,
          -3.1984293440609551e-01, 9.7666286531442403e-01,
          -4.0443807005914778e-01, 6.0613199340673590e-03,
          2.2962652685096796e-01, -4.1933916135577715e-01,
          -4.4915672255250314e+00, 1.8208841516737892e-01,
          3.4828051013781158e-01, -2.7554731690552359e-01,
          1.6744142055993075e-01, 2.2912847090248128e-01,
          1.2937650049578209e-01, -1.6022121945472798e-01,
          -4.7835803285918654e-01, -4.0136652747058810e-01,
          -1.5246619575754808e-01, -5.3716245280656760e-01,
          4.5855448138003664e-02, -2.8878302338902151e-01,
          -6.4604824382598780e-01, -1.6437684651682194e-01,
          4.1048146298567136e+00, 4.7892215615736561e-02,
          -1.0907773538180044e-03, -5.1386131219117204e-01,
          1.6436045979261688e-01, 1.0205006906287741e+00,
          -1.4183189388222961e-01, -5.4157773253747665e-01,
          1.3308406865102607e-01, -8.1992424129188590e-01,
          -8.3722645456496603e-01, 4.3828729896513247e-01,
          1.6148270592100097e-01, 3.3432034873682159e-01,
          -5.1522328779009807e-01, -5.3729866422285988e-01,
          -1.2326821025003345e+00, 1.6554477588087432e-01,
          4.6652813935613928e-02, -3.8026692177608851e-01,
          7.4672692126970719e-01, 1.8500889808795093e-01,
          3.6691336322152379e-02, 5.0733189482287955e-01,
          3.7337084350309668e-01, 8.6000955588777428e-01,
          -6.4678650316905695e-01, -4.5641407782406490e-01,
          3.6192515540765668e-01, 5.1751716888968180e-01,
          -7.5176831941004973e-01, -7.0772411346173170e-01,
          -2.2265644914341043e-01, -3.7222397295248982e-01,
          -2.6030904050830761e-01, 5.7746920874065175e-02,
          -7.2206550856135066e-01, -9.4166874736414566e-02,
          -5.4252077866015158e-01, -7.2836708593214505e-01,
          5.0073717373749480e-02, 1.1388060646325724e+00,
          3.2960498871044974e-01, -8.4312540574764491e-02,
          2.9275189956651193e-01, 4.2761280962130738e-01,
          1.0557112795282064e+00, -2.9893287140529023e-01,
          -4.5976756919802914e-01, 3.9203132398124080e-01,
          8.2452622794510946e-02, 2.7352670803048051e-01,
          -1.7385322124675168e-01, -6.9596316819993276e-01,
          3.6523753305929674e-01, 5.2717027797127813e-01,
          -1.0893768650599824e+00, -1.6084378491388995e-01,
          2.3311733874833707e-01, -6.2801648032888668e-01,
          -5.2753495438317755e-01, 3.8297525592474596e-01,
          -2.8055887673020857e-01, 3.7634760023188868e-01,
          1.6087428038572122e+00, 6.9061516269764978e-01,
          3.7055099900496088e-02, 1.3647809777493505e-01,
          3.6599028818684676e-01, -5.4080440604607816e-01,
          7.3501394500061490e-02, -4.3673738009164920e-01,
          -4.4057419014752686e-01, 1.0560031153595550e+00,
          5.5577442089526541e-01, -1.1144759698031696e-01,
          8.8951783860726899e-02, 1.3446904249511746e+00,
          5.3765941972479103e-01, -5.3316234896749093e-01,
          2.4808833577120959e+00, -6.2688743786956702e-01,
          -1.0899866968659329e-01, -3.0805047563892335e-01,
          1.0747051690165763e+00, -6.2372519357194367e-01,
          -2.7766403214416202e-01, 1.4273846925119658e+00,
          -3.1239885645723492e-01, 5.0064629848887132e-01,
          3.2166954099825840e-01, -1.6314248268359530e-01,
          -1.7637206401579908e-01, 6.8853757683859407e-01,
          -3.7035092963550253e-01, -2.5703661295992619e-01,
          -3.4151771202465880e-01, -1.4163776440196479e-01,
          3.4749606625433127e-01, -3.1856475436462519e-03,
          -3.4463858312707474e-01, -1.8610653970543622e+00,
          6.2018295517287059e-01, 3.3096243220272209e-01,
          -5.1780433522581426e-01, 6.4467875375434036e-01,
          -3.6617745392962758e-01, 1.7665196209722060e-02,
          -2.3963736419191278e-01, 2.8227700219597831e-02,
          -1.2194455791295632e-01, 1.8973145167916849e-01,
          -5.0905392471941679e+00, 2.4955019997798444e-01,
          3.6550140258999503e-01, -2.5651842628540006e-01,
          -9.1074933009666181e-02, -8.8944993763690361e-01,
          9.1726939833011212e-01, -5.0397933998866062e-01,
          -1.4111696793366879e+00, 7.0680197739020034e-01,
          2.6718574492939318e-01, -6.9881244138674484e-02,
          -2.2681081032801417e-01, -3.9228713872774712e-01,
          6.4294283174242395e-01, -3.4869694500527965e-01,
          -2.7059265241888936e-01, -3.0420976587752629e-01,
          -9.2541913121327257e-01, 2.9463391937555577e-02,
          9.1107417406224711e-01, -2.0392208373165106e+00,
          1.3513690458490116e-01, -2.7756124744638444e-01,
          -9.8400816370943911e-01, 2.8789265607051345e-01,
          6.0335545566080973e-01, -8.2750736113465215e-02,
          -6.6761360063966257e-01, 1.1097466723710465e+00,
          4.9241724189670949e-01, -9.1373620854965400e-03,
          6.6124508086012890e-01, -2.1377781963011602e-01,
          -3.1411886594180649e-01, 2.3721228575338774e-02,
          8.0949730179125337e-02, -4.0670679893683803e-01,
          8.4700738347581295e-01, -1.0940172771194082e-01,
          -6.3374796884607143e-01, 5.5584418996679008e-01,
          1.9363177584835023e-01, 1.1440123464911252e+00,
          1.1077825903525344e-01, 1.0327929800704529e+00,
          7.2453067879815503e-01, 1.6049101621599998e-01,
          -5.5201790639193877e+00, 5.8513926068822208e-01,
          -2.5289947579885630e-01, -4.5068315193396480e-01,
          6.6035509974861606e-01, -2.8724899761886291e-01,
          4.2458587465048457e-02, -4.4662218721815916e-01,
          -4.6533566228344825e-01, 3.1786315874158916e-01,
          -3.1276231582786390e-01, 1.1682054022532933e+00,
          1.2105795356867083e-01, 2.5359016116989130e-01,
          -1.8462430167170757e-01, -4.5689804310048276e-01,
          -9.8841311824926734e+00, 1.9375539057984153e-02,
          -5.1920273470856581e-03, -7.5800623235598208e-01,
          1.9169390360128074e+00, 5.2566056147363216e-01,
          1.1892250705542091e+00, 4.4715545893752810e-02,
          -1.4957610397368053e+00, 7.6132891964961202e-01,
          -3.7421117904095030e-01, 5.8071602517270327e-01,
          -1.4066806560738293e-01, 2.0320409879375195e-01,
          -3.4692468870228499e-01, -7.5359934436227660e-01,
          8.6437133764521707e+00, 6.3254404659305707e-01,
          4.0699920703275960e-01, -3.8022795042741919e-01,
          -4.9954510549882547e-01, 1.1454553790356924e-01,
          1.1727397053674720e+00, 5.9654054726382744e-01,
          -3.1960937966280450e-01, 3.2353968496410829e-01,
          1.9139003435281732e-01, -5.3141337752830986e-01,
          -7.5387062740004707e-01, -2.3044982809231701e-01,
          2.1041933665716478e-01, -5.3393167453048795e-01,
          2.7721250071610952e+00, -6.2112427179330476e-01,
          2.8159053333892875e-01, -2.7906923717558877e-02,
          1.5101544343168745e+00, 2.3111166856733217e-01,
          -1.1113835425125773e-01, -1.7065735009821020e-01,
          -1.4021282923506342e-01, -8.8002735849326608e-01,
          -2.8670500084906470e-01, 8.0557277594954513e-01,
          -1.0072336947594049e+00, -6.6964462598866603e-01,
          2.6734983206545376e-01, -1.5928076976649158e-01,
          -2.1653987971235913e+00, -2.3304396945517725e-02,
          1.4046110987119653e-01, -2.1653374279586873e-01,
          5.3812962205408055e-01, 6.7566413022279326e-01,
          1.1125584976277869e+00, -7.8340760349105676e-01,
          -1.7197577728865365e-01, -3.6508409792543972e-01,
          -2.3841363083473616e-01, 1.2025317033496210e+00,
          -1.7508776667836001e-01, -3.1805318042493957e-01,
          -5.2037997048392148e-01, 6.7428870956864770e-02,
          -2.2725440163254240e+00, 2.5205235228311323e-01,
          5.4104526108405693e-01, -2.0123069857202223e-02,
          8.9774135357168050e-01, -2.7284317608021885e-01,
          7.8154591787341265e-01, -1.0180775680464647e+00,
          6.9918258315160842e-01, 2.4647143512134187e-01,
          2.0511309806122438e-01, 7.9983988654514993e-01,
          3.9924749960123393e-02, -8.5702426947902832e-01,
          2.0974250781718531e-01, 5.9841799765825887e-01,
          9.4063351734670100e+00, -5.3372326191882098e-02,
          -3.4036387060975209e-01, -4.1111717114543443e-02,
          4.6179001241466844e-01, 4.9785538106027338e-01,
          3.0341361257262106e-01, -2.9588301580360027e-01,
          -7.5856788694174049e-01, -1.6446521945134676e-01,
          5.5957315022294681e-02, 5.8863725140790524e-01,
          2.8746316430097307e-01, -6.0158142340450194e-01,
          -2.9705251706467883e-01, -1.2072473563663239e-01,
          -3.0383292516051030e+00, 3.7839391217174889e-01,
          -1.8177976532584580e-01, -3.9533521279618389e-01,
          -1.3632050490426556e-01, -3.6921990493956358e-01,
          3.5855294139533055e-02, 6.6787459304805966e-02,
          -9.5656714359546180e-01, 4.8029562790027236e-01,
          2.9804637655662399e-04, 3.3796759575136670e-01,
          1.1797421386373169e-01, -9.6413487882814092e-02,
          -2.9690003821013944e-01, -4.1614142681344585e-01,
          1.3041754360802287e+00, -4.1226052449823872e-02,
          -3.8139550192686977e-01, -4.2463527747283741e-01,
          1.3236771231378559e+00, -6.0592503400640396e-01,
          1.3666056016103285e+00, 2.2857224519418984e-03,
          -8.9742477650164898e-01, 3.8452846558868820e-01,
          -4.5719407940944190e-01, 1.7847561406507317e-01,
          -7.8452410001212960e-02, 5.6158474757031451e-01,
          8.1900952413299444e-01, 1.6180146610551446e-01,
          -9.7872948068034109e+00, 5.3055282624670586e-01,
          -4.1629835775530512e-02, 2.1507377317405743e-01,
          -5.1770297001942067e-01, -4.6736489967537553e-01,
          7.6804997567176003e-01, -1.9689938757514056e-01,
          -5.7402477887703107e-01, 1.0366579598745596e-01,
          -3.2444999067658364e-01, -5.0257810545633597e-01,
          1.1378584926359238e-01, 1.3689808463999317e-01,
          2.8186121693075966e-01, 1.0788316761409095e-01,
          -7.3514605263169690e+00, 9.4248467351429211e-03,
          -4.2048430899257305e-02, -1.5289237639691730e-01,
          4.6843508396045275e-01, -8.9200941658129662e-01,
          -4.8874824642007555e-02, 5.1237917940973876e-01,
          -9.0238029752826221e-01, 1.5524655336423339e+00,
          3.1649426695386729e-01, -2.0639072383409676e-01,
          -3.8711318129546562e-02, -4.2626370122651143e-02,
          -2.9192741172933545e-01, 8.3173574905951730e-03,
          -4.0060152670014526e+00, 4.3939509968256588e-02,
          3.0499987726932520e-02, -3.6694490714273253e-01,
          -5.2959269000403419e-01, -5.9113810626565766e-01,
          1.4266548410757929e+00, -1.6022064839870948e-01,
          3.4025267414078825e-01, -4.0481185123700902e-01,
          5.9964592244422077e-01, -1.0911728228817215e+00,
          -3.6782253380245511e-01, -3.2766274698296183e-01,
          -2.3354383647670179e-01, -1.1119061252847737e-01,
          -2.1225640847014557e+00, 1.2714068487953445e-01,
          -1.7000947972030302e-02, -7.6566699368284652e-01,
          2.1996383136742199e-02, -7.2811703555802687e-01,
          9.5249453071741330e-01, 1.9178135074814091e+00,
          4.2448632120451280e-01, 2.4415015198953094e-01,
          -3.6600122016381725e-01, -4.3351222617096186e-01,
          1.6029061973856523e-01, 2.9710238453041204e-01,
          -2.7428500972022246e-01, 5.7596086409722455e-02,
          -4.5636553095736270e+00, 2.7962219327273635e-01,
          -5.1324425463527013e-01, -8.8039488988162695e-01,
          -8.0193060242441139e-01, -2.1163141767167704e-01,
          9.9996239372003928e-02, -8.1610896465816751e-01,
          7.7249678535481314e-01, 5.8445455438445315e-01,
          6.3289303153622500e-01, -7.2337613603848339e-01,
          -5.4987514763935108e-01, -4.7949414913669830e-01,
          8.2844441085099707e-01, -2.7707685444151681e-01,
          7.0419393023518202e+00, 3.2432374827784372e-01,
          -6.7470173338583669e-02, -1.8777649369457763e-01,
          5.7349478119373898e-01, -1.1841247741274772e+00,
          1.6651338828261140e+00, -1.0981427475936836e-01,
          -3.9281000344469130e-01, 2.5465254740390553e-01,
          -2.6219822141019078e-01, -3.2403104282754930e-01,
          -5.5282822955554767e-01, -6.7726788151601758e-01,
          5.0627481400624186e-01, -5.3483911640273407e-01,
          -2.4926278725375295e+00, -7.7825390082586443e-01,
          3.0687601434979328e-01, 8.9400336880734832e-01,
          2.5467289263182324e-01, -3.4722329244717942e-01,
          1.5435096770852480e-01, -1.7885793501346131e-01,
          -2.7635156928977966e-01, -1.2226164874689529e+00,
          8.3745045282371006e-02, 1.0431987513827177e+00,
          -7.4982962645548445e-01, 8.5482150206962815e-01,
          3.4190509534913099e-01, -2.9960097732460444e-01,
          -6.5329591983418220e+00, 5.6329942171068670e-01,
          1.0602843606175054e-01, 5.1677157223914072e-01,
          1.7507157617286218e+00, 1.2403803851136209e-01,
          1.3834444474551175e-01, -3.4076136680060883e-02,
          -1.6384321958887268e-01, -3.0709051245132307e-01,
          -1.3867656560933223e-01, 1.3486096136285251e+00,
          -2.6109927427197938e-01, -6.5587242878103169e-01,
          -2.5319132025398383e-01, -8.3226375227699434e-01,
          -3.3224167152575532e+00, -1.8712295475231527e-01,
          -2.0304282563322132e-01, -8.1438650371870358e-01,
          1.6511265277471463e+00, -1.2116983154099511e-02,
          1.3812042937515523e+00, 6.4869699413221793e-02,
          3.6102603917186954e-01, -4.2662142664655145e-01,
          5.2426146861430978e-01, 1.4566285308382496e+00,
          2.8362918125986669e-01, 1.6655150804452037e-01,
          5.4404712001985189e-01, -2.4829176830862884e-01,
          4.1034155573653850e+00, -8.4708838027034369e-02,
          -3.7441630677212734e-01, -8.1313349588225170e-01,
          2.1281786850804524e-01, 7.0210919171403419e-01,
          9.2517360785268066e-01, -9.9280657422446872e-01,
          5.8628510779441989e-01, -5.7227573420110822e-01,
          -1.2284851732540206e-01, 6.0513593551628364e-01,
          -6.2245974024034256e-02, -5.1730665407646603e-01,
          -4.1235350288751299e-01, -1.7680154638857307e-01,
          6.3348874077563204e+00, -4.6555213329650552e-01,
          8.4529272062267569e-03, 2.6903790480482931e-01,
          1.1637933909761145e+00, -4.1493541182584071e-01,
          1.1801820760551336e+00, -6.8672958358710012e-01,
          -7.5435225180033272e-01, -5.0968215726266886e-01,
          -4.2034445337537146e-01, 1.6758443283067306e+00,
          -4.5976386708847716e-01, 1.2271864534710901e-02,
          1.0774544049394993e-01, -1.9650894515023609e-02,
          6.5270224894654865e+00, -4.9147955582966890e-01,
          2.9561615778472289e-01, -2.3058597121053995e-01,
          1.3495072828068524e-01, 6.1800693586001409e-01,
          1.2861380502220090e+00, -1.8182624382512880e-01,
          4.9923156268739483e-01, -1.4910387762794447e-01,
          4.3504099392179718e-01, 8.6986820170549883e-01,
          3.1720127081807281e-01, 5.9374963001212321e-03,
          -5.8504843547063812e-01, 7.5825968421224854e-02,
          2.1478642626995410e+00, -3.4167034690269404e-01,
          4.3202745644036972e-01, -1.2078934389689294e-01,
          7.4728034470507088e-01, -2.1957265602658102e-01,
          6.8383415136805747e-01, 3.3362237288500747e-02,
          4.4497964321005373e-01, 4.3249984106761435e-01,
          5.0707310633708307e-02, 6.1002760900261288e-01,
          -1.2187349744862243e-01, -9.7016382005139246e-01,
          -3.4834446572938271e-01, -2.4741209865269354e-01,
          1.6939251100990584e+00, 2.8744335820689970e-01,
          4.2754076026166260e-01, -1.7543002221036938e-01,
          5.8931744057111701e-01, 6.1017396246263933e-01,
          9.2885827206095029e-01, -9.6087710808923199e-01,
          -5.1315801842746045e-01, 3.7964769384276048e-01,
          -7.2627422777217443e-01, 3.2737427505566258e-01,
          7.0211998630470818e-01, -3.6384159985873410e-01,
          -7.2625097079465006e-01, -3.2839745861789094e-01,
          -3.8508252332744894e+00, 4.8994665243026519e-01,
          -1.3454104209735793e-02, -3.4214275580039610e-01,
          -1.5870712064747099e+00, 4.5696147155416700e-01,
          1.1567853193963897e+00, 1.6272847639103885e-01,
          7.6190380598221891e-02, 7.7010201981039261e-01,
          -1.6721304654943775e-01, -1.2412453032869332e-01,
          2.4426770393471908e-02, -2.1487150169873043e-01,
          -7.4753675976066492e-01, -4.7057597647253085e-01,
          2.9130665142895520e+00, -1.4296320933828208e-01,
          4.7314412294538211e-01, -1.1654973113139139e-01,
          1.0929349199260294e-01, 2.3197792979408402e-01,
          3.5936825235247188e-01, 1.1996653595781455e-02,
          3.9661078133032113e-01, 1.2290618747699220e+00,
          4.1471817634457780e-01, -1.4416804169228243e+00,
          9.2426252298481482e-01, 6.3797411968651940e-01,
          7.6563170859856700e-01, -4.5254821090667460e-02,
          -3.7668441402102806e+00, 1.7645297809097674e-01,
          1.7100662280804441e-01, -2.4253106088412840e-02,
          -7.3879531097814888e-01, -4.8224016425844096e-01,
          3.7484454751162000e-01, 7.2687916304701949e-01,
          1.8773453310210581e-01, 3.3309554219216253e-01,
          -2.6323498550046714e-01, -1.3892171839771503e+00,
          -2.9592397015488348e-01, 1.1206524522803012e-01,
          -5.5826588134364952e-01, -5.8842702643840095e-01,
          1.8476644785238654e+00, -5.2396358936297527e-01,
          -4.6402415166427308e-01, -7.1355868677862677e-01,
          -6.2929852447693446e-01, -1.0870756740338572e+00,
          1.5249466059660637e+00, -7.7319114602220396e-01,
          9.0105961456161976e-01, 5.3539797435140213e-01,
          -2.1756719188395460e-01, 2.1487923005665707e-01,
          -2.1870842048201142e-01, -1.9655355845013586e-01,
          -2.0708168951450578e-01, -3.8066544076501070e-02,
          -2.7878929400577848e+00, 7.0338796199931963e-01,
          4.6892730623813716e-01, -8.5718778012773289e-01,
          -1.5517454491685321e+00, -5.7759603895144784e-01,
          1.6360254249330186e+00, -9.3147122302194829e-01,
          1.2417030844280625e+00, 1.0263168912930891e+00,
          -4.7869768857957024e-01, -5.2674630239241615e-01,
          -2.5581146447280984e-01, -3.2865001044825182e-01,
          1.0693038322744499e+00, -1.7105952320931914e-01,
          7.0537449540253698e+00, -3.5377572869986017e-02,
          -8.9577963589645182e-01, -9.3761318636691604e-01,
          -5.0814690418191921e-01, -2.3448474754934950e-01,
          1.1202075686172095e+00, 4.2013066598940225e-02,
          1.2361770503044576e+00, 7.4747427501180463e-01,
          -8.5449493176938493e-02, -4.2529974154386113e-02,
          4.7325696741956436e-01, -2.6936977989638722e-01,
          5.1054763548428717e-01, 5.2999715621227399e-02,
          1.7025210147964871e+00, 2.5729815836200393e-01,
          -1.9679508085161257e-01, -7.9991261457955509e-01,
          -1.1203928365257407e+00, -4.2279857530038861e-01,
          1.0382287274958175e-01, 4.5912445042277206e-01,
          1.3987570010576507e+00, 9.6869300850749984e-01,
          -2.6557560546477711e-02, -7.3144221636198559e-01,
          3.5840510950833476e-01, -6.4164345727191641e-01,
          -3.3870222059498584e-01, 3.7730996072380435e-01,
          -1.0546623962115971e+01, 3.3502222030244035e-02,
          5.9622418234442121e-01, -1.0711459547850926e+00,
          -6.6564173620433342e-01, 1.5340474404258062e+00,
          -4.3582357273594163e-02, -3.3460343002647747e-01,
          5.4980646337600902e-01, -3.9871856353954022e-01,
          -5.4612570510608660e-01, -4.6890194863016521e-01,
          -2.1866106354602727e-01, -3.0040534614074293e-01,
          3.4820374765796261e-02, 3.5457945010788861e-01,
          -9.5765062025481722e+00, 5.9902921467430770e-01,
          -3.6186639212086980e-01, -3.2792286276530920e-02,
          1.5362707571508347e-01, -4.2522126994783044e-01,
          -1.6591976272088182e-01, -3.0299525034177732e-01,
          8.1837311392236733e-01, -3.6951436071013061e-01,
          3.1640960940248714e-01, -4.0314277627668205e-01,
          4.2759402960610371e-02, 3.2136725591774817e-01,
          -2.4098990895701375e-01, 3.8524445651248601e-01,
          2.0489974833788751e+00, 2.8785005464460506e-01,
          4.4072481236920696e-01, 8.5127310749324103e-01,
          9.4021566138604323e-02, 5.7984849437437436e-01,
          1.1621446241134272e+00, -7.0264131497061177e-02,
          -1.3649971521599766e-01, -6.5800636234654120e-01,
          -1.6967031408046526e-01, 1.3281283389822862e+00,
          -1.4275751391055139e-01, 7.8108937930813620e-03,
          4.0101539382309481e-01, 4.3462274304351567e-01,
          -4.6908410786950832e+00, -3.8869900978360128e-02,
          -1.7606886928812632e-01, 3.7425350539094088e-01,
          5.1053778480530310e-01, 1.0200044206775952e-02,
          3.5871495519336283e-01, -6.6039522487491609e-01,
          5.9982344155071354e-01, 1.3058067984794010e-02,
          1.2145615414256418e-01, 9.0615695937758622e-01,
          2.9624940407412054e-01, 3.0451340513221259e-01,
          7.4957356712476619e-01, 2.7331947807068097e-01,
          -3.5652415911150643e+00, -5.7412339495069320e-01,
          -3.3596820383965131e-01, 7.5162387159167288e-01,
          1.6461520401345859e+00, 1.0501065685602919e+00,
          5.2916909552087732e-01, -3.3103065276535787e-01,
          4.9716371123039932e-01, -5.3463122979952338e-01,
          -3.6056844305338898e-01, 1.3140590430992514e+00,
          -3.6688931832116456e-01, 6.3024765076046846e-02,
          -2.1645050561675330e-01, 7.6491804504316696e-01,
          3.1815767629859870e-01, 4.8048910325447980e-01,
          -5.8940522090821623e-01, 2.0215976277187894e-01,
          1.9177667571025653e-02, -3.8673444190373207e-01,
          7.2837638694660989e-01, -6.6832214313163962e-01,
          3.9767874073450149e-01, -6.3671655342640154e-01,
          1.2226357100442259e-01, 1.3431865807437464e+00,
          -5.5634933764692274e-01, 3.0698906498482229e-02,
          1.1885626028519691e+00, 3.5366024375063437e-01,
          -6.2884488978234341e+00, -4.5946925662903310e-01,
          -4.0543590554761055e-01, 2.6299155086599751e-01,
          2.1740833618593014e-01, 1.5239577229128276e-01,
          1.6383905401459935e+00, -3.3001692431677943e-01,
          9.7747984660371767e-01, -5.6331770289087035e-01,
          1.4262726542208884e-01, 1.9716153752267735e+00,
          -5.3586700766381834e-01, -1.2498781478614192e+00,
          9.9266465931791392e-01, 7.9896689233900653e-01,
          -2.8890830085013686e-01, -6.0226919753649533e-01,
          -3.3793673912272737e-01, -1.4415958574711529e-01,
          -2.5739084532310325e-01, -3.0375246429939351e-01,
          1.6106576019954855e+00, 2.8481950243629306e-01,
          3.1987289427331145e-02, 9.7241895256189792e-01,
          2.5393571022154088e-01, 1.0819122037085758e+00,
          9.8777837013947253e-02, -4.6054271191651946e-01,
          -4.0399040435213129e-01, -1.5216089431271493e-01,
          3.2311655927475598e+00, -3.8895881628924761e-01,
          -3.9304689662750392e-01, -2.3663720766499133e-01,
          7.7097036566721469e-02, 1.2800602279922610e+00,
          6.7262800051559912e-01, -7.6023683910864881e-01,
          6.4816049576413881e-01, -1.2852648987428552e-02,
          -2.3769882245146473e-01, -3.1023250059421525e-01,
          8.5475515508059052e-01, -7.0799720661039045e-01,
          -9.2824850273368820e-01, -1.0232645886288556e+00,
          1.6496891616971243e+00, 1.3080035539479123e-01,
          -1.1137440586655012e-01, -4.7859632105408162e-01,
          -9.9247020144217407e-02, -1.4232245481570998e-02,
          7.7692179318818766e-01, 2.7547348680925793e-01,
          9.0784626105202504e-01, 2.7784099750761088e-01,
          3.5469235798114135e-01, 3.9851909885252518e-01,
          5.8926368204722701e-01, 2.4841746148236035e-01,
          -3.3283878993348570e-01, -4.2948860037367498e-01,
          1.9027550766031722e+00, -3.3133210658979495e-01,
          -4.3156609697397152e-02, 3.5630846784583875e-01,
          -3.7940659063383442e-01, 1.5827426808873116e-01,
          -1.9137508267291145e-01, -1.3017976379167093e-01,
          3.1230566796557124e-01, -7.0127881028894534e-01,
          7.4475905418679977e-01, -8.1104952704289235e-01,
          8.0846061624937227e-01, -2.3314710357556081e-02,
          -3.4987684354126586e-01, 1.6978903580951657e-01,
          -1.1296621312817028e+00, -2.4766391412744690e-01,
          -4.2396002927101956e-01, -2.5383944854555918e-01,
          -8.8001853658429352e-01, -8.5339610869427360e-02,
          -5.6755185886998960e-01, -4.4904261155418657e-01,
          6.1884126873707257e-01, 6.6218349894852235e-01,
          4.2859489437059539e-01, -7.5753312844220888e-01,
          7.1465772913974290e-01, 6.6199349140793817e-01,
          3.9287410276831559e-02, -8.5992282863410499e-02,
          6.0202528822362766e-01, -1.8234178171446380e-01,
          -6.4359655439482499e-01, -6.3629778752982202e-01,
          -1.7735838134003028e+00, 6.8153518184760276e-01,
          6.5015477703551561e-01, -1.3508554349175694e+00,
          9.9847832972486517e-01, 2.2058360963985226e+00,
          2.9022190897103356e-01, 8.0141803492619923e-01,
          4.8814681804142862e-01, 1.5748333491680228e-01,
          7.1931228777310541e-01, 2.4074921845072877e-01,
          5.3205666419291586e-01, 1.8134212815988285e-01,
          3.5891610726980283e-01, -9.6205344460252407e-01,
          -1.0153123812413725e+00, -9.9040447290235020e-02,
          8.2290393854341992e-01, -5.8478268413593426e-01,
          1.2911132487689454e+00, 1.4249590575391609e+00,
          -6.0510395695911989e-01, -6.8350632714053827e-01,
          -4.0712949138816812e-01, 3.9352573206999480e-01,
          3.8433488551998296e-01, 3.0270815038323862e-01,
          1.2080001317332956e+00, 2.1703549776248668e-01,
          6.8059389604631948e-01, -2.4387632701705708e-01,
          -1.0440205554919615e+00, 9.1598539334510698e-01,
          5.2412467392671602e-01, -5.7427765987352553e-01,
          5.7830794157337129e-01, 1.7458364925621954e+00,
          -5.5926776732528038e-01, -7.0084626131164882e-02,
          3.6259372870088019e-01, 1.5402169410216552e-02,
          5.2595289771494212e-02, 1.8051992243502213e-01,
          -4.6237047631480159e+00, -4.6737329805693922e-01,
          2.0299246856827050e-01, -1.0189171009996008e+00,
          -5.6957304128762110e-01, 1.0422259832073411e+00,
          1.3345701075337593e+00, -5.1499185253228941e-01,
          7.0742223544601412e-01, 8.5875146390570856e-01,
          -3.9516393932180199e-01, -2.0955101663011799e-02,
          1.9346080230007088e-02, -3.7009696607332815e-01,
          1.3539301353282535e-01, 4.2935091786598950e-01,
          -9.0246428565359995e+00, -3.8843503130741402e-01,
          4.0576422903109577e-01, -3.7334576137671172e-01,
          -3.9781277560270362e-01, -5.7766473082543535e-01,
          8.8673928520379453e-01, -3.5636413507424824e-01,
          1.0687970493101291e+00, 5.0129837766389074e-01,
          -6.9532511254231200e-01, -4.5543147141194018e-01,
          -4.3556881758121263e-01, -5.1392924127495421e-01,
          -1.0163136873545725e-01, 3.4872288182946420e-01,
          -4.7214444578469452e+00, 5.4652768123765572e-01,
          -2.7582652922952705e-01, -3.9214345417925056e-01,
          1.5057137837391665e+00, 2.7729980253847361e-02,
          6.0284362066434771e-01, -1.8251748811012605e-01,
          8.5535055840485319e-01, 3.2990000662802388e-01,
          -2.3244770239287343e-01, 4.9988587397627954e-01,
          -2.8900679926491446e-01, 1.0290382568928823e-01,
          -2.9052325928863121e-01, -1.9046270395398832e-01,
          -3.5853740129841811e+00, 5.8214691933016212e-02,
          2.0135680018612151e-01, 5.9126115802386241e-02,
          -2.6493644916739262e-01, 9.5225707114719726e-01,
          8.2929475130127828e-01, -1.4262443933751736e+00,
          1.2206939934174927e+00, -1.4753799685646227e+00,
          -1.6320567043803729e+00, 1.5438772770676064e+00,
          -1.1350183492495916e-01, -6.0365560155617136e-02,
          -4.2576625373273183e-02, 3.8460037229536026e-01,
          1.9388264880426012e+00, -7.9415423312987274e-02,
          -3.5771920905971949e-01, 3.8553334903426650e-01,
          1.0345885799063708e+00, -3.7687244775887691e-01,
          5.8273180542948944e-01, -1.4966901179159106e-01,
          2.6443479373399309e-01, -7.8810154060352544e-01,
          -4.2300661251341393e-01, 2.3623887142044531e-01,
          -3.4521353132814780e-01, 1.8724303592755476e-01,
          6.5187400454678546e-01, 5.6235912204165162e-01,
          1.1722825612020771e+00, -2.5124148369821884e-02,
          1.9933015035084073e-02, 2.5728194150756556e-01,
          9.2152841602290847e-01, -1.2053690773115476e-01,
          6.6357041173324915e-01, -7.4900885483790203e-01,
          3.2558165372393932e-01, 9.9641222817305017e-02,
          -4.7193371213215096e-01, 6.0350685093307910e-01,
          1.9642041031061983e-01, 1.5579549868313505e-01,
          3.2356611811382513e-01, 8.5233522367351777e-01,
          5.6008848480721998e+00, 3.1650896469893269e-01,
          -7.6354713908255256e-01, -2.7481103650875544e-01,
          6.1479506114399551e-01, 8.1150965660895003e-01,
          1.0031336879917372e+00, -1.1935306329307347e+00,
          -8.8810644742003383e-02, -1.0406388294303497e+00,
          -2.1190282386990822e-01, 1.2058974619561342e+00,
          1.3947079309520918e-01, -1.8449849359036619e-01,
          7.3430131903809903e-01, 4.3842245859222312e-01,
          -7.8518783491428961e+00, -5.9994740581423289e-01,
          -6.4375286195604375e-01, 7.4958228031646046e-01,
          1.0146720199396151e+00, -3.6149629169156611e-01,
          3.3137640826745074e-01, -9.6239542802894540e-01,
          1.6302866272012212e-01, -9.7684487638840833e-01,
          -4.3321110847873134e-01, 1.1497896404574457e+00,
          -1.3029724178458003e-02, -3.2049530161700363e-01,
          1.7759910069006941e+00, -2.7384157790627726e-02,
          -1.1250675271186900e+01, -7.2966994750917036e-01,
          -1.7028580541753300e+00, 2.3174116341471857e-01,
          5.8307424113877482e-01, -4.4267636020748968e-01,
          6.4557621423448497e-01, -2.2743929857063236e-02,
          -1.9407969641078049e-01, -3.8985914633677782e-01,
          -1.1885095020721062e-01, 1.4968142783215861e+00,
          8.1536764564897957e-01, -6.5989458812738155e-01,
          5.4050505887797451e-01, 1.8591233644185046e-01,
          4.3931203415346838e+00, -1.0326954158397592e+00,
          -1.1267734898895447e+00, -1.7382473022097339e-01,
          7.5166617308612049e-01, 7.6313032025014982e-01,
          5.8478227735188337e-01, -3.0875115138528425e-01,
          5.8703153375268691e-01, -4.1102300201753794e-01,
          9.8392724352224473e-02, 6.0673610697622227e-01,
          1.4830750901017777e+00, -8.3619199593237470e-01,
          -3.4631731237615171e-01, -4.8529867942141497e-01,
          5.4962926924262419e-02, -7.0802445889738119e-01,
          -9.0230426217419313e-01, -4.8325214160434266e-01,
          3.3698049766012994e-01, 9.5434554239639224e-01,
          8.8099993857395020e-01, -4.3793739744343189e-02,
          7.5275150776322930e-01, 4.3345900798676712e-01,
          3.1104118887895810e-01, -4.0182542821038070e-01,
          1.0864171645613776e+00, 4.9869965822567135e-02,
          -8.8533532634423895e-01, -4.0580323177812461e-01,
          9.2202935153653538e+00, 6.2688804296348502e-02,
          5.9701156444141340e-02, -4.6833086644300265e-01,
          2.9682551043906918e-01, 5.4041559522778643e-02,
          1.0726196031580867e-02, -2.2531517051048386e-01,
          1.0933123652224763e+00, 3.3889053703269965e-02,
          -2.3636704433876427e-01, -1.3396330315320371e+00,
          7.5261759607021181e-02, -3.2171920374335716e-01,
          -6.0579210941964912e-01, -1.4870983330448412e-01,
          1.0546365315056482e+01, -3.0165812104159702e-02,
          -2.6036254655697925e-02, -8.9993837138100652e-01,
          -1.5332607128893549e-01, 2.6069863179192670e-01,
          1.0787202862753703e-02, -4.4106364791792263e-01,
          5.8135080025880170e-01, 5.0423644605741047e-01,
          1.9361971258631944e-01, -7.6999437831508100e-01,
          6.3135015724975163e-01, 7.0100996007329164e-01,
          1.1880194083961901e-01, -1.0675221696538451e-02,
          -2.8668794551049439e+00, -6.2648535252002058e-01,
          5.1661624230378644e-01, -2.2247766548087475e-01,
          2.7332964481190481e-02, 9.3562386189558044e-01,
          4.6753322903857925e-01, -3.5192239612795956e-01,
          1.7154764254583912e+00, -7.4652395193182314e-02,
          -4.0366068281979761e-01, -3.1547167913277513e-01,
          1.7094133976619330e-01, 3.8370836259819785e-01,
          6.7424298223005674e-01, -1.0326422019584862e-02,
          2.4958721745542953e+00, 2.3008630006030548e-01,
          -4.5992054825124706e-01, -4.9373636011526245e-01,
          1.3122730649156480e-01, 3.4684872104932024e-01,
          -1.0843592700546198e-01, -1.9445898335242878e-01,
          1.4368865804396769e+00, 1.4680733212274918e-01,
          -2.0750505289827723e-01, -1.9661030935085089e-01,
          -1.6260919927525033e-01, -1.9004157851902123e-01,
          7.3380807960287076e-01, 2.1113456025513225e-01,
          2.3302962066947206e+00, 1.3004170558107780e-01,
          -5.2386025279450910e-01, -5.5286750023503117e-01,
          -8.4019576704035015e-01, 3.9289858504389391e-01,
          1.7235937665979259e-01, -1.2326234487503769e+00,
          6.7138249842957443e-01, 1.8004081492023688e-01,
          -7.4391679707715666e-02, -1.2483556781597245e-01,
          -1.0560670401692504e-01, 6.7298221729273400e-01,
          1.4646220328663293e+00, 4.8773759190194466e-01,
          6.2049427638033272e+00, -2.1041583516439241e-01,
          7.2765130448218041e-04, -6.9080112480617506e-01,
          -1.3771778514085891e+00, 6.6608212665747757e-01,
          -1.3144357519536918e-02, -1.7748900311725041e-01,
          -5.2393209055472444e-03, -3.9364396804885354e-01,
          -8.2287333972042395e-02, -9.7752327148905893e-01,
          -3.5448371679001606e-01, 1.9904510011572649e-01,
          -1.2354659837187181e-02, 6.4755315032560390e-01,
          8.7568346332887603e-01, -2.6179823374744338e-01,
          8.9359375459468968e-02, -6.9921645640181229e-01,
          -9.8968645374073150e-01, -2.0347387772274086e-01,
          2.8711606596868539e-01, -9.9099434921693375e-01,
          8.5663708717910902e-01, -5.0648125793721160e-02,
          -8.4865637588508014e-01, 7.5973768539166386e-01,
          -7.1776629188508601e-01, -7.5667673460799190e-01,
          -7.0617440700114290e-02, 1.0273345320522855e+00,
          -7.9012778137403199e+00, 8.5301898982347413e-01,
          -7.1855794363901659e-01, 5.4436832712566474e-01,
          2.5720252974553121e-01, -1.0332821480782967e-01,
          7.7332038533061795e-02, -1.1133286694921545e+00,
          1.8896475229507687e-02, -4.5376069503680255e-01,
          -1.4448454980956504e+00, 3.4959562640946423e-01,
          -2.9019448837144879e-01, -4.3745223595258970e-01,
          -4.8360717227148764e-01, 8.1715725709209086e-01,
          -5.1014121615958059e+00, -2.4594948994356927e-01,
          -4.9092025832329945e-02, 2.4017923043926509e-01,
          -2.0804094304462348e-01, -5.8155162333989062e-02,
          1.9932024318364464e-01, -1.1019922448977117e+00,
          8.2370535710362214e-01, 1.7204080330060745e-01,
          -3.6676684394589898e-01, 1.0031997246501776e+00,
          1.5226773123249931e-01, -4.5405015989285070e-02,
          7.9341073330254341e-01, 5.9543598096135919e-01,
          -7.9988217176739260e+00, 7.2220986648666508e-01,
          -3.0736003130739975e-01, 4.2602640812043768e-01,
          -1.3035883362161155e-01, -5.0037812645716040e-01,
          -1.7596541233794913e-01, -7.6197559329836739e-02,
          -3.7319096063454454e-01, -1.0176058505958880e+00,
          -6.6148941976616626e-01, 3.6078106113359687e-01,
          5.0113604981426974e-02, -7.2635102474337931e-01,
          7.8080234557375050e-01, 7.5638394889225902e-01,
          2.0660311481984517e-01, 3.1225682249832704e-01,
          2.2047746902606150e-02, 5.8083308967342751e-01,
          1.2758219018470034e+00, -2.1083711279460923e-01,
          -1.2078842300006056e+00, -3.7935714945904414e-01,
          -2.8741559841561548e-01, -5.7694240697747257e-01,
          -1.8228169543794398e-01, 6.5448132481804056e-01,
          -2.7625148979927444e-01, -2.8299896642239075e-01,
          -2.5691324026312135e-01, 1.5178938773440396e+00,
          -1.7860837527100357e-01, 1.0802788646812206e-01,
          -4.0040991986844010e-01, 2.0300005472685284e-01,
          8.1873002935767936e-01, -1.6347116517949090e-01,
          -3.7213169902782611e-01, -4.1476423209502478e-01,
          9.4094396604169972e-01, -9.1223442992825232e-01,
          -4.5988309569381811e-02, 5.6188883142281199e-01,
          -1.7881151143654583e-01, 8.5024052581179885e-02,
          4.6891740251304281e-01, 9.1106291619322732e-01,
          -3.5642248748402858e+00, -8.9074766751063983e-01,
          2.2277809919083053e-01, 6.9375582834369609e-01,
          9.2985211086237007e-01, 3.6449609560742319e-01,
          -3.8527587197409879e-01, -7.5206070418555848e-01,
          9.2858882185449416e-03, 1.1585637598799789e-01,
          -5.9000315394310145e-02, 9.4344570505982092e-02,
          3.9082994588737296e-01, 9.4629835225441317e-01,
          1.0380698089478679e+00, -3.3052584381203121e-01,
          4.3927618652438172e+00, -6.1526578700285717e-01,
          -1.3677304614769215e+00, -3.2301339233426180e-02,
          7.7776518351551904e-01, -1.4367170491235109e-01,
          7.9651369519849058e-01, -9.4543767080007313e-01,
          2.7848134578725904e-02, -4.2544026006550584e-01,
          1.2888361445674001e-01, 6.9563010062431074e-01,
          -6.4643168195826994e-02, 4.7233375465324662e-01,
          3.0478162656205188e-01, -2.1729910087962284e-01,
          3.5514347453891313e+00, -7.3246245199311366e-01,
          -1.4788042733167670e+00, -3.2965211834510666e-01,
          5.3162890008537300e-01, 7.9132149188298218e-01,
          3.5488300337089768e-01, 1.7365791558055208e-02,
          8.9675112389851475e-01, -3.8106035489825424e-01,
          2.9684964507661521e-01, -2.1627942493364705e-01,
          1.5004868757511676e+00, -7.3993887370280031e-01,
          -4.7147733486213517e-01, -3.5297203890701900e-01,
          3.0372940850912811e-01, -9.6607204959094584e-01,
          -8.0194068706995458e-01, 4.1543786359588858e-01,
          1.0722022800275048e+00, 3.9278269322625170e-01,
          -1.8156873332831597e-01, -2.2541564948421387e-02,
          -4.7408625711585987e-02, 3.0194650455032904e-02,
          -9.7777269275508491e-02, 2.1808029238208099e-01,
          8.7489903298305582e-02, -8.4458498623343203e-01,
          -7.4772068874258868e-01, -1.0364737890087845e+00,
          1.4291715034054596e+01, 7.5747319688055492e-01,
          6.5097216568603977e-01, 1.1089247861807494e-01,
          -7.6680810194178617e-01, 2.9476467350151153e-01,
          -9.2183505848106007e-01, -1.0605389621337968e+00,
          4.5173093528176123e-01, -8.4456996391385847e-02,
          -1.9110335759412023e-01, -3.5833487281901832e-01,
          -5.6853615479039299e-01, 2.4237860771794927e-02,
          -2.5138045399244957e-01, -1.0184711581167156e+00,
          1.5205045624222343e+01, -5.2604724334529318e-01,
          -1.0490198317963531e+00, -5.6208488077481922e-01,
          3.2604953083423799e-01, 2.0665558992770874e-01,
          3.6287740553693054e-01, -8.3027488414178152e-01,
          2.0262600067653447e-01, -1.4646764900633993e-01,
          2.2444965355272509e-01, -1.0710327965007782e+00,
          2.2752747131686651e-01, 1.8595835631194446e-01,
          -3.8202090217791018e-01, -4.8315518537372337e-01,
          2.0093253326147553e+00, -7.1927116700091165e-02,
          1.6543285860041551e-01, -1.7238916055688072e+00,
          -7.8572118487320608e-01, 5.2920273534942097e-01,
          -3.9129282017674305e-01, 8.0166324620290286e-01,
          1.6757742824484820e+00, -1.9496562592713693e-01,
          4.9349340912820983e-01, -7.6124254134606251e-01,
          -8.9480253053644127e-02, -2.1630424667280915e-01,
          9.0247523639714992e-03, 6.7224404070074895e-01,
          -1.4556156889178979e+00, 4.9585188218027976e-01,
          -1.1827915691879155e-01, -1.1916037484069038e+00,
          6.3818910230792628e-02, 5.4326317047357564e-01,
          4.4840844245310368e-01, 5.9637667629744477e-02,
          1.4228654759920099e+00, -7.4414946702578616e-02,
          -1.5017368654471797e-01, -1.1931349835277201e+00,
          1.0866602692644672e-01, -5.7136577225583784e-01,
          2.4787090923231023e-01, -1.9914308926053281e-01,
          8.7523886027506173e+00, -1.2638645038575222e-01,
          4.4877564477985035e-02, -7.0511220583340062e-01,
          -9.7987026488874496e-01, 6.2402105137217267e-01,
          -2.0786460101511445e-01, -7.2758837150731392e-01,
          5.1003747233991714e-01, -4.0765886204518514e-01,
          1.8455175297655588e-01, -8.3535634691057403e-01,
          1.3483036843279331e-01, 3.6419718821844393e-01,
          3.3995538291313337e-01, -7.1592054507646730e-01,
          2.6061564911943447e-01, -2.3108170787743859e-01,
          -1.0594377874778992e-01, -1.4026974172307546e-01,
          -1.0358472965345384e+00, 1.0486365741780914e+00,
          -1.4765995875704915e-01, -3.0800077060617775e-01,
          5.9441970169152147e-01, -4.9661028540156082e-01,
          -1.4288525883156658e-01, -1.6548822181148684e-01,
          3.1909171550941229e-01, 2.2892070190645106e-01,
          -5.8697441896060465e-01, 4.5078542734245935e-01,
          -4.6329659816944657e+00, 5.3477336438889356e-01,
          -5.1124002033045055e-02, 3.3610860163959472e-01,
          -4.3375182835623066e-01, -4.4574861529207171e-01,
          5.0649661996171647e-01, -8.0487213933035717e-01,
          -2.8808748517349592e-01, -3.3994311983843717e-01,
          -9.1427317490558990e-01, -8.1734837264221122e-02,
          2.0129335694982642e-01, 1.6445223570857065e-01,
          2.2648516842878906e-02, -8.2964875128700721e-01,
          -5.4059916555120093e+00, 1.3867587155850520e+00,
          1.5188154062412426e-01, -4.4191772575636840e-01,
          -5.5530201648903710e-01, -2.8083408995273196e-01,
          -8.7628173412947055e-02, -8.4397593355297396e-01,
          1.3529746673620353e+00, 1.5155430599004482e-01,
          -1.3808168639190901e+00, 3.4642912734487408e-01,
          5.5158860385897235e-01, 8.9126501244802134e-02,
          -8.4347839037474268e-02, 1.0731884995245823e-01,
          -1.6209748618805161e+01, 9.0429848003817836e-01,
          3.9805937428969912e-01, -4.5464267748073289e-01,
          -8.3513377333580874e-01, -6.5288415105771713e-01,
          1.1466831964104969e+00, -7.0644305461485224e-01,
          1.0317541146705902e+00, -9.5232679239441634e-02,
          -4.8876219736686377e-01, 7.4582706357884743e-01,
          -2.7816807818115308e-01, -2.9579218048467901e-02,
          -1.4841891388817530e-01, 5.5320836304397603e-01,
          -1.3066555462573797e+01, 5.4502465255038331e-02,
          3.1896792164811305e-01, 7.6685183787436006e-01,
          -5.1105400032712722e-01, -5.4499247851405042e-01,
          -8.9523984670540846e-01, -8.6520538411573755e-01,
          1.3653332808128077e-01, -3.9316054610213041e-01,
          -6.6465225478987056e-01, -3.0434649532346164e-01,
          -5.5140483250613803e-01, 2.4947282296601295e-01,
          7.0862140815176711e-01, 4.2278500781037709e-01,
          -1.3684744496315401e+01, -2.4225347076389642e-01,
          5.9747378117453831e-01, 1.2316199999258975e-01,
          1.5517961326774374e-01, -4.5196957632401258e-01,
          -5.0339651501877725e-01, -5.7719570712975210e-01,
          2.5513536316319280e-01, -8.6288202869053698e-02,
          -9.7509265743779952e-02, 4.4237853903128350e-02,
          -5.7198004264891100e-01, -3.3410845987035820e-01,
          9.6585173726208806e-01, 3.9481901024742645e-02,
          -5.7992801573510109e+00, -6.6045132190472200e-01,
          8.4230005541165853e-01, 2.5863851943214067e-01,
          5.6200553546944076e-01, -2.1576232218642213e-02,
          -1.0878280363378936e+00, 3.8862756496851536e-01,
          3.7402388957149668e-01, -4.5579561354641673e-01,
          1.8745700733570556e-01, -8.0881827836583331e-01,
          -1.2361242570155744e-01, -1.0158547543769357e-01,
          2.9801248824621079e-01, 6.9313952608066010e-01,
          -3.8807432431030628e+00, -7.6263119286180137e-01,
          -9.3672140413009264e-01, -2.5208852224202888e-01,
          5.5890310940043209e-01, -2.4690222129093670e-01,
          -4.2630399030391608e-01, -1.1725284016905684e+00,
          6.7122672457331034e-01, -6.1307118515503056e-01,
          -4.3029426621834121e-01, -3.5497038610458626e-01,
          -4.3439578188875499e-01, -3.5004477467302170e-01,
          5.5763406778833458e-01, 4.1180910403744431e-01,
          1.4147957851184684e+01, -8.2686498623634075e-01,
          -1.3985651677971831e+00, -4.3905254005316219e-01,
          5.1815585480035231e-02, 1.4642283039813200e-01,
          -1.3244826052592845e-01, 1.9971919107402947e-01,
          1.8634809840049846e-01, -5.1538439884258558e-01,
          -2.2318546698167402e-01, -5.0834113744337786e-02,
          -2.7634174992269295e-01, 1.1056882595809459e-01,
          -3.3238647178710384e-01, -3.3106715258339975e-01,
          -2.5786262458781317e-01, -1.1448414714314072e+00,
          -1.5562198220065198e+00, -3.0443860976113163e-01,
          6.6048807003551979e-01, 3.5034194582956157e-01,
          4.7097665603396660e-01, 3.1556404494594159e-01,
          4.5080888432918897e-01, -3.0189919644667884e-01,
          2.8348042296381937e-01, 6.0313766933170108e-02,
          4.5572076052442906e-01, -1.1697700090101428e+00,
          8.8198050037013503e-02, -1.1836797304261966e+00,
          1.6139071141056891e+00, -2.3113271774341454e-01,
          -6.3200515247154865e-01, -8.2456335938813505e-02,
          1.9229650142401822e+00, -1.3238248884258602e-01,
          4.4971429197998480e-01, 1.5035997465222772e-01,
          1.6674178111003111e-02, 6.9068027675653593e-02,
          -5.6539343918725959e-01, 2.5608398363733131e-01,
          -5.6651143440023255e-02, -4.0911785129248313e-01,
          -7.3235072362327042e-02, -1.1082565075912183e+00,
          1.2903618594039639e+01, 2.5758888265400275e-02,
          -1.9279367813485887e-01, 5.7387679253310941e-01,
          1.6933057613585267e-01, 2.8454261237176515e-01,
          -2.9670504887070936e-01, 1.1263818976258876e-01,
          8.3325323458572020e-01, -1.0982038645042311e+00,
          3.4976279252807380e-01, -1.9589431502578500e-01,
          2.0096185296564734e-01, 4.1046185504990246e-01,
          -6.5772439263519411e-01, -5.0043560527072162e-01,
          8.6823263981520942e+00, 3.8466613611973860e-01,
          -6.8101584344790211e-01, -5.9169051693503938e-01,
          -1.7401190843524352e+00, 2.9836391633351123e-01,
          6.8262667004803868e-01, -2.9790472907443671e-01,
          9.2536101061777010e-01, -1.3361316569434356e-01,
          1.0859229867629681e+00, -8.4050502636587998e-01,
          9.4107801839753713e-01, -8.5385759124390959e-01,
          -1.5787198168036856e-01, -3.0520277772379156e-01,
          2.5067996427667314e+00, 2.2839479075572749e-01,
          -5.4859216054843167e-02, -7.9612199044024035e-01,
          -2.6652233953352872e-01, 5.1602979687058326e-01,
          -2.1570883581019254e-01, -9.4849162987626509e-02,
          7.8857845877979316e-01, 4.3348163341487811e-01,
          1.0641658586484075e+00, -8.0907764058787290e-01,
          3.5745353358707099e-01, -2.9401054958976991e-01,
          1.4638356009284645e-01, 1.6845567556467967e-03,
          3.8371620576670709e+00, -1.2184604065877462e+00,
          -6.4603511648113354e-01, -1.2170160788293567e+00,
          -2.0769727155032316e-01, -2.6599867785560805e-01,
          -1.4118402758073434e-01, 3.4126579563568643e-01,
          9.6743824339088702e-01, -2.0171321471082065e-01,
          5.0961642715373145e-01, -9.3230158888853976e-01,
          6.0636443267343099e-01, 1.7697667030171399e-01,
          -1.8521749943209195e-01, 4.3921370079712968e-01,
          -1.1777861619007957e+00, -2.7170347049185355e-02,
          -5.2957981377952512e-01, -4.3809722316496424e-01,
          -5.5912539673619588e-01, 6.2040184169476353e-01,
          -2.6240006910473496e-01, 3.2658659134242357e-01,
          -1.1152958508624621e-01, -8.5489815096434807e-01,
          3.3871935608605447e-01, 2.0597559369242860e-01,
          2.1057595286493058e-01, -4.9586164784110759e-01,
          2.0134655339043617e-01, -1.2500082321248629e-01,
          -4.8559982279820453e+00, -1.9559228036876083e-01,
          4.1270472593081425e-01, 6.8628467639664226e-01,
          1.2190876203697029e-01, -3.1916165142097630e-01,
          -4.2650848745649000e-01, 1.7246762429611656e-01,
          -2.8300410908145623e-01, 4.5247930134939957e-01,
          4.3467176849449485e-01, 1.9201480426211745e-01,
          4.6192705285785840e-01, 3.8525272561834190e-01,
          1.2456569204687662e-02, 2.4718078438506830e-01,
          -1.5232833699703765e+01, 3.3004669945965695e-02,
          -3.0108624360198594e-01, 1.1039795858415966e+00,
          7.2955403342648731e-02, 5.9015561324023669e-01,
          -2.3863695185060496e-01, -8.6552597814106058e-01,
          -6.7370594066431577e-01, -1.0627756140671190e+00,
          -3.8314655402315978e-01, 4.4685822874728831e-01,
          -1.4016322555137975e-01, 2.0823890951175672e-01,
          -7.8461308765762938e-01, -7.7162482712333691e-01,
          -1.4051367032624885e+01, 6.5662258623194703e-01,
          -9.1357501450944220e-02, -4.5666253648082794e-01,
          -9.2183907047033298e-01, -1.1592138365616911e+00,
          -7.2990235921857527e-01, -1.6978340393897078e+00,
          1.6798196063710141e-01, -1.0010503358676583e+00,
          -7.4401794191246939e-01, 2.0814205203040705e-02,
          4.5924400104490899e-02, 1.6166368812904422e-01,
          2.2856809492367389e-01, -4.5684541718664884e-01,
          -1.2840101995127812e+01, 3.3551909549443276e-01,
          1.1510909786331987e-01, -4.7445996664631623e-01,
          -6.2245365752411774e-01, -9.5080465790226221e-01,
          -5.9142523010819370e-01, -5.5159431503411527e-01,
          -4.8243639034819691e-01, 2.7695159879143175e-02,
          -7.7084113351708639e-01, -2.0331759496525292e-01,
          -5.2272919835837073e-01, -7.8365199923916062e-01,
          6.2932960888086820e-01, -2.2150993625684451e-01,
          -3.4324439127110868e+00, -2.3668066633144619e-01,
          -2.7069479612516151e-01, 1.0047233327659779e+00,
          1.4404087861807277e-03, -1.5108972999882808e+00,
          -6.6648914884327648e-01, -4.7708512552499895e-02,
          -2.0092754970622936e-01, -1.3888776611280154e+00,
          5.8535236667301052e-02, 3.0816917463617866e-01,
          1.2730032658363505e-01, 3.5132315557180338e-01,
          7.8269162114255930e-01, 8.6420749366224281e-01,
          9.5054641141079776e-01, 3.5323717355317169e-02,
          6.6239352047458788e-02, 1.1327583527213405e+00,
          -1.2274709286376722e+00, 4.8337426356606553e-02,
          -1.7862454071151287e-01, -1.4886330771013421e+00,
          -2.3059196066851453e-01, -4.9927891777753997e-01,
          -5.2788306670463403e-01, -3.2872895365234905e-01,
          -1.3971064110050910e-01, 1.2648962053049662e-01,
          3.4692512262294328e-01, -9.0902477632010065e-02,
          -3.5384820330970674e+00, -8.8074463707001716e-01,
          -5.6834118232171404e-01, -2.9152936824149339e-01,
          8.2612991143382511e-02, -6.0281672502647599e-01,
          -3.4557612791996017e-01, -9.3409816631974585e-01,
          -2.3252482721664202e-02, -1.2099877393028382e+00,
          2.7304970112505544e-02, 2.6245586597172232e-01,
          -1.3418265067233945e-01, -6.5655074098270760e-01,
          -1.1226458026234419e-01, 8.3821307812918544e-01,
          1.1353662620393330e+01, -5.8155499755861073e-01,
          -9.9543281319964627e-01, -4.8884023964607271e-01,
          3.6298426431454534e-01, -5.5799045906945462e-02,
          -7.8130097974410603e-02, 2.6851631063741593e-01,
          2.2931599337689776e-01, -9.3835183362931951e-01,
          -1.9624229016892783e-01, -5.9672187376778185e-01,
          -1.5722236488424196e-01, -2.6438917127710215e-01,
          -2.1029779168981702e-01, 1.9925441942044625e-01,
          6.7062202072835913e+00, 2.2692481786993982e-01,
          -1.0127871221647951e+00, -4.2318224928110260e-01,
          6.9152772166710474e-01, 4.4229458532594196e-01,
          -1.1875567313561335e+00, 1.3425423148420843e+00,
          -4.4978780844231368e-02, -5.4860905541403715e-01,
          2.9545701105412930e-01, -6.9561251410729152e-01,
          -3.5440926804979861e-01, -5.4919994126808280e-01,
          -5.0967068453648223e-01, -4.5218604528485984e-01,
          -8.0251453478460757e+00, 9.6024273917314790e-03,
          -1.0351717955710327e+00, -1.5833626422268560e-01,
          8.0001107934878535e-01, 1.9370670458941110e-02,
          -4.3164447964987329e-01, 1.5478448053149962e+00,
          -9.1840253699587415e-01, -1.1324684799765294e+00,
          -2.1834849633766459e-02, -5.4521425036196991e-01,
          -2.0547009907416153e-01, -1.1887031914225603e+00,
          -2.4374337589625325e-01, -5.3670613906483011e-01,
          2.1209376174786794e+00, 1.2846193541337687e-02,
          -2.8559498925120880e-01, -5.2770676936085881e-01,
          7.4101081399476454e-01, -1.0110226969650982e-01,
          2.4624012245677843e-01, 2.4710108465230213e-01,
          -2.1250311085181528e-01, -3.8462026384364795e-01,
          2.3030102482230605e-01, -7.1035038196678923e-01,
          -9.4020533394444272e-02, -6.8588195642748540e-01,
          1.2305422658835288e-01, -9.2168438320792512e-01,
          9.3663750274841551e+00, -2.5406158863123024e-01,
          -2.3444209095574808e-01, 7.3216881159246461e-01,
          2.2191112748411554e-01, 2.0224560850465670e-01,
          7.2642723532203454e-02, 3.3426712102912642e-01,
          9.0127274269329150e-01, -5.4296202379589498e-01,
          5.9955219970329210e-01, 2.3045511354553472e-01,
          2.8621315072886477e-01, 1.2136461894775491e-01,
          -9.8836087663709016e-01, -6.6221784236951153e-01,
          -1.3553300936462245e+00, 2.0634175439856648e-03,
          4.9089389449496347e-02, 5.2341438222439363e-01,
          -5.7707580547231863e-01, 1.2570636934304307e+00,
          -7.4846894591881541e-01, 3.5497745541367193e-01,
          8.7248334177820097e-01, -2.1132627340398301e-02,
          1.3725223710032550e+00, -3.9685326353117961e-01,
          8.0713476024937325e-01, -1.2166215654149390e+00,
          -8.1523840669289127e-01, -9.9705536579974319e-01,
          1.7306975793012394e+00, 3.3202939782781049e-02,
          5.1759397608272910e-02, -3.0667980473318524e-01,
          2.4461509239479529e-01, 4.8011229485525569e-01,
          -8.2745623895264997e-01, 1.0811434816249854e+00,
          -4.7031461530123153e-01, 5.1327091127946112e-01,
          1.0468501685353935e+00, -7.5107726836006494e-01,
          1.7157197736789886e-01, -1.4692208000788125e+00,
          9.7186959860202635e-02, -3.8646294743056120e-01,
          7.2729139492407304e+00, -8.9619351479786213e-01,
          -1.3305847082140113e-01, -1.5126862459681922e+00,
          1.7303310344996850e-01, 5.1866752643141967e-01,
          1.8540393412433209e-01, -1.1630532471939103e-01,
          -3.9294335513673700e-02, -4.7635444302400076e-01,
          4.2419180271217341e-02, 2.8935917365029710e-02,
          1.8589731721256939e-01, -9.4400866591512611e-01,
          -4.3976006408210894e-01, 5.9764602663790367e-01,
          1.1298416590184270e+00, -4.6547103752271779e-01,
          5.5639674587602739e-01, 9.1611911737321317e-01,
          -1.1057102518741662e+00, 1.2226799111290940e-02,
          -1.0002875737970862e+00, -3.2221433203887945e-01,
          -4.7130311345023984e-01, 3.3037428441465772e-01,
          7.8934982473141713e-01, -9.9087319584221345e-01,
          1.2523892186197325e-01, -3.8599229020734088e-01,
          9.4870370243813185e-01, 3.0999500244602268e-01,
          -4.6256707467116973e+00, 3.0726358038527324e-01,
          2.6249849016997606e-01, -3.7992982148235060e-01,
          -4.2195400576101583e-01, -4.9750206564736660e-01,
          -3.2782930847016702e-02, -2.8826538031901711e-01,
          4.5654957405134644e-01, 2.8560357074092119e-01,
          1.0115892473957158e+00, 6.6632506569314492e-02,
          -3.2159129785672441e-01, -6.9980499547974251e-01,
          1.1040617183643933e+00, 1.8876998363648068e-01,
          5.1598270711796435e-01, 6.4194416917885078e-01,
          6.3916124729328649e-01, 4.9548380939867659e-01,
          -4.2980054768403858e-01, 4.4959482452108412e-01,
          -1.8823952221429610e-01, -1.1005545083095309e+00,
          -4.0417572689087233e-01, -7.5917374732417622e-02,
          4.8113627358811029e-02, 5.6889578467815061e-01,
          -6.4574687711885148e-01, -3.3718148776052470e-01,
          3.8113459908166569e-01, -7.0153202585973484e-01,
          -2.2220128070443166e+00, 1.5951123645585327e-01,
          -1.5564281000708574e-01, 9.4297960974886330e-01,
          -4.7661333159737966e-02, -3.3273146868773368e-01,
          -9.1499742892087854e-01, -1.5079650744125983e+00,
          3.1052835863247824e-01, -1.1248420416018090e+00,
          1.3160908928058207e-01, 3.4915082864540460e-02,
          -3.1282090125404471e-01, 2.1655095395330048e-01,
          4.6964976381061047e-01, 1.8417295992411445e-01,
          3.5926621214576397e+00, 1.4489289682537984e-01,
          4.3194372084881055e-01, 6.5779132513388450e-01,
          -3.7601938751395725e-01, -4.2319989844246592e-01,
          -1.5299689149148774e-01, -8.7289728281933399e-01,
          1.7682033065289046e-01, 2.8978339861483660e-01,
          -4.9152058264313259e-01, 2.0493463968730410e-01,
          3.4173853909090351e-01, -3.7498675286839084e-01,
          9.8063662799882559e-02, -3.9234615667598177e-01,
          -3.4625221676106634e+00, 2.6885484943813276e-01,
          -3.7402832103628014e-01, 5.0681528745346394e-01,
          -5.2817833482935395e-01, -6.3112116334555479e-01,
          -2.7519979609119161e-01, -2.6468402987352735e-01,
          5.3399855414290875e-01, -9.9778471568379634e-01,
          -4.3224659175646390e-01, -2.2759350397609908e-02,
          1.4028962632290640e-01, -7.4870537877990995e-01,
          1.2334227029043776e+00, -9.3252092276858004e-02,
          9.1738098833019386e+00, -8.4640870649493133e-02,
          -4.2154789746331001e-01, 1.9481422520842542e-01,
          -1.0059723724833242e-01, -1.1506484526309728e+00,
          -8.4643835705755366e-01, 4.7452196955128684e-01,
          4.6591084305218733e-01, -9.9595239703581126e-02,
          -3.9705215077114148e-01, -1.1144955985565992e+00,
          -5.4859408891832870e-02, 5.3062125597187447e-02,
          -7.3608048653452973e-01, -1.5809141818669903e-01,
          1.5721765582024675e+01, -1.3956486238299648e-01,
          -8.1884873557958937e-01, -8.2243761850179975e-01,
          -1.0183732913956041e+00, -2.7560673086489202e-02,
          4.9918671052747277e-01, 1.0859749327979372e-01,
          5.4106269116726524e-01, -1.0800400769975407e+00,
          2.7953048151130054e-02, -3.2777981940408912e-01,
          3.5940052582319602e-02, 9.1491025799084344e-02,
          -1.9043051290997526e-01, -2.9609612295276283e-01,
          -6.6971739213039139e-01, 3.9437973696713265e-02,
          -1.3630923062011260e+00, -4.5612713571563640e-01,
          -5.4877692731321448e-01, 2.2166325929620964e-01,
          2.5398279897405538e-02, 5.6096382104291895e-02,
          3.2933358840732185e-01, -8.8073157149053549e-01,
          -6.7943905804112670e-01, -1.6771302267356984e+00,
          -5.0706784475737532e-01, 2.7512135747053268e-01,
          -2.2752007710293112e-01, -5.6436326870251496e-01,
          3.1463098251994399e+00, 2.2748334925019878e-01,
          -2.1543999421980489e-01, -5.1990997461631705e-01,
          -2.9161635310897793e-01, 4.2711544871553941e-01,
          -3.6728362386128449e-01, -1.1812504071350322e-01,
          6.0046176764363343e-02, 2.2340968972835015e-01,
          -3.4876546172663066e-02, -1.4185062443066749e+00,
          2.0285566859149384e-01, 4.6920806344576765e-01,
          -5.1077191045583448e-01, -2.6513061700734597e-01,
          1.1095178031783313e+01, -6.0158948183535299e-01,
          -3.9437636065779830e-01, -2.9095158907024327e-01,
          2.3749462399963009e-01, -3.6767378854392890e-01,
          1.9088935585626923e-01, -5.4064011001757328e-01,
          -7.8912394344000525e-01, -9.2258663887046755e-01,
          -3.2111982841475312e-01, -8.5412912811912778e-01,
          1.6258412866682692e-01, -6.7385224152437395e-01,
          -9.9453917122699975e-01, -6.7904704012641626e-01,
          1.0805131140416323e+01, -8.2814041705643759e-01,
          -1.7280736737995089e-01, -7.2367629594697402e-01,
          9.7825920962228741e-01, -1.2240885915639934e+00,
          7.3961238436995447e-01, 9.8839351744700699e-01,
          -1.3003955072509762e-01, -7.5164746758592837e-01,
          6.3478142474176588e-02, -6.2856122340022136e-01,
          4.3464235002905938e-01, -9.4413386992044290e-01,
          -5.5320383537828877e-01, -9.5957052012672883e-01,
          2.5574622241832068e+00, -3.2463390513474205e-01,
          -1.4863985023129914e-01, 8.0410034055961865e-01,
          -8.8542400170461100e-01, 8.6141844772742182e-01,
          6.2135661452170816e-02, -4.3582251967544318e-02,
          6.9150511517731383e-01, -1.9369007049402975e-01,
          4.7032291837599727e-01, 3.2141554123151805e-01,
          -7.0012371607999418e-02, -8.3684647049454886e-01,
          -4.7538434404129570e-01, -7.9893704791706088e-01,
          3.1288953591977027e+00, -5.6581201044538687e-01,
          3.1371896593937088e-01, 7.3518907190865468e-01,
          -5.3834728755086214e-02, 1.2124542641907654e+00,
          8.4882427808157662e-02, 3.6231703496221251e-01,
          2.1483297604694873e-01, 5.0336993950136077e-01,
          5.9995305470346938e-01, 2.6414458018804865e-01,
          1.1751104956371627e+00, -4.7489315924335646e-01,
          -9.8466461180896681e-01, -6.8800014806924081e-01,
          -9.7966485263633329e-01, -5.2024692285272500e-01,
          3.7347699943145507e-01, -2.0103451189417067e-02,
          -4.5291224063936752e-01, 1.3548222997421810e+00,
          -1.1389963046027147e+00, 6.3014225048539929e-01,
          -5.6436392704392768e-01, 3.8854084513413306e-01,
          8.4318493091206093e-01, -8.5272190182509838e-02,
          6.7856099320513197e-01, -1.0785219120628384e+00,
          -1.7814099196386460e-01, -2.1642388286776684e-02,
          1.0816146058778442e-01, 3.1110461738049711e-01,
          2.9349741447819572e-01, 3.3718572794718932e-01,
          -6.4046180231225824e-01, -6.2248704818907430e-02,
          -7.3709743153648410e-01, -9.7203619290961285e-01,
          -5.4346131457889868e-01, -3.9759322491311894e-01,
          4.2126296931562091e-01, -5.3806001362091890e-02,
          2.5940365232808194e-01, -4.9872702627445342e-01,
          -1.8326758665909548e-01, 2.3633992611945088e-02,
          1.9881549457911052e+00, -1.6319247913513710e-01,
          -8.2798169099862085e-01, 1.2551499123140850e+00,
          -9.4700027087334793e-01, 8.9726202823951440e-01,
          4.5109127922230202e-01, -3.3136352924408974e-01,
          1.1810476266835890e-01, -3.8438437268031211e-01,
          7.3621147187149216e-01, -2.2811906367819890e-01,
          5.3960893465374593e-01, -6.1965421504453588e-01,
          3.8565237433033323e-01, -1.1886112093315585e-02,
          7.8961216881834473e-01, 3.5366662086958343e-02,
          -4.2960861829664021e-01, 1.7655794656781163e+00,
          -6.6197932377839042e-01, 7.7729580424353240e-01,
          3.3710086862254733e-02, 3.6903767041537999e-02,
          -9.8283383745907130e-02, 2.1743668494706125e-01,
          4.9395775995815155e-01, -2.4576767518758372e-01,
          -1.1177708558637965e-01, -3.3777963859334370e-01,
          9.0252479431000776e-01, 3.1034169122754574e-01,
          -2.6126654244844167e+00, 5.5047055646164766e-01,
          -9.3382598858167340e-02, 1.5754698484238818e+00,
          -6.6877498625233689e-01, 9.1453858436540592e-01,
          -1.1462926654145540e+00, -8.3970254099384889e-01,
          7.0591542723001985e-02, -2.9716305062426152e-01,
          6.5093692336359876e-01, 1.5175785007284692e-01,
          8.7959128638952569e-02, -4.3319263149277626e-01,
          3.7087253918686264e-01, -1.0158358805650894e-01,
          -2.6077700257147542e+00, 4.6103588613063223e-01,
          4.3108101915968804e-02, 3.2274920626001413e-01,
          -1.3591746175287731e-01, 7.8111398698123369e-01,
          -1.2453603895281662e+00, -6.4785093916305503e-01,
          5.5399858787166678e-01, 2.5413067053140431e-01,
          3.7944810595408357e-02, 6.0316902723020815e-01,
          5.9838924199178058e-02, -5.4226229355188349e-01,
          -5.1156971381235310e-02, -4.7571388290315048e-01,
          -4.0818858667902607e+00, -3.2822512954550670e-01,
          4.5269878948266679e-01, -3.6987917806742188e-01,
          -1.3453367767785394e+00, -5.1440949143242276e-01,
          -1.0793578712375050e-01, -1.3914764014606953e+00,
          -3.4925201650764842e-01, 4.8791250747945747e-01,
          -5.1693794872132637e-01, 1.0920441070847919e-01,
          -1.3020461248889229e-01, 6.2064276493237513e-01,
          1.1402611442405854e-01, -8.9529216745553797e-01,
          9.6159448149566042e+00, -1.0786509961152118e+00,
          2.2042321250185531e-01, -3.4371725532912811e-01,
          -1.5843583545128995e-01, 2.0418472158017120e-01,
          -7.7680649578756611e-01, -4.5652177225538654e-01,
          4.1250680795978673e-01, -1.3086307743076673e+00,
          -8.6138325608016997e-01, 1.3203426517431052e-01,
          -1.8473801777354421e-01, 9.7400921888122682e-01,
          1.9982471027443197e-01, 3.3606961378185952e-02,
          4.2204342985528926e+00, -9.0814308271852176e-03,
          6.9166709072471730e-02, -1.7677380422826214e-01,
          -2.1774981793301856e-01, -4.7455060169623225e-02,
          -4.9502731042290887e-01, 4.4468642603059377e-01,
          -9.3347091457414533e-01, -7.5596244230852683e-01,
          -1.2907644039927231e+00, 4.8852742687449546e-02,
          1.1761381327689170e-01, -2.1228164320483139e-01,
          -5.1010194241246268e-02, -2.0003900027511665e-01,
          9.4092073959812819e+00, -1.6423669762389798e-01,
          2.4574887668754461e-01, 3.4485237946760416e-01,
          -1.4394292271191735e+00, 1.3464717738934542e-01,
          -6.9432440631348147e-01, -6.7708615314768505e-01,
          -1.2620033560833996e-01, -1.8659952051565294e+00,
          -3.9058724033894832e-01, -1.0043243488986153e+00,
          -5.6049231298728730e-01, -1.1602558405271057e+00,
          3.7787300024727999e-01, 2.9014396597975983e-01,
          -1.1581476854676586e+01, -9.4466378034727141e-02,
          -1.2069797624279539e+00, -6.2167194061187550e-02,
          -4.7422458485535079e-01, -3.6057384847546670e-02,
          5.5290642476233463e-02, -9.2811896595947008e-01,
          -2.5375564082639640e-01, -1.4532877382314164e+00,
          -6.1116276712992390e-01, 1.8508293154686120e-01,
          5.7526523889263069e-02, -3.5269502151459842e-01,
          1.7750503396564585e-01, -2.3959891054728372e-01,
          -1.3441882557233438e+01, -5.5839688218119587e-01,
          -8.1002295352127784e-01, 1.1065899676030033e-01,
          3.0725191074290076e-01, 2.2374203936962403e-01,
          -1.1818295651959299e-01, -1.9272838658818411e-01,
          1.0671558453764400e+00, -1.0649087142383753e+00,
          -9.0677566297139411e-01, -4.8288956548318746e-01,
          1.1423689436137295e-01, -2.1131961695255861e-02,
          -7.3759187888188127e-01, 6.6124483878204121e-01,
          2.1795638492695923e+00, -7.1527935609871496e-01,
          -2.3081791481929856e-01, 2.1268341021249509e-01,
          3.0221727774533691e-01, 1.6309687812439794e-01,
          6.5981965096369666e-02, 2.8633276987361533e-01,
          7.6538197633885174e-01, -4.3783960577822290e-01,
          -6.6532455863176110e-01, -6.7916009560703949e-01,
          -1.2712169285608067e-02, -5.0313198440873730e-01,
          -7.5459840627915820e-01, -1.4060941205412766e-01,
          7.5139196634211416e+00, 1.2278580757467614e-01,
          1.2560199556559290e-01, 2.1291071853394816e-01,
          6.4969434541364934e-01, -5.0910795043452084e-01,
          5.4557723007065884e-01, 3.5898786842318048e-01,
          -2.3072849365349868e-01, 4.9111522251862150e-01,
          -3.1138518551826222e-01, 2.2109264764176806e-01,
          -1.0629402290205169e-01, -9.4970285060904969e-01,
          -5.6783057270053749e-01, -5.4997624623956398e-01,
          -9.1858499808177854e+00, -1.6058900709791032e-01,
          2.6124039258820153e-01, 7.8312425608180647e-01,
          5.6625029989330489e-01, 1.1387425140172708e-01,
          -3.1013625751551305e-01, 2.4233753002760078e-01,
          1.3185384151219597e-02, 1.0311356080478282e+00,
          3.8378831781925427e-01, 2.0091258708048684e-01,
          -8.6271904420362214e-02, -5.1220655024281070e-01,
          -1.6036531802518356e-01, -6.9833865575139020e-01,
          6.6915747518121158e+00, -6.0946258117074903e-01,
          1.0643729020239516e-01, 4.4256314752934428e-03,
          -1.1006945896845612e-01, 1.0624441943881680e+00,
          -1.2441166033278860e-01, 2.8826673686658788e-01,
          -1.7276840419049203e-01, 1.2959496662878565e+00,
