%YAML:1.0
my_nn: !!opencv-ml-ann-mlp
   layer_sizes: !!opencv-matrix
      rows: 1
      cols: 3
      dt: i
      data: [ 256, 16, 10 ]
   activation_function: SIGMOID_SYM
   f_param1: 1.
   f_param2: 1.
   min_val: -9.4999999999999996e-01
   max_val: 9.4999999999999996e-01
   min_val1: -9.7999999999999998e-01
   max_val1: 9.7999999999999998e-01
   training_params:
      train_method: BACKPROP
      dw_scale: 1.0000000000000001e-01
      moment_scale: 1.0000000000000001e-01
      term_criteria: { epsilon:1.0000000000000000e-04, iterations:10000 }
   input_scale: [ 4.3844992884976446e-02, -1.1408467148670870e-01,
       2.0584470820893239e-02, -2.3536283936609328e-01,
       1.4397055065003422e-02, -3.5697498033675984e-01,
       1.0857365009899934e-02, -5.0542662725835674e-01,
       9.4234096200959717e-03, -6.7052271151792886e-01,
       8.8301063051244768e-03, -8.0859049457285859e-01,
       8.6619532215916808e-03, -9.1597989830026627e-01,
       8.5532588367188463e-03, -9.5925225516743695e-01,
       8.5300895324171375e-03, -9.4799150018517864e-01,
       8.6089573280829761e-03, -8.6424892168758594e-01,
       8.9931726407210862e-03, -7.5299834520757658e-01,
       1.0042418302940885e-02, -5.8453904215928010e-01,
       1.2285461945531699e-02, -4.2882404920878398e-01,
       1.5760584261819047e-02, -3.1230385744007533e-01,
       2.1109157269609134e-02, -2.2285992787389841e-01,
       4.4348384929237837e-02, -1.1189097517646707e-01,
       2.1548664549315474e-02, -2.1668259637564175e-01,
       1.3016047347511786e-02, -3.7291626452988647e-01,
       1.0238410270339235e-02, -5.5146125398101187e-01,
       8.7354699237001884e-03, -7.4862540472614425e-01,
       8.4114031264727780e-03, -9.2590622765430719e-01,
       8.3686909795499601e-03, -1.0561329859646948e+00,
       8.3857629130453318e-03, -1.1408243439794261e+00,
       8.4674456787245007e-03, -1.1677835370584502e+00,
       8.3800946902031458e-03, -1.1147579061169284e+00,
       8.3736760887866031e-03, -1.0713281187993580e+00,
       8.2816205596649827e-03, -9.9004289304626969e-01,
       8.4738241797131554e-03, -8.2302441036673013e-01,
       9.5120848178986746e-03, -6.1012414438965679e-01,
       1.1867795588495314e-02, -4.2891400036380911e-01,
       1.6019059956435419e-02, -3.0442621541209874e-01,
       2.5725540402222628e-02, -1.8310153381281954e-01,
       1.9536732269015117e-02, -2.4428730029176501e-01,
       1.2119269455411238e-02, -4.1628478652392059e-01,
       9.6834129502730692e-03, -5.9289116641284434e-01,
       8.9069601669121423e-03, -7.2733346026987866e-01,
       8.6456782745032001e-03, -8.2096334907286317e-01,
       8.6725531805377353e-03, -8.3066147990849459e-01,
       8.6597615052647278e-03, -8.1861158497342734e-01,
       8.8283037798118323e-03, -7.7096252663529763e-01,
       8.7058310781402328e-03, -8.0464949614372827e-01,
       8.7115591508945996e-03, -8.0496548866096285e-01,
       8.4960527950176754e-03, -8.6189481986976058e-01,
       8.6012162529632563e-03, -7.9827027922126681e-01,
       9.3570625284106462e-03, -6.3021219688224961e-01,
       1.1185330536325547e-02, -4.6960491723709180e-01,
       1.5300983685346227e-02, -3.1520026391813227e-01,
       2.3373641810817546e-02, -1.9799811977943543e-01,
       1.7407041504737063e-02, -2.8417865608558496e-01,
       1.1900940026446228e-02, -4.2291775524980635e-01,
       1.0036927811475490e-02, -5.5430941224435681e-01,
       9.2403317072714385e-03, -6.5215027073824261e-01,
       8.9805591913128240e-03, -7.0467304778514772e-01,
       9.1269936177574180e-03, -6.8770071511078590e-01,
       9.4078247754144292e-03, -6.2826394632695104e-01,
       9.6746200361432499e-03, -6.0607140947421190e-01,
       9.2810184719901625e-03, -6.5559258282444111e-01,
       9.2269377177993522e-03, -6.7233004374516758e-01,
       8.8312442683760733e-03, -7.4918536064128161e-01,
       8.8253834276251948e-03, -7.4551985235692453e-01,
       9.3887897147528123e-03, -6.2276311617441138e-01,
       1.0879464600025160e-02, -4.7864204507810687e-01,
       1.4894965029949296e-02, -3.2503792688355354e-01,
       2.5637138091594520e-02, -1.8402337722146547e-01,
       1.7225367835726819e-02, -2.7849974716803122e-01,
       1.1766778947163666e-02, -4.2756944660308616e-01,
       1.0109047103378741e-02, -5.3968158866097748e-01,
       9.3745169484505120e-03, -6.3667500581249070e-01,
       8.9940956709699781e-03, -6.8391103482055715e-01,
       9.3102557275506256e-03, -6.4236109392235541e-01,
       1.0010232749472390e-02, -5.6935200809174114e-01,
       1.0236551647126788e-02, -5.4958510310676656e-01,
       9.6098415398247275e-03, -6.0816843168934775e-01,
       9.1422304867131016e-03, -6.7093915318938779e-01,
       9.0010761172744664e-03, -7.1456842972206802e-01,
       9.0394666785789963e-03, -6.9295195637984797e-01,
       9.7722200790149212e-03, -5.7885257027040937e-01,
       1.1315083337979018e-02, -4.4943511018452659e-01,
       1.4830011250517392e-02, -3.1840775655423370e-01,
       2.4320431327477902e-02, -1.9202196554610179e-01,
       1.8149732174090445e-02, -2.6586635175216389e-01,
       1.1641800687484188e-02, -4.2524005371173496e-01,
       1.0061276367494064e-02, -5.4425971446140764e-01,
       9.2873605138232753e-03, -6.4373481929463272e-01,
       8.9829441745890859e-03, -6.9566614571270258e-01,
       9.2819840115029636e-03, -6.5576288842867292e-01,
       9.8655607151492825e-03, -5.9015784198023002e-01,
       9.7572643924628243e-03, -5.9916433454796458e-01,
       9.1819980809975197e-03, -6.6398700922925458e-01,
       8.9744520818321235e-03, -7.1158430556846908e-01,
       8.8808143950318309e-03, -7.3438118476836722e-01,
       9.2956976965247410e-03, -6.4662267531680573e-01,
       1.0418311619692987e-02, -5.1827974814486699e-01,
       1.1969700421880112e-02, -4.1682087779113114e-01,
       1.4624139313505619e-02, -3.2488256691918405e-01,
       2.5468393821593455e-02, -1.9203168941481466e-01,
       1.7738350487178273e-02, -2.7275374626609672e-01,
       1.1992490129033386e-02, -4.1257763790913554e-01,
       1.0073336361076178e-02, -5.4060574248987525e-01,
       9.1149063911514644e-03, -6.5462346210610700e-01,
       8.9616866996894261e-03, -7.1070656371886998e-01,
       8.9919615773170411e-03, -7.2170382815704304e-01,
       8.9962798957815785e-03, -6.9813830875233773e-01,
       8.9213286879574385e-03, -7.1659234486714929e-01,
       8.6642805607458368e-03, -7.8844519888759079e-01,
       8.5204755115170297e-03, -8.0736191733155194e-01,
       8.7689511622975509e-03, -7.6647648319410433e-01,
       9.3236571775752383e-03, -6.4836712012858211e-01,
       1.0553716434364861e-02, -5.1463615134715091e-01,
       1.2259908059720903e-02, -4.0814459921616858e-01,
       1.3986303446464891e-02, -3.3430062497740387e-01,
       2.2399826612135944e-02, -2.1899190487354706e-01,
       1.9086607953133862e-02, -2.5458672018287604e-01,
       1.2385908902131135e-02, -3.9285625855779532e-01,
       1.0433135958638960e-02, -5.1406147495405885e-01,
       9.3200021505424665e-03, -6.4107634792506352e-01,
       8.8193948586677839e-03, -7.4798169735847353e-01,
       8.7329329373524514e-03, -7.6931026125018953e-01,
       8.6396140251048820e-03, -8.2006784345594286e-01,
       8.4729592386175515e-03, -8.7595570848637894e-01,
       8.4689243279345329e-03, -8.9391613512430979e-01,
       8.4891818795896894e-03, -8.7282796872283330e-01,
       8.5330460263690535e-03, -8.1667650256871616e-01,
       8.9073358035003745e-03, -7.0831134309434973e-01,
       9.9569301494777732e-03, -5.6469235803240769e-01,
       1.1547175051531107e-02, -4.4710661799528445e-01,
       1.4160204953910835e-02, -3.3488884715999123e-01,
       2.0165237429558343e-02, -2.3189014782120615e-01,
       2.0188238801329028e-02, -2.3806980606467257e-01,
       1.2947963362103720e-02, -3.7047360169819271e-01,
       1.0856456880507537e-02, -4.8526733787336618e-01,
       9.4690558408542409e-03, -6.2155829444951327e-01,
       8.8642339155222214e-03, -7.3652033180682586e-01,
       8.7630865428820030e-03, -7.8718806414709031e-01,
       8.5415337367755733e-03, -8.5423024748118837e-01,
       8.3381363587314988e-03, -9.1347619064447061e-01,
       8.4400990226523413e-03, -9.3133960685261785e-01,
       8.4380205748107520e-03, -8.8793290508733547e-01,
       8.4186796103784076e-03, -8.8057704988636065e-01,
       8.5918402888060588e-03, -7.9407076725188908e-01,
       9.4033387035752126e-03, -6.3178211747710777e-01,
       1.1033439085052598e-02, -4.7849266952101854e-01,
       1.3690863340291379e-02, -3.5123909899517536e-01,
       1.9709312740130366e-02, -2.3324000696670275e-01,
       2.0289249994791599e-02, -2.3157135481555394e-01,
       1.3541496792477898e-02, -3.5589084795150788e-01,
       1.0956402160903983e-02, -4.7010086931682676e-01,
       9.6891162578673883e-03, -5.9405425144423640e-01,
       9.0514202575862415e-03, -6.8432357715455017e-01,
       8.8823666018796460e-03, -7.2731038327841002e-01,
       8.6374736737431582e-03, -7.7429337127219477e-01,
       8.6117995787140991e-03, -8.2612132178646480e-01,
       8.6173534205183609e-03, -8.1882523069436486e-01,
       8.4795023344924076e-03, -8.3414984339985443e-01,
       8.4263166661610288e-03, -8.9241855863811537e-01,
       8.5306501492225795e-03, -8.4245288613662506e-01,
       9.0293856816819167e-03, -6.8739358786792182e-01,
       1.0753012016918331e-02, -4.9517082687308067e-01,
       1.3795971117029770e-02, -3.5221804060332856e-01,
       1.9686879493948498e-02, -2.3781750428689785e-01,
       2.2088922427836406e-02, -2.2241335992588479e-01,
       1.3814627211427153e-02, -3.4465422698429032e-01,
       1.1103084529114167e-02, -4.7105391268993307e-01,
       9.8305801473121644e-03, -5.7908998473771767e-01,
       9.2221952855981726e-03, -6.5266398255706826e-01,
       9.2261934092609885e-03, -6.5082952237938396e-01,
       9.1699787404875988e-03, -6.7178805753875126e-01,
       9.2326240713758896e-03, -6.7168263381666737e-01,
       9.1768006269147637e-03, -6.6855286767230793e-01,
       8.8807434766310384e-03, -7.3344284224800416e-01,
       8.5371836208177065e-03, -8.1481868491351472e-01,
       8.6376037437782566e-03, -8.1099757190895616e-01,
       8.8526439216847427e-03, -7.2223410170672808e-01,
       1.0419810699439846e-02, -5.1745300923953252e-01,
       1.3790966005985363e-02, -3.5570349070937751e-01,
       2.0300927172914034e-02, -2.3023281506801804e-01,
       2.3051908856398948e-02, -2.0587659799649899e-01,
       1.4059979305581678e-02, -3.4790012793731306e-01,
       1.0901867741258448e-02, -4.8293093720226676e-01,
       9.5811055260110085e-03, -5.9166200954775783e-01,
       9.1923872943426421e-03, -6.4371990125457945e-01,
       9.6538394893326603e-03, -6.0231752649869863e-01,
       1.0053697072412847e-02, -5.8031950241381436e-01,
       1.0045040356000720e-02, -5.5320548500584965e-01,
       9.9723740148992303e-03, -5.7007076056171446e-01,
       9.1904167009669042e-03, -6.7511422522797737e-01,
       8.6591549327372456e-03, -7.9480218338861985e-01,
       8.5335458118161248e-03, -8.3113749466054920e-01,
       8.8472567558301029e-03, -7.1581827322907987e-01,
       1.0384888613845900e-02, -5.2050619465887726e-01,
       1.3962046155897334e-02, -3.4714533459715335e-01,
       2.2708894498741673e-02, -2.1446279964611639e-01,
       2.2258388191929022e-02, -2.1019708889048172e-01,
       1.3717647273597365e-02, -3.6194012331386649e-01,
       1.0558458853280417e-02, -5.0551789297735983e-01,
       9.3175471283958276e-03, -6.3027615795320746e-01,
       9.1308721934817809e-03, -6.7946472340575326e-01,
       9.6284967386417678e-03, -6.0843433741151198e-01,
       1.0113096333315232e-02, -5.5807099496133439e-01,
       1.0216488424745110e-02, -5.3772954350382174e-01,
       1.0051711475664702e-02, -5.6961038590296731e-01,
       9.0081146889394326e-03, -7.0448861736319734e-01,
       8.5337591891270961e-03, -8.4007605521645512e-01,
       8.4862097614547653e-03, -8.3097390294653140e-01,
       8.9164214304720459e-03, -7.0277896251766092e-01,
       1.0400855660935500e-02, -5.2970517795578409e-01,
       1.3556852699505384e-02, -3.5840929324317355e-01,
       2.3160897820851099e-02, -2.0636359958378328e-01,
       2.1184589495220913e-02, -2.1672894283085753e-01,
       1.4236856875543779e-02, -3.4893824359114023e-01,
       1.0676152142473349e-02, -5.0447487911222189e-01,
       9.2900644015610264e-03, -6.4167868331242239e-01,
       8.7102995917095576e-03, -7.5362818612409854e-01,
       8.8763532577342766e-03, -7.2984927026394320e-01,
       9.1938896020792894e-03, -6.9038755799933804e-01,
       9.1524891667428207e-03, -6.7995214893107425e-01,
       8.9703430092247481e-03, -7.3180955303556416e-01,
       8.5042826204425690e-03, -8.5050480058784084e-01,
       8.4434187018909267e-03, -9.0528224466999041e-01,
       8.5519580604499351e-03, -8.5812912765972782e-01,
       8.9735420738576224e-03, -7.0526207898172910e-01,
       1.0502960526378112e-02, -5.1053840822671370e-01,
       1.3556977209414015e-02, -3.5306435746476916e-01,
       2.2861046140134615e-02, -2.0363476849324910e-01,
       2.6214567957387656e-02, -1.7873092433346904e-01,
       1.5634757822696264e-02, -3.0470579520652752e-01,
       1.1724421545607357e-02, -4.4242690923426642e-01,
       9.3959319215519456e-03, -6.2119324712956381e-01,
       8.5314940151827862e-03, -7.9869714096637456e-01,
       8.3082569258931954e-03, -9.1104606733728133e-01,
       8.2389108489762056e-03, -9.7185368483438428e-01,
       8.2698035396994007e-03, -1.0006007443841591e+00,
       8.3111686863098135e-03, -1.0227848852903150e+00,
       8.3028604547497348e-03, -1.0364377677059546e+00,
       8.3790661755510001e-03, -9.9994518879099303e-01,
       8.5055539924304372e-03, -8.5613504266207818e-01,
       9.1873024093509417e-03, -6.6078753849015714e-01,
       1.0945748857454661e-02, -4.8738683225031243e-01,
       1.5013980095234818e-02, -3.1629951866631190e-01,
       2.6980459212883924e-02, -1.8129519568097352e-01,
       4.8947976922193097e-02, -1.0171389604431724e-01,
       2.5105621005303939e-02, -1.9159354670197701e-01,
       1.7241335141011914e-02, -2.9237856132127998e-01,
       1.2866325967715978e-02, -4.2516130844019062e-01,
       1.0266700752887416e-02, -5.7497630896470686e-01,
       9.1852145014264270e-03, -7.0599395700863798e-01,
       8.6853537905491104e-03, -8.1392621709683355e-01,
       8.6407422307798552e-03, -8.5487183260220501e-01,
       8.6805738383773957e-03, -8.4897314225406695e-01,
       8.9309124863416502e-03, -7.9389560364836831e-01,
       9.2460501169993135e-03, -6.9626918103557489e-01,
       1.0043614321584847e-02, -5.9417017965063790e-01,
       1.1151671637986724e-02, -4.8787448249028120e-01,
       1.4353186791115888e-02, -3.5141624880028582e-01,
       2.0928186820690101e-02, -2.2994845269233249e-01,
       4.9904041014886429e-02, -1.1053745084797344e-01 ]
   output_scale: [ 5.2631578947368418e-01, 4.9999999999999994e-01,
       5.2631578947368418e-01, 4.9999999999999994e-01,
       5.2631578947368418e-01, 4.9999999999999994e-01,
       5.2631578947368418e-01, 4.9999999999999994e-01,
       5.2631578947368418e-01, 4.9999999999999994e-01,
       5.2631578947368418e-01, 4.9999999999999994e-01,
       5.2631578947368418e-01, 4.9999999999999994e-01,
       5.2631578947368418e-01, 4.9999999999999994e-01,
       5.2631578947368418e-01, 4.9999999999999994e-01,
       5.2631578947368418e-01, 4.9999999999999994e-01 ]
   inv_output_scale: [ 1.8999999999999999e+00, -9.4999999999999996e-01,
       1.8999999999999999e+00, -9.4999999999999996e-01,
       1.8999999999999999e+00, -9.4999999999999996e-01,
       1.8999999999999999e+00, -9.4999999999999996e-01,
       1.8999999999999999e+00, -9.4999999999999996e-01,
       1.8999999999999999e+00, -9.4999999999999996e-01,
       1.8999999999999999e+00, -9.4999999999999996e-01,
       1.8999999999999999e+00, -9.4999999999999996e-01,
       1.8999999999999999e+00, -9.4999999999999996e-01,
       1.8999999999999999e+00, -9.4999999999999996e-01 ]
   weights:
      - [ 1.4710880950830072e+00, -2.1557598110127943e-01,
          4.0740156660884444e-02, -3.4708082226260967e-01,
          -3.2363026868461109e-01, -2.4375492885901934e-01,
          2.1248982636694441e-01, 1.0804886330023958e-01,
          -1.4584319855602410e-01, -9.0333765309392799e-01,
          -6.6067915049668080e-01, -4.2611826358271515e-01,
          4.3325034043138139e-01, -4.4216246144752125e-01,
          -5.5950307358069462e-01, -5.6961999496745919e-01,
          2.3527757017390472e+00, 8.5397245334922697e-02,
          -4.5927430198904329e-01, 5.4241177582202560e-01,
          -3.2782205066778219e-01, -9.2000390848657398e-01,
          4.3844280755024850e-01, -2.4302285842357271e-01,
          -1.4591826644498085e-01, -5.4653638102640556e-01,
          1.3309763436104508e-01, -1.1545520643255789e+00,
          -3.9993071625631327e-01, 2.3281995967819480e-01,
          -1.5389044062758681e-01, -1.4141897625945926e-01,
          5.0784012961773852e+00, -4.3816466866269238e-01,
          -8.8037820289357971e-02, -1.3016970564019681e-01,
          9.1891440438959693e-02, -1.4159439386818544e+00,
          -8.0341398213087278e-02, 3.0907857924809057e-01,
          -9.2098234154543179e-01, -5.9113723931456585e-01,
          4.4633664485620900e-01, -6.5442717380687987e-01,
          -3.0964010312398479e-02, 2.7264138023459239e-01,
          -2.7125745369486881e-01, -3.2709214524176700e-01,
          2.3990321106011407e+00, -8.5078619195245375e-01,
          -3.7865734198856593e-01, 2.0831563394448710e-01,
          -4.6111823664311308e-01, -9.4828029574385253e-01,
          3.0322833268553462e-01, 6.2747668386665933e-01,
          -9.7821906000239611e-01, 6.5649610762482394e-02,
          -2.2178423838159247e-01, 2.2865741921874727e-01,
          2.2079050830686991e-01, 1.6262689743288450e-01,
          5.5251312706956462e-02, 5.3201679328717300e-01,
          -6.7117857851569198e+00, -9.8668478119728931e-01,
          -1.4010518364091776e-01, 4.9736121384994625e-01,
          -4.7176730891849254e-02, -1.1000244387024537e-01,
          7.2587381493251357e-01, -3.4237028733449310e-01,
          -1.7800201112222260e+00, -2.5062298005434092e-01,
          -6.9652414514154093e-01, -1.7854736813546543e-01,
          1.0340216310056636e+00, 1.8145786549894405e-01,
          -3.0381237800058636e-02, 2.9060737031354245e-01,
          -3.4562610859856813e+00, -5.6855999287871839e-01,
          5.0061144232790245e-01, 1.8890014061538951e-01,
          2.0693597802308353e-01, -5.8158456452108009e-01,
          2.5344343243165907e-01, 7.9690541137145521e-02,
          -7.8886722679442567e-01, -6.2453632968559569e-01,
          -3.6935565994829161e-01, 7.2385291050568967e-01,
          1.0111716313226082e+00, 1.9298494658616078e-01,
          8.1386709995423627e-03, -2.2445678810188407e-01,
          -5.0406375764293898e+00, -7.1839856583591899e-01,
          -7.5808115135182852e-01, 1.0933425116513667e-02,
          -5.9848966610988941e-01, 5.9797306470669893e-02,
          -2.8603463178689875e-01, 1.0843398404875640e-01,
          -6.1703765467650329e-01, 4.9334340942614746e-01,
          1.5668514043370219e-01, 6.0290395905127991e-01,
          7.5533427888632820e-01, 1.6139863901851481e-01,
          -2.0436693560131000e-01, -1.7773708533953525e-01,
          -8.6535738738876180e+00, -9.1260189115598984e-03,
          -6.1957809457612512e-01, -2.2675006239946199e-01,
          -5.6498086068736442e-01, -2.6195843315409273e-01,
          4.6247676247400665e-01, 5.2514061898357534e-01,
          -8.1006731027489298e-01, -5.6656292917781639e-02,
          7.9803249006487698e-01, 2.7974432929324444e-01,
          5.4159401320908707e-01, -2.5861018190718094e-01,
          -6.6144729772793065e-01, -5.6859612489085325e-02,
          -5.3072821263134129e+00, -7.1804510719669382e-02,
          -1.9155400293251479e-01, -5.3245909964751992e-01,
          -3.9811487632015130e-01, 6.1420800431269507e-01,
          6.8888895209708545e-01, 9.0677130242196646e-01,
          -8.2208072155162781e-01, 7.9246277464801385e-01,
          -2.9919199934215941e-02, 2.4149135881526976e-01,
          -3.5710173059670625e-01, -1.9466507868925026e-01,
          -5.3183125998878322e-01, 9.8160358833419697e-02,
          -7.2048766929298100e+00, -7.8159592465730221e-01,
          4.3077848109955885e-01, -7.6176187604303758e-01,
          -9.6253483859110134e-01, -1.9277429904969734e-01,
          1.1044216590487110e+00, 8.2513839043909382e-02,
          -5.4551968732446998e-01, 1.0963040632820027e+00,
          3.0867351696154766e-01, -1.5567051969524670e-01,
          -2.6028700378887604e-02, 1.6078063819004065e-01,
          -7.4490957002070501e-01, 2.0934401955164048e-01,
          -4.1368645104318036e+00, -4.1092261103080269e-01,
          3.9338562705243496e-01, -1.8620451300533244e-01,
          -5.0651505913371475e-01, -6.4546704929089438e-01,
          1.6746456452155960e+00, 7.8327957648161306e-02,
          -9.4229143853461672e-01, 2.8670220108731559e-01,
          2.2420065499740305e-01, -1.0893249292233624e-01,
          1.5032780863554093e-01, -6.2419657088040281e-01,
          3.1243593711191109e-01, 9.8125851995918917e-02,
          -2.4855850426651243e+00, 6.3959795985746171e-01,
          2.7035988703098490e-01, 6.9701646261931405e-01,
          3.5871895250377656e-01, -2.8972915542040473e-01,
          2.3612357721674335e-01, 2.9252580111352333e-01,
          -7.4104724023439913e-02, 1.2867558235883872e-01,
          -4.0010545460188968e-01, -7.7277337128499912e-01,
          -7.7907771709675541e-02, 2.5986308257162816e-01,
          7.9613843781050009e-01, -5.8238810784324635e-02,
          1.2074889621435030e+00, 3.4558816606733805e-01,
          1.5100842292696751e-01, -7.3336244940619744e-01,
          2.4338385384243896e-01, 7.5480135824012717e-01,
          8.4740679142476738e-01, 2.8724029984153876e-01,
          4.1503348108378418e-01, 3.5522394102779098e-01,
          1.9347375965185346e-01, -6.6243833601094826e-01,
          -6.7737718143388337e-01, 8.0921231579239161e-01,
          8.8835072936552462e-01, -2.4064064042542499e-01,
          1.6377954462930080e+00, -2.5544143063099950e-01,
          -8.6297093149722906e-02, -6.2541966501835178e-01,
          -2.9507130875280663e-01, 2.9312559269231131e-01,
          3.4382796796952314e-01, -3.2337316993537074e-01,
          -1.0988210388909816e-01, -4.4716535885098252e-01,
          -4.9742011380887230e-01, 3.9515245392504816e-01,
          -4.5110499207735771e-01, 1.1692041665820945e+00,
          -5.1981508155554433e-02, -5.3013772845166340e-01,
          9.2417026098853459e+00, 8.2161413426116703e-01,
          4.1249442497315097e-01, -6.0784618957713110e-01,
          -5.1199372159028678e-01, 4.6494697852451466e-01,
          1.5542211030384617e-01, 5.9541516573009608e-02,
          2.6454572534343268e-01, -1.1262401553058086e+00,
          -7.4696617509433216e-01, 3.4966814600277629e-01,
          2.8092095750397733e-01, -1.2308330509635063e-01,
          6.4108919185178370e-01, -1.2613008711821105e-01,
          3.3497790826714944e+00, 3.6778478302351775e-01,
          3.6919485652999884e-01, -4.4019998329231996e-01,
          1.3636741744626227e-01, -1.8250944272612660e-01,
          5.1708429788430821e-01, 4.3548734294636032e-01,
          6.2608600639634970e-01, -4.3358034524578454e-01,
          -9.9643138170844373e-02, 1.7286952131335459e-01,
          -1.6319564513460580e-01, 4.0855177769571878e-02,
          4.5938083021402232e-01, 3.9531750114589764e-01,
          -1.7255983356836369e+00, -7.7074847252218559e-01,
          -2.3054072607670512e-01, 8.8509284812423916e-01,
          2.7020919716509345e-01, -3.0175725633301492e-01,
          4.0558187567312814e-01, 1.1522097084185266e-01,
          -8.5490502792060719e-01, 6.0401638284607817e-01,
          -3.6152053274484131e-01, -8.1179356651048118e-01,
          8.8785160790515361e-01, 2.5144922175761009e-01,
          -4.8101801863993277e-01, -3.1396146080577758e-01,
          2.6724214862028033e+00, -5.4202691608002151e-01,
          4.2558219767993360e-01, -7.8500902806402734e-02,
          -1.8923431753172226e-01, -6.4829321672977569e-01,
          5.9105680813735628e-01, -3.5544579635918522e-01,
          -8.9158198249481027e-02, -4.0033639228157741e-01,
          -5.4330503820344900e-01, -1.2617455678354024e+00,
          5.4520046498647678e-01, -7.7421912253685152e-02,
          2.3928649551292216e-01, 1.1504713315017268e-03,
          -5.1294507489664021e+00, 3.6473608599343560e-01,
          1.8711256197636725e-01, -1.2394460830000176e-01,
          -2.9795065243301021e-02, -1.4593858361995424e+00,
          6.6132147457106316e-01, 5.5055661072357287e-01,
          -6.7153368653854839e-01, -2.4924818831993742e-01,
          4.1858843339103918e-02, -5.5837320017374159e-01,
          1.3251277874214093e-01, 6.0436098382090142e-01,
          1.5815601570795179e-01, 4.3086898608304985e-01,
          -5.4601965395523280e+00, -1.4121107200975468e-02,
          1.8681569864068640e-01, 4.6695423134566516e-01,
          -4.7155091591903581e-01, -9.0578212570496419e-01,
          5.7757620416078320e-02, -9.2445211370293642e-02,
          -1.2701444032557732e+00, -5.8833246775540105e-01,
          4.4805532937869325e-01, 1.2257884269107724e-01,
          8.4195567552689621e-01, 5.7278929334151552e-01,
          1.9248644788715352e-01, 8.4791104927254579e-01,
          -4.5555726260347162e+00, -1.7939636804584189e-01,
          -7.9332250372941571e-01, -2.7846285560199230e-01,
          2.3242905465027264e-01, -8.9131100703072130e-01,
          3.2078462551954351e-01, 4.8013002483235939e-01,
          -1.5517970736466546e+00, -3.4726262464946922e-01,
          3.4066279482033940e-01, -9.7215739122368128e-03,
          -2.9963725891986964e-01, 1.5553769880140203e-01,
          -4.1062627600817464e-01, -1.7480652291493198e-01,
          -2.2398325029859203e+00, -5.0646679380098958e-01,
          1.3764031379645866e-01, -2.1500347504374839e-01,
          -8.2502003234365728e-01, -1.4261496516191192e+00,
          1.1891656093717913e+00, 3.7043605047655981e-01,
          -7.0177049454640961e-01, 7.3140130379602009e-01,
          -5.1832745323054141e-01, -4.2466085127290519e-02,
          7.0822363436132174e-01, -8.3901085317485566e-02,
          -6.2864818199596675e-02, 9.2386169496133153e-02,
          -6.2407898591512652e+00, -8.9467425672997647e-01,
          -4.8271610453670777e-01, -8.8830528977109316e-02,
          -1.9597104174623203e-01, -5.1105337200403234e-01,
          3.8620385950666486e-01, 9.3463268246913300e-01,
          -7.1256847656331623e-01, 6.9189002036625624e-01,
          -2.4021740726037150e-01, 4.8891834556481822e-01,
          7.5741393886761454e-01, -6.9363274408933795e-01,
          -6.5889694822838052e-01, 5.0415658338029279e-01,
          -1.0798330976536938e+01, 1.4887334812309881e-02,
          -5.8372663798940427e-01, -8.5219701134576165e-01,
          -6.6772438618926033e-01, -1.6134969430241761e-01,
          4.6860228429938150e-01, 1.2515172900394738e+00,
          -7.4053811826795823e-01, 3.3649919471294382e-01,
          3.7437798413121182e-01, 3.6999883086826463e-01,
          2.0779688305795335e-01, 1.8906526719681085e-01,
          -1.5797893872758926e+00, 1.1104227746088835e-01,
          -6.9423668617083818e+00, -8.8996652832000478e-01,
          5.1505088166026558e-02, -8.0090841147913328e-01,
          -6.3480485683373000e-01, 2.9924639210717585e-01,
          6.5981765631317935e-01, 2.6873201132771890e-01,
          -7.6742709993693634e-02, -2.8682499376031967e-01,
          -6.6150947146299155e-01, -1.2035689521260187e-01,
          3.5068714039122956e-01, 4.5771352124003389e-01,
          -4.4475828680023899e-01, -5.8945527424458843e-01,
          -5.8136047296314408e-01, -2.2063214769582340e-01,
          3.5217087085253618e-01, -8.3555337490208448e-01,
          -2.0982986502721845e-02, 1.9190094459186444e-01,
          9.1786789523124779e-01, 3.0240568436912241e-01,
          -7.3217808721528366e-01, 1.8067518447772393e-01,
          -1.4910300179222702e-01, 5.5185356840244637e-01,
          3.9682694507917915e-01, 6.8717927982316418e-01,
          2.5407500016295659e-01, 4.4592154052835337e-01,
          -2.3293074887865308e+00, 3.7085581058340483e-01,
          -8.5750933469320320e-02, -8.6186169777928878e-01,
          9.7834514435939088e-02, 1.8633664190814983e-01,
          6.2928144521297191e-02, -5.3150006060128693e-02,
          -6.3057131790192911e-01, 4.9234213022694440e-01,
          -3.0906619643278915e-01, 3.7569322540222633e-01,
          -5.4162876514728542e-01, 1.3300170382344589e-01,
          -2.5255819942784502e-01, -1.4205820687451223e-01,
          -3.9032514053047453e+00, 1.0799331346301230e-02,
          1.9600882835545858e-01, -7.1640515947015204e-01,
          6.3821564354621663e-01, 6.8369103906492784e-02,
          9.6823430728800153e-01, -5.0477637573911827e-01,
          -4.4505444361422514e-01, 4.0096818887210040e-01,
          -6.0538884364448675e-01, -4.5552291489035451e-01,
          -4.0166224537529777e-01, 3.6811661249033734e-01,
          6.2629137877662189e-01, -4.0704672105152567e-01,
          -7.8337684138973724e+00, 2.6420760041721375e-01,
          8.3785836959158907e-02, -1.1384481421832138e+00,
          1.6970363257795723e-01, -2.2666794893738709e-01,
          5.5701373045552116e-01, 3.5755193712658279e-01,
          -1.6358054524466498e-01, -4.1858500255933984e-01,
          -5.4833578181575160e-01, -5.5781784542640300e-01,
          -3.7384367841029348e-01, 9.1444573492239345e-01,
          4.9728594576202539e-01, -4.7621467872176582e-01,
          -2.4497949149526512e+00, 4.4626307789574737e-01,
          2.1186106001742835e-02, -4.9596127829184744e-01,
          5.5370400630392369e-01, 2.3175729644667187e-01,
          1.4502274570653598e-01, 1.4268920248960299e-02,
          1.7135136554299502e-01, 4.4851183920685939e-01,
          -5.4128023478567211e-01, -4.8313214484667738e-01,
          -7.7745046641900417e-01, 5.6309595945505664e-01,
          -5.9965103011156429e-03, -5.4807116217257490e-01,
          3.6699847914407884e+00, 8.5630112610706843e-01,
          1.5900169111387261e-01, -3.5443142385302756e-01,
          -3.5579919872697180e-01, 2.6472492841223672e-01,
          2.8312702052027039e-01, 3.2736400530268871e-03,
          -3.5410161030570453e-01, 1.6896358496610014e-01,
          -4.6626496555376246e-01, 1.2163717987229934e+00,
          -5.3739936849392733e-01, 3.5016174035025122e-01,
          9.2000852943524641e-02, 1.5059121062817485e-01,
          4.2582341099485630e+00, 7.9731975547643141e-01,
          -2.8695546424366249e-02, -3.2377736767754167e-01,
          -6.2429628177380604e-02, 4.3263518031819881e-01,
          -1.1091924035570891e-01, 1.1101471905564789e-01,
          5.3792732747847599e-02, -4.5819829510553628e-01,
          -9.7964074339158991e-02, 7.8473969097947599e-02,
          -4.4387033492230754e-01, 4.8104536524215423e-03,
          3.2097403100690752e-01, -1.8692183513953661e-01,
          2.1979004715815194e+00, 4.5480676413624521e-02,
          -5.5237896052221436e-01, -3.0946203471281847e-01,
          -5.2090082315763098e-01, -2.0508447472665201e-01,
          8.2159634236602108e-01, 2.0960373688686595e-01,
          -1.0715674525325254e+00, -2.6796402538751224e-01,
          -8.2641617511848720e-01, -1.6986023657774593e-01,
          4.4925857100280553e-01, -4.0370516769058312e-02,
          -3.8266561246539055e-01, -4.0014171590663261e-01,
          9.2329941054092279e-01, -8.5658507340519136e-02,
          6.4362918884320341e-01, 6.4718280736889156e-01,
          -4.6401856543348269e-01, -3.8437639927751871e-01,
          2.1838886568121232e-01, 4.5420221381598130e-01,
          -3.1961491708167994e-01, 4.7367293162993490e-01,
          3.8593281032305038e-01, -4.9368237401345072e-01,
          2.7581838263800101e-01, -5.8620023737787359e-02,
          -3.8673964761167801e-01, -2.4202641037780029e-01,
          -4.7992592917881511e+00, 6.3102669875295414e-01,
          1.5582971962375434e+00, 6.5273878068221758e-01,
          -1.3562113380031821e-01, -3.5976622825382887e-01,
          8.7340482161936051e-01, 3.7592139205856706e-01,
          -8.6842936433606066e-01, -9.9733430957260638e-01,
          -2.8904674320175605e-01, 3.8792097973727657e-01,
          7.0250551138555362e-01, 4.4368735957319499e-01,
          3.4223323213528084e-01, 3.8791494076692551e-01,
          9.1698257003034778e-01, 6.2750357729927264e-02,
          8.7310594732633598e-02, 6.1989027962604493e-01,
          -7.4183721095925387e-02, -5.9747262755632224e-01,
          3.2001289457606891e-01, -7.3853109880035669e-02,
          -1.0267682426823290e+00, 3.8529707932904284e-01,
          -8.0485784391043436e-01, 5.0789548307129617e-01,
          5.4411654073104154e-01, 3.4198967127471286e-01,
          -7.9988804765275390e-01, 1.5136507714700492e-01,
          6.9024388212818422e-01, -1.5467623235907016e-01,
          8.1420674766030585e-02, -1.2194249064044729e-01,
          7.0589481123594741e-02, -8.1815353582118322e-01,
          -3.8316603275116495e-01, 5.8248876000857219e-01,
          -3.6854225333087731e-01, 3.0994478760234812e-01,
          -7.1167585030842884e-01, -1.2864848614425622e-01,
          4.8065934744694538e-01, 2.0402598687151513e-01,
          -8.4798373621666734e-01, -3.1840852317166024e-01,
          -2.4747665361677189e+00, -2.2885361033153998e-01,
          -1.9339995775362245e-01, -1.9097306351272280e-02,
          -7.8037232265876455e-01, -3.0414964876103806e-01,
          1.1889204468837007e+00, -3.0361718807281313e-01,
          -2.6644797809111304e-01, 4.4786879394648865e-01,
          3.1645740784941323e-01, -4.6656131120465533e-01,
          5.8637997675519260e-01, 1.6351943817251613e-01,
          4.3775716148595950e-01, -4.3427522531199669e-01,
          -1.0884888352091018e+01, 3.5550485877848526e-01,
          1.8488977840778920e-01, 1.3051259652440056e-01,
          2.6502392357299998e-01, -6.4670987070385200e-01,
          8.3870131443347307e-01, 5.8710184555459655e-01,
          -1.0568645167839901e+00, -1.5097552276481624e-01,
          6.4755784295557184e-01, -4.1618563053180985e-01,
          4.9368417879535725e-01, 7.3767704699546674e-02,
          1.7620221072155839e-01, -5.2801223036429323e-01,
          -6.2448133184273091e+00, -3.3880231864286281e-01,
          -2.1438704505436418e-01, -1.0858461084572733e+00,
          -7.4520097795936668e-01, 1.7041147637387309e-02,
          -7.6998514949221761e-02, 1.6076071196395334e+00,
          -7.7360208252451268e-01, -3.2826793178061309e-01,
          8.3668406326090783e-01, 2.8488406981110359e-01,
          1.8068631020832449e-01, -5.1799532199834075e-01,
          -3.5561976218833913e-01, 1.4863231719067513e-01,
          7.7379987778373263e+00, -6.3109315714335934e-01,
          3.3463765460092693e-01, 3.8856403751500531e-03,
          -3.1514386570015779e-01, 4.7848233677155960e-01,
          -9.9169639370671261e-03, 1.3005842695160581e+00,
          -1.1030386490716937e+00, 4.9610227892057579e-01,
          -4.4204133368364851e-01, 3.7251079574889928e-01,
          -2.8149196534890050e-02, -3.5357567244937593e-01,
          4.7977096283306059e-01, 1.6313332178314549e-01,
          2.5909020388783549e-01, 2.8017248807199201e-02,
          1.0726633375839702e-01, -7.8398231932838425e-01,
          6.5994635138246119e-02, 3.0000193637887573e-01,
          3.6211431943084199e-01, -3.1904255992048414e-01,
          -1.0137839293471531e+00, 1.2211948860214927e-01,
          -3.0089886892356321e-01, 3.8568803094994342e-01,
          -7.1112689001374951e-01, 5.4473434344826466e-01,
          -1.8218617773233473e-01, -7.7271106901961573e-01,
          -2.4347691015685385e-01, 1.4796248946749342e-02,
          3.7357228681106303e-01, -4.0555412662337054e-01,
          4.5267653001326158e-01, 7.9548101766233625e-01,
          2.7355393612806883e-01, 1.4131894199732839e-01,
          3.2474207304668129e-02, -6.2252595850547324e-03,
          -1.9106596536711273e-02, 6.8900529887919462e-02,
          -8.9703829286001346e-02, -4.6125561966238279e-02,
          1.8158454510858835e-01, -7.1376143130692704e-01,
          2.5753639551727997e-01, -1.8137013963233403e-01,
          3.2284729867677509e-01, -4.1131427227039447e-01,
          2.4252798415073776e-01, 2.5317783754501899e-01,
          -7.5346337479711686e-02, 1.9637405105890132e-01,
          3.0279448485487381e-01, 9.4558709243861450e-02,
          3.0213418482775112e-01, 5.7067981778188193e-01,
          -5.1163169388552798e-01, 4.8313473893473252e-01,
          2.3993174161959518e-01, 2.4080684095195901e-01,
          -4.4796313838636062e+00, -1.0023752598115218e-01,
          2.8605237593976318e-01, -5.5786662254056896e-01,
          -4.4845044419064461e-01, -4.1562133843433519e-01,
          1.3561311696869955e+00, 4.7525002313292630e-01,
          -2.0391709660572394e-01, 7.4711761424526713e-01,
          -9.0940415956894061e-01, 5.8352918135341392e-01,
          1.3604505444587331e-01, 5.2228187914343815e-01,
          6.8771008438033663e-03, 7.6462130807501222e-02,
          -5.3164546405225082e+00, -1.1333608285513305e-01,
          2.7744026999564975e-01, 3.6422991478099653e-01,
          -7.4806192372699809e-01, 4.0140786682442531e-01,
          8.6018917676438766e-02, 4.1757090584481821e-01,
          -5.5890477522802892e-02, 6.4794260798161829e-01,
          -2.3150009022901646e-01, 6.9892850516310590e-01,
          -6.9395532846324859e-01, -2.0637318978242469e-03,
          2.3225285386116672e-02, 4.9383083508969711e-01,
          6.3846940403680752e-01, 3.2937956273989860e-01,
          -1.5410894906147882e-01, -2.4033261350934376e-01,
          2.0366667081446035e-01, 2.0525851846509926e-02,
          2.6436661049993260e-01, 2.1792389246781018e-02,
          -2.0586437598666424e-01, 5.2045650379547115e-01,
          -3.1923565884933303e-01, 6.2511351690550435e-04,
          -6.1615087661584933e-01, 4.6244647076618778e-01,
          7.0610730179506359e-03, -1.9697972599419361e-01,
          9.3415016564460318e-01, 1.0469375399267205e+00,
          1.1165658341469301e-01, -9.0669312894099618e-01,
          4.8755110398252105e-01, 4.0986526356079300e-01,
          3.2991644162151129e-01, -3.2980624927918378e-01,
          -6.1585958913700545e-01, 2.4570441806673232e-01,
          -3.9911871558857653e-01, -3.7328079419094201e-01,
          -7.6117458686190143e-01, 5.7685762048970823e-01,
          -5.1844489065862982e-02, -4.3530398100402468e-01,
          -4.7659636435907391e+00, 1.2375368703342708e-01,
          -2.1865200040376107e-01, 4.5864755584381250e-01,
          -4.0404511605422405e-01, -9.1723618797456186e-01,
          8.1246791432717003e-01, 2.2727369149617416e-01,
          -2.0997907806734459e-01, 1.1931569004709058e-01,
          -1.8757893401398973e-01, -8.5317644639806997e-02,
          2.9287682713993729e-01, 5.6935109741516654e-01,
          -6.0806837826273064e-01, -8.8927531542907734e-01,
          -1.8459609729255504e+00, 1.0117477858840410e-01,
          -3.3883466324586241e-02, 3.8938054390658161e-01,
          2.5321677436529633e-01, 2.6367526430311358e-02,
          5.3830697130288419e-01, 1.3289294951064815e-01,
          -1.6740249248718717e-01, 8.6075127322689471e-01,
          -1.4950053095908158e-01, 4.8049186943438592e-02,
          2.1466081957171632e-02, 5.9626072661697296e-02,
          -1.1981838754256295e+00, 1.8539988890874881e-01,
          -1.3414546349416474e+00, 4.1624350217127887e-01,
          7.6056254513522692e-01, -5.6498468638251109e-01,
          -3.7002190775482807e-01, -2.8786418781306233e-01,
          1.2410856784248820e+00, -2.9315997889542056e-01,
          -4.2143776971712690e-02, 9.5108652509714675e-01,
          2.3129262934313208e-02, -2.0150817431453938e-01,
          3.1808837101361215e-01, 4.4008175270676173e-02,
          -2.7868402921611013e-01, 1.7514810564269717e-01,
          1.3608282477785951e+00, -3.1710893779939792e-01,
          5.1195231980247080e-01, -1.0854051784266817e-01,
          -3.3152712335494239e-01, -4.6973324296437319e-01,
          5.0670695290977974e-01, 6.0733248178025800e-01,
          2.1476863238076799e-01, 1.5801761647644434e+00,
          -1.0239705814573052e-01, 2.6068292892862105e-01,
          4.4856636973728448e-01, -1.4500760787934000e-01,
          -1.0472925907704370e-01, 1.0976577334285353e-01,
          -4.6246273872556056e+00, 8.7020152586545954e-02,
          4.9596097338407634e-02, -4.8995326782800980e-01,
          4.1076961417793417e-01, -7.4867472686697401e-01,
          -2.0252784505767271e-01, 1.6054212704717694e-01,
          -6.9727564649013876e-02, 3.7025561085734736e-03,
          7.9140407394427759e-01, -8.7845426596637355e-01,
          2.1133432914349096e-01, 9.2631488642274176e-02,
          2.7650274168474386e-02, -4.3451946834581262e-01,
          -7.2412960522383774e+00, -3.5254317707908750e-01,
          6.3089827594322523e-01, -2.9225875616345737e-01,
          2.5994051501939029e-02, -1.4703746290045419e-01,
          4.2528673859203597e-01, 1.2987155395190564e-01,
          7.7048809952048714e-01, 6.4075945079258867e-01,
          -1.6914781267518858e-01, -5.7114301147689550e-01,
          4.5513183430145571e-01, -1.3360366865163582e-02,
          4.4156073044470168e-01, -4.8821794522844131e-01,
          -4.4526058162360620e+00, 1.0035662263443698e-01,
          -1.2296595957699254e-01, -7.0329294431409034e-02,
          -7.5519662940244481e-01, -6.6583825582960818e-02,
          8.6458908156759828e-01, 1.0663605782300067e+00,
          -1.0808383914271154e+00, 5.2328889816021562e-01,
          3.3460093865643875e-01, -3.0150637345905507e-01,
          3.7124665064627904e-01, 6.3649979079348373e-01,
          2.0972581212257935e-01, -3.6994452983137155e-01,
          7.7976556047407337e+00, -3.2321261212642316e-01,
          -4.1194561279607628e-01, -4.7547616268887011e-01,
          9.5963927721101086e-02, -8.1253163046625554e-02,
          3.5888732715806620e-01, 1.4793660620773430e+00,
          -5.9008473666516936e-01, 7.7189365764394197e-02,
          9.4932566152392844e-02, 2.9734749213008321e-01,
          -2.5379878597956540e-01, 1.0527259552006432e+00,
          1.5338889183108742e-01, 3.2390928517961487e-01,
          3.3391091845066558e+00, -1.9527479577229792e-01,
          -1.4662544470237951e-01, -5.5235784877344563e-01,
          5.7230705113262803e-01, -8.0259950033771787e-02,
          5.2808845022252426e-01, 3.5737171312018479e-01,
          -2.2244552517425020e-01, 7.3034787828830194e-01,
          -6.2590093002426114e-02, -8.5992974932470850e-02,
          -1.7984152170202541e-01, 3.6157520703347662e-01,
          3.5188658502271508e-01, 2.4984903904199166e-01,
          1.7775248296761290e-01, -4.8181504858994528e-03,
          -2.8349492284400341e-01, -6.3038166443674037e-01,
          5.3127913288007400e-01, 4.6790290578298470e-02,
          -5.1378290535458238e-01, 1.7590243031531176e+00,
          1.0043062933578836e-02, 3.8813562697801296e-01,
          8.4549785152643897e-01, 9.7566368726185393e-01,
          -2.8592826095835711e-01, 1.2455223291769647e-01,
          -3.4903613658830435e-02, -1.5648134604727940e-01,
          3.2745347591547782e+00, 5.2385664595286519e-01,
          -1.8350694552960287e-01, -4.6943644626268061e-01,
          1.0934091544921281e+00, 3.4854096455093381e-01,
          5.2018845531500968e-01, 1.0004215466482180e+00,
          1.3835627127525016e-01, 8.7426630404696071e-01,
          3.7617572746470579e-01, 8.1412050297866534e-01,
          -4.5322492154090799e-01, 3.7783664972965772e-02,
          8.6135670883963081e-02, 4.8200349875177007e-01,
          -1.9745393505842593e-02, 4.6566947220725552e-01,
          -2.5491536925353486e-01, -1.9197806993503406e-02,
          6.4218476849824346e-02, -4.7578273629450031e-02,
          1.0371000771377217e+00, 5.2890696190255304e-01,
          -2.6941483853790898e-01, 8.5008423133091049e-01,
          2.2260816860975730e-01, 7.2036376806894131e-01,
          -1.3653091491086196e+00, 1.3454475362137272e-01,
          8.0555776696709969e-01, -1.2807428429474779e-01,
          -1.3050377254301244e+00, -1.2830883906116197e-01,
          -9.5141493266556118e-02, -8.9153225796617341e-01,
          -1.2338487331170336e-01, 1.2682172862114671e-01,
          -1.0268785054532681e-01, -1.9204700130417954e-01,
          -2.1692348660444521e-01, 6.3472061909011723e-01,
          -6.4486626473633590e-01, 9.8347576832617312e-01,
          -2.4940149223666180e-01, 8.5252683566463081e-02,
          -3.0538809937054362e-01, 9.8952987089903674e-02,
          -7.9424438487232552e-01, -3.6480646996420063e-01,
          2.6069619355556877e-03, -6.4843076463110922e-03,
          -6.7302235668424359e-01, -1.0698821828818375e-01,
          1.4359840196746035e-01, 2.1626772707095679e-01,
          3.0943955933509804e-01, 4.1982868013901209e-01,
          -2.0647948239444092e-01, 6.1186148608795266e-01,
          -5.0516077883038168e-01, 2.0419024314125253e-01,
          -5.5788074432949664e-01, 6.0164264287446367e-01,
          -1.7189323593305359e+00, 5.8194561852186556e-02,
          8.3216470184862400e-03, -9.0959748763894288e-01,
          -4.4334457769306446e-01, 2.0180057828425946e-01,
          -1.1380939417489837e-01, 3.0846389248636497e-01,
          9.3993899438490416e-02, 7.1578612185118851e-01,
          7.5475192538915952e-03, 7.3986791394256957e-02,
          1.0169067873704675e-02, 2.4913332931058029e-02,
          1.6189432558491434e-01, -4.6480747220351781e-01,
          -7.4484675106729892e+00, 3.8172610416314418e-01,
          2.6177642255547234e-01, -1.0232583734849179e+00,
          -1.8919828464348115e-01, 4.1486470682245674e-02,
          9.8835563595778475e-01, -4.5150142774472485e-01,
          -6.9167742249841768e-01, 1.2325645339447282e-01,
          6.2445818996191872e-02, -2.3711987091453540e-01,
          -9.1714568757971371e-01, 2.3282237580489784e-01,
          1.9165788912002840e-01, -9.5567028775426344e-01,
          -2.1028180784187391e+00, -2.1378397787036507e-01,
          8.8098290967007734e-02, -1.6758841924249113e-01,
          2.4692187281169606e-01, -1.4560359322723329e-01,
          6.8467536084031888e-01, -9.4285388960459149e-01,
          -3.0825196335567084e-01, 8.4311369785703461e-01,
          -5.8319566682668099e-02, -1.1830444224841361e+00,
          8.9396743159417458e-01, -7.8572559404335485e-01,
          -6.4691944324283612e-01, -3.3698908547288620e-01,
          6.9626543862762147e-01, 2.5539753331599968e-01,
          -2.1187154521773396e-01, -3.7528621607591864e-02,
          -2.0348189648712126e-01, -2.0406213752367294e-01,
          4.0945444161312111e-01, -5.7833386377402873e-01,
          1.2173894871709542e-01, 1.3083554131142885e+00,
          -2.2829637643076456e-01, -3.6669358261975898e-01,
          4.1334959633374740e-01, -2.3741222640625961e-01,
          -8.6359999334634041e-01, -1.7757727997757797e-01,
          -2.2476376130637585e+00, 1.3259178816824571e-01,
          4.8652191359681468e-01, -1.0622528051826843e+00,
          -4.6802212445030345e-01, -9.9932993389326819e-01,
          6.7950557457697225e-01, -9.6381608502039406e-01,
          8.0410103683017342e-01, 4.2409938372772632e-01,
          1.5316811975173786e-01, -1.3275716576809010e-01,
          -2.1223349152427767e-01, -1.7151382516658265e-01,
          -4.8950784829158095e-01, -2.4749446607255976e-01,
          -4.0905742564633023e+00, 2.2382122791114098e-01,
          9.8842401753366127e-01, 1.2988625058597539e-01,
          -3.6617048667782037e-01, -1.8555095644334628e-02,
          4.2505790072333488e-01, 8.0822026411191322e-02,
          3.2815473438234044e-01, 1.3211013039873252e+00,
          4.4536637864583249e-02, -3.2227785709492907e-01,
          -3.0031429167789642e-01, -5.7797886566817691e-01,
          5.5770340966017462e-01, -5.6338659367395967e-02,
          -3.3942272425592055e+00, 2.0851713955322698e-01,
          6.3379250647996610e-01, 4.4912745725732361e-01,
          -4.2930334612460991e-01, -7.0208861347044682e-01,
          7.6612499890487351e-01, -5.9039269044244602e-01,
          3.6234214487826422e-01, 9.4611661917965550e-01,
          -2.5400334671797847e-01, -2.0519931778224951e-01,
          1.1566605177370176e-01, -2.0996858881370048e-01,
          5.9756814941125747e-01, 1.3848708067856069e-01,
          8.6551395339030279e-01, -4.8342524290795885e-02,
          4.7631894927040946e-01, 1.4496662821738113e-01,
          1.0620078263280576e-01, -1.0728164758108968e-01,
          -2.2972411730824216e-01, -1.2994031951929683e+00,
          1.7366539410026141e+00, 1.7381107097450915e-01,
          1.3748113328275322e+00, 4.4425435186192730e-01,
          -6.4589734731499662e-02, -1.1759514024964153e+00,
          1.2084113360659914e+00, 3.3734064971927996e-01,
          1.0097707947731344e+01, 2.6002141004758486e-03,
          -1.0820981758218189e+00, 5.9714641692984094e-01,
          -4.1569010994935890e-01, -2.0659914879538330e-01,
          4.6224919441974538e-01, -5.1225284403825285e-03,
          7.9432528302134531e-01, 5.8836874905143266e-01,
          2.8043176879186421e-01, 2.5493188230211611e-01,
          -2.9633162178517908e-01, -2.6200901594128490e-01,
          5.5840922981850105e-01, -1.7515069503118528e-04,
          1.0188738241242239e+01, 5.4165404756708635e-01,
          -1.0398496082149447e+00, -2.6290869554687862e-01,
          7.9475969926511525e-01, 1.2313486311874016e+00,
          -2.6926790983050425e-01, 9.5325912822696413e-01,
          1.0097598467224207e+00, 1.3798270438539267e-01,
          2.4844192023460138e-01, 2.6103460452767968e-01,
          -2.6355875708215426e-01, 1.8159276137740660e-01,
          7.0844442375254202e-01, 1.7766982171890042e-01,
          3.9681675936114686e+00, -4.9140221558684682e-01,
          -1.2420008723483871e+00, 2.9461951420342175e-01,
          7.2313640812951485e-01, 4.5424163391979516e-01,
          -4.7193871057121484e-01, 8.0527638787475742e-01,
          9.8686769152496745e-01, 9.0989575196123396e-01,
          4.8275054108114318e-01, 1.0890074971910033e+00,
          8.0123365741929797e-01, -6.7781806235996755e-01,
          5.1819966886126623e-01, 4.0185732702577694e-03,
          4.0763281240591560e+00, 2.1452930851722846e-01,
          -2.1136420742637757e-01, 6.9744000492238067e-01,
          -8.1525863609538743e-02, -3.7815753922555556e-01,
          2.0403255320090524e-01, 4.4894252964961989e-01,
          5.8619572242583218e-01, -2.2774046646390769e-01,
          3.7909540688520343e-01, 1.3646508097507830e+00,
          4.3504371234510747e-01, -3.6472438323685175e-01,
          5.7338598958485154e-01, 1.4434382548087021e-01,
          7.3387986110292003e+00, -2.3063462594561915e-01,
          -5.8682322099785678e-01, 1.5471116595731049e-01,
          8.5526521460135663e-01, 8.3635072438283409e-01,
          -6.4114873225192148e-01, 8.5741472541188535e-01,
          6.9991751393813550e-01, -1.4715527419652533e-01,
          4.7472691965178027e-01, 6.2793271395368011e-01,
          2.8368477935087827e-01, -3.4498514566683097e-01,
          7.5976328720194508e-01, 5.6913076295655840e-01,
          1.1995896070022858e+00, -4.4305070321714640e-01,
          -3.6688493189732763e-01, 5.9467926571605068e-01,
          4.7623308703686434e-01, 3.8143195773480576e-01,
          1.0209233120403685e+00, 4.4284818408194876e-01,
          3.9861603752433361e-01, 7.0055481994332303e-01,
          -6.8941323495027407e-02, 1.3678271954330163e+00,
          2.9227174596276301e-01, -4.2774183498908097e-01,
          8.6436910297812775e-01, 5.2794503832467721e-01,
          -2.4227677536796923e+00, -7.5687105200933469e-01,
          -9.0898883251835005e-01, -3.5692808710286017e-01,
          1.0083368219393614e-01, 3.9804760193514893e-01,
          2.2122238152497187e-01, 1.7763245092811866e+00,
          7.2505741226153364e-01, 8.3203080694195097e-01,
          -2.7828008914664076e-01, 9.0004278506235191e-01,
          -4.3115369824420763e-01, 1.1465377202015978e-01,
          9.5635641980916203e-02, 4.1843279825222396e-01,
          8.8633233206150738e-03, -4.0473698310581113e-01,
          3.1669080560886553e-01, -5.7707392191256734e-01,
          1.0081891058986994e-01, 9.3978284658180145e-02,
          7.4744124471564044e-01, 5.0035435090787739e-01,
          5.2465349355589352e-01, 1.0991771968542745e+00,
          -7.4871392202311304e-01, 1.6024905137891640e-01,
          -1.0297141175017519e+00, -6.2994378566431120e-01,
          -3.3167251869184189e-01, 1.4498805371911066e-02,
          -2.7077345456831869e-01, 2.8633899353328229e-01,
          -3.5758122828664274e-01, -2.5864959703324381e-01,
          4.0237279859422159e-01, 1.9485013099976706e-01,
          6.0043351344107276e-01, -1.9477694412631449e-01,
          6.6060508725957545e-01, 5.7205460867016589e-01,
          -7.1545420910308777e-01, 1.3719377884238332e-01,
          -5.6227274413788178e-02, -2.9080046304031687e-01,
          1.3322117635591602e-01, -5.4013071337272855e-01,
          -5.8605454408297639e+00, 2.9688448392406530e-02,
          -4.3088261498534108e-01, -4.9440730718524639e-01,
          1.6486169087443689e-01, -3.2982935017839293e-01,
          8.2725676232674039e-01, -5.6110156939775846e-01,
          2.4602712177607228e-01, 2.4171222983391372e-01,
          6.8591673225362082e-01, 1.0524608121491819e-01,
          -6.3517672012653636e-01, 1.4216190084913016e-02,
          -3.6239800223446400e-01, -7.3999248294506803e-01,
          3.3170643186054058e+00, 2.7538329088142777e-01,
          5.2388971904081871e-01, 3.3393527467297296e-01,
          5.4061406356479846e-01, 1.8408810940622783e-01,
          -3.9828448281028536e-02, -5.5379927612883939e-01,
          -3.1214180038780964e-01, -1.5677639068772514e-01,
          -4.3116050362370301e-01, -6.8447827445830789e-01,
          2.2435353364720048e-01, -3.4563771971733659e-01,
          -7.7589087753786878e-01, -5.1203853207968153e-01,
          1.1963364166561496e+00, -2.2092833428245334e-01,
          2.7580099310999351e-01, 7.6069299912387617e-02,
          -1.7012250882313429e-01, -8.9360446502971624e-01,
          6.7727918459372760e-01, -3.7171284141781014e-01,
          5.8983613786769425e-02, 9.7940310562703126e-01,
          -6.4184748827507654e-01, -1.9430207747344322e-01,
          7.0558516585608522e-01, -1.9630976814185336e-01,
          -9.5723975872513634e-01, -2.3128508348920551e-01,
          -1.3597735022890116e+00, 1.3206530103716875e-02,
          7.1537860937173903e-01, -3.5304222541791824e-01,
          -2.5627310889161298e-01, -1.1702128987926549e-01,
          6.4915642191359568e-01, -9.0629416847582178e-01,
          7.0833127374662408e-01, 6.4029458603343392e-01,
          -3.6157978456455603e-01, -1.7421213637729177e-01,
          1.4494843148777914e-01, -8.6103832354563758e-01,
          9.7725202273175188e-02, -6.7686984654138327e-01,
          -1.9831084737826410e+00, -9.7334648185146505e-02,
          4.0879252107612712e-01, 1.9519032990382423e-01,
          -1.1710886795208672e-01, 7.2193240496458866e-01,
          -5.1128780003622432e-01, -9.3321929926801428e-01,
          9.6761043223271082e-01, 1.1073821859971527e+00,
          -3.3210526491007530e-01, -3.8702753961296499e-01,
          -1.1900000332167958e-01, -8.3739290939081901e-01,
          1.8556823547668833e-01, -6.2262395254414167e-03,
          2.5134416506204915e-01, 2.2463886092681087e-01,
          3.2789452884510178e-01, 1.3714358449925410e-01,
          -5.0118612936746532e-01, 3.5702464985906773e-01,
          7.1572742303886527e-01, -1.1072955099764852e+00,
          9.9733811321321419e-01, 1.8000383183144439e-01,
          5.2970540708330724e-02, -4.0698711868854942e-01,
          4.0541625768835554e-01, -4.8439989857301624e-01,
          7.6644781389579086e-01, 3.9160953544433030e-01,
          5.7914710819603399e-01, -3.9399032389861655e-01,
          7.1797201933760491e-01, -4.5615942596538089e-01,
          5.6730270369673641e-01, 5.0403680760468772e-01,
          6.5543939870559953e-01, -1.4743797448607807e+00,
          2.4775214789595396e-01, 4.4062157289163750e-01,
          -1.0499858319589749e-01, 1.4445606280651443e-01,
          -1.4236144430503894e-01, -8.1484535167176220e-01,
          6.1471066684973341e-01, 2.2769689750473049e-01,
          3.7593430172240576e+00, 1.9924741422566644e-01,
          5.6347452192456837e-01, -8.7958404373176713e-01,
          -1.0593183266813786e+00, 4.4508222082892956e-01,
          9.3426079296995412e-01, -1.4814452076172949e-01,
          1.0427711936209547e+00, -4.6676772483143864e-01,
          6.6636324565121952e-01, 4.0180439685855773e-01,
          -4.6266989642063883e-01, -1.8410295288354805e-01,
          3.7522977149535747e-01, -1.6238585593834007e-01,
          1.6380163040258700e+00, 1.3869961084335276e+00,
          1.8358805747550250e-01, -6.2987235645238016e-01,
          -9.7001669983018979e-01, 2.6100586372277945e-01,
          1.3132377111599618e+00, 1.1561463932968290e+00,
          1.0314144476433869e+00, -3.8567333644598700e-01,
          -9.1120915187391030e-02, 5.3796514619758673e-01,
          1.5337643831935465e-03, 1.4592769299301475e-01,
          2.3032032471036706e-01, -2.7517350912082961e-01,
          4.8914774818885531e-01, 1.8073252869708087e-01,
          -5.4208140345431144e-01, 1.3961742438032942e-01,
          -6.4908114232860370e-01, 1.1366053567207046e+00,
          5.3813556384745487e-01, 6.1614321816309714e-01,
          3.8215760364253010e-01, -6.7916715785318049e-02,
          -7.5472514852750999e-02, 1.5014658675978154e+00,
          -4.0188837511281106e-01, 1.2458152023962465e-01,
          9.2549625642013589e-01, 9.8644349750343238e-02,
          2.4889029827324038e+00, -3.1321540237460865e-01,
          -1.3763223048404397e-01, -2.6961833849552974e-01,
          -2.2816042494296737e-01, -5.2459968939582979e-01,
          -7.1369680684952186e-01, 1.2796615404480086e-01,
          1.2920783632530236e-01, -1.3888312134844441e-01,
          4.3150256124276400e-02, 7.4058426596780091e-01,
          2.3147758840198746e-01, 3.5097144541621023e-01,
          3.8924933567134756e-01, 6.8643492925244975e-01,
          2.1524103181652765e+00, -8.7740457525938931e-01,
          -1.0465660457659871e+00, 2.9103287703173131e-01,
          -1.2410246136875444e-01, 8.1516455623526740e-01,
          -3.4953660202921777e-01, 1.0989332633861957e+00,
          6.2523010291571268e-01, 4.2418742385360308e-01,
          -3.0676226472537360e-01, 1.4885906581427741e+00,
          5.3840446247959450e-01, -5.3577755537969590e-02,
          6.1991296068436574e-01, 5.0847093191729309e-01,
          -1.8753689944133740e+00, -1.1603099845974947e+00,
          -1.1274874952619891e+00, -5.2877749851327027e-01,
          3.4304508272716955e-01, 8.0752930350683205e-02,
          -2.2399958229855882e-01, 1.0712107181911037e+00,
          8.2013817875169559e-01, 2.7041744978256776e-01,
          2.8215423758886415e-01, 1.2787767724458921e+00,
          1.1052039141395715e+00, -4.4184265303263726e-01,
          3.4306151129586676e-01, 5.7404646931429981e-01,
          6.0038313481142480e-01, -7.5668078705935338e-01,
          -8.4053641295375570e-01, -1.9012596995933089e-02,
          -2.4596856645790927e-01, 1.8405024567486633e-01,
          5.0710568463313754e-01, 1.1837882691033679e+00,
          7.0781365831129428e-01, 1.4391217874826839e-01,
          2.0248514657791836e-01, 1.0972975273553383e+00,
          5.7170942041214101e-01, -3.0636278062357214e-01,
          8.5847729000683215e-01, 9.3325170127062229e-01,
          5.5960909536841568e+00, -1.4502137216595969e+00,
          -8.9806012414954017e-01, -1.8071009005832722e-01,
          6.8955259564854110e-01, 5.6277676535280718e-01,
          4.0193330310780467e-01, 1.2481610298779389e+00,
          5.1487575828645948e-01, 4.8857013675449384e-01,
          -2.9673222553077200e-01, 1.2006626580455599e+00,
          1.7146668598132364e-01, -2.8622576286119744e-01,
          3.4079099325350143e-01, 6.8751318081691459e-01,
          8.5707074031917703e+00, -1.3966990868923397e+00,
          -5.1672720156282936e-01, 6.7058920497928132e-01,
          8.6712899150767728e-02, 1.0939661013396118e+00,
          7.5736412560218114e-01, -3.1229248120152442e-01,
          4.6517877628306609e-01, 6.3368224199834100e-01,
          -5.0627791387012799e-01, 1.0760208650881518e+00,
          6.3697625818189552e-01, -5.7830189105151775e-01,
          1.6070876973086212e-01, -1.2261435950824394e-01,
          6.0578492501490864e+00, -9.8481979866959601e-01,
          -9.2908207612819405e-01, 4.4874574592338140e-01,
          4.5481080614951236e-01, 8.5109925877351833e-01,
          5.3866757128956527e-02, 3.3109250268335089e-01,
          9.3577039795610839e-01, -6.7264853451171902e-01,
          8.5057828248248313e-01, 1.2079927641418887e-01,
          7.2317286052468321e-01, -2.8089924879527683e-01,
          -7.2440629934448586e-01, -2.6998143515452716e-01,
          -8.0816108001053455e-01, 4.7753537508886362e-01,
          3.8797321672600266e-01, -7.5286801124117633e-02,
          7.7751043026112931e-01, 3.5116626006203355e-02,
          -5.0565662386117860e-01, 1.3791707171662584e-01,
          5.0064340785965125e-02, -4.3526143419531882e-01,
          -6.6369652061452081e-02, -8.0625429287943395e-01,
          -9.6405901005175390e-02, 4.2385891961527999e-01,
          -1.0430405566797334e+00, -1.8642286909786096e-01,
          2.9607711525330069e+00, 1.0647205292956897e-01,
          9.6760321628903134e-02, 1.2421260971972181e-02,
          -2.2321938505298386e-01, 2.7534244591925165e-02,
          -2.2667158802277473e-01, -9.4834888532362194e-01,
          8.4280476981585151e-01, 6.4046147908923867e-01,
          -4.6120653546784518e-01, -3.9918399700984109e-01,
          1.0746087512906981e-01, 1.7589451066248535e-01,
          -5.8626680220824678e-01, -5.9347944672194552e-01,
          4.4233455649481568e-01, -3.2895117764867093e-01,
          1.3777750373074277e-01, -6.2023307131366522e-02,
          -1.6224612539089571e-02, 2.4502070911289844e-01,
          -4.6766415269984311e-02, -9.1916291354212409e-01,
          1.1885622068690727e+00, 3.9868510792566680e-01,
          -2.1299654099160223e-01, -7.3568316737171102e-01,
          -1.5738261968145259e-01, -9.9147625104995440e-01,
          9.3504387036406719e-02, -5.5100180922333208e-01,
          -5.9161227607341909e+00, -3.5116152974135939e-01,
          1.6394955601739991e-01, 1.9913507926020727e-01,
          -3.8415696348070863e-02, 6.6583228579814546e-01,
          2.5175605414067354e-01, -7.5322104300014270e-01,
          1.7536151916545376e-01, 2.5012333939770348e-01,
          -5.9430399654352162e-01, -2.1818574808601132e-01,
          -1.8692017256677879e-01, -9.4078508466835287e-01,
          6.9887731500563044e-02, -1.1493455717524789e-01,
          5.4536858425774581e-01, -2.3132161248884839e-01,
          2.0810099107838528e-01, -8.1987253511196656e-01,
          -2.9562470880877267e-01, -3.2055472684851527e-01,
          3.8073860810666543e-01, -1.0519025124377601e+00,
          1.6426617147171174e-01, -2.6477846553585566e-01,
          -1.1497438389167638e+00, 2.5454853290247348e-01,
          -3.8217497265679579e-01, -4.5098948967878499e-01,
          5.2455900522840004e-01, 3.7754883667742012e-01,
          4.7355594831571155e+00, -1.9221800418797944e-01,
          2.4476496312245050e-01, -4.6102407521842620e-01,
          -4.4851589871605668e-01, -9.6328376773165691e-02,
          -6.3632987322956569e-01, -1.8295532224148516e+00,
          -7.8408270953259895e-01, -7.0206517445876748e-01,
          -3.7390681467525061e-01, 1.6314251735867771e-01,
          8.3861066189702060e-01, 4.2353401868771368e-01,
          -3.2900698970318408e-02, -9.2603820086970323e-02,
          -2.3275502735716342e+00, 6.8535652989603446e-01,
          3.6422486930272557e-01, 4.3098908593215740e-01,
          -8.8898412893941670e-01, -1.4537830871058340e-02,
          1.1516942543747932e+00, -1.2096997480985427e+00,
          8.7578807673997550e-01, -2.6598102049942512e-01,
          3.4984630361170277e-01, 9.9584462487993841e-01,
          -5.3343207797155923e-01, 3.8515090358885218e-01,
          2.6949463784193173e-01, 1.3843365219414075e-01,
          -3.3747918795631771e+00, 1.4305312461474782e+00,
          1.0121289387636066e-01, -1.1196159887642569e-01,
          -7.4061682959887321e-01, 3.8975594916646489e-01,
          8.0001836813543381e-01, -9.1290815658027921e-02,
          2.5100771744320577e-01, -1.7073867495113229e-01,
          4.3922918929607002e-01, 8.3882291396692010e-01,
          -8.3626929121921684e-02, -3.0185793139552974e-01,
          6.4823604417068414e-02, 1.1497012553415767e-01,
          1.1447765484684393e+00, 7.1140691851041243e-02,
          1.8142040911571738e-01, -4.0134526282346350e-01,
          -7.6436101215407082e-01, -8.6264175427345741e-02,
          2.5249198172328957e-01, 4.5379810424348926e-01,
          8.9522495101488364e-01, -3.0910346555867796e-01,
          -1.1920426933206817e-01, 5.3664139161613256e-01,
          -7.2886527831677803e-02, -3.8792683061396455e-01,
          3.9128677168282239e-01, -3.3672194633127117e-01,
          -7.8969160602821142e-01, -1.7993731662509452e-01,
          -6.9053966139411171e-01, 6.2845927472059593e-01,
          -1.0950917786750396e+00, 3.0597250713714647e-01,
          7.8901732787686618e-01, 8.0445757048470290e-01,
          4.2950185355383870e-02, 2.5737717519506259e-01,
          -4.5246736361488232e-01, 7.5553048954845756e-02,
          9.7650748717613822e-03, -7.0627321491071271e-01,
          6.0068911230327793e-01, 2.2136509118030015e-02,
          -4.9125335725368231e+00, 1.1641080961031575e-02,
          3.8371576986580898e-02, 4.1711187245608328e-01,
          6.3982830331209342e-02, 3.4762269025501846e-01,
          -1.3669605971841279e+00, 1.0626242777444945e+00,
          -6.4003378830481106e-01, -9.4337932539205316e-01,
          -8.1795247094063925e-02, 1.1743449927890222e+00,
          -2.0724347225197495e-01, 6.9664196025988046e-01,
          -1.1060203772221895e-01, -4.0816705459795904e-01,
          -5.1352486796715233e+00, -6.5006473630670081e-01,
          -1.6503788712144996e-01, -5.8568868161342524e-01,
          2.3912182006574134e-01, 7.3042346221373192e-02,
          -2.4966402315440381e-01, 6.9788338665005201e-01,
          -1.0619547249745395e-01, -7.5654990739155303e-01,
          1.7636193530715608e-01, 5.4558890264867110e-01,
          1.1796705093598216e-01, -6.7733902817892122e-01,
          5.7795427733167970e-01, 4.2760665228316241e-01,
          1.8639924719756491e+00, -4.0687913272413218e-01,
          -1.7908650923894634e-01, 4.8862623582641868e-01,
          2.2764141969108340e-01, -3.1817121850461560e-01,
          -3.1860872845767704e-02, -1.8374466732705833e-01,
          -1.5868800485760834e-01, -9.7606945473041676e-02,
          -4.9129192309227943e-01, -2.2715700605445024e-01,
          6.7562381002973593e-01, -3.4564032120053101e-01,
          1.2200269099855074e+00, 1.3141265733770979e-01,
          8.4198102634376824e+00, -1.1540812263988909e+00,
          -8.3076615485142535e-01, -1.2177200101260130e-01,
          1.9617369040547786e-01, 4.1036603518465287e-01,
          -6.2905370722266679e-02, -7.7536810012209023e-01,
          2.2016710369852768e-01, -6.5764917140286122e-02,
          -8.9960622629571041e-01, -1.6410914387108982e-01,
          5.3096482237304088e-01, -7.5660218115386466e-02,
          5.9636280265978181e-01, 5.2060850767866630e-02,
          1.1897033656630210e+01, -1.3395920997473607e+00,
          -7.1201100179105681e-01, 2.3856013523099764e-01,
          6.4760629439979311e-01, 1.1794673697044336e+00,
          -9.9916243629849230e-02, 1.5780530191191178e-01,
          6.0238661639705704e-01, -1.6480794320602740e-01,
          2.5414431411227045e-01, -7.3221181237156774e-01,
          7.5575272938648175e-01, -5.7157660978495584e-01,
          -8.1598175496124525e-02, -4.8841381259634670e-01,
          2.4789223742405708e+00, -6.7529804368249458e-01,
          -7.0153117191595027e-01, -6.0802273282887571e-02,
          2.5328732838503970e-01, 4.2589108407374537e-01,
          -1.4738832372874849e-01, 2.4994858999782565e-01,
          7.5975670860799382e-01, -8.1453086746138503e-01,
          7.3875287477407148e-01, 1.3570306800420093e-01,
          5.1453795382876022e-01, -1.6937491562129206e-01,
          -2.4710209935601971e-01, -5.2492942665979980e-01,
          7.6480139920705431e-02, 5.3428079496774172e-03,
          -9.0590824507600975e-02, 1.5084788324920581e-01,
          6.4827253012015418e-01, -8.7376919874256713e-03,
          -5.1871444904620556e-01, 1.1760953874752429e-01,
          5.9233437432351732e-01, -4.2102588860808748e-01,
          9.1076007332718678e-01, -7.0165813431479707e-01,
          1.8988657757273802e-01, -7.4262252420398767e-01,
          -7.3279655630998153e-01, -7.0117325088788304e-02,
          6.5197573268670901e+00, 1.9277827643878775e-01,
          -2.2119174434552727e-01, -5.0536835433182203e-01,
          2.3791319488528448e-01, 5.1243719318672457e-02,
          -8.8893193495381817e-01, -1.1678297263977131e+00,
          7.4942596535060590e-01, -6.8679012853170129e-01,
          -1.1814770369570753e-01, -1.1386290896271247e+00,
          -3.4644032049033147e-01, -2.2112524303418743e-01,
          -5.8606501959961443e-01, -4.1910874958160310e-01,
          9.9757554236383517e-01, -5.5038334773611119e-01,
          -2.3495388020484592e-01, -1.3545061636660563e+00,
          1.8712635247696227e-01, 1.1949338833200712e-01,
          -3.5509403917612281e-01, -6.8366241459331489e-01,
          8.4040589688448064e-01, -2.8431578719865386e-01,
          4.4520407716979327e-01, -1.1930756818438850e+00,
          -6.9402420154749134e-01, -1.2699173851386372e+00,
          1.2624293215565166e-01, -5.5784926806980017e-01,
          -5.5119762305697337e+00, 3.0688751855323787e-01,
          -4.6332534789985746e-01, -4.7206282740451122e-01,
          3.3753556942094209e-01, 1.5950717407011740e-02,
          4.1242481179058715e-01, -4.4159519651954937e-01,
          1.1186474309805314e+00, -1.8510587074134066e-01,
          -1.4858055377235971e-01, -6.0148967445798962e-01,
          4.3510758928877166e-02, -1.3778070128319804e+00,
          7.8929054565492907e-01, -3.2768452831953371e-01,
          2.6476755823141511e-02, 2.1608633713508488e-01,
          3.2065483317720017e-01, -5.9066980804059843e-01,
          -5.2497510468387465e-01, 3.6399624223804650e-01,
          2.1081399925234395e-01, -9.2849730669408959e-01,
          9.9813168653826234e-01, 1.0783175776841437e-01,
          2.2348949785662101e-01, -3.2328996929454940e-01,
          1.7487159481876666e-01, -5.1286229670031314e-01,
          4.8177060196360688e-01, 4.6761140141552367e-02,
          -4.6882989749008569e-01, -1.6242553708839849e-01,
          3.8012971259295458e-01, -2.2693644959250964e-01,
          -7.5505504378606347e-01, 2.1043883678525124e-01,
          3.8256644552927166e-01, -1.5990178016617687e+00,
          8.7642425927827405e-01, 3.4374095861793130e-01,
          -9.6771214899965333e-02, 8.9795986888863782e-02,
          3.1365610668793803e-01, 4.4266884385507960e-01,
          8.2210542151317567e-02, -1.5604041885942851e-01,
          -6.1711059521388056e-01, -3.3113041444153596e-01,
          1.0712613137950655e-03, 3.6218979861487166e-01,
          -1.7740491854770718e-01, -2.7286343131665114e-01,
          1.2456523776248991e+00, -5.1382641537672324e-01,
          -4.0775804869383836e-01, -2.2614236715857169e-01,
          -8.6521281731846378e-01, -2.0175086439008283e-02,
          2.7729995263129664e-02, 4.8028713959262337e-01,
          9.5469834173844054e-02, 2.5822966362175407e-02,
          -2.9818401250104283e+00, 5.9902051331037232e-01,
          8.2374526048541202e-02, -1.5132442555871414e-01,
          -6.5266680981716052e-01, 1.6896946849099614e-01,
          4.4842762231278477e-01, -2.3370635527895266e-02,
          4.5181704815069040e-01, 3.9923114390589787e-01,
          -1.1746730990205252e+00, 6.7543918054899044e-01,
          -5.9790937049740456e-01, 4.7601322250557915e-01,
          2.2953425495356997e-01, 1.4037060451554711e-01,
          2.1442712992972894e+00, 8.6453408835423451e-01,
          -2.6569910387001511e-01, -2.0576623298117810e-01,
          -7.4622809403976331e-01, -1.9719841693397891e-01,
          8.2413932270246437e-01, -2.8903312281920962e-01,
          6.4417850787956388e-01, 4.0706173326378153e-01,
          -3.3364501304299199e-01, 1.0553759131116547e+00,
          -4.1540827694203875e-01, 4.1396243957157391e-01,
          -4.6217535862915943e-01, 1.7297347443412084e-01,
          -4.6906945832516680e+00, 6.5111466244420865e-02,
          1.4156647993724614e-01, 3.3902497714390273e-01,
          -2.6424704054317855e-01, -8.9043992697792529e-01,
          1.2242863065241374e-01, 2.9330503561812445e-02,
          -2.0800436290049077e-02, -1.2950131831009418e-01,
          -2.9465187782213947e-01, 5.2926641569102328e-01,
          -3.7971169250402120e-01, 2.3299446460258671e-01,
          9.2342615915624801e-02, 2.9112125927767979e-01,
          -1.7115022788741925e+00, -7.0401342955801105e-01,
          1.9370808031930173e-01, 8.8665311961463800e-01,
          -1.5967807637064624e-01, 1.7080192134631303e-01,
          -3.7514169546946546e-01, -4.5729826826588876e-01,
          -3.6375216306661690e-01, -8.3228816900440494e-01,
          2.1559564940267301e-01, 1.3072973592731112e+00,
          -7.0061766842830761e-02, 9.6366109714414683e-01,
          6.7079214088677716e-02, 4.3419525294435901e-01,
          -4.5159617829528189e+00, -3.1263245256090305e-01,
          1.0702590372793423e-01, -2.9421950014288187e-02,
          2.4925912693214694e-01, -4.6609000408275136e-01,
          -6.7109729085109215e-01, 1.4595238161860016e-01,
          1.0288703750185375e-01, -9.6871126168473221e-01,
          -4.6482829805875742e-01, 1.4401632240322387e-01,
          7.3780205829932100e-01, 4.1713429761238979e-01,
          8.1897967995742643e-02, 3.6866473592636856e-01,
          1.5484296440405405e+00, -5.3621827624926655e-01,
          -6.7367823131646598e-01, 1.9380122004638145e-01,
          2.3918685504399295e-01, -2.5578088716405656e-01,
          -4.3388908004190158e-01, 2.9576569292092441e-02,
          5.3557840889194752e-01, -8.0294259597877660e-01,
          1.7216039231172234e-01, 6.1268122925466649e-02,
          6.4250442108430583e-01, 1.1988973046714876e-01,
          3.7884384399061993e-01, 2.2486443409186704e-01,
          6.3125388542687393e+00, -6.1968468623250916e-01,
          -7.9691494360916204e-01, 2.0755936140145434e-01,
          3.8871845490696433e-01, -3.1710440478635471e-01,
          -1.8880483958884078e-01, -2.2398504695493049e-01,
          -1.4154410147858484e-01, 6.0195793793401065e-02,
          -2.7683524944061588e-01, -7.3877016676823148e-01,
          2.4635268940703348e-01, 2.2636866374693168e-01,
          2.4437257787564695e-01, -5.0601310453182313e-01,
          1.0131065615093704e+01, -1.2816660361864536e+00,
          -9.7292290456628994e-01, -4.9737004006752283e-01,
          2.0921750664654895e-01, 7.9890621318046418e-01,
          2.0702871456210855e-02, 7.5857798431106938e-01,
          7.9848794130931502e-02, -7.8601329934538167e-01,
          -1.2062899962545325e-02, -3.4313971165157009e-01,
          7.2955833409887261e-01, -3.5427829468011068e-01,
          -3.4013993121380043e-01, -5.4789048071284052e-01,
          6.1814631736897612e+00, 1.9412294668916069e-01,
          -7.0272537773196453e-01, -2.6012748591995966e-01,
          -5.8513230089078516e-01, 1.2405258105003529e-02,
          6.8096638687745625e-01, 3.3947545039450577e-01,
          -3.4236304398889067e-01, -1.1838577080402830e+00,
          2.1209190716925183e-01, 1.1301373619254494e-01,
          5.5042684795690722e-01, 6.8634027122140329e-01,
          1.2843038074929053e-01, -9.0634234664605429e-01,
          7.2811801757504424e-01, -4.4568554943387678e-01,
          -7.7464575006868264e-01, -2.4922503487729653e-01,
          3.0675305367792066e-01, 5.9836196688890309e-01,
          -4.3118537238083517e-02, -8.1307282436295236e-01,
          8.8916679267979992e-01, -5.7454132679992742e-01,
          4.6169157774031544e-01, -2.8705798593019699e-01,
          4.7775987394507269e-01, -9.2838339317488539e-01,
          -1.0681633503522012e-01, -2.9059220096747895e-01,
          6.3901686089239735e+00, -2.7387996430371248e-01,
          -6.4948108188008613e-01, -4.8992553205987527e-01,
          3.3346060996636118e-01, 3.6706075747683331e-01,
          -2.0570116936530081e-01, -8.7305556478376889e-01,
          1.0027946301813258e+00, -9.6060135507250322e-01,
          6.7500174125773915e-02, -3.9305756256955277e-01,
          -1.4980143836098284e-01, -1.2502954045476138e+00,
          -2.6929273820295657e-01, -2.9493477814016350e-01,
          7.3755093914728826e+00, 3.7461837691843997e-02,
          -7.2130112962365056e-01, -1.7608616306016470e-01,
          -2.8233063891079507e-01, -4.1314204577469826e-01,
          -4.0847323303840272e-01, -5.2210763888551015e-01,
          3.8806406685420664e-01, -1.4309191598032769e+00,
          1.1477723186483781e-01, -9.0412677776379724e-01,
          -1.9912949790174964e-01, -1.0326098277013740e+00,
          2.2882029844376853e-01, -6.4408130782840023e-01,
          1.2123286869221168e-01, -2.3788418457037605e-01,
          1.6646038150488936e-02, -5.7989757344594806e-01,
          4.7848242449965933e-01, -3.3158580818674932e-01,
          -1.0774097656614719e-01, -3.9808553926582113e-01,
          5.3374834863665899e-01, -4.9974739212839064e-01,
          -2.5511588727480045e-01, -1.1201532075706103e-01,
          1.8093557248192985e-01, -6.4259669347561732e-01,
          -8.5515959168235164e-02, -6.1906382652704406e-01,
          1.3501497519016195e-01, -7.1343996012964072e-03,
          -7.0695557809386211e-01, -2.4755275118850138e-02,
          4.3612933855374139e-02, 2.3616033250904814e-01,
          1.6230543130165198e-01, -5.7054287179566121e-01,
          -1.7550407131554743e-01, -7.7372126866650071e-02,
          -2.7467442039600670e-01, 2.3885093921262415e-01,
          4.6674136251966841e-01, -7.9964521757668294e-01,
          3.3239943497270152e-01, -2.9321985532491673e-01,
          3.0669391730369711e-01, -4.6991906634526959e-02,
          1.9289241278720873e-01, 7.0265366456147282e-01,
          7.5662767245830737e-02, -1.4282275171554232e-01,
          -1.4043595445842009e-03, -3.4799499928646915e-01,
          4.4934550433762305e-01, -5.1868975751369872e-01,
          -4.3188869357305470e-01, 3.7892945467798045e-01,
          3.3182105039430920e-02, 5.9169882167031770e-02,
          8.8880272408650055e-02, 2.4957947552825804e-01,
          2.4144963370575852e+00, 2.5507943360296587e-01,
          -4.0796103228957153e-01, 8.0787425120791423e-01,
          -8.1557777977171175e-01, 2.4782703746570675e-01,
          2.4475016457116708e-01, -6.0326742175631565e-01,
          -1.2563691588092407e-01, -2.9462152962775448e-02,
          -2.7214303797822315e-01, 6.0638884031620488e-01,
          1.9556387879635262e-01, 6.0894582779790374e-01,
          -4.5009158140003586e-01, 2.7612053245428114e-01,
          9.7794727540627491e-01, 6.7359207798483545e-01,
          -5.9623841807247402e-01, -1.4257505221974467e-01,
          -9.2197343610928373e-01, -7.9868292562415236e-03,
          9.4623750216861580e-01, 3.0740402314056081e-01,
          1.1819687730668029e+00, -5.6501946010931103e-01,
          -2.5029634141293378e-01, 2.9954725831278212e-01,
          -1.7133299152697060e-01, 4.1398141902388030e-01,
          6.7065376070823179e-01, 8.3554253817744473e-01,
          2.3132484283380870e+00, 5.3130979974953071e-02,
          -6.7077011723231883e-01, 1.0222843253488783e+00,
          -7.8165077217848866e-01, -2.9597833840183735e-01,
          2.2548149915830620e-01, 1.9050587470642602e-01,
          -5.9503978960117998e-01, -2.5925852742139649e-01,
          8.0007155013702369e-01, 8.4139530941559426e-01,
          5.8038273645448134e-02, 4.4086413069575586e-01,
          -2.0907555571282838e-01, -1.1916024000904097e-02,
          8.9510840515588486e-01, -3.4721204003482042e-01,
          2.7239670276114858e-01, 1.3200714367829942e+00,
          -3.1251904762660360e-01, -3.3478618393108855e-01,
          -4.7751832298122399e-01, -7.1001865613446702e-01,
          -3.3401485090160943e-01, -5.6181864964408390e-01,
          -6.6660177706030346e-02, 1.9596480675391878e-01,
          3.0028432388470389e-02, 1.1556110602515368e-01,
          2.6873738217077031e-01, 1.5609928558349601e-01,
          4.4332130672039813e+00, -8.0060743585009575e-01,
          6.0976390214824941e-02, 1.5955644314476469e-01,
          -2.1991856096942547e-01, -1.4444165757692898e-01,
          2.0662937687561569e-01, -9.6806352910364379e-01,
          5.8067492443874691e-01, -2.8749325785695062e-01,
          -8.3633286959329811e-01, -6.7528829438685356e-01,
          -1.6783758643019200e-01, 2.5588723940244029e-01,
          -3.0363144372291019e-02, -6.0901954038948485e-02,
          4.7236817355611613e+00, -2.5945261544494114e-01,
          -9.5635330805922425e-01, 6.4212735820687553e-02,
          -1.0805327236030392e-01, -8.0394105192115017e-01,
          -6.0644288727485096e-01, 6.4648304759437869e-01,
          3.4888735558626888e-01, -7.3882312236207226e-01,
          -5.1184480108382380e-01, -6.8474808026236378e-01,
          1.8580544123474177e-01, 8.3431509961224753e-02,
          -4.0882880522340979e-03, 2.9687295809255265e-01,
          3.7779398591190966e-01, 1.7250565694938119e-01,
          -7.3562315104078002e-01, 1.8351350033821853e-03,
          2.9218426809003056e-01, -8.9726136857885663e-01,
          -4.8455230790442722e-01, -1.5351548647026406e-01,
          -1.3389864524530062e-01, -6.5549232255412326e-01,
          -4.7562585578498434e-01, -4.6085139466274855e-01,
          4.8614016969043661e-01, -4.7546446701578187e-03,
          4.0003136813762202e-01, -6.6617315502069463e-01,
          1.5116701105324748e+00, 4.8573735292948372e-01,
          -1.1121878813866524e+00, -2.0262658145989629e-01,
          1.0797379269123183e-01, -7.8454630996592126e-02,
          1.9618784576460055e-01, 4.7919910740714805e-01,
          -2.1506485593151478e-01, -3.8716930743188854e-01,
          -4.4512865672511920e-01, -7.9332148565456762e-01,
          -3.8248989967107855e-01, 1.0646543425918443e-02,
          -1.1992062408934580e-02, -9.2994518547568306e-01,
          1.0445416165262872e+01, -4.3317903852094547e-01,
          -5.4023384472515201e-01, -4.1405575414914808e-01,
          -3.8179314073827864e-01, 3.1923014090070562e-01,
          6.4485342522282152e-01, 4.0045124928433362e-01,
          -3.8875931846904677e-01, -8.1404461631740177e-01,
          1.8698969867190196e-01, -2.2202453669702080e-01,
          -5.2349092246305330e-02, -4.1003742399902315e-01,
          -3.2724718999003949e-01, -2.3429180479899850e-01,
          3.7359362963602711e+00, -2.1108605685592663e-01,
          -6.1761098743943488e-01, -8.0688904222230218e-01,
          -6.2220250916158726e-01, 2.9484971954576183e-01,
          1.0902689626938911e+00, -3.2067715662141408e-02,
          2.9508324182334567e-01, -8.2711878668623917e-01,
          1.1137113366135449e+00, -1.7028077306339245e-02,
          6.6207995796830976e-01, 2.8755764254311433e-01,
          -5.3121094341404851e-01, -4.3381480737156425e-01,
          -1.5071073915377928e+00, -6.5195665016971249e-01,
          -4.6052244475749438e-01, 3.3154844421501112e-01,
          6.0741505567216691e-01, 1.6944276861237173e-01,
          -2.9329972926390707e-01, -5.6480055179336930e-01,
          6.8152731652508247e-01, -1.0177497331049037e+00,
          -4.6795360882092041e-01, -2.9709250834537554e-01,
          4.4130393531970052e-01, -8.5038632922675605e-01,
          -2.1492310212628510e-01, -3.5571966681859568e-01,
          4.6077075607319173e+00, -4.8182596441307601e-01,
          -5.0119370636987981e-01, -5.0949129394672492e-02,
          4.8864616531890642e-01, 6.2506609003664892e-01,
          -7.5446866270255888e-02, -8.6972741083160443e-02,
          4.5380441519324421e-01, -1.1102098937461846e+00,
          7.2500539237282469e-01, -3.4760093364976880e-01,
          2.4743233512579543e-01, -1.4268773886916846e+00,
          -8.1458549466358735e-02, -3.9702892812167462e-01,
          6.7893650666810847e+00, 1.1844697120356542e-02,
          -4.8733787727471750e-01, 7.9202686732522387e-01,
          -5.2994291006951089e-01, 5.6688224672152532e-01,
          7.0700148167668120e-01, -7.5841017756256224e-01,
          7.2042052931423045e-02, -6.5929909211198667e-01,
          -6.1761134109888893e-01, -2.1208761350442853e-01,
          5.9417936944358118e-01, -6.9959039860064487e-01,
          9.5272700581173181e-02, 2.3227656777762928e-01,
          3.8414446370195505e+00, -5.9836221822966007e-01,
          -1.1640050147858486e-01, -3.8222767064008906e-01,
          -9.6550377622219644e-02, -2.2131791732736153e-01,
          5.8209562866321674e-01, -4.7563462598641165e-01,
          -1.7132353290006147e-01, 1.2078998447404493e-01,
          -2.6834618625294770e-01, -2.1124438812741789e-03,
          2.0466394540173569e-01, -2.7884969640790458e-01,
          1.0156561034325268e-01, 7.4724645062608300e-02,
          5.3283973866200025e+00, -2.7303473307536791e-01,
          4.9186109005916695e-01, 9.3108187062687986e-01,
          -2.4039554371720040e-01, 7.3085950652916476e-01,
          -3.2470863621851925e-01, -9.6842248815616971e-01,
          -4.0634893577514342e-01, -9.2684697930332752e-02,
          -1.4582584103322582e-01, -6.4200261943350345e-01,
          4.9176398347626510e-01, -3.7036115765510924e-01,
          5.9589867366228599e-01, -1.0820821319176585e-01,
          3.6736664268743788e+00, 1.6537404989221866e-01,
          5.3671702816543632e-01, 6.0444289435349863e-01,
          -3.4910096978258853e-01, 6.5104817397441228e-01,
          -9.6258137051738735e-01, -2.6904424061710219e-01,
          5.9675970677717616e-01, 4.1612315124662536e-01,
          -2.2887143664284107e-01, 3.1467505670307538e-02,
          -3.8575504604618982e-01, 6.3331556403945610e-01,
          6.4044636961097645e-01, 4.1975290053859943e-01,
          6.8874203047806732e+00, 3.1294442204115386e-01,
          1.0876658769497853e-01, 6.0644637717258876e-01,
          -6.2260428233198717e-01, 6.9891362310609728e-01,
          4.6289541483141050e-01, -2.0981484087372890e-01,
          -5.3826315288786009e-01, -2.5392514275052072e-03,
          -6.2741740199729568e-01, 2.4748732184299993e-01,
          6.0910926454417724e-01, 3.9787262569830717e-01,
          -6.8187737847994673e-02, 2.5967829906287881e-01,
          7.8656187528011294e+00, -5.7048662491321001e-01,
          4.5871753275169846e-01, 8.0056288255028374e-01,
          1.2621924345195293e-01, 9.6372968499949629e-01,
          -1.9514682785249365e-01, -1.1457562320127088e+00,
          4.4382582358303592e-02, -1.0817720138956853e-01,
          -1.5095159831371501e+00, 2.9224644845015857e-01,
          8.0327238797659972e-01, 3.4238897840793930e-01,
          1.5755199593778593e-01, 1.1253826094457189e-01,
          3.5324226945979514e-01, -4.4590214991335328e-03,
          -4.8022101908110765e-01, 1.4977732761535441e+00,
          -9.1990134077842178e-01, -6.1176424015428399e-01,
          1.8258398965633052e-01, -6.1578266169687090e-01,
          5.4003205041687735e-02, -1.2129905263575964e+00,
          2.2199058705123592e-01, 2.5023815807656152e-01,
          -1.0175172038603701e-01, 3.5459274374590960e-01,
          -3.2683099450940639e-02, -5.6081364703284198e-01,
          -1.2389342321845498e+00, -1.6556911316750761e-01,
          -8.2444645483339551e-01, -3.0108410487541801e-02,
          -5.0028544137411246e-01, -1.7036952947217698e-01,
          -9.4154050582063928e-02, 1.2315878819197363e+00,
          1.8745695713451965e-01, -7.9489531334866514e-01,
          -3.6323562662770881e-01, 3.3312113587519643e-01,
          2.6930234155396510e-01, -3.5461684792402243e-01,
          3.8781998010708824e-01, 4.4874978594366544e-01,
          6.5792610514614314e+00, -2.8090401005418131e-01,
          -6.9330604217415895e-02, 4.7176805556617507e-01,
          -9.8157162741357529e-01, -4.4943937670053274e-01,
          -7.7648669172482843e-01, -4.0830687432189033e-01,
          1.8162044846546943e-01, -5.5252224424398899e-01,
          -2.2284395892457920e-01, -5.4933529126529979e-01,
          9.5725327131973048e-01, 3.6479678654275216e-01,
          1.6592336557913545e-01, 9.5307438514761575e-02,
          5.2445520998547108e+00, -4.8504063358874422e-01,
          -6.4837140245728708e-01, -4.8486660154317063e-01,
          -6.1336989252958629e-01, -5.5285623733665989e-01,
          -3.5035487280227084e-01, -3.9130082554870915e-01,
          3.7497317291845321e-02, -5.0397404835269066e-01,
          -2.9264656758067487e-01, -1.1590511375993962e+00,
          2.6408476445251178e-01, -4.2725754233095947e-01,
          -1.0029125418713021e-02, -2.1463010204943189e-01,
          -1.5607129284397496e+00, 8.7968411537552929e-02,
          -1.1568876019988668e+00, -3.1377826180800072e-01,
          -6.4679252203674320e-02, 2.0929424227310753e-01,
          -1.2772131548058074e-01, -2.8489955013940221e-01,
          -4.2602379201892449e-01, -9.7565851281709981e-01,
          9.1103173908582902e-01, -6.3488583628874506e-01,
          -6.8105494054005589e-01, -2.3119294067730814e-01,
          -4.0497334657222613e-02, -4.5680008399694555e-01,
          4.6429910373729183e-01, -1.9202806615252313e-01,
          -1.1362752422972058e+00, -3.5656718440250583e-02,
          -1.5455883479202387e-01, 5.1822133872802156e-01,
          -1.5262046877681715e-01, 8.0087366147216260e-02,
          6.0377414942498096e-03, -6.5332983444350434e-01,
          -1.8047823423991142e-02, -4.7436109220061246e-01,
          -1.1433262325957022e-01, -7.2964667124921767e-01,
          -1.5230737590005478e-01, -1.1141966842453674e+00,
          5.4728543507245586e+00, -6.1124268577921581e-02,
          -6.7181221964286886e-02, -1.1104127979888105e+00,
          6.0615248325810067e-01, -1.0453630481565560e-01,
          6.3793060782015756e-02, -4.2528356358689866e-02,
          2.3182318650867774e-03, -2.2636694362904486e-01,
          6.5823062791068088e-01, 2.3226908425059420e-01,
          4.4479886317494680e-02, -6.1022175706215487e-01,
          2.1644752643833986e-02, -3.3579960443745827e-01,
          1.4362462016822644e+00, -3.1523827836804319e-01,
          -8.0790941665435800e-01, -8.2297129272659264e-01,
          -5.1238610847955579e-01, -9.4742267803122324e-02,
          4.2960283577481106e-01, 2.7826819435055574e-02,
          6.0323718737346921e-01, -7.5681488938266206e-01,
          1.5514908418995910e+00, 3.6931953505513387e-01,
          7.5658843696180389e-01, 1.0031631272999976e-02,
          -4.7399499619790419e-01, -2.7783648920980769e-01,
          -7.0421634548148724e+00, -7.7591288887345222e-01,
          -6.1971030719639011e-02, 9.4357436744566564e-02,
          7.3790609992455791e-01, -5.8758732821338300e-01,
          5.1547496734960618e-01, 9.7729494778602446e-02,
          4.0413423069360876e-01, -4.8666580089475597e-01,
          -3.5468299371410988e-01, -1.9400658066698753e-01,
          -1.3100438930214509e-01, -2.9463368709782162e-01,
          -9.2427758314870281e-02, -8.0780064693827724e-01,
          7.7122131587458531e+00, -1.0466769683743797e+00,
          -4.5084548110000444e-01, 8.7672199704560957e-02,
          4.6483790960959842e-01, 1.3798607749881635e+00,
          -3.6291399201959962e-01, 8.1360910034542183e-02,
          2.0141487887868195e-01, -8.6406164513205241e-01,
          -4.6084969821298555e-01, -5.1786539576151569e-01,
          3.5194884074993149e-01, -6.0569137992092881e-01,
          -2.6377593522979853e-01, -6.1482862157155749e-01,
          7.2890155254202327e+00, -7.4046097901893115e-01,
          4.2458371371066318e-02, 4.6005605530549082e-01,
          -4.6264603921739797e-02, 1.7273153596044588e+00,
          -2.1541409598810732e-01, 1.2166211611501462e-01,
          7.8770212644475771e-02, -1.1971821681616324e+00,
          -2.1657719684915391e-01, -1.8248234743768799e-02,
          -2.6330276628951699e-02, -2.0218835474841940e-01,
          -3.2064017531185857e-01, 6.2187987077728143e-02,
          6.5087722492267783e+00, -3.9919882462244416e-01,
          -1.4257697463729396e-01, 7.0469344706493731e-01,
          1.3735174316658064e-01, 6.9248948804616128e-01,
          -6.5666372216332924e-01, 3.9027702004143844e-01,
          -4.6061728167589466e-01, -9.4200116744321338e-01,
          6.5083912419284806e-01, 1.4627404777208830e-01,
          3.7534476815619683e-01, 2.6449769555065333e-01,
          1.3306356225013994e-02, 4.6451317336160376e-02,
          3.9563003710031452e+00, -2.1206696802787858e-01,
          -1.3120009290239940e-01, 5.9733039833614077e-01,
          2.4108621388259613e-01, 9.2151655890874384e-01,
          -3.6898768969024297e-02, -1.2979604875914901e+00,
          2.6279194094198682e-02, -7.5173660572372913e-01,
          -2.3447269940435386e-01, -3.4390310066848034e-01,
          -2.5892708240034612e-01, -6.2729057108502151e-01,
          4.7012578395550358e-01, 3.1933902298111899e-01,
          4.0884592492216356e+00, 4.1670716549521813e-01,
          1.6106841010731113e-01, 8.8916035903740087e-01,
          4.4972350216721119e-01, 9.1405969973189571e-01,
          -6.8294636398782860e-01, -6.3637746936246431e-01,
          8.4016671860580733e-02, -4.8670383055316241e-01,
          5.6494791578302499e-02, 1.3417693019217133e-01,
          3.5345131723361556e-01, 4.9277764782197458e-01,
          6.3168357854532550e-02, 4.8344989749255768e-01,
          6.3226087295809794e+00, 1.3423276323388963e-01,
          1.5646726203795008e-01, 1.5329168395159207e+00,
          2.8790552752076459e-01, 5.0100939255749777e-01,
          -6.2839723273978099e-01, -5.0324471537091597e-01,
          -5.5694740682040311e-01, -7.2129774386380408e-01,
          -3.9593519793422782e-01, 7.1666411483525028e-01,
          4.1733106253671221e-01, 1.3631467291669616e-01,
          4.9772743454948692e-01, 1.1272039552096420e-01,
          4.7674341199802039e-01, -1.7507446042468750e-02,
          1.0256082133862090e+00, 9.7874372029913936e-01,
          -6.3818402674682662e-01, 1.2370882971840630e-01,
          -6.0443847551330288e-01, 3.2926928776181599e-02,
          -2.6697118991771929e-01, -8.2124379541346559e-01,
          -8.4574929089836792e-01, 1.2771716090163225e+00,
          5.1940919375651059e-03, 5.1283106572685233e-01,
          -5.2442613519864650e-02, 7.6312359217780609e-02,
          -2.0280246730539115e+00, -4.2331594891907159e-01,
          2.5243539202691440e-01, 1.0904547114509213e+00,
          -1.5487418599960696e+00, -6.9745634187277625e-02,
          7.3306041367784447e-01, -2.0920756639863489e-01,
          -4.2091930631654828e-01, -3.2389677819414980e-01,
          -6.0677502539658745e-01, -3.9439091409890514e-01,
          7.7141268859849482e-02, 4.4860769346745549e-01,
          8.0117214509345325e-01, -3.1711789172477428e-01,
          -5.3159937232153998e-01, -2.3961339277573626e-01,
          -2.2283090493656565e-01, 3.6310165848533760e-01,
          -7.5572240512333266e-01, -9.5517758292676425e-01,
          1.3286248302696993e-01, -9.4679197038181007e-02,
          -2.3050299637250121e-01, -1.0699299842315704e+00,
          -1.1092114999183669e+00, -9.8844779130636343e-02,
          -4.2093475612850684e-01, 2.7842310825076777e-01,
          7.1912533313864574e-02, 1.2276614430972527e-01,
          7.2636755083357185e+00, 2.3989299158837957e-01,
          -1.0615600922815418e+00, -1.2455704012541544e-01,
          -9.1479568638643849e-01, 2.6594915453645068e-01,
          -3.5113273794193023e-01, -1.3654406703709684e-01,
          -2.0724976034834705e-01, -1.2110502423266591e+00,
          -3.1525334925325527e-01, -2.7901610491452489e-01,
          1.4172013306198164e-01, 3.9416084582655680e-01,
          -1.2644301927365641e-02, -1.2971669337691996e-01,
          4.1938935895108651e+00, 1.5708816652974955e-01,
          -7.2478494942488925e-01, -3.2250605472707261e-01,
          -3.6515317127501773e-01, -1.9726868320418942e-01,
          -5.4456421634118057e-01, -8.9508418535753720e-01,
          2.8840994981637471e-02, -1.1255954945574107e+00,
          -4.8908269623093720e-01, -6.3929083923489982e-01,
          3.1791924015166378e-01, -6.4622010604904201e-01,
          1.1394475184847785e-01, 3.6973197867613822e-01,
          -1.0270612213899075e-01, -2.5607741055351174e-01,
          -1.6685211946506164e+00, -7.8214604553625278e-01,
          -8.1084132145932297e-01, -6.9840286119125128e-01,
          1.1316771316660490e-01, 1.6038417146220352e-01,
          -2.6081608601373174e-01, -2.4043351151625031e-01,
          1.9244329774891628e-01, -6.4031394476924375e-01,
          5.5942234186514395e-02, -3.9240505381402446e-01,
          1.7000684925502044e-01, 2.6256197548407878e-01,
          3.1052246350612469e+00, 3.7951295973974813e-01,
          -1.4488289733895130e+00, -8.1344411582106191e-01,
          -1.1080246538767480e+00, 7.3892145604005394e-02,
          -1.9390091443194971e-01, 3.2947837632543220e-01,
          -2.1128421956667681e-01, -7.2272876483469994e-01,
          7.8161833707040052e-01, 5.8932574153023075e-02,
          -3.4676241657237561e-01, 9.2971175506446097e-02,
          -2.7510861454632446e-01, -4.9694106477936550e-01,
          9.5669994400350877e-01, 1.9345523972126305e-01,
          2.9034578258363813e-01, -8.9844705344107767e-01,
          -1.4165247967866115e-01, -2.9513207732143981e-01,
          8.5720032889127440e-01, -1.7301272120490716e-01,
          -4.5156332067951988e-01, -9.5337967797159329e-01,
          1.7277281079697160e-01, 7.0105978330288299e-01,
          -4.0472343717783882e-01, 3.7728859792478969e-01,
          -4.5940109409180524e-01, -8.6223212395514071e-01,
          1.0950683952595845e+00, 3.6698811023245659e-01,
          -7.5022414570301232e-01, -2.3998022340347633e-01,
          2.4823111548601687e-01, -2.8850577925632270e-01,
          7.4012430722244082e-01, 5.5306190001746225e-01,
          -1.2693491398504475e-01, -3.4925025025249945e-01,
          7.9725038052355313e-01, 7.3530891336252224e-01,
          3.2056452627813503e-01, 1.6274480701803035e-01,
          -9.4478004993497033e-01, -5.7763893361897933e-01,
          -7.3475387999474515e+00, 1.8778320819193220e-01,
          4.5938699619714823e-01, -3.3563472991670901e-01,
          7.0781497990376085e-01, -4.6733523719795333e-01,
          9.1668168048592333e-02, 2.2257525502045139e-01,
          3.6189414362622834e-04, 3.1704792233226364e-01,
          6.8237130986234928e-01, -2.2876048155121109e-01,
          -1.9268439830994293e-02, 5.5588105822784450e-01,
          -6.2665776730583114e-02, -8.7917568302888505e-01,
          4.9839453226166066e+00, 8.8157643144045009e-03,
          9.7755384286525845e-02, 4.5288320701079865e-01,
          1.3547690900679929e-01, 6.6569901012055410e-01,
          2.5097928483384092e-02, -2.0658545092770839e-01,
          -1.1504535270954659e-01, 4.8631986975481364e-02,
          2.9243964987446414e-01, -1.0025114904208163e-01,
          4.6584969845584762e-01, 7.2539219173373332e-02,
