%YAML:1.0
my_nn: !!opencv-ml-ann-mlp
   layer_sizes: !!opencv-matrix
      rows: 1
      cols: 3
      dt: i
      data: [ 256, 16, 52 ]
   activation_function: SIGMOID_SYM
   f_param1: 1.
   f_param2: 1.
   min_val: -9.4999999999999996e-01
   max_val: 9.4999999999999996e-01
   min_val1: -9.7999999999999998e-01
   max_val1: 9.7999999999999998e-01
   training_params:
      train_method: BACKPROP
      dw_scale: 1.0000000000000001e-01
      moment_scale: 1.0000000000000001e-01
      term_criteria: { epsilon:1.0000000000000000e-04, iterations:10000 }
   input_scale: [ 1., 0., 3.0384797353351339e-02,
       -2.7458853904510094e-01, 2.1245397556730036e-02,
       -3.9028582178289251e-01, 2.0364597098269856e-02,
       -4.5254660218377457e-01, 1.7358280216008954e-02,
       -7.0268889911473287e-01, 1.0044082655105081e-02,
       -8.0092259097930518e-01, 9.8942448064159479e-03,
       -9.8502703850540996e-01, 9.2834485428721011e-03,
       -9.7510592842908439e-01, 8.9025712099007424e-03,
       -9.9477990149150153e-01, 9.3246732566465186e-03,
       -7.9225186854618934e-01, 1.1964319768107140e-02,
       -6.5006137406715458e-01, 1.3637083703411773e-02,
       -4.5608468830299370e-01, 1.5145678401750058e-02,
       -5.0149024041350199e-01, 1.5642811398834711e-02,
       -3.9686391882228805e-01, 3.1751436774132835e-02,
       -3.2692220085958990e-01, 2.6475678243654848e+00,
       -1.9611613513818404e-01, 1.0806399283124427e-01,
       -1.9611613513818404e-01, 1.2355045128088049e-02,
       -4.1275002613094147e-01, 1.1873389957517751e-02,
       -5.9147072195782868e-01, 8.7965235016013946e-03,
       -8.0243842164608281e-01, 8.3861430785030153e-03,
       -1.0603812025929369e+00, 8.4305460209543014e-03,
       -1.2708267520475558e+00, 8.4632146739083737e-03,
       -1.2795126777368142e+00, 8.4343805150216070e-03,
       -1.2729666888412241e+00, 8.1584185729640137e-03,
       -1.1044081438586471e+00, 8.3166219688573656e-03,
       -1.0161679953800167e+00, 8.7051901037976439e-03,
       -8.7084142482805316e-01, 9.5013706422525154e-03,
       -6.3553612518177938e-01, 1.0386991142748190e-02,
       -5.7205391960246510e-01, 1.0173836055118981e-02,
       -5.1057584646985998e-01, 1.4164638160902500e-02,
       -3.9870833341799633e-01, 4.4323205405133674e-02,
       -2.3474882862718949e-01, 2.8568981346019869e-02,
       -2.9838713850287418e-01, 1.3367719211167054e-02,
       -4.1588459768075281e-01, 1.0502613887771631e-02,
       -6.2821190476856237e-01, 8.9206927274337409e-03,
       -8.3491076008240972e-01, 8.1649941833346982e-03,
       -9.6135246328966695e-01, 8.3350334482902265e-03,
       -1.0406443612661611e+00, 8.7816223089000906e-03,
       -9.9297381144711028e-01, 8.9141618366407778e-03,
       -9.9013227215132193e-01, 8.6090146020921920e-03,
       -9.6261537347097503e-01, 8.6971709922899834e-03,
       -1.0056506606640492e+00, 9.0186417596557367e-03,
       -9.2424376848027490e-01, 1.0666295906747156e-02,
       -7.4387537749647759e-01, 1.0209713513748353e-02,
       -5.4451805406657883e-01, 1.2441313105751776e-02,
       -4.0825938561837311e-01, 1.3761660939840438e-02,
       -3.8073928600225215e-01, 2.0795148569961393e-02,
       -2.1257262982627201e-01, 1.9585704443961956e-02,
       -2.9523635958120431e-01, 1.1126331219157123e-02,
       -4.8049267413100760e-01, 9.5063622080430558e-03,
       -6.8551434144666035e-01, 8.8236990346760268e-03,
       -8.1864318821716464e-01, 8.6799042947836528e-03,
       -8.4259367246770200e-01, 8.9969825182113980e-03,
       -1.0079952636144252e+00, 1.0228006512096655e-02,
       -7.9399635738350327e-01, 8.5882337227410014e-03,
       -8.9953796177450196e-01, 8.6005127672389957e-03,
       -9.6994671763862006e-01, 8.9739059237677124e-03,
       -8.2759354630302240e-01, 8.6050681831074498e-03,
       -7.8847921055584558e-01, 9.1004034961190330e-03,
       -8.0184666360248813e-01, 9.5396915180750823e-03,
       -5.4482238225451030e-01, 1.2579976480449642e-02,
       -4.5194730318652415e-01, 1.4863875661676589e-02,
       -3.3195988977744378e-01, 3.5089386013331295e-02,
       -2.0663749541183987e-01, 1.8196639970410725e-02,
       -2.7901514621296447e-01, 1.0427483953084878e-02,
       -5.0747088571679733e-01, 9.6448404440690038e-03,
       -7.3336509006198758e-01, 8.6313995114738577e-03,
       -8.9734586772989322e-01, 8.6080231135856507e-03,
       -8.6654099343428892e-01, 9.1581647546262798e-03,
       -8.4933498316978540e-01, 1.1597685631958744e-02,
       -5.0084820173569977e-01, 9.9002878605546178e-03,
       -7.4068820290075288e-01, 9.6474112051611396e-03,
       -8.3325047890502879e-01, 1.0397990634834438e-02,
       -7.0590803087598231e-01, 9.1459562926331176e-03,
       -7.2015937326437074e-01, 9.8530329663878320e-03,
       -6.3606801705237004e-01, 9.6988077017341849e-03,
       -5.4385166149724284e-01, 1.1021221587895650e-02,
       -4.5187008510372167e-01, 1.4825710439327091e-02,
       -3.4593324358429878e-01, 6.6189195609137119e-01,
       -1.9611613513818404e-01, 2.0788367335347932e-02,
       -2.0480391522972405e-01, 1.0956402735891338e-02,
       -6.1437013859775880e-01, 8.5580196528340959e-03,
       -7.8385120746143411e-01, 8.3756560395811773e-03,
       -9.7529861438678600e-01, 8.4744627291628641e-03,
       -9.0833685697027144e-01, 9.0894892428235573e-03,
       -9.0154267378820330e-01, 9.3704889170681330e-03,
       -6.0838766931927546e-01, 9.0982827926575707e-03,
       -7.4100458744644437e-01, 9.1031050954959655e-03,
       -7.0329915663720677e-01, 9.5678819356663433e-03,
       -7.1794551117259298e-01, 9.4591291068967850e-03,
       -8.1278442696298303e-01, 8.9520637192002719e-03,
       -7.5628360531465999e-01, 1.0207028419027563e-02,
       -5.4739915373155223e-01, 1.2040751838239648e-02,
       -4.8118411975779929e-01, 1.4963890071744926e-02,
       -3.7520568809523386e-01, 3.0279525413951573e-02,
       -2.0522789447233844e-01, 2.0812143098291991e-02,
       -2.1891291258944170e-01, 9.6645985916572925e-03,
       -6.3929529943333052e-01, 8.4435908173834881e-03,
       -8.2215556514448851e-01, 8.7185556330561190e-03,
       -1.0039255356730177e+00, 9.8976652731612019e-03,
       -1.0410877546584376e+00, 9.3717961670921092e-03,
       -7.6085100734318167e-01, 9.2607776054110403e-03,
       -7.1753876853777399e-01, 9.0484931338177723e-03,
       -7.2220380382878879e-01, 9.6915621907094646e-03,
       -6.8092198058429088e-01, 1.0477803292082304e-02,
       -7.3228203007997428e-01, 8.4716415072285164e-03,
       -8.5908720173302511e-01, 8.6273332752474039e-03,
       -8.6944347562771052e-01, 9.8989902774966974e-03,
       -5.5067716284444590e-01, 1.1077119073021590e-02,
       -4.6113636437319505e-01, 1.4948887441385525e-02,
       -3.0894367378863419e-01, 8.6498484421005786e-02,
       -2.2105168240923700e-01, 2.0808211882018722e-02,
       -2.2118358556071752e-01, 9.6815731695500777e-03,
       -5.8304585087734917e-01, 9.0124367312994103e-03,
       -7.9910272350854772e-01, 8.8703579621079026e-03,
       -1.0496590255161018e+00, 9.2055342942544537e-03,
       -8.9702817511790622e-01, 1.0091803055643679e-02,
       -6.0363933092090893e-01, 8.6338810367446728e-03,
       -7.1469348581942005e-01, 8.9725104606781896e-03,
       -8.3411115764082433e-01, 1.0594291371340927e-02,
       -7.1177942768934976e-01, 9.2940497680679135e-03,
       -7.5694871999930891e-01, 8.4643532698351186e-03,
       -8.5019726177010524e-01, 8.8500913806699357e-03,
       -7.5356889200593269e-01, 9.7253174366818407e-03,
       -6.2962425478962447e-01, 1.2385597358800156e-02,
       -4.0918343866850887e-01, 3.4840827019902439e-02,
       -2.7098421015479673e-01, 1.2960414739907622e+00,
       -2.4000768036865966e-01, 1.5026696099429486e-02,
       -3.0053392198858975e-01, 9.4580507379482936e-03,
       -6.0741703628156829e-01, 9.0735970099933769e-03,
       -8.7946679167232100e-01, 8.4038428748867914e-03,
       -1.0146862137826274e+00, 8.9757265543554138e-03,
       -9.1053759379183252e-01, 9.0837846218858095e-03,
       -7.5193550481165861e-01, 8.4919794698538314e-03,
       -9.0486759017664720e-01, 8.1308226086785375e-03,
       -1.0359270286612654e+00, 8.1117562890654655e-03,
       -9.3645719825989093e-01, 8.6266956102007009e-03,
       -8.4222109735144624e-01, 9.2413331660925468e-03,
       -7.3896438168865952e-01, 9.3020176633804193e-03,
       -7.4553948976130480e-01, 9.9588358225979525e-03,
       -5.6876017920170530e-01, 1.6375164688178675e-02,
       -3.9542990284046281e-01, 3.3829327637476647e-02,
       -2.6311699273592948e-01, 3.5067123501529594e-02,
       -1.9611613513818402e-01, 1.5045287607547442e-02,
       -3.1427934113543549e-01, 9.4687543973826192e-03,
       -6.6702114310450888e-01, 8.9960266328241983e-03,
       -8.7194821104077502e-01, 8.3504828927490199e-03,
       -1.0113362614551591e+00, 9.2968416028612281e-03,
       -9.5723035762793385e-01, 1.0076829799548539e-02,
       -6.7925297167327192e-01, 1.1478394656098883e-02,
       -6.7509965606981581e-01, 9.3129774169553921e-03,
       -7.9022338008314086e-01, 9.7944526204305875e-03,
       -8.3397950275444155e-01, 1.0356673208201933e-02,
       -6.6551214874927234e-01, 1.1436338007741555e-02,
       -6.8829812083629727e-01, 9.7942244963800783e-03,
       -5.7386900567678834e-01, 9.3298770301284990e-03,
       -6.3028502603534753e-01, 1.2727690136672883e-02,
       -4.0115793727068977e-01, 2.0537302227044356e-02,
       -2.5405403495677092e-01, 2.0765237838160665e-02,
       -1.9611613513818407e-01, 1.2742686646144115e-02,
       -3.8086474531252967e-01, 9.1266709374132754e-03,
       -6.5238795960028229e-01, 8.8770885160656815e-03,
       -8.7948932520280365e-01, 8.5151320331065435e-03,
       -1.0315924770478335e+00, 9.3381352091810449e-03,
       -8.8124327825901116e-01, 1.0185983163115206e-02,
       -6.3530354246985221e-01, 1.1180717569008439e-02,
       -5.3833084591522107e-01, 9.5638666845381509e-03,
       -6.3546580859486823e-01, 9.6184542806604361e-03,
       -6.1273116158281293e-01, 1.0699405449237443e-02,
       -6.9070606288966163e-01, 9.4376292413446104e-03,
       -5.7919080195955630e-01, 9.5332802244649309e-03,
       -5.8082392478684486e-01, 9.1533964843126328e-03,
       -6.3666957768663424e-01, 1.4334586800386896e-02,
       -3.8491020112149998e-01, 1.7871446401143298e-02,
       -2.7535265566205969e-01, 1.7081082737841835e-01,
       -1.9611613513818404e-01, 1.4073357746396394e-02,
       -3.4505788252275604e-01, 9.6836913213776167e-03,
       -5.9178113630640994e-01, 8.5991822682069848e-03,
       -9.6056050818193583e-01, 8.1985576179956308e-03,
       -8.9364278036152378e-01, 8.7357728148398754e-03,
       -9.0366716562399152e-01, 9.1090245382716567e-03,
       -8.4646453950087353e-01, 9.3882920589454470e-03,
       -7.5558365348475764e-01, 8.7944197049313350e-03,
       -9.4719157414593791e-01, 9.4066491683140133e-03,
       -6.8320144515051040e-01, 1.0918824933673585e-02,
       -6.0538818243367987e-01, 9.4308437444156189e-03,
       -6.7063777738066621e-01, 9.2320561027690509e-03,
       -6.2880559899971422e-01, 1.0705406996696280e-02,
       -6.1417316436601999e-01, 1.3159723165747242e-02,
       -4.4889277909826708e-01, 2.0765237838160665e-02,
       -1.9611613513818407e-01, 1.4708710135363803e-01,
       -1.9611613513818404e-01, 1.6813650154309041e-02,
       -3.3627300308618080e-01, 9.8828392383110506e-03,
       -5.9004210563545978e-01, 8.5916506498178377e-03,
       -8.0602411466624380e-01, 8.9408071294050408e-03,
       -9.0037239203156694e-01, 8.4826996752157425e-03,
       -8.4292900846680874e-01, 8.6990206313236826e-03,
       -1.0996206449891752e+00, 8.8979039226921852e-03,
       -1.0835669665856260e+00, 8.6961153584979196e-03,
       -1.1482093056683365e+00, 1.1121839011871304e-02,
       -7.9376976947688893e-01, 1.0231852659040119e-02,
       -5.8700517662419061e-01, 9.2549424822679777e-03,
       -6.8555129498281320e-01, 9.2971259955321028e-03,
       -6.4219036969138410e-01, 1.0811003417183995e-02,
       -6.2263371532300416e-01, 1.0970681706427942e-02,
       -4.8839849670838464e-01, 1.3370439750885617e-02,
       -3.5109784382881121e-01, 1.8896437034770862e-02,
       -2.7154879887004052e-01, 1.5151152542442052e-02,
       -2.9236112868934483e-01, 1.0043567018463755e-02,
       -5.8364283896183822e-01, 1.0172888575570227e-02,
       -6.2845844977967180e-01, 9.0102886157491634e-03,
       -7.6954539066361372e-01, 8.7375392204980893e-03,
       -8.8864009998102800e-01, 8.3990743693173782e-03,
       -1.1578279556518252e+00, 8.7742714037853022e-03,
       -1.1890762617203858e+00, 8.3988850007101438e-03,
       -1.2999607562210256e+00, 8.4367799383776709e-03,
       -9.5616839301613599e-01, 8.4966850746272613e-03,
       -9.1071876318412204e-01, 8.3470049421087433e-03,
       -9.5279515672515358e-01, 8.5579422727977625e-03,
       -8.7512883759980076e-01, 1.0040444319319818e-02,
       -7.3034935715348603e-01, 1.0398743275554135e-02,
       -5.8656614846922028e-01, 1.1164465929334082e-02,
       -4.2921169017217692e-01, 1.4989007465769113e-02,
       -2.8756688397290375e-01, 1.7411710583473097e-02,
       -3.1856981586058186e-01, 1.3404028920330999e-02,
       -3.8524172008062424e-01, 1.2425090971546301e-02,
       -4.7123307980975598e-01, 9.5921793803011891e-03,
       -6.2455745742849966e-01, 9.3902643404501582e-03,
       -7.5887247373563871e-01, 8.4530111432856072e-03,
       -9.8524540992295584e-01, 8.6384375377929670e-03,
       -1.0270142406042750e+00, 8.4621496835134164e-03,
       -1.2780980151617671e+00, 8.1543277526667287e-03,
       -1.0262372482800572e+00, 8.1344063040471436e-03,
       -9.9661540939955373e-01, 7.9124555951765353e-03,
       -9.8114449380189039e-01, 8.0999114684514734e-03,
       -8.3999081895052319e-01, 9.3302981652237296e-03,
       -7.4124035423721846e-01, 9.9410682757986920e-03,
       -5.9094128083914443e-01, 1.0991825377977684e-02,
       -4.8811846771093492e-01, 3.6967229561958651e-02,
       -2.6424723353548218e-01, 4.5558736576686215e-02,
       -2.5647881332060390e-01, 2.0014138434822006e-02,
       -2.4906483385556275e-01, 2.0779955502004857e-02,
       -2.0087290318604695e-01, 1.4442769763345509e-02,
       -3.4127730033386794e-01, 1.3021752437782757e-02,
       -4.5576133532239649e-01, 1.0250622665144224e-02,
       -5.3189342051359467e-01, 9.4246802781785977e-03,
       -6.1330234254665916e-01, 8.6983849951413356e-03,
       -7.0553567182813059e-01, 9.0189949660108258e-03,
       -7.5325309808720042e-01, 9.1542771425982550e-03,
       -7.7709641521611850e-01, 9.1158230739448592e-03,
       -8.0320529973758592e-01, 9.0330309548951673e-03,
       -6.9855439384522622e-01, 1.0514811164076279e-02,
       -5.3197155741215552e-01, 1.4063873492214048e-02,
       -3.8597519473076330e-01, 1.6921233008686198e-02,
       -3.4093150950834417e-01, 6.6189195609137119e-01,
       -1.9611613513818404e-01 ]
   output_scale: [ 5.2631578947368418e-01, 4.9999999999999994e-01, 1.,
       0., 1., 0., 1., 0., 1., 0., 1., 0., 1., 0.,
       5.2631578947368418e-01, 4.9999999999999994e-01, 1., 0., 1., 0.,
       1., 0., 1., 0., 5.2631578947368418e-01, 4.9999999999999994e-01,
       1., 0., 5.2631578947368418e-01, 4.9999999999999994e-01, 1., 0.,
       5.2631578947368418e-01, 4.9999999999999994e-01, 1., 0., 1., 0.,
       1., 0., 5.2631578947368418e-01, 4.9999999999999994e-01,
       5.2631578947368418e-01, 4.9999999999999994e-01,
       5.2631578947368418e-01, 4.9999999999999994e-01, 1., 0., 1., 0.,
       5.2631578947368418e-01, 4.9999999999999994e-01,
       5.2631578947368418e-01, 4.9999999999999994e-01,
       5.2631578947368418e-01, 4.9999999999999994e-01,
       5.2631578947368418e-01, 4.9999999999999994e-01,
       5.2631578947368418e-01, 4.9999999999999994e-01, 1., 0., 1., 0.,
       5.2631578947368418e-01, 4.9999999999999994e-01,
       5.2631578947368418e-01, 4.9999999999999994e-01, 1., 0., 1., 0.,
       5.2631578947368418e-01, 4.9999999999999994e-01, 1., 0.,
       5.2631578947368418e-01, 4.9999999999999994e-01,
       5.2631578947368418e-01, 4.9999999999999994e-01, 1., 0.,
       5.2631578947368418e-01, 4.9999999999999994e-01,
       5.2631578947368418e-01, 4.9999999999999994e-01, 1., 0., 1., 0.,
       1., 0., 5.2631578947368418e-01, 4.9999999999999994e-01, 1., 0.,
       1., 0., 1., 0., 1., 0., 5.2631578947368418e-01,
       4.9999999999999994e-01 ]
   inv_output_scale: [ 1.8999999999999999e+00, -9.4999999999999996e-01,
       1., 0., 1., 0., 1., 0., 1., 0., 1., 0., 1., 0.,
       1.8999999999999999e+00, -9.4999999999999996e-01, 1., 0., 1., 0.,
       1., 0., 1., 0., 1.8999999999999999e+00, -9.4999999999999996e-01,
       1., 0., 1.8999999999999999e+00, -9.4999999999999996e-01, 1., 0.,
       1.8999999999999999e+00, -9.4999999999999996e-01, 1., 0., 1., 0.,
       1., 0., 1.8999999999999999e+00, -9.4999999999999996e-01,
       1.8999999999999999e+00, -9.4999999999999996e-01,
       1.8999999999999999e+00, -9.4999999999999996e-01, 1., 0., 1., 0.,
       1.8999999999999999e+00, -9.4999999999999996e-01,
       1.8999999999999999e+00, -9.4999999999999996e-01,
       1.8999999999999999e+00, -9.4999999999999996e-01,
       1.8999999999999999e+00, -9.4999999999999996e-01,
       1.8999999999999999e+00, -9.4999999999999996e-01, 1., 0., 1., 0.,
       1.8999999999999999e+00, -9.4999999999999996e-01,
       1.8999999999999999e+00, -9.4999999999999996e-01, 1., 0., 1., 0.,
       1.8999999999999999e+00, -9.4999999999999996e-01, 1., 0.,
       1.8999999999999999e+00, -9.4999999999999996e-01,
       1.8999999999999999e+00, -9.4999999999999996e-01, 1., 0.,
       1.8999999999999999e+00, -9.4999999999999996e-01,
       1.8999999999999999e+00, -9.4999999999999996e-01, 1., 0., 1., 0.,
       1., 0., 1.8999999999999999e+00, -9.4999999999999996e-01, 1., 0.,
       1., 0., 1., 0., 1., 0., 1.8999999999999999e+00,
       -9.4999999999999996e-01 ]
   weights:
      - [ -7.0663511885764698e-03, -3.1319616385449660e-03,
          -8.2230975538369637e-04, -6.5059386202973336e-03,
          -7.6566506050802204e-03, -2.5135917027173738e-03,
          7.3853611719644219e-03, 7.9154135231619127e-03,
          -6.6065326771522596e-03, 5.6815807848128097e-03,
          -2.8859582044450205e-03, -1.4997155772638029e-04,
          -3.8116735313184925e-03, 1.6491189986482799e-03,
          2.4628472888740698e-03, -7.0593483148477399e-03,
          -1.1823096156862425e+01, -1.5087408201108880e-03,
          -1.0848420157722390e-01, 1.0832121704397828e-01,
          -2.3578388181068388e-01, -1.0698011042731619e-01,
          -2.6200527513176403e-01, 2.6244578593080886e-01,
          5.0144460547287238e-02, -1.0485860082981266e-01,
          4.9434993618066948e-02, -5.3219139431611939e-02,
          -1.2993480453689638e-01, 3.5757198924630321e-02,
          -1.6346539238161828e-01, 1.6893577826250256e-01,
          -7.1637774548684936e+00, 2.1144930442962794e-02,
          -1.1819447706914257e-03, 1.4736143863090440e-01,
          -2.7852444406918048e-01, -1.4271998096059563e-01,
          -2.7671229564361532e-01, 1.8815611330606261e-01,
          3.5961278486930849e-02, -1.1495953874802727e-01,
          -4.0005571209349715e-02, -6.0755607287129941e-02,
          -1.0341244939075525e-01, 1.3410229330528989e-01,
          -1.0327681765483454e-01, 1.4742415012107829e-01,
          3.9740650564804814e-01, 1.2194163558097180e-01,
          2.0844336332864102e-01, 1.2177222294880199e-01,
          -2.3424102950410453e-01, -1.8434043714993167e-01,
          -2.1722715265806558e-01, 1.4583689301399805e-01,
          1.8538814214783483e-01, 9.7674661701288995e-02,
          -1.3624249210190365e-01, -1.7326866174172145e-01,
          -2.6490385354876560e-02, 7.0612637122071692e-02,
          -1.3627536373096999e-01, 1.0026716218640674e-01,
          4.3057004019646810e+00, 2.3050998994596478e-01,
          2.0499125886186267e-01, 3.0143260915973047e-01,
          4.3138350048705643e-02, -2.2085674552601145e-01,
          -4.7559334124296720e-02, -1.5318571739854933e-01,
          1.0621470348236484e-01, 2.1618759232141249e-01,
          7.4587311858822725e-02, 6.1468981375451780e-02,
          -4.1257087807992001e-03, 1.8580342985394932e-01,
          -2.8609616970315187e-02, -2.4967872808935712e-02,
          2.6002798319943760e-01, 2.8325271833159421e-01,
          1.0894289665052731e-01, 4.5782895996076756e-01,
          -8.8287806219269641e-02, 1.1270027932395750e-01,
          1.6192631316088016e-01, -1.8288342828380125e-01,
          8.4117041598419290e-02, 2.4126332184297022e-01,
          4.8778000736212933e-02, 8.0987753440276092e-03,
          5.8818617864988848e-02, 2.5853102794235716e-01,
          1.3363136548993812e-01, -1.8823081924665568e-02,
          4.4507798296016103e+00, -4.4365699740148937e-02,
          -4.5102368429213661e-02, 4.3267284822176061e-01,
          1.9680613091633528e-01, -1.5647898619126829e-01,
          1.8060580633396869e-01, 1.5326784132781723e-01,
          -6.8360848911028907e-02, 1.0485297525307245e-01,
          9.4679626155516505e-02, 2.2969849856843175e-01,
          -2.9625911865374072e-01, 3.2011716818415858e-01,
          1.4649013191057361e-01, 4.9785706449173836e-02,
          5.1130184628710644e+00, -9.3992214273796781e-02,
          -2.3933132037969260e-01, 1.2938314947848076e-01,
          -2.8963077173948439e-02, -1.4154878065816781e-01,
          -1.3873572192306516e-01, 1.7177856234390593e-01,
          -1.0078576700426226e-01, 5.6318806175932878e-02,
          2.0185319095705351e-01, 2.6721574962077671e-01,
          -1.6239045999529908e-01, 1.7702891006090582e-01,
          1.0918633829195895e-02, -1.2248047806099738e-01,
          4.5795066103822748e+00, 2.0844701168003621e-01,
          -1.3930064961135566e-01, 4.7641202971651746e-02,
          -3.0681009716331305e-02, -1.0313782454304457e-01,
          2.9209421112753351e-02, -2.1565231611006527e-01,
          -2.5340695785009172e-02, 2.4041236030891106e-01,
          2.5101753743085420e-01, 6.8319090328294960e-02,
          -6.8274372964954580e-03, 1.5203045529844675e-01,
          -5.2707088866587856e-02, -7.5978693509512710e-02,
          6.4250910159117280e+00, 1.8104560949677242e-01,
          -5.1754448757842728e-02, 2.3399875062011080e-01,
          1.5435216102917664e-02, 1.2680717889554599e-01,
          1.9435670696870463e-01, -1.2911371962756632e-01,
          1.3870872451556779e-01, 3.0387146197874509e-01,
          4.3013454709017757e-01, -1.6927527312480839e-01,
          -5.2566385672292590e-02, 1.0744801904128845e-01,
          -1.1673593839732205e-01, -1.7138235358782791e-01,
          1.0078410803020075e+00, 1.3133834234661360e-01,
          1.2881676140807521e-01, 3.5857254958128415e-01,
          -4.3061677999366936e-02, 1.4888847196261790e-01,
          9.0223973015101294e-02, 2.1191547694966950e-02,
          2.1463284879757719e-01, 1.9549489955941385e-01,
          4.0016805072213146e-01, -2.4454598970023553e-01,
          -3.2078091843681523e-02, 1.4825670110224554e-01,
          -1.5470215328623305e-01, -2.4152827636813279e-01,
          2.9742975655842150e+00, 6.1722196741837793e-02,
          1.3563943448408217e-01, 2.4957849767366105e-01,
          -1.4303027236077931e-01, 2.1140625267323973e-01,
          -4.0887123200830683e-02, 2.2582531338133610e-01,
          3.9168909914868461e-01, 3.9552151551788005e-02,
          3.3155280184269464e-01, -3.1143906184139064e-01,
          1.3518433165950994e-01, 1.0310789791558859e-01,
          -4.0061780598978768e-02, -2.9386406864143189e-01,
          3.0059884080202335e+00, 3.4854180667425134e-02,
          2.6813156410877986e-01, 2.1479246491561207e-01,
          -1.4162045014541993e-01, 6.5935153073118730e-02,
          -7.8001741720307285e-02, 1.8923932420260464e-01,
          3.5945122912986838e-01, -4.1610288910712043e-02,
          2.6884571015408237e-01, -3.3000945965452533e-01,
          1.2233838150550319e-01, 1.3749383108830572e-02,
          -1.1306265580092167e-01, -4.1612383368343199e-02,
          4.3663455219092047e+00, -3.2548377878856771e-01,
          1.4578386296628865e-01, -1.2574076325849440e-01,
          7.6622539449675521e-03, 7.4707268926742856e-02,
          -1.7315704224816353e-01, 8.6000568387987628e-02,
          1.4361865398494612e-02, -2.8991876825328605e-01,
          1.0136608669428335e-01, -1.3478929138411028e-01,
          2.1518648334129026e-01, -1.4054883766354057e-01,
          -1.5297321079396359e-01, 2.0012887597706944e-01,
          5.6294137305141243e+00, -3.9066888796213411e-01,
          5.6940478921339827e-02, -1.5491512809593541e-01,
          -9.2249233193317529e-02, 8.7812482322194747e-03,
          -2.4398374190327995e-01, 1.2430639781280432e-01,
          -6.9501884884946616e-02, -2.4757110736944729e-01,
          2.8873384825114520e-02, -9.1811338318197253e-02,
          2.1076725337437485e-01, -6.4044366899486472e-03,
          -1.2736702963951849e-01, 1.6658074771962167e-01,
          -2.5667251510086209e-01, -6.5499584947483103e-01,
          -3.2429511243955442e-03, -3.8949810097437326e-01,
          -1.0854010557308855e-01, -3.3708865667686341e-02,
          -2.1061120623678992e-01, 2.2896367024191841e-01,
          -1.0598654663334532e-01, -4.0904837280400863e-01,
          6.7495273486180951e-02, -1.9836886132160222e-01,
          3.2038116295246122e-01, -1.4029321336275363e-01,
          -1.0565217047392900e-01, 1.7278550942975321e-01,
          -1.3277623172766333e+00, -6.3414556571628047e-02,
          2.5044696212881513e-02, -8.1285370011928731e-02,
          2.5208419419829081e-01, 2.3958964117268469e-01,
          -3.0062027804634520e-02, -7.0868324505192135e-03,
          5.4174489191291759e-02, -1.9955432613710558e-01,
          1.9414394364440216e-01, 2.8185708353660265e-02,
          6.7324126466043438e-02, -3.2177268257490738e-01,
          -1.6064877715343365e-01, 1.5420023161200286e-01,
          -9.7625148615452293e+00, -3.6740430936637321e-02,
          -6.2528379119388397e-02, 1.0719051141720774e-01,
          -1.5730933220743679e-01, -2.2333691419277771e-02,
          -2.7808238899353654e-01, 1.8605719903024170e-01,
          9.2183431621051665e-03, -2.1961535108007627e-01,
          6.8807053257675485e-02, -4.1416860556405966e-03,
          -9.2366884179786252e-02, 2.8998666124545737e-03,
          -1.4373426022462046e-01, 1.9464561126705010e-01,
          -8.0932117381455910e+00, 9.7850415935410051e-02,
          6.8492736357115211e-02, 1.4896348649585142e-01,
          -2.2628580535170578e-01, -1.4514626345778087e-01,
          -2.8181936178216016e-01, 1.1737300975511378e-01,
          2.9535745786291888e-02, 1.7627846269253965e-02,
          -1.7673705489806193e-01, -5.0721702862318495e-02,
          -1.4707720388590603e-01, 5.0271314964202056e-02,
          -1.6011403601211660e-01, 9.7872415470754884e-02,
          2.4934407423574956e+00, 3.0688079815370856e-01,
          1.6143156600557476e-01, 1.0695285707586295e-01,
          -3.1272760638667979e-01, -4.1086131254336772e-01,
          -2.5557272927972063e-01, 7.7324749812353613e-02,
          -2.1112475077900913e-02, 9.5880387946850248e-02,
          -2.5916304871419105e-01, 1.3529357749849143e-02,
          -1.8977950638038066e-01, 6.0399939595726093e-02,
          -2.4903188507859517e-01, 8.9002303656656692e-02,
          1.2945178419720177e+01, 1.8771876263602685e-01,
          3.4084107956670454e-02, 2.3521585809717263e-01,
          -2.2035621973688063e-01, -2.4349398726234614e-01,
          -8.5583995480631544e-02, -4.9181010030588937e-03,
          -1.6599426832857471e-02, 3.8395953375458580e-01,
          7.8031748684273886e-02, 1.4118213428801230e-01,
          -2.9959744505747420e-02, 7.4577308835769712e-02,
          -1.6190643369181179e-01, -1.5845644917165333e-01,
          1.0987354732893372e+01, 1.3433255986595899e-01,
          -1.5237567297459406e-01, 3.8290409133274073e-01,
          -1.5879002591624475e-01, 1.4647220701236685e-01,
          -4.5092324333138215e-02, 9.1982574175360307e-02,
          8.8872536919640088e-02, 4.2675880912424147e-01,
          4.7923910708727722e-02, 8.8457873154842853e-02,
          -1.6965686352358175e-01, 2.4186873289154576e-01,
          -6.9612984259628377e-02, -1.4938357359372667e-01,
          1.0791600073369969e+01, 8.9395437522941466e-03,
          -8.1458590237833861e-02, 3.4660418609683502e-01,
          -1.0874074208978088e-01, 5.7255812302906328e-02,
          4.0086681049248826e-02, 2.8100788108787500e-01,
          4.1067609041836012e-02, 3.6100572694362987e-01,
          8.2139690476747546e-02, 3.7294812634259038e-02,
          -1.8770359874823264e-01, 2.2090840877440629e-01,
          -9.0408839188792722e-02, -1.5332558502065394e-01,
          6.9920673915132108e+00, -2.6436429189191066e-02,
          -7.4095024683630953e-02, 2.1478370369608862e-01,
          7.1083412217564160e-02, -1.2494614689520279e-01,
          -7.8262351067602154e-02, -1.0769125434206814e-02,
          -6.6712211203818719e-02, 2.5536436407670476e-01,
          1.2021078073298244e-01, 5.2627720022300602e-02,
          -2.6553079145871039e-01, 1.4947294721055981e-01,
          -8.7228524227646355e-03, -1.7557286798523833e-01,
          6.8989345233285695e+00, 4.1050381157698101e-02,
          -8.5059981205407684e-02, 1.9597768544062655e-01,
          -6.8531839941743875e-02, -1.4471255024589957e-01,
          -2.0422625005513159e-01, -1.0302894522794237e-01,
          -8.0883813241582753e-02, 2.8606207353633084e-01,
          1.1253709511970793e-01, 1.1560536852436080e-01,
          -2.1443298403737321e-01, 1.3081347348985997e-01,
          -1.3994353383663008e-01, -1.8612551596457608e-01,
          9.4713389553956819e+00, 1.8842067389168318e-01,
          -8.4668801236233229e-02, 2.7834991255339636e-01,
          -3.1115328887274751e-02, -1.6391509583515365e-01,
          -1.4729742618102340e-01, -5.9145526447236398e-02,
          -7.2490119193040103e-02, 2.4304097617570178e-01,
          1.1813466408465254e-01, 9.9806289534198900e-02,
          -2.4430973026632463e-01, 1.2866191102574628e-01,
          -1.6144201295692517e-01, -2.0094695896082795e-01,
          7.8451131614691931e+00, 1.4617297683459157e-01,
          -5.3139715197082008e-02, 2.8676329262012534e-01,
          -5.8848758966217260e-02, -9.8930327433779081e-02,
          -7.2918936384775160e-02, -3.0005254448400555e-02,
          -3.5602985715706921e-02, 2.1083133345678073e-01,
          2.7068168414467847e-01, 1.6303938306324265e-02,
          -2.0081374926347068e-01, 1.3545871179086533e-01,
          -1.8711844412446785e-01, -1.1953798775131007e-01,
          6.0167687587876872e-01, 8.6470657563642500e-02,
          8.8684071244706189e-02, 2.8193775729577075e-01,
          -2.1574035157577179e-01, 1.9406527968718529e-02,
          -1.2364139826398291e-02, 2.1593279391860734e-01,
          1.9561973018405129e-01, 1.6032200017490050e-01,
          2.7143964856649772e-01, -1.0399350708394220e-01,
          -9.1482894882572510e-03, 1.5856337254317779e-01,
          -3.0154616319675626e-01, -1.2129863515433187e-01,
          2.9140307335888833e+00, -1.1527428304813880e-01,
          2.7039831138657305e-01, 6.7311380271376356e-02,
          -1.5486085894585577e-01, 1.7412990518417548e-02,
          -1.5230293753430871e-01, 2.3441808637712405e-01,
          3.0630782058507350e-01, -1.3787000743780231e-01,
          2.0825332244343192e-01, -3.3584232893485150e-01,
          1.9663219161162634e-01, -9.3561109702524833e-02,
          -2.0401468964190575e-01, 1.3064927364625273e-01,
          2.5839953463040275e+00, -3.1976728847156743e-01,
          2.1305303051773644e-01, -5.9579953844193928e-02,
          -1.3523011271856933e-01, -7.2658263444530377e-03,
          -2.1742452016098421e-01, 2.4203406858378898e-01,
          1.2826305174881869e-01, -2.7669300378549483e-01,
          2.0603591474970556e-01, -2.8169458824303883e-01,
          2.2410655382457492e-01, -1.2511884363617443e-01,
          -2.4912527868965798e-01, 2.6936071695294045e-01,
          3.6876823777522985e+00, -4.8215450111028763e-01,
          9.3227187045834839e-02, -2.2265948227142945e-01,
          -2.8832320987730760e-02, 6.6583932541892127e-02,
          -1.7661331224649454e-01, 1.5206106194387661e-01,
          -3.4957014756638358e-02, -3.7626215977800098e-01,
          1.2851904356142849e-01, -1.4507372169019336e-01,
          2.8723135093698426e-01, -1.4182928305179340e-01,
          -1.6630937856731443e-01, 1.9139042675422621e-01,
          1.6983182908845817e+00, -6.6128672193182761e-02,
          2.9782727737518503e-02, -4.4603336516221746e-02,
          -5.5761910384522988e-02, 1.6581975913191806e-02,
          3.0050813740868815e-01, 1.2442603995670935e-01,
          9.6195452809396273e-02, -6.0654189021843982e-02,
          1.1323564589337780e-01, -3.8950590675357478e-02,
          1.3994648847688640e-01, -7.0880230055346827e-02,
          -2.3404422071593670e-02, -1.8186746699074219e-01,
          4.8292464465276064e-01, 1.9103622729967720e-03,
          5.9353755215533960e-02, -4.0723491587762090e-02,
          1.4960225305170824e-01, 1.8844875803399350e-01,
          2.3789935116060329e-01, 5.1620854756603593e-02,
          1.3435586048910039e-01, -7.9946274626428074e-02,
          1.8074784668295960e-01, 2.5779842584071261e-02,
          8.7896215592119784e-02, -2.3430565817685103e-01,
          -1.1050345122027178e-01, -1.0239798045845536e-01,
          -1.4704294755673024e+01, -4.8613599862563778e-03,
          4.1932073422545534e-02, -6.2690071714517955e-03,
          1.4504857252810305e-01, 9.5140317947432093e-02,
          -7.5761046885569087e-03, -7.3574371468537536e-03,
          1.9472442110298704e-02, -1.3854333893782564e-01,
          -8.7120912766228367e-02, 4.9829529441893589e-02,
          -1.3501227667593466e-01, -2.0519395125095707e-01,
          -3.6398500927623360e-02, -4.2642876074848561e-02,
          -8.4670095077363392e+00, 2.1778779959452332e-01,
          1.3415381231552165e-01, 5.1806610398090251e-02,
          -8.3291798005064088e-02, -1.1696391262605303e-01,
          -2.3098361520779806e-02, -6.1018208955885202e-02,
          -5.1765385221903042e-02, 2.4036044866705082e-02,
          -1.5664604319432698e-01, 4.9784621219465712e-03,
          -1.3796276237776009e-01, -1.9618829676076791e-01,
          -1.6337978482841112e-01, 1.3062138957553451e-01,
          -1.1895782407079880e+00, 1.9373988555547342e-01,
          -9.2255828314983565e-02, 8.1579347289629914e-02,
          -3.8040471703311746e-01, -3.6586339183890004e-01,
          -1.0684547947743554e-01, 2.1314507840833441e-02,
          -2.8678261386382231e-01, 9.9846754360059478e-02,
          -2.3216271197577101e-01, 2.3627404327588206e-01,
          -1.7112210879958720e-01, -7.3918574988106764e-02,
          -2.0298740214908578e-01, -3.1523465252210371e-02,
          9.7579659098373064e+00, 1.5105761827955505e-01,
          -1.3491931967467116e-01, 1.5015125923128339e-01,
          -2.6210893093078341e-01, -2.4298097404467209e-01,
          7.1876642432774198e-03, -4.8214022731488330e-02,
          -2.1557567764021060e-01, 2.6753033180349173e-01,
          5.8823517336780921e-02, 3.0604350881732650e-01,
          3.3090395543441148e-02, -6.9964922299190838e-02,
          -5.5465712846241633e-02, -2.0372863676051234e-01,
          8.3087523298209707e+00, 1.7690079534875752e-01,
          -2.3509179720077061e-01, 2.1428854806971989e-01,
          -2.6481283402653605e-01, 1.0044126223843788e-01,
          5.6794792027654729e-02, 4.2948532296522970e-02,
          -1.2480856351105854e-01, 2.6206538986167782e-01,
          -7.8507551665247644e-02, 1.7774844103323378e-01,
          4.0410720753212205e-02, 3.6447086903164866e-04,
          1.1185825669572455e-01, -3.2671181454080815e-02,
          7.6068012219714474e+00, 7.2040539273523330e-02,
          -1.8684172114586967e-01, 1.4025084882856539e-01,
          -1.8231237923426094e-01, -1.1584295556495624e-02,
          1.7392478957131478e-02, 3.1571819024680031e-01,
          -1.9989115519294107e-01, 1.8480251953944510e-01,
          -1.3139485696824690e-01, 1.7322640941129772e-01,
          -8.0893314702005850e-02, -1.3899283510042605e-02,
          -1.1309599792859117e-02, 1.6402490460856633e-02,
          5.0135638820657462e+00, 1.0062006999456763e-01,
          2.5700350366734754e-02, -2.6974774943351546e-02,
          -8.8326257213618128e-02, -1.7408685133736720e-01,
          -1.6603538150083352e-01, -6.5874665296513743e-02,
          -1.8381285145749757e-01, 9.8644991198592852e-02,
          -1.6602628629368452e-01, 2.3714274836604002e-02,
          -6.1844971618290355e-02, -6.5510950814889321e-02,
          4.8183037088562725e-02, -5.4916598929237614e-02,
          7.7525926363999442e+00, 1.7056880881075254e-01,
          -5.2960845723134808e-02, -1.2756041319073208e-01,
          -2.4800323494326651e-01, -1.4502549402335849e-01,
          -3.0528333466161772e-01, -1.5436555682850681e-01,
          -2.0546153349370991e-01, 1.3247705588631484e-01,
          -1.3271404888920138e-01, 7.3568446087237699e-02,
          4.0269915012156411e-02, -9.6808041650976562e-02,
          -1.3933399832164203e-01, -1.5639247927140060e-01,
          8.0290248039597998e+00, 1.9593720807572099e-01,
          -2.0667376785609790e-01, -4.4220805868584269e-02,
          -1.7207584052406125e-01, -2.3476248700570199e-01,
          -1.5067191390271581e-01, -1.7617622927845772e-01,
          -3.4862405113501282e-01, 1.8610571835528544e-01,
          -1.0391146959551767e-01, 2.8565394208098560e-01,
          -2.5888768757305947e-02, -1.1550629593819869e-01,
          -1.0131552675697893e-01, -8.2652184851892893e-02,
          2.7754681656200679e+00, 3.0798025333009971e-01,
          -1.2212985083377702e-01, 2.1435988107280840e-01,
          2.8654307458964606e-02, -3.1264148907411493e-01,
          -1.3133693069334804e-01, -2.0724656554126103e-01,
          -3.2641483485272277e-01, 2.3361908122528971e-01,
          -1.0425179831362762e-01, 3.0797520942285994e-01,
          -2.5333842421216213e-01, -7.7409313698922691e-03,
          -1.2981869971461252e-01, -1.1156354419594194e-01,
          -5.0173333667865281e+00, 1.0932010471727427e-01,
          2.8302667321521889e-02, 2.3027496333715178e-01,
          -2.1658042656302498e-01, -1.2909631145326764e-01,
          -2.3590749407550387e-02, 1.2837455035727724e-01,
          -8.1942221690757913e-04, 1.2712386698461664e-01,
          1.2843934575360130e-01, 3.1975586253779949e-02,
          -4.1694151180645032e-02, 6.2082617767434097e-03,
          -3.7368498969834568e-01, -6.3783012383524934e-03,
          -2.0398257897129297e+00, -2.2165978210785095e-01,
          2.6475509543859932e-01, -5.9116423017559053e-02,
          -1.0508599288790713e-01, -4.9571722738640453e-02,
          -1.0661180636291334e-01, 2.0948539840224914e-01,
          2.2134438886826566e-01, -2.9498399430598110e-01,
          2.1123085769111727e-01, -3.3283187839811951e-01,
          2.1037959280293517e-01, -2.2286472553914610e-01,
          -2.5269333131373478e-01, 2.5498984597214031e-01,
          -1.3594778993334293e+00, -3.6491072635915056e-01,
          2.5375542463227546e-01, -1.5109819203585051e-01,
          1.5767316832965041e-02, 5.7905297374935882e-02,
          -7.7845118916075075e-03, 1.2676662995846971e-01,
          1.3671016310423101e-01, -4.1434270572110515e-01,
          2.4830230261048641e-01, -2.9966437542396812e-01,
          3.0012169802775557e-01, -2.7904345208837067e-01,
          -1.1523990345440240e-01, 2.1074205059734716e-01,
          4.2165332241835973e-01, -2.3793286075516540e-01,
          2.0905525629529789e-01, -3.3474516771850961e-02,
          -8.4061028409377611e-02, 4.5625639670231633e-03,
          2.6047081084536633e-01, 1.5928202392458959e-01,
          1.5010123919614832e-01, -2.5386695313891555e-01,
          2.5712552064919625e-01, -2.3175513488304625e-01,
          2.5401177047477103e-01, -1.2285832249488768e-01,
          -5.1610376872623348e-02, -3.8726743712881338e-02,
          1.7578073933813616e+00, 3.5992926215043006e-02,
          3.9066154754459445e-02, 1.6629014507811960e-02,
          -4.1027151422784111e-02, 2.3605933198482483e-02,
          3.4673890267511903e-01, 8.7032248124420258e-02,
          1.1334976557103023e-01, -1.8048359831088186e-03,
          1.0748629836107078e-01, -6.7853652966939296e-03,
          9.5736329972746656e-02, -4.5606808523642059e-02,
          -1.0561309390010459e-03, -2.1108211968433047e-01,
          1.0462417341158705e+00, 4.2763755561354089e-02,
          7.2825208619570120e-02, -4.5452803034899941e-03,
          9.4214581093587477e-02, 1.0249066884411895e-01,
          2.9423711919605944e-01, 5.7683002188684190e-02,
          1.3171841711919083e-01, 5.7374862313459750e-02,
          7.1306575437609945e-02, 1.7130976697774702e-02,
          6.3515615985250184e-02, -1.4625868376550560e-01,
          -6.5636624336383467e-02, -2.1974221246960379e-01,
          -1.1816350058379669e+01, 5.4462462509544646e-02,
          8.2875527504828947e-02, 3.4923406354380702e-02,
          1.1088278527581055e-01, 8.2798611933851851e-02,
          1.4978002164988524e-01, 4.6777773054742962e-03,
          8.1264235232858278e-02, -8.7247812933743979e-02,
          -5.4066934181836987e-02, 2.2840309400798429e-02,
          -7.7661682950116134e-02, -1.8976927497723467e-01,
          -2.7467184176592441e-02, -1.4833919209800758e-01,
          -4.3797113537688590e+00, 2.1620585886393628e-01,
          1.0190240781875044e-02, -7.4056410310251123e-03,
          -1.7498283251998087e-01, -2.3528102488039992e-01,
          -1.3625269577545981e-01, 2.1290462816879623e-03,
          -1.8711518357955959e-01, -1.1785230783134105e-01,
          -2.2314029075280239e-01, 1.3746318573286695e-01,
          -1.2470413408149410e-01, -2.1682289638365571e-01,
          -1.2883269014141616e-01, 1.6504634375445795e-01,
          2.9331561466581818e-01, 1.7113415975590326e-01,
          -1.5345006840314115e-01, 5.8134383406102462e-02,
          -4.7151301933405954e-01, -4.4278648872439347e-01,
          -7.3693586091316418e-02, 5.0761604113686160e-02,
          -3.7616815040594920e-01, -2.9964220468783373e-02,
          -1.9139400803836110e-01, 3.0250245060173253e-01,
          -1.3771258243903567e-01, -8.5987914464148954e-02,
          -2.2072522359071622e-01, 9.9296423027282088e-02,
          1.1141307135631962e+01, 1.6748390993216838e-01,
          -2.6478598485352783e-01, 1.9010031436760107e-02,
          -3.5945799531603667e-01, -3.1497086682331493e-01,
          -2.4713209376827149e-02, 5.7468998505277077e-02,
          -2.7306920515582428e-01, -2.2968746666946298e-02,
          1.1350957568571882e-02, 3.0325320711429132e-01,
          7.1821427666061977e-02, -2.0266445900703739e-01,
          -4.1720687552203706e-02, 1.3736324367942712e-01,
          8.2853539118889206e+00, 3.0154255318370898e-01,
          -1.5541730329930800e-01, 1.3151488976399336e-01,
          -2.8420860469519210e-01, -6.1140091914967963e-02,
          3.0880828569656571e-02, 8.5554432742964037e-02,
          -9.7080901567512382e-02, 5.1660560644234702e-02,
          -1.8551107546095208e-01, 1.9195584050079401e-01,
          1.4214999032331038e-02, -6.6385102631977985e-02,
          9.4724299669783421e-02, 2.4191020324292206e-01,
          8.1129269496126177e+00, 1.5423507806862812e-02,
          -1.7398544472079852e-01, -1.7221332905136941e-01,
          -8.0068456952706174e-02, -1.1786538510723359e-01,
          -3.4416840560891038e-01, 3.2412287579731114e-01,
          -2.6845969308634060e-01, -1.2719157933368000e-01,
          -2.6124646483577618e-01, 2.2789120390664466e-01,
          -1.3352240582861472e-01, -7.8138152398642580e-02,
          7.3822864406340684e-03, 1.9015003146219328e-01,
          8.2046047248017793e+00, 1.0250543510220381e-02,
          -4.4741698922421004e-02, -8.7548979122090351e-02,
          -6.6310099626910677e-03, -1.0409434367164894e-01,
          -2.7366799893151394e-01, 6.3695626899998494e-03,
          -1.5877280718197073e-01, -3.9815216312782682e-02,
          -1.3585014874063239e-01, 1.0811157523164168e-01,
          -1.0240806576497240e-01, -1.4803420206606422e-02,
          -4.8803344769261193e-03, 5.9894973306441272e-02,
          8.8216554033877586e+00, 1.1154977953153027e-01,
          -2.3126827402610192e-01, -2.8447758282262986e-01,
          -2.4006306897208365e-01, -4.8902189773827480e-02,
          -1.9341246096822379e-01, -2.0969550826421207e-01,
          -1.6581459873650889e-01, 2.1556155046706616e-03,
          -5.6737187900122804e-02, 5.7889577523013713e-02,
          1.7729813419621074e-01, -1.0940560797125098e-01,
          -3.0741491707928979e-02, -9.3150153050645307e-02,
          7.3989664659356515e+00, 9.5124014773976126e-02,
          -1.7892553900361552e-01, -2.9687185117563508e-01,
          -2.9609497000915641e-01, -3.0105455326213354e-01,
          -3.7598131866107115e-01, -1.6516402666522700e-01,
          -3.7696701464085569e-01, 1.0871962805080897e-01,
          -3.0433327890497569e-01, 2.2569402997424515e-01,
          1.3141185478492997e-02, -1.4380652967168955e-01,
          -1.8334756708782690e-01, 5.0157179222063475e-02,
          -9.6229790795625292e-01, 1.3414438702637591e-01,
          -1.3596523715400713e-01, -2.2246826055990743e-03,
          -5.8754847701182084e-02, -4.0964268843041957e-01,
          -3.3508545645989546e-01, -1.7184672182348476e-01,
          -4.3078147079448326e-01, 1.6607292891110204e-01,
          -2.7664211802953315e-01, 4.3258486914893546e-01,
          -1.3367483428446894e-01, -7.2500088047643962e-02,
          -1.4399616240777083e-01, 1.5324155552224711e-01,
          -4.1918617481601217e+00, 8.9869526003613115e-02,
          -9.0866275899959117e-02, 1.6293170072580151e-01,
          7.4133997522976308e-02, -2.2573821733938895e-01,
          -1.2870040361086807e-01, -5.2465826000966650e-02,
          -1.8504396846725579e-01, 1.0366944894910241e-01,
          -4.2557970834202805e-02, 3.2327285765141134e-01,
          -1.2666688566781045e-01, -1.0781260160238147e-01,
          -2.6170581004526972e-01, 4.6685998478870956e-02,
          -4.2841137080886167e+00, -1.1986089741163378e-01,
          2.8294260378372532e-01, -3.2549422001108268e-02,
          4.3422506868656972e-02, -5.8495752158855982e-02,
          4.1958985398641971e-02, -1.2220330269018429e-02,
          1.3219868449473918e-01, -3.6855102932081563e-01,
          1.6244860198984765e-01, -2.0979834183506174e-01,
          1.4430715254380022e-01, -1.3810464845703546e-01,
          -1.3465188599020261e-01, 9.0453881278243373e-02,
          -1.9646932029438418e+00, -2.8806361532600322e-01,
          2.3900120728844890e-01, -1.1580763968976911e-01,
          -5.2149428890867280e-02, 7.6670345514758872e-03,
          7.0385861221369363e-03, 9.8423756658182746e-02,
          1.1252627057488679e-01, -4.4032267129719571e-01,
          2.1569140945154522e-01, -2.9323936327699884e-01,
          3.1233614737965104e-01, -2.2622877576223915e-01,
          -8.9457687669595679e-02, 1.9415893343864979e-01,
          6.2288408470369294e-01, -5.5613831019718972e-02,
          2.1348866893739460e-01, 8.3998535404643360e-02,
          -1.1780683888803269e-01, -3.2037155583412726e-02,
          3.5268842718047455e-01, 9.6989091217984866e-02,
          1.6837165110922006e-01, -1.3161016046218904e-01,
          2.2297170004892797e-01, -2.0115807211682013e-01,
          1.7666303785977774e-01, -2.1753642011502997e-02,
          1.1624625502441659e-02, -1.1449806305186674e-01,
          1.7516559876032392e+00, 5.9570182154345161e-02,
          4.3777542213500414e-02, 3.1134041283588515e-02,
          -4.6038308384061685e-02, 3.3773685538982356e-02,
          3.5785124308764199e-01, 7.0769757945571748e-02,
          1.1646036154743972e-01, 1.8912615725897221e-02,
          1.0843197096306910e-01, 1.7820927355830575e-03,
          7.8003557418527047e-02, -3.9227231809145113e-02,
          4.1961161329713776e-03, -2.1447467400589343e-01,
          1.4140057739877265e-01, 5.5578859164566785e-02,
          1.3806187013417170e-01, 1.2988642587750392e-02,
          1.2252849907943143e-01, 1.1181685490974308e-02,
          1.0108608756223816e-01, -2.8665463900645175e-02,
          8.0338247531720780e-02, 3.6469823638080412e-01,
          -2.7950447221453906e-01, 6.8025138414858619e-04,
          -9.6231354225596644e-02, -4.3388448230483552e-02,
          -5.9504741139113443e-02, -3.5722685391975151e-01,
          -1.1215576185802970e+01, 5.2210942148965024e-02,
          1.7859070426043622e-01, 1.1504384205640260e-01,
          6.3233334423709611e-02, 3.7529135675360120e-02,
          2.0898495434398387e-01, 5.3616841949449675e-03,
          1.3930048289063404e-01, -1.0438715925905871e-01,
          2.0902725226197485e-03, -6.2248919269699464e-02,
          -6.4261348751729896e-02, -1.4452018991825746e-01,
          -2.8540659697112296e-04, -1.5228819390940954e-01,
          -4.2653015840964290e+00, 9.5679903943171427e-02,
          -5.9580577410395456e-02, -6.6124793133654824e-02,
          -2.7521570868390244e-01, -2.3378506274331623e-01,
          -7.3788755296757394e-02, 1.3349983394178938e-01,
          -2.6018881372544189e-01, -2.4718527754466998e-01,
          -8.4562634792999053e-02, 2.1729347475701694e-01,
          -2.8079025475865910e-02, -2.3677888237656278e-01,
          -2.1775035567321266e-01, 2.7652847515596857e-01,
          2.0777360334715480e+00, -1.6770714177953571e-02,
          -3.0734276007179590e-03, -1.1093408143220279e-01,
          -3.3642431377967191e-01, -2.5862373798021321e-01,
          -4.6876912162825982e-02, 1.6497723216615218e-01,
          -1.6836280343509816e-01, -3.1626483574704167e-01,
          4.4530639927959893e-02, 1.1520755976891824e-01,
          4.5622129785471435e-02, -2.0233647896224469e-01,
          -3.2713496549811327e-01, 2.1877073855284523e-01,
          1.2835654015121332e+01, 8.4840615253337012e-02,
          -7.8016217857647188e-02, 1.2241213581309337e-02,
          -1.7833272092032124e-01, -2.0640865632846314e-01,
          1.5482130825486398e-01, 1.0430278810910108e-01,
          1.1210645873232223e-02, -4.7421813371553427e-02,
          7.3826086066352700e-02, 1.6761006153950964e-01,
          1.9960914850624033e-02, -1.4632696417039445e-01,
          -8.2200975163604986e-02, 2.4970544755618757e-01,
          7.7050470846390429e+00, 1.4957714730226102e-01,
          6.8687764958108299e-02, -1.6709060568606354e-02,
          -1.1237379479077975e-01, -1.1495324301160259e-02,
          -8.0936586708072571e-03, 3.5927245057079282e-02,
          1.9303473673889598e-01, -7.7191838307394275e-02,
          -1.9559921108460918e-01, 1.1278240836106325e-02,
          -3.3914104932273738e-02, -4.6688542456047796e-02,
          1.4640463081329655e-01, 2.7249087237802716e-01,
          1.8970745875608661e+00, -1.8406920335469684e-01,
          1.0986906510183748e-01, -1.4960805925101173e-01,
          1.4189642087094831e-01, -2.0435714919893205e-01,
          -2.2519586603447511e-01, 2.5843420375700915e-01,
          -1.3473257711161166e-01, -1.7930476954351177e-01,
          -1.4609139654029754e-01, 1.7202053048821228e-01,
          -1.4542007336141805e-01, 3.1395947409622052e-02,
          3.5765671874029313e-02, 1.3984381147811500e-01,
          3.6842272508752281e+00, -3.3759508400299426e-01,
          2.1841574141063035e-02, 1.6118107133289380e-01,
          1.6142901774378968e-01, 2.0840192027331433e-01,
          -1.3932763218242789e-01, -3.1470004741902678e-03,
          1.0989939408334128e-01, 3.3881571528611217e-02,
          1.9272158394929503e-01, -1.8713074668435092e-01,
          -2.0804590754342858e-01, 2.0872837614548806e-01,
          1.3209461619793647e-01, -2.4205659404658286e-01,
          4.6545468015967089e+00, -3.0984554586465651e-02,
          -2.7648247976509543e-01, -1.0268443010178886e-02,
          -1.1783949071175494e-01, 1.6117924054220373e-01,
          1.4364752805338232e-03, -1.7284574518568629e-01,
          3.2757845951628430e-02, -2.8447474261929343e-02,
          2.2005406322852644e-01, -1.8002873393980148e-01,
          1.3152070801156918e-01, 2.6289261241539370e-02,
          5.6714568557714291e-02, -1.9039857221880277e-01,
          7.6018276457252254e-01, -1.5429401324133096e-02,
          -1.2677412198468249e-01, -2.5732609195492515e-02,
          -2.2024016717437206e-01, -1.1813048978489045e-01,
          -1.8339038248784806e-01, -1.5760230153726282e-01,
          -1.9966803630117130e-01, 5.4807195817592802e-02,
          -8.5205179328833508e-02, -4.3473792209500997e-02,
          6.5934604422863641e-02, -1.3320356119460447e-01,
          -9.6521969098854576e-02, -5.2326160621267014e-02,
          -7.9348399418586650e+00, 6.3508596863845690e-02,
          -2.6539405989858295e-02, 2.4438659890544733e-02,
          -1.7914091795429227e-01, -2.4929559756600994e-01,
          -2.2508226949623000e-01, -1.5709530598933338e-01,
          -3.5831011067171625e-01, 1.7332090717087539e-01,
          -2.1616640687714128e-01, 2.0270347527740562e-01,
          -3.4711292176149731e-02, -9.7033531041703286e-02,
          -2.2918858878483170e-01, 9.5010663995929154e-02,
          -6.0376730482770169e+00, 1.6884484645673592e-01,
          1.2737191215398430e-01, 6.6306568806516697e-02,
          9.7424755538040475e-02, -5.2877690144625566e-02,
          4.2818209710981894e-02, -7.0413743463571432e-02,
          -5.9883608979200011e-02, 4.2041453239979751e-02,
          -1.0136638824188855e-01, 1.8810127905219298e-01,
          -3.5835146988539179e-02, -1.4310216644021914e-01,
          -3.3633766717231822e-01, -4.0704506131006547e-02,
          -4.3216830459301132e+00, -1.2137210241105011e-01,
          2.6046345782491787e-01, -4.4666068733730246e-02,
          4.4204608858130594e-02, -5.5156598112977004e-02,
          3.6284767854961091e-02, -6.7898803341188748e-03,
          1.2752544369475829e-01, -3.5931264622600495e-01,
          1.4870892260887061e-01, -2.0464291490005543e-01,
          1.4975045482539681e-01, -1.3403048328080866e-01,
          -1.4651292127226520e-01, 9.0437607960607264e-02,
          -7.3761224550790083e-01, -1.2909923791494873e-01,
          2.0572649528057771e-01, -2.9327254545223759e-02,
          -1.9488278841598827e-01, -8.8933968223398177e-02,
          1.9722306914504600e-01, 1.0866149120735208e-01,
          1.2717296713567294e-01, -3.2290466305618043e-01,
          1.3519446051277675e-01, -2.6111822845351051e-01,
          2.9911605429627464e-01, -6.6575741202411387e-02,
          -6.0320052899904162e-03, -3.8260734543728342e-03,
          4.4128639449712692e-01, -3.3441808642989325e-02,
          2.1163490972325616e-01, 9.1933957658249479e-02,
          -1.1999306614463846e-01, -4.5626449987361144e-02,
          3.3787966449543533e-01, 9.3171181842885128e-02,
          1.7103394989314680e-01, -1.4170203825105965e-01,
          2.0981390318205670e-01, -2.0234756721790451e-01,
          1.7237861675894653e-01, -1.5077726349095955e-02,
          1.5286071858857065e-02, -1.1460392971098739e-01,
          -6.3566321874554810e-01, 2.0204911547305065e-02,
          2.7392267591804165e-01, 1.9407941285983207e-01,
          -9.4761820832466592e-02, -6.8411034038162788e-02,
          2.0369940782654569e-01, 7.4734310017272139e-03,
          1.7011822637770224e-01, -9.3326724407336206e-02,
          1.8406884529972870e-01, -2.3144215157870485e-01,
          7.0593541588270234e-02, 4.1487156136549103e-02,
          4.7137640771765792e-02, 8.7288415665508681e-03,
          -7.7949604969047370e-01, 2.5339838544318528e-02,
          1.4497824954308119e-01, 2.0941596917604323e-03,
          1.6845066759233901e-01, -4.9911922078615112e-03,
          -8.2458462168802912e-02, -7.3692886144041195e-02,
          1.9948882565039936e-02, 4.1030287159911449e-01,
          -3.8480907307670958e-01, -1.4322221255666260e-03,
          -1.4436718075737232e-01, -1.7688843675739488e-02,
          -6.4188534801422156e-02, -2.7571337404636392e-01,
          -5.2271599398365476e+00, 4.2146881403520672e-02,
          1.1829369929110897e-01, -2.3375320983836757e-02,
          -1.5536688567165044e-01, -1.9685443283732634e-01,
          5.8246834284355356e-02, 1.2891513215285683e-01,
          -7.3165688584441542e-03, -1.5327474692044565e-01,
          -1.5500120926534441e-01, 2.3975445317326451e-02,
          -5.3664148735024370e-02, -1.4061215659561221e-01,
          -2.0434435344675820e-02, -7.6719538470704632e-02,
          -1.6406744181689386e+00, 2.0552366069590267e-02,
          -2.8653796085252013e-02, -1.8047196500110588e-01,
          -2.9850946023493841e-01, -2.1749805515828918e-01,
          -6.1152707180242884e-03, 2.3878448920030729e-01,
          -2.0742186021160197e-01, -4.4548124795211985e-01,
          2.3918106074272198e-02, 1.8702132880612440e-01,
          1.3752388926124084e-01, -2.7651625613761543e-01,
          -2.8509706817772695e-01, 2.9844766902335323e-01,
          8.3530036644123262e-01, -1.7858636769328289e-02,
          1.0756614332892041e-01, -1.4664192874080328e-01,
          -4.1757577983630528e-02, -2.7234679451542410e-01,
          -1.5593269295302810e-02, 3.0165017204461542e-01,
          -1.5587635385904941e-01, -4.0108539944316407e-01,
          -2.5971036913547064e-02, 1.2382729131861836e-01,
          -3.6321905870589234e-02, -2.1133840592442268e-01,
          -2.6862017455657539e-01, 3.1312605422095480e-01,
          1.2226668527145140e+01, -5.4887642866853020e-02,
          -3.8341189650663590e-02, 7.0684307078437772e-02,
          1.2160067397587934e-01, -1.7061499088162377e-01,
          2.1387527295579012e-01, 2.7988137598010904e-01,
          3.8005243086590756e-02, -7.2592835237329553e-02,
          5.1547649288230780e-02, 1.4123895409825180e-01,
          -1.5284733398172951e-01, -5.2445650193782764e-02,
          5.2124259768207358e-02, 2.3588360918712914e-01,
          4.6320096853048600e+00, -8.9906479868359340e-02,
          2.0564807369989929e-01, 1.1141918967238042e-01,
          1.8204183154171391e-01, 1.2317596980867891e-01,
          1.2180788289876794e-01, 7.9281548710081098e-02,
          2.3774884462019746e-01, 5.2081075457815096e-02,
          -5.4403133976160922e-02, -6.7877363078241937e-02,
          -1.0266800614748864e-01, 1.1437449152029248e-01,
          3.1436967952482814e-01, 7.6793163941485582e-02,
          2.3166424977615119e+00, -1.5342811942269827e-01,
          3.8661142019587241e-01, 2.7842276570090883e-02,
          9.6279293623424550e-02, -2.9903861708729679e-02,
          1.1701329938343549e-01, 9.3354709607418332e-02,
          1.8082333626000088e-01, 3.1961671189491461e-02,
          1.1977072577747150e-01, -1.3559788245791835e-01,
          6.3803789361374735e-02, 3.5550418567395874e-02,
          7.0177602318444679e-02, -4.1777373531316796e-02,
          1.2883817237152104e+00, -1.8280585751037212e-01,
          4.4004544680918252e-02, 8.6490597405006628e-02,
          1.3580899094333534e-01, 1.1081502883661110e-01,
          -3.5132306867088722e-02, -2.7630449708810987e-02,
          1.0350912549131205e-01, 7.5905809472358768e-02,
          2.5803675453400882e-01, -3.1482443463323340e-01,
          -4.2085366433981301e-02, 2.2730037722166610e-01,
          1.8368285680304866e-01, -2.3661376798732200e-01,
          1.2049775399160974e+00, -4.8255686244116393e-02,
          -1.3550859492043441e-01, 1.7276476423045511e-01,
          1.7752675695617384e-01, 2.6715672342361666e-02,
          -8.3623513094772561e-02, 1.0319958471142961e-01,
          2.5017067840831023e-02, 7.3403602317383160e-02,
          1.3408154978760342e-01, -1.8739182948922917e-01,
          -2.1609545356540510e-01, 2.0253404639105571e-01,
          7.2031113180914166e-02, -7.8499495057426219e-02,
          -1.4194920821015433e+00, -3.2384245710535059e-01,
          -1.6325187131465874e-01, 2.7929032551458810e-01,
          6.8256580263449093e-02, 4.8364818115500773e-03,
          1.1933961917723916e-01, 1.8252023665667624e-01,
          -1.3137015822760131e-01, 9.8720207979908783e-02,
          1.2841668109419155e-01, -9.0530273869297573e-02,
          -2.9138263782585616e-01, 7.5701622115106060e-02,
          6.7834191699458575e-03, 9.8998352144646487e-02,
          -7.9873259993452921e+00, -1.4306558016095738e-01,
          2.0865055815721198e-01, 8.9516970833520670e-02,
          3.5698780587895718e-01, 1.0028462062281976e-01,
          2.4152404548605788e-01, -1.1440823679818549e-01,
          -2.9595751456730476e-02, 1.2804452241833544e-01,
          5.3106509384040518e-02, -1.1089102400421633e-01,
          -1.0827165310647817e-01, -7.9630656357958074e-02,
          3.6376749719323163e-02, -2.9400138115199839e-02,
          -5.3634963143491889e+00, 1.2275787182756832e-01,
          2.6264568864728660e-01, 1.2220177355952419e-01,
          3.4666224563055048e-01, -6.3607837011935675e-02,
          1.3770490299997756e-01, 9.6526330898617216e-02,
          8.2174546691386810e-03, -3.7311583207997288e-02,
          -9.0871924677450047e-02, 7.7525223569522211e-02,
          -1.4129276050838221e-01, -7.6060230442861990e-02,
          -2.1577623593357087e-01, 4.7552960820795148e-04,
          -3.7277883566994530e+00, -5.9915863810516126e-02,
          3.1143365836702652e-01, -2.4109593140370523e-02,
          -2.9064220361513231e-02, -1.5674086607596088e-01,
          3.9328867647794322e-02, -8.1038547042518744e-03,
          1.3254740376855295e-01, -3.3878690038856263e-01,
          8.7038281037763163e-02, -2.0837106337954728e-01,
          1.4709027689500193e-01, -4.6181923351189549e-02,
          -1.3376964635250024e-01, 5.5017812043859797e-02,
          1.9290865926801018e-03, 1.3558071076228576e-01,
          2.5375276094170424e-01, 4.6762065993289338e-02,
          -1.3910932703276702e-01, -9.3587054634633682e-02,
          2.2872870743400020e-01, 6.1563730518540166e-02,
          1.6987832474708686e-01, -2.6125962540465847e-01,
          1.0545744842117280e-01, -1.6756902704835067e-01,
          2.5504786998414591e-01, -5.3508360567064761e-02,
          -6.3964742024825688e-02, -2.9288367396537979e-02,
          1.5404426737172090e+00, 2.2000080388344434e-01,
          3.0892675006862230e-01, 9.4269413981075037e-02,
          -3.9642432987935051e-02, -5.9802969242806814e-02,
          2.4380346269106640e-01, 5.8224430546377916e-02,
          1.8507359701759990e-01, -1.4580771104067958e-01,
          1.2099053784752808e-01, -7.4742085474579001e-02,
          1.3899264375094866e-01, -3.6936100303461249e-02,
          -1.1796490579536895e-01, -6.6648546040203552e-02,
          2.6546945713762939e+00, 2.9714898458891420e-01,
          1.9404727516277831e-01, -1.5076251077552616e-01,
          1.2421155501538389e-01, -3.8320607115446645e-02,
          -1.6192696980748156e-01, 3.0318466007190088e-02,
          4.5184589903777717e-02, -1.4998929856875007e-01,
          -1.1006626136766376e-01, 1.7016999654396084e-01,
          8.5476212596192078e-02, -1.1576239941231688e-01,
          -3.2879247033035458e-01, 9.3827064071402178e-02,
          -4.3226251333439669e-01, 4.8270928056190203e-02,
          1.5363773496186592e-01, -1.4505290158406584e-02,
          1.7353485942833877e-01, -2.1641999294931769e-02,
          -9.6940397332061612e-02, -6.8935959855542267e-02,
          2.4700570471960320e-02, 4.1345720721136192e-01,
          -3.9206134256109693e-01, 2.2495718720693795e-03,
          -1.3793489804923412e-01, -3.5490517000354938e-02,
          -9.3473284551031016e-02, -2.5920063235236251e-01,
          1.2024044966080496e+00, 2.1988415848222462e-01,
          1.1637427799678604e-01, -1.5219120702773511e-01,
          -2.1483285896175641e-01, -3.1676167973625236e-01,
          -8.2776692767062260e-02, 1.4483692172265378e-01,
          -8.7000327780818412e-02, -9.2482839028366751e-02,
          -2.8975405630822049e-01, 1.3535365950920841e-01,
          -7.7462528042021611e-02, -1.6244703102499997e-01,
          -1.7463090797256867e-01, 5.7445413941329834e-02,
          -9.9462877038485753e-01, 6.5839525068430715e-02,
          3.1345631917434329e-02, -1.9858759245685678e-01,
          -3.0094575767099052e-01, -2.5601285894027265e-01,
          -1.6871013659996260e-02, 2.5606864672900292e-01,
          -1.5659778968371546e-01, -4.5444250067189967e-01,
          -5.5571625783838313e-03, 1.7634539123023663e-01,
          1.4914921543865778e-01, -2.9727367037840213e-01,
          -3.0268530145135825e-01, 3.0656479468051451e-01,
          -2.6971481434833007e+00, -1.1253859838243782e-01,
          9.3058878918459056e-02, -2.3226417320184750e-01,
          -1.4309558243773893e-01, -2.8915825169400577e-01,
          -3.9243960402475407e-03, 2.0698059974718916e-01,
          -1.6747462627309290e-01, -4.0971109848554899e-01,
          1.7996879124207417e-03, 1.1775159198249707e-01,
          7.7486685312604026e-02, -2.4034491710730368e-01,
          -2.1641131817272011e-01, 3.6073568472736056e-01,
          1.3663736540111218e+00, -1.2930461547419445e-01,
          -4.8728992998498234e-02, -3.3408390591869314e-02,
          1.9120483163014440e-01, 1.5353288064712614e-01,
          9.4785266512251207e-02, 1.3123464498972964e-01,
          7.7365252382277511e-02, -7.0919453306084637e-02,
          -5.6793608367980634e-02, 1.2543365247139704e-01,
          -8.1192298021372872e-02, -6.3678173426768764e-02,
          1.4065211567876809e-01, 4.1258151878789939e-01,
          -1.0550555715588550e+00, 5.5487531795303476e-02,
          1.4104974930752812e-01, 8.8488380468735972e-02,
          7.3832464094746933e-02, 7.2333330872840496e-02,
          7.6426305823872359e-02, -2.1739973413918815e-02,
          -1.3863249112508292e-02, 2.0062572155039693e-01,
          -1.3036284230947404e-01, 1.7116806470552448e-01,
          2.5982907667532484e-02, 7.0047207260509683e-02,
          1.4707710191186216e-01, 8.4702425996563094e-02,
          1.4435958513445901e+00, 1.3044852743351915e-01,
          5.1976414670734064e-02, -1.1850784133026121e-02,
          -1.4471350984459724e-01, -2.6987322463669861e-01,
          1.1743707635058195e-01, 1.2839581641702444e-01,
          -2.4008052324398912e-01, 1.4069949558768050e-01,
          -2.9633705212500538e-02, 2.0906565909016517e-01,
          1.8689502827808163e-01, -4.7930364363096035e-02,
          -1.4393381309030512e-01, 1.3846701075299495e-01,
          -1.4976612417122543e+00, -8.7093944899100453e-02,
          1.0461610963078627e-02, 6.3589738021781375e-02,
          1.9102839822614768e-02, -5.8335967209912305e-02,
          -2.5385560025298815e-01, 1.4481096172379040e-02,
          -7.4736053293516708e-02, 6.5380285727262150e-02,
          9.1959025031234612e-02, -1.4582683092459311e-01,
          -6.0418916213311545e-02, 1.6950392646717438e-01,
          6.0375092450495341e-02, -8.8728430032232658e-02,
          -2.2421043987277847e-01, 1.1343640707954387e-01,
          6.2856200281729571e-02, 2.2459650622901697e-01,
          7.4130758222642090e-02, -3.7395061010620401e-02,
          4.2132150698562708e-02, 7.5979558072156339e-02,
          6.1635002758114378e-02, 3.0875319146822844e-02,
          1.8201118574747274e-01, -2.1054929847153561e-01,
          -5.5628632213377355e-02, 9.6989915152044345e-02,
          4.4898460628710633e-02, -2.3896877687872189e-01,
          -1.7731371008567165e-01, -1.8398501862539415e-01,
          -1.3344673940210317e-02, 3.0704651398567706e-01,
          1.5136058876411324e-01, 5.7577183693095842e-02,
          4.8704818008405526e-01, 5.3167185039545012e-02,
          6.9278273691079431e-02, 1.0037896980448997e-01,
          2.9602921389992048e-01, -1.5531325432385945e-01,
          -2.3011158104184123e-01, 1.7642121370682440e-01,
          1.9690425374609993e-02, -3.0551998142566237e-02,
          -7.3467730819682933e+00, -1.5317715455517544e-01,
          3.1505675243312231e-01, 1.2357298727092404e-01,
          4.6805196910660724e-01, 8.9387829259429050e-02,
          2.8309899438705860e-01, -1.6361594433154014e-01,
          5.0592182656620445e-02, 8.4136125093452627e-02,
          1.2066057164377079e-01, -7.5590148074636210e-02,
          -2.0339951009280444e-01, -2.2694063994570399e-02,
          -9.0625959504050127e-02, -1.0442925836995440e-01,
          -6.5591822316831951e+00, -2.1506568016322136e-01,
          3.1545544801165848e-01, -1.4072674149667688e-01,
          2.0277461010547904e-01, -3.4430608997500077e-02,
          9.0478332981556150e-02, 9.8158760102285011e-02,
          5.8907021316005372e-02, -1.4494130403206573e-01,
          1.5461698587491459e-02, -4.4736929175841350e-02,
          1.0716848768217861e-01, -1.8283289957015197e-01,
          -2.5228523661022262e-01, 7.6623055233771359e-02,
          1.8790825195986749e-01, 5.1290634696413720e-02,
          3.5441882424714982e-01, -8.0579860170338080e-02,
          -1.4069429061569680e-01, -1.5284958040483723e-01,
          1.2314377460032841e-01, 1.0434335135878375e-01,
          1.9912609716835830e-01, -3.2721789146037267e-01,
          2.9467912711354665e-02, -2.0837478593651576e-01,
          3.1817249227443312e-01, -1.3542773759868626e-01,
          -1.2494906295803689e-01, 7.0649884003990415e-02,
          5.8031350776934398e-01, 1.6083900066388021e-01,
          2.3312925562985140e-01, 8.9849206228289884e-03,
          -9.6684351853756692e-02, -7.6960960280450644e-02,
          1.4775891856153250e-01, 7.1279026640782103e-02,
          1.1500851220388303e-01, -2.9250957488028895e-01,
          7.5660671922965037e-02, -7.8790691158699383e-02,
          2.4452854986212280e-01, -5.6371863216387173e-02,
          -1.5735095276333141e-01, -1.7843306567783118e-03,
          1.1525234573161276e+00, 2.6254776794672113e-01,
          3.2198219668274058e-01, 5.1053852810054097e-02,
          3.1824873139580517e-03, -9.0462575108310003e-02,
          1.4004417494724967e-02, 1.5208350963471869e-02,
          1.3606625608658629e-01, -1.9321953331195948e-01,
          4.3806133565661987e-02, -4.0157191773920853e-02,
          1.3130621331553083e-01, -5.3835722556227213e-02,
          -1.9887229890432401e-01, 8.0865456644934927e-02,
          2.5932710315896088e+00, 2.9769129003847167e-01,
          2.1758504175551141e-01, -1.3392402487765759e-01,
          1.0712904499056532e-01, -5.0743487924906433e-02,
          -1.5436729123510726e-01, 3.4077134548556272e-02,
          5.0718279046659133e-02, -1.6425755242936352e-01,
          -9.5135819455551454e-02, 1.4333533655587791e-01,
          9.6601015508607863e-02, -1.0483561595045855e-01,
          -3.2769449138878420e-01, 9.9054477413620889e-02,
          -4.0095466299842336e-01, 5.7559004043256354e-02,
          1.4941326485478384e-01, -2.4792933495613970e-02,
          1.6881534635203466e-01, -2.1321611918232234e-02,
          -9.3596979163994690e-02, -6.8184727565396105e-02,
          2.2673952517007451e-02, 4.1056572349589515e-01,
          -3.8278066231976571e-01, 1.3614391459735899e-02,
          -1.4278827421738877e-01, -3.8237695908866332e-02,
          -9.7414193907150282e-02, -2.5646101956981809e-01,
          7.5797149865370161e-01, 2.1749416133512925e-01,
          1.2536853394383976e-01, -1.7114477005889764e-01,
          -1.9176701301142290e-01, -3.3348059104519279e-01,
          -2.2982517998174409e-01, 1.2790907899824860e-01,
          -1.2321530013126918e-01, -1.2303977364312868e-01,
          -3.3017038110941538e-01, 1.5264246562475542e-01,
          -1.0149696502796710e-01, -1.5001084238749793e-01,
          -1.9811512931100639e-01, 1.5325342854287743e-01,
          -1.0324895936894369e+00, 5.3348533630465517e-02,
          -4.7011589806367155e-03, -1.7668533194572167e-01,
          -4.1444663122591363e-01, -3.3682078517094621e-01,
          1.7159890437844917e-02, 2.5794678546317235e-01,
          -1.9999345634014226e-01, -4.2116714522659915e-01,
          -3.6587388971786199e-02, 1.5746998610295870e-01,
          1.3341732386733846e-01, -2.2434765084465016e-01,
          -2.3845362595292829e-01, 2.6979096603033231e-01,
          -3.2407625951882149e+00, -2.4274071034286918e-01,
          -2.2665701678373902e-02, -1.9228245909929328e-01,
          -3.3886217771351740e-01, -2.2191860838553010e-01,
          1.4050138950032254e-01, 1.4312436134207743e-01,
          -1.2934051828002255e-01, -3.6667161607922066e-01,
          1.1047231251377533e-01, 1.1105187967164454e-01,
          1.5394988248189878e-01, -2.5629497369442877e-01,
          -1.8675696416696214e-01, 2.8562924699954040e-01,
          -4.5906319491210885e+00, -3.8930060835271735e-01,
          -1.7874908736924053e-01, -1.0348004369414805e-01,
          1.6242594272747365e-02, 1.5996747335520894e-01,
          1.8703025002250864e-02, -2.4531032778808953e-02,
          -2.1010979988678281e-02, -1.5863257779491505e-01,
          2.2934022808538512e-02, 9.0853844303814796e-02,
          7.1246200452539168e-02, -7.5856711815236233e-02,
          1.0413845615932091e-01, 2.9061827374853832e-01,
          -1.2109646155268636e+00, 2.6528279300463137e-01,
          -1.3945899279624441e-01, 1.5652907090974530e-01,
          -1.7027120632148038e-01, -1.9408163794615126e-02,
          -9.1833660125113376e-02, -1.1557713643236307e-01,
          -3.1695267918758435e-01, 2.1390233390434307e-01,
          -1.8264623906496238e-01, 4.0606193418626790e-01,
          1.2056275576957175e-01, -4.1367276293318312e-03,
          -3.0365997808621537e-02, 1.5111732096420152e-01,
          1.3991640161894596e+00, 1.9055507565102897e-01,
          -7.2273267674569236e-02, -5.2331945891569726e-02,
          -1.0720306334283290e-01, -1.1138932599752789e-01,
          -1.4089111557873044e-02, 2.1915437929141646e-01,
          -1.1991673713434681e-01, 1.7864983173219251e-01,
          3.7919353378003465e-02, 1.8557865434000451e-01,
          2.0534934637977523e-01, -4.4961267776952335e-02,
          -1.8666228699025372e-01, 4.6623003502961466e-03,
          -1.8770926749637888e+00, 6.2103155260838400e-02,
          1.5304417623598460e-01, 1.4063677663245050e-01,
          5.7080402394058448e-02, -5.1106718761253195e-02,
          -1.8752679262622268e-01, 3.7894458943097585e-02,
          3.3322814917515833e-02, 1.2654275084702180e-01,
          8.3536807455945300e-02, 2.6721391749176971e-03,
          -4.5279039176602254e-02, 5.5402217325914514e-02,
          -9.1603972913536572e-02, -2.3079395802940311e-02,
          -7.4096776749830950e-01, 3.4148408195862640e-01,
          9.6276236043987690e-02, 1.4246050507453839e-01,
          8.3648832123788153e-02, 6.0006355126042354e-02,
          2.8917750437908640e-01, -1.3433108246885778e-01,
          7.8618066630619973e-02, 5.1475017312138702e-02,
          2.3740726163938508e-01, 2.9542973596966976e-02,
          1.2442726138819278e-01, 4.8886518312416935e-03,
          -1.3410775697024935e-01, -3.0716456621189908e-01,
          -1.8713836467066323e+00, 7.1618529126329447e-02,
          1.4489499823789284e-01, 1.4310517661115044e-01,
          2.2570267746848538e-01, 1.0911879078081982e-01,
          4.2373671531879070e-01, -2.2358989985639507e-01,
          9.6762594688424283e-02, -2.4546486743885057e-02,
          3.4061292888613887e-01, -3.8445984772009167e-02,
          -4.8747484292757735e-02, -3.1451952895564905e-02,
          -2.3734834886949324e-01, -1.0456968741476791e-01,
          -6.5010878152192433e+00, -1.5617202563357460e-01,
          2.6777941049331766e-01, 1.5244398192443956e-01,
          2.8755498723207568e-01, 1.4233486107503684e-01,
          2.4691377117902058e-01, -2.4815844790961086e-01,
          1.3242973281189802e-01, 1.0328003010027748e-01,
          1.9141881248116691e-01, -7.1550782250788897e-02,
          -1.4975322976023500e-01, -1.3740452887967455e-02,
          -2.2362091825515928e-01, -6.6461532265764664e-02,
          -5.0956985291211181e+00, -1.3697971847781190e-01,
          3.5781325017813542e-01, -2.0451064739253641e-01,
          -7.7995747185674563e-02, -6.7057893171424202e-02,
          4.9790617114693278e-02, -5.1140499021589625e-02,
          1.3761089117025993e-01, -1.4552441343160996e-01,
          -4.6852922923449482e-02, -1.8443804855956716e-01,
          3.2532812198465694e-01, -1.7560686687247556e-01,
          -1.4866569926691486e-01, 5.2891157793249918e-02,
          -2.3064556746414229e+00, -1.3148860483827995e-01,
          3.2430301821473972e-01, -1.7387574173843257e-01,
          -2.0916865014555880e-01, -7.0329797714664438e-02,
          2.1423532472883217e-01, 2.4616108787203217e-02,
          2.2691293975173260e-01, -3.1605303425227221e-01,
          1.2727739351814046e-01, -3.1291529545863284e-01,
          4.4411218507163752e-01, -1.6710091559681003e-01,
          2.7251743913598154e-02, 7.2547206458957278e-02,
          -7.9529538032160196e-01, 2.2355049316911263e-02,
          1.7134898240355595e-01, 8.3642825025789500e-02,
          -1.7668138992336468e-01, -7.0738226574507734e-02,
          2.4627636851330925e-01, 6.3585801918327495e-02,
          1.0843921528738854e-01, -2.4661085715420406e-01,
          1.5333520754979216e-01, -1.7562753140051959e-01,
          2.1395170494474477e-01, -1.1643239857263253e-02,
          -1.0676440426669747e-03, -4.4630250567463017e-02,
          -1.1124540022456955e+00, 1.3321336205001172e-01,
          2.8399916410328108e-01, 2.0747442466442054e-01,
          -1.1514510872846824e-01, -9.8531902403032834e-02,
          1.6336425862688261e-01, -2.0294713307566759e-02,
          1.5088303774198053e-01, -1.4812922062753231e-01,
          1.5316110766064364e-01, -1.9437349497303155e-01,
          1.0116144797003213e-01, 3.1285959303891324e-02,
          2.5020419048678470e-02, 2.5836267474864120e-02,
          4.2170239684562530e-02, 8.0232675808720663e-02,
          3.1942199899906432e-01, 1.5770345641420425e-01,
          -5.8090796488301906e-02, -7.5210487768224268e-02,
          1.5295656864206655e-01, 1.2604305118702029e-02,
          1.6749672343550018e-01, -1.2094332273527661e-01,
          1.5923518844912721e-01, -1.7101507992559975e-01,
          9.3852114781030838e-02, 8.4299916819293875e-03,
          -4.0325885092389192e-02, 3.4575149831484790e-02,
          1.5203203191515267e+00, 2.0748769058478614e-01,
          2.4087491764885652e-01, -1.4032577076874353e-01,
          1.9741131707082563e-01, -4.1247798077402968e-02,
          -1.9940454360549081e-01, -2.3194963504879880e-02,
          4.1170350675518864e-02, 1.7816368108298586e-01,
          -3.5479724731488960e-01, 1.1330070787218195e-01,
          -3.2142215738655971e-02, -1.0549901959107734e-01,
          -2.8900168049252350e-01, -1.1388725553123411e-01,
          6.8117094075650764e-01, 7.9640949007840023e-02,
          1.1644927080721451e-01, -2.4325519227444625e-01,
          -2.0436782994200928e-01, -3.3627455089227037e-01,
          -2.6130315893321948e-01, 1.6177664954229606e-01,
          -1.4867522055045032e-01, -1.9612563981363998e-01,
          -3.1083130041782037e-01, 1.0696886304693651e-01,
          -2.6201055194277713e-02, -1.7459943886593743e-01,
          -2.1419262236249181e-01, 1.8246927331932128e-01,
          -1.3663767345711773e+00, 6.0775862150861233e-02,
          -4.0093434270901097e-02, -2.0743998866583527e-01,
          -4.9466831951126561e-01, -3.6052777923213952e-01,
          8.0964555308024488e-02, 2.0776162505422568e-01,
          -2.4753983840799357e-01, -4.1264951831887448e-01,
          -8.9312329118136288e-02, 1.3929829449533090e-01,
          2.2213428616390979e-01, -2.5920042967328810e-01,
          -1.6629766402376664e-01, 2.5856218223524746e-01,
          -1.3691661865074294e+00, -1.3356366031980973e-01,
          -1.0682567258286813e-01, -1.2163221058387504e-01,
          -3.7710597531734297e-01, -2.9195129286933430e-01,
          1.3727650437321706e-01, 1.6277474849307524e-01,
          -2.4230682501814735e-01, -3.9467603410548086e-01,
          5.3373384969046270e-02, 1.6977311912831439e-01,
          1.2935770183010833e-01, -2.9604818973748714e-01,
          -1.9006373524808284e-01, 2.6000964562964440e-01,
          -2.5701534946396092e+00, -2.2502157680273568e-01,
          -1.9428621587196013e-01, 2.4726374257426798e-02,
          5.6277335636278410e-02, 6.8240212831225486e-02,
          8.5673295395784204e-03, -3.9109927655912320e-02,
          -1.0826539510167335e-01, -2.5648863082772277e-01,
          -1.3606359652488052e-02, 1.3547779270134652e-01,
          6.7923445876432657e-04, -1.2567808973986502e-01,
          4.0535219013400590e-02, 2.5179959667893220e-01,
          1.2724027466185381e+00, -8.8714466822038790e-02,
          -2.6265049493371123e-01, 1.5273528789758628e-02,
          -9.8678139113641275e-02, 8.2434777835484779e-02,
          -9.6748477988185778e-04, -5.1809045748600811e-02,
          -9.6737350188487656e-02, 1.1374336019580418e-01,
          -1.1196210157926349e-02, 8.0309379661437502e-02,
          1.5900088614489882e-01, 4.5837177120541632e-02,
          1.2988302300125842e-01, 2.4741163175296563e-01,
          3.4059586351596574e+00, 2.3550479902226432e-01,
          -3.4710278841319678e-02, 7.6059508027369147e-02,
          2.3929539614279124e-01, 2.3643488275051519e-01,
          1.1597988733940126e-01, 1.0128326589182643e-01,
          3.1877215812768939e-01, 2.0074847002953933e-01,
          2.3202530563170995e-02, -7.5629507554195702e-02,
          7.3445085593163928e-02, 1.1746686410997331e-01,
          1.9229569428339408e-01, 3.4329759821687206e-02,
          -2.6705466951786985e+00, 1.5101413423602786e-01,
          1.8941064664538904e-01, 2.4790779536963303e-01,
          4.0482908139367157e-01, 2.8370577960045673e-01,
          2.4317389882799484e-01, -1.3353763477280556e-01,
          3.6010366633747443e-01, 1.3522260750650467e-01,
          4.7391775355888698e-02, -8.9544016193284046e-02,
          -1.9970258232429342e-01, 2.2400088310104396e-01,
          1.7620792313849795e-01, -1.8933744057392160e-01,
          -4.2566018164471320e-01, 4.2106379634177471e-01,
          4.0233686917235452e-02, 1.3330780137101070e-01,
          3.0587104161232848e-01, 2.6778166243920770e-01,
          4.0015375068352604e-01, -2.7461643174424544e-01,
          3.6342348786994438e-01, 1.1829724739384438e-01,
          6.6923389754995635e-02, -9.9520369772777256e-02,
          -1.7981395632423430e-02, 1.4021513846301936e-01,
          1.3355220940282325e-01, -2.1173490415460619e-01,
          -2.1509024205153460e+00, 1.1650627354172972e-01,
          6.4763523421606781e-02, 1.2693832262061217e-01,
          2.1642462245522787e-01, 3.1250708650314057e-01,
          4.8691750850316418e-01, -2.2823409178880699e-01,
          1.9678000117902769e-01, -1.8636495742776749e-02,
          2.3782273437954310e-01, -1.3049163553335119e-01,
          -7.0119723414803449e-03, -5.0179190516515475e-02,
          -1.3174539071892682e-01, -6.4516494097812793e-02,
          -7.3919612452540562e-01, -1.7102777980442846e-01,
          1.3827003580809296e-02, 8.4942069942946688e-02,
          1.4053784717703441e-01, 2.7966698788547101e-01,
          2.6385141579693139e-01, 1.9545229523761094e-02,
          1.3950638917024374e-01, 7.0897464804819149e-02,
          1.8152374223264595e-01, 2.0678707293361145e-02,
          -1.5832363099705597e-02, -1.3706799136613870e-01,
          -2.8005746056505609e-01, -2.9558135434146541e-02,
          -3.7936164512766335e+00, -3.3768867285709753e-01,
          2.0486833987616226e-01, -1.4948181513119616e-01,
          -1.1034574810835562e-01, 1.2025501125227381e-02,
          7.9479664359678126e-02, 2.9264634846654172e-02,
          1.7570329490871292e-01, -5.7659218002016309e-02,
          -6.0715984519184064e-02, -2.0539634686390368e-01,
          2.1365493751206155e-01, -1.1327959777667679e-01,
          -6.3505745841967928e-02, 1.1704061073192133e-01,
          -9.2902174143864702e-01, -9.4981969290376000e-02,
          1.1166230871275906e-01, -1.2998658046990175e-01,
          -2.9601133504235405e-01, -1.3586835268859124e-01,
          2.1224449410110319e-01, 3.2793481546847844e-02,
          3.0960043735248733e-02, -3.2504449179603179e-01,
          3.4349751179238011e-02, -2.1414816299412648e-01,
          4.1119533993664553e-01, -2.2491823054109239e-01,
          5.5889760900797822e-02, 5.2321030722515732e-02,
          -2.9893457894646045e+00, -8.6479556140151806e-02,
          -1.0812834555099217e-01, -8.9464404521977443e-04,
          -3.3171216513159479e-01, -2.0576753397151681e-01,
          -1.6976573564240838e-01, -7.1874915746339973e-03,
          -3.0378772908685486e-01, -3.2482592094658591e-01,
          -4.0188450629653795e-02, 3.1516606597170496e-02,
          2.0146229740263746e-01, -6.8785110146420470e-02,
          -2.3050885080674426e-02, 1.3577382007579869e-01,
          -2.2595786886148606e+00, -3.8611334653106795e-02,
          -3.7526616380559769e-01, -1.0330043213346417e-02,
          -3.7010751317658164e-01, -2.7785189206013955e-01,
          -3.2907393900970133e-01, -7.2130819961326670e-02,
          -6.0725170746298895e-01, -1.1482217597754353e-01,
          -2.0151551930864045e-01, 3.7529815085575668e-01,
          2.8606997349433325e-02, -1.1512618289968179e-01,
          -5.9505219149380943e-02, 1.0282123071209268e-01,
          -1.4972658197270425e+00, -1.2238328803284318e-01,
          -4.0007266339950059e-01, -5.9001612639954730e-02,
          -3.3123074887034620e-01, -2.5634594981085385e-01,
          -3.5389814472857650e-01, -4.1705399492833403e-02,
          -6.2646500529941196e-01, -7.0164361257234284e-02,
          -2.0478066224398633e-01, 3.8980442794010084e-01,
          -5.2506747191707320e-03, -1.3843166985872363e-01,
          -7.5465270302973522e-02, 9.5798037399834821e-02,
          1.4535618352857116e+00, 1.8024620531395197e-01,
          2.1538692643143667e-01, -1.4668292049224091e-01,
          1.9278063717681315e-01, -4.2199281286942392e-02,
          -2.1917220369675089e-01, -1.5402213051399043e-02,
          5.8574353255457174e-03, 1.5798016453739117e-01,
          -3.7146064417519187e-01, 1.3097504512294031e-01,
          -1.9711482141726275e-02, -1.1856369039513664e-01,
          -3.0303298769565529e-01, -1.1466168893901231e-01,
          2.8723508071844578e-01, -5.3548686554695239e-02,
          -8.6904601888758856e-02, -3.6485132705617923e-01,
          -3.1329918188320699e-01, -3.9928113735665149e-01,
          -4.4630556371792141e-01, 1.7452041919427397e-01,
          -4.1611714772993252e-01, -2.5796805159914121e-01,
          -4.1357369274073374e-01, 2.5678584580192709e-01,
          1.0009501834562794e-02, -2.6204008105371268e-01,
          -2.6380057269226742e-01, 2.3985215429571816e-01,
          -2.4050746335225734e+00, 8.9460771926842805e-02,
          -1.0229623260665933e-01, -1.8278605291749864e-01,
          -4.9623390068202616e-01, -4.4032999731956302e-01,
          -1.2324224544432771e-01, 1.0808133640471895e-01,
          -4.1032828729598075e-01, -2.2764517203885268e-01,
          -3.0428854650218634e-01, 2.5695169740244950e-01,
          1.0668894195145932e-01, -2.7384083774737383e-01,
          -1.8255038047333624e-01, 2.5006416483743810e-01,
          -1.1953103024184679e+00, 1.5624900349684981e-02,
          -1.1859718897939506e-01, 4.4430911101601404e-02,
          -3.3083141619785378e-01, -2.7607067828972542e-01,
          2.0202339767297869e-01, 1.0915916173604789e-01,
          -2.0641457867363519e-01, -2.1407693609555198e-01,
          1.1850727314123314e-02, 2.4641559281003855e-01,
          -3.0352600099009287e-02, -2.3452899507711655e-01,
          -1.8065512452039859e-01, 2.1351331153545372e-01,
          -4.7214250762081633e+00, 2.7510100730967408e-03,
          -6.6742949616362277e-02, 7.9431079500661056e-02,
          -2.6249816405300413e-01, -5.3374279566456025e-02,
          -1.3106857895128596e-01, 9.2898832904717080e-02,
          -1.1955629072578930e-01, -2.6759874708307657e-01,
          -3.3688385026925567e-02, 2.2001532378947000e-02,
          8.9176350813823524e-02, -1.1340727104040477e-01,
          -1.8300841290837919e-01, 1.7949253138737944e-01,
          -1.5317055145965236e-01, -7.1513202362433845e-02,
          8.9732300779023735e-02, 3.2937034036564568e-02,
          7.2798875563514095e-02, 1.5606248522113600e-01,
          -1.4715617834447900e-01, -4.2398442802516052e-05,
          6.5114585349029808e-02, -8.8527049323310472e-02,
          5.7351926050479493e-02, -1.0440358806552892e-01,
          2.3219785360494755e-01, -5.5293150130020431e-02,
          9.1516877163656890e-02, 2.2198061551451134e-01,
          -3.5906636892261679e+00, -3.2197289677664725e-01,
          1.5556636262283202e-01, -1.0141918024826582e-02,
          3.0223530150667871e-01, 2.8018847333743030e-01,
          -3.2592746494731477e-02, 1.1594711036780882e-01,
          1.5664379740761983e-01, 8.5384011748779562e-02,
          1.7097244247837065e-01, -1.4555576568710221e-01,
          7.2594734733693711e-02, 1.8916180695898901e-01,
          2.4912550403672018e-01, -2.1124710234644228e-01,
          -4.0636639002837036e+00, 1.0900641351693845e-01,
          2.9726209399309800e-01, 2.0530578669760943e-01,
          3.1561247565573181e-01, 1.7296342481476190e-01,
          1.6291419508665719e-01, -1.8180467711990686e-01,
          2.9797172390007154e-01, 1.4091601315195756e-01,
          7.1265632932537126e-02, -2.4073763381045105e-01,
          -1.6721153220657542e-01, 2.2612199894043555e-01,
          2.2462939093949705e-01, -3.7416255598559522e-01,
          -3.8728491055279939e+00, 4.1176270967661771e-01,
          1.1394372769292152e-01, 1.0435202843928970e-01,
          2.5970354927509803e-01, 2.7176155698588661e-01,
          3.1738545131913709e-01, -2.8747223368816621e-01,
          2.6144457061553228e-01, 7.7890947925958076e-02,
          1.4436820273890133e-01, -1.4167723514141575e-01,
          7.1030914970621306e-02, -3.9248909316537989e-02,
          1.1971026317391201e-02, -2.6902097996483176e-01,
          -2.3452372885744448e+00, 3.4357007598026684e-01,
          -1.0503417490577498e-02, -1.6045982498535775e-02,
          2.6459525297000890e-02, 3.7214019065794535e-01,
          2.4089041096418670e-01, -1.1111751988633191e-01,
          7.6086207615142426e-02, -1.9690734123662991e-02,
          -2.4847293622072213e-02, -2.9434058324359202e-02,
          1.5389580528363900e-01, -1.3675537777167182e-01,
          -1.4082640185072215e-01, 3.7325824872932463e-02,
          -7.0193939338140732e-01, 6.5648302704422387e-02,
          -2.1366029104721296e-01, 7.8002065067316426e-02,
          -2.1195535267028501e-01, 2.0686602054758327e-01,
          7.9303315537807336e-03, -3.3031101188549122e-03,
          -1.8406997239309433e-01, 1.7677443226358427e-01,
          -2.2937032469212851e-01, 1.5270175809039924e-01,
          2.3814927696042949e-02, -1.0680075685456510e-01,
          -1.7263500307518762e-01, -2.0643307463745569e-01,
          -9.4605288759164952e-01, -2.7935505205355088e-01,
          -4.8169697030647305e-03, -6.7174682654476361e-02,
          -1.3110119686531632e-01, -9.7758603813429754e-02,
          -1.1175272594561213e-01, 7.3113418431858090e-02,
          -3.3913177916224120e-02, -5.6770551763661026e-02,
          -2.3117981757733611e-01, -1.0342782259971812e-01,
          4.3176295133583897e-02, -8.9778031441784478e-02,
          -5.0328857644022111e-02, 7.8997345262700178e-02,
          -7.2526087039855125e-01, -1.7929514601145494e-01,
          -1.1204296161746863e-02, -1.3132929913303806e-01,
          -2.2846328694684617e-01, -1.1460919276203235e-01,
          1.0353992765122585e-01, 4.5344866634541035e-02,
          -5.2254749301997326e-02, -1.7688066968793004e-01,
          -1.1634736248977835e-01, -1.0076083135126458e-01,
          2.6145883799182268e-01, -1.9909572310104368e-01,
          6.5603787480651857e-03, 2.1924494591471444e-02,
          -2.5512671110907843e+00, -1.1610407507709396e-01,
          -2.4405399432999808e-01, -1.4245853045947199e-01,
          -3.2101189513952666e-01, -1.2555988206128957e-01,
          -8.7414488851205771e-02, -7.8673167727312435e-02,
          -3.6711215574259970e-01, -3.0905536183537086e-01,
          -6.3331095648186828e-02, 8.8654073447927834e-02,
          3.0854497735022990e-01, -2.0225008108335446e-01,
          2.7704984498777216e-02, 1.4003785654491904e-01,
          -1.9128078896884599e+00, -7.9303310521998696e-02,
          -4.0109307112465425e-01, -4.8771726624247773e-02,
          -3.5344530449141753e-01, -2.4696763629561816e-01,
          -2.9637276474472740e-01, -6.5480350930633827e-02,
          -6.0147522733644665e-01, -1.0958526341414007e-01,
          -1.9379087859537630e-01, 3.7015648941904061e-01,
          5.7508242133808632e-02, -1.5915730891010607e-01,
          -5.0638058653784596e-02, 9.4641903550445508e-02,
          -1.5034158443590895e+00, -1.1041471562765801e-01,
          -3.9996071325902260e-01, -5.8368712535328479e-02,
          -3.2585022886060971e-01, -2.6237452083385993e-01,
          -3.4368112241853083e-01, -4.9201560582389260e-02,
          -6.1691826353993351e-01, -6.0682031160363012e-02,
          -2.1086437522672952e-01, 3.9166890484217776e-01,
          4.4145063878863067e-03, -1.3661400942286128e-01,
          -7.9039772949442352e-02, 8.6048835710890212e-02,
          6.9399873281143998e-01, -2.7846945905993375e-01,
          -1.0570329346767419e-01, -3.6365190924955626e-01,
          -1.6637927139567343e-01, -1.9765792448636971e-01,
          -4.4691114073531807e-01, 1.1597614962373069e-01,
          -4.1121417701175395e-01, -3.1230914606945498e-01,
          -2.0898882886259476e-01, 2.2497537344211918e-01,
          2.1515870698224801e-01, -2.3189859831788887e-01,
          -3.2343625489641736e-01, 1.8326053950118687e-01,
          3.4008229514452715e-01, -9.0893290976853724e-02,
          -1.5757816912761655e-01, -4.2387986083915524e-01,
          -3.3440767602776489e-01, -3.6911007748715030e-01,
          -4.1674286208996958e-01, 1.4508889500007216e-01,
          -4.6068035207549846e-01, -2.5515327607871591e-01,
          -4.1354080987507874e-01, 2.8861894310594649e-01,
          5.9459255657237663e-02, -3.1672052632222264e-01,
          -2.3958410802756369e-01, 2.4836418256586149e-01,
          -1.2417013042502905e+00, 6.5850492436654265e-02,
          -5.4265218294211472e-02, -1.6807646844588572e-01,
          -4.7611879070736735e-01, -4.4046590490858623e-01,
          -9.9090816297920312e-02, 1.4518811421403374e-01,
          -3.2828874530321783e-01, -1.4533160564601644e-01,
          -3.3890674976108254e-01, 2.2193795481443782e-01,
          7.4917229721241527e-02, -3.0606193995428327e-01,
          -1.6491547945902391e-01, 2.6011800729144552e-01,
          4.1780721642835611e-01, 1.0918253208541988e-01,
          -1.1190549295089004e-01, 1.3310609025859405e-01,
          -4.1342146918900113e-01, -3.9776473001344781e-01,
          -2.5208243799114852e-02, 1.8807567956400192e-01,
          -1.9877173798551123e-01, 9.9908314777586577e-02,
          -1.7807309252375403e-01, 2.4253524803153181e-01,
          -2.1192597863119272e-01, -9.7773106551104869e-02,
          -3.1304665010045785e-01, 1.8653588130262044e-01,
          -2.9769772326511790e+00, 6.5627255087019651e-02,
          2.5254676824877233e-02, 8.2200979810259256e-02,
          -2.0011810073463882e-01, 5.9803823387068043e-02,
          -3.3550190274019454e-02, 1.6664474105620741e-01,
          1.2361898585616963e-02, -1.1665985975900116e-01,
          2.7131901472847313e-02, -5.9962611099050434e-02,
          2.8005709384843754e-02, -5.5083902492290449e-02,
          -3.1345677041806741e-01, 1.5030088399678324e-01,
          -1.6918255734256368e-01, -5.4492575671522395e-02,
          1.9854096585207662e-01, 6.8154571786240320e-02,
          1.2571811717043216e-01, 2.0167077218109877e-01,
          4.6774308979406140e-02, -1.0093368292856882e-01,
          1.1854538553816032e-01, -1.1057918749502073e-01,
          9.0917400598124962e-02, -1.3044669377275592e-01,
          2.6454580684854478e-01, -5.6257803095282846e-02,
          1.5578316074426671e-01, 1.2573862691165275e-01,
          -2.0150903178460404e+00, -5.0858285507161671e-01,
          1.7095059569726875e-01, -9.3566333042071778e-02,
          1.5361509596150602e-01, 1.3818374280157966e-01,
          -3.8684123685098562e-02, 2.1173501120741967e-01,
          2.9770711190598285e-02, -2.6587985547765545e-03,
          2.6627215215466243e-01, -1.3089305306629806e-01,
          2.0441283670706983e-01, 7.5871237364256397e-02,
          1.5381557307499388e-01, -1.7273299798557129e-01,
          -1.1420933095638386e+00, -6.8958109875434853e-02,
          7.9939410956849422e-02, 5.4072035730871007e-02,
          1.1117122565094895e-01, 4.5155423394471456e-02,
          -9.7318789739748182e-02, -8.1366876037161390e-02,
          -5.8748522610473336e-02, 4.1542305892180061e-02,
          5.0879953418385124e-02, -2.6906576273360842e-02,
          -4.7442015642246121e-02, 7.4915636401328298e-02,
          1.2427249850005909e-01, -2.8684630364538183e-01,
          2.1533249273437866e-01, 3.2292842105788450e-01,
          1.7009516241840592e-01, -7.8574508256671671e-02,
          1.6831816581110295e-01, 5.1717657799877227e-02,
          -1.4942517442189066e-01, -2.1494480338938277e-01,
          4.8293416981189975e-02, -1.1914804404683797e-01,
          7.5446454011718457e-03, -7.1223196334367397e-02,
          1.4053746949316798e-01, -2.4573645186805579e-01,
          -9.7204344236898985e-02, -1.1606952480874695e-01,
          7.0809942003027593e-01, 2.8235465693544848e-01,
          -3.9019701774616708e-02, -1.9459844400096507e-01,
          -2.0219126522214081e-02, 1.0171225206676639e-01,
          -1.9499429942064822e-01, -1.6531299362767171e-01,
          -6.1870294309480545e-02, 1.1898977566306245e-02,
          -3.2218467197058509e-01, 4.7517314541647176e-02,
          1.2720052688266192e-01, -2.6743189999241401e-01,
          -1.5984410742879759e-01, -3.0789974381689404e-03,
          -5.2313650909820464e-01, 1.8473896665994874e-01,
          -1.6656565804966017e-01, 1.1564636733281047e-01,
          -2.0315136114999496e-01, 2.0103533924092720e-01,
          -1.1787299406336547e-01, -6.0026466416026832e-02,
          -1.1614288439056228e-01, 1.1839461170404011e-01,
          -3.5858938374067462e-01, 3.2064780392374245e-02,
          -3.6860526395689465e-02, 1.0648427980319548e-02,
          3.8822759400381152e-03, -2.5069234567449367e-01,
          -3.3434656147536573e-01, -3.1116640636972692e-01,
          -5.3111400687251897e-02, -6.1152931585348104e-02,
          -1.5168915377461170e-01, -1.0419710296659095e-01,
          -1.4800545699045348e-01, 8.9285695287584524e-02,
          -7.7340869545663077e-02, -4.1373972542949666e-02,
          -2.3790751362849488e-01, -6.5538091893383416e-02,
          5.1425926564084160e-03, -8.0106717359039584e-02,
          -7.1071777197210279e-02, 3.4365248103489426e-02,
          -3.9557208932976468e-01, -2.3181961491711495e-01,
          -2.4469733604389289e-02, -7.4236023206621038e-02,
          -1.6951150445676999e-01, -1.0611828162385231e-01,
          4.6963522958341247e-02, 8.8015804777007794e-02,
          -2.5387226308003844e-02, -9.2143587122539339e-02,
          -1.5816764030415881e-01, -7.5968524388544262e-02,
          1.1934379257524971e-01, -1.3855533963661890e-01,
          -2.6553100416755661e-02, 2.5751683068974535e-02,
          -1.9546346012518139e+00, -2.2821429565481935e-01,
          -2.6145264149732461e-01, -2.0648981946027331e-01,
          -3.0945866346620854e-01, -1.3253601418651087e-01,
          -9.8094512126294928e-02, -4.6491976358601972e-02,
          -3.9457345432828378e-01, -2.5911893763563304e-01,
          -7.0833257100595834e-02, 9.4200639691199101e-02,
          3.2738529535782535e-01, -2.5485609225430045e-01,
