%YAML:1.0
my_nn: !!opencv-ml-ann-mlp
   layer_sizes: !!opencv-matrix
      rows: 1
      cols: 3
      dt: i
      data: [ 256, 16, 85 ]
   activation_function: SIGMOID_SYM
   f_param1: 1.
   f_param2: 1.
   min_val: -9.4999999999999996e-01
   max_val: 9.4999999999999996e-01
   min_val1: -9.7999999999999998e-01
   max_val1: 9.7999999999999998e-01
   training_params:
      train_method: BACKPROP
      dw_scale: 1.0000000000000001e-01
      moment_scale: 1.0000000000000001e-01
      term_criteria: { epsilon:1.0000000000000000e-04, iterations:10000 }
   input_scale: [ 2.6063291159314887e-02, -1.7901757699140852e-01,
       1.9009728883591429e-02, -2.8286476578784048e-01,
       1.3221467869224748e-02, -4.4915215132880643e-01,
       1.1534431490074252e-02, -5.0243983570763440e-01,
       1.1055874457703035e-02, -6.1312720921147401e-01,
       9.5214062292108305e-03, -7.0137398686146757e-01,
       9.1296080620631593e-03, -7.9156310357533888e-01,
       9.0438582539642282e-03, -7.9575616796880677e-01,
       8.9907179777226967e-03, -7.8722726612939931e-01,
       9.3078428856206083e-03, -7.1436364455297363e-01,
       1.0682375113521660e-02, -5.9284129772869920e-01,
       1.3105573402198459e-02, -4.6011795990347049e-01,
       1.5169562203633519e-02, -4.2899521911875593e-01,
       1.4867670921432671e-02, -3.6124192433103836e-01,
       2.0801733746462898e-02, -2.6543012260486659e-01,
       7.2619321868489517e-02, -1.8798030175100430e-01,
       2.1475884804322599e-02, -2.3807552297363338e-01,
       1.3643104594974871e-02, -3.8333225881995109e-01,
       1.0406750723541318e-02, -5.8390791631115546e-01,
       9.2268419125340062e-03, -7.1199584678205274e-01,
       8.8846729934844784e-03, -8.2480227115513616e-01,
       8.6407890009233389e-03, -9.0303651450221112e-01,
       8.4868745388068986e-03, -1.0043124847094402e+00,
       8.3719219639163834e-03, -9.7229109711220907e-01,
       8.4505035786246827e-03, -9.4747046123539946e-01,
       8.6197098095189481e-03, -8.6857121589175501e-01,
       8.9089341636486834e-03, -8.2568001828696003e-01,
       9.7259179627250097e-03, -6.9643130280518339e-01,
       1.0196797842945162e-02, -6.0172760756625543e-01,
       1.1032395549482946e-02, -4.9103616534241523e-01,
       1.4078429384413753e-02, -3.4978863407674854e-01,
       2.1368977956337534e-02, -2.4580430072061404e-01,
       2.0221572732912248e-02, -2.8529750330034481e-01,
       1.2822070095786660e-02, -4.2561945820814112e-01,
       1.0131805180474207e-02, -6.1682429938726979e-01,
       8.9522251474136467e-03, -7.9899888329973578e-01,
       9.1023927987874675e-03, -8.4038491685719496e-01,
       9.0448200902159340e-03, -8.3196839424117652e-01,
       9.0212573733168561e-03, -8.3717268424380420e-01,
       9.0462735124370950e-03, -7.8661225165003013e-01,
       9.0440242674794079e-03, -7.9639093692490104e-01,
       9.1426193167406522e-03, -7.4797074718729106e-01,
       8.9352847876301295e-03, -7.9850810739284339e-01,
       9.2883904670583925e-03, -7.9651928993797316e-01,
       9.5468103677018371e-03, -6.1917884384809063e-01,
       1.0560586545822825e-02, -5.1752908695415167e-01,
       1.3798702676690776e-02, -4.1664197110648038e-01,
       2.1493746359928730e-02, -2.7118966835841507e-01,
       1.5976832765518589e-02, -2.9525186950678356e-01,
       1.1937520375616675e-02, -4.6126578731382833e-01,
       9.5639330099004816e-03, -6.6247997683436366e-01,
       8.7722239175527950e-03, -8.4057955927681616e-01,
       8.7803120217401602e-03, -8.5444979274419963e-01,
       8.8576541110491121e-03, -8.4577942968931807e-01,
       9.0689712950511384e-03, -7.7853231866030426e-01,
       9.1920410694566954e-03, -7.5705650248045342e-01,
       9.0647625427762481e-03, -7.6651632061715957e-01,
       9.3336133492527822e-03, -7.2471507536941038e-01,
       8.8920340260849086e-03, -7.7757026686387065e-01,
       9.1137529872202215e-03, -7.4566123012010932e-01,
       9.9599110009625583e-03, -6.3754813161590040e-01,
       1.1153559880858886e-02, -5.2402611051669579e-01,
       1.3297540492668587e-02, -3.8821219644025035e-01,
       1.9013918164986869e-02, -2.5435189956705290e-01,
       1.7775147277134137e-02, -3.0705297267872284e-01,
       1.1966597351440379e-02, -4.7968960240202441e-01,
       9.3531015092955510e-03, -6.9170194133316010e-01,
       8.8654474851428151e-03, -8.3355470240308505e-01,
       8.9923195741174779e-03, -8.4887496779668992e-01,
       8.9490028392779104e-03, -8.0096132269491371e-01,
       9.4380807252429314e-03, -7.6108682968358998e-01,
       9.1461936907709269e-03, -7.4612034931111859e-01,
       9.2322244480255097e-03, -7.5108102552308098e-01,
       9.6053789941857749e-03, -7.5146996462512827e-01,
       8.9981794897334502e-03, -7.6746758322149411e-01,
       9.3960327582668559e-03, -7.0475614848577572e-01,
       9.8343368405699218e-03, -6.2490186095507161e-01,
       1.0844845004243792e-02, -5.1664841600217426e-01,
       1.2480136541741285e-02, -4.0742297178838832e-01,
       2.4368446570381785e-02, -2.5496357525925173e-01,
       2.3007851590119026e-02, -2.6741697219601201e-01,
       1.1469420546384966e-02, -5.2333327464505119e-01,
       8.9087816430266382e-03, -6.9961934925780056e-01,
       9.2084494707025937e-03, -7.4388485809898608e-01,
       9.3472130746987316e-03, -7.7608574843070033e-01,
       9.0009111652251377e-03, -8.0787035241252136e-01,
       8.9067141985432613e-03, -8.1666934874185815e-01,
       9.3956769935453696e-03, -8.5146309394649156e-01,
       8.9788898700766014e-03, -8.2903372868970127e-01,
       8.8812746523167022e-03, -7.5790260375827212e-01,
       9.2998145465416886e-03, -7.7560453318157685e-01,
       1.0181214245120319e-02, -6.6241888797108539e-01,
       1.0196379324220942e-02, -6.1364724024397121e-01,
       1.1415630620220286e-02, -5.1448616400958513e-01,
       1.3328960807004474e-02, -3.9583205322287002e-01,
       2.6249848932554089e-02, -2.0819880181934328e-01,
       1.9006167592587189e-02, -3.0659663493642075e-01,
       1.0909318425271517e-02, -5.6934174387431291e-01,
       8.9467700976648447e-03, -7.3097667917949682e-01,
       9.3483553682629107e-03, -7.5005861557588305e-01,
       9.6386750347860432e-03, -7.6255689060921583e-01,
       8.9780798461320411e-03, -8.4286213595487602e-01,
       8.6160328323408066e-03, -8.8041085204524749e-01,
       8.6458363067124285e-03, -9.6176283075869051e-01,
       8.6422831643435949e-03, -1.0058136069039201e+00,
       9.0380837890841181e-03, -8.5722351274981823e-01,
       1.0293876082185285e-02, -6.7239598568834280e-01,
       1.0581268539875014e-02, -6.3505750556747009e-01,
       1.0123434255120448e-02, -5.8825830251611333e-01,
       1.0578758151133327e-02, -5.3981891594068920e-01,
       1.4666923764222718e-02, -3.6742739304201366e-01,
       2.6429243200884418e-02, -2.2140154589998032e-01,
       1.5420354348437110e-02, -3.5801656981542845e-01,
       1.0388018287193055e-02, -5.7923589969388467e-01,
       8.7466113008296455e-03, -7.8274674047024617e-01,
       8.9253762808389411e-03, -7.6768436445250132e-01,
       9.4421610990625647e-03, -7.6519273546803035e-01,
       8.9070045679853684e-03, -7.8860073586494450e-01,
       8.6434416010032385e-03, -9.3739358940251682e-01,
       8.4747891658667699e-03, -1.0124709548044375e+00,
       8.7849727045060180e-03, -1.0363255800675557e+00,
       8.7342303898835291e-03, -9.0786086166846502e-01,
       9.3758069730026598e-03, -6.8995224113330433e-01,
       9.8176662319275909e-03, -6.7697016240383001e-01,
       9.5268965109229636e-03, -6.3421911058430014e-01,
       1.0504210195896794e-02, -5.1620690105549960e-01,
       1.4217184759125926e-02, -3.5965415387800270e-01,
       2.0318095418939836e-02, -2.2849149591127768e-01,
       1.3698230990301555e-02, -3.6460777115899795e-01,
       1.0415180439665678e-02, -5.4825509834400132e-01,
       9.0684853921230539e-03, -7.4879779380673217e-01,
       9.1662473489171198e-03, -7.6142707263547527e-01,
       9.2796235437751402e-03, -7.6787559164233032e-01,
       8.6856734234082404e-03, -8.3154155734732371e-01,
       8.7203436399941638e-03, -9.5839068130290139e-01,
       8.4656036715931790e-03, -9.6677193929594107e-01,
       8.7757940289959219e-03, -1.0572073698245259e+00,
       8.6483527390302534e-03, -9.0016997223677753e-01,
       8.8313029152366444e-03, -8.0077208376557185e-01,
       9.2390366472388172e-03, -7.5997675735430148e-01,
       9.0786167247028839e-03, -7.3215153048989601e-01,
       1.0217303823111413e-02, -5.9418000575888485e-01,
       1.3152153995280474e-02, -3.7660253525914544e-01,
       2.1597973134868925e-02, -2.4387197094000571e-01,
       1.6128483976336042e-02, -3.1694775082639798e-01,
       1.1601662795174821e-02, -4.9814225281682062e-01,
       9.5213381617320625e-03, -7.1007419627865798e-01,
       9.6666469560911256e-03, -7.4333753193210439e-01,
       9.2254583940946759e-03, -7.7799608560028133e-01,
       8.8970271074686105e-03, -8.0886686445614620e-01,
       8.9022807398197838e-03, -8.4271532991916887e-01,
       9.0006477284329308e-03, -9.2634666421031731e-01,
       8.8113271323146062e-03, -9.6295217946009626e-01,
       8.9656585964651408e-03, -8.8186217954831125e-01,
       9.3591633837754457e-03, -7.8092859274222315e-01,
       9.5291844042485838e-03, -7.5601826439192754e-01,
       9.0122607084205820e-03, -7.5357949112181921e-01,
       1.0132359983988582e-02, -6.3220136380097902e-01,
       1.4693477872476527e-02, -4.0218148005235749e-01,
       2.2925770837164950e-02, -2.5427954968535521e-01,
       1.6532340265795545e-02, -3.1061905596534717e-01,
       1.1148603575306624e-02, -4.8161967445324616e-01,
       9.2242189337313867e-03, -7.2655219304316243e-01,
       9.1137759751708184e-03, -8.0055408165900477e-01,
       9.2130119440095252e-03, -8.0305876682240740e-01,
       8.9274786833780529e-03, -7.4225608481800376e-01,
       9.2016566760243727e-03, -7.5432552385283225e-01,
       9.0784945604379785e-03, -7.9953004665982930e-01,
       9.1627337943019551e-03, -8.5553754399367965e-01,
       9.2740888098648278e-03, -8.0175822631111415e-01,
       9.3577826676262861e-03, -7.4899692471680801e-01,
       9.4246669248961266e-03, -7.0404954690952604e-01,
       8.9403504011315825e-03, -7.2186943524565295e-01,
       1.0345228230369286e-02, -5.8512610870968684e-01,
       1.2924835582945693e-02, -4.1049277811435519e-01,
       1.8260401707271657e-02, -2.7171477740420225e-01,
       1.7249752845481258e-02, -3.0418707017802948e-01,
       1.1579642357711821e-02, -4.8356586485804565e-01,
       9.0720071796416939e-03, -7.3488442159200373e-01,
       8.6841498665552203e-03, -8.3576258315727436e-01,
       9.2033902852638044e-03, -8.0705844181519060e-01,
       9.4130345523454461e-03, -7.3136589033280586e-01,
       9.3354769850506059e-03, -7.4385080616883237e-01,
       9.3790996163402082e-03, -7.1495536503987644e-01,
       9.2065189857951663e-03, -8.1301453946559143e-01,
       9.3344411989425870e-03, -7.8884029080663953e-01,
       9.1770401673698827e-03, -7.8938277508239341e-01,
       9.1500653943557640e-03, -7.4241016305404284e-01,
       9.2322214931404144e-03, -6.8888199004244299e-01,
       1.0605153139825416e-02, -5.8231380868904237e-01,
       1.2332300152590526e-02, -4.1175788452335116e-01,
       1.7275103395763124e-02, -3.0226495198758108e-01,
       1.9576628118696818e-02, -2.9141209285260122e-01,
       1.1704377958189129e-02, -5.0268631276428277e-01,
       9.3749346806093238e-03, -7.3338774730023792e-01,
       9.0379757892168188e-03, -8.6831706825201349e-01,
       8.8466199887969540e-03, -8.0109935407123045e-01,
       8.9965587589579052e-03, -8.0341840162853806e-01,
       9.0452403119602245e-03, -7.4925602035528804e-01,
       9.3872710771821088e-03, -6.7352328940056316e-01,
       9.1755364576026795e-03, -7.2193120848417891e-01,
       9.4075044004805000e-03, -7.5711595415067068e-01,
       8.9718918250723256e-03, -8.1070014531353529e-01,
       9.0298502250307795e-03, -8.0133470854130295e-01,
       9.3962334777792714e-03, -6.5714572305451713e-01,
       1.0618910847202493e-02, -5.2512031126680214e-01,
       1.4858393274030855e-02, -4.1365766874901899e-01,
       2.1726952136462273e-02, -2.6345481390613112e-01,
       1.9170594250869102e-02, -2.5973416553606082e-01,
       1.2386441549613625e-02, -4.7797508448309034e-01,
       9.2893667876537880e-03, -7.1825384002139081e-01,
       8.9143385522196545e-03, -8.2495835916112747e-01,
       8.8268488138772954e-03, -8.9307534342006512e-01,
       8.8409592635365804e-03, -9.0592046579278829e-01,
       9.0690787049454713e-03, -8.3212683865891102e-01,
       9.1621177421960485e-03, -8.3312445503751842e-01,
       9.1207061383971073e-03, -8.4827778919172181e-01,
       9.0432450759575962e-03, -8.6680795945207267e-01,
       8.8352738077577334e-03, -8.4702507813000849e-01,
       8.9269731238705245e-03, -7.7924823680140642e-01,
       9.7277548648732302e-03, -6.7888611522683862e-01,
       1.1478074662760199e-02, -5.0057523329249043e-01,
       1.7863788701068247e-02, -3.4563879166752620e-01,
       2.9758146327369731e-02, -1.7786869176244993e-01,
       1.9909515224115600e-02, -2.4903959328908029e-01,
       1.3535380603956978e-02, -3.8858144088159918e-01,
       1.0409034255343185e-02, -5.7618465618005388e-01,
       9.2816809657369735e-03, -6.8387425355550024e-01,
       8.9854367827661014e-03, -7.9672584318960904e-01,
       8.4710891662351483e-03, -9.5679741977030819e-01,
       8.3042832436677361e-03, -9.9622927095748826e-01,
       8.4084424398867662e-03, -1.0344786613186403e+00,
       8.4403838518129892e-03, -9.7561191173984652e-01,
       8.7143889726760057e-03, -8.7542261794082388e-01,
       9.0436112433551138e-03, -7.9377067827391168e-01,
       9.2279951875974577e-03, -7.2600592995909596e-01,
       9.8502649160699830e-03, -6.4792228256503759e-01,
       1.2571107152209032e-02, -4.5837848421854765e-01,
       2.1700324389984135e-02, -2.9053634311847332e-01,
       1.2440434859590647e-01, -1.0236700684463161e-01,
       1.0966225439471071e-01, -1.8047273866100963e-01,
       2.4086813313909151e-02, -2.5573313792710400e-01,
       1.5725032858149333e-02, -3.8225308444895578e-01,
       1.3368043652870367e-02, -4.6115931161359086e-01,
       1.1733502690836428e-02, -5.5643622189286579e-01,
       9.6886266356846322e-03, -6.8988558004152112e-01,
       9.1487757554783323e-03, -7.8611509162930115e-01,
       9.0602514476739344e-03, -8.2153182840965711e-01,
       9.6824794496345040e-03, -6.9763647645966553e-01,
       1.0676516043067808e-02, -5.7903322151289460e-01,
       1.1428173772739839e-02, -5.3718947116890237e-01,
       1.1215959877268126e-02, -5.2676556703580979e-01,
       1.3085773811133688e-02, -4.5411373917151360e-01,
       1.9511346240398481e-02, -3.0582641564236018e-01,
       8.2342374677994865e-02, -1.5103944155220772e-01, 1., 0. ]
   output_scale: [ 1., 0., 5.2631578947368418e-01,
       4.9999999999999994e-01, 5.2631578947368418e-01,
       4.9999999999999994e-01, 1., 0., 1., 0., 5.2631578947368418e-01,
       4.9999999999999994e-01, 5.2631578947368418e-01,
       4.9999999999999994e-01, 5.2631578947368418e-01,
       4.9999999999999994e-01, 5.2631578947368418e-01,
       4.9999999999999994e-01, 5.2631578947368418e-01,
       4.9999999999999994e-01, 5.2631578947368418e-01,
       4.9999999999999994e-01, 5.2631578947368418e-01,
       4.9999999999999994e-01, 5.2631578947368418e-01,
       4.9999999999999994e-01, 5.2631578947368418e-01,
       4.9999999999999994e-01, 5.2631578947368418e-01,
       4.9999999999999994e-01, 1., 0., 5.2631578947368418e-01,
       4.9999999999999994e-01, 5.2631578947368418e-01,
       4.9999999999999994e-01, 5.2631578947368418e-01,
       4.9999999999999994e-01, 5.2631578947368418e-01,
       4.9999999999999994e-01, 5.2631578947368418e-01,
       4.9999999999999994e-01, 5.2631578947368418e-01,
       4.9999999999999994e-01, 5.2631578947368418e-01,
       4.9999999999999994e-01, 5.2631578947368418e-01,
       4.9999999999999994e-01, 5.2631578947368418e-01,
       4.9999999999999994e-01, 5.2631578947368418e-01,
       4.9999999999999994e-01, 5.2631578947368418e-01,
       4.9999999999999994e-01, 5.2631578947368418e-01,
       4.9999999999999994e-01, 5.2631578947368418e-01,
       4.9999999999999994e-01, 1., 0., 5.2631578947368418e-01,
       4.9999999999999994e-01, 5.2631578947368418e-01,
       4.9999999999999994e-01, 5.2631578947368418e-01,
       4.9999999999999994e-01, 5.2631578947368418e-01,
       4.9999999999999994e-01, 5.2631578947368418e-01,
       4.9999999999999994e-01, 5.2631578947368418e-01,
       4.9999999999999994e-01, 5.2631578947368418e-01,
       4.9999999999999994e-01, 5.2631578947368418e-01,
       4.9999999999999994e-01, 5.2631578947368418e-01,
       4.9999999999999994e-01, 5.2631578947368418e-01,
       4.9999999999999994e-01, 5.2631578947368418e-01,
       4.9999999999999994e-01, 5.2631578947368418e-01,
       4.9999999999999994e-01, 5.2631578947368418e-01,
       4.9999999999999994e-01, 5.2631578947368418e-01,
       4.9999999999999994e-01, 5.2631578947368418e-01,
       4.9999999999999994e-01, 5.2631578947368418e-01,
       4.9999999999999994e-01, 5.2631578947368418e-01,
       4.9999999999999994e-01, 5.2631578947368418e-01,
       4.9999999999999994e-01, 5.2631578947368418e-01,
       4.9999999999999994e-01, 5.2631578947368418e-01,
       4.9999999999999994e-01, 5.2631578947368418e-01,
       4.9999999999999994e-01, 5.2631578947368418e-01,
       4.9999999999999994e-01, 5.2631578947368418e-01,
       4.9999999999999994e-01, 5.2631578947368418e-01,
       4.9999999999999994e-01, 5.2631578947368418e-01,
       4.9999999999999994e-01, 5.2631578947368418e-01,
       4.9999999999999994e-01, 5.2631578947368418e-01,
       4.9999999999999994e-01, 5.2631578947368418e-01,
       4.9999999999999994e-01, 5.2631578947368418e-01,
       4.9999999999999994e-01, 5.2631578947368418e-01,
       4.9999999999999994e-01, 5.2631578947368418e-01,
       4.9999999999999994e-01, 5.2631578947368418e-01,
       4.9999999999999994e-01, 5.2631578947368418e-01,
       4.9999999999999994e-01, 5.2631578947368418e-01,
       4.9999999999999994e-01, 5.2631578947368418e-01,
       4.9999999999999994e-01, 5.2631578947368418e-01,
       4.9999999999999994e-01, 5.2631578947368418e-01,
       4.9999999999999994e-01, 5.2631578947368418e-01,
       4.9999999999999994e-01, 5.2631578947368418e-01,
       4.9999999999999994e-01, 5.2631578947368418e-01,
       4.9999999999999994e-01, 5.2631578947368418e-01,
       4.9999999999999994e-01, 5.2631578947368418e-01,
       4.9999999999999994e-01, 5.2631578947368418e-01,
       4.9999999999999994e-01, 1., 0., 5.2631578947368418e-01,
       4.9999999999999994e-01, 5.2631578947368418e-01,
       4.9999999999999994e-01, 5.2631578947368418e-01,
       4.9999999999999994e-01, 1., 0., 5.2631578947368418e-01,
       4.9999999999999994e-01, 5.2631578947368418e-01,
       4.9999999999999994e-01, 5.2631578947368418e-01,
       4.9999999999999994e-01, 5.2631578947368418e-01,
       4.9999999999999994e-01, 5.2631578947368418e-01,
       4.9999999999999994e-01, 5.2631578947368418e-01,
       4.9999999999999994e-01, 5.2631578947368418e-01,
       4.9999999999999994e-01 ]
   inv_output_scale: [ 1., 0., 1.8999999999999999e+00,
       -9.4999999999999996e-01, 1.8999999999999999e+00,
       -9.4999999999999996e-01, 1., 0., 1., 0., 1.8999999999999999e+00,
       -9.4999999999999996e-01, 1.8999999999999999e+00,
       -9.4999999999999996e-01, 1.8999999999999999e+00,
       -9.4999999999999996e-01, 1.8999999999999999e+00,
       -9.4999999999999996e-01, 1.8999999999999999e+00,
       -9.4999999999999996e-01, 1.8999999999999999e+00,
       -9.4999999999999996e-01, 1.8999999999999999e+00,
       -9.4999999999999996e-01, 1.8999999999999999e+00,
       -9.4999999999999996e-01, 1.8999999999999999e+00,
       -9.4999999999999996e-01, 1.8999999999999999e+00,
       -9.4999999999999996e-01, 1., 0., 1.8999999999999999e+00,
       -9.4999999999999996e-01, 1.8999999999999999e+00,
       -9.4999999999999996e-01, 1.8999999999999999e+00,
       -9.4999999999999996e-01, 1.8999999999999999e+00,
       -9.4999999999999996e-01, 1.8999999999999999e+00,
       -9.4999999999999996e-01, 1.8999999999999999e+00,
       -9.4999999999999996e-01, 1.8999999999999999e+00,
       -9.4999999999999996e-01, 1.8999999999999999e+00,
       -9.4999999999999996e-01, 1.8999999999999999e+00,
       -9.4999999999999996e-01, 1.8999999999999999e+00,
       -9.4999999999999996e-01, 1.8999999999999999e+00,
       -9.4999999999999996e-01, 1.8999999999999999e+00,
       -9.4999999999999996e-01, 1.8999999999999999e+00,
       -9.4999999999999996e-01, 1., 0., 1.8999999999999999e+00,
       -9.4999999999999996e-01, 1.8999999999999999e+00,
       -9.4999999999999996e-01, 1.8999999999999999e+00,
       -9.4999999999999996e-01, 1.8999999999999999e+00,
       -9.4999999999999996e-01, 1.8999999999999999e+00,
       -9.4999999999999996e-01, 1.8999999999999999e+00,
       -9.4999999999999996e-01, 1.8999999999999999e+00,
       -9.4999999999999996e-01, 1.8999999999999999e+00,
       -9.4999999999999996e-01, 1.8999999999999999e+00,
       -9.4999999999999996e-01, 1.8999999999999999e+00,
       -9.4999999999999996e-01, 1.8999999999999999e+00,
       -9.4999999999999996e-01, 1.8999999999999999e+00,
       -9.4999999999999996e-01, 1.8999999999999999e+00,
       -9.4999999999999996e-01, 1.8999999999999999e+00,
       -9.4999999999999996e-01, 1.8999999999999999e+00,
       -9.4999999999999996e-01, 1.8999999999999999e+00,
       -9.4999999999999996e-01, 1.8999999999999999e+00,
       -9.4999999999999996e-01, 1.8999999999999999e+00,
       -9.4999999999999996e-01, 1.8999999999999999e+00,
       -9.4999999999999996e-01, 1.8999999999999999e+00,
       -9.4999999999999996e-01, 1.8999999999999999e+00,
       -9.4999999999999996e-01, 1.8999999999999999e+00,
       -9.4999999999999996e-01, 1.8999999999999999e+00,
       -9.4999999999999996e-01, 1.8999999999999999e+00,
       -9.4999999999999996e-01, 1.8999999999999999e+00,
       -9.4999999999999996e-01, 1.8999999999999999e+00,
       -9.4999999999999996e-01, 1.8999999999999999e+00,
       -9.4999999999999996e-01, 1.8999999999999999e+00,
       -9.4999999999999996e-01, 1.8999999999999999e+00,
       -9.4999999999999996e-01, 1.8999999999999999e+00,
       -9.4999999999999996e-01, 1.8999999999999999e+00,
       -9.4999999999999996e-01, 1.8999999999999999e+00,
       -9.4999999999999996e-01, 1.8999999999999999e+00,
       -9.4999999999999996e-01, 1.8999999999999999e+00,
       -9.4999999999999996e-01, 1.8999999999999999e+00,
       -9.4999999999999996e-01, 1.8999999999999999e+00,
       -9.4999999999999996e-01, 1.8999999999999999e+00,
       -9.4999999999999996e-01, 1.8999999999999999e+00,
       -9.4999999999999996e-01, 1.8999999999999999e+00,
       -9.4999999999999996e-01, 1.8999999999999999e+00,
       -9.4999999999999996e-01, 1.8999999999999999e+00,
       -9.4999999999999996e-01, 1.8999999999999999e+00,
       -9.4999999999999996e-01, 1.8999999999999999e+00,
       -9.4999999999999996e-01, 1., 0., 1.8999999999999999e+00,
       -9.4999999999999996e-01, 1.8999999999999999e+00,
       -9.4999999999999996e-01, 1.8999999999999999e+00,
       -9.4999999999999996e-01, 1., 0., 1.8999999999999999e+00,
       -9.4999999999999996e-01, 1.8999999999999999e+00,
       -9.4999999999999996e-01, 1.8999999999999999e+00,
       -9.4999999999999996e-01, 1.8999999999999999e+00,
       -9.4999999999999996e-01, 1.8999999999999999e+00,
       -9.4999999999999996e-01, 1.8999999999999999e+00,
       -9.4999999999999996e-01, 1.8999999999999999e+00,
       -9.4999999999999996e-01 ]
   weights:
      - [ 1.0596621497897351e+02, -4.4428600175997153e-02,
          -5.1875190358237222e-01, -1.0087123320537630e+00,
          1.5453147880270697e+00, 1.5072842371921749e-01,
          -5.8276917548368801e-01, 9.2863794407037525e-01,
          -4.1222108372079264e-01, -9.1122733845963710e-01,
          -8.9612104761011924e-01, 7.0221379622676394e-01,
          -1.0238060646941092e+00, -7.2054831547867706e-03,
          2.4340462996607179e-01, 5.1981185796289997e-01,
          7.5149012472986897e+01, 2.2857791460458685e-01,
          -4.7462402942819271e-01, -5.2945927608389542e-01,
          1.0875541275185923e+00, 1.4593949793947580e-01,
          -5.2314442327819977e-01, 6.3419726684027955e-01,
          -2.7214317128302778e-01, -4.3135864440349569e-01,
          -3.4613731543792325e-01, 4.4258028454932130e-01,
          -6.9986658408234870e-01, -5.0681839644718008e-02,
          3.3486468835805844e-01, 3.1020774555933306e-01,
          4.9415090442368403e+01, 4.3736434983146721e-01,
          -1.0366100619958890e-01, -6.3866643058648054e-01,
          6.1712684594161871e-01, 3.2629839442124142e-01,
          -6.6641934095060396e-01, 4.6239016321475424e-01,
          -3.4393183970934216e-01, -2.4844662308850449e-03,
          -1.4405054596992142e-01, 6.5895747454299369e-01,
          -9.1385313114668709e-01, -4.0908366062721642e-02,
          1.4556931071596801e-01, 5.7428841869770812e-02,
          3.8671438479301557e+01, 1.7507229530051086e-01,
          -9.2976709010050423e-03, -1.9155722992878804e-01,
          1.9630905703431473e-01, 1.1499825579047451e-01,
          -2.4585939335850751e-01, 5.3167235424738557e-01,
          -2.1342845748276809e-01, 3.9065087541715532e-01,
          9.0501078389659262e-03, 5.5827418492790781e-01,
          -8.8150025064641147e-01, 7.4291614317364037e-03,
          -3.9892094216942248e-01, -9.9979370478145216e-02,
          2.3453170662145084e+01, -1.9177772147870828e-01,
          -1.1567854554631371e-01, -6.1991437641441172e-01,
          3.5106909687816418e-01, -3.3716261160293004e-01,
          -3.2244832947727647e-01, 7.3001454660128015e-02,
          -2.5945195508189489e-01, -6.5626608983551193e-01,
          -3.5267300544470254e-01, 5.1317589671636943e-01,
          -9.2415928203082154e-01, -2.1389657025314540e-01,
          -5.0744555316824536e-01, -4.3517177122624617e-01,
          1.3498033950616684e+01, -2.5952708867858659e-01,
          -6.5333716504762440e-02, -2.8474099030768230e-01,
          6.9762982940806251e-01, -1.2449343551317442e-01,
          -3.4830837080905086e-01, 5.4795006928749213e-01,
          -1.3501113094351996e-01, -7.3437710279229518e-01,
          -6.9638486954535783e-01, 5.3038129897954356e-01,
          -7.3939444089229178e-01, 6.0425804889464842e-02,
          1.1442425462440224e-01, -2.8977094299829348e-01,
          -3.4583261662675078e+00, 7.9416345743459731e-03,
          -2.0844933186665512e-01, -7.9304155137816101e-01,
          4.1416228562136465e-01, -2.5866106191743754e-01,
          -1.2976899097878186e-01, 3.1162347213784869e-01,
          -6.2658971128797716e-02, 1.4085440068559330e-01,
          -4.3981022893256444e-01, 4.2927119991950757e-01,
          -8.2361295182459071e-01, -1.0625729128652475e-01,
          3.5342247599022836e-01, -2.8527739877158464e-01,
          -2.4454063363273658e+01, 5.6787433366290052e-01,
          -8.8062519658234084e-02, -8.0722399273455014e-01,
          1.1591917771755147e-01, -1.4124882576953376e-01,
          -1.9430837516590624e-01, 6.4598363345603671e-01,
          -1.2553265166234892e-01, 6.1705435357524922e-02,
          -2.8992448626551581e-01, 4.9770089141219664e-01,
          -1.8942820405025701e-01, 2.0658704891233173e-01,
          2.4410630559433044e-01, -7.9973815012066171e-02,
          3.1795353360230076e+00, 4.1415044797206363e-01,
          1.6512860618632402e-01, -5.1988308022170482e-01,
          2.0549616672924167e-01, -2.1808281855526199e-01,
          -2.5783208139865504e-01, 3.8528131289382539e-01,
          1.8569445941852139e-01, -9.3562413868009175e-02,
          -2.5460717406631933e-01, -1.1293833697879667e-02,
          -3.1845070605931991e-01, 6.0182726412902321e-01,
          -7.1579714084529858e-03, -2.6581053796257681e-01,
          5.2299049450175206e+00, 1.9934673421918347e-01,
          -4.7339333295865177e-01, -9.3079081261194818e-01,
          2.6895432650296575e-01, -8.7874030671692333e-02,
          -6.9825930899703820e-02, 3.1517800928760187e-01,
          -3.4094643498199090e-01, -3.9560801070845408e-01,
          -1.8684192714416253e-01, 5.7420557955479745e-01,
          -1.6031128424859395e-01, 4.2350650627822201e-02,
          2.0095656045770782e-01, -5.4709587894765627e-02,
          2.9645373211116141e+01, -2.0514420523139031e-02,
          -4.3901513666044617e-01, -1.0182793012143456e+00,
          2.7346588782350739e-01, -1.0374758317833774e-02,
          -1.3997918276016383e-02, 3.8257693930424513e-01,
          -2.6046123142903482e-01, -4.6006797449763875e-01,
          -1.7164079302304694e-01, 6.2708015493355362e-01,
          -9.4703669897379134e-02, -1.2579266299095390e-01,
          3.6360313383773896e-01, -6.6652554507894618e-02,
          3.4053628841610831e+01, -2.6440546399115994e-01,
          -8.6057646844714286e-02, -8.1853716470743065e-01,
          3.7517433007406183e-02, 1.9964659300818474e-01,
          2.1034248684392662e-01, 4.7540638364376819e-01,
          -1.5804825467774861e-01, -4.2905749218910583e-01,
          -2.7346826644364014e-01, 4.2903023834906540e-01,
          -4.8075471677410048e-01, 7.5535457583137858e-02,
          3.4831364682360616e-01, -1.7180636741877434e-01,
          2.1524901685856580e+01, -5.2164084956519341e-01,
          -2.6743082657067485e-01, -5.3302488167440465e-01,
          4.8255342434148868e-01, 1.4938413081374616e-01,
          9.4856106384470756e-02, 3.4542522035230988e-01,
          -3.4570596434737288e-01, -5.3087174396531245e-01,
          -6.5544603795424694e-01, 5.7140960059021417e-02,
          -2.6391352132417761e-01, 2.2768615935269518e-01,
          8.8117084613431013e-02, -3.5281515627978166e-01,
          3.8224468293564470e+01, 1.4160147558619057e-01,
          -2.4274231772266439e-01, -1.9098339151659899e-01,
          8.2449875616634560e-01, -2.2971590132776606e-01,
          -2.8152945966430223e-02, 2.6019811429878259e-01,
          -1.4320121726530993e-01, -3.8359306307353541e-01,
          -4.7802513088679804e-01, -1.2267002075745156e-01,
          -1.6329598562214895e-01, 8.3881389557168812e-02,
          5.5967802415621808e-03, -1.1790603497912820e-01,
          7.2549409958919611e+01, 2.2059409092871388e-01,
          -3.4006782802442442e-01, -6.0201243346796984e-01,
          1.1665654262786793e+00, -3.9797124583532589e-01,
          -3.4532868264509992e-01, 6.6911981572668033e-01,
          -1.8260357255110526e-01, -3.4971936131625131e-01,
          -6.6345371362860961e-01, 1.7017653375410444e-01,
          -6.2404200340742644e-01, 1.6610399114755467e-01,
          4.0340815017173559e-01, 5.0025900075458851e-01,
          1.1623473896676121e+02, 6.8976955688293740e-01,
          -3.6258530528169797e-01, -8.4597343438677419e-01,
          1.2719598014945899e+00, -5.5989051355552610e-01,
          -3.9477070919829016e-01, 7.7694166423320266e-01,
          -3.5323169768127144e-01, -4.4854092742391521e-01,
          -6.3059006081591151e-01, 4.7747562128670956e-01,
          -8.5025687145126716e-01, -1.2371868990816742e-01,
          3.8288865522566851e-01, 6.1139198452335086e-01,
          4.2343127739341988e+01, -6.1557848375197413e-02,
          -4.0005258380358383e-01, -6.8295639657896168e-01,
          1.2370855122922821e+00, -1.3245879902378005e-01,
          -4.9381849194270483e-01, 7.0312775093747615e-01,
          -3.0228767583383109e-01, -6.6556770982503910e-01,
          -7.5628559981012711e-01, 4.8319348569880199e-01,
          -7.3450049775695758e-01, -1.2374701755186776e-01,
          2.7425457652529700e-01, 7.4897935795385243e-02,
          4.6516144199238163e+01, 2.2922049409398584e-01,
          -3.7828368437126514e-01, -1.5859247280004088e-01,
          6.6443769301347655e-01, 2.0662673541973542e-01,
          -2.8521031980478878e-01, 3.9148146268327710e-01,
          -3.2685238135678102e-01, -1.1973915488986223e-02,
          -1.2943353382550921e-01, 1.5560577948659024e-01,
          -4.2824978715250145e-01, -2.4383494852902563e-02,
          2.7094036301085755e-01, -2.2880665834679213e-02,
          4.3171558730189595e+01, 6.0012432348199342e-02,
          -1.5469163899733337e-02, -2.0078317001677451e-01,
          2.9906391314576991e-01, 5.6575505092652878e-01,
          -2.5151502194722714e-01, 2.8946715604890572e-01,
          -1.9945263839747135e-01, 2.0902552553257867e-01,
          1.2676249303670631e-01, 2.8717954153293251e-01,
          -4.1260044479402214e-01, 1.8727788322825102e-02,
          2.0646790177982949e-02, -7.9000129829360638e-02,
          4.6760975950080109e+01, -2.2830010109155058e-02,
          -6.4097492273204923e-02, -1.0455409989402317e-01,
          -1.5062087115437631e-01, 3.1252230346412757e-01,
          -1.3206627705792323e-01, 3.0953120046453420e-01,
          3.9462847938070679e-02, 5.4582853807932696e-01,
          3.0151044669942939e-01, 2.7204536568623783e-01,
          -7.0410068255623537e-01, 4.3507145766391819e-01,
          -1.7701810671450241e-01, -3.2849654101899678e-01,
          3.7347562651202878e+01, -1.3743860841256372e-01,
          -1.0185221300719097e-01, -9.3397862866621106e-01,
          6.2884074948352117e-02, 8.2635492000958599e-02,
          -4.0309601899891490e-01, 2.0535860752513149e-01,
          -5.6458938800999087e-02, -4.2819768377740326e-02,
          1.7652205066898480e-02, 6.5919190476772827e-01,
          -6.9557669836963998e-01, 2.7036908617103789e-01,
          -2.3931444703396570e-01, -5.1307602008073827e-01,
          3.5167208720137468e+00, -2.6089520751448986e-01,
          -1.0555397842749033e-01, -9.9556571234773927e-01,
          8.2834079157933960e-01, -2.0280954336489607e-01,
          -5.7799692838068850e-01, 4.2487260902714499e-02,
          -3.4114108766800533e-01, -3.8282037347419606e-01,
          -7.7848102365796978e-01, 8.6492028339979310e-01,
          -6.3650373824572037e-01, -3.9552376494106023e-01,
          3.7502364844689917e-01, -3.7333307235829483e-01,
          -3.0190500864325415e+01, 1.9910264129806804e-01,
          7.9720332769349631e-02, -8.7925365493746943e-01,
          6.2928550570954078e-01, -3.0963447325367655e-01,
          -6.8956940751127038e-01, 6.3176458236036548e-01,
          1.3556057308436882e-02, -1.9510191067464899e-01,
          -8.4253618641830796e-01, 4.6055652649796752e-01,
          -5.9217264360600952e-01, -1.6728514632958280e-01,
          2.1642787400823282e-01, -1.3493588162424061e-01,
          -2.4881826907532421e+01, 3.8479474547101966e-01,
          3.9572691557063090e-02, -9.0123765249861088e-01,
          -1.9356273228084926e-02, -1.7839696378632358e-01,
          -1.0059469877099879e-01, 1.0422342553416437e+00,
          1.6745500492638250e-02, 2.8592374750016725e-01,
          -2.4545915198595031e-01, 4.8958056747735534e-01,
          -6.1315018166304425e-01, 9.6426006177260173e-02,
          2.6650958257078811e-01, -1.8172767410887505e-01,
          -4.3419421470080852e+00, 6.5080069229438364e-01,
          3.1894431199517354e-01, -1.0901488079817752e+00,
          9.7009923832812164e-02, -2.6619219227157659e-01,
          -4.9121390765532413e-01, 5.0792046245019018e-01,
          1.4797081307975721e-01, 1.5956427942151266e-01,
          -1.7733177537281830e-01, 4.4086932964129910e-01,
          -8.2353928597080439e-01, -1.4097560037828133e-01,
          2.2768868105250542e-01, -1.5628236342249924e-01,
          1.1954871006803629e+01, 2.4016962213660564e-01,
          -4.8944725078857755e-02, -1.0512886395692771e+00,
          4.0031390372396042e-01, 4.9963551752895026e-02,
          -2.8957019483709090e-01, 6.1122842295298840e-01,
          -1.9018362633539951e-01, -3.8837602895728779e-01,
          -1.1122986098691962e-01, 5.2649733334942994e-01,
          -5.3641464926948224e-01, 4.8318245677792943e-02,
          -3.3994877206390418e-02, -2.1206342877377074e-01,
          2.2944602582660394e+01, -2.6347203972357708e-01,
          -2.9824866638667158e-01, -1.1039971919220808e+00,
          2.3881572918494542e-01, 3.3985562774941630e-01,
          -3.5040175777910115e-01, 3.0534866252979587e-01,
          -1.0189371816970243e-01, -4.1140707156437301e-01,
          1.5220742196848716e-01, 7.7993054476659540e-01,
          -6.2814859319171945e-01, -1.2472414373601630e-01,
          -9.3378650892475198e-02, 2.7925387965889461e-03,
          4.3772607402889683e+01, -2.3301803034268245e-01,
          7.5426183359421986e-02, -1.0807608565236433e+00,
          1.4191682460230406e-01, 3.9727674314729305e-01,
          -3.9869413364215905e-01, 3.0607123927959756e-01,
          1.9695825246791562e-01, -2.7138429948682868e-01,
          1.2221738717784976e-01, 6.8167929991996967e-01,
          -6.3663467865691381e-01, 1.2205745817681085e-02,
          -2.7626271612810632e-01, -1.1090503443765579e-01,
          4.8728302136652758e+01, 1.1100944924492109e-01,
          -1.3629747521463229e-01, -7.5869346278314109e-01,
          3.2853968210442779e-02, 2.3653339721227554e-01,
          -3.2595585411202754e-01, 1.6869192502940891e-01,
          -2.2031397420493776e-02, -4.4527311920338153e-01,
          -2.0320594811091028e-01, 2.6507798577155289e-01,
          -5.5212543773855238e-01, 4.9833332258977886e-01,
          -1.2437809582685742e-01, -4.3640944783387109e-01,
          5.6343890248806936e+01, 2.4154657802919105e-01,
          -1.8195677024689566e-01, -7.3106211367552953e-01,
          4.7487303896745264e-01, 1.7576415230809883e-01,
          -3.7469926706753015e-01, 1.6271549704838129e-01,
          -1.5063035283757575e-01, -5.7837870174572670e-01,
          -3.8048671306339071e-01, 2.6842065475910770e-01,
          -3.6434753212185805e-01, 2.4820344928869550e-01,
          -1.8685890428964638e-01, -3.3496824535382858e-01,
          8.5171943925753979e+01, 3.4691186756082831e-01,
          -1.9474827442575879e-01, -9.9951734144869087e-01,
          7.6990480290865304e-01, -2.1845774723012917e-01,
          -5.5168946806894481e-01, 4.1835740338823146e-01,
          -2.5768291474904337e-01, -4.0011478739039824e-01,
          -3.8571813875628252e-01, 6.2149801079503142e-01,
          -6.1333336320406473e-01, 8.6462326425916405e-02,
          2.7450050285505018e-01, 2.1023455250659071e-01,
          6.9238932257651328e+01, 7.3596846699484542e-01,
          -3.0728468576542234e-01, -4.4570897135962628e-02,
          2.9069616656422992e-01, -5.4694850101236048e-01,
          1.6847959775325191e-01, 1.3961294912250335e-01,
          -6.3950247764432311e-02, 2.2145936386766427e-01,
          -3.1858399160900341e-01, -1.4780856727170352e-01,
          2.0846020133233601e-02, -1.0215973982945489e-01,
          1.6416289972996750e-02, 5.4206771114655039e-01,
          -4.0451824442418555e+01, 8.3034950382210926e-02,
          -3.0388515099495354e-02, 2.6036589213541389e-01,
          9.0324289880168204e-02, -2.8497393426047168e-01,
          3.2717451238618056e-01, -8.7182054489659544e-02,
          -1.5008856616032148e-01, 3.4125641396233954e-02,
          -2.0021740927381398e-01, -3.3230666641766593e-01,
          3.2809909996515813e-01, -3.6006585967524074e-01,
          -8.1304393588191234e-02, 1.7648943920689208e-01,
          -1.1582174418817667e+01, 5.2789715018717409e-01,
          -2.1466155127693717e-02, 3.3787016318267515e-01,
          1.4363074580207277e-01, 2.3460586111024881e-01,
          2.2398568076268677e-01, -1.5443329415307591e-01,
          -1.9537084662550663e-01, 2.0396914663795221e-01,
          3.5498939668340466e-02, -2.8566711271274581e-01,
          4.7190688623776877e-01, -1.4488242472009188e-01,
          -1.3971916914338162e-01, -5.4940205629387492e-02,
          1.8035430945167050e+01, 5.0574385641043530e-02,
          1.3555995640575136e-01, 6.6424815528972148e-01,
          -1.3206200214794814e-01, 4.0833942065065093e-01,
          2.4078884032872663e-01, -1.5733357280158783e-01,
          7.8935746438377630e-04, 1.8032055917436862e-01,
          5.7435803670372465e-01, -5.4971770969789513e-01,
          1.3883998121476646e-01, -5.7137806220417690e-02,
          -3.5477772699365789e-01, -2.9700233431455525e-01,
          5.3648478260545176e+01, 8.6117818911303157e-02,
          3.0015904638842298e-02, 3.3597328195628107e-02,
          -2.8528957067194033e-01, 5.7045923394949327e-01,
          7.4549579068815194e-02, 1.3416292360878015e-01,
          4.0013265507000267e-02, 7.7074507297152306e-01,
          4.9346778042488243e-01, -1.8004089454977508e-02,
          -9.5538880170899704e-02, 7.7251480129747230e-01,
          -4.9919807386682469e-01, -3.5124027084495174e-01,
          4.3016634539783958e+01, -1.0892670463415681e-01,
          -1.9193977013698255e-01, -1.6144805417755140e-01,
          2.4206389434666220e-01, 2.6425128229771572e-01,
          2.5994479189750241e-01, -1.8119344976220333e-01,
          1.3564468911642549e-01, 4.0718843990156911e-01,
          5.6362046150911616e-02, 7.4128506355612507e-03,
          1.0394783732185825e-01, 6.9411615795516179e-01,
          -6.5697145143129876e-01, -7.4992941110402125e-02,
          1.9247927056652660e+01, -1.0847467246437556e-01,
          -3.8257046108371834e-01, -2.2525671704732528e-01,
          8.3206399087989402e-01, 3.1485299893940319e-02,
          4.4475253931655345e-01, -1.5948172422988754e-01,
          -1.3750684313335512e-01, 2.6116335779473088e-02,
          9.3582048637330106e-02, 2.2273027174812610e-01,
          4.3073307560010499e-01, -3.4434712817329782e-01,
          -8.9421463312137406e-02, 2.4783855220267575e-01,
          1.4515761562207734e+01, 5.3883695502822548e-01,
          -1.5111535563223219e-01, -4.2967180346524730e-01,
          3.1775447869087597e-01, -3.8090831047425888e-01,
          -6.9893247818217030e-01, 2.7530227171242111e-01,
          -3.8516266950904565e-01, -3.7515034457564661e-01,
          -6.3268437081120865e-01, 3.3853200343621659e-01,
          -7.5559662536948888e-02, -3.4467577078942274e-01,
          2.7046160297022376e-01, 5.0321268769765459e-01,
          4.5563016433498717e+01, 1.9944965480566421e-01,
          -6.6381719621054752e-03, -5.0459768913514824e-01,
          -1.5295639377040515e-01, -4.7841504324075396e-01,
          -4.6682823049068278e-01, 8.4401970500521506e-01,
          -4.7602276400235527e-01, -5.1468137208139741e-01,
          -5.8678126115777651e-01, 4.7776163795900095e-01,
          -1.7492383918489016e-01, 1.6897059060952210e-01,
          5.9572606749558492e-02, -2.4790139185424462e-01,
          5.9843738937831368e+01, 4.7787085159966791e-01,
          6.3984672158084649e-02, -4.6981847413760530e-01,
          -9.9518942500867555e-02, -3.0222354872233115e-01,
          -2.9235678250993796e-01, 4.1598724687949667e-01,
          2.5609312551200407e-02, -2.0895546918311916e-01,
          4.1734106813629962e-02, 5.4743314412639543e-01,
          -4.6157496204745030e-01, -9.1644148531744074e-02,
          4.5741241122172337e-02, -8.6902725224685992e-02,
          4.6232112097891708e+01, -2.6816081400654085e-01,
          1.2991198705238849e-01, 1.6831519570351661e-01,
          -4.7415658759991805e-02, -1.1571629648576087e-02,
          -4.5855198689919004e-02, 6.3817726250430529e-02,
          1.8300698006228949e-02, 1.6074886240304712e-01,
          1.0075379145898029e-01, 5.6924121448506504e-02,
          -3.7571992103127066e-01, 1.0774351313229723e-01,
          -3.4350631272440596e-01, 1.1198290858787029e-01,
          5.0408995847998554e+01, -4.9387661015555551e-01,
          -1.8655370553914163e-01, -2.4362707041611836e-01,
          -3.0013251261052549e-02, 2.1504290873765747e-01,
          -2.5660627846409539e-01, 3.4246399402385215e-04,
          -9.4703820299893937e-02, -2.1299728442293481e-01,
          2.4247296212864522e-01, 3.4941383317772623e-01,
          -4.5734442778131629e-01, 2.6479966480551709e-01,
          -4.7663436854599706e-01, 1.9799805806027482e-01,
          5.0771491010787614e+01, -1.0506905299323376e-03,
          1.4536271043781171e-01, -6.3556413105215770e-01,
          -1.5375271132048965e-01, 2.3625545763185658e-02,
          -2.8182202758752373e-01, -1.4640785630831626e-01,
          8.5153242524455802e-02, -2.2558632595024131e-01,
          3.6091187132153418e-01, 2.9074184049122143e-01,
          -1.8785756248068816e-01, 2.7142977439753935e-01,
          -3.9266661150178350e-01, 1.1131224875436384e-01,
          5.3141214140209804e+01, 1.9213687636237689e-01,
          7.2785260252504216e-02, -2.9861768464769295e-01,
          3.9520737672053413e-02, 7.3241416842364154e-02,
          -3.0665041724904268e-01, -1.6238885222970878e-01,
          2.9095846125753628e-02, -4.6149870126223957e-02,
          6.3727848766004624e-02, -1.9834104480117776e-01,
          -2.5093114806831773e-01, 5.1849051492596498e-01,
          -1.8899510252843138e-01, -1.0958175216125338e-01,
          3.3766537616456390e+01, 4.7349737667224895e-01,
          -3.2472050908846577e-02, -2.6419285956323807e-01,
          9.9373188056500375e-02, 1.7802487553760474e-01,
          -3.3904826350355100e-01, 4.3076649520722134e-02,
          -5.4034505788359312e-02, -8.4774291084447673e-02,
          -1.0029552306917188e-02, -3.4924799960590135e-02,
          -1.1616146316050781e-01, 4.1303635501145897e-01,
          -2.2861423083895185e-01, -2.4054359045355363e-02,
          5.6112965928281064e+01, 5.4068300046506190e-01,
          -8.4089842175442395e-02, -4.8802649572331414e-01,
          1.9163766825609607e-01, -1.1865264443810168e-01,
          -2.0848913822791854e-01, 4.0068379216288669e-02,
          -2.6025076635745997e-01, -1.7600643378775596e-01,
          -9.0757451579622186e-02, 3.3530821800284727e-01,
          -3.3112375912293063e-01, 3.1289889761848688e-01,
          -9.4424880629496138e-02, 1.8247321873988082e-01,
          4.2671923664783932e+01, 2.0715555876749592e-01,
          -1.4916979043851630e-01, -8.3333393832127500e-01,
          1.2097631706949064e-01, 1.0219090675635570e-02,
          -3.5638596904700043e-01, -1.7112461862517267e-01,
          -2.2965799575356516e-01, -2.5534387209375353e-01,
          -2.7060064256216415e-01, 7.7732658892757611e-01,
          -6.6640525223073810e-01, -4.1718354389205251e-02,
          -8.8345549872640788e-02, 1.9320960468772277e-01,
          4.8231038331660780e+00, 7.3971135811210065e-02,
          3.0265202008153946e-01, 3.9397804595364994e-01,
          -7.0766940142385978e-02, -1.9264122047985954e-01,
          3.3641705630253549e-01, -1.7764107260691167e-01,
          1.5457759762068920e-02, 3.8220929020380284e-01,
          7.6765488523856312e-02, -4.1968634090506002e-01,
          4.8307133566424737e-01, -2.4328533963297597e-01,
          8.1050305093894923e-02, 1.2267925795593121e-01,
          5.4661854516197286e+00, 1.9525094261010642e-01,
          1.6884945158929074e-01, 6.3783012692937380e-01,
          -1.4522703468461895e-01, 2.7322649894407197e-01,
          3.7821734520960115e-01, -3.3607472789167797e-01,
          1.5198780937666276e-01, 2.1990422074043994e-01,
          -4.9427947353206138e-02, -6.1994254457837117e-01,
          7.3113860482368331e-01, -1.0687573627895226e-01,
          -3.3081112888204522e-01, -2.4250047144836126e-02,
          4.9784672351396829e+01, -1.5411730083385333e-01,
          3.0153011736765639e-01, 7.8388189513851880e-01,
          -2.8053749931257249e-01, 3.7525852557592132e-01,
          3.5845266516778795e-01, -4.4104737139340444e-01,
          3.5589927777872099e-01, -5.5464541713781866e-02,
          3.8620609206809842e-01, -7.5119194933417222e-01,
          6.7751859245843993e-01, 1.2946101787322645e-01,
          -4.2980449829397011e-01, -2.8428459971277670e-01,
          7.2241807672812826e+01, -4.8210270312981127e-02,
          3.1503088707597648e-01, 6.4291651479314482e-01,
          -2.0166072249961842e-01, 5.0495117768462028e-01,
          3.2200422646488175e-01, -1.3874406256995064e-01,
          2.5697574864442679e-01, 1.0943942351581393e-01,
          3.3799030508073002e-01, -4.0099366316929563e-01,
          5.7282539578506775e-01, 4.5636922219880721e-01,
          -9.0881276427694779e-01, -2.9000585424175207e-01,
          5.5633867625034050e+01, -1.4262061102412060e-01,
          -1.9230099238744738e-01, 2.0702590820358074e-01,
          1.6874263441116477e-01, 3.3395243332882807e-01,
          4.2373500861013419e-01, -4.0620401761684366e-01,
          6.0619808429737310e-01, 3.4774960825260165e-01,
          1.1581423044502402e-01, -2.5777745087374171e-01,
          4.0243712240687490e-01, 5.9458764963174771e-01,
          -4.9184561478317601e-01, 7.0574309083785258e-02,
          3.6733506001601057e+01, -7.3288192208495612e-02,
          -2.5599322597770907e-01, 5.0619587736445271e-01,
          4.5267009314060769e-01, 3.1513311462386379e-01,
          6.1678998863454260e-01, -2.5385420872638197e-02,
          1.9991745520405285e-01, 1.6317746559032714e-01,
          1.2114931350345143e-01, -2.5140946750497128e-01,
          3.3310605797995879e-01, 3.8239242154915365e-01,
          4.1823177751799445e-01, 6.3862995175464476e-01,
          3.5312475120811854e+01, 2.6487790969599723e-01,
          -3.8613414671790619e-01, 1.6531595703047880e-01,
          -1.0707299299721738e-01, -2.6589929016092911e-01,
          1.3919669908802126e-01, -3.1813340357626768e-01,
          -1.3245265121855285e-01, -1.7490688889418152e-01,
          7.8091919192312051e-02, -2.9787407017956635e-01,
          3.7325319648490829e-01, -3.7381721832278103e-01,
          3.1963100570182307e-01, 1.9750862794096352e-01,
          6.7728880810677765e+01, 5.2608441668005167e-03,
          -3.7424503265681974e-01, 2.0106595587486589e-02,
          -9.9672188505333478e-02, -4.2370438662526411e-01,
          -3.7062537890168196e-01, 3.7684593298884461e-01,
          -3.7470120100178528e-01, -8.4857344077680041e-01,
          -6.8675170752450987e-01, -1.8790878288417581e-01,
          9.6903983096033194e-02, -3.2948949701977481e-01,
          1.9853073823131874e-02, -1.9883225712798727e-01,
          7.6610458295912522e+01, 1.6181987183537239e-01,
          -1.7134220805056871e-01, -1.5585733521726031e-01,
          -1.0033209591279138e-01, -3.7853908384145712e-01,
          -2.9904100013825990e-01, 1.0509679899664703e-01,
          -8.9510248285400953e-02, -3.1528470860087887e-01,
          -6.2963100702568742e-01, 8.9491475412772775e-02,
          1.4152721533562754e-01, -3.3887116069143358e-01,
          -8.8190061204775655e-02, -1.6595423077799729e-03,
          4.4737350661544056e+01, -2.5369784622780117e-01,
          1.0342765986393895e-01, 6.0689437150580383e-01,
          -3.8570299836889074e-02, -8.0227709041644918e-02,
          1.5354932762931381e-01, -2.0505171249872264e-02,
          2.3091014927025896e-01, 5.9606724017102364e-01,
          3.7139641155812864e-02, -6.0751201917403053e-01,
          -1.5285087131956576e-01, 2.5229529327014866e-01,
          1.6418438812535327e-01, 4.5537954162491312e-01,
          1.6248334220942816e+01, -3.6867742008727050e-01,
          2.9796980774500638e-02, 4.8396117300366254e-01,
          3.3014842840528726e-02, -2.3173065526513079e-01,
          5.1969395927493937e-02, 7.5874744233644029e-02,
          -7.6182377688602337e-02, -9.5322616905251289e-02,
          -6.4067935515655386e-02, -6.1760949749576821e-01,
          -2.3722107580804633e-01, 5.3357910799504549e-01,
          -2.0451483874987994e-01, 3.6405431449225012e-01,
          2.8808463456798197e+01, 3.7714797374852393e-02,
          2.5936084443592294e-01, 2.0435517312243345e-01,
          -3.7431539855973549e-02, -1.2431151959752305e-02,
          5.1975809754256953e-02, -3.2660633286237993e-02,
          3.3197995367478167e-01, 2.7309904226406323e-01,
          1.7250187637287140e-02, -7.4291097149484475e-01,
          2.0306870055049456e-01, 2.1249594549484890e-01,
          -2.4574826333554742e-01, -3.5603992802426154e-02,
          2.3368656989562439e+01, 9.4547044981414724e-02,
          9.5392902000930313e-02, 4.5132058702043537e-01,
          -7.6800920198942885e-02, 1.1446243543546074e-01,
          1.5841630019269165e-01, -4.0879404319169205e-01,
          3.0570576266750144e-01, 3.1156766210803061e-01,
          -4.7053774012961271e-02, -6.1955828763176790e-01,
          4.0752991924077936e-01, 2.5201300047812036e-01,
          -1.2953284046379265e-01, -2.0947547327570828e-01,
          -3.4939414483135178e+00, 3.2054476449706648e-01,
          -1.4639041653496074e-01, -1.3412135461014069e-01,
          -2.4523487345623202e-01, 3.2351354030467439e-01,
          -3.6924810197867308e-02, -1.1262983358172965e-01,
          -7.7387499676218469e-02, 1.6783436800390912e-02,
          -4.5715578666372811e-02, -6.1600616290012684e-02,
          1.3974974346363414e-01, 4.2326554880588496e-01,
          -4.8127530930053070e-01, -9.6238455203071546e-02,
          -1.6184052067091752e+01, 4.2079802578769299e-01,
          -7.4456843589363192e-02, -2.5324877858418154e-01,
          -3.4595580387314218e-01, 2.5320150351066545e-01,
          -2.6666191481379681e-01, -2.1645954303807094e-01,
          -1.0984903447821164e-03, -2.5955162947572264e-02,
          2.0271912637609077e-01, 3.5470318625929015e-01,
          -1.5194681895584020e-01, 5.1128329494117886e-01,
          -4.0336173798607039e-01, -1.1932454233428130e-01,
          -2.4376454742483730e+01, 1.7504944392131602e-01,
          -7.4184812094728450e-02, -6.5857336425312019e-01,
          -6.6102891827933913e-02, 1.1934476939400326e-01,
          -4.4285592809567687e-01, -3.5470585575104480e-01,
          -9.4821713164124355e-03, -6.1635094846242033e-01,
          1.8555421293619246e-02, 8.5233371830563998e-01,
          -5.3229324962584768e-01, 2.7588876751754471e-01,
          -4.5435697794639801e-01, -3.1122244305043515e-02,
          3.9386700114989559e+01, 1.5510318183844990e-01,
          1.6120194771416418e-01, 4.1300001808738818e-01,
          -8.2495148393899556e-02, -1.7291455452851323e-01,
          2.3728869482858544e-01, -1.8222924486595710e-01,
          -2.9495917712415456e-02, 2.2674299443339721e-01,
          -1.5930594333741824e-01, -3.7490793534392475e-01,
          4.9183548280908329e-01, -5.0334132354288207e-02,
          7.6120569542934141e-02, -4.3724797287316416e-02,
          1.0665815399089812e+01, -1.2298420117271402e-02,
          3.3178058123481141e-01, 6.0808020751443403e-01,
          -1.4931416573140815e-01, 1.6253247881449456e-01,
          1.8315952354422022e-01, -3.5170295605613938e-01,
          2.9981497627150772e-01, 2.4196333767161812e-01,
          -8.0165937301672485e-03, -5.5775639609643524e-01,
          6.7473185335814057e-01, 5.4191625721962115e-02,
          4.1814336513704711e-02, -2.0420490423777693e-01,
          4.1777623386025439e+01, -2.7317248616433504e-01,
          5.5592517074015646e-01, 7.2763689541962029e-01,
          -9.4311584444192173e-02, 2.7679136918614666e-01,
          6.0254734980424629e-01, -2.9876411591617857e-01,
          3.2033971579345638e-01, 1.2591014842962853e-01,
          4.0947624781041392e-01, -6.0238109229889125e-01,
          7.8393165881711424e-01, 7.9270871041679181e-02,
          -5.3993761383765770e-01, -5.9038457915545739e-01,
          2.6921461055879938e+01, -5.6876448721015604e-01,
          4.8931672342260046e-01, 5.4050450599431810e-01,
          -1.2522732959600327e-01, 3.8251925387322494e-01,
          3.7581666138828729e-01, -1.1360441173580628e-01,
          8.6561525842574349e-01, 4.1388324709202839e-01,
          3.6897873106915668e-01, -5.0784183237313463e-01,
          4.6451338689526206e-01, 1.1419378777761156e-01,
          -7.9118131963390137e-01, -4.3550439655713918e-01,
          8.9261033064220321e+00, -1.6274980980117687e-01,
          2.0863242417446529e-01, 2.5938536148901858e-02,
          2.3574822048195984e-02, 3.0318706316739880e-01,
          2.8759534731845826e-01, -3.4994025676862567e-01,
          5.2497198422663760e-01, 4.5554709780389024e-01,
          2.6283681750705945e-01, -5.9124628772340238e-01,
          -2.6054657728981700e-02, 2.4719044836196630e-01,
          -3.3126405130128922e-01, 3.5487864526196788e-02,
          -5.6118576372046469e+00, -1.4802102222527166e-01,
          -4.2657141333132603e-01, 3.5924932615677202e-01,
          3.1558143570438418e-01, 3.4942714190880642e-01,
          5.5121779644003799e-01, 1.5624005390939116e-01,
          1.6761940083153659e-01, 4.6008434753596833e-01,
          1.9484095843735638e-01, -5.2657154737130529e-01,
          -6.9187056131480990e-02, 1.6590215895216606e-01,
          5.5672648743670183e-01, 5.7793853265988726e-01,
          1.3356159001323817e+01, -1.4703117576736999e-01,
          -5.1092409992828691e-01, 4.8178552402888170e-01,
          -2.4051756076493888e-01, 1.5395858777758423e-01,
          1.2790486382712971e-01, -3.0108422469342692e-03,
          -1.7612309012649771e-01, 3.0347799102500017e-01,
          -9.5052906406418551e-03, -3.3167272471394599e-01,
          3.2618876039435496e-01, -5.9045199980867069e-01,
          5.4386611399113516e-01, 2.1368498952960649e-01,
          5.2634607750503108e+01, -3.0190205592929237e-01,
          -7.2918427910049310e-01, 3.5984332216328671e-02,
          -1.3781137098558069e-01, -3.7715420372134406e-01,
          -1.5884797983384566e-01, 2.2396916727189001e-01,
          -5.0590499778191123e-01, -6.8729694593720858e-01,
          -7.4710484294019208e-01, -3.5621301778710493e-02,
          3.4921683064951142e-01, -5.1064332955633707e-01,
          1.5381888515607373e-01, -3.2516875847197207e-01,
          4.1223434739316211e+01, -1.0486414355523802e-01,
          -4.2322509788113227e-01, -9.9259308491767340e-02,
          1.5093570551788929e-01, -4.0482001525752692e-01,
          -3.5833711984718286e-01, 2.1255662143720053e-01,
          -3.8332035183750679e-01, -2.1748065367000113e-01,
          -6.9985336936028197e-01, -8.4818409301224792e-02,
          3.2263344234761149e-01, -5.1288403649332881e-01,
          1.7404795147033372e-01, -1.7988802182176236e-01,
          2.4838378531321059e+01, -1.9476660080521688e-01,
          -7.4231387507689747e-02, 4.6392243564094615e-01,
          -3.3295201746165688e-02, -3.3094276795284588e-01,
          9.6209457613055646e-02, -2.8868655592404282e-02,
          8.5594348790989525e-02, 3.7066132341437608e-01,
          -3.3070497110409380e-01, -5.1121651817089553e-01,
          4.8872420196752198e-01, -2.0247338550797044e-02,
          4.2683134155529968e-02, 2.5019788140398252e-01,
          1.5763123839639283e+01, 8.1543098477582038e-02,
          -1.3612332488050787e-02, 1.7416483323719389e-01,
          1.3064773434916577e-01, -4.6024823079012456e-02,
          7.6379325494845149e-02, 2.9209220020430832e-01,
          6.2753028803639574e-02, 2.3888399392942702e-01,
          -2.7897587389218720e-01, -7.7106358730824512e-02,
          2.1588447475653100e-01, 3.3948576957201021e-01,
          -1.0012333768821388e-01, 4.7332595360550067e-01,
          2.0334618486442526e+01, -1.8735734228434733e-01,
          1.4185453120464417e-01, 2.7520352905791895e-01,
          1.1496241378570345e-01, -5.2022508372997621e-02,
          -4.1774701536468499e-02, 4.2686966525657893e-01,
          1.2333622995227290e-01, 4.5496118265860835e-01,
          -1.4425806915923173e-01, 7.6099741889522593e-02,
          2.1450674983204363e-01, 2.4076173455390470e-01,
          -2.2957227352324866e-01, -3.9423967003460840e-02,
          1.8462469683283004e+01, -2.5936188698045171e-01,
          -9.1785685612333235e-03, 6.4086992922936847e-02,
          -8.9257699586128642e-02, 3.1626531364691801e-01,
          1.6157107935434659e-01, -2.6240343388641580e-02,
          2.7684173660312439e-01, 6.5840548392427156e-01,
          -2.0027007291240062e-01, 6.5920661964636879e-03,
          1.6161997991507765e-01, 1.4212941553988273e-01,
          -2.1749323128546014e-01, -2.7958886848499975e-01,
          -1.2489274677307982e+01, -8.3915784354166953e-02,
          -2.1200665336157462e-01, -4.0660708608726351e-02,
          -2.4576271471803843e-01, 3.5031980244672006e-01,
          9.5446702165406613e-02, -2.2877928521366950e-01,
          4.4407571090636161e-01, 7.9099039410523930e-01,
          -5.2543349750751228e-02, 2.8511229775536811e-02,
          2.7218162013720287e-01, 3.6475420582869023e-01,
          -3.0191847535880606e-01, -1.8285583603398406e-01,
          -2.1590180025779375e+01, 1.2066565236775759e-01,
          -6.2029806122236075e-02, -2.9856665715010736e-02,
          -3.5232664683326237e-01, 3.4146375428064180e-01,
          -3.1332949018297906e-01, -7.9192842312913111e-02,
          1.2903824869629330e-01, 3.4856842590226172e-01,
          -5.2939340520215495e-03, 2.1773927522488043e-01,
          2.0361311480037500e-01, 4.5217121446973008e-01,
          -2.3784888109222255e-01, -3.5650334496960051e-01,
          -2.9174833620992420e+01, -1.7091945527804425e-01,
          2.2456750057888042e-01, -5.7546002241845376e-02,
          -4.5963586595536003e-02, 8.5733885471397625e-02,
          -2.5356339631054781e-01, -1.6047913664238417e-01,
          1.5619197089323547e-01, -7.0457518389027932e-02,
          3.4382475137831081e-01, 3.2990339502937999e-01,
          2.3856553439356079e-01, 6.1430080786287622e-01,
          -3.3023099055480898e-01, -6.9457430447076041e-01,
          -2.3806099039660356e+01, 4.6885553285854148e-01,
          5.1573695682295868e-02, 3.5397891208416959e-01,
          -1.5199308813625698e-01, -9.0477992741451158e-02,
          -2.1137116434940303e-02, -1.8693942052394166e-01,
          2.0123090783222580e-01, -1.6899934694734664e-01,
          4.8153626993740296e-02, -1.2842741143947844e-01,
          4.4785395200064154e-01, 5.4264417110977048e-01,
          -2.0127268934801970e-01, -3.6962092159486143e-01,
          -1.8699231289246850e+01, -1.4015219073227703e-01,
          3.5735226245854934e-01, 6.0403882812678811e-01,
          -1.9906940424556652e-01, 2.3251850328569004e-01,
          9.5048345427584835e-02, -4.4142399552291511e-01,
          4.0303481088720594e-01, 1.1833689739954271e-01,
          2.6492941186565611e-01, -4.9313938943818075e-01,
          7.3174861932769031e-01, 4.0299819867574510e-01,
          -4.0299406333195766e-02, -2.4457085866106928e-01,
          2.5869176597901330e+01, -3.3817818911136510e-01,
          3.9664032640106245e-01, 4.7780959024471142e-01,
          -1.9017864783731112e-01, 3.5131218216833449e-01,
          5.4087061364113664e-01, -4.7652113198587803e-01,
          6.3640410343603948e-01, 4.3963878305115445e-01,
          3.7270221904217782e-01, -4.8034842445812287e-01,
          8.1366798313885236e-01, 1.9808030822277400e-01,
          -3.9938556692802962e-01, -4.2438545450784476e-01,
          3.2036897062647903e+01, -6.5618184464090379e-01,
          6.7963351640973624e-01, 5.2307674995270070e-01,
          -1.2804358166038673e-01, 3.9708952440851475e-01,
          3.0816449512475536e-01, -3.1197306364371619e-01,
          9.8170291880212934e-01, 3.8155543927117236e-01,
          2.5226206518634747e-01, -5.4060387954892875e-01,
          2.2642293311016595e-01, 2.2004987007392701e-02,
          -7.8743476145116820e-01, -3.5478857073277992e-01,
          -6.2489780824069587e+00, -1.9620134196409575e-01,
          4.5567788451566482e-01, 1.2121696423811355e-01,
          1.9137884331325558e-02, -2.7856676238723038e-02,
          1.4324912823332586e-01, -3.0529501174934859e-01,
          8.0876435146927605e-02, 1.9916846805766852e-01,
          3.3104438830824684e-01, -6.8541077974262987e-01,
          -4.7643615208209816e-01, -2.1318407231956351e-02,
          -1.4321038560486363e-01, 8.2467790540296806e-02,
          -2.0249585855260044e+01, -1.6556609507220921e-01,
          7.5532354342654984e-02, 5.4684746261479900e-01,
          2.7278867808610435e-01, 1.7655110199141189e-01,
          4.9107745925524598e-01, 2.8794403037907224e-01,
          2.3767515609234174e-01, 1.7589817154951592e-01,
          2.4747964670055489e-01, -3.7044390149836387e-01,
          1.8456118175834327e-02, 1.7744608023092773e-02,
          9.7738687831610438e-02, 2.4175720554384095e-01,
          -1.9720248884362022e+00, -3.3581265294568746e-01,
          -4.4536129014754573e-02, 8.7597222454358747e-01,
          -3.9550205414554596e-01, 1.9494461535290886e-01,
          1.3372551593215967e-01, 9.6803537583982552e-02,
          2.2726408481825258e-01, 3.8865192728979692e-01,
          1.6294852332830437e-01, -6.9085687385745997e-01,
          3.2847685295447931e-01, 2.2681776790715311e-01,
          8.9030788780224371e-02, -1.5665224440152498e-01,
          3.2728318028575998e+01, 3.7514198241849449e-02,
          -1.7236567884032500e-01, 1.3740163628814278e-01,
          -2.0515572723884606e-01, -5.0409888565535244e-01,
          -7.7316115858627577e-02, 7.7864293312192634e-02,
          -9.3509228628232785e-02, -1.2399124152177657e-01,
          -2.3848210697344316e-01, -1.0565873299405810e-01,
          3.7413412586183958e-01, -1.9868260205494642e-01,
          3.6908867470573825e-01, -2.3073561055512537e-01,
          5.1508411269994397e+01, -1.2363049090254510e-01,
          1.7779926367854620e-01, 7.3639839289884948e-02,
          2.9186467715678849e-01, -2.9677910850498529e-01,
          -6.9974372431326148e-01, 1.7507989791998324e-01,
          -1.9470209131524455e-01, -1.8643573682100559e-01,
          -7.2756260418797414e-01, -3.1073545002445530e-01,
          4.0726251141087122e-01, -2.0313412417609913e-01,
          1.0034759894117096e-01, -1.0034379967946071e-01,
          3.7011332694386705e+00, -7.3125261563736388e-02,
          -1.2403317870956482e-01, 5.2640622484874978e-02,
          1.3221616292425342e-01, -9.1207585368309691e-04,
          -5.8327974181380338e-01, 1.7282488799245521e-01,
          -3.9892941727851666e-01, -1.9480077835173995e-01,
          -6.7617670224423176e-01, 8.3727679809560931e-02,
          7.8445679268413226e-01, 1.1045024048704580e-01,
          -2.3236442619406020e-01, 3.5508667971445564e-02,
          4.3167129894187068e+00, 3.3942323589596764e-02,
          -2.8936389514795419e-01, 2.9285463675999317e-02,
          2.6703348660154097e-01, -5.6442969094467395e-02,
          -2.6613649078455801e-02, 2.6525008928875532e-01,
          -3.4474763491561139e-01, -8.8036201231704789e-03,
          1.0453623608729228e-01, 2.0912391408865119e-01,
          4.8970709581561034e-01, 3.4700790553041655e-01,
          -3.7320250881944361e-01, 1.6642032147607999e-01,
          2.3977115464530183e+01, 1.1756387114098156e-01,
          1.4648400672915134e-02, 7.0031099625836687e-02,
          1.4651273426388042e-01, 2.5664955460218403e-01,
          -1.1626671001965797e-01, 5.9939476375258871e-01,
          3.1081910146389130e-01, 3.1626076590316027e-01,
          -5.2505728248570235e-02, 2.8749931158322256e-01,
          -2.3581188917228602e-01, 2.0471038475366155e-01,
          -3.5492470391530023e-01, -2.1812739426944791e-01,
          6.8616390671676148e+00, -3.9084097252634142e-01,
          -1.5792272818075676e-01, 3.2795428394821463e-01,
          -1.6790147251887244e-01, 2.7633595912336267e-01,
          2.9424152002707687e-01, 2.9914381683429261e-02,
          4.7652076804331023e-01, 8.2524838882327378e-01,
          3.3717333193730610e-02, -1.5063704851808821e-01,
          -1.1068172198856870e-01, 2.3631939076582237e-01,
          -1.1744323525660758e-01, -5.1539866055167283e-01,
          -3.3982163295450960e+01, -2.2648126431490140e-01,
          -1.4523678504356616e-01, 6.9490834262878654e-01,
          -3.2712926422401134e-01, 2.0271702760319701e-01,
          2.9901914626953441e-01, -2.3448250754598440e-01,
          5.4148541082495349e-01, 8.4471083681422066e-01,
          2.0570976411941716e-01, -4.6789383397803724e-01,
          5.7102119295679654e-01, 1.9288090998428206e-01,
          -3.0819701496325425e-01, -7.3487183620691077e-01,
          -2.1263342097933663e+01, -5.9314700246554952e-01,
          1.0231565587758684e-01, 3.4851983715779788e-01,
          -3.0712442861605488e-01, 1.1374330330799827e-01,
          2.3286763400527768e-01, -7.6236973874878725e-02,
          1.5130484401842653e-01, 3.0005824255375579e-01,
          1.3550576785018939e-01, -2.7632552625296819e-01,
          5.4876151523500749e-01, 3.3103537341999123e-01,
          -2.9169350307688469e-01, -6.6620477463243077e-01,
          -1.1164821197788022e+01, -7.3990131171773976e-01,
          6.1033202069809805e-02, 2.1048061545419078e-01,
          5.9828224139000838e-02, -9.2550609610632280e-03,
          4.9245792716086985e-02, -1.4087237871394007e-01,
          1.4504032241481313e-01, 2.1919325745710860e-01,
          1.0019564669733889e-01, -1.1969214599019874e-01,
          3.4119349673872973e-01, 4.0188666115775323e-01,
          -1.9881755591379849e-01, -4.6441527599419263e-01,
          -4.1608395354348060e+00, -5.1616844280773189e-01,
          1.2411504520826552e-01, 3.4680746825040470e-01,
          -4.8341843397480871e-01, -2.1276099330165601e-05,
          1.3466316535283024e-01, -2.0533837979266067e-01,
          -1.1702936165724534e-02, -7.0640312787707005e-01,
          7.3237543518357304e-02, 9.2009768224839111e-02,
          3.9194264058271117e-01, 2.7978414476285879e-01,
          -4.1440540287516120e-01, -6.0100366883538248e-01,
          -2.2118955487804929e+01, -2.1397576047002873e-01,
          1.2772883520763892e-01, 5.4147899005070854e-01,
          -5.1322545283330123e-01, 3.5797150582560033e-01,
          2.2527125318176991e-01, -5.1072345394470353e-01,
          4.3776591147060051e-01, 4.9247535890520691e-04,
          7.0230516856695610e-02, -3.7941681810403072e-01,
          5.2120003940160675e-01, 3.8189420829378240e-01,
          -3.7149881145825608e-01, -3.8497617432548203e-01,
          -2.9226544830602772e+00, 6.6372231110432112e-02,
          3.2098236393855395e-01, 4.5531161891246907e-01,
          -4.9480449846712304e-01, 4.6187924157411958e-01,
          4.4327874097564113e-01, -4.9855745280158170e-01,
          8.9197993975573719e-01, 2.5306367859060497e-01,
          2.2881201708359408e-01, -4.6721767202887843e-01,
          4.5794948344454744e-01, 1.4825500350309168e-01,
          -4.6348017668713637e-01, -3.6984447784249891e-01,
          2.9655430786378762e+01, -2.8504638451719833e-01,
          4.8405801185168257e-01, 4.2961845897564177e-01,
          -9.1238644916733280e-01, 5.0606711691598438e-01,
          6.9570270610946083e-01, -4.8491965970369710e-01,
          4.9672491657066153e-01, 9.5799575708926721e-02,
          1.2796771435853399e-01, -3.4444232985196316e-01,
          7.2441873613020999e-02, 1.9247100540804105e-01,
          -5.9018719698418254e-01, -1.7790707235565198e-01,
          -5.7550117281053010e+00, -2.5635903118839620e-01,
          1.9696872679811581e-01, 3.1465854708416485e-01,
          -5.1828652134483777e-01, -2.6176508570472080e-02,
          3.2611139760709823e-01, -4.4660851000419571e-01,
          1.8381777276761654e-02, -2.8628032877636506e-02,
          1.2285786728696863e-02, -2.3361157035149308e-01,
          -7.3059237186948667e-01, 1.7087673397391709e-01,
          -6.8916437145336318e-01, -1.7465845970038077e-01,
          -2.6912248847813579e+01, -7.8814193260889939e-02,
          4.8265314450131609e-02, 5.5900487968440227e-01,
          -1.6912991712301004e-01, -1.3071283540816750e-01,
          6.1809451801526705e-01, 1.5615866398352399e-01,
          1.4055137609482773e-01, -2.0013268266201961e-01,
          5.8891741788712725e-02, -2.7688888727483202e-01,
          -1.8328333121320742e-01, 1.6203200425729983e-01,
          -4.5891552894332044e-01, 2.4953417549031487e-01,
          -6.7079631252725296e+00, -1.3229174605925356e-01,
          1.2585523922657832e-01, 1.0386481027841015e+00,
          -5.5299177937437893e-01, 1.9801945670318455e-01,
          2.0897174400538501e-01, -5.7358603916440022e-02,
          1.6011662047444081e-01, 4.5968323709107273e-01,
          2.8927692631083957e-01, -6.3979552633585146e-01,
          5.2032485838879861e-01, 5.1910114862883650e-01,
          -1.2201586606187428e-01, 2.5938826462434106e-01,
          3.2272563515601085e+01, -6.8790778050274282e-02,
          -2.4597666431541283e-02, 2.0606159282299408e-01,
          -4.4874951670165214e-01, -1.0678584556952228e-01,
          -6.3961751546168247e-02, -1.0749102727964550e-01,
          -6.2535324864130090e-02, 2.5335829170394525e-01,
          1.4854300339436638e-01, -3.2591146874026039e-01,
          4.3982803577875268e-01, 4.6329717885302663e-01,
          4.5323237090937712e-01, 1.3367356163554650e-01,
          2.5048786982343074e+01, -1.8963371777841881e-01,
          3.0123718488041717e-01, -1.2905834688475681e-01,
          -1.2767397181689102e-01, -2.8396159612827467e-03,
          -6.0992477009413248e-01, -9.2444020559862047e-02,
          -9.9753795766013800e-02, 2.4215908749291287e-01,
          4.4489046043920347e-03, 5.9599643924899165e-02,
          3.8529820558655559e-01, 1.0616637829824060e-01,
          1.4959918716142193e-01, -1.7399694220046346e-02,
          -1.4145575960947030e+01, 2.5355872648813638e-01,
          -3.7458439482686506e-01, -3.1606740206173772e-01,
          -1.9861176648021572e-01, -1.6586681625209118e-01,
          -4.9939162121619707e-01, -4.6783340156158604e-01,
          -5.6805657987551961e-01, 6.3741106803929901e-02,
          -4.0630348985060338e-01, 3.1205028947864472e-01,
          7.5334736743157538e-01, -6.1049978144554973e-01,
          -4.0432401951944703e-02, 1.6183060289553290e-02,
          -1.4859746114173952e+01, 3.0651767342548836e-01,
          -4.6805559621605691e-01, -1.8169110712255895e-01,
          9.1911724688433546e-02, -6.9197224972723861e-02,
          -3.4590161107630496e-01, 1.5269351027579439e-01,
          -5.2067388812267323e-01, -5.2974351743447956e-01,
          -8.9151311554327109e-02, 6.4394643436358712e-01,
          2.0090009355611141e-01, -2.0752991354842404e-01,
          -3.6075174602327104e-01, 4.6304568099061742e-02,
          1.8108779928004736e+01, 5.5176628304883479e-01,
          -2.4871041171030228e-01, 5.6000768435908843e-01,
          6.5495438420731644e-03, -4.6079091458703386e-01,
          2.7516636736630407e-01, 3.5309994185890459e-01,
          2.0018074414969897e-01, 1.0495318592838970e-01,
          4.6030216445537786e-02, -3.7906437239781217e-02,
          -4.0958142866202285e-01, 2.1165904085258411e-01,
          -7.5822924178196816e-01, -1.2803650866149360e-01,
          -6.9442070420429616e+00, 1.9599515375414206e-01,
          -5.1829061832381207e-01, 5.0961507133206629e-01,
          -3.0795060950494224e-01, -1.4509576659603546e-01,
          2.1445136824012695e-01, -1.5893380954869296e-01,
          4.9137064221605370e-01, 7.2765246808581119e-01,
          2.7169265990745101e-01, -2.9679019348662561e-01,
          -1.0789379555019810e-01, -2.1063935077664364e-01,
          -3.5072398782049730e-01, -2.8586084628019698e-01,
          -3.5959222972923826e+01, -1.1435878100024811e-01,
          -2.4904518814646834e-01, 3.6477518139793064e-01,
          -4.1947965088656547e-01, 1.2198306442663143e-02,
          2.6625871748641639e-01, -2.7783019119445784e-01,
          8.2947066859948140e-02, 5.6566750390365816e-01,
          3.7188275366067947e-01, -3.6453712320214166e-01,
          2.7639647279856444e-01, -1.3569298505328814e-01,
          -2.9540266141871424e-01, -2.6914918367777774e-01,
          -2.7843759538415735e+01, -2.5807534674244426e-01,
          1.7720266426258521e-01, 3.0104151632682286e-01,
          -3.4147955631897897e-01, 1.2675186042032860e-01,
          2.8508351127053677e-01, -2.3533116317972641e-02,
          9.9163979897980203e-02, -8.5225157345721697e-02,
          1.6076129726765598e-01, -3.0921961750779525e-01,
          3.7454885455081938e-01, 4.8599269503784265e-01,
          -4.5815762613007849e-01, -4.4439131684496835e-01,
          -3.3417038655499884e+00, -7.0842315728164540e-01,
          1.4701108290898615e-01, 2.8418790066652994e-01,
          -4.6462456121368137e-02, 1.4437158746999909e-01,
          1.6431305888342945e-01, -1.3200937854121922e-01,
          2.2695901463542945e-01, -3.5407407577326311e-01,
          -5.6837562854622145e-02, -1.6972496966159209e-01,
          2.7950520669468448e-01, 6.2158248236052351e-02,
          -5.0276346512618386e-01, -4.3737325960423973e-01,
          -1.7885210792811641e+01, -7.1445386716707149e-01,
          1.3435942650680818e-01, 4.5078630630678063e-01,
          -3.7233646992983033e-01, 2.7762797408891010e-01,
          3.3292047975612504e-01, -2.2177700340068612e-01,
          -8.3981900555936934e-02, -5.4720729366351595e-01,
          6.2964578658301087e-02, -2.0048778983754631e-01,
          4.4039405625399519e-01, 4.2302456424795559e-01,
          -5.0278303557877047e-01, 8.0557723525843922e-02,
          -2.6810990138233223e+01, -6.0525493980591105e-01,
          -1.8765228768335201e-01, 2.2070468377468525e-01,
          -4.7785238400831986e-01, 3.6059981605584673e-01,
          3.0403093730773600e-01, -5.8777882204826160e-01,
          6.0341574040386803e-01, 2.4686991259762062e-01,
          1.3987871002977573e-01, -1.1893833492153531e-01,
          3.4209920726823612e-01, -2.7455336985003735e-02,
          -5.1655838578196178e-01, -2.3333224027874372e-01,
          -1.6139655993216131e+01, -2.8455350068352159e-01,
          1.7871660989145122e-01, 2.6674787167534009e-01,
          -5.5492046869702294e-01, 5.6794242361085745e-01,
          4.2899020977889502e-01, -6.0712323388385325e-01,
          1.0013632860993762e+00, 4.3063855924414912e-01,
          4.6551309547714159e-01, -3.7971851730246597e-01,
          3.3338674923123623e-01, -2.1160407911879725e-01,
          -5.5784721474205556e-01, -3.1313166520130614e-01,
          1.2044091879365380e+01, -6.3495221409793123e-01,
          6.0423087310079415e-01, 5.1959180109109071e-01,
          -9.3153873428737766e-01, 7.0870176531733953e-01,
          7.1098971807791278e-01, -5.0962826146678830e-01,
          8.0939577002375840e-01, 4.9682839277639612e-02,
          3.6741007962102334e-01, -5.2054850165040190e-01,
          2.8578809879708028e-01, 2.0895432863546923e-01,
          -5.9447749259198668e-01, 6.4491592568473597e-03,
          -1.0449034777580273e+01, -2.8130113608004531e-01,
          1.0503634766188200e-01, 3.0316128639120937e-01,
          -6.7179225652059937e-01, 2.5968259367192542e-01,
          6.0104330365702219e-01, -4.7711887513080153e-01,
          1.6930855728977678e-01, 1.1000906164109247e-02,
          1.6755838890126332e-01, -4.5534482295902345e-01,
          -5.5181167553957955e-01, 3.0306546079988173e-01,
          -3.6279319659932024e-01, 2.4329645394678856e-01,
          -2.8940291560351771e+01, -5.8152299159198262e-01,
          -8.4294001794829321e-02, 5.0391158846548600e-01,
          2.6353475853628586e-02, -3.7032626702940233e-02,
          3.8491207441341374e-01, 1.6900414563458180e-01,
          4.2439547402298783e-01, -2.2144142481238882e-01,
          1.1290688113410152e-01, -4.0312776728932270e-01,
          -2.1838676070197921e-01, 4.3871747244257803e-01,
          -5.2451014669770513e-01, 5.9655918781467421e-01,
          -3.5802224806819440e+00, -7.1043120549579980e-02,
          2.3505767068414243e-01, 8.1306672899780208e-01,
          -3.7921820222664521e-01, 1.5017291706169378e-01,
          3.2539353292055526e-02, -5.3553379173828353e-01,
          1.3322939934239000e-01, 9.4023817725253003e-03,
          4.2661080058661016e-01, -3.1912016835746010e-01,
          5.2707249823198554e-01, -8.7365060983314549e-02,
          -2.8577826452445981e-01, 4.8231396111946373e-01,
          2.6003479790159410e+01, 6.3195631358690385e-01,
          1.0418746519286205e-01, 6.9038016635856111e-02,
          -2.8060063713902250e-01, 3.3435364640308600e-02,
          -4.1875615375335357e-01, -4.0129731892529205e-02,
          -1.9320940835526146e-01, 1.0961813566945082e-01,
          2.1769806593986504e-01, 3.8141067635915915e-01,
          -2.0394393755871400e-02, 1.3376218524016406e-01,
          3.9158994657568880e-01, 6.2685441735610636e-01,
          1.1943370632151000e+01, 3.5937091467653315e-01,
          4.7003335603680821e-02, -2.0308140442397027e-01,
          -1.7283732814005132e-01, 2.6678171950857288e-01,
          -1.4298790635940681e-01, -1.7262676696699575e-01,
          -7.9113597761018561e-02, 6.5144342866546123e-01,
          2.6328231438726468e-01, 3.8259114786460191e-01,
          -7.4323376926285656e-02, -7.2845835540630399e-02,
          5.1460192172643082e-01, 5.6519939623606275e-01,
          -3.2814042580761926e+00, 2.3954512859219998e-02,
          -4.1838801154141420e-01, -6.7858860625096784e-01,
          -2.6399138734636851e-01, 3.9910140321726191e-02,
          -4.2914741431310838e-01, -3.9778482085085365e-01,
          -4.8245869365611510e-01, 1.0388646991385861e-01,
          -1.8643742311169015e-01, 4.3796570147060465e-01,
          5.2785344239172152e-02, -4.7754669027418806e-01,
          -3.5169785210893123e-01, 6.7279569749354493e-02,
          -2.2210155066419541e+00, 7.7907931541853559e-01,
          -5.3358006574406081e-01, -1.1618604396326006e-01,
          -1.5787391976786663e-01, -4.7382149545349356e-01,
          -4.4233203860110776e-01, -3.2838313679808623e-01,
          -3.9428171850865068e-01, -3.4465757952234893e-01,
          -2.9545735922803484e-01, 1.8276379465502557e-01,
          -1.0065720810444780e-01, -6.2285926815624482e-01,
          -4.0176655540934580e-01, 4.9176072774084550e-01,
          4.7905648100713814e+00, 6.8820891468310108e-01,
          -3.1318472339455888e-01, 2.4973563788509714e-01,
          -3.0020354734616844e-01, -4.2468625812417049e-01,
          7.7857569266908608e-02, -9.5729358103670212e-02,
          -1.0307416796669980e-01, -1.9229604559436858e-01,
          2.1541887808274018e-01, 1.7223788036013749e-01,
          -2.7211173100901892e-01, -1.3795603247262847e-01,
          -6.4775038782497063e-01, 2.5698224049715512e-01,
          -1.8934856727091972e+01, 4.0463169523989190e-01,
          -2.1985556155908903e-01, 6.4744367509809653e-01,
          -5.9607624343633603e-01, 1.0482458574854403e-01,
          2.5255900595730746e-01, -1.0872703535157151e-01,
          7.8172067756327360e-02, 2.7652474721372888e-01,
          2.9967255276536120e-01, -2.5411318390936383e-01,
          -8.9552045194004115e-02, -1.2873781582913063e-01,
          -3.5963989686841080e-01, 2.1100694905361311e-01,
          -4.3405490292137898e+01, -4.1134945302122000e-02,
          6.4728650560381060e-02, 2.8895369198140330e-01,
          -4.9767372962193784e-01, 1.9565275250058886e-01,
          2.7454175761233374e-01, -2.6540639935221261e-01,
          -2.9535019538316759e-01, 4.4751690007569228e-01,
          1.2580031055375968e-01, -1.0626893608894734e-01,
          1.4165233833323551e-01, 2.3183671219455210e-02,
          -3.0744055408089971e-02, 1.2034364775547757e-01,
          -2.2051129984914052e+01, 1.2385962788093443e-02,
          -7.6421841553789019e-02, -6.6044878278814098e-02,
          -3.4017749235994993e-01, 1.9804753397432395e-01,
          2.7646634862517772e-01, -6.2345043274910361e-01,
          -1.6555337705307879e-01, -7.1875144908295316e-02,
          -3.3268929352098624e-02, 1.3332483289033126e-01,
          1.5302833535143102e-02, -3.0394870229150012e-01,
          -1.5752154980265767e-01, 3.5997186095909572e-01,
          1.3606412856565280e+00, -8.6896220218329011e-03,
          -1.4343758860877232e-01, -2.8264609537554725e-01,
          -1.6221593618688446e-01, 1.5815888398330821e-01,
          2.0159111566594651e-01, -7.0217451592449032e-01,
          -1.3280007955598827e-01, -5.2718562208282316e-01,
          -4.9750692898734800e-01, 1.8825820492509290e-01,
          -3.2212393232497805e-01, -9.3773782024298546e-01,
          -1.0347804712881843e-01, 6.1925207136115312e-01,
          -1.0953170638525669e+00, -7.4118751635869051e-01,
          -1.4834882868083263e-01, 5.0220233240097951e-02,
          -2.7933985473879197e-01, -2.3801610215678427e-02,
          2.3221817096683303e-01, -6.0173062505961272e-01,
          1.5946083072326955e-01, 4.9161165229065391e-02,
          3.6927002988585789e-01, 4.5480211027022210e-02,
          3.4960252749879750e-01, -1.8774439151461766e-01,
          -3.2496543463713568e-01, 4.0303341222204636e-01,
          1.5323944999642936e+00, -6.5452459837500188e-01,
          -1.8866537402291417e-01, 2.4849253357973408e-01,
          -2.9425892718587821e-01, 2.7389239587793413e-01,
          3.5325361380375569e-01, -4.2066003772078164e-01,
          7.2388139665076778e-01, 2.9595294705180913e-01,
          2.8101637965045584e-01, -9.8462441921643495e-02,
          4.5730180882765914e-01, 2.5097901809744839e-02,
          -3.3681102904921162e-01, 3.1438997544937231e-02,
          -1.3077515624582153e+01, -6.5376247540490828e-01,
          4.1419135764466058e-01, 1.9758429810278250e-01,
          -2.9288270383259296e-01, 6.2151990820417424e-01,
          4.7805629768577768e-01, -5.0978429625782040e-01,
          5.5963635447175364e-01, 4.8870800813127535e-01,
          3.5748729755503206e-01, -4.4301594555002261e-01,
          2.8887368436688604e-01, -8.9100776819599575e-02,
          -4.1444787271308092e-01, -3.1084122260938113e-01,
          3.8850040178645897e+00, -7.8710345828143180e-01,
          6.7120518018935338e-01, 2.0407435436865684e-01,
          -7.0960842052189488e-01, 5.4716399859149989e-01,
          6.6381094115778971e-01, -7.3499203455254047e-01,
          6.2419062018134630e-01, 2.4749166560131511e-01,
          4.5236829373817405e-01, -4.4347012153398063e-01,
          -3.7876367497293881e-02, -5.5368994073426318e-02,
          -2.4739147811711915e-01, -9.1113748352894153e-02,
          -1.5154236684184463e+01, -4.0355974864662048e-01,
          2.9759877940755591e-01, 5.5522342268191471e-02,
          -1.4289382463721401e-01, -4.1276481677576519e-02,
          4.3070964878747958e-01, -5.5333495753585515e-01,
          4.1063162912604212e-01, -5.8283772703942591e-03,
          2.6052793209693481e-01, -6.1253297822244798e-02,
          1.5991171282953263e-02, -1.6920321184730874e-01,
          -1.3208530947407099e-01, 1.2878615425252812e-01,
          -2.7043085524113859e+01, -3.8325582038192185e-01,
          2.0742636885197746e-01, 5.8756703286341375e-02,
          1.6057940490909822e-01, -2.4504570676483056e-01,
          3.5635030170105036e-01, -1.5515547695258558e-01,
          3.6373382486021860e-01, -1.7273434037259572e-01,
          1.7200952649271542e-01, 1.0965424930775525e-01,
          7.0310762519513806e-02, -2.7112957151841578e-02,
          7.0718455605112529e-02, 5.5933980181331022e-01,
          -2.7996742947250253e-01, -4.9976434726767149e-01,
          -8.4855163427036737e-02, -1.2264371718812356e-01,
          3.6401772366620802e-02, -1.6758779087874734e-01,
          -3.0911483301935871e-01, -3.0618779913208771e-01,
          -7.6134962193076222e-02, -3.3768835481841031e-01,
          5.9781585315728292e-01, 4.0017595052498489e-01,
          1.5599672805008968e-01, -1.3090718500831466e-01,
          -2.5438736481845942e-01, 1.3402461765743967e-01,
          2.0096394516864379e+01, 6.2253155510340297e-01,
          -2.8525006535500097e-01, -3.2740541465348494e-01,
          5.0194338025331842e-01, -5.9238022196212914e-01,
          -4.9215240516358161e-01, 2.4156634228535043e-01,
          -5.8975902900425381e-01, -5.6586427721826571e-01,
          2.4475942446850185e-01, 9.7848671491515149e-01,
          1.1225169389721187e-01, -2.4996681400557899e-01,
          7.6400163099834550e-02, 1.8315556570084593e-01,
          4.4349939106167309e+00, 5.1640176133797300e-01,
          -2.3914652132710934e-01, -6.8464111640726477e-01,
          9.6921814232719672e-02, 6.6810198569855303e-02,
          -4.7559279506657998e-01, 3.2187702148169861e-01,
          -1.2596645193451031e-01, 7.0397930803747386e-02,
          1.0334183837268029e-02, 6.3799085579061465e-01,
          -3.5019326472104267e-01, -1.2247441998017829e-01,
          2.9453427826346690e-02, 1.3801709501195294e-01,
          -5.8994766328721706e+00, -1.6283095478484932e-01,
          -1.2875076608153471e-01, -4.0641466587045966e-01,
          -2.8889316558849187e-01, 5.2045926861736577e-02,
          -4.5257346978748730e-01, -1.4409398113490351e-01,
          -9.1562905737050129e-02, 2.7054859601939263e-01,
          -1.2256216796848593e-01, 2.0878323026774145e-01,
          2.8141267894099059e-01, -4.6534170322621954e-01,
          1.9866429213634150e-02, -6.1808354316046248e-02,
          -3.3322479073728961e+00, 2.9590447477346271e-01,
          -1.5800005129427958e-01, -4.1671216417480283e-01,
          -5.1630853635005824e-01, 1.0222468183227779e-01,
          -4.0002021910671637e-01, 1.3020907091907435e-01,
          -1.8470944827116692e-01, 2.8727744468889088e-01,
          -3.0773830026034923e-02, 2.6495457194888611e-01,
          9.2032198337491128e-02, -4.4970631522838389e-01,
          3.8673928741542307e-01, 3.9122306633501874e-01,
          -5.8302447784198632e+00, -1.2758851648296787e-01,
          3.1157392542979656e-01, 8.5029267128235220e-02,
          -5.4838030801173565e-01, 6.9320583378459089e-02,
          1.5263434883816324e-01, -2.4878608160029408e-01,
          3.2434871442430019e-01, -8.0148991993524585e-02,
          6.4312632592327523e-01, -2.5842104237440999e-01,
          1.3015811818610501e-01, -3.9732690370922752e-01,
          -1.9079761660715980e-01, 2.2338162563610015e-01,
          -2.4508451888476966e+01, -4.7491555971705518e-01,
          2.8193177246755413e-01, 3.5343389645657708e-01,
          -5.0395668045495778e-01, 2.4296452313419112e-01,
          3.9507405768755999e-01, -1.9244117312362635e-01,
          1.2026503811727998e-01, -1.3848245652583568e-01,
          5.0939330351829115e-01, -2.6957324577654979e-01,
          3.4627200048440943e-01, 7.9849571674269718e-02,
          -3.3867747681776644e-01, -1.2258234117033862e-01,
          -3.1785540088640644e+01, -9.8976542098914866e-01,
          4.9047381344683144e-02, 7.8218159042327068e-02,
          -3.1594805094975725e-01, 9.3130619180852151e-02,
          3.6032898496171012e-01, -2.7018428041690756e-01,
          -4.2375575943226401e-01, 1.9273351405791669e-02,
          3.3386325357986824e-01, -2.1147682821701133e-01,
          2.5415383708969391e-01, 2.1390196959670765e-01,
          -5.5449752850411882e-01, -2.2010999343970022e-01,
          2.5999308811436581e+00, -1.4971592792904909e-01,
          -1.1083958442126614e-02, 6.1530511879752663e-02,
          -3.2503069032677312e-01, 2.3751704220134670e-01,
          2.6339898077266216e-01, -4.6415683435831984e-01,
          -2.6278649258889247e-01, 3.9192200173282199e-01,
          -1.0504204032510643e-01, -1.5420850615211498e-01,
          -2.8268413656530716e-01, -1.2709021185283628e-01,
          -8.3351997769988764e-02, 5.0576888557987087e-01,
          3.1113937110064671e+00, -4.7175401346054156e-02,
          -2.8630556074590685e-01, -3.2381419098504921e-01,
          -1.6875145372758255e-01, -1.6504332762649260e-02,
          1.9725780191428555e-01, -7.2697562027587714e-01,
          -6.7908098918112544e-02, -1.8022477338982898e-01,
          -2.6220759866405047e-01, 2.4203373199107262e-02,
          -3.5424158268207867e-01, -6.5138947738830888e-01,
          -2.1023931282963818e-01, 6.6756643734958754e-01,
          -1.7271142312504082e+00, -2.4783234683490343e-01,
          -2.6951302396509658e-01, -1.0227762283050762e-01,
          -5.9376917738949188e-02, -1.9717094764054791e-01,
          8.2349807242971723e-02, -6.4706144342307803e-01,
          9.2334515429593411e-01, 3.4254557551343850e-01,
          1.7979483626934115e-01, 2.9159388992976518e-03,
          2.7631423575857222e-01, -6.0150728509722062e-01,
          2.2376148681253338e-01, 1.0863354148099019e-01,
          9.1480679223312311e+00, -4.0093827597699755e-01,
          -8.7223113919257217e-02, 2.9288131096798437e-01,
          -8.2801574650681387e-02, 1.6049629658393941e-01,
          2.2380894974764612e-01, -3.3428469653969911e-01,
          8.2346921682554897e-01, -1.2495902210935828e-01,
          1.4840513893257906e-01, -1.5966056148662905e-01,
          5.9786722696415862e-01, -4.2135482414645702e-02,
          -5.0718286484752663e-02, -1.1752139508394761e-01,
          -2.3780826272189222e+00, -5.0335202149503866e-01,
          4.4980829365351865e-01, 2.3867480418951845e-02,
          -2.3406385221886611e-01, 4.5648184692491917e-01,
          4.4208227870907058e-01, -3.3388949069005969e-01,
          7.8371667171174053e-01, 3.7190697682834684e-01,
          3.1526303164216152e-01, -5.3545352815812186e-01,
          5.8607691411102947e-01, -2.5008855031621013e-01,
          -1.5725956336047114e-01, -4.9884566292174165e-01,
          4.6036211387179753e+00, -5.5573658582324004e-01,
          7.2057640917095001e-01, -1.2271323578032145e-02,
          -6.1073881657457718e-01, 3.8088084621270951e-01,
          6.3371297025406592e-01, -4.4621285415504680e-01,
          4.3516118263049830e-01, 5.6274381851095501e-01,
          3.8581681386253713e-01, -2.7353660343731845e-01,
          3.0880708337602720e-02, -1.5188304710185549e-01,
          -9.5754823286561611e-02, -5.2429456711493938e-01,
          -5.9501552568979904e-02, -2.6085154420349255e-01,
          2.9082812648894764e-02, -1.5065468887365493e-01,
          -1.2856190047404023e-01, -2.7225968292581205e-02,
          1.9120605625742382e-01, -5.8464726627365138e-01,
          5.6897363129865930e-01, 9.7458406387731400e-02,
          4.1298691939947940e-01, 1.4987708447860004e-01,
          -9.7369507468391334e-03, -1.9995731884674540e-03,
          -4.7905229296685786e-01, -7.9084496329536805e-02,
          -2.1295441441292702e+01, 2.7582873746270387e-01,
          -4.2379900825775962e-01, -3.0987159522513524e-01,
          1.3221683302847645e-01, -7.5362203192905852e-01,
          -2.9290292040621502e-02, -1.6528107103030415e-01,
          -1.9839400814293162e-01, 6.0670744760307406e-02,
          4.0056105708917095e-01, 5.2666473338368425e-01,
          9.4790788392233399e-02, -5.7621926618866635e-02,
          2.4314950935492399e-01, 4.6923958961526185e-01,
          -2.1710046840317418e+00, -7.3499358084038097e-02,
          -2.5476257440748762e-01, -4.1792206899560574e-01,
          -4.7863521512608947e-01, -6.5902762429053940e-01,
          -4.7654816928135302e-01, -5.4042710393909987e-01,
          -1.8528911439380608e-01, 2.4496426654901232e-01,
          4.8669074642471355e-01, 4.7492707649607346e-01,
          -1.1907278881276667e-01, -1.1136506983975362e-01,
          1.8327009183967763e-01, -4.6570490227608910e-02,
          1.9122512490940885e+01, -1.6178973639039994e-02,
          -4.6381206063080260e-01, -4.2142541928286847e-01,
          4.4110841935150458e-01, -4.6448818761237459e-01,
          -2.8546110045527928e-01, 8.4908420109736343e-02,
          -1.0748657994129901e-01, -6.5345370067128861e-01,
          2.6760087135524868e-01, 6.4851872431173230e-01,
          -1.9128108867505175e-01, -3.7246648303628546e-02,
          1.8193736898053264e-01, -3.4388247013869255e-01,
          -2.1657509567569235e+00, 3.3447199910276676e-01,
          -4.0550580392263488e-02, 1.9719505486029233e-02,
          4.5947252780010811e-01, -3.6023161148842006e-02,
          -2.6695821051905760e-01, 4.1753848375103270e-01,
          3.8950786305490964e-01, -4.0585290490258386e-01,
          1.3872616865175663e-01, 1.4160615267470933e-01,
          -9.7311852982381833e-02, 8.5783431827589809e-02,
          -8.4512564115114097e-02, -5.2301619424552991e-02,
          -1.6527171066859512e+00, 4.0296216420382303e-01,
          -2.5218870055747761e-01, -1.6601258422291348e-01,
          -1.0042540926908550e-01, 1.4132408433677346e-01,
          -3.7103728028586186e-01, 4.6018009785512390e-02,
          8.8050931735060400e-02, -2.5534027660241661e-02,
          4.1881980386800421e-01, 4.0756443358974931e-01,
          2.8817207562140124e-01, -7.6037133615288313e-02,
          2.6964761456881647e-01, 1.0253673889666015e-01,
          6.4241723254794503e-01, -1.0148851353511189e-01,
          2.5709491153389291e-01, 1.2030854567378228e-02,
          -3.6301014717228475e-01, 3.5474927368464743e-01,
          -2.7200227816301825e-01, -9.6511954571279521e-02,
          8.3940545898770008e-02, 1.7554432881597599e-02,
          -1.4829178042143681e-01, -2.8854949544267771e-02,
          9.8465479000376732e-01, -1.1201733927537272e-01,
          3.8028433631406261e-01, 6.1224997999015240e-01,
          1.2711206734936733e+00, -3.2061830630721927e-01,
          6.9731421673038008e-01, 4.0153942821155453e-01,
          -5.0475504495801848e-01, 3.9563246889777903e-01,
          3.4228916053867459e-01, -2.9976310467427852e-01,
          5.3342904588257900e-01, 1.4617480059551941e-01,
          4.3067362587541369e-01, -5.2548786067051634e-01,
          5.6542452054643988e-01, 1.4074053011948096e-01,
          -2.9951239372508664e-02, 1.7953224676212867e-01,
          -2.9443240982694718e+01, -2.3501689115934737e-01,
          2.4369568396086713e-01, 3.2648610777118775e-01,
          -4.7860047196195193e-01, 2.7212879109880772e-01,
          4.3173958856432015e-01, -4.0563011306036184e-01,
          1.4233708249773136e-01, -1.3157923557920618e-02,
          4.9672212008199551e-01, -2.5100721034416235e-01,
          4.2289021069514071e-01, 5.5659312591563495e-02,
          -2.6950255955781277e-01, -3.6141365717211832e-01,
          -2.9030270111489994e+01, -7.0430804638018285e-01,
          2.3284149102128482e-01, 2.0600316901595236e-01,
          -2.2790254159837700e-01, -5.8950582255305937e-02,
          3.6214512553135880e-01, -4.5069917343785831e-01,
          -2.9571093116811714e-01, -2.9765506825024230e-02,
          3.1918970358674714e-01, -1.6558223042335821e-01,
          3.6940320654139069e-01, 6.8918028463893638e-02,
          -2.5639067158414303e-01, -4.2953276516580741e-01,
          1.7186834010379322e+01, -5.2786040271429169e-01,
          5.0091319933784288e-02, 1.9145641635692223e-01,
          -8.6014908957477654e-02, -7.7335577951410384e-02,
          2.6451257347033807e-01, -4.2823990756430297e-01,
          -5.7643522465836115e-02, 4.2795703940983615e-02,
          -4.4649082884536374e-02, -3.2032215046885382e-01,
          -2.0444364288223724e-01, -3.7056069796424995e-01,
          -4.0372125556880695e-01, -2.0718009039245547e-01,
          1.9702104233286772e+01, -5.9061856954400560e-01,
          -3.0235338369204251e-01, -3.5732376783672054e-01,
          -1.0491899487387203e-01, -4.9280569421958263e-02,
          3.6083669689188358e-01, -7.7202505375762243e-01,
          -5.5854125600527736e-02, -5.9601418425984758e-02,
          -1.0476352703113254e-01, -2.3781976948486414e-01,
          -1.8670761802005698e-03, -5.2912078095275483e-01,
          8.3852369432140111e-02, -3.5148328607403086e-02,
          7.5698414240297360e+00, -3.5203474376227417e-01,
          1.2364776746682211e-01, 3.7928298221006462e-01,
          -6.7282299229674228e-02, 2.0626769063419126e-01,
          7.3658727981666172e-02, -1.5602918585625239e-01,
          4.4354562061389807e-01, 3.1835100203920663e-01,
          -1.9899280463835944e-01, -2.6968732585997207e-01,
          4.9584651047345046e-01, 3.7008119381156518e-01,
          4.7250677660791572e-02, 8.6611492564270504e-02,
          1.9752216876425685e+01, -3.0688530980499368e-01,
          2.9428577534556813e-02, 3.0045438702284866e-01,
          -3.1699104108547599e-01, 8.5327968301550067e-02,
          2.0510423456082219e-01, -2.5306707204249790e-01,
          4.7044892832553531e-01, -6.6548073573484245e-02,
